{"learner":{"attributes":{"scikit_learn":"{\"_estimator_type\": \"classifier\"}"},"feature_names":[],"feature_types":[],"gradient_booster":{"model":{"cats":{"enc":[],"feature_segments":[],"sorted_idx":[]},"gbtree_model_param":{"num_parallel_tree":"1","num_trees":"146"},"iteration_indptr":[0,1,2,3,4,5,6,7,8,9,10,11,12,13,14,15,16,17,18,19,20,21,22,23,24,25,26,27,28,29,30,31,32,33,34,35,36,37,38,39,40,41,42,43,44,45,46,47,48,49,50,51,52,53,54,55,56,57,58,59,60,61,62,63,64,65,66,67,68,69,70,71,72,73,74,75,76,77,78,79,80,81,82,83,84,85,86,87,88,89,90,91,92,93,94,95,96,97,98,99,100,101,102,103,104,105,106,107,108,109,110,111,112,113,114,115,116,117,118,119,120,121,122,123,124,125,126,127,128,129,130,131,132,133,134,135,136,137,138,139,140,141,142,143,144,145,146],"tree_info":[0,0,0,0,0,0,0,0,0,0,0,0,0,0,0,0,0,0,0,0,0,0,0,0,0,0,0,0,0,0,0,0,0,0,0,0,0,0,0,0,0,0,0,0,0,0,0,0,0,0,0,0,0,0,0,0,0,0,0,0,0,0,0,0,0,0,0,0,0,0,0,0,0,0,0,0,0,0,0,0,0,0,0,0,0,0,0,0,0,0,0,0,0,0,0,0,0,0,0,0,0,0,0,0,0,0,0,0,0,0,0,0,0,0,0,0,0,0,0,0,0,0,0,0,0,0,0,0,0,0,0,0,0,0,0,0,0,0,0,0,0,0,0,0,0,0],"trees":[{"base_weights":[-2.9637292E-4,-1.0687529E-1,3.860701E-1,-1.8541415E-1,1.4809658E-1,2.5518692E-1,6.669663E-1,-2.2529292E-1,2.7323264E-1,3.3209324E-1,1.2968115E-3,3.1217912E-1,-2.5115493E-1,7.492102E-1,3.8236976E-1,-2.89087E-1,-5.3622566E-2,2.843433E-2,4.707519E-1,5.4173136E-1,1.8886624E-1,5.8795605E-2,-3.3215326E-1,2.1205485E-1,6.51413E-1,-5.678886E-1,6.1227832E-2,6.1902666E-1,1.0335206E0,1.4392295E-1,7.863793E-1,-3.296572E-1,-6.7606166E-2,7.017201E-2,-2.528875E-1,-1.0760435E-2,6.9754314E-1,6.305617E-1,2.509428E-1,8.392604E-1,4.3785027E-1,3.159602E-1,6.077284E-2,1.8701883E-1,-1.3662335E-1,-2.3826724E-1,-1.1057378E0,2.5008333E-1,-8.960824E-2,9.515646E-1,4.9264044E-1,-6.813955E-1,5.62869E-1,3.368742E-1,-2.8732362E-1,6.4237535E-1,-4.290935E-1,1.0819384E0,1.13852024E-1,-3.9289263E-1,3.381433E-1,9.582595E-1,3.4893593E-1,-9.63151E-3,-1.727214E-3,-5.2311057E-3,4.7448194E-3,1.1623841E-2,8.0911076E-4,-1.6231902E-2,-5.217806E-3,9.649533E-3,-2.023564E-3,-1.2184511E-3,2.4008323E-2,1.937711E-2,8.975118E-3,9.77668E-3,-1.32944025E-2,2.3553139E-2,-2.0048873E-2,9.788147E-3,2.4854328E-2,1.8819143E-3,1.1977856E-2,-1.9041898E-2,2.4927044E-3,2.3088783E-3,1.25234295E-2,-2.9090163E-3,-3.33773E-2,-1.190648E-2,7.278103E-4,-3.35583E-2,1.0415978E-3,5.970079E-3,1.930226E-2,-5.836626E-3,1.0857708E-2,2.6407601E-2,6.5358337E-3,1.5757723E-2,2.7763715E-3,1.5197281E-2,-2.0840997E-2,2.2598514E-2,-1.9407197E-3,-3.4732004E-3,1.4528737E-2,-3.1533933E-3,-4.2521566E-2,2.0549467E-2,1.3608084E-2,-3.1390622E-2,1.7538521E-2,3.3550818E-2,2.6148623E-2,-1.4327119E-2,2.151339E-2,-1.4699459E-2,2.4753662E-2,1.5560863E-2,-1.8828723E-3,2.8882453E-2,1.5528597E-2,1.6569845E-2,-2.3860512E-2],"categories":[],"categories_nodes":[],"categories_segments":[],"categories_sizes":[],"default_left":[0,0,0,0,0,0,0,0,0,0,0,0,0,0,0,0,0,0,0,0,0,0,0,0,0,0,0,0,0,0,0,0,0,0,0,0,0,0,0,0,0,0,0,0,0,0,0,0,0,0,0,0,0,0,0,0,0,0,0,0,0,0,0,0,0,0,0,0,0,0,0,0,0,0,0,0,0,0,0,0,0,0,0,0,0,0,0,0,0,0,0,0,0,0,0,0,0,0,0,0,0,0,0,0,0,0,0,0,0,0,0,0,0,0,0,0,0,0,0,0,0,0,0,0,0,0,0],"id":0,"left_children":[1,3,5,7,9,11,13,15,17,19,21,23,25,27,29,31,33,35,37,39,41,43,45,47,49,51,53,55,57,59,61,63,65,67,69,71,73,75,77,79,81,83,85,87,89,91,93,95,97,99,101,103,105,107,109,111,113,115,117,119,121,123,125,-1,-1,-1,-1,-1,-1,-1,-1,-1,-1,-1,-1,-1,-1,-1,-1,-1,-1,-1,-1,-1,-1,-1,-1,-1,-1,-1,-1,-1,-1,-1,-1,-1,-1,-1,-1,-1,-1,-1,-1,-1,-1,-1,-1,-1,-1,-1,-1,-1,-1,-1,-1,-1,-1,-1,-1,-1,-1,-1,-1,-1,-1,-1,-1],"loss_changes":[6.6924896E2,2.551355E2,1.2893707E2,1.7818585E2,8.098373E1,6.927367E1,2.5767914E1,9.808508E1,3.7594162E1,3.9787277E1,3.1988598E1,7.3023254E1,2.4115799E1,3.1338501E1,2.4065865E1,5.8630127E1,5.9967007E1,9.255884E0,1.4901855E1,1.6241455E1,1.2828798E1,3.573445E1,1.7446465E1,1.9152939E1,2.2863205E1,1.5785252E1,1.1851859E1,1.47825775E1,1.1779297E1,1.6713089E1,6.590683E0,5.0403442E1,3.261101E1,2.1831184E1,1.8484035E1,8.134619E0,3.2067451E0,7.0804367E0,1.6481293E1,1.186618E1,1.3224213E1,1.3215607E1,1.0312484E1,2.4500742E1,1.6619701E1,1.2454839E1,5.11195E0,1.701738E1,1.2274179E1,5.2564697E0,1.2777267E1,1.5121948E1,2.2480283E0,6.9768443E0,1.1671115E1,9.575165E0,1.1571634E1,3.2893066E0,6.952458E0,9.504036E0,1.2163674E1,2.6203537E0,9.924369E0,0E0,0E0,0E0,0E0,0E0,0E0,0E0,0E0,0E0,0E0,0E0,0E0,0E0,0E0,0E0,0E0,0E0,0E0,0E0,0E0,0E0,0E0,0E0,0E0,0E0,0E0,0E0,0E0,0E0,0E0,0E0,0E0,0E0,0E0,0E0,0E0,0E0,0E0,0E0,0E0,0E0,0E0,0E0,0E0,0E0,0E0,0E0,0E0,0E0,0E0,0E0,0E0,0E0,0E0,0E0,0E0,0E0,0E0,0E0,0E0,0E0,0E0,0E0,0E0],"parents":[2147483647,0,0,1,1,2,2,3,3,4,4,5,5,6,6,7,7,8,8,9,9,10,10,11,11,12,12,13,13,14,14,15,15,16,16,17,17,18,18,19,19,20,20,21,21,22,22,23,23,24,24,25,25,26,26,27,27,28,28,29,29,30,30,31,31,32,32,33,33,34,34,35,35,36,36,37,37,38,38,39,39,40,40,41,41,42,42,43,43,44,44,45,45,46,46,47,47,48,48,49,49,50,50,51,51,52,52,53,53,54,54,55,55,56,56,57,57,58,58,59,59,60,60,61,61,62,62],"right_children":[2,4,6,8,10,12,14,16,18,20,22,24,26,28,30,32,34,36,38,40,42,44,46,48,50,52,54,56,58,60,62,64,66,68,70,72,74,76,78,80,82,84,86,88,90,92,94,96,98,100,102,104,106,108,110,112,114,116,118,120,122,124,126,-1,-1,-1,-1,-1,-1,-1,-1,-1,-1,-1,-1,-1,-1,-1,-1,-1,-1,-1,-1,-1,-1,-1,-1,-1,-1,-1,-1,-1,-1,-1,-1,-1,-1,-1,-1,-1,-1,-1,-1,-1,-1,-1,-1,-1,-1,-1,-1,-1,-1,-1,-1,-1,-1,-1,-1,-1,-1,-1,-1,-1,-1,-1,-1],"split_conditions":[1.7605145E-1,7.471312E-1,1.4458902E0,1.492813E0,5.730554E-1,1.7001522E0,1.418378E0,5.4949784E-1,2.7824286E-1,4.0084726E-1,1.9819264E0,1.0555987E0,1.0555987E0,1.0555987E0,3.2977386E0,7.6483583E-1,-2.7226725E-1,1.1597122E0,1.3019606E-1,-3.2712993E-1,-1.3423811E-1,1.8571596E-1,2.2433867E0,1.6632495E0,3.6858663E-2,-4.1015387E-1,5.19175E-1,1.7015494E0,-1.3128115E-1,7.471312E-1,2.5454748E0,4.3866363E-1,2.2007558E-1,-1.9800136E-2,-3.2712993E-1,-3.211561E-1,2.9128116E-1,1.588173E0,1.6984762E0,1.7516501E0,1.0970964E0,1.0555987E0,-7.292613E-1,1.672534E0,1.831958E-1,3.6843604E-1,1.5482247E0,1.2606581E0,1.7920251E0,2.2433867E0,1.2331345E0,-7.921911E-1,1.5068992E0,4.483616E-1,3.1090233E0,-7.973654E-1,8.630447E-1,-2.0084623E-1,1.4508975E0,1.6245948E0,5.1614416E-1,4.0084726E-1,-2.3377629E-1,-9.63151E-3,-1.727214E-3,-5.2311057E-3,4.7448194E-3,1.1623841E-2,8.0911076E-4,-1.6231902E-2,-5.217806E-3,9.649533E-3,-2.023564E-3,-1.2184511E-3,2.4008323E-2,1.937711E-2,8.975118E-3,9.77668E-3,-1.32944025E-2,2.3553139E-2,-2.0048873E-2,9.788147E-3,2.4854328E-2,1.8819143E-3,1.1977856E-2,-1.9041898E-2,2.4927044E-3,2.3088783E-3,1.25234295E-2,-2.9090163E-3,-3.33773E-2,-1.190648E-2,7.278103E-4,-3.35583E-2,1.0415978E-3,5.970079E-3,1.930226E-2,-5.836626E-3,1.0857708E-2,2.6407601E-2,6.5358337E-3,1.5757723E-2,2.7763715E-3,1.5197281E-2,-2.0840997E-2,2.2598514E-2,-1.9407197E-3,-3.4732004E-3,1.4528737E-2,-3.1533933E-3,-4.2521566E-2,2.0549467E-2,1.3608084E-2,-3.1390622E-2,1.7538521E-2,3.3550818E-2,2.6148623E-2,-1.4327119E-2,2.151339E-2,-1.4699459E-2,2.4753662E-2,1.5560863E-2,-1.8828723E-3,2.8882453E-2,1.5528597E-2,1.6569845E-2,-2.3860512E-2],"split_indices":[13,2,13,3,6,6,6,130,68,3,6,2,2,2,13,3,6,0,2,3,12,120,0,9,3,12,5,0,68,2,6,2,15,121,3,9,6,7,90,71,82,2,5,2,124,1,91,69,93,0,8,12,100,111,6,15,130,8,108,57,8,3,136,0,0,0,0,0,0,0,0,0,0,0,0,0,0,0,0,0,0,0,0,0,0,0,0,0,0,0,0,0,0,0,0,0,0,0,0,0,0,0,0,0,0,0,0,0,0,0,0,0,0,0,0,0,0,0,0,0,0,0,0,0,0,0,0],"split_type":[0,0,0,0,0,0,0,0,0,0,0,0,0,0,0,0,0,0,0,0,0,0,0,0,0,0,0,0,0,0,0,0,0,0,0,0,0,0,0,0,0,0,0,0,0,0,0,0,0,0,0,0,0,0,0,0,0,0,0,0,0,0,0,0,0,0,0,0,0,0,0,0,0,0,0,0,0,0,0,0,0,0,0,0,0,0,0,0,0,0,0,0,0,0,0,0,0,0,0,0,0,0,0,0,0,0,0,0,0,0,0,0,0,0,0,0,0,0,0,0,0,0,0,0,0,0,0],"sum_hessian":[1.6252E4,1.2738855E4,3.5131445E3,9.739537E3,2.9993179E3,2.3977266E3,1.115418E3,8.961042E3,7.784954E2,1.330216E3,1.669102E3,2.1556372E3,2.420895E2,8.6410046E2,2.5131757E2,6.532293E3,2.4287485E3,3.4831042E2,4.3018497E2,5.38762E2,7.91454E2,1.4244601E3,2.4464194E2,1.6655679E3,4.9006924E2,1.2016121E2,1.2192828E2,5.945231E2,2.6957736E2,1.5884055E2,9.2477005E1,5.520151E3,1.0121422E3,1.497892E3,9.308567E2,3.294616E2,1.8848816E1,2.4797975E2,1.8220523E2,1.3783197E2,4.0093005E2,3.9621783E2,3.952361E2,8.605663E2,5.638938E2,2.191175E2,2.5524439E1,1.4796321E3,1.8593573E2,1.6806862E2,3.220006E2,1.0955875E2,1.060246E1,6.832696E1,5.3601322E1,5.819572E2,1.2565878E1,2.5583342E2,1.3743929E1,4.1820812E1,1.1701974E2,6.557818E1,2.6898832E1,4.8806655E3,6.3948535E2,6.6324274E2,3.4889944E2,1.4391856E2,1.3539734E3,1.22909996E2,8.0794666E2,4.8300095E1,2.8116153E2,4.1231785E0,1.4725638E1,1.8240157E2,6.557818E1,1.5785884E2,2.4346388E1,1.3390514E2,3.926837E0,3.5459335E2,4.6336674E1,1.4293686E2,2.5328098E2,1.5511005E1,3.7972513E2,6.3948535E2,2.2108092E2,5.517206E2,1.2173194E1,1.2192828E2,9.718921E1,2.238297E1,3.1414695E0,1.4095381E3,7.009404E1,1.4784541E2,3.8090317E1,1.5707347E2,1.0995143E1,2.5367366E2,6.832696E1,8.246357E0,1.0131239E2,7.264648E0,3.3378112E0,2.120492E1,4.7122044E1,4.8300095E1,5.30123E0,2.8096518E2,3.0099203E2,7.46099E0,5.104888E0,8.167821E1,1.7415521E2,7.0683064E0,6.6756225E0,3.769763E1,4.1231785E0,7.2646484E1,4.4373257E1,4.69257E1,1.8652475E1,2.238297E1,4.5158625E0],"tree_param":{"num_deleted":"0","num_feature":"162","num_nodes":"127","size_leaf_vector":"1"}},{"base_weights":[3.6103958E-3,-1.0264487E-1,3.9066705E-1,-1.7785063E-1,1.4255396E-1,2.59626E-1,6.7301536E-1,-3.354887E-1,-1.1956881E-1,2.850044E-1,-5.116276E-2,1.8806204E-1,6.040561E-1,1.0612922E0,6.110424E-1,3.139126E-1,-3.44216E-1,-4.7415163E-2,-2.0298669E-1,1.833278E-1,4.8942596E-1,-1.5285224E-1,6.549391E-2,2.5480816E-1,-3.1092113E-1,6.665313E-1,-4.2425537E-1,1.098437E0,-0E0,7.1000373E-1,2.1855567E-1,7.0956767E-1,-7.2439975E-1,-1.552052E0,-3.3547583E-1,-9.603294E-2,8.6326174E-2,-3.2389036E-1,-9.23392E-2,1.3452205E-1,4.7620085E-1,2.7377892E-1,6.3438916E-1,-8.604744E-2,-7.089499E-1,1.8094572E-1,-1.4955246E-1,2.0229071E-1,4.5913097E-1,-3.9119977E-1,6.805004E-1,7.5503844E-1,2.2117682E-1,1.6185444E-2,-7.0820796E-1,1.1928136E0,7.302201E-1,6.01183E-1,9.8325425E-1,-9.525001E-2,5.195325E-1,2.5924379E-2,-8.422901E-3,-4.227031E-2,1.2864157E-2,-5.9325904E-2,-2.510377E-2,-9.433742E-3,-2.7480645E-3,-3.1025712E-3,6.566993E-3,9.870168E-4,1.0658377E-2,-1.3616328E-2,-3.7658059E-3,-4.477185E-3,1.598975E-3,2.6123135E-3,1.15255285E-2,1.3999182E-2,-2.0130329E-2,5.6028217E-3,1.852942E-2,1.4266651E-2,2.2947637E-2,-1.917861E-3,-4.132431E-2,-1.4293407E-2,-3.9939698E-2,9.432523E-3,-1.1346056E-3,-3.2205195E-3,-3.783544E-2,8.191058E-3,1.4271728E-3,1.8712623E-2,7.920494E-3,-2.1125343E-2,-6.9442377E-3,2.2836572E-2,-3.255981E-4,2.2707969E-2,1.3553829E-2,1.0325745E-2,-8.305132E-3,5.52359E-4,-3.6332227E-2,2.2969479E-2,3.357359E-2,2.343137E-2,-5.603355E-3,1.6988758E-2,3.4579232E-3,2.7251998E-2,7.3824045E-3,-1.8754527E-4,-3.562648E-2,2.0285878E-2,9.1190706E-4],"categories":[],"categories_nodes":[],"categories_segments":[],"categories_sizes":[],"default_left":[0,0,0,0,0,0,0,0,0,0,0,0,0,0,0,0,0,0,0,0,0,0,0,0,0,0,0,0,0,0,0,0,0,0,0,0,0,0,0,0,0,0,0,0,0,0,0,0,0,0,0,0,0,0,0,0,0,0,0,0,0,0,0,0,0,0,0,0,0,0,0,0,0,0,0,0,0,0,0,0,0,0,0,0,0,0,0,0,0,0,0,0,0,0,0,0,0,0,0,0,0,0,0,0,0,0,0,0,0,0,0,0,0,0,0,0,0,0,0],"id":1,"left_children":[1,3,5,7,9,11,13,15,17,19,21,23,25,27,29,31,33,35,37,39,41,43,45,47,49,51,53,55,-1,57,59,61,63,65,67,69,71,73,75,77,79,81,83,85,87,89,91,93,95,97,99,101,103,-1,105,107,109,111,113,115,117,-1,-1,-1,-1,-1,-1,-1,-1,-1,-1,-1,-1,-1,-1,-1,-1,-1,-1,-1,-1,-1,-1,-1,-1,-1,-1,-1,-1,-1,-1,-1,-1,-1,-1,-1,-1,-1,-1,-1,-1,-1,-1,-1,-1,-1,-1,-1,-1,-1,-1,-1,-1,-1,-1,-1,-1,-1,-1],"loss_changes":[6.6993994E2,2.356884E2,1.2956818E2,8.976941E1,8.281864E1,5.8915787E1,2.6067047E1,1.5034271E1,4.2947914E1,3.578163E1,1.5099715E1,6.621412E1,2.6685837E1,5.846405E0,3.7064667E1,1.4777515E1,2.687378E1,2.4921223E1,4.4221237E1,1.6396885E1,1.767981E1,2.5108694E1,1.47173395E1,1.8652626E1,1.8798248E1,1.5067612E1,7.331326E0,4.227234E0,0E0,2.2163025E1,1.8479408E1,7.512287E0,1.1193682E1,5.7757416E0,1.2663391E1,2.0623789E1,1.5774979E1,5.4691742E1,2.0381363E1,1.0580204E1,1.10727005E1,5.9026318E0,7.0553894E0,1.182788E1,8.954754E0,1.5238034E1,7.010927E0,2.2195473E1,1.388707E1,1.1106083E1,2.3719006E0,7.647629E0,6.0448914E0,0E0,9.514102E0,1.8205414E0,4.9154015E0,1.0523605E1,6.8506165E0,1.0355702E1,1.184296E1,0E0,0E0,0E0,0E0,0E0,0E0,0E0,0E0,0E0,0E0,0E0,0E0,0E0,0E0,0E0,0E0,0E0,0E0,0E0,0E0,0E0,0E0,0E0,0E0,0E0,0E0,0E0,0E0,0E0,0E0,0E0,0E0,0E0,0E0,0E0,0E0,0E0,0E0,0E0,0E0,0E0,0E0,0E0,0E0,0E0,0E0,0E0,0E0,0E0,0E0,0E0,0E0,0E0,0E0,0E0,0E0,0E0,0E0],"parents":[2147483647,0,0,1,1,2,2,3,3,4,4,5,5,6,6,7,7,8,8,9,9,10,10,11,11,12,12,13,13,14,14,15,15,16,16,17,17,18,18,19,19,20,20,21,21,22,22,23,23,24,24,25,25,26,26,27,27,29,29,30,30,31,31,32,32,33,33,34,34,35,35,36,36,37,37,38,38,39,39,40,40,41,41,42,42,43,43,44,44,45,45,46,46,47,47,48,48,49,49,50,50,51,51,52,52,54,54,55,55,56,56,57,57,58,58,59,59,60,60],"right_children":[2,4,6,8,10,12,14,16,18,20,22,24,26,28,30,32,34,36,38,40,42,44,46,48,50,52,54,56,-1,58,60,62,64,66,68,70,72,74,76,78,80,82,84,86,88,90,92,94,96,98,100,102,104,-1,106,108,110,112,114,116,118,-1,-1,-1,-1,-1,-1,-1,-1,-1,-1,-1,-1,-1,-1,-1,-1,-1,-1,-1,-1,-1,-1,-1,-1,-1,-1,-1,-1,-1,-1,-1,-1,-1,-1,-1,-1,-1,-1,-1,-1,-1,-1,-1,-1,-1,-1,-1,-1,-1,-1,-1,-1,-1,-1,-1,-1,-1,-1],"split_conditions":[1.7605145E-1,7.471312E-1,1.4458902E0,-5.117779E-1,8.5482955E-1,1.3640664E0,-9.407611E-1,-6.082472E-1,2.4174473E-1,1.1777317E-1,1.3640664E0,1.418378E0,2.5454748E0,3.131379E-1,1.418378E0,-1.9800136E-2,-1.411247E0,6.838751E-1,5.291585E-1,3.0394166E0,1.0555987E0,6.4617693E-1,1.7001522E0,7.471312E-1,9.1597006E-2,1.2331345E0,-2.0084623E-1,6.9664556E-1,-0E0,1.0555987E0,1.3640664E0,-5.0557745E-1,-3.2279998E-1,-2.991761E-1,4.3866363E-1,1.286519E0,3.1448522E-1,1.3019606E-1,2.738781E-1,1.9810015E0,1.1447245E0,3.2251897E-1,1.672534E0,5.183021E0,2.0344141E-1,1.7469287E-1,1.671874E0,3.4031242E-1,2.9128116E-1,3.8769126E-1,1.8958356E0,1.001781E0,1.5447295E0,1.6185444E-2,4.1922E-1,1.3019606E-1,5.291585E-1,1.6632495E0,-1.3128115E-1,1.490181E0,5.1614416E-1,2.5924379E-2,-8.422901E-3,-4.227031E-2,1.2864157E-2,-5.9325904E-2,-2.510377E-2,-9.433742E-3,-2.7480645E-3,-3.1025712E-3,6.566993E-3,9.870168E-4,1.0658377E-2,-1.3616328E-2,-3.7658059E-3,-4.477185E-3,1.598975E-3,2.6123135E-3,1.15255285E-2,1.3999182E-2,-2.0130329E-2,5.6028217E-3,1.852942E-2,1.4266651E-2,2.2947637E-2,-1.917861E-3,-4.132431E-2,-1.4293407E-2,-3.9939698E-2,9.432523E-3,-1.1346056E-3,-3.2205195E-3,-3.783544E-2,8.191058E-3,1.4271728E-3,1.8712623E-2,7.920494E-3,-2.1125343E-2,-6.9442377E-3,2.2836572E-2,-3.255981E-4,2.2707969E-2,1.3553829E-2,1.0325745E-2,-8.305132E-3,5.52359E-4,-3.6332227E-2,2.2969479E-2,3.357359E-2,2.343137E-2,-5.603355E-3,1.6988758E-2,3.4579232E-3,2.7251998E-2,7.3824045E-3,-1.8754527E-4,-3.562648E-2,2.0285878E-2,9.1190706E-4],"split_indices":[13,2,13,13,6,2,12,12,5,70,2,6,6,62,6,121,13,130,1,11,2,134,6,2,110,8,8,132,0,2,2,24,107,137,2,78,109,2,24,2,120,26,2,58,21,120,56,9,6,13,117,9,97,0,135,2,1,9,68,5,8,0,0,0,0,0,0,0,0,0,0,0,0,0,0,0,0,0,0,0,0,0,0,0,0,0,0,0,0,0,0,0,0,0,0,0,0,0,0,0,0,0,0,0,0,0,0,0,0,0,0,0,0,0,0,0,0,0,0],"split_type":[0,0,0,0,0,0,0,0,0,0,0,0,0,0,0,0,0,0,0,0,0,0,0,0,0,0,0,0,0,0,0,0,0,0,0,0,0,0,0,0,0,0,0,0,0,0,0,0,0,0,0,0,0,0,0,0,0,0,0,0,0,0,0,0,0,0,0,0,0,0,0,0,0,0,0,0,0,0,0,0,0,0,0,0,0,0,0,0,0,0,0,0,0,0,0,0,0,0,0,0,0,0,0,0,0,0,0,0,0,0,0,0,0,0,0,0,0,0,0],"sum_hessian":[1.6287279E4,1.2779234E4,3.508045E3,9.780266E3,2.9989685E3,2.3972556E3,1.1107893E3,2.6383914E3,7.141874E3,1.7284021E3,1.2705664E3,1.986062E3,4.1119363E2,1.5107315E2,9.597161E2,3.4456116E1,2.6039353E3,3.8309822E3,3.310892E3,1.1556028E3,5.7279926E2,6.7937524E2,5.911911E2,1.7522865E3,2.3377548E2,3.879978E2,2.3195833E1,1.4582913E2,5.2440214E0,7.65733E2,1.9398317E2,2.5203924E1,9.25219E0,1.773267E1,2.5862026E3,2.8105505E3,1.0204316E3,1.5808795E3,1.7300126E3,9.9179974E2,1.6380307E2,2.3144377E2,3.413555E2,6.074403E2,7.193495E1,3.8517584E2,2.060153E2,1.3956149E3,3.566716E2,2.1677592E2,1.6999556E1,3.2301266E2,6.4985146E1,4.712143E0,1.848369E1,1.1456376E2,3.1265371E1,5.495593E2,2.161736E2,9.496043E1,9.902274E1,2.0083723E1,5.1202016E0,5.316308E0,3.9358819E0,7.2902765E0,1.0442394E1,2.367501E3,2.1870157E2,2.6476467E3,1.6290387E2,8.8477435E2,1.3565718E2,7.691147E2,8.117648E2,1.1510266E3,5.7898596E2,8.879031E2,1.0389669E2,1.5752985E2,6.273231E0,2.0331938E2,2.81244E1,2.44764E2,9.65915E1,6.027291E2,4.711178E0,6.052784E1,1.1407114E1,2.158912E2,1.6928462E2,2.0248041E2,3.5348954E0,8.082168E2,5.8739813E2,1.382066E2,2.18465E2,5.086055E1,1.6591537E2,1.3477298E1,3.5222583E0,2.2460197E2,9.841069E1,4.9710213E1,1.5274935E1,9.03208E0,9.451611E0,2.3914318E1,9.064944E1,2.6990854E1,4.274518E0,5.0469232E2,4.486704E1,2.0206093E2,1.4112666E1,8.945571E1,5.504718E0,6.50977E1,3.3925037E1],"tree_param":{"num_deleted":"0","num_feature":"162","num_nodes":"119","size_leaf_vector":"1"}},{"base_weights":[7.2602276E-4,-9.946423E-2,3.6735106E-1,-1.7655374E-1,1.5256886E-1,2.533162E-1,6.5128106E-1,-2.1513903E-1,2.6278377E-1,3.17003E-1,2.2405969E-2,3.072668E-1,-2.1984193E-1,7.3964745E-1,3.514032E-1,-2.7855816E-1,-4.4927906E-2,1.5278712E-1,5.742148E-1,5.3449017E-1,1.7207313E-1,7.3227815E-2,-2.6483932E-1,2.0822269E-1,6.368134E-1,4.969787E-1,-3.232166E-1,6.157399E-1,1.0107845E0,8.249225E-2,8.5847604E-1,-3.160159E-1,-3.1690024E-2,7.8857675E-2,-2.4350818E-1,3.6193323E-1,3.596711E-2,6.125697E-1,-4.749473E-1,4.3037143E-1,8.082115E-1,9.919438E-2,4.845765E-1,2.0563792E-1,-8.348413E-2,-1.8713136E-1,-9.690351E-1,1.4944811E-1,4.1098756E-1,9.0541124E-1,5.008184E-1,-0E0,7.8159E-1,-5.96347E-1,-4.794451E-2,6.424414E-1,-2.0592844E-1,1.0522956E0,5.3580934E-1,-2.717199E-1,3.0563182E-1,9.0037555E-1,-0E0,-6.3790358E-3,-1.2073503E-2,-2.128768E-3,9.900476E-3,-4.7022395E-4,6.238693E-3,-9.007927E-3,-6.6152535E-4,5.190016E-3,1.7482009E-2,-0E0,1.713167E-2,1.6825348E-2,-1.794236E-2,-3.9069638E-2,1.14808045E-2,1.98277E-2,8.60489E-3,3.3579513E-2,1.8767305E-2,-2.2311015E-2,3.1937994E-3,9.312146E-3,2.576569E-2,2.8348812E-3,1.2865962E-2,7.3167105E-4,-4.8638857E-3,-1.1081876E-2,-1.06892614E-4,-1.1039804E-2,-3.990163E-2,1.9138389E-3,1.0229245E-2,1.3487448E-2,1.5722073E-3,2.8246684E-2,1.7940205E-2,1.6639698E-2,7.2730803E-3,-1.0368861E-2,2.245229E-2,2.552967E-2,5.825498E-3,-2.1167481E-2,-0E0,1.3145863E-3,-2.3712069E-2,2.0655375E-2,1.3133637E-2,2.3466237E-2,-1.4894353E-2,2.3657652E-2,3.1036887E-2,-1.4884931E-2,2.8230956E-2,1.9635705E-3,-2.6682295E-2,1.0175535E-2,-1.6283728E-2,2.0150902E-2,3.2010432E-2],"categories":[],"categories_nodes":[],"categories_segments":[],"categories_sizes":[],"default_left":[0,0,0,0,0,0,0,0,0,0,0,0,0,0,0,0,0,0,0,0,0,0,0,0,0,0,0,0,0,0,0,0,0,0,0,0,0,0,0,0,0,0,0,0,0,0,0,0,0,0,0,0,0,0,0,0,0,0,0,0,0,0,0,0,0,0,0,0,0,0,0,0,0,0,0,0,0,0,0,0,0,0,0,0,0,0,0,0,0,0,0,0,0,0,0,0,0,0,0,0,0,0,0,0,0,0,0,0,0,0,0,0,0,0,0,0,0,0,0,0,0,0,0,0,0],"id":2,"left_children":[1,3,5,7,9,11,13,15,17,19,21,23,25,27,29,31,33,35,37,39,41,43,45,47,49,51,53,55,57,59,61,63,65,67,69,71,73,75,77,79,81,83,85,87,89,91,93,95,97,99,101,103,105,107,109,111,113,115,117,119,121,123,-1,-1,-1,-1,-1,-1,-1,-1,-1,-1,-1,-1,-1,-1,-1,-1,-1,-1,-1,-1,-1,-1,-1,-1,-1,-1,-1,-1,-1,-1,-1,-1,-1,-1,-1,-1,-1,-1,-1,-1,-1,-1,-1,-1,-1,-1,-1,-1,-1,-1,-1,-1,-1,-1,-1,-1,-1,-1,-1,-1,-1,-1,-1],"loss_changes":[5.97729E2,2.4830544E2,1.1284158E2,1.6593222E2,6.400872E1,6.370427E1,2.6166992E1,9.706546E1,2.6903263E1,4.1503967E1,2.4392088E1,7.285745E1,1.9002522E1,2.5262695E1,3.1078537E1,6.0549683E1,6.010569E1,1.4230907E1,8.491463E0,1.4632874E1,1.7982496E1,2.95253E1,1.3449894E1,2.0407578E1,1.8365005E1,4.651773E0,1.6708586E1,1.1813904E1,4.134186E0,1.197553E1,2.8501434E0,5.963733E1,1.7120903E1,2.288652E1,1.9874065E1,1.0158199E1,8.339887E0,6.3791656E0,7.420331E0,1.2565056E1,5.6686172E0,1.3109072E1,9.289452E0,2.1203701E1,7.2951837E0,9.5843315E0,6.6261883E0,2.4380413E1,1.3349426E1,5.6336975E0,9.75576E0,4.263778E0,1.8190718E0,1.3693134E1,9.4704075E0,9.969498E0,6.961656E0,3.2102203E0,1.2741674E1,1.5075462E1,6.9168177E0,2.3335571E0,0E0,0E0,0E0,0E0,0E0,0E0,0E0,0E0,0E0,0E0,0E0,0E0,0E0,0E0,0E0,0E0,0E0,0E0,0E0,0E0,0E0,0E0,0E0,0E0,0E0,0E0,0E0,0E0,0E0,0E0,0E0,0E0,0E0,0E0,0E0,0E0,0E0,0E0,0E0,0E0,0E0,0E0,0E0,0E0,0E0,0E0,0E0,0E0,0E0,0E0,0E0,0E0,0E0,0E0,0E0,0E0,0E0,0E0,0E0,0E0,0E0,0E0,0E0],"parents":[2147483647,0,0,1,1,2,2,3,3,4,4,5,5,6,6,7,7,8,8,9,9,10,10,11,11,12,12,13,13,14,14,15,15,16,16,17,17,18,18,19,19,20,20,21,21,22,22,23,23,24,24,25,25,26,26,27,27,28,28,29,29,30,30,31,31,32,32,33,33,34,34,35,35,36,36,37,37,38,38,39,39,40,40,41,41,42,42,43,43,44,44,45,45,46,46,47,47,48,48,49,49,50,50,51,51,52,52,53,53,54,54,55,55,56,56,57,57,58,58,59,59,60,60,61,61],"right_children":[2,4,6,8,10,12,14,16,18,20,22,24,26,28,30,32,34,36,38,40,42,44,46,48,50,52,54,56,58,60,62,64,66,68,70,72,74,76,78,80,82,84,86,88,90,92,94,96,98,100,102,104,106,108,110,112,114,116,118,120,122,124,-1,-1,-1,-1,-1,-1,-1,-1,-1,-1,-1,-1,-1,-1,-1,-1,-1,-1,-1,-1,-1,-1,-1,-1,-1,-1,-1,-1,-1,-1,-1,-1,-1,-1,-1,-1,-1,-1,-1,-1,-1,-1,-1,-1,-1,-1,-1,-1,-1,-1,-1,-1,-1,-1,-1,-1,-1,-1,-1,-1,-1,-1,-1],"split_conditions":[1.7605145E-1,7.471312E-1,1.4348165E0,1.492813E0,5.730554E-1,1.7001522E0,1.418378E0,5.4949784E-1,7.361428E-1,4.0084726E-1,1.9819264E0,1.0555987E0,-1.744007E-1,1.0555987E0,3.1536376E0,4.3866363E-1,-2.7226725E-1,5.920929E-1,1.9755139E0,7.61493E-1,1.672534E0,1.7205699E-1,2.2433867E0,9.935847E-1,3.6858663E-2,7.057946E-1,1.0555987E0,1.5660901E0,1.3514658E0,1.0555987E0,2.5995982E-1,3.8045985E-1,2.192781E-1,5.049866E-1,7.6483583E-1,1.8583906E-1,1.377002E0,5.5360537E0,6.762716E-1,-3.2712993E-1,6.617648E-1,-7.36014E-1,9.856252E-1,1.672534E0,6.0218555E-1,4.0084726E-1,-9.248566E-2,1.1288245E0,7.533342E-1,1.2951715E0,8.5482955E-1,9.4196427E-1,2.5454748E0,7.6483583E-1,3.1090233E0,-7.973654E-1,-3.2712993E-1,2.1813874E0,6.691028E-1,1.4914609E0,2.9206831E0,2.289469E0,-0E0,-6.3790358E-3,-1.2073503E-2,-2.128768E-3,9.900476E-3,-4.7022395E-4,6.238693E-3,-9.007927E-3,-6.6152535E-4,5.190016E-3,1.7482009E-2,-0E0,1.713167E-2,1.6825348E-2,-1.794236E-2,-3.9069638E-2,1.14808045E-2,1.98277E-2,8.60489E-3,3.3579513E-2,1.8767305E-2,-2.2311015E-2,3.1937994E-3,9.312146E-3,2.576569E-2,2.8348812E-3,1.2865962E-2,7.3167105E-4,-4.8638857E-3,-1.1081876E-2,-1.06892614E-4,-1.1039804E-2,-3.990163E-2,1.9138389E-3,1.0229245E-2,1.3487448E-2,1.5722073E-3,2.8246684E-2,1.7940205E-2,1.6639698E-2,7.2730803E-3,-1.0368861E-2,2.245229E-2,2.552967E-2,5.825498E-3,-2.1167481E-2,-0E0,1.3145863E-3,-2.3712069E-2,2.0655375E-2,1.3133637E-2,2.3466237E-2,-1.4894353E-2,2.3657652E-2,3.1036887E-2,-1.4884931E-2,2.8230956E-2,1.9635705E-3,-2.6682295E-2,1.0175535E-2,-1.6283728E-2,2.0150902E-2,3.2010432E-2],"split_indices":[13,2,16,3,6,6,6,130,21,3,6,2,5,2,16,2,6,7,121,61,2,121,0,26,3,69,2,0,5,2,30,5,26,122,3,107,71,47,123,3,71,7,131,2,119,3,14,3,0,0,6,26,6,3,6,15,3,23,129,52,0,2,0,0,0,0,0,0,0,0,0,0,0,0,0,0,0,0,0,0,0,0,0,0,0,0,0,0,0,0,0,0,0,0,0,0,0,0,0,0,0,0,0,0,0,0,0,0,0,0,0,0,0,0,0,0,0,0,0,0,0,0,0,0,0],"split_type":[0,0,0,0,0,0,0,0,0,0,0,0,0,0,0,0,0,0,0,0,0,0,0,0,0,0,0,0,0,0,0,0,0,0,0,0,0,0,0,0,0,0,0,0,0,0,0,0,0,0,0,0,0,0,0,0,0,0,0,0,0,0,0,0,0,0,0,0,0,0,0,0,0,0,0,0,0,0,0,0,0,0,0,0,0,0,0,0,0,0,0,0,0,0,0,0,0,0,0,0,0,0,0,0,0,0,0,0,0,0,0,0,0,0,0,0,0,0,0,0,0,0,0,0,0],"sum_hessian":[1.6270199E4,1.2778286E4,3.4919128E3,9.785853E3,2.9924336E3,2.4925942E3,9.993184E2,8.996405E3,7.894479E2,1.3212428E3,1.6711908E3,2.237957E3,2.546373E2,7.707341E2,2.2858435E2,6.553396E3,2.4430088E3,5.8447864E2,2.0496927E2,5.2724097E2,7.9400183E2,1.4208113E3,2.5037953E2,1.7219639E3,5.1599316E2,3.159472E1,2.2304259E2,5.3086896E2,2.3986513E2,1.5006818E2,7.851618E1,5.689368E3,8.6402783E2,1.5047214E3,9.382873E2,2.0851823E2,3.759604E2,1.9814331E2,6.825949E0,3.8359088E2,1.4365009E2,6.449434E2,1.490584E2,7.704996E2,6.5031165E2,2.2644931E2,2.3930216E1,1.3364524E3,3.855114E2,1.7180109E2,3.441921E2,1.1608044E1,1.9986677E1,1.1129997E2,1.1174261E2,5.144721E2,1.639685E1,2.1955415E2,2.0310976E1,5.7694405E1,9.2373764E1,7.4832985E1,3.683192E0,3.7159E3,1.9734683E3,7.721106E2,9.191725E1,9.31387E2,5.733345E2,6.4876385E2,2.8952344E2,1.3524066E2,7.3277565E1,3.5560706E2,2.0353338E1,1.9501143E2,3.1318834E0,3.1202877E0,3.7056613E0,9.348612E1,2.9010477E2,2.3581036E1,1.20069046E2,1.3711778E1,6.312316E2,1.1848508E2,3.0573322E1,5.7165765E2,1.9884192E2,3.0827814E2,3.4203348E2,9.9161385E1,1.27287926E2,1.2562347E1,1.1367868E1,1.01004395E3,3.2640848E2,3.0018503E2,8.532639E1,9.820326E1,7.3597824E1,2.1819E2,1.2600209E2,8.279469E0,3.3285751E0,1.4495456E1,5.491222E0,8.28329E1,2.846707E1,1.0063133E2,1.11112795E1,2.615859E2,2.5288618E2,3.6933396E0,1.2703511E1,9.853769E1,1.21016464E2,6.523982E0,1.3786995E1,3.9550003E1,1.8144403E1,8.556882E1,6.80495E0,5.3692127E1,2.114086E1],"tree_param":{"num_deleted":"0","num_feature":"162","num_nodes":"125","size_leaf_vector":"1"}},{"base_weights":[1.8066716E-3,-7.6116815E-2,4.7868824E-1,-1.5467939E-1,1.6702157E-1,3.809062E-1,7.8763556E-1,-2.632365E-1,-6.677392E-2,3.0279762E-1,-1.3381945E-2,4.5493805E-1,-1.06525294E-1,9.523677E-1,5.0805783E-1,-3.1663865E-1,-1.1824857E-1,5.633338E-2,-1.5788582E-1,9.0282686E-2,4.1275185E-1,2.4187334E-2,-5.139818E-1,3.2002494E-1,6.749423E-1,2.3646116E-1,-3.0474755E-1,9.734282E-1,-1.2836072E-2,3.8393253E-1,1.030882E0,-8.741843E-2,-3.381822E-1,-5.538809E-2,-2.914904E-1,2.6061093E-3,2.2727163E-1,-2.3214214E-1,6.266123E-2,3.8129907E-2,3.6451128E-1,3.4568417E-1,6.560452E-1,2.3302285E-1,-6.75068E-2,-4.7414177E-3,-7.5643474E-1,5.381157E-1,2.4988E-1,7.143513E-1,2.5116542E-1,3.1706738E-1,-2.378901E-2,-4.2753738E-1,3.1615686E-1,1.0274564E0,5.554561E-1,7.345527E-1,2.2253443E-1,1.1125427E0,4.4856383E-3,-4.517719E-3,8.466692E-3,-3.286168E-2,-8.759314E-3,-1.1572434E-3,-2.3329288E-2,-5.0125867E-3,-1.6266814E-2,2.2548535E-3,-1.1673786E-3,7.4697454E-3,-4.7235372E-3,-1.007082E-2,-2.9114233E-3,2.3435357E-3,-1.1646904E-2,5.170449E-3,-1.1265966E-3,7.0051663E-3,2.6270598E-2,1.0236067E-2,-2.5420864E-3,1.4384555E-2,2.4410306E-2,2.708317E-3,1.2568711E-2,-1.1738297E-4,-7.0683607E-3,-1.3532085E-2,9.625387E-3,-2.8068304E-2,-7.1689286E-3,1.4903073E-2,-1.1812563E-2,7.290799E-3,-7.5762514E-3,1.948817E-2,3.2729312E-4,1.1338678E-2,-2.1516774E-2,3.9607827E-3,2.571529E-2,-1.9261876E-2,-3.4621384E-3,2.5307277E-2,-1.004339E-2,2.783502E-2,9.885405E-3,1.8923683E-2,-4.32816E-3,2.4380434E-2,6.026767E-3,-7.084054E-3,9.566346E-3,3.1120442E-2,1.4450191E-2],"categories":[],"categories_nodes":[],"categories_segments":[],"categories_sizes":[],"default_left":[0,0,0,0,0,0,0,0,0,0,0,0,0,0,0,0,0,0,0,0,0,0,0,0,0,0,0,0,0,0,0,0,0,0,0,0,0,0,0,0,0,0,0,0,0,0,0,0,0,0,0,0,0,0,0,0,0,0,0,0,0,0,0,0,0,0,0,0,0,0,0,0,0,0,0,0,0,0,0,0,0,0,0,0,0,0,0,0,0,0,0,0,0,0,0,0,0,0,0,0,0,0,0,0,0,0,0,0,0,0,0,0,0,0,0,0,0],"id":3,"left_children":[1,3,5,7,9,11,13,15,17,19,21,23,25,27,29,31,33,35,37,39,41,43,45,47,49,51,53,55,-1,57,59,61,63,65,67,69,71,73,75,77,79,81,83,85,87,89,91,93,95,97,99,101,-1,103,105,107,109,111,113,115,-1,-1,-1,-1,-1,-1,-1,-1,-1,-1,-1,-1,-1,-1,-1,-1,-1,-1,-1,-1,-1,-1,-1,-1,-1,-1,-1,-1,-1,-1,-1,-1,-1,-1,-1,-1,-1,-1,-1,-1,-1,-1,-1,-1,-1,-1,-1,-1,-1,-1,-1,-1,-1,-1,-1,-1,-1],"loss_changes":[6.037297E2,2.667346E2,6.856531E1,1.0065547E2,8.356618E1,6.2690186E1,2.4684296E1,3.646823E1,6.545068E1,4.537564E1,2.7621082E1,4.4429443E1,1.5631535E1,1.07901E1,1.2820652E1,1.6952637E1,1.3798954E1,2.2751139E1,5.49488E1,9.441589E0,2.0619339E1,2.6126978E1,1.2547537E1,1.4108818E1,9.287811E0,7.802624E0,1.1217318E1,7.039612E0,0E0,9.191856E0,2.408455E0,1.0144222E1,1.9224976E1,8.830051E0,1.0959579E1,7.309364E0,1.3333111E1,4.5441254E1,1.1011341E1,7.1419854E0,6.264187E0,1.8493866E1,7.7044296E0,1.3060324E1,1.1892639E1,6.49283E0,9.869442E0,5.876465E0,9.890644E0,8.195709E0,9.63751E0,8.409058E0,0E0,1.0714048E1,1.1148004E1,4.457794E0,4.8313217E0,4.6328983E0,7.9651346E0,5.958748E-1,0E0,0E0,0E0,0E0,0E0,0E0,0E0,0E0,0E0,0E0,0E0,0E0,0E0,0E0,0E0,0E0,0E0,0E0,0E0,0E0,0E0,0E0,0E0,0E0,0E0,0E0,0E0,0E0,0E0,0E0,0E0,0E0,0E0,0E0,0E0,0E0,0E0,0E0,0E0,0E0,0E0,0E0,0E0,0E0,0E0,0E0,0E0,0E0,0E0,0E0,0E0,0E0,0E0,0E0,0E0,0E0,0E0],"parents":[2147483647,0,0,1,1,2,2,3,3,4,4,5,5,6,6,7,7,8,8,9,9,10,10,11,11,12,12,13,13,14,14,15,15,16,16,17,17,18,18,19,19,20,20,21,21,22,22,23,23,24,24,25,25,26,26,27,27,29,29,30,30,31,31,32,32,33,33,34,34,35,35,36,36,37,37,38,38,39,39,40,40,41,41,42,42,43,43,44,44,45,45,46,46,47,47,48,48,49,49,50,50,51,51,53,53,54,54,55,55,56,56,57,57,58,58,59,59],"right_children":[2,4,6,8,10,12,14,16,18,20,22,24,26,28,30,32,34,36,38,40,42,44,46,48,50,52,54,56,-1,58,60,62,64,66,68,70,72,74,76,78,80,82,84,86,88,90,92,94,96,98,100,102,-1,104,106,108,110,112,114,116,-1,-1,-1,-1,-1,-1,-1,-1,-1,-1,-1,-1,-1,-1,-1,-1,-1,-1,-1,-1,-1,-1,-1,-1,-1,-1,-1,-1,-1,-1,-1,-1,-1,-1,-1,-1,-1,-1,-1,-1,-1,-1,-1,-1,-1,-1,-1,-1,-1,-1,-1,-1,-1,-1,-1,-1,-1],"split_conditions":[4.9351114E-1,7.471312E-1,1.3640664E0,-3.5304803E-1,8.5482955E-1,1.418378E0,1.418378E0,9.910553E-1,-2.7226725E-1,-4.2330116E-1,2.5454748E0,1.296289E0,8.887935E-1,2.7123084E0,3.9876244E0,-6.3446E-1,3.4031242E-1,1.532447E-1,3.256215E-1,1.672534E0,1.672534E0,-4.5260245E-1,1.1597122E0,-6.656442E-1,1.6632495E0,1.490181E0,2.9149125E0,1.2127507E0,-1.2836072E-2,-2.0084623E-1,1.1261433E0,1.1278793E0,-1.1996073E0,4.4444886E-1,8.524408E-1,4.5887053E-1,7.147064E-1,1.3019606E-1,-4.4409788E-1,9.506951E-3,1.5186278E0,1.4306308E0,3.668571E-1,1.672534E0,6.9621176E-1,5.764844E-1,3.6843604E-1,1.7015494E0,1.4306308E0,2.5842533E0,1.2951715E0,2.5503092E0,-2.378901E-2,7.471312E-1,1.5660901E0,7.772895E-1,4.265077E-1,5.1926464E-1,-4.039873E-1,5.291585E-1,4.4856383E-3,-4.517719E-3,8.466692E-3,-3.286168E-2,-8.759314E-3,-1.1572434E-3,-2.3329288E-2,-5.0125867E-3,-1.6266814E-2,2.2548535E-3,-1.1673786E-3,7.4697454E-3,-4.7235372E-3,-1.007082E-2,-2.9114233E-3,2.3435357E-3,-1.1646904E-2,5.170449E-3,-1.1265966E-3,7.0051663E-3,2.6270598E-2,1.0236067E-2,-2.5420864E-3,1.4384555E-2,2.4410306E-2,2.708317E-3,1.2568711E-2,-1.1738297E-4,-7.0683607E-3,-1.3532085E-2,9.625387E-3,-2.8068304E-2,-7.1689286E-3,1.4903073E-2,-1.1812563E-2,7.290799E-3,-7.5762514E-3,1.948817E-2,3.2729312E-4,1.1338678E-2,-2.1516774E-2,3.9607827E-3,2.571529E-2,-1.9261876E-2,-3.4621384E-3,2.5307277E-2,-1.004339E-2,2.783502E-2,9.885405E-3,1.8923683E-2,-4.32816E-3,2.4380434E-2,6.026767E-3,-7.084054E-3,9.566346E-3,3.1120442E-2,1.4450191E-2],"split_indices":[13,2,2,13,6,6,6,143,6,14,6,25,0,49,109,14,9,25,12,2,2,12,0,24,9,5,16,5,0,8,119,34,13,23,147,128,4,2,109,6,89,0,70,2,147,137,1,0,0,7,0,109,0,2,0,113,128,134,7,1,0,0,0,0,0,0,0,0,0,0,0,0,0,0,0,0,0,0,0,0,0,0,0,0,0,0,0,0,0,0,0,0,0,0,0,0,0,0,0,0,0,0,0,0,0,0,0,0,0,0,0,0,0,0,0,0,0],"split_type":[0,0,0,0,0,0,0,0,0,0,0,0,0,0,0,0,0,0,0,0,0,0,0,0,0,0,0,0,0,0,0,0,0,0,0,0,0,0,0,0,0,0,0,0,0,0,0,0,0,0,0,0,0,0,0,0,0,0,0,0,0,0,0,0,0,0,0,0,0,0,0,0,0,0,0,0,0,0,0,0,0,0,0,0,0,0,0,0,0,0,0,0,0,0,0,0,0,0,0,0,0,0,0,0,0,0,0,0,0,0,0,0,0,0,0,0,0],"sum_hessian":[1.6243752E4,1.3962514E4,2.2812383E3,1.055336E4,3.409153E3,1.7343024E3,5.469358E2,4.7206763E3,5.832684E3,1.9453627E3,1.4637903E3,1.50592E3,2.2838235E2,3.4280875E2,2.0412706E2,3.4486694E3,1.2720066E3,2.4802026E3,3.3524814E3,6.64186E2,1.2811768E3,1.3619354E3,1.0185489E2,9.349132E2,5.7100684E2,8.3334335E1,1.4504802E2,3.3817316E2,4.6355853E0,1.6613095E2,3.799611E1,2.9714648E2,3.151523E3,9.346056E2,3.37401E2,1.8882385E3,5.919642E2,2.5085042E3,8.4397736E2,5.5914075E2,1.0504526E2,1.00606354E3,2.751132E2,4.1569745E2,9.46238E2,3.3265343E1,6.858955E1,2.2592625E2,7.0898694E2,5.21691E2,4.931584E1,7.8386055E1,4.9482827E0,1.2146783E2,2.3580194E1,2.9828784E2,3.9885307E1,5.133167E1,1.1479928E2,3.437338E1,3.6227317E0,2.4727577E2,4.9870724E1,2.284851E1,3.1286746E3,9.225229E2,1.2082727E1,2.5775507E2,7.964594E1,6.830376E2,1.2052009E3,5.215657E2,7.039851E1,1.1294678E3,1.3790364E3,8.033557E2,4.0621597E1,1.8983711E2,3.6930362E2,9.171258E1,1.3332674E1,9.201895E2,8.587402E1,1.956381E2,7.947508E1,2.7112076E2,1.445767E2,7.2029175E2,2.2594623E2,1.4060239E1,1.9205103E1,4.144224E1,2.7147306E1,2.2064871E2,5.277534E0,6.76963E2,3.202395E1,5.0514633E2,1.6544651E1,4.2726307E1,6.589534E0,6.3283775E1,1.5102282E1,5.9567616E1,6.1900208E1,1.2250987E1,1.1329207E1,2.8659744E2,1.1690408E1,3.2784348E1,7.1009583E0,3.6856346E1,1.4475326E1,2.5020966E1,8.977831E1,2.9981224E1,4.3921556E0],"tree_param":{"num_deleted":"0","num_feature":"162","num_nodes":"117","size_leaf_vector":"1"}},{"base_weights":[8.174051E-4,-9.370576E-2,3.5200924E-1,-1.6603728E-1,1.4500228E-1,2.3658216E-1,6.3057095E-1,-2.046934E-1,2.787702E-1,4.389483E-1,1.1008142E-1,1.6498643E-1,6.140738E-1,9.526019E-1,5.4587716E-1,-2.440868E-1,2.4709279E-2,5.284679E-1,1.1543128E-1,3.3439156E-1,8.1843615E-1,2.4386273E-1,5.988415E-2,2.736869E-1,3.8132805E-2,6.885254E-1,-1.918687E-2,9.9400157E-1,5.531704E-1,6.0969454E-1,1.3905656E-1,-2.7840513E-1,-5.37777E-2,1.5395515E-1,-1.8289374E-1,5.791539E-1,-8.623316E-2,8.473757E-1,8.404978E-2,2.6579887E-1,9.735274E-1,9.278977E-1,2.5069406E-2,2.9607275E-1,-4.4116285E-2,-4.2454773E-1,7.2343886E-2,1.9035606E-1,4.557025E-1,-2.3069458E-2,3.186212E-1,6.352992E-1,9.462872E-1,-3.467321E-1,5.878021E-1,1.0096061E0,1.1057091E-3,8.753101E-1,-1.5110943E-1,4.7957647E-1,8.0921733E-1,2.2652673E-2,9.61214E-1,-4.397855E-3,-1.0418557E-2,2.787352E-3,-4.526228E-3,3.2071301E-3,1.2810927E-2,-9.175011E-3,-9.6446835E-4,1.8373478E-2,8.269291E-3,1.0905171E-2,-1.6483713E-2,3.0530246E-2,-5.535664E-4,-2.5051695E-3,5.773156E-3,3.2029292E-3,1.396829E-2,3.125956E-2,8.523591E-3,2.7172672E-2,1.9569574E-3,-1.6803095E-2,1.569797E-2,5.2914633E-3,1.266261E-2,-4.872074E-3,1.4054666E-2,-3.2290753E-2,-1.6524248E-3,2.4014683E-3,-5.335794E-3,2.768705E-3,8.6485315E-3,1.3296089E-2,1.5518899E-3,-7.912738E-3,2.7171024E-3,-3.7803054E-3,1.4413452E-2,2.0426253E-2,1.0540839E-2,2.8289739E-2,9.062644E-3,-1.7971266E-2,1.4801521E-2,2.808862E-2,2.184636E-3,2.1135513E-2,2.8561262E-2,1.5533402E-3,2.870525E-2,-2.308776E-2,1.49497455E-2,1.3498102E-2,-8.240656E-3,2.2994516E-2,1.0971899E-2,2.4051496E-3,-3.280385E-2,3.142903E-2,1.6092377E-2],"categories":[],"categories_nodes":[],"categories_segments":[],"categories_sizes":[],"default_left":[0,0,0,0,0,0,0,0,0,0,0,0,0,0,0,0,0,0,0,0,0,0,0,0,0,0,0,0,0,0,0,0,0,0,0,0,0,0,0,0,0,0,0,0,0,0,0,0,0,0,0,0,0,0,0,0,0,0,0,0,0,0,0,0,0,0,0,0,0,0,0,0,0,0,0,0,0,0,0,0,0,0,0,0,0,0,0,0,0,0,0,0,0,0,0,0,0,0,0,0,0,0,0,0,0,0,0,0,0,0,0,0,0,0,0,0,0,0,0,0,0,0,0,0,0],"id":4,"left_children":[1,3,5,7,9,11,13,15,17,19,21,23,25,27,29,31,33,35,37,39,41,43,45,47,49,51,53,55,57,59,61,63,65,67,69,71,73,75,77,79,81,83,85,87,89,91,93,95,97,99,101,103,105,107,109,111,-1,113,115,117,119,121,123,-1,-1,-1,-1,-1,-1,-1,-1,-1,-1,-1,-1,-1,-1,-1,-1,-1,-1,-1,-1,-1,-1,-1,-1,-1,-1,-1,-1,-1,-1,-1,-1,-1,-1,-1,-1,-1,-1,-1,-1,-1,-1,-1,-1,-1,-1,-1,-1,-1,-1,-1,-1,-1,-1,-1,-1,-1,-1,-1,-1,-1,-1],"loss_changes":[5.403581E2,2.2145125E2,1.1077414E2,1.6927518E2,3.0500923E1,6.582532E1,2.6997375E1,8.188095E1,3.196495E1,1.2188473E1,1.7856106E1,2.8272518E1,1.8434998E1,2.8659515E0,2.0659775E1,5.0427826E1,3.5631218E1,9.784622E0,1.07746105E1,1.0571917E1,5.7093277E0,1.0970383E1,1.1685532E1,1.6616333E1,1.6343512E1,4.143097E0,8.325071E0,2.6195831E0,5.069449E0,1.7540161E1,1.0366011E1,8.472742E1,2.212011E1,8.715193E0,1.2170303E1,8.565887E0,6.6429257E0,5.340253E0,1.1035204E1,8.451217E0,2.7464504E0,4.8266068E0,3.6427455E0,1.0637299E1,9.026102E0,1.37472105E1,9.584957E0,8.814451E0,6.37706E0,2.7135956E1,1.793379E1,9.073509E0,3.856533E0,8.554683E0,3.2740598E0,1.8938446E0,0E0,2.366149E0,4.0928826E0,1.0440002E1,6.0510254E0,8.294349E0,3.3354282E-1,0E0,0E0,0E0,0E0,0E0,0E0,0E0,0E0,0E0,0E0,0E0,0E0,0E0,0E0,0E0,0E0,0E0,0E0,0E0,0E0,0E0,0E0,0E0,0E0,0E0,0E0,0E0,0E0,0E0,0E0,0E0,0E0,0E0,0E0,0E0,0E0,0E0,0E0,0E0,0E0,0E0,0E0,0E0,0E0,0E0,0E0,0E0,0E0,0E0,0E0,0E0,0E0,0E0,0E0,0E0,0E0,0E0,0E0,0E0,0E0,0E0,0E0],"parents":[2147483647,0,0,1,1,2,2,3,3,4,4,5,5,6,6,7,7,8,8,9,9,10,10,11,11,12,12,13,13,14,14,15,15,16,16,17,17,18,18,19,19,20,20,21,21,22,22,23,23,24,24,25,25,26,26,27,27,28,28,29,29,30,30,31,31,32,32,33,33,34,34,35,35,36,36,37,37,38,38,39,39,40,40,41,41,42,42,43,43,44,44,45,45,46,46,47,47,48,48,49,49,50,50,51,51,52,52,53,53,54,54,55,55,57,57,58,58,59,59,60,60,61,61,62,62],"right_children":[2,4,6,8,10,12,14,16,18,20,22,24,26,28,30,32,34,36,38,40,42,44,46,48,50,52,54,56,58,60,62,64,66,68,70,72,74,76,78,80,82,84,86,88,90,92,94,96,98,100,102,104,106,108,110,112,-1,114,116,118,120,122,124,-1,-1,-1,-1,-1,-1,-1,-1,-1,-1,-1,-1,-1,-1,-1,-1,-1,-1,-1,-1,-1,-1,-1,-1,-1,-1,-1,-1,-1,-1,-1,-1,-1,-1,-1,-1,-1,-1,-1,-1,-1,-1,-1,-1,-1,-1,-1,-1,-1,-1,-1,-1,-1,-1,-1,-1,-1,-1,-1,-1,-1,-1],"split_conditions":[1.7605145E-1,7.471312E-1,1.0555987E0,1.492813E0,-3.2712993E-1,1.7690318E0,-3.2712993E-1,4.898202E-1,-5.816703E-1,1.672534E0,-3.1071356E-1,3.4031242E-1,1.6632495E0,-1.0737521E-2,1.6632495E0,7.6483583E-1,-1.397744E-1,2.5842533E0,3.6843604E-1,6.299158E-1,7.3776454E-1,1.6632495E0,-4.3517622E-1,8.6187613E-1,2.129686E0,4.887919E0,3.1536376E0,8.821039E-1,2.2270724E-1,1.0398468E0,2.6761873E0,-1.078066E0,-4.1197634E-1,2.8893575E-1,1.3019606E-1,8.8689315E-1,3.8045985E-1,9.241196E-1,1.540155E-1,4.699113E-2,1.45466E0,1.225103E0,9.316777E-1,4.5040748E-1,6.390827E-1,-2.8400463E-1,7.477068E-1,3.123024E-1,1.5584172E0,1.3019606E-1,7.6483583E-1,-8.4097004E-1,2.4578278E0,1.5484132E0,3.6858663E-2,1.3640664E0,1.1057091E-3,1.7128141E-1,3.4654796E-1,3.590793E0,1.2331345E0,1.5947703E0,5.1614416E-1,-4.397855E-3,-1.0418557E-2,2.787352E-3,-4.526228E-3,3.2071301E-3,1.2810927E-2,-9.175011E-3,-9.6446835E-4,1.8373478E-2,8.269291E-3,1.0905171E-2,-1.6483713E-2,3.0530246E-2,-5.535664E-4,-2.5051695E-3,5.773156E-3,3.2029292E-3,1.396829E-2,3.125956E-2,8.523591E-3,2.7172672E-2,1.9569574E-3,-1.6803095E-2,1.569797E-2,5.2914633E-3,1.266261E-2,-4.872074E-3,1.4054666E-2,-3.2290753E-2,-1.6524248E-3,2.4014683E-3,-5.335794E-3,2.768705E-3,8.6485315E-3,1.3296089E-2,1.5518899E-3,-7.912738E-3,2.7171024E-3,-3.7803054E-3,1.4413452E-2,2.0426253E-2,1.0540839E-2,2.8289739E-2,9.062644E-3,-1.7971266E-2,1.4801521E-2,2.808862E-2,2.184636E-3,2.1135513E-2,2.8561262E-2,1.5533402E-3,2.870525E-2,-2.308776E-2,1.49497455E-2,1.3498102E-2,-8.240656E-3,2.2994516E-2,1.0971899E-2,2.4051496E-3,-3.280385E-2,3.142903E-2,1.6092377E-2],"split_indices":[13,2,2,3,3,16,3,122,14,2,24,9,9,21,9,3,4,7,1,69,139,9,1,16,12,21,16,135,112,108,16,1,112,16,2,140,5,7,21,1,44,143,140,23,130,16,134,127,52,2,3,15,1,51,3,2,0,111,112,10,8,131,8,0,0,0,0,0,0,0,0,0,0,0,0,0,0,0,0,0,0,0,0,0,0,0,0,0,0,0,0,0,0,0,0,0,0,0,0,0,0,0,0,0,0,0,0,0,0,0,0,0,0,0,0,0,0,0,0,0,0,0,0,0,0],"split_type":[0,0,0,0,0,0,0,0,0,0,0,0,0,0,0,0,0,0,0,0,0,0,0,0,0,0,0,0,0,0,0,0,0,0,0,0,0,0,0,0,0,0,0,0,0,0,0,0,0,0,0,0,0,0,0,0,0,0,0,0,0,0,0,0,0,0,0,0,0,0,0,0,0,0,0,0,0,0,0,0,0,0,0,0,0,0,0,0,0,0,0,0,0,0,0,0,0,0,0,0,0,0,0,0,0,0,0,0,0,0,0,0,0,0,0,0,0,0,0,0,0,0,0,0,0],"sum_hessian":[1.6275462E4,1.28239795E4,3.451483E3,9.842412E3,2.9815674E3,2.4415476E3,1.0099355E3,9.056077E3,7.863343E2,3.1533325E2,2.6662341E3,2.053439E3,3.8810852E2,2.0850888E2,8.014266E2,7.729361E3,1.3267163E3,3.100186E2,4.763157E2,2.4851149E2,6.682176E1,7.259731E2,1.9402611E3,1.1048148E3,9.4862415E2,3.4742923E2,4.06793E1,1.8769112E2,2.0817766E1,6.9215924E2,1.0926736E2,6.547575E3,1.1817859E3,8.1820044E2,5.0851584E2,2.8665442E2,2.3364183E1,1.8672268E1,4.5764343E2,2.2549203E2,2.3019457E1,5.846065E1,8.361107E0,6.149608E2,1.1101225E2,4.7804092E1,1.892457E3,7.593409E2,3.454739E2,7.787996E2,1.6982455E2,2.903666E2,5.7062603E1,2.6763096E1,1.3916202E1,1.8447658E2,3.2145348E0,1.4311296E1,6.5064692E0,4.207717E2,2.7138754E2,9.647628E1,1.2791076E1,3.3259075E3,3.2216675E3,5.0111694E2,6.8066895E2,7.458457E2,7.235473E1,2.3888972E2,2.696261E2,1.9872699E2,8.792743E1,1.2059283E1,1.13049E1,1.3749712E1,4.9225564E0,1.9591759E2,2.6172586E2,1.4635419E2,7.9137856E1,1.6849419E1,6.170037E0,5.2073425E1,6.3872256E0,3.7144868E0,4.64662E0,4.0471786E2,2.1024295E2,8.984747E1,2.116478E1,1.4312792E1,3.34913E1,1.7738778E3,1.1857918E2,4.6824557E2,2.9109534E2,3.083272E2,3.7146713E1,2.4382724E2,5.3497235E2,5.577088E1,1.1405368E2,1.8246133E2,1.0790527E2,4.6733826E1,1.0328777E1,1.9813694E1,6.949401E0,6.6458693E0,7.2703323E0,4.8937103E1,1.3553947E2,3.247236E0,1.106406E1,3.2668042E0,3.239665E0,4.0536157E2,1.5410112E1,2.343152E2,3.707235E1,9.222947E1,4.2468085E0,6.5559382E0,6.2351375E0],"tree_param":{"num_deleted":"0","num_feature":"162","num_nodes":"125","size_leaf_vector":"1"}},{"base_weights":[3.9864925E-4,-7.223211E-2,4.521312E-1,-1.4515136E-1,1.5848382E-1,3.5685697E-1,7.496522E-1,-1.9465458E-1,1.5722243E-1,3.5543332E-1,9.137919E-2,2.626971E-1,5.9368795E-1,8.0488974E-1,2.8867027E-1,-8.698708E-2,-2.9927397E-1,3.4425378E-1,5.2737482E-2,5.2667266E-1,1.515293E-1,1.7597078E-3,2.2070935E-1,3.5827774E-1,-5.235848E-2,6.633896E-1,1.4761186E-1,8.3225405E-1,4.0809486E-2,7.1113807E-1,-1.9076866E-1,-1.8933502E-1,8.478358E-2,-5.785655E-1,-1.9130471E-1,4.0389687E-1,-1.4907692E-1,1.1620292E-1,-2.0844729E-1,6.2398446E-1,1.1771967E-1,-1.1557334E-1,3.598874E-1,7.465417E-2,-1.9283378E-1,3.539729E-1,4.1826278E-2,4.1644704E-1,8.995312E-2,-2.5085825E-1,3.098377E-1,8.3745575E-1,5.4242265E-1,4.0475535E-1,-3.9501494E-1,8.491703E-1,1.9268662E-1,-5.41452E-1,4.850386E-1,2.0528379E-1,1.1014674E0,9.951534E-2,-1.037431E0,-6.3820565E-3,-1.6544176E-3,5.7451805E-4,6.119931E-3,-2.5740957E-2,-9.261664E-3,-3.4054797E-3,-9.922523E-3,1.7336154E-2,7.3773745E-3,2.723366E-3,-1.7967794E-2,-6.075565E-4,7.0191957E-3,-6.5591335E-3,2.6771715E-2,1.6983172E-2,-1.2137128E-2,-3.2570098E-2,4.676315E-3,-1.0769537E-2,2.1852353E-3,1.2002337E-2,-9.920206E-3,-7.831389E-4,8.840376E-3,-4.488063E-3,-3.9040625E-2,1.08953705E-2,-7.269133E-3,-2.6829313E-3,5.107607E-3,1.01973545E-2,1.929693E-2,-3.7756378E-3,1.1731813E-2,-9.006935E-3,1.3952242E-2,1.4480625E-2,4.2154413E-4,2.716551E-2,1.5158601E-2,1.5027878E-2,-1.8903721E-2,3.251711E-3,2.2975199E-2,-2.1098353E-2,5.894414E-3,2.0125022E-2,2.7193775E-2,2.1210292E-2,-1.5015179E-2,-2.7797226E-2,-0E0,-1.3464509E-3,2.2849787E-2,2.2450153E-2,-1.3531761E-2,3.147434E-2,1.3961419E-2,-4.705103E-3,2.5660634E-2,-3.116464E-3,-4.500516E-2],"categories":[],"categories_nodes":[],"categories_segments":[],"categories_sizes":[],"default_left":[0,0,0,0,0,0,0,0,0,0,0,0,0,0,0,0,0,0,0,0,0,0,0,0,0,0,0,0,0,0,0,0,0,0,0,0,0,0,0,0,0,0,0,0,0,0,0,0,0,0,0,0,0,0,0,0,0,0,0,0,0,0,0,0,0,0,0,0,0,0,0,0,0,0,0,0,0,0,0,0,0,0,0,0,0,0,0,0,0,0,0,0,0,0,0,0,0,0,0,0,0,0,0,0,0,0,0,0,0,0,0,0,0,0,0,0,0,0,0,0,0,0,0,0,0,0,0],"id":5,"left_children":[1,3,5,7,9,11,13,15,17,19,21,23,25,27,29,31,33,35,37,39,41,43,45,47,49,51,53,55,57,59,61,63,65,67,69,71,73,75,77,79,81,83,85,87,89,91,93,95,97,99,101,103,105,107,109,111,113,115,117,119,121,123,125,-1,-1,-1,-1,-1,-1,-1,-1,-1,-1,-1,-1,-1,-1,-1,-1,-1,-1,-1,-1,-1,-1,-1,-1,-1,-1,-1,-1,-1,-1,-1,-1,-1,-1,-1,-1,-1,-1,-1,-1,-1,-1,-1,-1,-1,-1,-1,-1,-1,-1,-1,-1,-1,-1,-1,-1,-1,-1,-1,-1,-1,-1,-1,-1],"loss_changes":[5.342612E2,2.3598964E2,6.359613E1,1.5957167E2,4.4431046E1,3.7906906E1,1.3592133E1,1.0310593E2,2.9233551E1,2.9710495E1,2.9104118E1,3.6952835E1,1.4913376E1,1.003479E1,1.2271823E1,7.941615E1,1.3987814E2,1.5872681E1,1.5971419E1,1.8317123E1,2.1863121E1,2.1074238E1,2.4446003E1,1.4581589E1,2.0565475E1,8.327057E0,9.424431E0,4.8246765E0,4.755307E0,5.9927063E0,7.1765776E0,1.861332E1,1.5552696E1,1.16273254E2,3.843239E1,1.48137665E1,7.903076E0,1.6156158E1,9.15725E0,7.6449585E0,7.2046976E0,1.0007025E1,1.536677E1,2.9353035E1,1.1594915E1,2.1597061E1,9.5726185E0,7.1030884E0,1.398782E1,1.3024427E1,6.978672E0,7.9136276E0,8.392662E0,5.7764373E0,5.586798E0,6.4367065E0,6.4605203E0,2.209606E0,2.290527E0,7.2468004E0,2.3549652E-1,5.453663E0,4.143412E0,0E0,0E0,0E0,0E0,0E0,0E0,0E0,0E0,0E0,0E0,0E0,0E0,0E0,0E0,0E0,0E0,0E0,0E0,0E0,0E0,0E0,0E0,0E0,0E0,0E0,0E0,0E0,0E0,0E0,0E0,0E0,0E0,0E0,0E0,0E0,0E0,0E0,0E0,0E0,0E0,0E0,0E0,0E0,0E0,0E0,0E0,0E0,0E0,0E0,0E0,0E0,0E0,0E0,0E0,0E0,0E0,0E0,0E0,0E0,0E0,0E0,0E0,0E0,0E0],"parents":[2147483647,0,0,1,1,2,2,3,3,4,4,5,5,6,6,7,7,8,8,9,9,10,10,11,11,12,12,13,13,14,14,15,15,16,16,17,17,18,18,19,19,20,20,21,21,22,22,23,23,24,24,25,25,26,26,27,27,28,28,29,29,30,30,31,31,32,32,33,33,34,34,35,35,36,36,37,37,38,38,39,39,40,40,41,41,42,42,43,43,44,44,45,45,46,46,47,47,48,48,49,49,50,50,51,51,52,52,53,53,54,54,55,55,56,56,57,57,58,58,59,59,60,60,61,61,62,62],"right_children":[2,4,6,8,10,12,14,16,18,20,22,24,26,28,30,32,34,36,38,40,42,44,46,48,50,52,54,56,58,60,62,64,66,68,70,72,74,76,78,80,82,84,86,88,90,92,94,96,98,100,102,104,106,108,110,112,114,116,118,120,122,124,126,-1,-1,-1,-1,-1,-1,-1,-1,-1,-1,-1,-1,-1,-1,-1,-1,-1,-1,-1,-1,-1,-1,-1,-1,-1,-1,-1,-1,-1,-1,-1,-1,-1,-1,-1,-1,-1,-1,-1,-1,-1,-1,-1,-1,-1,-1,-1,-1,-1,-1,-1,-1,-1,-1,-1,-1,-1,-1,-1,-1,-1,-1,-1,-1],"split_conditions":[4.9351114E-1,7.471312E-1,1.8337625E0,1.1288245E0,3.6858663E-2,1.0555987E0,1.6632495E0,-4.2460135E-1,-5.2061486E-1,1.0242529E0,1.3640664E0,7.533342E-1,1.6632495E0,3.5298377E-1,-7.416792E-1,4.139884E-1,-1.782715E-1,2.2522266E0,1.588173E0,1.8583906E-1,1.3640664E0,1.0242529E0,6.3743776E-1,1.2561463E0,7.471312E-1,1.1597122E0,2.6469365E-1,2.9206831E0,-4.6579963E-1,1.0555987E0,2.4785244E0,8.8689315E-1,5.021058E-2,3.6858663E-2,7.533342E-1,-1.782715E-1,4.3465644E-1,2.3037641E-1,9.2709905E-1,1.5977054E0,2.7027857E-2,-7.196055E-2,2.2433867E0,1.0186412E0,1.0174112E0,2.1079273E0,6.810527E-1,3.2898147E0,1.492813E0,-1.3946508E-1,5.1614416E-1,-7.3559296E-1,3.9896762E0,1.3525463E0,6.752626E-1,1.3640664E0,-2.963094E-1,4.4311726E-1,4.0084726E-1,3.6858663E-2,3.937576E0,1.9244019E0,1.4678067E0,-6.3820565E-3,-1.6544176E-3,5.7451805E-4,6.119931E-3,-2.5740957E-2,-9.261664E-3,-3.4054797E-3,-9.922523E-3,1.7336154E-2,7.3773745E-3,2.723366E-3,-1.7967794E-2,-6.075565E-4,7.0191957E-3,-6.5591335E-3,2.6771715E-2,1.6983172E-2,-1.2137128E-2,-3.2570098E-2,4.676315E-3,-1.0769537E-2,2.1852353E-3,1.2002337E-2,-9.920206E-3,-7.831389E-4,8.840376E-3,-4.488063E-3,-3.9040625E-2,1.08953705E-2,-7.269133E-3,-2.6829313E-3,5.107607E-3,1.01973545E-2,1.929693E-2,-3.7756378E-3,1.1731813E-2,-9.006935E-3,1.3952242E-2,1.4480625E-2,4.2154413E-4,2.716551E-2,1.5158601E-2,1.5027878E-2,-1.8903721E-2,3.251711E-3,2.2975199E-2,-2.1098353E-2,5.894414E-3,2.0125022E-2,2.7193775E-2,2.1210292E-2,-1.5015179E-2,-2.7797226E-2,-0E0,-1.3464509E-3,2.2849787E-2,2.2450153E-2,-1.3531761E-2,3.147434E-2,1.3961419E-2,-4.705103E-3,2.5660634E-2,-3.116464E-3,-4.500516E-2],"split_indices":[13,2,111,3,3,2,9,4,26,0,2,0,9,148,107,122,2,7,7,107,2,0,142,7,2,0,128,0,0,2,108,140,16,3,0,2,134,68,68,119,110,7,0,78,133,0,131,21,3,120,8,12,94,109,132,2,21,134,3,3,144,46,56,0,0,0,0,0,0,0,0,0,0,0,0,0,0,0,0,0,0,0,0,0,0,0,0,0,0,0,0,0,0,0,0,0,0,0,0,0,0,0,0,0,0,0,0,0,0,0,0,0,0,0,0,0,0,0,0,0,0,0,0,0,0,0,0],"split_type":[0,0,0,0,0,0,0,0,0,0,0,0,0,0,0,0,0,0,0,0,0,0,0,0,0,0,0,0,0,0,0,0,0,0,0,0,0,0,0,0,0,0,0,0,0,0,0,0,0,0,0,0,0,0,0,0,0,0,0,0,0,0,0,0,0,0,0,0,0,0,0,0,0,0,0,0,0,0,0,0,0,0,0,0,0,0,0,0,0,0,0,0,0,0,0,0,0,0,0,0,0,0,0,0,0,0,0,0,0,0,0,0,0,0,0,0,0,0,0,0,0,0,0,0,0,0,0],"sum_hessian":[1.6280638E4,1.4025784E4,2.254853E3,1.0658097E4,3.367688E3,1.7094183E3,5.454345E2,9.159295E3,1.498802E3,8.545572E2,2.5131309E3,1.2245775E3,4.8484082E2,4.8634323E2,5.909131E1,4.515175E3,4.6441196E3,5.3615173E2,9.6265027E2,4.6351956E2,3.910376E2,1.4855266E3,1.0276041E3,9.398201E2,2.8475745E2,4.1875742E2,6.608341E1,4.692885E2,1.7054728E1,3.139744E1,2.7693869E1,2.829819E3,1.6853557E3,1.2936011E3,3.3505186E3,4.7869156E2,5.74602E1,7.752063E2,1.87444E2,3.73854E2,8.966558E1,1.7119215E2,2.1984544E2,1.0815372E3,4.0398938E2,5.8805493E2,4.3954926E2,7.71633E2,1.6818716E2,1.8433632E2,1.0042113E2,1.6956924E2,2.4918816E2,4.5131855E1,2.0951557E1,4.5676184E2,1.2526665E1,7.177049E0,9.877679E0,1.4283877E1,1.7113562E1,2.094082E1,6.753048E0,2.0051729E3,8.2464636E2,1.1798452E3,5.0551056E2,4.728463E2,8.207547E2,2.5021091E3,8.4840936E2,1.57411E2,3.2128058E2,3.9136147E1,1.832405E1,4.009371E2,3.742692E2,1.8218903E2,5.254983E0,3.6804474E2,5.8092413E0,3.1000276E0,8.656555E1,6.926535E1,1.01926796E2,1.9531566E2,2.4529789E1,7.717077E2,3.0982947E2,3.977079E2,6.2814837E0,5.387645E2,4.9290375E1,2.2540334E2,2.1414592E2,7.043614E2,6.727156E1,1.01439896E2,6.674727E1,1.6578384E2,1.8552464E1,5.491633E1,4.55048E1,9.720318E1,7.2366066E1,2.4463153E2,4.556628E0,2.8806316E1,1.632554E1,1.2703924E1,8.247634E0,3.0918973E2,1.475721E2,7.0382013E0,5.4884634E0,3.4071681E0,3.769881E0,4.1777925E0,5.6998863E0,7.566434E0,6.7174435E0,1.397247E1,3.1410916E0,1.616413E1,4.776691E0,3.2571435E0,3.4959044E0],"tree_param":{"num_deleted":"0","num_feature":"162","num_nodes":"127","size_leaf_vector":"1"}},{"base_weights":[-1.010889E-3,-1.0043649E-1,3.1709915E-1,-1.7115577E-1,-2.9985765E-2,2.2225335E-1,6.2252885E-1,-2.3246369E-1,-7.672667E-2,-5.368316E-3,-2.2120012E-1,2.777521E-1,-1.0730601E-1,6.801908E-1,1.885088E-1,-2.6096502E-1,2.0899625E-1,-6.1754066E-2,-4.348056E-1,-4.123915E-2,7.968162E-2,-3.6856604E-1,-5.138133E-2,5.218164E-1,2.130951E-1,3.5524365E-2,-3.2803044E-1,5.89427E-1,8.880581E-1,5.864398E-1,-1.6662917E-1,2.85203E-1,-2.6759773E-1,1.4790973E-1,9.727876E-1,-6.820587E-2,7.575163E-1,-1.2810898E0,-3.369659E-1,-4.890646E-2,4.7491023E-1,1.05012044E-1,-1.0782681E-1,-3.290956E-1,-1.3135273E0,-1.06214456E-1,4.5787334E-1,5.520555E-1,-3.355338E-1,2.640824E-1,3.7820037E-2,-5.1784962E-2,4.362335E-1,-5.0997907E-1,1.5487228E-1,6.2975556E-1,9.540817E-2,9.1032493E-1,-1.1350459E-2,7.3962003E-1,-1.8079907E-1,-3.6229178E-1,8.08354E-1,1.234105E-2,-3.6021307E-2,-6.6010333E-3,-1.1940774E-2,1.5368994E-2,5.011132E-4,3.138397E-2,-0E0,3.382973E-3,-2.321977E-3,3.0593144E-2,5.9851864E-3,-5.65524E-3,-5.413955E-2,-1.1930771E-2,8.384437E-3,-2.033251E-3,1.3580886E-3,-1.2780682E-2,1.5958784E-2,1.5785365E-3,5.941389E-3,-8.5811474E-4,-2.4644805E-2,-6.5944823E-3,-2.1248462E-2,-4.581193E-2,-7.931019E-3,-4.23588E-3,1.0830522E-2,1.787949E-2,-2.0452842E-2,1.3215462E-2,2.6112651E-2,4.971697E-3,-4.604913E-2,8.23974E-3,2.849254E-3,1.6814567E-3,-1.7983055E-2,-2.610562E-3,1.9486949E-2,1.484275E-2,-2.0072792E-2,-1.4704923E-2,1.8806815E-2,-1.4067276E-3,1.5423303E-2,1.7593646E-2,3.8220377E-3,8.97002E-3,-1.5169499E-2,2.4465982E-2,-1.1764169E-3,2.2350801E-2,-1.8080147E-3,-1.7460125E-2,5.527642E-3,-4.029491E-3,-3.3057194E-2,2.9994706E-2,8.133428E-3],"categories":[],"categories_nodes":[],"categories_segments":[],"categories_sizes":[],"default_left":[0,0,0,0,0,0,0,0,0,0,0,0,0,0,0,0,0,0,0,0,0,0,0,0,0,0,0,0,0,0,0,0,0,0,0,0,0,0,0,0,0,0,0,0,0,0,0,0,0,0,0,0,0,0,0,0,0,0,0,0,0,0,0,0,0,0,0,0,0,0,0,0,0,0,0,0,0,0,0,0,0,0,0,0,0,0,0,0,0,0,0,0,0,0,0,0,0,0,0,0,0,0,0,0,0,0,0,0,0,0,0,0,0,0,0,0,0,0,0,0,0,0,0,0,0],"id":6,"left_children":[1,3,5,7,9,11,13,15,17,19,21,23,25,27,29,31,33,35,37,39,41,43,45,47,49,51,53,55,57,59,61,63,65,67,69,71,73,75,77,79,81,83,85,87,89,91,93,95,97,99,101,103,105,107,109,111,113,115,-1,117,119,121,123,-1,-1,-1,-1,-1,-1,-1,-1,-1,-1,-1,-1,-1,-1,-1,-1,-1,-1,-1,-1,-1,-1,-1,-1,-1,-1,-1,-1,-1,-1,-1,-1,-1,-1,-1,-1,-1,-1,-1,-1,-1,-1,-1,-1,-1,-1,-1,-1,-1,-1,-1,-1,-1,-1,-1,-1,-1,-1,-1,-1,-1,-1],"loss_changes":[5.140734E2,6.1669067E1,1.11902374E2,3.571663E1,2.9178549E1,5.4084915E1,2.2721466E1,4.717003E1,1.2962701E1,1.6774042E1,1.7623516E1,3.973349E1,1.3478886E1,1.4685089E1,1.5486148E1,1.27964325E1,1.0343438E1,1.22937765E1,7.5256367E0,1.5268377E1,7.751094E0,1.3572571E1,9.191153E0,1.3865494E1,1.7834343E1,9.125754E0,1.4848673E1,1.111467E1,7.4859467E0,6.234318E0,1.1154137E1,1.29470415E1,1.1311584E1,1.1717379E1,3.3845167E0,8.926105E0,3.4758415E0,7.2982483E0,6.7063475E0,1.0708936E1,7.169592E0,7.745493E0,1.1874428E1,1.347662E1,5.6371975E0,8.320411E0,8.922229E0,1.1089218E1,1.389549E1,1.1430717E1,8.310195E0,7.838015E0,7.238455E0,7.1335354E0,4.2176533E0,8.839401E0,7.229765E0,3.5794983E0,0E0,3.8465881E0,1.8354621E0,8.746673E0,1.1479597E0,0E0,0E0,0E0,0E0,0E0,0E0,0E0,0E0,0E0,0E0,0E0,0E0,0E0,0E0,0E0,0E0,0E0,0E0,0E0,0E0,0E0,0E0,0E0,0E0,0E0,0E0,0E0,0E0,0E0,0E0,0E0,0E0,0E0,0E0,0E0,0E0,0E0,0E0,0E0,0E0,0E0,0E0,0E0,0E0,0E0,0E0,0E0,0E0,0E0,0E0,0E0,0E0,0E0,0E0,0E0,0E0,0E0,0E0,0E0,0E0,0E0,0E0],"parents":[2147483647,0,0,1,1,2,2,3,3,4,4,5,5,6,6,7,7,8,8,9,9,10,10,11,11,12,12,13,13,14,14,15,15,16,16,17,17,18,18,19,19,20,20,21,21,22,22,23,23,24,24,25,25,26,26,27,27,28,28,29,29,30,30,31,31,32,32,33,33,34,34,35,35,36,36,37,37,38,38,39,39,40,40,41,41,42,42,43,43,44,44,45,45,46,46,47,47,48,48,49,49,50,50,51,51,52,52,53,53,54,54,55,55,56,56,57,57,59,59,60,60,61,61,62,62],"right_children":[2,4,6,8,10,12,14,16,18,20,22,24,26,28,30,32,34,36,38,40,42,44,46,48,50,52,54,56,58,60,62,64,66,68,70,72,74,76,78,80,82,84,86,88,90,92,94,96,98,100,102,104,106,108,110,112,114,116,-1,118,120,122,124,-1,-1,-1,-1,-1,-1,-1,-1,-1,-1,-1,-1,-1,-1,-1,-1,-1,-1,-1,-1,-1,-1,-1,-1,-1,-1,-1,-1,-1,-1,-1,-1,-1,-1,-1,-1,-1,-1,-1,-1,-1,-1,-1,-1,-1,-1,-1,-1,-1,-1,-1,-1,-1,-1,-1,-1,-1,-1,-1,-1,-1,-1],"split_conditions":[1.4570065E-1,-2.3625961E-1,1.1705521E0,3.7653437E-1,1.418378E0,1.418378E0,1.6632495E0,1.2214171E0,1.7676113E0,5.235753E-1,3.6843604E-1,-6.3780653E-1,1.001781E0,2.779901E0,8.5482955E-1,-7.57636E-1,2.6630008E0,1.0199724E0,-1.94881E-1,1.4513111E0,1.00862E0,1.9063264E0,6.2043095E-1,3.590793E0,1.2331345E0,9.241196E-1,8.571199E-1,1.9819264E0,3.3270612E0,-2.056036E-1,2.9717853E0,-1.5458557E-1,1.6241113E0,1.2876507E0,1.5937327E0,4.6965814E-1,7.609235E-1,6.5458137E-1,2.461187E0,1.0113258E0,1.1428498E0,6.1787486E-1,1.074212E0,1.8370087E0,1.1419468E0,1.4854909E0,1.269863E0,2.6293893E0,1.4387034E0,1.001781E0,1.6377783E0,3.5021536E0,1.6163603E0,1.692048E0,6.898809E-1,1.950125E0,1.5471662E0,1.8993428E0,-1.1350459E-2,1.652526E0,6.5458137E-1,4.0551853E0,3.958307E0,1.234105E-2,-3.6021307E-2,-6.6010333E-3,-1.1940774E-2,1.5368994E-2,5.011132E-4,3.138397E-2,-0E0,3.382973E-3,-2.321977E-3,3.0593144E-2,5.9851864E-3,-5.65524E-3,-5.413955E-2,-1.1930771E-2,8.384437E-3,-2.033251E-3,1.3580886E-3,-1.2780682E-2,1.5958784E-2,1.5785365E-3,5.941389E-3,-8.5811474E-4,-2.4644805E-2,-6.5944823E-3,-2.1248462E-2,-4.581193E-2,-7.931019E-3,-4.23588E-3,1.0830522E-2,1.787949E-2,-2.0452842E-2,1.3215462E-2,2.6112651E-2,4.971697E-3,-4.604913E-2,8.23974E-3,2.849254E-3,1.6814567E-3,-1.7983055E-2,-2.610562E-3,1.9486949E-2,1.484275E-2,-2.0072792E-2,-1.4704923E-2,1.8806815E-2,-1.4067276E-3,1.5423303E-2,1.7593646E-2,3.8220377E-3,8.97002E-3,-1.5169499E-2,2.4465982E-2,-1.1764169E-3,2.2350801E-2,-1.8080147E-3,-1.7460125E-2,5.527642E-3,-4.029491E-3,-3.3057194E-2,2.9994706E-2,8.133428E-3],"split_indices":[16,16,69,123,6,6,9,34,5,123,1,24,9,17,6,14,34,124,0,81,130,5,69,10,8,7,4,6,0,120,108,124,101,91,103,128,128,119,5,1,39,0,24,0,4,44,73,143,32,9,39,124,55,99,1,8,56,131,0,54,119,115,108,0,0,0,0,0,0,0,0,0,0,0,0,0,0,0,0,0,0,0,0,0,0,0,0,0,0,0,0,0,0,0,0,0,0,0,0,0,0,0,0,0,0,0,0,0,0,0,0,0,0,0,0,0,0,0,0,0,0,0,0,0,0],"split_type":[0,0,0,0,0,0,0,0,0,0,0,0,0,0,0,0,0,0,0,0,0,0,0,0,0,0,0,0,0,0,0,0,0,0,0,0,0,0,0,0,0,0,0,0,0,0,0,0,0,0,0,0,0,0,0,0,0,0,0,0,0,0,0,0,0,0,0,0,0,0,0,0,0,0,0,0,0,0,0,0,0,0,0,0,0,0,0,0,0,0,0,0,0,0,0,0,0,0,0,0,0,0,0,0,0,0,0,0,0,0,0,0,0,0,0,0,0,0,0,0,0,0,0,0,0],"sum_hessian":[1.6253226E4,1.2383625E4,3.8696008E3,6.1785356E3,6.205089E3,2.9539421E3,9.1565857E2,3.744755E3,2.4337808E3,5.4986255E3,7.064636E2,2.5286514E3,4.25291E2,8.07645E2,1.0801355E2,3.5182144E3,2.2654047E2,2.3372441E3,9.653657E1,3.8689026E3,1.6297227E3,3.773612E2,3.2910245E2,5.281232E2,2.0005281E3,2.581559E2,1.6713509E2,5.6445844E2,2.4318658E2,5.092079E1,5.709276E1,4.1613052E1,3.4766013E3,2.1068423E2,1.5856233E1,2.31977E3,1.7474182E1,9.005807E0,8.753076E1,3.8131482E3,5.575451E1,1.4367012E3,1.9302153E2,3.6325073E2,1.4110451E1,2.9784818E2,3.1254248E1,5.1052454E2,1.7598694E1,1.5488184E3,4.5170963E2,2.1215941E2,4.5996487E1,1.2158367E2,4.555141E1,5.214174E2,4.3041E1,2.394565E2,3.730084E0,4.262236E1,8.298431E0,4.802618E1,9.066577E0,3.7997604E1,3.6154485E0,3.1696133E3,3.0698816E2,4.7522045E1,1.631622E2,1.2832444E1,3.0237887E0,2.0981781E2,2.1099521E3,9.365289E0,8.108892E0,4.2033725E0,4.802434E0,7.488073E1,1.265003E1,2.9822825E3,8.308658E2,6.245878E0,4.950863E1,1.043731E3,3.9297015E2,1.7765103E2,1.5370505E1,3.1214954E2,5.110122E1,9.544395E0,4.5660553E0,2.7030414E2,2.7544037E1,2.690533E1,4.3489175E0,4.5740552E2,5.3119038E1,1.3175489E1,4.423203E0,1.1864813E3,3.623371E2,4.36844E2,1.4865617E1,2.0097125E2,1.118816E1,4.2071774E1,3.9247134E0,1.1762502E2,3.9586549E0,3.0833145E1,1.47182665E1,4.8525943E2,3.615799E1,3.1946615E1,1.1094383E1,2.3593591E2,3.520586E0,3.7822987E1,4.799373E0,3.6760466E0,4.622385E0,3.961387E1,8.412315E0,4.8005533E0,4.266023E0],"tree_param":{"num_deleted":"0","num_feature":"162","num_nodes":"125","size_leaf_vector":"1"}},{"base_weights":[-5.1897854E-7,-7.080357E-2,4.4529974E-1,-1.3886084E-1,1.4384308E-1,3.5455382E-1,7.368977E-1,-2.9051512E-1,-8.817946E-2,2.7600572E-1,-2.864209E-2,4.2665336E-1,-1.0368081E-1,9.1100097E-1,4.4848573E-1,2.5261238E-1,-3.0404392E-1,5.9467513E-4,-1.609243E-1,1.5968047E-1,4.7778147E-1,9.53367E-3,-5.1658344E-1,3.2754475E-1,6.90483E-1,-1.9658338E-1,5.582553E-1,9.316721E-1,-7.50697E-3,2.881996E-1,9.84236E-1,3.5821036E-1,-2.300214E-2,-1.2402476E0,-2.9558697E-1,-3.8596198E-2,1.9823338E-1,-2.244308E-1,5.1496264E-2,9.3970016E-2,4.2036712E-1,2.925746E-1,5.987921E-1,-4.3341666E-2,3.194133E-1,-3.5199836E-1,-1.0887767E0,2.5101504E-1,4.4134212E-1,7.27693E-1,2.8059632E-1,-6.527257E-2,-7.0520127E-1,8.9755553E-1,-3.411932E-1,9.556722E-1,5.418445E-2,5.0621974E-1,-9.938171E-2,1.0784272E0,4.0041992E-1,1.2986902E-2,-1.6069453E-2,-5.6097914E-2,-1.7466359E-2,-8.431625E-3,-2.2844689E-3,-2.3494074E-3,1.6181623E-3,8.544223E-3,1.8785177E-3,-9.437094E-3,-2.9348517E-3,2.2033565E-3,-7.887648E-3,2.8284793E-3,-2.2923367E-2,7.0541077E-3,1.7432427E-2,1.0179504E-2,-1.13510275E-2,1.8746387E-2,1.1050325E-2,-2.7208027E-4,-1.1146999E-2,1.3639927E-2,-6.004708E-4,1.1211515E-2,-1.2862399E-2,-1.6068103E-2,-5.34587E-2,5.2572386E-3,1.4613703E-2,1.2640108E-2,-1.0640898E-2,1.9780677E-2,1.776314E-3,1.3528839E-2,-2.7451895E-2,-8.700126E-3,6.796502E-3,-1.3867041E-2,-5.0311975E-2,2.8692098E-2,2.957172E-3,4.3895836E-3,-2.715032E-2,2.5655476E-2,-3.773518E-3,1.4669727E-2,-6.587042E-3,1.6961278E-2,-2.9249333E-3,-8.156389E-3,1.551692E-2,3.2478478E-2,2.0345723E-2,-5.1310323E-3,2.3022348E-2],"categories":[],"categories_nodes":[],"categories_segments":[],"categories_sizes":[],"default_left":[0,0,0,0,0,0,0,0,0,0,0,0,0,0,0,0,0,0,0,0,0,0,0,0,0,0,0,0,0,0,0,0,0,0,0,0,0,0,0,0,0,0,0,0,0,0,0,0,0,0,0,0,0,0,0,0,0,0,0,0,0,0,0,0,0,0,0,0,0,0,0,0,0,0,0,0,0,0,0,0,0,0,0,0,0,0,0,0,0,0,0,0,0,0,0,0,0,0,0,0,0,0,0,0,0,0,0,0,0,0,0,0,0,0,0,0,0,0,0],"id":7,"left_children":[1,3,5,7,9,11,13,15,17,19,21,23,25,27,29,31,33,35,37,39,41,43,45,47,49,51,53,55,-1,57,59,61,-1,63,65,67,69,71,73,75,77,79,81,83,85,87,89,91,93,95,97,99,101,103,105,107,109,111,113,115,117,-1,-1,-1,-1,-1,-1,-1,-1,-1,-1,-1,-1,-1,-1,-1,-1,-1,-1,-1,-1,-1,-1,-1,-1,-1,-1,-1,-1,-1,-1,-1,-1,-1,-1,-1,-1,-1,-1,-1,-1,-1,-1,-1,-1,-1,-1,-1,-1,-1,-1,-1,-1,-1,-1,-1,-1,-1,-1],"loss_changes":[5.1387195E2,2.054688E2,5.883252E1,8.201082E1,7.722011E1,5.6470367E1,2.6125946E1,1.9707397E1,5.172526E1,4.48618E1,2.743804E1,3.8276276E1,1.4309595E1,8.405853E0,1.6888622E1,7.853662E0,2.0193283E1,2.7955427E1,5.9405167E1,2.0758665E1,1.5450821E1,2.2376871E1,9.599047E0,9.180046E0,5.8465424E0,1.351146E1,9.008831E0,6.6436768E0,0E0,1.3265313E1,2.015274E0,7.901609E0,0E0,1.0404255E1,1.25251465E1,1.5097247E1,9.417538E0,5.0830063E1,1.1265051E1,1.2117526E1,8.720467E0,1.8684908E1,8.057617E0,1.4489721E1,1.3458866E1,8.931191E0,9.2765255E0,9.9658165E0,1.3458946E1,4.7985992E0,1.0906269E1,1.3961884E1,7.9953537E0,2.8486996E0,3.0905955E0,5.2585754E0,1.5796814E0,8.475269E0,8.181355E0,8.733978E-1,2.3494809E0,0E0,0E0,0E0,0E0,0E0,0E0,0E0,0E0,0E0,0E0,0E0,0E0,0E0,0E0,0E0,0E0,0E0,0E0,0E0,0E0,0E0,0E0,0E0,0E0,0E0,0E0,0E0,0E0,0E0,0E0,0E0,0E0,0E0,0E0,0E0,0E0,0E0,0E0,0E0,0E0,0E0,0E0,0E0,0E0,0E0,0E0,0E0,0E0,0E0,0E0,0E0,0E0,0E0,0E0,0E0,0E0,0E0,0E0],"parents":[2147483647,0,0,1,1,2,2,3,3,4,4,5,5,6,6,7,7,8,8,9,9,10,10,11,11,12,12,13,13,14,14,15,15,16,16,17,17,18,18,19,19,20,20,21,21,22,22,23,23,24,24,25,25,26,26,27,27,29,29,30,30,31,31,33,33,34,34,35,35,36,36,37,37,38,38,39,39,40,40,41,41,42,42,43,43,44,44,45,45,46,46,47,47,48,48,49,49,50,50,51,51,52,52,53,53,54,54,55,55,56,56,57,57,58,58,59,59,60,60],"right_children":[2,4,6,8,10,12,14,16,18,20,22,24,26,28,30,32,34,36,38,40,42,44,46,48,50,52,54,56,-1,58,60,62,-1,64,66,68,70,72,74,76,78,80,82,84,86,88,90,92,94,96,98,100,102,104,106,108,110,112,114,116,118,-1,-1,-1,-1,-1,-1,-1,-1,-1,-1,-1,-1,-1,-1,-1,-1,-1,-1,-1,-1,-1,-1,-1,-1,-1,-1,-1,-1,-1,-1,-1,-1,-1,-1,-1,-1,-1,-1,-1,-1,-1,-1,-1,-1,-1,-1,-1,-1,-1,-1,-1,-1,-1,-1,-1,-1,-1,-1],"split_conditions":[4.8292917E-1,7.471312E-1,1.3640664E0,-5.117779E-1,8.5482955E-1,1.418378E0,1.418378E0,-7.2244287E-1,-2.7226725E-1,1.1777317E-1,2.5454748E0,1.5566823E0,2.3419309E0,2.1877193E0,3.1536376E0,9.0848005E-1,-1.1996073E0,1.532447E-1,3.609953E-1,1.672534E0,1.0555987E0,6.299158E-1,6.06679E-1,1.0107915E0,1.6632495E0,1.6632495E0,1.7015494E0,2.2537327E0,-7.50697E-3,5.1614416E-1,2.2843988E-1,-1.7505717E-1,-2.300214E-2,-2.991761E-1,3.4733847E-1,4.9128565E-1,-2.8981873E-1,1.3019606E-1,3.0394166E0,1.7185115E0,4.7267652E-1,1.2951715E0,1.001781E0,1.972468E0,1.001781E0,2.8626886E-1,3.000315E-2,1.2606581E0,3.590793E0,1.6676759E0,1.2951715E0,7.471312E-1,1.6265258E0,1.5467228E0,1.4440085E0,5.8329225E-1,2.4174473E-1,3.7663865E-1,2.0368314E0,7.8257686E-1,3.4031242E-1,1.2986902E-2,-1.6069453E-2,-5.6097914E-2,-1.7466359E-2,-8.431625E-3,-2.2844689E-3,-2.3494074E-3,1.6181623E-3,8.544223E-3,1.8785177E-3,-9.437094E-3,-2.9348517E-3,2.2033565E-3,-7.887648E-3,2.8284793E-3,-2.2923367E-2,7.0541077E-3,1.7432427E-2,1.0179504E-2,-1.13510275E-2,1.8746387E-2,1.1050325E-2,-2.7208027E-4,-1.1146999E-2,1.3639927E-2,-6.004708E-4,1.1211515E-2,-1.2862399E-2,-1.6068103E-2,-5.34587E-2,5.2572386E-3,1.4613703E-2,1.2640108E-2,-1.0640898E-2,1.9780677E-2,1.776314E-3,1.3528839E-2,-2.7451895E-2,-8.700126E-3,6.796502E-3,-1.3867041E-2,-5.0311975E-2,2.8692098E-2,2.957172E-3,4.3895836E-3,-2.715032E-2,2.5655476E-2,-3.773518E-3,1.4669727E-2,-6.587042E-3,1.6961278E-2,-2.9249333E-3,-8.156389E-3,1.551692E-2,3.2478478E-2,2.0345723E-2,-5.1310323E-3,2.3022348E-2],"split_indices":[13,2,2,13,6,6,6,14,6,70,6,111,69,77,16,127,13,25,12,2,2,69,30,26,9,9,0,134,0,8,30,124,0,137,129,129,70,2,11,103,123,0,9,0,9,128,26,69,10,101,0,2,56,53,54,127,5,148,115,131,9,0,0,0,0,0,0,0,0,0,0,0,0,0,0,0,0,0,0,0,0,0,0,0,0,0,0,0,0,0,0,0,0,0,0,0,0,0,0,0,0,0,0,0,0,0,0,0,0,0,0,0,0,0,0,0,0,0,0],"split_type":[0,0,0,0,0,0,0,0,0,0,0,0,0,0,0,0,0,0,0,0,0,0,0,0,0,0,0,0,0,0,0,0,0,0,0,0,0,0,0,0,0,0,0,0,0,0,0,0,0,0,0,0,0,0,0,0,0,0,0,0,0,0,0,0,0,0,0,0,0,0,0,0,0,0,0,0,0,0,0,0,0,0,0,0,0,0,0,0,0,0,0,0,0,0,0,0,0,0,0,0,0,0,0,0,0,0,0,0,0,0,0,0,0,0,0,0,0,0,0],"sum_hessian":[1.6298939E4,1.4063693E4,2.235247E3,1.0678731E4,3.3849617E3,1.7062474E3,5.2899963E2,2.6733176E3,8.0054136E3,1.9167352E3,1.4682266E3,1.4745917E3,2.316557E2,3.2865076E2,2.0034888E2,6.4423874E1,2.6088938E3,3.6048887E3,4.400525E3,1.2170293E3,6.99706E2,1.3620316E3,1.0619485E2,1.073416E3,4.011756E2,2.0375073E2,2.7904968E1,3.2332617E2,5.3245792E0,1.552172E2,4.5131687E1,5.942152E1,5.002352E0,2.2323353E1,2.5865703E3,3.008195E3,5.966936E2,3.3882043E3,1.0123207E3,9.7318933E2,2.4383997E2,2.7788916E2,4.218168E2,1.1636023E3,1.9842937E2,8.35143E1,2.2680553E1,6.4384784E2,4.295682E2,3.6698663E2,3.4188976E1,1.6277162E2,4.097911E1,2.0378412E1,7.5265555E0,3.145007E2,8.825469E0,9.9442505E1,5.5774685E1,3.815768E1,6.974008E0,5.2655365E1,6.7661552E0,8.0467005E0,1.4276653E1,2.3265754E3,2.599948E2,2.0016777E3,1.0065172E3,2.9996942E2,2.9672415E2,1.5617765E3,1.8264279E3,9.2873083E2,8.358981E1,9.609396E2,1.2249789E1,1.4965463E2,9.418533E1,2.4681085E2,3.1078325E1,2.6043658E2,1.6138019E2,1.0710757E3,9.252666E1,1.2610383E2,7.232554E1,1.195963E1,7.1554665E1,1.5801115E1,6.8794384E0,5.502367E2,9.361113E1,4.1211227E2,1.7455933E1,3.557044E2,1.1282228E1,2.9536438E1,4.652537E0,8.975397E1,7.3017654E1,3.6552227E1,4.4268847E0,1.6096685E1,4.281727E0,4.500095E0,3.0264606E0,3.10588E2,3.912693E0,3.2967522E0,5.528717E0,8.173026E1,1.7712242E1,4.3194496E1,1.2580189E1,2.40298E1,1.412788E1,3.1207256E0,3.8532822E0],"tree_param":{"num_deleted":"0","num_feature":"162","num_nodes":"119","size_leaf_vector":"1"}},{"base_weights":[3.9885007E-3,-7.005984E-2,3.544249E-1,-1.3602516E-1,1.4421101E-1,2.4175009E-1,6.10959E-1,-1.847359E-1,1.6709599E-1,3.051467E-1,1.7503833E-2,2.7816394E-1,-4.9185482E-1,7.572271E-1,3.2436088E-1,-8.645773E-2,-2.7693185E-1,7.3574364E-2,3.4859568E-1,5.33485E-1,1.502172E-1,9.189044E-2,-2.1119279E-1,2.0067458E-1,6.367724E-1,-5.97762E-1,4.9064144E-1,8.578428E-1,2.4360047E-1,5.361565E-1,8.7527735E-3,-1.4299425E-1,1.560572E-1,-5.479079E-1,-1.7234726E-1,1.0747969E-1,-4.3722114E-1,3.8786235E-1,-1.8227738E-1,4.5897916E-1,9.15758E-1,5.6737185E-2,3.268993E-1,2.2744963E-1,-1.0920301E-1,-1.5303773E-1,-8.3504874E-1,2.3991571E-1,-1.7658548E-1,6.859473E-1,1.7604695E-1,-8.520069E-1,-2.3630746E-1,2.5797402E-2,-2.7891912E-3,9.4502383E-1,6.0165226E-1,-7.062747E-2,7.939161E-1,3.796066E-1,8.1750524E-1,1.0987725E-1,-5.5857196E-2,-6.472162E-3,-1.7977176E-3,6.2307944E-3,8.225004E-4,-2.4993334E-2,-8.329726E-3,-2.1369853E-3,-7.847347E-3,7.296826E-3,-1.902339E-4,-4.2108152E-2,-8.114983E-3,1.6852673E-2,6.899545E-3,-1.2213087E-2,1.3917074E-2,1.3801542E-2,-2.3466034E-3,2.7151162E-2,4.7826497E-3,-2.2801932E-2,2.0933072E-3,5.1167062E-3,1.5956914E-2,3.0063444E-3,1.4824311E-2,-2.1825128E-3,-2.2675393E-2,-4.8590642E-3,1.874773E-2,-1.4241815E-2,-4.8633832E-2,1.0707247E-2,3.8191492E-3,-7.618778E-3,1.8377801E-2,1.86473E-2,-3.3102229E-3,1.0599904E-2,-1.3013978E-2,-2.778715E-3,-2.783949E-2,4.1906894E-4,-3.890712E-2,2.7049495E-2,1.9939115E-2,1.2199231E-2,2.7341798E-2,-3.482435E-2,4.1132068E-4,2.2985404E-2,-0E0,1.2103288E-2,-9.81448E-3,2.3987424E-2,-1.5305345E-2,-2.0259863E-3,1.6035654E-2],"categories":[],"categories_nodes":[],"categories_segments":[],"categories_sizes":[],"default_left":[0,0,0,0,0,0,0,0,0,0,0,0,0,0,0,0,0,0,0,0,0,0,0,0,0,0,0,0,0,0,0,0,0,0,0,0,0,0,0,0,0,0,0,0,0,0,0,0,0,0,0,0,0,0,0,0,0,0,0,0,0,0,0,0,0,0,0,0,0,0,0,0,0,0,0,0,0,0,0,0,0,0,0,0,0,0,0,0,0,0,0,0,0,0,0,0,0,0,0,0,0,0,0,0,0,0,0,0,0,0,0,0,0,0,0,0,0,0,0,0,0],"id":8,"left_children":[1,3,5,7,9,11,13,15,17,19,21,23,25,27,29,31,33,35,37,39,41,43,45,47,49,51,53,55,57,59,61,63,65,67,69,71,73,75,77,79,81,83,85,87,89,91,93,95,97,99,101,103,105,-1,-1,107,109,111,113,115,117,119,-1,-1,-1,-1,-1,-1,-1,-1,-1,-1,-1,-1,-1,-1,-1,-1,-1,-1,-1,-1,-1,-1,-1,-1,-1,-1,-1,-1,-1,-1,-1,-1,-1,-1,-1,-1,-1,-1,-1,-1,-1,-1,-1,-1,-1,-1,-1,-1,-1,-1,-1,-1,-1,-1,-1,-1,-1,-1,-1],"loss_changes":[4.2274078E2,1.9008649E2,8.1923584E1,1.5185455E2,6.449545E1,5.285096E1,3.6001373E1,8.021146E1,2.4086857E1,4.915428E1,3.0144264E1,5.2127472E1,9.943291E0,2.930487E1,1.9590767E1,5.8837368E1,1.2935867E2,1.6279459E1,1.0154049E1,1.5547546E1,1.3668625E1,3.6512383E1,1.5542486E1,2.2983711E1,7.362015E0,7.5051327E0,2.8939326E0,1.0081726E1,1.6571308E1,7.363201E0,2.5426117E1,2.650956E1,8.020645E0,1.17319244E2,3.750177E1,1.7101652E1,8.195666E0,1.4027321E1,6.7923417E0,1.639579E1,7.1120453E0,1.1173233E1,1.0398573E1,3.0180222E1,1.0569864E1,1.0571406E1,9.916441E0,2.20121E1,1.4278992E1,4.850418E0,5.1380076E0,7.157425E0,1.1499505E1,0E0,0E0,4.5143433E0,6.971218E0,6.7455764E0,2.0174446E0,6.846096E0,8.157196E0,1.0704232E1,0E0,0E0,0E0,0E0,0E0,0E0,0E0,0E0,0E0,0E0,0E0,0E0,0E0,0E0,0E0,0E0,0E0,0E0,0E0,0E0,0E0,0E0,0E0,0E0,0E0,0E0,0E0,0E0,0E0,0E0,0E0,0E0,0E0,0E0,0E0,0E0,0E0,0E0,0E0,0E0,0E0,0E0,0E0,0E0,0E0,0E0,0E0,0E0,0E0,0E0,0E0,0E0,0E0,0E0,0E0,0E0,0E0,0E0,0E0],"parents":[2147483647,0,0,1,1,2,2,3,3,4,4,5,5,6,6,7,7,8,8,9,9,10,10,11,11,12,12,13,13,14,14,15,15,16,16,17,17,18,18,19,19,20,20,21,21,22,22,23,23,24,24,25,25,26,26,27,27,28,28,29,29,30,30,31,31,32,32,33,33,34,34,35,35,36,36,37,37,38,38,39,39,40,40,41,41,42,42,43,43,44,44,45,45,46,46,47,47,48,48,49,49,50,50,51,51,52,52,55,55,56,56,57,57,58,58,59,59,60,60,61,61],"right_children":[2,4,6,8,10,12,14,16,18,20,22,24,26,28,30,32,34,36,38,40,42,44,46,48,50,52,54,56,58,60,62,64,66,68,70,72,74,76,78,80,82,84,86,88,90,92,94,96,98,100,102,104,106,-1,-1,108,110,112,114,116,118,120,-1,-1,-1,-1,-1,-1,-1,-1,-1,-1,-1,-1,-1,-1,-1,-1,-1,-1,-1,-1,-1,-1,-1,-1,-1,-1,-1,-1,-1,-1,-1,-1,-1,-1,-1,-1,-1,-1,-1,-1,-1,-1,-1,-1,-1,-1,-1,-1,-1,-1,-1,-1,-1,-1,-1,-1,-1,-1,-1],"split_conditions":[3.8769126E-1,7.471312E-1,1.0555987E0,1.1288245E0,5.730554E-1,1.5660901E0,1.418378E0,-8.3581567E-1,3.6542428E-1,4.0084726E-1,1.7001522E0,1.5706196E0,2.4150672E0,1.2331345E0,5.19175E-1,4.999311E-1,-1.782715E-1,3.0394166E0,2.5842533E0,1.672534E0,1.3640664E0,1.6366978E-1,2.2433867E0,1.418378E0,1.6632495E0,7.471312E-1,3.6542249E0,7.6483583E-1,1.2048454E0,1.6305672E0,3.3907974E0,3.4825727E-1,5.303249E-1,3.6858663E-2,4.824156E-1,5.920929E-1,-5.6468785E-1,-1.782715E-1,4.7465384E-1,1.2407664E0,7.7328926E-1,-7.36014E-1,6.7312545E-1,1.672534E0,1.831958E-1,1.4638112E0,1.5360985E0,-1.5901524E-1,-4.5579594E-1,7.7716565E0,1.2127507E0,7.4237996E-1,2.5454748E0,2.5797402E-2,-2.7891912E-3,-1.6046357E-1,1.3697339E0,-9.139205E-1,3.084881E0,1.4598399E0,3.3270612E0,2.289469E0,-5.5857196E-2,-6.472162E-3,-1.7977176E-3,6.2307944E-3,8.225004E-4,-2.4993334E-2,-8.329726E-3,-2.1369853E-3,-7.847347E-3,7.296826E-3,-1.902339E-4,-4.2108152E-2,-8.114983E-3,1.6852673E-2,6.899545E-3,-1.2213087E-2,1.3917074E-2,1.3801542E-2,-2.3466034E-3,2.7151162E-2,4.7826497E-3,-2.2801932E-2,2.0933072E-3,5.1167062E-3,1.5956914E-2,3.0063444E-3,1.4824311E-2,-2.1825128E-3,-2.2675393E-2,-4.8590642E-3,1.874773E-2,-1.4241815E-2,-4.8633832E-2,1.0707247E-2,3.8191492E-3,-7.618778E-3,1.8377801E-2,1.86473E-2,-3.3102229E-3,1.0599904E-2,-1.3013978E-2,-2.778715E-3,-2.783949E-2,4.1906894E-4,-3.890712E-2,2.7049495E-2,1.9939115E-2,1.2199231E-2,2.7341798E-2,-3.482435E-2,4.1132068E-4,2.2985404E-2,-0E0,1.2103288E-2,-9.81448E-3,2.3987424E-2,-1.5305345E-2,-2.0259863E-3,1.6035654E-2],"split_indices":[13,2,2,3,6,0,6,6,15,3,6,25,89,8,5,122,2,11,7,2,2,120,0,6,9,2,73,3,25,69,6,123,69,3,0,7,13,2,122,71,139,7,133,2,124,126,52,21,15,139,5,23,6,0,0,136,69,17,87,69,0,2,0,0,0,0,0,0,0,0,0,0,0,0,0,0,0,0,0,0,0,0,0,0,0,0,0,0,0,0,0,0,0,0,0,0,0,0,0,0,0,0,0,0,0,0,0,0,0,0,0,0,0,0,0,0,0,0,0,0,0],"split_type":[0,0,0,0,0,0,0,0,0,0,0,0,0,0,0,0,0,0,0,0,0,0,0,0,0,0,0,0,0,0,0,0,0,0,0,0,0,0,0,0,0,0,0,0,0,0,0,0,0,0,0,0,0,0,0,0,0,0,0,0,0,0,0,0,0,0,0,0,0,0,0,0,0,0,0,0,0,0,0,0,0,0,0,0,0,0,0,0,0,0,0,0,0,0,0,0,0,0,0,0,0,0,0,0,0,0,0,0,0,0,0,0,0,0,0,0,0,0,0,0,0],"sum_hessian":[1.6288177E4,1.3446928E4,2.8412483E3,1.0282331E4,3.1645974E3,1.975459E3,8.657893E2,8.859388E3,1.4229429E3,1.3930931E3,1.7715042E3,1.882626E3,9.283291E1,5.7216846E2,2.9362088E2,4.2896313E3,4.569757E3,9.402156E2,4.8272723E2,5.620931E2,8.31E2,1.3374966E3,4.340076E2,1.5493008E3,3.3332516E2,8.417026E1,8.66265E0,4.7783276E2,9.433566E1,1.7515388E2,1.1846702E2,3.4793687E3,8.102627E2,1.2713882E3,3.2983687E3,8.824544E2,5.7761166E1,4.499017E2,3.2825535E1,4.71967E2,9.012605E1,5.445761E2,2.864239E2,7.9930273E2,5.3819385E2,3.979793E2,3.6028263E1,1.4038987E3,1.4540219E2,3.0059973E2,3.272546E1,4.8642303E1,3.5527954E1,4.6721745E0,3.9904754E0,3.5474E2,1.2309279E2,6.0257214E1,3.407845E1,1.1388273E2,6.1271156E1,1.1375203E2,4.7149878E0,1.4748289E3,2.0045397E3,4.939319E2,3.1633084E2,4.6885794E2,8.025302E2,1.9017137E3,1.3966548E3,3.575119E2,5.249425E2,4.9759145E0,5.278525E1,1.5041794E2,2.9948376E2,2.385156E1,8.973975E0,4.235624E2,4.8404617E1,7.789168E1,1.2234377E1,1.2218116E1,5.32358E2,1.9435077E2,9.207312E1,5.9686017E2,2.0244261E2,5.205866E2,1.7607265E1,3.8495673E2,1.3022593E1,2.8728016E1,7.300247E0,5.1322675E2,8.9067194E2,1.2945203E2,1.5950168E1,2.9388504E2,6.714679E0,2.4849482E1,7.8759785E0,1.0677013E1,3.796529E1,2.9961653E1,5.566302E0,2.4929094E2,1.0544904E2,9.4240944E1,2.8851843E1,3.3809066E0,5.687631E1,3.0984001E1,3.0944464E0,1.035614E2,1.0321326E1,5.7893E1,3.378155E0,8.28996E1,3.0852432E1],"tree_param":{"num_deleted":"0","num_feature":"162","num_nodes":"121","size_leaf_vector":"1"}},{"base_weights":[-2.631979E-3,-8.880526E-2,3.260454E-1,-1.4997678E-1,1.16766036E-1,2.2279936E-1,5.8179003E-1,-1.848103E-1,2.5928536E-1,2.9679066E-1,5.7933055E-2,2.64741E-1,-4.1790473E-1,4.4481814E-1,7.5179154E-1,-9.6415326E-2,-2.6379478E-1,7.723172E-2,4.340459E-1,3.2806057E-2,4.358488E-1,-2.778559E-2,1.8494678E-1,1.7231037E-1,5.4150134E-1,-8.463165E-1,-1.727023E-1,5.198045E-1,1.1895065E-1,8.136067E-1,1.029942E-1,7.9957776E-2,-1.7153028E-1,-3.954189E-1,-1.1391573E-1,-1.2804736E-1,2.3039396E-1,5.812976E-1,2.3244971E-1,7.4819577E-1,-5.6476314E-2,4.6621856E-1,-3.916706E-1,6.11167E-2,-1.9859304E-1,2.1927318E-1,-3.548399E-1,3.088696E-1,9.9792555E-2,6.5126175E-1,3.3251184E-1,-4.2999548E-1,-1.4216071E0,-2.814222E-1,3.2016143E-1,5.867765E-1,6.576533E-2,2.603237E-1,-4.458003E-1,8.465201E-1,2.179481E-1,3.1955826E-1,-2.7103627E-2,1.1326318E-2,8.069266E-4,-6.9396547E-3,-2.385192E-3,-2.0213557E-2,-6.5605803E-3,-7.1872957E-4,-6.9958502E-3,-8.547839E-4,-2.195198E-2,-3.7793533E-3,8.467794E-3,1.6401462E-2,-1.0974783E-2,3.9303456E-3,2.1090392E-2,2.7326554E-2,-5.9865694E-3,1.0646352E-3,-2.0442037E-2,1.2942858E-2,-1.2367139E-2,3.5624674E-3,-2.755715E-2,-5.2073016E-4,8.063309E-3,-7.047191E-3,5.9193172E-3,3.2864567E-3,1.0817329E-2,-1.5671263E-2,1.354239E-2,5.714159E-3,1.6466338E-2,2.479816E-4,7.1726246E-3,1.7697815E-2,-1.4614895E-2,6.0488204E-3,2.1603508E-2,-2.355801E-2,9.58832E-3,-4.7048133E-2,-8.42155E-3,-2.0435132E-2,-3.7214952E-3,1.7522387E-2,-1.5318267E-2,2.5582163E-2,1.3497677E-2,4.464711E-3,-3.3236664E-2,1.2187386E-2,-1.0578489E-2,-3.327976E-2,-2.4354425E-3,2.0699803E-2,2.9350068E-2,1.4165422E-2,-2.7971253E-2,2.1700162E-2,-1.2357933E-2],"categories":[],"categories_nodes":[],"categories_segments":[],"categories_sizes":[],"default_left":[0,0,0,0,0,0,0,0,0,0,0,0,0,0,0,0,0,0,0,0,0,0,0,0,0,0,0,0,0,0,0,0,0,0,0,0,0,0,0,0,0,0,0,0,0,0,0,0,0,0,0,0,0,0,0,0,0,0,0,0,0,0,0,0,0,0,0,0,0,0,0,0,0,0,0,0,0,0,0,0,0,0,0,0,0,0,0,0,0,0,0,0,0,0,0,0,0,0,0,0,0,0,0,0,0,0,0,0,0,0,0,0,0,0,0,0,0,0,0,0,0,0,0,0,0],"id":9,"left_children":[1,3,5,7,9,11,13,15,17,19,21,23,25,27,29,31,33,35,37,39,41,43,45,47,49,51,53,55,57,59,61,63,65,67,69,71,73,75,77,79,81,83,85,87,89,91,93,95,97,99,101,103,105,107,109,111,113,115,117,119,121,123,-1,-1,-1,-1,-1,-1,-1,-1,-1,-1,-1,-1,-1,-1,-1,-1,-1,-1,-1,-1,-1,-1,-1,-1,-1,-1,-1,-1,-1,-1,-1,-1,-1,-1,-1,-1,-1,-1,-1,-1,-1,-1,-1,-1,-1,-1,-1,-1,-1,-1,-1,-1,-1,-1,-1,-1,-1,-1,-1,-1,-1,-1,-1],"loss_changes":[4.609352E2,1.621716E2,8.905484E1,1.4170657E2,3.1256306E1,6.480603E1,2.222165E1,6.3883026E1,2.4704811E1,2.6631866E1,2.4306139E1,5.7705566E1,1.5312952E1,1.3063652E1,1.7137054E1,5.7311897E1,9.5302155E1,1.2076895E1,1.1582336E1,1.6230701E1,1.2100044E1,2.0245697E1,1.6697357E1,1.6728447E1,1.2688538E1,1.2141144E1,5.1593294E0,1.3213768E1,8.21651E0,7.449341E0,9.538036E0,2.2170612E1,2.2362778E1,1.3965533E2,2.9520412E1,1.08601265E1,7.435109E0,9.083931E0,7.797943E0,8.113187E0,1.5695676E1,1.0144989E1,6.0650353E0,1.7297665E1,1.3144102E1,1.5147274E1,1.1305744E1,1.690009E1,1.7170073E1,8.297714E0,9.60763E0,1.2045257E1,8.010479E0,5.2317586E0,5.598474E0,1.0546005E1,7.8137894E0,1.1050602E1,5.6271334E0,5.4002686E0,9.135041E0,1.3308711E1,0E0,0E0,0E0,0E0,0E0,0E0,0E0,0E0,0E0,0E0,0E0,0E0,0E0,0E0,0E0,0E0,0E0,0E0,0E0,0E0,0E0,0E0,0E0,0E0,0E0,0E0,0E0,0E0,0E0,0E0,0E0,0E0,0E0,0E0,0E0,0E0,0E0,0E0,0E0,0E0,0E0,0E0,0E0,0E0,0E0,0E0,0E0,0E0,0E0,0E0,0E0,0E0,0E0,0E0,0E0,0E0,0E0,0E0,0E0,0E0,0E0,0E0,0E0],"parents":[2147483647,0,0,1,1,2,2,3,3,4,4,5,5,6,6,7,7,8,8,9,9,10,10,11,11,12,12,13,13,14,14,15,15,16,16,17,17,18,18,19,19,20,20,21,21,22,22,23,23,24,24,25,25,26,26,27,27,28,28,29,29,30,30,31,31,32,32,33,33,34,34,35,35,36,36,37,37,38,38,39,39,40,40,41,41,42,42,43,43,44,44,45,45,46,46,47,47,48,48,49,49,50,50,51,51,52,52,53,53,54,54,55,55,56,56,57,57,58,58,59,59,60,60,61,61],"right_children":[2,4,6,8,10,12,14,16,18,20,22,24,26,28,30,32,34,36,38,40,42,44,46,48,50,52,54,56,58,60,62,64,66,68,70,72,74,76,78,80,82,84,86,88,90,92,94,96,98,100,102,104,106,108,110,112,114,116,118,120,122,124,-1,-1,-1,-1,-1,-1,-1,-1,-1,-1,-1,-1,-1,-1,-1,-1,-1,-1,-1,-1,-1,-1,-1,-1,-1,-1,-1,-1,-1,-1,-1,-1,-1,-1,-1,-1,-1,-1,-1,-1,-1,-1,-1,-1,-1,-1,-1,-1,-1,-1,-1,-1,-1,-1,-1,-1,-1,-1,-1,-1,-1,-1,-1],"split_conditions":[1.7605145E-1,7.471312E-1,1.0555987E0,1.492813E0,3.6858663E-2,1.4306308E0,1.1773595E0,-4.2460135E-1,3.3524382E-1,-7.196055E-2,1.3640664E0,1.2438364E0,-1.13731325E-1,1.2331345E0,1.2127507E0,5.381273E-1,4.0084726E-1,1.8568016E0,1.3019606E-1,-3.211561E-1,1.6779045E0,8.887935E-1,2.1079273E0,-3.5102728E-1,5.1614416E-1,1.001781E0,1.1288245E0,1.6632495E0,1.5696557E0,2.785224E0,1.570964E0,-5.284703E-1,3.4825727E-1,-1.782715E-1,9.241196E-1,1.9201998E0,-2.4800012E-1,2.91628E0,7.824987E-1,4.5741573E-1,1.8370087E0,1.6868291E0,1.001781E0,1.0527762E0,1.5833231E0,2.1386642E-2,9.241196E-1,1.1288245E0,4.3866363E-1,1.692048E0,2.9149125E0,7.471312E-1,2.6264827E0,3.3668077E-1,2.012078E0,-3.2712993E-1,1.4298741E0,7.064434E-1,1.6340777E0,4.0732503E0,3.196217E-1,-2.3316132E-1,-2.7103627E-2,1.1326318E-2,8.069266E-4,-6.9396547E-3,-2.385192E-3,-2.0213557E-2,-6.5605803E-3,-7.1872957E-4,-6.9958502E-3,-8.547839E-4,-2.195198E-2,-3.7793533E-3,8.467794E-3,1.6401462E-2,-1.0974783E-2,3.9303456E-3,2.1090392E-2,2.7326554E-2,-5.9865694E-3,1.0646352E-3,-2.0442037E-2,1.2942858E-2,-1.2367139E-2,3.5624674E-3,-2.755715E-2,-5.2073016E-4,8.063309E-3,-7.047191E-3,5.9193172E-3,3.2864567E-3,1.0817329E-2,-1.5671263E-2,1.354239E-2,5.714159E-3,1.6466338E-2,2.479816E-4,7.1726246E-3,1.7697815E-2,-1.4614895E-2,6.0488204E-3,2.1603508E-2,-2.355801E-2,9.58832E-3,-4.7048133E-2,-8.42155E-3,-2.0435132E-2,-3.7214952E-3,1.7522387E-2,-1.5318267E-2,2.5582163E-2,1.3497677E-2,4.464711E-3,-3.3236664E-2,1.2187386E-2,-1.0578489E-2,-3.327976E-2,-2.4354425E-3,2.0699803E-2,2.9350068E-2,1.4165422E-2,-2.7971253E-2,2.1700162E-2,-1.2357933E-2],"split_indices":[13,2,2,3,3,0,23,4,21,7,2,16,1,8,5,127,3,3,2,9,50,0,0,23,8,9,3,9,101,0,51,15,123,2,7,7,107,7,128,129,0,145,9,81,55,23,7,3,2,99,16,2,73,16,35,3,90,133,117,23,80,120,0,0,0,0,0,0,0,0,0,0,0,0,0,0,0,0,0,0,0,0,0,0,0,0,0,0,0,0,0,0,0,0,0,0,0,0,0,0,0,0,0,0,0,0,0,0,0,0,0,0,0,0,0,0,0,0,0,0,0,0,0,0,0],"split_type":[0,0,0,0,0,0,0,0,0,0,0,0,0,0,0,0,0,0,0,0,0,0,0,0,0,0,0,0,0,0,0,0,0,0,0,0,0,0,0,0,0,0,0,0,0,0,0,0,0,0,0,0,0,0,0,0,0,0,0,0,0,0,0,0,0,0,0,0,0,0,0,0,0,0,0,0,0,0,0,0,0,0,0,0,0,0,0,0,0,0,0,0,0,0,0,0,0,0,0,0,0,0,0,0,0,0,0,0,0,0,0,0,0,0,0,0,0,0,0,0,0,0,0,0,0],"sum_hessian":[1.6273952E4,1.2894243E4,3.379709E3,9.937914E3,2.9563289E3,2.4090012E3,9.7070764E2,9.159078E3,7.788356E2,7.2689984E2,2.229429E3,2.2615747E3,1.4742665E2,5.393965E2,4.3131116E2,4.3236304E3,4.835448E3,3.8233707E2,3.9649847E2,2.514393E2,4.7546057E2,1.3307412E3,8.9868787E2,1.6965768E3,5.6499786E2,5.2849277E1,9.457738E1,4.37809E2,1.0158746E2,3.9343362E2,3.7877537E1,1.2908074E3,3.032823E3,2.57341E3,2.262038E3,1.6302025E2,2.1931683E2,2.2798698E2,1.685115E2,2.7523577E1,2.2391573E2,4.5908054E2,1.638001E1,8.74943E2,4.557982E2,8.455818E2,5.310608E1,5.8700397E2,1.1095729E3,3.690559E2,1.9594194E2,3.1490164E1,2.1359114E1,7.7960785E1,1.661659E1,3.8108475E2,5.6724247E1,8.174286E1,1.984461E1,3.7233493E2,2.1098692E1,3.2289497E1,5.588037E0,1.5941525E2,1.1313921E3,1.4304357E3,1.6023873E3,7.3309924E2,1.8403108E3,1.4366763E3,8.253618E2,1.4426387E2,1.8756378E1,4.2155815E1,1.7716101E2,2.1978714E2,8.199847E0,1.4771297E2,2.0798538E1,2.1374027E1,6.1495495E0,1.9766867E2,2.6247055E1,4.4838812E2,1.0692415E1,9.227774E0,7.1522365E0,6.5717194E2,2.1777101E2,3.931736E2,6.2624588E1,5.648229E2,2.807589E2,4.1971924E1,1.1134154E1,4.54317E2,1.3268697E2,7.275044E2,3.8206845E2,3.6402005E2,5.035846E0,1.624447E2,3.3497234E1,1.9972536E1,1.1517628E1,1.5718532E1,5.640583E0,1.6449263E1,6.151152E1,1.2278358E1,4.3382316E0,6.2005497E1,3.1907925E2,5.3270317E1,3.4539285E0,6.302185E1,1.8721006E1,5.370363E0,1.4474246E1,3.0244846E2,6.988646E1,1.729506E1,3.8036325E0,1.9820831E1,1.2468667E1],"tree_param":{"num_deleted":"0","num_feature":"162","num_nodes":"125","size_leaf_vector":"1"}},{"base_weights":[1.6714068E-3,-6.531598E-2,4.3032023E-1,-1.2731636E-1,1.3325241E-1,3.247416E-1,6.4737606E-1,-1.8696287E-1,8.374892E-2,2.9635194E-1,9.498353E-3,3.9498165E-1,-2.183982E-2,7.019514E-1,2.4218547E-1,-8.573675E-2,-3.101074E-1,2.5434595E-1,-5.958549E-2,5.115801E-1,1.5035038E-1,3.8181584E-2,-4.7478595E-1,2.783014E-1,6.380542E-1,-2.7055863E-1,1.8698053E-1,5.905837E-1,9.9650586E-1,4.6508825E-1,-3.328291E-1,-1.955915E-1,3.6457032E-2,-4.9836093E-1,-1.14458606E-1,1.8323933E-1,4.5339835E-1,-1.0923904E-1,1.861199E-1,5.435024E-1,-4.7091153E-1,9.1466404E-2,3.9600578E-1,1.4662051E-1,-1.1523949E-1,-7.542448E-1,-1.8610764E-1,1.8674111E-1,4.332268E-1,9.1024405E-1,4.7343862E-1,-1.7331143E-1,-1.4856844E0,3.244262E-1,-4.7999457E-1,6.537677E-1,7.612758E-2,1.0469521E0,3.4357142E-1,7.704705E-1,1.1155927E-2,2.19841E-2,-7.1008795E-1,7.765844E-4,-6.5017617E-3,-7.598456E-5,5.5651027E-3,-1.5963048E-2,-5.8858492E-3,-5.01582E-3,4.1339234E-3,8.870324E-3,7.69442E-4,-2.213431E-3,1.3516577E-2,-2.4693809E-3,-1.7270152E-2,6.343959E-3,-1.8152023E-2,1.5592157E-2,-1.7360579E-3,-0E0,-3.1052623E-2,1.4599155E-3,1.5173706E-2,1.2338757E-2,-1.0781248E-2,5.3326613E-3,-6.064279E-3,-1.4496079E-3,-8.450306E-3,-2.2268873E-2,1.4534193E-2,-1.1108271E-3,-4.014011E-2,5.6340354E-3,-1.5491807E-2,1.2281753E-2,-1.0445767E-2,2.5641734E-2,1.3279712E-2,1.5989548E-2,-1.4428189E-3,-4.088967E-4,-2.3113018E-2,-7.032535E-2,-9.374835E-3,1.0807339E-2,-1.5191645E-2,-1.851291E-2,7.1386592E-3,1.757327E-2,-9.950093E-3,6.8428735E-3,-1.9882085E-2,2.8608853E-2,5.8726952E-3,2.0379728E-2,-1.3553965E-2,2.5809253E-2,9.201895E-3,-1.9172128E-2,1.3901745E-2,-3.7614908E-2,-6.607619E-3],"categories":[],"categories_nodes":[],"categories_segments":[],"categories_sizes":[],"default_left":[0,0,0,0,0,0,0,0,0,0,0,0,0,0,0,0,0,0,0,0,0,0,0,0,0,0,0,0,0,0,0,0,0,0,0,0,0,0,0,0,0,0,0,0,0,0,0,0,0,0,0,0,0,0,0,0,0,0,0,0,0,0,0,0,0,0,0,0,0,0,0,0,0,0,0,0,0,0,0,0,0,0,0,0,0,0,0,0,0,0,0,0,0,0,0,0,0,0,0,0,0,0,0,0,0,0,0,0,0,0,0,0,0,0,0,0,0,0,0,0,0,0,0,0,0],"id":10,"left_children":[1,3,5,7,9,11,13,15,17,19,21,23,25,27,29,31,33,35,37,39,41,43,45,47,49,51,53,55,57,59,61,63,65,67,69,71,73,75,77,79,81,83,85,87,89,91,93,95,97,99,101,103,105,107,109,111,113,115,117,119,121,-1,123,-1,-1,-1,-1,-1,-1,-1,-1,-1,-1,-1,-1,-1,-1,-1,-1,-1,-1,-1,-1,-1,-1,-1,-1,-1,-1,-1,-1,-1,-1,-1,-1,-1,-1,-1,-1,-1,-1,-1,-1,-1,-1,-1,-1,-1,-1,-1,-1,-1,-1,-1,-1,-1,-1,-1,-1,-1,-1,-1,-1,-1,-1],"loss_changes":[4.6664688E2,1.7302393E2,5.005475E1,1.3485991E2,6.744289E1,3.607666E1,1.5619659E1,1.04026306E2,5.77397E1,4.5165543E1,2.6374521E1,3.465016E1,1.3010562E1,2.0100555E1,1.1214342E1,6.1575523E1,1.3861002E2,1.5110489E1,1.5648508E1,1.8441177E1,1.2353172E1,2.99099E1,8.333214E0,1.1673416E1,1.7352554E1,1.3120034E1,1.2529955E1,1.4829666E1,5.2231903E0,8.590313E0,1.1092435E1,2.7361916E1,1.4885138E1,5.5537354E1,3.7680595E1,1.8616455E1,8.864414E0,9.05702E0,1.0157055E1,1.5970886E1,6.1297946E0,1.2051357E1,9.5435295E0,2.1834333E1,9.118726E0,6.4836254E0,9.974271E0,1.0718262E1,8.115116E0,3.0766678E0,1.741858E1,1.1688545E1,9.935057E0,8.709198E0,4.034929E0,4.779541E0,7.831966E0,4.243561E0,5.2575154E0,2.8253803E0,1.0131474E1,0E0,5.7088833E0,0E0,0E0,0E0,0E0,0E0,0E0,0E0,0E0,0E0,0E0,0E0,0E0,0E0,0E0,0E0,0E0,0E0,0E0,0E0,0E0,0E0,0E0,0E0,0E0,0E0,0E0,0E0,0E0,0E0,0E0,0E0,0E0,0E0,0E0,0E0,0E0,0E0,0E0,0E0,0E0,0E0,0E0,0E0,0E0,0E0,0E0,0E0,0E0,0E0,0E0,0E0,0E0,0E0,0E0,0E0,0E0,0E0,0E0,0E0,0E0,0E0,0E0],"parents":[2147483647,0,0,1,1,2,2,3,3,4,4,5,5,6,6,7,7,8,8,9,9,10,10,11,11,12,12,13,13,14,14,15,15,16,16,17,17,18,18,19,19,20,20,21,21,22,22,23,23,24,24,25,25,26,26,27,27,28,28,29,29,30,30,31,31,32,32,33,33,34,34,35,35,36,36,37,37,38,38,39,39,40,40,41,41,42,42,43,43,44,44,45,45,46,46,47,47,48,48,49,49,50,50,51,51,52,52,53,53,54,54,55,55,56,56,57,57,58,58,59,59,60,60,62,62],"right_children":[2,4,6,8,10,12,14,16,18,20,22,24,26,28,30,32,34,36,38,40,42,44,46,48,50,52,54,56,58,60,62,64,66,68,70,72,74,76,78,80,82,84,86,88,90,92,94,96,98,100,102,104,106,108,110,112,114,116,118,120,122,-1,124,-1,-1,-1,-1,-1,-1,-1,-1,-1,-1,-1,-1,-1,-1,-1,-1,-1,-1,-1,-1,-1,-1,-1,-1,-1,-1,-1,-1,-1,-1,-1,-1,-1,-1,-1,-1,-1,-1,-1,-1,-1,-1,-1,-1,-1,-1,-1,-1,-1,-1,-1,-1,-1,-1,-1,-1,-1,-1,-1,-1,-1,-1],"split_conditions":[4.8292917E-1,7.471312E-1,1.4097924E0,7.6483583E-1,5.730554E-1,1.418378E0,1.9819264E0,-5.5404145E-1,-4.9368745E-1,4.0084726E-1,2.5454748E0,7.471312E-1,1.0555987E0,1.3640664E0,-2.1378191E-1,3.4733847E-1,1.3019606E-1,1.8568016E0,1.8568016E0,1.6835322E0,1.672534E0,1.7205699E-1,4.0084726E-1,1.0120287E0,3.6858663E-2,4.7211475E0,1.6632495E0,1.6632495E0,3.1355894E-1,4.7016984E-1,-2.0084623E-1,-4.5260245E-1,1.0295035E0,4.0084726E-1,5.398097E-1,1.0113258E0,-4.6579963E-1,1.7143708E0,3.0394166E0,1.0832614E0,1.001781E0,1.0791937E0,1.1130176E0,1.8370087E0,6.712279E-1,1.6504503E0,1.5804331E0,1.2951715E0,3.0394166E0,1.6632495E0,1.2331345E0,1.163162E0,1.5766786E0,3.182013E0,1.8089734E0,9.7298723E-1,1.2951715E0,1.6492E0,7.6483583E-1,6.7312545E-1,1.5256716E0,2.19841E-2,-2.7434236E-1,7.765844E-4,-6.5017617E-3,-7.598456E-5,5.5651027E-3,-1.5963048E-2,-5.8858492E-3,-5.01582E-3,4.1339234E-3,8.870324E-3,7.69442E-4,-2.213431E-3,1.3516577E-2,-2.4693809E-3,-1.7270152E-2,6.343959E-3,-1.8152023E-2,1.5592157E-2,-1.7360579E-3,-0E0,-3.1052623E-2,1.4599155E-3,1.5173706E-2,1.2338757E-2,-1.0781248E-2,5.3326613E-3,-6.064279E-3,-1.4496079E-3,-8.450306E-3,-2.2268873E-2,1.4534193E-2,-1.1108271E-3,-4.014011E-2,5.6340354E-3,-1.5491807E-2,1.2281753E-2,-1.0445767E-2,2.5641734E-2,1.3279712E-2,1.5989548E-2,-1.4428189E-3,-4.088967E-4,-2.3113018E-2,-7.032535E-2,-9.374835E-3,1.0807339E-2,-1.5191645E-2,-1.851291E-2,7.1386592E-3,1.757327E-2,-9.950093E-3,6.8428735E-3,-1.9882085E-2,2.8608853E-2,5.8726952E-3,2.0379728E-2,-1.3553965E-2,2.5809253E-2,9.201895E-3,-1.9172128E-2,1.3901745E-2,-3.7614908E-2,-6.607619E-3],"split_indices":[13,2,108,3,6,6,6,6,14,3,6,2,2,2,136,129,2,3,3,71,2,121,3,13,3,58,9,9,148,113,8,12,150,3,69,1,0,99,11,142,9,32,116,0,150,103,99,0,11,9,8,108,50,144,23,133,0,56,3,133,103,0,21,0,0,0,0,0,0,0,0,0,0,0,0,0,0,0,0,0,0,0,0,0,0,0,0,0,0,0,0,0,0,0,0,0,0,0,0,0,0,0,0,0,0,0,0,0,0,0,0,0,0,0,0,0,0,0,0,0,0,0,0,0,0],"split_type":[0,0,0,0,0,0,0,0,0,0,0,0,0,0,0,0,0,0,0,0,0,0,0,0,0,0,0,0,0,0,0,0,0,0,0,0,0,0,0,0,0,0,0,0,0,0,0,0,0,0,0,0,0,0,0,0,0,0,0,0,0,0,0,0,0,0,0,0,0,0,0,0,0,0,0,0,0,0,0,0,0,0,0,0,0,0,0,0,0,0,0,0,0,0,0,0,0,0,0,0,0,0,0,0,0,0,0,0,0,0,0,0,0,0,0,0,0,0,0,0,0,0,0,0,0],"sum_hessian":[1.624835E4,1.40525205E4,2.195829E3,1.0709563E4,3.3429568E3,1.4788464E3,7.1698267E2,8.350492E3,2.3590718E3,1.4413085E3,1.9016483E3,1.2299064E3,2.4894005E2,6.3112744E2,8.585526E1,4.5843867E3,3.766105E3,1.0773197E3,1.281752E3,5.8146655E2,8.598419E2,1.7961821E3,1.05466255E2,8.3238257E2,3.975238E2,1.1383817E2,1.3510187E2,4.5979895E2,1.7132849E2,6.214383E1,2.3711432E1,2.4144836E3,2.1699033E3,1.9184208E3,1.8476843E3,7.952524E2,2.8206732E2,1.0670708E3,2.1468115E2,5.6360223E2,1.7864378E1,6.948063E2,1.6503564E2,1.0529297E3,7.4325244E2,5.2783054E1,5.2683197E1,5.247012E2,3.076814E2,1.483307E2,2.491931E2,1.062265E2,7.611673E0,1.12483795E2,2.2618073E1,4.0909363E2,5.070532E1,1.5845868E2,1.2869809E1,3.668037E1,2.5463463E1,5.5110626E0,1.8200369E1,4.4070633E2,1.9737773E3,1.7697312E3,4.00172E2,1.3872158E3,5.31205E2,1.4465431E3,4.0114114E2,3.9924777E2,3.960046E2,2.712492E1,2.549424E2,1.0378782E3,2.9192614E1,2.0283003E2,1.1851124E1,5.241347E2,3.946748E1,1.1113933E1,6.750445E0,6.472129E2,4.759341E1,1.5212927E2,1.2906374E1,9.190475E2,1.3388217E2,5.7484357E2,1.6840886E2,4.977556E1,3.0074966E0,4.8265766E1,4.4174314E0,5.0806213E2,1.6639019E1,2.9694763E2,1.0733765E1,1.2833913E2,1.9991573E1,1.997172E2,4.9475895E1,8.7428635E1,1.8797869E1,3.2251935E0,4.3864794E0,1.0332345E2,9.160348E0,1.7668093E1,4.9499803E0,4.0521384E2,3.8797882E0,4.206379E1,8.64153E0,1.5164189E2,6.8167806E0,8.7427225E0,4.1270866E0,2.3849604E1,1.2830766E1,1.0247526E1,1.5215936E1,6.4661136E0,1.1734256E1],"tree_param":{"num_deleted":"0","num_feature":"162","num_nodes":"125","size_leaf_vector":"1"}},{"base_weights":[-3.254428E-3,-8.236878E-2,3.03389E-1,-1.4612351E-1,1.2903772E-1,2.056348E-1,5.750822E-1,-2.1063979E-1,8.9784615E-2,3.1225136E-1,6.867443E-2,1.3378204E-1,4.2900366E-1,6.331415E-1,1.5699042E-1,-1.1232232E-1,-3.285992E-1,2.2455698E-2,3.515419E-1,3.4127793E-1,-5.132068E-1,-4.9495636E-3,1.7897649E-1,2.1101615E-1,-1.4200965E-1,6.0212207E-1,2.0899731E-1,4.953813E-1,7.7731645E-1,2.3905522E-1,-3.2916505E-2,1.466215E-2,-1.9517623E-1,-5.054733E-1,-1.334571E-1,1.6086799E-1,-7.4558176E-2,3.9732122E-1,-5.386691E-1,3.6026958E-1,-7.701983E-1,-2.0751598E-1,-5.5306483E-2,2.8178614E-2,-4.3319383E-1,2.1450776E-1,-3.399839E-1,3.660589E-1,1.0501122E-1,-2.0417546E-1,7.235739E-1,8.973893E-1,4.692583E-1,-4.184256E-1,3.569736E-1,5.4437387E-1,-3.9390066E-1,8.135082E-1,-2.2373047E-1,1.6004679E-1,9.813511E-1,5.347601E-4,-2.575323E-2,-8.1133517E-4,-6.149382E-3,-1.6016508E-2,-6.3218377E-3,-3.7855515E-4,-6.909713E-3,2.1083912E-2,3.6692952E-3,-2.7661615E-3,8.488755E-3,1.6438756E-2,6.6423872E-3,1.399153E-2,-2.1795113E-2,1.029153E-2,-9.480091E-3,-4.2684893E-3,-3.7289385E-2,-1.7824473E-2,1.2673284E-2,-8.005335E-4,7.5193425E-3,4.5042946E-3,-1.7359864E-2,8.882684E-3,1.6910854E-3,-1.394514E-2,1.0081592E-2,6.8983324E-3,1.384828E-2,1.7876257E-4,6.110173E-3,-1.2422047E-2,-1.2386839E-3,2.444381E-2,-1.1995984E-2,2.5664989E-2,6.5210843E-3,1.364389E-2,-6.7397356E-3,1.8560785E-3,-2.808491E-2,7.1013025E-3,2.4467615E-2,9.65375E-3,1.7729595E-2,-1.9623777E-2,2.9147228E-2,2.4708677E-2,1.5839893E-2,-4.0068105E-2,8.2156425E-3,1.2873901E-3,1.8512271E-2,3.0136947E-2,1.2607212E-2],"categories":[],"categories_nodes":[],"categories_segments":[],"categories_sizes":[],"default_left":[0,0,0,0,0,0,0,0,0,0,0,0,0,0,0,0,0,0,0,0,0,0,0,0,0,0,0,0,0,0,0,0,0,0,0,0,0,0,0,0,0,0,0,0,0,0,0,0,0,0,0,0,0,0,0,0,0,0,0,0,0,0,0,0,0,0,0,0,0,0,0,0,0,0,0,0,0,0,0,0,0,0,0,0,0,0,0,0,0,0,0,0,0,0,0,0,0,0,0,0,0,0,0,0,0,0,0,0,0,0,0,0,0,0,0,0,0,0,0],"id":11,"left_children":[1,3,5,7,9,11,13,15,17,19,21,23,25,27,29,31,33,35,37,39,41,43,45,47,49,51,53,55,57,59,-1,61,63,65,67,69,71,73,75,77,79,81,-1,83,85,87,89,91,93,95,97,99,101,103,105,107,109,111,113,115,117,-1,-1,-1,-1,-1,-1,-1,-1,-1,-1,-1,-1,-1,-1,-1,-1,-1,-1,-1,-1,-1,-1,-1,-1,-1,-1,-1,-1,-1,-1,-1,-1,-1,-1,-1,-1,-1,-1,-1,-1,-1,-1,-1,-1,-1,-1,-1,-1,-1,-1,-1,-1,-1,-1,-1,-1,-1,-1],"loss_changes":[3.9382117E2,1.7395801E2,8.822839E1,1.5095317E2,3.299891E1,3.9197945E1,2.1183807E1,9.022528E1,3.7470932E1,1.782933E1,1.8301613E1,3.9541954E1,2.2477272E1,1.4896179E1,1.2540733E1,4.4731968E1,1.2201483E2,2.278041E1,1.7860058E1,1.5234955E1,1.1558842E1,1.9211948E1,1.665716E1,2.3734741E1,2.1862534E1,1.2563904E1,2.4566547E1,1.7475922E1,1.381752E1,5.781457E0,0E0,9.100679E0,1.57736435E1,4.933899E1,2.5609276E1,9.62797E0,1.1837343E1,1.3356758E1,6.868684E0,1.4747337E1,4.3397546E0,7.288358E0,0E0,1.8805462E1,1.3253689E1,1.5366882E1,7.9664083E0,9.5440445E0,1.0648832E1,1.5761736E1,6.779187E0,4.529419E0,7.9457474E0,1.6054993E1,1.0407078E1,8.211174E0,1.1434377E1,8.812881E0,9.808678E0,5.5369515E0,1.6996002E-1,0E0,0E0,0E0,0E0,0E0,0E0,0E0,0E0,0E0,0E0,0E0,0E0,0E0,0E0,0E0,0E0,0E0,0E0,0E0,0E0,0E0,0E0,0E0,0E0,0E0,0E0,0E0,0E0,0E0,0E0,0E0,0E0,0E0,0E0,0E0,0E0,0E0,0E0,0E0,0E0,0E0,0E0,0E0,0E0,0E0,0E0,0E0,0E0,0E0,0E0,0E0,0E0,0E0,0E0,0E0,0E0,0E0,0E0],"parents":[2147483647,0,0,1,1,2,2,3,3,4,4,5,5,6,6,7,7,8,8,9,9,10,10,11,11,12,12,13,13,14,14,15,15,16,16,17,17,18,18,19,19,20,20,21,21,22,22,23,23,24,24,25,25,26,26,27,27,28,28,29,29,31,31,32,32,33,33,34,34,35,35,36,36,37,37,38,38,39,39,40,40,41,41,43,43,44,44,45,45,46,46,47,47,48,48,49,49,50,50,51,51,52,52,53,53,54,54,55,55,56,56,57,57,58,58,59,59,60,60],"right_children":[2,4,6,8,10,12,14,16,18,20,22,24,26,28,30,32,34,36,38,40,42,44,46,48,50,52,54,56,58,60,-1,62,64,66,68,70,72,74,76,78,80,82,-1,84,86,88,90,92,94,96,98,100,102,104,106,108,110,112,114,116,118,-1,-1,-1,-1,-1,-1,-1,-1,-1,-1,-1,-1,-1,-1,-1,-1,-1,-1,-1,-1,-1,-1,-1,-1,-1,-1,-1,-1,-1,-1,-1,-1,-1,-1,-1,-1,-1,-1,-1,-1,-1,-1,-1,-1,-1,-1,-1,-1,-1,-1,-1,-1,-1,-1,-1,-1,-1,-1],"split_conditions":[2.411907E-1,7.471312E-1,1.1705521E0,7.6483583E-1,3.6858663E-2,1.0555987E0,1.6632495E0,-4.2460135E-1,1.8568016E0,2.2433867E0,1.3640664E0,7.533342E-1,1.2951715E0,7.471312E-1,1.660537E0,6.194242E-1,1.3019606E-1,-4.9368745E-1,3.0394166E0,1.3416846E0,1.6345371E0,1.5660901E0,2.1079273E0,-3.719032E-1,1.5014964E0,3.6858663E-2,1.3640664E0,1.4306308E0,2.9206831E0,5.2692156E0,-3.2916505E-2,1.4837406E0,-4.5260245E-1,4.0084726E-1,4.824156E-1,-7.9520667E-1,3.2251897E-1,-5.2061486E-1,8.506034E-1,3.590793E0,4.9122417E-1,4.829076E-1,-5.5306483E-2,6.821842E-1,-1.2564978E-1,6.0206014E-1,6.558051E-1,5.9408724E-1,1.3019606E-1,4.3866363E-1,1.590442E0,3.262831E0,2.324718E0,3.602346E-1,2.211257E0,1.4353129E0,1.6047903E0,5.1614416E-1,1.9810015E0,3.934173E-1,6.558051E-1,5.347601E-4,-2.575323E-2,-8.1133517E-4,-6.149382E-3,-1.6016508E-2,-6.3218377E-3,-3.7855515E-4,-6.909713E-3,2.1083912E-2,3.6692952E-3,-2.7661615E-3,8.488755E-3,1.6438756E-2,6.6423872E-3,1.399153E-2,-2.1795113E-2,1.029153E-2,-9.480091E-3,-4.2684893E-3,-3.7289385E-2,-1.7824473E-2,1.2673284E-2,-8.005335E-4,7.5193425E-3,4.5042946E-3,-1.7359864E-2,8.882684E-3,1.6910854E-3,-1.394514E-2,1.0081592E-2,6.8983324E-3,1.384828E-2,1.7876257E-4,6.110173E-3,-1.2422047E-2,-1.2386839E-3,2.444381E-2,-1.1995984E-2,2.5664989E-2,6.5210843E-3,1.364389E-2,-6.7397356E-3,1.8560785E-3,-2.808491E-2,7.1013025E-3,2.4467615E-2,9.65375E-3,1.7729595E-2,-1.9623777E-2,2.9147228E-2,2.4708677E-2,1.5839893E-2,-4.0068105E-2,8.2156425E-3,1.2873901E-3,1.8512271E-2,3.0136947E-2,1.2607212E-2],"split_indices":[16,2,69,3,3,2,9,4,3,0,2,0,0,2,56,127,2,14,11,139,88,0,0,70,68,3,2,0,0,112,0,46,12,3,0,2,26,26,1,10,135,70,0,118,70,139,135,135,2,2,57,147,9,118,115,22,51,8,2,80,135,0,0,0,0,0,0,0,0,0,0,0,0,0,0,0,0,0,0,0,0,0,0,0,0,0,0,0,0,0,0,0,0,0,0,0,0,0,0,0,0,0,0,0,0,0,0,0,0,0,0,0,0,0,0,0,0,0,0],"split_type":[0,0,0,0,0,0,0,0,0,0,0,0,0,0,0,0,0,0,0,0,0,0,0,0,0,0,0,0,0,0,0,0,0,0,0,0,0,0,0,0,0,0,0,0,0,0,0,0,0,0,0,0,0,0,0,0,0,0,0,0,0,0,0,0,0,0,0,0,0,0,0,0,0,0,0,0,0,0,0,0,0,0,0,0,0,0,0,0,0,0,0,0,0,0,0,0,0,0,0,0,0,0,0,0,0,0,0,0,0,0,0,0,0,0,0,0,0,0,0],"sum_hessian":[1.6233355E4,1.2904851E4,3.3285046E3,9.915484E3,2.9893665E3,2.4490571E3,8.794476E2,7.7866636E3,2.1288206E3,7.3953845E2,2.2498281E3,1.854294E3,5.947631E2,7.7160626E2,1.0784132E2,4.248301E3,3.538363E3,1.6942965E3,4.34524E2,7.1496704E2,2.4571411E1,1.3488489E3,9.009792E2,1.4491461E3,4.051478E2,3.318291E2,2.6293405E2,3.9662158E2,3.7498468E2,1.0250318E2,5.3381343E0,1.6769619E3,2.5713386E3,1.8551091E3,1.6832539E3,6.986076E2,9.9568884E2,4.1378024E2,2.0743746E1,7.035314E2,1.143569E1,2.1301012E1,3.2703986E0,1.2522716E3,9.657725E1,8.4387476E2,5.7104435E1,5.8724005E2,8.619061E2,3.7863605E2,2.6511763E1,1.0143704E2,2.3039206E2,4.9757572E1,2.1317648E2,3.763128E2,2.0308764E1,3.621609E2,1.28238E1,9.355909E1,8.944096E0,1.6683827E3,8.579264E0,4.771008E2,2.094238E3,1.3468704E3,5.082388E2,8.722973E2,8.109566E2,2.2431137E1,6.7617645E2,9.261841E2,6.950474E1,1.6193886E2,2.518414E2,4.149786E0,1.659396E1,6.767917E2,2.6739689E1,6.4092093E0,5.0264807E0,1.2815826E1,8.485185E0,1.01965845E3,2.3261322E2,2.5954437E1,7.062281E1,4.6614526E2,3.7772952E2,4.5629185E1,1.1475249E1,3.5387454E2,2.3336548E2,4.8543015E2,3.7647598E2,1.400127E2,2.3862335E2,2.2875706E1,3.6360562E0,9.0681946E1,1.0755098E1,2.167936E2,1.3598455E1,2.8501617E1,2.1255953E1,1.855577E2,2.7618788E1,1.5696642E2,2.1934639E2,1.6828217E1,3.4805472E0,2.2970093E2,1.3245996E2,3.4689596E0,9.35484E0,7.8395676E1,1.5163416E1,5.9439783E0,3.000117E0],"tree_param":{"num_deleted":"0","num_feature":"162","num_nodes":"119","size_leaf_vector":"1"}},{"base_weights":[5.343925E-4,-7.843158E-2,3.0669644E-1,-1.385867E-1,1.23994395E-1,2.0416416E-1,5.622947E-1,-1.6949925E-1,2.2667892E-1,2.9804763E-1,-1.2766344E-2,2.620906E-1,-2.3839945E-1,7.0408237E-1,2.728601E-1,-2.0424645E-1,3.255159E-2,5.9542928E-2,3.7582195E-1,5.029082E-1,1.626637E-1,-2.0486228E-3,-1.2910715E0,1.907564E-1,5.45188E-1,-2.8772599E-1,2.9136587E-2,9.573827E-1,5.5608034E-1,1.5393326E-1,7.406568E-1,-2.3161699E-1,-5.143764E-2,1.2845229E-1,-1.2042331E-1,1.00895055E-1,-5.499743E-1,5.2793527E-1,1.6649738E-1,7.8159326E-1,4.0663806E-1,7.1772106E-2,3.319371E-1,-9.80828E-2,1.18937254E-1,-2.492903E-3,-1.6407363E0,3.1992924E-1,1.1741416E-1,5.5572873E-1,-1.642562E-2,-3.6736828E-1,5.403656E-1,7.225727E-1,1.0495726E0,4.2301935E-1,8.4046566E-1,2.5441188E-1,-3.3817974E-1,8.595131E-1,6.9754764E-2,-3.6219626E-3,-9.053698E-3,-1.0243744E-3,-3.669346E-2,3.1199106E-3,2.3336563E-2,-2.4190087E-2,-2.5277059E-3,1.5315037E-2,1.1252522E-3,-3.879091E-2,-5.2053262E-3,2.0864515E-2,1.0376194E-2,7.338689E-3,-1.4590953E-2,2.224325E-2,-2.1459556E-3,9.484579E-3,2.5215024E-2,2.3604885E-3,-2.7750596E-2,6.366139E-3,1.9190298E-2,-3.0064216E-4,-8.051743E-3,5.9145275E-3,-3.961493E-3,-5.3981237E-2,-1.5516467E-2,7.654239E-3,2.3327066E-2,1.1850949E-3,8.4875235E-3,1.6406083E-2,9.185218E-3,-1.7883811E-3,-1.5318634E-2,1.9419929E-2,-8.404388E-3,2.705739E-2,1.2980161E-2,2.8629938E-2,1.5643053E-2,8.123939E-3,2.0062098E-2,2.386502E-2,3.465376E-3,9.834532E-3,-5.3711203E-3,-2.4202151E-2,-1.4524268E-3,2.5321612E-2,6.554066E-3,2.193765E-2,-1.01893395E-2],"categories":[],"categories_nodes":[],"categories_segments":[],"categories_sizes":[],"default_left":[0,0,0,0,0,0,0,0,0,0,0,0,0,0,0,0,0,0,0,0,0,0,0,0,0,0,0,0,0,0,0,0,0,0,0,0,0,0,0,0,0,0,0,0,0,0,0,0,0,0,0,0,0,0,0,0,0,0,0,0,0,0,0,0,0,0,0,0,0,0,0,0,0,0,0,0,0,0,0,0,0,0,0,0,0,0,0,0,0,0,0,0,0,0,0,0,0,0,0,0,0,0,0,0,0,0,0,0,0,0,0,0,0,0,0,0,0],"id":12,"left_children":[1,3,5,7,9,11,13,15,17,19,21,23,25,27,29,31,33,35,37,39,41,43,45,47,49,51,-1,53,55,57,59,61,63,65,67,69,71,73,75,77,79,81,83,85,87,-1,89,91,93,95,-1,97,99,101,103,105,107,109,111,113,115,-1,-1,-1,-1,-1,-1,-1,-1,-1,-1,-1,-1,-1,-1,-1,-1,-1,-1,-1,-1,-1,-1,-1,-1,-1,-1,-1,-1,-1,-1,-1,-1,-1,-1,-1,-1,-1,-1,-1,-1,-1,-1,-1,-1,-1,-1,-1,-1,-1,-1,-1,-1,-1,-1,-1,-1],"loss_changes":[3.9329688E2,1.5747206E2,8.722937E1,1.1258467E2,7.055365E1,6.111331E1,3.8888794E1,6.456506E1,1.9310944E1,3.6011757E1,2.2541569E1,4.237416E1,1.8329166E1,2.3404846E1,1.7329292E1,3.275888E1,1.9799385E1,9.249326E0,1.291013E1,1.3514175E1,1.2026339E1,1.9128983E1,5.37212E0,1.5869469E1,5.4279327E0,1.7693115E1,0E0,4.3127747E0,1.493219E1,1.2526007E1,4.886978E0,6.963544E1,2.000475E1,6.3343563E0,1.0043513E1,9.533318E0,7.1007447E0,8.00869E0,1.3952202E1,6.938591E0,9.725548E0,9.992846E0,9.583006E0,1.6395397E1,2.0526258E1,0E0,3.2294807E0,1.0087414E1,1.5841516E1,5.37941E0,0E0,1.5368858E1,4.1325803E0,4.2335014E0,1.8571472E0,1.04996605E1,5.4216003E0,1.1378391E1,6.830304E0,2.8876495E0,3.8996422E0,0E0,0E0,0E0,0E0,0E0,0E0,0E0,0E0,0E0,0E0,0E0,0E0,0E0,0E0,0E0,0E0,0E0,0E0,0E0,0E0,0E0,0E0,0E0,0E0,0E0,0E0,0E0,0E0,0E0,0E0,0E0,0E0,0E0,0E0,0E0,0E0,0E0,0E0,0E0,0E0,0E0,0E0,0E0,0E0,0E0,0E0,0E0,0E0,0E0,0E0,0E0,0E0,0E0,0E0,0E0,0E0],"parents":[2147483647,0,0,1,1,2,2,3,3,4,4,5,5,6,6,7,7,8,8,9,9,10,10,11,11,12,12,13,13,14,14,15,15,16,16,17,17,18,18,19,19,20,20,21,21,22,22,23,23,24,24,25,25,27,27,28,28,29,29,30,30,31,31,32,32,33,33,34,34,35,35,36,36,37,37,38,38,39,39,40,40,41,41,42,42,43,43,44,44,46,46,47,47,48,48,49,49,51,51,52,52,53,53,54,54,55,55,56,56,57,57,58,58,59,59,60,60],"right_children":[2,4,6,8,10,12,14,16,18,20,22,24,26,28,30,32,34,36,38,40,42,44,46,48,50,52,-1,54,56,58,60,62,64,66,68,70,72,74,76,78,80,82,84,86,88,-1,90,92,94,96,-1,98,100,102,104,106,108,110,112,114,116,-1,-1,-1,-1,-1,-1,-1,-1,-1,-1,-1,-1,-1,-1,-1,-1,-1,-1,-1,-1,-1,-1,-1,-1,-1,-1,-1,-1,-1,-1,-1,-1,-1,-1,-1,-1,-1,-1,-1,-1,-1,-1,-1,-1,-1,-1,-1,-1,-1,-1,-1,-1,-1,-1,-1,-1],"split_conditions":[1.7605145E-1,7.471312E-1,1.0555987E0,1.492813E0,5.730554E-1,1.418378E0,1.418378E0,4.898202E-1,3.0483532E-1,4.0084726E-1,2.785224E0,1.5517101E0,3.2517393E0,3.6858663E-2,3.1474454E0,7.6483583E-1,-2.7226725E-1,3.0394166E0,1.3019606E-1,-3.2712993E-1,1.3640664E0,1.3640664E0,-3.7051147E-1,-1.3128115E-1,9.192645E0,-3.17673E-1,2.9136587E-2,7.2047585E-1,1.0816877E0,1.6632495E0,1.2260951E-1,-5.5404145E-1,1.7485089E0,1.4884068E0,-5.958987E-1,-7.196055E-2,1.9410045E-1,5.920929E-1,1.7058899E0,7.994552E-1,1.1135669E0,1.7260736E0,9.559269E-1,1.1597122E0,1.7001522E0,-2.492903E-3,3.3719364E-1,1.5803641E0,1.1288245E0,6.534921E-2,-1.642562E-2,8.887935E-1,1.588173E0,1.0242529E0,1.6351223E0,1.9810015E0,3.0415137E0,2.5454748E0,1.3640664E0,3.131379E-1,1.2951715E0,-3.6219626E-3,-9.053698E-3,-1.0243744E-3,-3.669346E-2,3.1199106E-3,2.3336563E-2,-2.4190087E-2,-2.5277059E-3,1.5315037E-2,1.1252522E-3,-3.879091E-2,-5.2053262E-3,2.0864515E-2,1.0376194E-2,7.338689E-3,-1.4590953E-2,2.224325E-2,-2.1459556E-3,9.484579E-3,2.5215024E-2,2.3604885E-3,-2.7750596E-2,6.366139E-3,1.9190298E-2,-3.0064216E-4,-8.051743E-3,5.9145275E-3,-3.961493E-3,-5.3981237E-2,-1.5516467E-2,7.654239E-3,2.3327066E-2,1.1850949E-3,8.4875235E-3,1.6406083E-2,9.185218E-3,-1.7883811E-3,-1.5318634E-2,1.9419929E-2,-8.404388E-3,2.705739E-2,1.2980161E-2,2.8629938E-2,1.5643053E-2,8.123939E-3,2.0062098E-2,2.386502E-2,3.465376E-3,9.834532E-3,-5.3711203E-3,-2.4202151E-2,-1.4524268E-3,2.5321612E-2,6.554066E-3,2.193765E-2,-1.01893395E-2],"split_indices":[13,2,2,3,6,6,6,122,68,3,0,13,34,3,17,3,6,11,2,3,2,2,14,68,139,24,0,14,111,9,127,6,55,143,1,7,126,7,92,68,79,102,126,