{"learner":{"attributes":{"scikit_learn":"{\"_estimator_type\": \"classifier\"}"},"feature_names":[],"feature_types":[],"gradient_booster":{"model":{"cats":{"enc":[],"feature_segments":[],"sorted_idx":[]},"gbtree_model_param":{"num_parallel_tree":"1","num_trees":"198"},"iteration_indptr":[0,1,2,3,4,5,6,7,8,9,10,11,12,13,14,15,16,17,18,19,20,21,22,23,24,25,26,27,28,29,30,31,32,33,34,35,36,37,38,39,40,41,42,43,44,45,46,47,48,49,50,51,52,53,54,55,56,57,58,59,60,61,62,63,64,65,66,67,68,69,70,71,72,73,74,75,76,77,78,79,80,81,82,83,84,85,86,87,88,89,90,91,92,93,94,95,96,97,98,99,100,101,102,103,104,105,106,107,108,109,110,111,112,113,114,115,116,117,118,119,120,121,122,123,124,125,126,127,128,129,130,131,132,133,134,135,136,137,138,139,140,141,142,143,144,145,146,147,148,149,150,151,152,153,154,155,156,157,158,159,160,161,162,163,164,165,166,167,168,169,170,171,172,173,174,175,176,177,178,179,180,181,182,183,184,185,186,187,188,189,190,191,192,193,194,195,196,197,198],"tree_info":[0,0,0,0,0,0,0,0,0,0,0,0,0,0,0,0,0,0,0,0,0,0,0,0,0,0,0,0,0,0,0,0,0,0,0,0,0,0,0,0,0,0,0,0,0,0,0,0,0,0,0,0,0,0,0,0,0,0,0,0,0,0,0,0,0,0,0,0,0,0,0,0,0,0,0,0,0,0,0,0,0,0,0,0,0,0,0,0,0,0,0,0,0,0,0,0,0,0,0,0,0,0,0,0,0,0,0,0,0,0,0,0,0,0,0,0,0,0,0,0,0,0,0,0,0,0,0,0,0,0,0,0,0,0,0,0,0,0,0,0,0,0,0,0,0,0,0,0,0,0,0,0,0,0,0,0,0,0,0,0,0,0,0,0,0,0,0,0,0,0,0,0,0,0,0,0,0,0,0,0,0,0,0,0,0,0,0,0,0,0,0,0,0,0,0,0,0,0],"trees":[{"base_weights":[2.2297055E-3,3.3113182E-1,-9.639918E-1,5.2154666E-1,-3.45979E-1,-4.970773E-1,-1.634247E0,8.9598095E-1,3.3259824E-1,-1.2971051E0,-3.3407286E-2,-9.101333E-1,1.1627187E-2,-2.4614506E0,-1.3219906E0,6.568449E-2,9.881233E-2,1.1233451E-2,5.6327086E-2,-1.4901674E-1,-8.2989015E-2,3.2317035E-2,-2.5175482E-2,-6.0797386E-2,-1.480903E-1,5.0525144E-2,-2.5110953E-2,-2.2255765E-1,-9.767143E-2,-9.1550976E-2,-1.5361498E-1],"categories":[],"categories_nodes":[],"categories_segments":[],"categories_sizes":[],"default_left":[0,0,0,0,0,0,0,0,0,0,0,0,0,0,0,0,0,0,0,0,0,0,0,0,0,0,0,0,0,0,0],"id":0,"left_children":[1,3,5,7,9,11,13,15,17,19,21,23,25,27,29,-1,-1,-1,-1,-1,-1,-1,-1,-1,-1,-1,-1,-1,-1,-1,-1],"loss_changes":[3.8453918E3,1.1644607E3,9.5913525E2,4.9737292E2,5.8768024E2,3.8174542E2,3.202859E2,7.77135E1,2.9846973E2,6.618396E1,1.5387321E2,1.6515955E2,1.384176E2,3.6765625E1,1.0605017E2,0E0,0E0,0E0,0E0,0E0,0E0,0E0,0E0,0E0,0E0,0E0,0E0,0E0,0E0,0E0,0E0],"parents":[2147483647,0,0,1,1,2,2,3,3,4,4,5,5,6,6,7,7,8,8,9,9,10,10,11,11,12,12,13,13,14,14],"right_children":[2,4,6,8,10,12,14,16,18,20,22,24,26,28,30,-1,-1,-1,-1,-1,-1,-1,-1,-1,-1,-1,-1,-1,-1,-1,-1],"split_conditions":[1.133786E-1,7.6483583E-1,7.6483583E-1,-5.2335006E-1,1.3019606E-1,-1.782715E-1,-1.782715E-1,7.471312E-1,1.3019606E-1,5.920929E-1,-4.4552767E-1,1.3177918E0,3.6858663E-2,2.5842533E0,1.033469E0,6.568449E-2,9.881233E-2,1.1233451E-2,5.6327086E-2,-1.4901674E-1,-8.2989015E-2,3.2317035E-2,-2.5175482E-2,-6.0797386E-2,-1.480903E-1,5.0525144E-2,-2.5110953E-2,-2.2255765E-1,-9.767143E-2,-9.1550976E-2,-1.5361498E-1],"split_indices":[12,3,3,12,2,2,2,2,2,7,12,24,3,7,68,0,0,0,0,0,0,0,0,0,0,0,0,0,0,0,0],"split_type":[0,0,0,0,0,0,0,0,0,0,0,0,0,0,0,0,0,0,0,0,0,0,0,0,0,0,0,0,0,0,0],"sum_hessian":[1.2101199E4,9.029043E3,3.0721562E3,7.0484395E3,1.9806036E3,1.812124E3,1.2600322E3,2.3615674E3,4.686872E3,4.887336E2,1.4918701E3,1.0008955E3,8.112285E2,3.434785E2,9.165538E2,1.4776094E3,8.8395795E2,2.8419482E3,1.8449236E3,2.208367E2,2.678969E2,5.7613116E2,9.157389E2,7.896338E2,2.1126167E2,2.8113898E2,5.3008954E2,3.206614E2,2.2817076E1,5.6838965E2,3.4816412E2],"tree_param":{"num_deleted":"0","num_feature":"162","num_nodes":"31","size_leaf_vector":"1"}},{"base_weights":[-6.0638636E-3,-7.876839E-1,3.0104816E-1,-5.0693166E-1,-1.3563043E0,1.7457543E-2,6.0514694E-1,-7.2844076E-1,-5.5640027E-2,-1.7075505E0,-1.0432603E0,-1.1752876E-1,2.7057943E-1,4.5969996E-1,9.582443E-1,-5.209647E-2,-9.606031E-2,-1.9627368E-2,4.1891932E-2,-1.8204616E-1,-1.3372973E-1,-1.1433236E-1,-5.3432237E-2,3.7434737E-3,-4.658646E-2,4.234734E-2,-4.729958E-3,2.8067408E-2,6.7269795E-2,9.86434E-2,7.4840315E-2],"categories":[],"categories_nodes":[],"categories_segments":[],"categories_sizes":[],"default_left":[0,0,0,0,0,0,0,0,0,0,0,0,0,0,0,0,0,0,0,0,0,0,0,0,0,0,0,0,0,0,0],"id":1,"left_children":[1,3,5,7,9,11,13,15,17,19,21,23,25,27,29,-1,-1,-1,-1,-1,-1,-1,-1,-1,-1,-1,-1,-1,-1,-1,-1],"loss_changes":[2.907571E3,5.4336597E2,7.4912933E2,2.281034E2,1.2047461E2,1.5394125E2,2.13776E2,7.3051025E1,6.84419E1,2.988562E1,6.68197E1,1.9657742E2,1.0992583E2,1.2655853E2,1.8713745E1,0E0,0E0,0E0,0E0,0E0,0E0,0E0,0E0,0E0,0E0,0E0,0E0,0E0,0E0,0E0,0E0],"parents":[2147483647,0,0,1,1,2,2,3,3,4,4,5,5,6,6,7,7,8,8,9,9,10,10,11,11,12,12,13,13,14,14],"right_children":[2,4,6,8,10,12,14,16,18,20,22,24,26,28,30,-1,-1,-1,-1,-1,-1,-1,-1,-1,-1,-1,-1,-1,-1,-1,-1],"split_conditions":[-4.728672E-1,9.350234E-1,-3.1813875E-2,4.3866363E-1,-7.555162E-1,4.3866363E-1,9.421789E-1,8.4200317E-1,-5.2056793E-2,-8.544271E-1,1.3019606E-1,2.9128116E-1,8.5482955E-1,7.471312E-1,-6.961466E-1,-5.209647E-2,-9.606031E-2,-1.9627368E-2,4.1891932E-2,-1.8204616E-1,-1.3372973E-1,-1.1433236E-1,-5.3432237E-2,3.7434737E-3,-4.658646E-2,4.234734E-2,-4.729958E-3,2.8067408E-2,6.7269795E-2,9.86434E-2,7.4840315E-2],"split_indices":[17,24,17,2,109,2,17,68,70,26,2,6,6,2,110,0,0,0,0,0,0,0,0,0,0,0,0,0,0,0,0],"split_type":[0,0,0,0,0,0,0,0,0,0,0,0,0,0,0,0,0,0,0,0,0,0,0,0,0,0,0,0,0,0,0],"sum_hessian":[1.210964E4,3.4165664E3,8.693073E3,2.2890374E3,1.1275289E3,4.5001294E3,4.1929443E3,1.5337695E3,7.552678E2,5.288118E2,5.9871716E2,2.9326694E3,1.5674598E3,2.972449E3,1.2204952E3,1.1378684E3,3.9590106E2,5.75464E2,1.7980388E2,1.6269234E2,3.6611945E2,3.6714227E2,2.3157489E2,2.1159753E3,8.16694E2,9.4479193E2,6.226679E2,2.0636716E3,9.0877716E2,4.420866E2,7.784087E2],"tree_param":{"num_deleted":"0","num_feature":"162","num_nodes":"31","size_leaf_vector":"1"}},{"base_weights":[3.114866E-3,-6.503191E-1,3.3724695E-1,-2.7856448E-1,-1.1997355E0,5.685971E-1,-1.291082E-1,-5.201429E-1,2.1645644E-1,-1.6667697E0,-8.327766E-1,3.6523843E-1,8.8640773E-1,-6.681832E-1,2.315469E-1,-7.675051E-2,-2.214151E-2,6.444431E-2,-5.1841848E-3,-1.644961E-1,-1.12434916E-1,-1.084793E-1,-5.092337E-2,1.6411254E-2,5.1021542E-2,1.04012705E-1,6.63176E-2,-8.101713E-2,-1.7031254E-2,-5.428136E-3,4.0739663E-2],"categories":[],"categories_nodes":[],"categories_segments":[],"categories_sizes":[],"default_left":[0,0,0,0,0,0,0,0,0,0,0,0,0,0,0,0,0,0,0,0,0,0,0,0,0,0,0,0,0,0,0],"id":2,"left_children":[1,3,5,7,9,11,13,15,17,19,21,23,25,27,29,-1,-1,-1,-1,-1,-1,-1,-1,-1,-1,-1,-1,-1,-1,-1,-1],"loss_changes":[2.646974E3,8.361056E2,8.6613153E2,2.930854E2,2.8034717E2,3.4533875E2,5.175704E2,1.5658539E2,1.1627208E2,5.584497E1,9.285547E1,1.26618805E2,7.833081E1,1.3045679E2,1.1064898E2,0E0,0E0,0E0,0E0,0E0,0E0,0E0,0E0,0E0,0E0,0E0,0E0,0E0,0E0,0E0,0E0],"parents":[2147483647,0,0,1,1,2,2,3,3,4,4,5,5,6,6,7,7,8,8,9,9,10,10,11,11,12,12,13,13,14,14],"right_children":[2,4,6,8,10,12,14,16,18,20,22,24,26,28,30,-1,-1,-1,-1,-1,-1,-1,-1,-1,-1,-1,-1,-1,-1,-1,-1],"split_conditions":[-4.4793636E-1,7.6483583E-1,4.0084726E-1,1.3019606E-1,1.3019606E-1,1.3019606E-1,4.3866363E-1,-6.696531E-1,3.6858663E-2,1.2561463E0,5.920929E-1,-2.2099383E-2,-3.2712993E-1,9.241196E-1,-9.248566E-2,-7.675051E-2,-2.214151E-2,6.444431E-2,-5.1841848E-3,-1.644961E-1,-1.12434916E-1,-1.084793E-1,-5.092337E-2,1.6411254E-2,5.1021542E-2,1.04012705E-1,6.63176E-2,-8.101713E-2,-1.7031254E-2,-5.428136E-3,4.0739663E-2],"split_indices":[14,3,3,2,2,2,2,14,3,7,7,14,3,7,14,0,0,0,0,0,0,0,0,0,0,0,0,0,0,0,0],"split_type":[0,0,0,0,0,0,0,0,0,0,0,0,0,0,0,0,0,0,0,0,0,0,0,0,0,0,0,0,0,0,0],"sum_hessian":[1.2123886E4,4.100846E3,8.023039E3,2.447385E3,1.6534613E3,5.364E3,2.659039E3,1.6460132E3,8.0137177E2,7.2556915E2,9.2789215E2,3.273503E3,2.090497E3,1.0667588E3,1.5922803E3,6.978655E2,9.4814777E2,2.7782907E2,5.235427E2,4.5595285E2,2.696163E2,3.4765997E2,5.802322E2,1.8159795E3,1.4575233E3,6.05789E2,1.4847081E3,6.8593774E2,3.8082108E2,7.069819E2,8.8529846E2],"tree_param":{"num_deleted":"0","num_feature":"162","num_nodes":"31","size_leaf_vector":"1"}},{"base_weights":[3.2021326E-4,-6.28108E-1,2.912332E-1,-4.2286226E-1,-1.1795367E0,6.517263E-2,5.5960786E-1,-5.6841815E-1,-9.3639225E-2,-1.0229466E0,-1.5677611E0,1.1076579E-1,-6.4818853E-1,8.699905E-1,4.3227357E-1,-6.274762E-2,-2.865796E-2,-1.786807E-2,5.17374E-2,-9.9618055E-2,-5.4215264E-2,-1.4167722E-1,-6.360812E-2,5.6967204E-3,5.8636695E-2,-7.328717E-2,5.155948E-3,6.639312E-2,9.1167025E-2,4.1648123E-2,-3.3587024E-2],"categories":[],"categories_nodes":[],"categories_segments":[],"categories_sizes":[],"default_left":[0,0,0,0,0,0,0,0,0,0,0,0,0,0,0,0,0,0,0,0,0,0,0,0,0,0,0,0,0,0,0],"id":3,"left_children":[1,3,5,7,9,11,13,15,17,19,21,23,25,27,29,-1,-1,-1,-1,-1,-1,-1,-1,-1,-1,-1,-1,-1,-1,-1,-1],"loss_changes":[2.2035479E3,4.2982263E2,4.9937952E2,1.3261612E2,5.9475464E1,1.4509738E2,1.4739966E2,6.8668945E1,6.504698E1,3.3339172E1,1.1131897E1,1.0668119E2,3.715873E1,1.8687988E1,9.915375E1,0E0,0E0,0E0,0E0,0E0,0E0,0E0,0E0,0E0,0E0,0E0,0E0,0E0,0E0,0E0,0E0],"parents":[2147483647,0,0,1,1,2,2,3,3,4,4,5,5,6,6,7,7,8,8,9,9,10,10,11,11,12,12,13,13,14,14],"right_children":[2,4,6,8,10,12,14,16,18,20,22,24,26,28,30,-1,-1,-1,-1,-1,-1,-1,-1,-1,-1,-1,-1,-1,-1,-1,-1],"split_conditions":[-4.7609088E-1,1.2099669E0,-2.2099383E-2,4.3866363E-1,3.0140314E0,3.590793E0,-7.0021915E-1,-1.8298143E-1,3.0394166E0,4.3866363E-1,1.6632495E0,3.0394166E0,3.0394166E0,1.0555987E0,3.590793E0,-6.274762E-2,-2.865796E-2,-1.786807E-2,5.17374E-2,-9.9618055E-2,-5.4215264E-2,-1.4167722E-1,-6.360812E-2,5.6967204E-3,5.8636695E-2,-7.328717E-2,5.155948E-3,6.639312E-2,9.1167025E-2,4.1648123E-2,-3.3587024E-2],"split_indices":[14,12,14,2,12,10,12,125,11,2,9,11,11,2,10,0,0,0,0,0,0,0,0,0,0,0,0,0,0,0,0],"split_type":[0,0,0,0,0,0,0,0,0,0,0,0,0,0,0,0,0,0,0,0,0,0,0,0,0,0,0,0,0,0,0],"sum_hessian":[1.2053966E4,3.81308E3,8.240886E3,2.7807273E3,1.0323527E3,4.4753613E3,3.765524E3,1.9259424E3,8.547849E2,7.387373E2,2.9361533E2,4.208185E3,2.6717664E2,1.0923423E3,2.6731816E3,1.1784802E3,7.474622E2,7.371574E2,1.17627495E2,5.668383E2,1.7189899E2,2.734647E2,2.0150608E1,3.8952644E3,3.129205E2,2.110868E2,5.6089844E1,6.7946686E2,4.128754E2,2.534173E3,1.3900862E2],"tree_param":{"num_deleted":"0","num_feature":"162","num_nodes":"31","size_leaf_vector":"1"}},{"base_weights":[1.29179E-2,2.7009344E-1,-6.2786007E-1,4.680201E-1,-1.880418E-1,-1.5780628E-1,-9.0973365E-1,3.76259E-1,8.879324E-1,-3.9493486E-1,1.3482396E-1,-3.4980437E-1,1.9910234E-1,-6.681584E-1,-1.2186846E0,2.3900365E-2,5.310062E-2,8.5679956E-2,6.101239E-2,-1.9453743E-2,-7.7943385E-2,6.058425E-2,-1.17065795E-2,1.1380325E-2,-4.579849E-2,4.048323E-2,-2.688702E-3,-8.579516E-2,-3.7755366E-2,-1.2228261E-1,-6.369085E-2],"categories":[],"categories_nodes":[],"categories_segments":[],"categories_sizes":[],"default_left":[0,0,0,0,0,0,0,0,0,0,0,0,0,0,0,0,0,0,0,0,0,0,0,0,0,0,0,0,0,0,0],"id":4,"left_children":[1,3,5,7,9,11,13,15,17,19,21,23,25,27,29,-1,-1,-1,-1,-1,-1,-1,-1,-1,-1,-1,-1,-1,-1,-1,-1],"loss_changes":[1.981728E3,7.786852E2,4.5517603E2,2.2964673E2,1.7319211E2,8.877274E1,1.5833679E2,1.16120605E2,1.7131958E1,1.3424174E2,1.5265808E2,7.137169E1,2.7900896E1,8.827246E1,8.1800415E1,0E0,0E0,0E0,0E0,0E0,0E0,0E0,0E0,0E0,0E0,0E0,0E0,0E0,0E0,0E0,0E0],"parents":[2147483647,0,0,1,1,2,2,3,3,4,4,5,5,6,6,7,7,8,8,9,9,10,10,11,11,12,12,13,13,14,14],"right_children":[2,4,6,8,10,12,14,16,18,20,22,24,26,28,30,-1,-1,-1,-1,-1,-1,-1,-1,-1,-1,-1,-1,-1,-1,-1,-1],"split_conditions":[7.6483583E-1,7.2571505E-3,-1.6961193E-1,4.3217084E-1,2.6006615E-1,9.241196E-1,1.492813E0,2.6006615E-1,3.6858663E-2,8.916025E-1,3.6858663E-2,-5.9409773E-1,-4.4552767E-1,5.920929E-1,1.588173E0,2.3900365E-2,5.310062E-2,8.5679956E-2,6.101239E-2,-1.9453743E-2,-7.7943385E-2,6.058425E-2,-1.17065795E-2,1.1380325E-2,-4.579849E-2,4.048323E-2,-2.688702E-3,-8.579516E-2,-3.7755366E-2,-1.2228261E-1,-6.369085E-2],"split_indices":[3,12,12,16,7,7,3,7,3,12,3,12,12,7,7,0,0,0,0,0,0,0,0,0,0,0,0,0,0,0,0],"split_type":[0,0,0,0,0,0,0,0,0,0,0,0,0,0,0,0,0,0,0,0,0,0,0,0,0,0,0,0,0,0,0],"sum_hessian":[1.202663E4,8.583463E3,3.4431675E3,5.9953794E3,2.588083E3,1.2923115E3,2.150856E3,4.922877E3,1.0725028E3,1.5790668E3,1.0090163E3,8.420362E2,4.5027533E2,1.2097048E3,9.411511E2,3.4238188E3,1.4990579E3,7.0926904E2,3.6323373E2,1.1763982E3,4.0266852E2,3.284033E2,6.8061304E2,2.237675E2,6.182687E2,2.1083485E2,2.3944048E2,5.14151E2,6.9555383E2,6.820046E2,2.5914655E2],"tree_param":{"num_deleted":"0","num_feature":"162","num_nodes":"31","size_leaf_vector":"1"}},{"base_weights":[1.2958392E-2,2.4854787E-1,-5.652616E-1,-2.5349373E-2,5.5235744E-1,-9.789483E-1,-1.4214277E-1,-2.9131016E-1,3.0131745E-1,4.253269E-1,8.744341E-1,-1.3567504E0,-7.476983E-1,-4.0387493E-4,-7.743015E-1,-5.3475983E-2,-7.978703E-3,6.2416743E-2,4.6194163E-3,4.5152232E-2,1.0130684E-2,9.018494E-2,6.274992E-2,-1.2311117E-1,-1.6657155E-2,-7.780095E-2,-1.6732845E-2,1.637017E-2,-2.7072446E-2,-7.660494E-2,4.7769654E-3],"categories":[],"categories_nodes":[],"categories_segments":[],"categories_sizes":[],"default_left":[0,0,0,0,0,0,0,0,0,0,0,0,0,0,0,0,0,0,0,0,0,0,0,0,0,0,0,0,0,0,0],"id":5,"left_children":[1,3,5,7,9,11,13,15,17,19,21,23,25,27,29,-1,-1,-1,-1,-1,-1,-1,-1,-1,-1,-1,-1,-1,-1,-1,-1],"loss_changes":[1.6245677E3,7.058367E2,6.030654E2,3.8720706E2,1.6304736E2,1.4983826E2,1.5231786E2,1.5740726E2,2.0492079E2,8.182416E1,2.5995972E1,4.0569824E1,8.593292E1,8.1627426E1,2.7707108E1,0E0,0E0,0E0,0E0,0E0,0E0,0E0,0E0,0E0,0E0,0E0,0E0,0E0,0E0,0E0,0E0],"parents":[2147483647,0,0,1,1,2,2,3,3,4,4,5,5,6,6,7,7,8,8,9,9,10,10,11,11,12,12,13,13,14,14],"right_children":[2,4,6,8,10,12,14,16,18,20,22,24,26,28,30,-1,-1,-1,-1,-1,-1,-1,-1,-1,-1,-1,-1,-1,-1,-1,-1],"split_conditions":[7.6483583E-1,-1.7883165E-1,4.3866363E-1,-1.782715E-1,7.471312E-1,-1.782715E-1,4.9192572E-1,-2.1088247E-1,3.6858663E-2,3.6858663E-2,3.6858663E-2,2.5842533E0,1.588173E0,1.492813E0,3.0394166E0,-5.3475983E-2,-7.978703E-3,6.2416743E-2,4.6194163E-3,4.5152232E-2,1.0130684E-2,9.018494E-2,6.274992E-2,-1.2311117E-1,-1.6657155E-2,-7.780095E-2,-1.6732845E-2,1.637017E-2,-2.7072446E-2,-7.660494E-2,4.7769654E-3],"split_indices":[3,17,2,2,2,2,110,124,3,3,3,7,7,3,11,0,0,0,0,0,0,0,0,0,0,0,0,0,0,0,0],"split_type":[0,0,0,0,0,0,0,0,0,0,0,0,0,0,0,0,0,0,0,0,0,0,0,0,0,0,0,0,0,0,0],"sum_hessian":[1.1927013E4,8.475652E3,3.4513599E3,4.455842E3,4.0198108E3,1.7436411E3,1.7077186E3,2.4577874E3,1.9980547E3,2.8858E3,1.1340109E3,6.595082E2,1.0841329E3,1.3966134E3,3.1110522E2,9.391456E2,1.5186416E3,7.46927E2,1.2511277E3,2.2190544E3,6.667456E2,5.5392737E2,5.8008356E2,6.289536E2,3.0554556E1,8.589387E2,2.2519423E2,8.6740845E2,5.29205E2,2.7740277E2,3.370247E1],"tree_param":{"num_deleted":"0","num_feature":"162","num_nodes":"31","size_leaf_vector":"1"}},{"base_weights":[-1.8714087E-3,-4.3748677E-1,2.5515386E-1,-7.625147E-1,-2.3154876E-1,9.286359E-2,5.5106485E-1,-1.065915E0,-6.011054E-1,-1.2510598E-1,-4.8594552E-1,1.3642836E-1,-5.6614304E-1,4.0097395E-1,7.7864546E-1,-7.947866E-2,-1.1448892E-1,-6.2444404E-2,-2.2029607E-2,-2.1612378E-2,7.343401E-3,-6.753208E-2,-2.7343795E-2,1.9430505E-2,-1.3020402E-2,-4.2487223E-2,-1.457538E-1,4.3235317E-2,3.8878184E-3,7.8207456E-2,5.2159365E-2],"categories":[],"categories_nodes":[],"categories_segments":[],"categories_sizes":[],"default_left":[0,0,0,0,0,0,0,0,0,0,0,0,0,0,0,0,0,0,0,0,0,0,0,0,0,0,0,0,0,0,0],"id":6,"left_children":[1,3,5,7,9,11,13,15,17,19,21,23,25,27,29,-1,-1,-1,-1,-1,-1,-1,-1,-1,-1,-1,-1,-1,-1,-1,-1],"loss_changes":[1.3279404E3,2.9360394E2,3.5746158E2,8.158099E1,7.241919E1,1.3796317E2,8.884833E1,1.9740845E1,4.3685913E1,4.909504E1,3.8252747E1,1.116713E2,2.3471718E1,5.3310516E1,2.059076E1,0E0,0E0,0E0,0E0,0E0,0E0,0E0,0E0,0E0,0E0,0E0,0E0,0E0,0E0,0E0,0E0],"parents":[2147483647,0,0,1,1,2,2,3,3,4,4,5,5,6,6,7,7,8,8,9,9,10,10,11,11,12,12,13,13,14,14],"right_children":[2,4,6,8,10,12,14,16,18,20,22,24,26,28,30,-1,-1,-1,-1,-1,-1,-1,-1,-1,-1,-1,-1,-1,-1,-1,-1],"split_conditions":[-4.4441706E-1,-7.083656E-1,1.538663E-1,-7.401542E-1,5.730554E-1,3.590793E0,1.002021E0,9.165315E-1,1.2561463E0,5.920929E-1,2.6006615E-1,8.5482955E-1,7.4287367E0,1.1366038E0,-2.441844E-1,-7.947866E-2,-1.1448892E-1,-6.2444404E-2,-2.2029607E-2,-2.1612378E-2,7.343401E-3,-6.753208E-2,-2.7343795E-2,1.9430505E-2,-1.3020402E-2,-4.2487223E-2,-1.457538E-1,4.3235317E-2,3.8878184E-3,7.8207456E-2,5.2159365E-2],"split_indices":[14,14,14,112,6,10,14,108,7,7,7,6,10,6,120,0,0,0,0,0,0,0,0,0,0,0,0,0,0,0,0],"split_type":[0,0,0,0,0,0,0,0,0,0,0,0,0,0,0,0,0,0,0,0,0,0,0,0,0,0,0,0,0,0,0],"sum_hessian":[1.1857811E4,4.401448E3,7.4563623E3,1.7047767E3,2.6966714E3,4.817926E3,2.6384365E3,5.889277E2,1.115849E3,1.9043917E3,7.9227985E2,4.5209277E3,2.9699805E2,1.5932933E3,1.0451432E3,3.6605167E2,2.2287602E2,8.3667065E2,2.7917834E2,1.2033704E3,7.010213E2,2.9366028E2,4.9861957E2,3.4741912E3,1.0467367E3,2.7869946E2,1.829859E1,1.256287E3,3.3700635E2,6.2736084E2,4.1778232E2],"tree_param":{"num_deleted":"0","num_feature":"162","num_nodes":"31","size_leaf_vector":"1"}},{"base_weights":[7.963419E-3,-3.4947613E-1,2.7671626E-1,-2.1456133E-1,-7.687093E-1,1.8739448E-1,6.8876487E-1,-2.6622042E-1,4.1023564E-1,-9.851722E-1,-5.5346364E-1,2.5396731E-1,-1.2121632E-1,5.6678516E-1,8.484388E-1,-1.4255228E-2,-4.552483E-2,5.0924286E-2,3.3469195E-3,-1.2711221E-1,-7.846685E-2,-5.31701E-2,2.00932E-2,1.9001594E-2,6.464953E-2,-1.7607654E-2,3.273992E-2,5.3722885E-2,1.8810064E-2,8.207936E-2,5.4368563E-2],"categories":[],"categories_nodes":[],"categories_segments":[],"categories_sizes":[],"default_left":[0,0,0,0,0,0,0,0,0,0,0,0,0,0,0,0,0,0,0,0,0,0,0,0,0,0,0,0,0,0,0],"id":7,"left_children":[1,3,5,7,9,11,13,15,17,19,21,23,25,27,29,-1,-1,-1,-1,-1,-1,-1,-1,-1,-1,-1,-1,-1,-1,-1,-1],"loss_changes":[1.1365012E3,2.8609686E2,2.4771515E2,1.23954666E2,5.5737183E1,1.1425659E2,2.1792908E1,9.264426E1,1.8268276E1,2.1772278E1,2.7849243E1,7.938916E1,3.9275017E1,1.0991486E1,8.959137E0,0E0,0E0,0E0,0E0,0E0,0E0,0E0,0E0,0E0,0E0,0E0,0E0,0E0,0E0,0E0,0E0],"parents":[2147483647,0,0,1,1,2,2,3,3,4,4,5,5,6,6,7,7,8,8,9,9,10,10,11,11,12,12,13,13,14,14],"right_children":[2,4,6,8,10,12,14,16,18,20,22,24,26,28,30,-1,-1,-1,-1,-1,-1,-1,-1,-1,-1,-1,-1,-1,-1,-1,-1],"split_conditions":[-3.7051147E-1,9.906492E-1,8.260553E-1,3.0394166E0,-8.7729263E-1,1.1366038E0,1.1134019E0,5.730554E-1,8.5482955E-1,-1.0039879E0,3.0394166E0,3.0394166E0,3.0394166E0,1.2331345E0,5.1614416E-1,-1.4255228E-2,-4.552483E-2,5.0924286E-2,3.3469195E-3,-1.2711221E-1,-7.846685E-2,-5.31701E-2,2.00932E-2,1.9001594E-2,6.464953E-2,-1.7607654E-2,3.273992E-2,5.3722885E-2,1.8810064E-2,8.207936E-2,5.4368563E-2],"split_indices":[14,12,14,11,14,6,25,6,6,14,11,11,11,8,8,0,0,0,0,0,0,0,0,0,0,0,0,0,0,0,0],"split_type":[0,0,0,0,0,0,0,0,0,0,0,0,0,0,0,0,0,0,0,0,0,0,0,0,0,0,0,0,0,0,0],"sum_hessian":[1.1830487E4,5.075879E3,6.7546084E3,3.8424104E3,1.2334684E3,5.553771E3,1.2008374E3,3.550668E3,2.9174246E2,6.118501E2,6.2161835E2,4.5709365E3,9.828345E2,6.855146E2,5.153228E2,2.5363132E3,1.0143546E3,1.9690045E2,9.484201E1,9.071648E1,5.211336E2,5.8127246E2,4.0345848E1,4.2583413E3,3.125952E2,8.4740356E2,1.3543091E2,5.9847833E2,8.703626E1,3.6075513E2,1.5456764E2],"tree_param":{"num_deleted":"0","num_feature":"162","num_nodes":"31","size_leaf_vector":"1"}},{"base_weights":[-3.292985E-3,2.7530086E-1,-3.9408234E-1,7.4304596E-2,6.628264E-1,-6.579004E-1,1.000343E-1,-9.478135E-2,3.812668E-1,1.0514011E0,5.272668E-1,-1.1003982E0,-4.7206843E-1,2.571742E-1,-2.6727024E-1,-3.8386874E-2,5.955221E-4,7.4118726E-2,2.7580524E-2,9.268612E-2,8.822631E-3,6.8182126E-2,3.659669E-2,-1.21891834E-1,-7.88083E-2,-1.9844964E-2,-6.6121995E-2,4.1697856E-2,-2.4869281E-3,-3.878818E-2,1.9162444E-2],"categories":[],"categories_nodes":[],"categories_segments":[],"categories_sizes":[],"default_left":[0,0,0,0,0,0,0,0,0,0,0,0,0,0,0,0,0,0,0,0,0,0,0,0,0,0,0,0,0,0,0],"id":8,"left_children":[1,3,5,7,9,11,13,15,17,19,21,23,25,27,29,-1,-1,-1,-1,-1,-1,-1,-1,-1,-1,-1,-1,-1,-1,-1,-1],"loss_changes":[1.2856147E3,5.3608264E2,6.413579E2,2.35949E2,1.2209424E2,2.618512E2,9.873569E1,1.03104614E2,4.7939896E1,5.3844604E0,4.652954E1,5.2483276E1,1.5709293E2,7.617904E1,4.44245E1,0E0,0E0,0E0,0E0,0E0,0E0,0E0,0E0,0E0,0E0,0E0,0E0,0E0,0E0,0E0,0E0],"parents":[2147483647,0,0,1,1,2,2,3,3,4,4,5,5,6,6,7,7,8,8,9,9,10,10,11,11,12,12,13,13,14,14],"right_children":[2,4,6,8,10,12,14,16,18,20,22,24,26,28,30,-1,-1,-1,-1,-1,-1,-1,-1,-1,-1,-1,-1,-1,-1,-1,-1],"split_conditions":[4.0084726E-1,1.3019606E-1,7.471312E-1,2.1172549E-1,-3.2712993E-1,-1.782715E-1,1.492813E0,-6.696531E-1,-7.392259E-1,1.2453407E0,-5.2335006E-1,-4.8673907E-1,1.1288245E0,8.5482955E-1,-5.0191097E-2,-3.8386874E-2,5.955221E-4,7.4118726E-2,2.7580524E-2,9.268612E-2,8.822631E-3,6.8182126E-2,3.659669E-2,-1.21891834E-1,-7.88083E-2,-1.9844964E-2,-6.6121995E-2,4.1697856E-2,-2.4869281E-3,-3.878818E-2,1.9162444E-2],"split_indices":[3,2,2,125,3,2,3,14,15,12,12,2,3,6,17,0,0,0,0,0,0,0,0,0,0,0,0,0,0,0,0],"split_type":[0,0,0,0,0,0,0,0,0,0,0,0,0,0,0,0,0,0,0,0,0,0,0,0,0,0,0,0,0,0,0],"sum_hessian":[1.1806469E4,6.891335E3,4.9151343E3,4.5397915E3,2.3515435E3,3.205452E3,1.7096824E3,2.925536E3,1.6142555E3,6.054572E2,1.7460862E3,9.4574945E2,2.2597026E3,1.1993447E3,5.1033755E2,6.6678217E2,2.2587537E3,1.9411226E2,1.4201433E3,5.9723126E2,8.225937E0,5.1528674E2,1.2307994E3,3.7344238E2,5.7230707E2,1.2207452E3,1.0389573E3,6.7798944E2,5.2135535E2,3.7549475E2,1.3484283E2],"tree_param":{"num_deleted":"0","num_feature":"162","num_nodes":"31","size_leaf_vector":"1"}},{"base_weights":[6.5782545E-3,2.6330245E-1,-3.4684327E-1,3.702605E-2,5.799083E-1,-7.917002E-1,-1.0351625E-1,-1.442531E-1,3.4156984E-1,9.8250264E-1,4.4233432E-1,-1.000232E0,-5.163861E-1,9.364636E-2,-3.8100758E-1,-4.132703E-3,-3.652044E-2,2.1392617E-2,6.0660243E-2,8.721179E-2,6.0143E-3,2.5172457E-2,5.689884E-2,-7.489459E-2,-1.24149896E-1,-1.5958026E-2,-6.930568E-2,-4.2366027E-3,3.935783E-2,-1.6138352E-2,-6.4128876E-2],"categories":[],"categories_nodes":[],"categories_segments":[],"categories_sizes":[],"default_left":[0,0,0,0,0,0,0,0,0,0,0,0,0,0,0,0,0,0,0,0,0,0,0,0,0,0,0,0,0,0,0],"id":9,"left_children":[1,3,5,7,9,11,13,15,17,19,21,23,25,27,29,-1,-1,-1,-1,-1,-1,-1,-1,-1,-1,-1,-1,-1,-1,-1,-1],"loss_changes":[1.0634862E3,4.859419E2,5.328161E2,2.1900563E2,1.5509314E2,9.828308E1,1.7478004E2,6.555865E1,4.9477554E1,1.0431152E1,6.7170746E1,5.6378418E1,6.893031E1,9.5156685E1,9.117575E1,0E0,0E0,0E0,0E0,0E0,0E0,0E0,0E0,0E0,0E0,0E0,0E0,0E0,0E0,0E0,0E0],"parents":[2147483647,0,0,1,1,2,2,3,3,4,4,5,5,6,6,7,7,8,8,9,9,10,10,11,11,12,12,13,13,14,14],"right_children":[2,4,6,8,10,12,14,16,18,20,22,24,26,28,30,-1,-1,-1,-1,-1,-1,-1,-1,-1,-1,-1,-1,-1,-1,-1,-1],"split_conditions":[4.0084726E-1,-1.782715E-1,1.3019606E-1,2.1504235E-1,-3.2712993E-1,9.241196E-1,-2.8116666E-2,7.5891644E-1,1.0940115E0,1.0620513E0,7.471312E-1,1.492813E0,1.1288245E0,1.3640664E0,1.492813E0,-4.132703E-3,-3.652044E-2,2.1392617E-2,6.0660243E-2,8.721179E-2,6.0143E-3,2.5172457E-2,5.689884E-2,-7.489459E-2,-1.24149896E-1,-1.5958026E-2,-6.930568E-2,-4.2366027E-3,3.935783E-2,-1.6138352E-2,-6.4128876E-2],"split_indices":[3,2,2,125,3,7,12,120,125,120,2,3,3,2,3,0,0,0,0,0,0,0,0,0,0,0,0,0,0,0,0],"split_type":[0,0,0,0,0,0,0,0,0,0,0,0,0,0,0,0,0,0,0,0,0,0,0,0,0,0,0,0,0,0,0],"sum_hessian":[1.1721042E4,6.7909575E3,4.9300845E3,3.9625515E3,2.828406E3,1.7413656E3,3.1887188E3,2.48217E3,1.4803816E3,7.1777356E2,2.1106326E3,9.8809973E2,7.532659E2,1.8623645E3,1.3263542E3,1.837777E3,6.443928E2,1.1666787E3,3.137029E2,7.0319507E2,1.4578467E1,1.2222804E3,8.8835205E2,7.4350195E2,2.4459776E2,3.4466885E2,4.0859708E2,1.3308853E3,5.3147925E2,8.562875E2,4.700667E2],"tree_param":{"num_deleted":"0","num_feature":"162","num_nodes":"31","size_leaf_vector":"1"}},{"base_weights":[5.830939E-3,1.8984401E-1,-4.1081783E-1,3.912011E-2,5.627947E-1,-7.0973176E-1,-9.569971E-2,2.3434837E-1,-1.5229772E-1,8.38088E-1,3.5959697E-1,-1.2260807E0,-6.1692095E-1,2.425697E-1,-2.2138323E-1,2.8240208E-2,-1.037809E-2,-7.500631E-3,-4.4052694E-2,8.9503184E-2,6.0645115E-2,1.5472848E-2,4.9909938E-2,-1.13902114E-1,-5.674577E-2,-3.8303405E-2,-7.690536E-2,4.8654202E-2,2.5953695E-3,-7.875736E-3,-5.655321E-2],"categories":[],"categories_nodes":[],"categories_segments":[],"categories_sizes":[],"default_left":[0,0,0,0,0,0,0,0,0,0,0,0,0,0,0,0,0,0,0,0,0,0,0,0,0,0,0,0,0,0,0],"id":10,"left_children":[1,3,5,7,9,11,13,15,17,19,21,23,25,27,29,-1,-1,-1,-1,-1,-1,-1,-1,-1,-1,-1,-1,-1,-1,-1,-1],"loss_changes":[8.927405E2,4.5363373E2,3.3512653E2,2.1524141E2,1.2868884E2,8.5474304E1,7.391196E1,9.0405594E1,6.735285E1,2.441864E1,5.1147766E1,1.0408844E1,7.163025E1,3.0905788E1,7.0342834E1,0E0,0E0,0E0,0E0,0E0,0E0,0E0,0E0,0E0,0E0,0E0,0E0,0E0,0E0,0E0,0E0],"parents":[2147483647,0,0,1,1,2,2,3,3,4,4,5,5,6,6,7,7,8,8,9,9,10,10,11,11,12,12,13,13,14,14],"right_children":[2,4,6,8,10,12,14,16,18,20,22,24,26,28,30,-1,-1,-1,-1,-1,-1,-1,-1,-1,-1,-1,-1,-1,-1,-1,-1],"split_conditions":[7.6483583E-1,4.3866363E-1,4.3866363E-1,-1.6961193E-1,3.6858663E-2,-4.8673907E-1,-4.1015387E-1,3.6858663E-2,4.0084726E-1,-3.2712993E-1,1.0555987E0,9.325783E-1,1.492813E0,5.730554E-1,1.1366038E0,2.8240208E-2,-1.037809E-2,-7.500631E-3,-4.4052694E-2,8.9503184E-2,6.0645115E-2,1.5472848E-2,4.9909938E-2,-1.13902114E-1,-5.674577E-2,-3.8303405E-2,-7.690536E-2,4.8654202E-2,2.5953695E-3,-7.875736E-3,-5.655321E-2],"split_indices":[3,2,2,12,3,2,12,3,3,3,2,145,3,6,6,0,0,0,0,0,0,0,0,0,0,0,0,0,0,0,0],"split_type":[0,0,0,0,0,0,0,0,0,0,0,0,0,0,0,0,0,0,0,0,0,0,0,0,0,0,0,0,0,0,0],"sum_hessian":[1.164583E4,8.079915E3,3.5659146E3,5.756594E3,2.323321E3,1.8281149E3,1.7377997E3,2.8523525E3,2.9042415E3,9.839386E2,1.3393824E3,2.7599097E2,1.5521239E3,4.6856836E2,1.2692313E3,2.2782524E3,5.741E2,2.4477166E3,4.5652484E2,4.2003842E2,5.639002E2,7.2438934E2,6.1499304E2,2.4026996E2,3.5721024E1,9.319414E2,6.201825E2,1.866543E2,2.8191406E2,9.7336865E2,2.9586267E2],"tree_param":{"num_deleted":"0","num_feature":"162","num_nodes":"31","size_leaf_vector":"1"}},{"base_weights":[7.013919E-3,1.3849102E-1,-5.113865E-1,-6.3781636E-3,4.583649E-1,-1.0396993E0,-3.81668E-1,1.3033505E-1,-2.8530756E-1,8.165526E-1,2.8374115E-1,-7.1420854E-1,-1.1962727E0,-4.8346612E-1,4.6258822E-2,2.8653722E-2,-5.6653307E-3,-5.3007588E-2,-8.748975E-3,8.479084E-2,6.1150827E-2,9.300854E-3,4.2416576E-2,-2.834396E-2,-8.373906E-2,-6.673801E-2,-1.0872924E-1,-3.0333513E-2,-6.676738E-2,9.898851E-3,-6.6247515E-2],"categories":[],"categories_nodes":[],"categories_segments":[],"categories_sizes":[],"default_left":[0,0,0,0,0,0,0,0,0,0,0,0,0,0,0,0,0,0,0,0,0,0,0,0,0,0,0,0,0,0,0],"id":11,"left_children":[1,3,5,7,9,11,13,15,17,19,21,23,25,27,29,-1,-1,-1,-1,-1,-1,-1,-1,-1,-1,-1,-1,-1,-1,-1,-1],"loss_changes":[7.872794E2,4.276705E2,1.5855286E2,2.4209093E2,1.7871332E2,2.11091E1,8.2246216E1,1.6500298E2,1.2392874E2,1.4936584E1,6.8876816E1,1.3187431E1,4.256378E0,5.6927765E1,1.8912573E1,0E0,0E0,0E0,0E0,0E0,0E0,0E0,0E0,0E0,0E0,0E0,0E0,0E0,0E0,0E0,0E0],"parents":[2147483647,0,0,1,1,2,2,3,3,4,4,5,5,6,6,7,7,8,8,9,9,10,10,11,11,12,12,13,13,14,14],"right_children":[2,4,6,8,10,12,14,16,18,20,22,24,26,28,30,-1,-1,-1,-1,-1,-1,-1,-1,-1,-1,-1,-1,-1,-1,-1,-1],"split_conditions":[1.1288245E0,4.3866363E-1,-1.782715E-1,3.6858663E-2,3.6858663E-2,3.4206477E-1,1.3640664E0,2.6798555E-1,-1.782715E-1,-3.2712993E-1,-1.4175606E-1,1.492813E0,3.169158E-1,6.1787486E-1,3.590793E0,2.8653722E-2,-5.6653307E-3,-5.3007588E-2,-8.748975E-3,8.479084E-2,6.1150827E-2,9.300854E-3,4.2416576E-2,-2.834396E-2,-8.373906E-2,-6.673801E-2,-1.0872924E-1,-3.0333513E-2,-6.676738E-2,9.898851E-3,-6.6247515E-2],"split_indices":[3,2,2,3,3,68,2,121,2,3,14,3,69,0,10,0,0,0,0,0,0,0,0,0,0,0,0,0,0,0,0],"split_type":[0,0,0,0,0,0,0,0,0,0,0,0,0,0,0,0,0,0,0,0,0,0,0,0,0,0,0,0,0,0,0],"sum_hessian":[1.1555023E4,9.219098E3,2.3359253E3,6.3436187E3,2.8754792E3,4.5831E2,1.8776154E3,4.254954E3,2.0886643E3,9.3998645E2,1.9354928E3,1.5178328E2,3.065267E2,1.518546E3,3.5906937E2,2.1139153E3,2.1410388E3,7.590243E2,1.3296401E3,3.9487973E2,5.4510675E2,1.0357739E3,8.9971893E2,6.0755566E1,9.102772E1,3.5000904E1,2.715258E2,1.028562E3,4.89984E2,3.3292377E2,2.6145582E1],"tree_param":{"num_deleted":"0","num_feature":"162","num_nodes":"31","size_leaf_vector":"1"}},{"base_weights":[6.749099E-3,2.1242367E-1,-2.6244682E-1,2.8137555E-2,4.9096072E-1,-6.090424E-1,-7.064054E-2,-1.21175684E-1,3.0070326E-1,8.911795E-1,3.6323586E-1,-9.954569E-1,-5.040799E-1,-2.3568316E-1,2.0604596E-1,-3.0264772E-2,-2.6515536E-3,1.8751983E-2,6.082023E-2,1.03019014E-1,7.002941E-2,4.994381E-2,1.3864027E-2,-6.964426E-2,-1.04399964E-1,-2.5784872E-2,-6.4577386E-2,-3.884306E-2,3.6239722E-3,3.1917125E-2,-1.5882578E-2],"categories":[],"categories_nodes":[],"categories_segments":[],"categories_sizes":[],"default_left":[0,0,0,0,0,0,0,0,0,0,0,0,0,0,0,0,0,0,0,0,0,0,0,0,0,0,0,0,0,0,0],"id":12,"left_children":[1,3,5,7,9,11,13,15,17,19,21,23,25,27,29,-1,-1,-1,-1,-1,-1,-1,-1,-1,-1,-1,-1,-1,-1,-1,-1],"loss_changes":[6.37153E2,3.344839E2,3.3056653E2,1.6013998E2,1.3135486E2,7.022241E1,1.4663478E2,5.1650425E1,4.640954E1,1.3620117E1,8.357446E1,1.2530212E1,6.774429E1,1.1743296E2,7.454674E1,0E0,0E0,0E0,0E0,0E0,0E0,0E0,0E0,0E0,0E0,0E0,0E0,0E0,0E0,0E0,0E0],"parents":[2147483647,0,0,1,1,2,2,3,3,4,4,5,5,6,6,7,7,8,8,9,9,10,10,11,11,12,12,13,13,14,14],"right_children":[2,4,6,8,10,12,14,16,18,20,22,24,26,28,30,-1,-1,-1,-1,-1,-1,-1,-1,-1,-1,-1,-1,-1,-1,-1,-1],"split_conditions":[4.0084726E-1,-1.782715E-1,1.3019606E-1,2.2499295E-1,-3.2712993E-1,-4.8673907E-1,9.241196E-1,-6.239021E-1,1.1479199E0,-6.9111854E-1,5.730554E-1,1.1288245E0,2.9128116E-1,-1.9720888E-1,3.7826946E-1,-3.0264772E-2,-2.6515536E-3,1.8751983E-2,6.082023E-2,1.03019014E-1,7.002941E-2,4.994381E-2,1.3864027E-2,-6.964426E-2,-1.04399964E-1,-2.5784872E-2,-6.4577386E-2,-3.884306E-2,3.6239722E-3,3.1917125E-2,-1.5882578E-2],"split_indices":[3,2,2,125,3,2,7,14,124,3,6,3,6,17,24,0,0,0,0,0,0,0,0,0,0,0,0,0,0,0,0],"split_type":[0,0,0,0,0,0,0,0,0,0,0,0,0,0,0,0,0,0,0,0,0,0,0,0,0,0,0,0,0,0,0],"sum_hessian":[1.1507688E4,6.5255913E3,4.982097E3,3.9296572E3,2.5959338E3,1.7726957E3,3.2094014E3,2.53677E3,1.3928875E3,6.254661E2,1.9704677E3,3.7577338E2,1.3969222E3,2.0124954E3,1.196906E3,7.2380145E2,1.8129685E3,1.1481165E3,2.447709E2,1.4178085E2,4.8368527E2,9.701154E2,1.0003523E3,1.9384059E2,1.8193277E2,7.451717E2,6.5175055E2,1.1475754E3,8.649199E2,8.4942346E2,3.474825E2],"tree_param":{"num_deleted":"0","num_feature":"162","num_nodes":"31","size_leaf_vector":"1"}},{"base_weights":[8.007844E-3,-4.0400198E-1,1.2557377E-1,-3.114356E-1,-8.024521E-1,6.033112E-3,3.7967393E-1,-2.648323E-1,-8.242727E-1,-8.717798E-1,-3.7009338E-1,4.4770766E-2,-5.2721214E-1,4.208233E-1,-3.1715804E-1,-1.9393919E-2,-5.5474322E-2,-7.680612E-2,-5.45071E-3,-1.0109877E-1,-6.459845E-2,7.814589E-3,-4.0817082E-2,8.560205E-3,-2.2420313E-2,-3.8644075E-2,-8.265611E-2,2.9138718E-2,6.261332E-2,-5.857355E-3,-6.439115E-2],"categories":[],"categories_nodes":[],"categories_segments":[],"categories_sizes":[],"default_left":[0,0,0,0,0,0,0,0,0,0,0,0,0,0,0,0,0,0,0,0,0,0,0,0,0,0,0,0,0,0,0],"id":13,"left_children":[1,3,5,7,9,11,13,15,17,19,21,23,25,27,29,-1,-1,-1,-1,-1,-1,-1,-1,-1,-1,-1,-1,-1,-1,-1,-1],"loss_changes":[5.504715E2,9.183328E1,2.6837622E2,4.7828247E1,1.2826996E1,1.2390312E2,8.126114E1,2.8755295E1,6.3221436E0,1.3012634E1,3.455203E0,9.03345E1,1.2811455E1,6.770212E1,1.5700475E1,0E0,0E0,0E0,0E0,0E0,0E0,0E0,0E0,0E0,0E0,0E0,0E0,0E0,0E0,0E0,0E0],"parents":[2147483647,0,0,1,1,2,2,3,3,4,4,5,5,6,6,7,7,8,8,9,9,10,10,11,11,12,12,13,13,14,14],"right_children":[2,4,6,8,10,12,14,16,18,20,22,24,26,28,30,-1,-1,-1,-1,-1,-1,-1,-1,-1,-1,-1,-1,-1,-1,-1,-1],"split_conditions":[-6.203827E-1,1.9376129E0,6.236415E-2,3.590793E0,1.950125E0,3.590793E0,3.590793E0,1.1366038E0,2.6186383E-1,-4.143607E-1,-5.5404145E-1,1.1366038E0,1.5879259E0,1.2178372E0,8.5482955E-1,-1.9393919E-2,-5.5474322E-2,-7.680612E-2,-5.45071E-3,-1.0109877E-1,-6.459845E-2,7.814589E-3,-4.0817082E-2,8.560205E-3,-2.2420313E-2,-3.8644075E-2,-8.265611E-2,2.9138718E-2,6.261332E-2,-5.857355E-3,-6.439115E-2],"split_indices":[14,68,14,10,8,10,10,6,144,70,6,6,50,17,6,0,0,0,0,0,0,0,0,0,0,0,0,0,0,0,0],"split_type":[0,0,0,0,0,0,0,0,0,0,0,0,0,0,0,0,0,0,0,0,0,0,0,0,0,0,0,0,0,0,0],"sum_hessian":[1.1368828E4,2.5217917E3,8.847036E3,2.0490857E3,4.727061E2,6.019489E3,2.8275476E3,1.880824E3,1.6826173E2,4.0501834E2,6.768775E1,5.6139365E3,4.0555243E2,2.671378E3,1.5616948E2,1.6908925E3,1.8993152E2,1.5541098E2,1.2850741E1,1.23265175E2,2.8175317E2,1.0176717E1,5.7511032E1,4.7732744E3,8.40662E2,3.4075635E2,6.47961E1,2.071298E3,6.0007983E2,9.9806274E1,5.63632E1],"tree_param":{"num_deleted":"0","num_feature":"162","num_nodes":"31","size_leaf_vector":"1"}},{"base_weights":[-1.006751E-2,-1.6286416E-1,2.6482362E-1,-2.067631E-1,3.9882287E-1,1.7604329E-1,5.7666445E-1,-4.1776165E-1,-9.038604E-2,2.4638152E-1,6.29419E-1,1.3789177E-1,6.3294137E-1,4.0509376E-1,6.841631E-1,-4.482617E-2,-1.1544328E-2,-1.543287E-2,1.6706256E-2,3.2692336E-2,-1.2243035E-2,5.984129E-2,-2.4158604E-2,8.850092E-3,3.971405E-2,4.4078972E-2,7.8878574E-2,1.4797828E-2,5.1099405E-2,6.818063E-2,4.6469495E-2],"categories":[],"categories_nodes":[],"categories_segments":[],"categories_sizes":[],"default_left":[0,0,0,0,0,0,0,0,0,0,0,0,0,0,0,0,0,0,0,0,0,0,0,0,0,0,0,0,0,0,0],"id":14,"left_children":[1,3,5,7,9,11,13,15,17,19,21,23,25,27,29,-1,-1,-1,-1,-1,-1,-1,-1,-1,-1,-1,-1,-1,-1,-1,-1],"loss_changes":[4.7697513E2,1.7992165E2,1.1150726E2,1.6585947E2,1.7639107E1,5.4299187E1,1.5340149E1,6.540976E1,1.0668068E2,1.6213512E1,1.1153656E1,3.3188217E1,6.770851E0,1.4120102E1,6.6013184E0,0E0,0E0,0E0,0E0,0E0,0E0,0E0,0E0,0E0,0E0,0E0,0E0,0E0,0E0,0E0,0E0],"parents":[2147483647,0,0,1,1,2,2,3,3,4,4,5,5,6,6,7,7,8,8,9,9,10,10,11,11,12,12,13,13,14,14],"right_children":[2,4,6,8,10,12,14,16,18,20,22,24,26,28,30,-1,-1,-1,-1,-1,-1,-1,-1,-1,-1,-1,-1,-1,-1,-1,-1],"split_conditions":[-1.4175606E-1,3.0394166E0,1.0555987E0,-6.203827E-1,7.471312E-1,1.6874155E0,2.9815817E-1,1.2561463E0,9.241196E-1,5.1135516E-1,2.6671152E0,1.2561463E0,2.9647741E0,2.6006615E-1,5.1614416E-1,-4.482617E-2,-1.1544328E-2,-1.543287E-2,1.6706256E-2,3.2692336E-2,-1.2243035E-2,5.984129E-2,-2.4158604E-2,8.850092E-3,3.971405E-2,4.4078972E-2,7.8878574E-2,1.4797828E-2,5.1099405E-2,6.818063E-2,4.6469495E-2],"split_indices":[14,11,2,14,2,138,14,7,7,69,8,7,124,7,8,0,0,0,0,0,0,0,0,0,0,0,0,0,0,0,0],"split_type":[0,0,0,0,0,0,0,0,0,0,0,0,0,0,0,0,0,0,0,0,0,0,0,0,0,0,0,0,0,0,0],"sum_hessian":[1.1357165E4,7.3020566E3,4.0551082E3,6.774617E3,5.2743945E2,3.1594932E3,8.95615E2,2.4048684E3,4.369749E3,3.2067715E2,2.067623E2,2.9185627E3,2.4093042E2,3.493817E2,5.462332E2,1.7955891E3,6.092793E2,3.3459375E3,1.0238114E3,2.425839E2,7.8093254E1,1.9569339E2,1.1068909E1,2.6216016E3,2.969612E2,1.673534E2,7.357702E1,1.5452602E2,1.9485571E2,3.2685382E2,2.1937941E2],"tree_param":{"num_deleted":"0","num_feature":"162","num_nodes":"31","size_leaf_vector":"1"}},{"base_weights":[3.920194E-3,1.1202998E-1,-4.1117734E-1,2.671553E-1,-4.965039E-2,-6.7329377E-1,-2.4480918E-1,5.5538166E-1,1.9916819E-1,-1.4454995E-1,2.9242826E-1,-7.2170734E-1,1.7804438E-1,-6.198991E-2,-5.0395995E-1,6.0153525E-2,3.196844E-2,1.0081193E-2,4.1588325E-2,-1.5051303E-3,-2.9958077E-2,4.8483875E-2,7.276789E-3,-6.751622E-2,-5.0528347E-3,3.4807496E-2,-1.856904E-2,7.5782994E-3,-2.6879784E-2,-6.3594334E-2,-1.444127E-2],"categories":[],"categories_nodes":[],"categories_segments":[],"categories_sizes":[],"default_left":[0,0,0,0,0,0,0,0,0,0,0,0,0,0,0,0,0,0,0,0,0,0,0,0,0,0,0,0,0,0,0],"id":15,"left_children":[1,3,5,7,9,11,13,15,17,19,21,23,25,27,29,-1,-1,-1,-1,-1,-1,-1,-1,-1,-1,-1,-1,-1,-1,-1,-1],"loss_changes":[5.107051E2,2.2683755E2,1.01556335E2,8.964249E1,1.4342523E2,3.8106567E1,6.7723305E1,2.1125397E1,8.6138504E1,8.738307E1,5.2136086E1,2.9216522E1,4.3999844E0,3.1307343E1,4.4345596E1,0E0,0E0,0E0,0E0,0E0,0E0,0E0,0E0,0E0,0E0,0E0,0E0,0E0,0E0,0E0,0E0],"parents":[2147483647,0,0,1,1,2,2,3,3,4,4,5,5,6,6,7,7,8,8,9,9,10,10,11,11,12,12,13,13,14,14],"right_children":[2,4,6,8,10,12,14,16,18,20,22,24,26,28,30,-1,-1,-1,-1,-1,-1,-1,-1,-1,-1,-1,-1,-1,-1,-1,-1],"split_conditions":[1.1288245E0,-1.6961193E-1,5.920929E-1,-5.734652E-1,9.241196E-1,7.799904E-1,1.8568016E0,3.6858663E-2,5.920929E-1,3.6858663E-2,4.0084726E-1,3.0394166E0,1.418378E0,5.441675E-1,-5.2613765E-2,6.0153525E-2,3.196844E-2,1.0081193E-2,4.1588325E-2,-1.5051303E-3,-2.9958077E-2,4.8483875E-2,7.276789E-3,-6.751622E-2,-5.0528347E-3,3.4807496E-2,-1.856904E-2,7.5782994E-3,-2.6879784E-2,-6.3594334E-2,-1.444127E-2],"split_indices":[3,12,7,110,7,112,3,3,7,3,3,11,6,68,144,0,0,0,0,0,0,0,0,0,0,0,0,0,0,0,0],"split_type":[0,0,0,0,0,0,0,0,0,0,0,0,0,0,0,0,0,0,0,0,0,0,0,0,0,0,0,0,0,0,0],"sum_hessian":[1.1385674E4,9.035196E3,2.3504775E3,4.6139253E3,4.421271E3,9.0977185E2,1.4407058E3,8.772158E2,3.7367095E3,3.4635215E3,9.577497E2,8.619591E2,4.7812733E1,8.4730865E2,5.933971E2,5.087287E2,3.6848712E2,2.875536E3,8.611734E2,2.1154832E3,1.3480385E3,4.2120624E2,5.3654346E2,7.9739777E2,6.456134E1,3.2101437E1,1.5711297E1,5.258097E2,3.2149896E2,3.54189E2,2.392081E2],"tree_param":{"num_deleted":"0","num_feature":"162","num_nodes":"31","size_leaf_vector":"1"}},{"base_weights":[8.971614E-3,1.4352942E-1,-2.8111044E-1,5.8643416E-2,4.2283088E-1,-4.084195E-1,2.1398071E-2,-6.5741904E-2,3.2961148E-1,7.3205227E-1,2.6380756E-1,-2.7098152E-1,-6.440575E-1,1.5831822E-1,-5.0871366E-1,-8.540557E-3,4.129688E-2,2.3228992E-2,6.1926875E-2,6.738266E-2,1.711629E-2,3.016504E-2,-1.0595363E-2,-2.8180119E-2,2.6098406E-2,-7.040425E-2,-3.2163106E-2,2.2560382E-2,-1.3441996E-2,-7.65581E-2,-8.5501345E-3],"categories":[],"categories_nodes":[],"categories_segments":[],"categories_sizes":[],"default_left":[0,0,0,0,0,0,0,0,0,0,0,0,0,0,0,0,0,0,0,0,0,0,0,0,0,0,0,0,0,0,0],"id":16,"left_children":[1,3,5,7,9,11,13,15,17,19,21,23,25,27,29,-1,-1,-1,-1,-1,-1,-1,-1,-1,-1,-1,-1,-1,-1,-1,-1],"loss_changes":[4.4111395E2,1.826668E2,1.3824329E2,2.0004279E2,8.734735E1,8.0701935E1,7.6541725E1,7.0148094E1,4.390837E1,1.2220367E1,3.7873436E1,4.753865E1,4.0327454E1,2.6562239E1,3.1761906E1,0E0,0E0,0E0,0E0,0E0,0E0,0E0,0E0,0E0,0E0,0E0,0E0,0E0,0E0,0E0,0E0],"parents":[2147483647,0,0,1,1,2,2,3,3,4,4,5,5,6,6,7,7,8,8,9,9,10,10,11,11,12,12,13,13,14,14],"right_children":[2,4,6,8,10,12,14,16,18,20,22,24,26,28,30,-1,-1,-1,-1,-1,-1,-1,-1,-1,-1,-1,-1,-1,-1,-1,-1],"split_conditions":[7.6483583E-1,5.920929E-1,1.2561463E0,-1.858007E-2,3.6858663E-2,1.492813E0,2.2207901E0,3.0394166E0,1.1134019E0,1.7001522E0,1.1366038E0,6.5008956E-1,8.648108E-3,9.90921E-1,3.7553337E-1,-8.540557E-3,4.129688E-2,2.3228992E-2,6.1926875E-2,6.738266E-2,1.711629E-2,3.016504E-2,-1.0595363E-2,-2.8180119E-2,2.6098406E-2,-7.040425E-2,-3.2163106E-2,2.2560382E-2,-1.3441996E-2,-7.65581E-2,-8.5501345E-3],"split_indices":[3,7,7,14,3,3,3,11,25,6,6,14,144,68,127,0,0,0,0,0,0,0,0,0,0,0,0,0,0,0,0],"split_type":[0,0,0,0,0,0,0,0,0,0,0,0,0,0,0,0,0,0,0,0,0,0,0,0,0,0,0,0,0,0,0],"sum_hessian":[1.1303432E4,7.7240913E3,3.57934E3,5.926848E3,1.7972434E3,2.521266E3,1.0580741E3,4.0599993E3,1.8668486E3,6.076906E2,1.1895527E3,1.5957268E3,9.255392E2,8.4261163E2,2.1546251E2,3.833391E3,2.2660823E2,1.6036357E3,2.632129E2,5.6301764E2,4.467298E1,9.8274054E2,2.0681223E2,1.4637759E3,1.31951E2,5.7818195E2,3.473572E2,6.401341E2,2.0247752E2,1.1192917E2,1.0353335E2],"tree_param":{"num_deleted":"0","num_feature":"162","num_nodes":"31","size_leaf_vector":"1"}},{"base_weights":[8.919614E-3,1.335656E-1,-2.5953743E-1,3.2486334E-2,3.423144E-1,-4.6736866E-1,-1.0440353E-1,-1.55435E-2,4.9198055E-1,6.3423073E-1,1.9149996E-1,-3.3888376E-1,-7.2039866E-1,-2.826224E-1,8.592038E-2,4.5953207E-3,-2.4362173E-2,5.2732226E-2,1.9996004E-2,7.03224E-2,4.52323E-2,3.1307835E-2,4.821583E-3,-3.5952423E-2,9.014305E-3,-7.693312E-2,-3.842387E-2,-1.6919171E-2,-5.2737325E-2,1.5030469E-2,-2.0420847E-2],"categories":[],"categories_nodes":[],"categories_segments":[],"categories_sizes":[],"default_left":[0,0,0,0,0,0,0,0,0,0,0,0,0,0,0,0,0,0,0,0,0,0,0,0,0,0,0,0,0,0,0],"id":17,"left_children":[1,3,5,7,9,11,13,15,17,19,21,23,25,27,29,-1,-1,-1,-1,-1,-1,-1,-1,-1,-1,-1,-1,-1,-1,-1,-1],"loss_changes":[3.7358362E2,1.6061314E2,1.13521515E2,1.139839E2,1.0858496E2,4.7938965E1,6.904259E1,8.403267E1,1.3593887E1,1.5310608E1,3.7053123E1,3.2917953E1,2.140805E1,2.91678E1,2.705075E1,0E0,0E0,0E0,0E0,0E0,0E0,0E0,0E0,0E0,0E0,0E0,0E0,0E0,0E0,0E0,0E0],"parents":[2147483647,0,0,1,1,2,2,3,3,4,4,5,5,6,6,7,7,8,8,9,9,10,10,11,11,12,12,13,13,14,14],"right_children":[2,4,6,8,10,12,14,16,18,20,22,24,26,28,30,-1,-1,-1,-1,-1,-1,-1,-1,-1,-1,-1,-1,-1,-1,-1,-1],"split_conditions":[7.6483583E-1,2.6006615E-1,5.920929E-1,8.502928E-1,3.6858663E-2,1.492813E0,-3.9649627E-1,3.6858663E-2,4.3729532E-1,-3.2712993E-1,2.9128116E-1,7.7237946E-1,2.906873E-2,2.2207901E0,1.1366038E0,4.5953207E-3,-2.4362173E-2,5.2732226E-2,1.9996004E-2,7.03224E-2,4.52323E-2,3.1307835E-2,4.821583E-3,-3.5952423E-2,9.014305E-3,-7.693312E-2,-3.842387E-2,-1.6919171E-2,-5.2737325E-2,1.5030469E-2,-2.0420847E-2],"split_indices":[3,7,7,17,3,3,112,3,128,3,6,144,144,3,6,0,0,0,0,0,0,0,0,0,0,0,0,0,0,0,0],"split_type":[0,0,0,0,0,0,0,0,0,0,0,0,0,0,0,0,0,0,0,0,0,0,0,0,0,0,0,0,0,0,0],"sum_hessian":[1.1166936E4,7.6287144E3,3.5382207E3,5.143396E3,2.4853184E3,1.509174E3,2.0290466E3,4.655213E3,4.8818323E2,8.438823E2,1.641436E3,1.004238E3,5.04936E2,1.050317E3,9.787296E2,3.6959917E3,9.592212E2,3.386203E2,1.4956293E2,3.3442975E2,5.0945258E2,7.3265607E2,9.0877997E2,8.632365E2,1.4100145E2,3.1708838E2,1.8784764E2,8.2667615E2,2.2364085E2,7.731881E2,2.055415E2],"tree_param":{"num_deleted":"0","num_feature":"162","num_nodes":"31","size_leaf_vector":"1"}},{"base_weights":[-3.0591397E-4,-2.3330201E-1,1.0464381E-1,-5.646131E-1,-1.679179E-1,1.3821743E-1,-4.0053347E-1,-4.627549E-1,-8.354062E-1,-6.0962297E-2,-3.395696E-1,9.022806E-2,4.9163926E-1,-1.052127E-1,-6.1415917E-1,-3.3591054E-2,-7.1882196E-2,-8.540378E-2,-3.942789E-2,-7.834945E-3,4.2307746E-2,-3.4075342E-2,8.187274E-3,4.7855573E-3,5.0075214E-2,4.5657706E-2,-2.013156E-2,-2.9306596E-3,-7.669079E-2,-6.3322805E-2,-1.1392501E-2],"categories":[],"categories_nodes":[],"categories_segments":[],"categories_sizes":[],"default_left":[0,0,0,0,0,0,0,0,0,0,0,0,0,0,0,0,0,0,0,0,0,0,0,0,0,0,0,0,0,0,0],"id":18,"left_children":[1,3,5,7,9,11,13,15,17,19,21,23,25,27,29,-1,-1,-1,-1,-1,-1,-1,-1,-1,-1,-1,-1,-1,-1,-1,-1],"loss_changes":[2.7276428E2,7.431743E1,1.3010738E2,1.4236877E1,5.2798393E1,1.2166319E2,2.938379E1,1.0367172E1,6.791191E0,2.7857628E1,2.4887764E1,1.080114E2,2.0141754E1,1.035306E1,1.4008957E1,0E0,0E0,0E0,0E0,0E0,0E0,0E0,0E0,0E0,0E0,0E0,0E0,0E0,0E0,0E0,0E0],"parents":[2147483647,0,0,1,1,2,2,3,3,4,4,5,5,6,6,7,7,8,8,9,9,10,10,11,11,12,12,13,13,14,14],"right_children":[2,4,6,8,10,12,14,16,18,20,22,24,26,28,30,-1,-1,-1,-1,-1,-1,-1,-1,-1,-1,-1,-1,-1,-1,-1,-1],"split_conditions":[-5.359192E-1,-8.9136994E-1,3.590793E0,1.2606581E0,2.9128116E-1,7.2047585E-1,2.9128116E-1,5.730554E-1,1.5208308E0,3.0394166E0,3.0394166E0,3.0394166E0,2.5454748E0,7.4287367E0,3.0394166E0,-3.3591054E-2,-7.1882196E-2,-8.540378E-2,-3.942789E-2,-7.834945E-3,4.2307746E-2,-3.4075342E-2,8.187274E-3,4.7855573E-3,5.0075214E-2,4.5657706E-2,-2.013156E-2,-2.9306596E-3,-7.669079E-2,-6.3322805E-2,-1.1392501E-2],"split_indices":[14,14,10,69,6,14,6,6,54,11,11,11,6,10,11,0,0,0,0,0,0,0,0,0,0,0,0,0,0,0,0],"split_type":[0,0,0,0,0,0,0,0,0,0,0,0,0,0,0,0,0,0,0,0,0,0,0,0,0,0,0,0,0,0,0],"sum_hessian":[1.1148612E4,3.464862E3,7.68375E3,5.680168E2,2.8968455E3,7.20705E3,4.767E2,4.1635156E2,1.5166524E2,1.7886378E3,1.1082075E3,6.348396E3,8.586539E2,2.0229872E2,2.744013E2,3.4584747E2,7.050409E1,1.0786877E2,4.379648E1,1.7008829E3,8.775492E1,9.932468E2,1.1496072E2,5.9185874E3,4.298087E2,8.237568E2,3.489709E1,1.8679944E2,1.549928E1,2.209993E2,5.3402004E1],"tree_param":{"num_deleted":"0","num_feature":"162","num_nodes":"31","size_leaf_vector":"1"}},{"base_weights":[1.0333877E-2,9.5067315E-2,-3.0975705E-1,2.1820634E-3,2.4707869E-1,-2.0661056E-1,-5.054513E-1,-4.005667E-1,2.6821462E-2,3.130669E-1,-7.035628E-3,-3.914933E-2,-4.0301812E-1,-4.1828656E-1,-8.039096E-1,-2.8509852E-2,-6.38907E-2,6.78279E-3,-9.693836E-3,2.3862425E-2,7.182553E-2,3.494623E-2,-2.2349846E-2,5.630252E-3,-1.9259581E-2,-4.2523913E-2,1.4963687E-3,-3.9011065E-2,1.22049805E-2,-8.2392074E-2,-3.286111E-2],"categories":[],"categories_nodes":[],"categories_segments":[],"categories_sizes":[],"default_left":[0,0,0,0,0,0,0,0,0,0,0,0,0,0,0,0,0,0,0,0,0,0,0,0,0,0,0,0,0,0,0],"id":19,"left_children":[1,3,5,7,9,11,13,15,17,19,21,23,25,27,29,-1,-1,-1,-1,-1,-1,-1,-1,-1,-1,-1,-1,-1,-1,-1,-1],"loss_changes":[3.0036972E2,1.23517845E2,4.6037216E1,5.3680294E1,5.5973846E1,4.961164E1,1.9368393E1,6.483509E0,3.606477E1,5.1977844E1,6.922583E1,1.5692916E1,2.5245949E1,1.0373238E1,9.191772E0,0E0,0E0,0E0,0E0,0E0,0E0,0E0,0E0,0E0,0E0,0E0,0E0,0E0,0E0,0E0,0E0],"parents":[2147483647,0,0,1,1,2,2,3,3,4,4,5,5,6,6,7,7,8,8,9,9,10,10,11,11,12,12,13,13,14,14],"right_children":[2,4,6,8,10,12,14,16,18,20,22,24,26,28,30,-1,-1,-1,-1,-1,-1,-1,-1,-1,-1,-1,-1,-1,-1,-1,-1],"split_conditions":[1.1288245E0,-1.4175606E-1,5.654415E-1,-8.9136994E-1,1.1366038E0,5.730554E-1,2.2207901E0,3.9012175E0,5.730554E-1,1.7678913E0,3.6858663E-2,1.8568016E0,4.0582442E-1,1.5164211E-1,1.001781E0,-2.8509852E-2,-6.38907E-2,6.78279E-3,-9.693836E-3,2.3862425E-2,7.182553E-2,3.494623E-2,-2.2349846E-2,5.630252E-3,-1.9259581E-2,-4.2523913E-2,1.4963687E-3,-3.9011065E-2,1.22049805E-2,-8.2392074E-2,-3.286111E-2],"split_indices":[3,14,68,14,6,6,3,148,6,26,3,3,124,147,9,0,0,0,0,0,0,0,0,0,0,0,0,0,0,0,0],"split_type":[0,0,0,0,0,0,0,0,0,0,0,0,0,0,0,0,0,0,0,0,0,0,0,0,0,0,0,0,0,0,0],"sum_hessian":[1.1081104E4,8.764384E3,2.3167205E3,5.4444375E3,3.3199458E3,1.5209974E3,7.9572296E2,3.11179E2,5.133259E3,2.6384475E3,6.814984E2,8.2396747E2,6.970299E2,6.1931024E2,1.7641269E2,2.5788614E2,5.3292843E1,3.7540786E3,1.3791799E3,2.4516794E3,1.8676785E2,2.569598E2,4.245386E2,5.21408E2,3.0255948E2,5.8205774E2,1.1497218E2,5.9042194E2,2.8888308E1,1.3050539E2,4.590731E1],"tree_param":{"num_deleted":"0","num_feature":"162","num_nodes":"31","size_leaf_vector":"1"}},{"base_weights":[2.7362069E-3,-8.985286E-2,2.9895929E-1,5.633406E-2,-3.2172224E-1,5.6997484E-1,1.4154695E-1,-3.450965E-2,2.9963416E-1,-4.1147673E-1,7.531375E-2,8.902569E-1,4.6980426E-1,2.2044401E-1,-3.2022616E-1,-1.4463662E-2,8.999509E-3,6.927972E-2,1.34014115E-2,-7.784068E-2,-3.0650213E-2,-5.6285676E-2,1.5482035E-2,8.2878955E-2,4.3320682E-2,4.5985878E-2,-0E0,3.0130211E-2,-3.641873E-3,-7.233343E-2,-1.3100383E-2],"categories":[],"categories_nodes":[],"categories_segments":[],"categories_sizes":[],"default_left":[0,0,0,0,0,0,0,0,0,0,0,0,0,0,0,0,0,0,0,0,0,0,0,0,0,0,0,0,0,0,0],"id":20,"left_children":[1,3,5,7,9,11,13,15,17,19,21,23,25,27,29,-1,-1,-1,-1,-1,-1,-1,-1,-1,-1,-1,-1,-1,-1,-1,-1],"loss_changes":[3.0269427E2,2.849996E2,1.1142589E2,1.1408451E2,1.1618329E2,2.9390564E1,6.0633442E1,6.784307E1,1.00353325E2,7.527042E1,4.3651897E1,3.7272034E0,2.0404114E1,4.7016045E1,1.990513E1,0E0,0E0,0E0,0E0,0E0,0E0,0E0,0E0,0E0,0E0,0E0,0E0,0E0,0E0,0E0,0E0],"parents":[2147483647,0,0,1,1,2,2,3,3,4,4,5,5,6,6,7,7,8,8,9,9,10,10,11,11,12,12,13,13,14,14],"right_children":[2,4,6,8,10,12,14,16,18,20,22,24,26,28,30,-1,-1,-1,-1,-1,-1,-1,-1,-1,-1,-1,-1,-1,-1,-1,-1],"split_conditions":[7.471312E-1,4.0084726E-1,4.0084726E-1,-1.782715E-1,1.588173E0,-3.2712993E-1,1.7001522E0,7.905089E-2,-3.2712993E-1,-4.8673907E-1,-4.8673907E-1,7.31462E-1,1.9819264E0,1.492813E0,1.0555987E0,-1.4463662E-2,8.999509E-3,6.927972E-2,1.34014115E-2,-7.784068E-2,-3.0650213E-2,-5.6285676E-2,1.5482035E-2,8.2878955E-2,4.3320682E-2,4.5985878E-2,-0E0,3.0130211E-2,-3.641873E-3,-7.233343E-2,-1.3100383E-2],"split_indices":[2,3,3,2,7,3,6,125,3,2,2,148,6,3,2,0,0,0,0,0,0,0,0,0,0,0,0,0,0,0,0],"split_type":[0,0,0,0,0,0,0,0,0,0,0,0,0,0,0,0,0,0,0,0,0,0,0,0,0,0,0,0,0,0,0],"sum_hessian":[1.102802E4,8.399692E3,2.6283271E3,5.1494023E3,3.2502903E3,9.629595E2,1.6653678E3,3.7468892E3,1.402513E3,2.652955E3,5.9733527E2,2.2616573E2,7.3679376E2,1.424354E3,2.410138E2,1.9212719E3,1.8256174E3,3.1749045E2,1.0850225E3,2.917247E2,2.3612302E3,7.268479E1,5.2465045E2,1.9346188E2,3.2703842E1,6.581598E2,7.863398E1,9.667862E2,4.5756778E2,5.841373E1,1.8260007E2],"tree_param":{"num_deleted":"0","num_feature":"162","num_nodes":"31","size_leaf_vector":"1"}},{"base_weights":[-1.485438E-4,-8.324535E-2,2.7286282E-1,8.905439E-2,-2.6089573E-1,6.712282E-1,1.705089E-1,-2.3548827E-3,4.0435734E-1,-7.701329E-1,-1.950956E-1,8.813445E-1,5.245973E-1,2.595493E-1,-8.47772E-2,2.3470526E-3,-5.095458E-2,6.286611E-2,1.7105585E-2,-9.0890504E-2,-5.9837516E-2,-2.790271E-2,-4.5820028E-3,8.094646E-2,5.1495332E-2,3.74507E-2,7.172177E-2,1.4516015E-2,4.4597846E-2,2.049534E-2,-1.4067188E-2],"categories":[],"categories_nodes":[],"categories_segments":[],"categories_sizes":[],"default_left":[0,0,0,0,0,0,0,0,0,0,0,0,0,0,0,0,0,0,0,0,0,0,0,0,0,0,0,0,0,0,0],"id":21,"left_children":[1,3,5,7,9,11,13,15,17,19,21,23,25,27,29,-1,-1,-1,-1,-1,-1,-1,-1,-1,-1,-1,-1,-1,-1,-1,-1],"loss_changes":[2.4964421E2,2.5867667E2,1.03799866E2,1.23880875E2,1.3842004E2,1.4514679E1,4.6659966E1,5.7085E1,6.266597E1,8.812134E0,6.525911E1,1.1392059E0,7.4533997E0,3.491999E1,1.2830601E1,0E0,0E0,0E0,0E0,0E0,0E0,0E0,0E0,0E0,0E0,0E0,0E0,0E0,0E0,0E0,0E0],"parents":[2147483647,0,0,1,1,2,2,3,3,4,4,5,5,6,6,7,7,8,8,9,9,10,10,11,11,12,12,13,13,14,14],"right_children":[2,4,6,8,10,12,14,16,18,20,22,24,26,28,30,-1,-1,-1,-1,-1,-1,-1,-1,-1,-1,-1,-1,-1,-1,-1,-1],"split_conditions":[7.471312E-1,3.6858663E-2,3.6858663E-2,-4.8673907E-1,-4.8673907E-1,-3.2712993E-1,1.492813E0,1.7052003E0,-3.2712993E-1,-7.9520667E-1,8.506034E-1,5.459311E-1,5.930117E-1,8.506034E-1,-4.809015E-1,2.3470526E-3,-5.095458E-2,6.286611E-2,1.7105585E-2,-9.0890504E-2,-5.9837516E-2,-2.790271E-2,-4.5820028E-3,8.094646E-2,5.1495332E-2,3.74507E-2,7.172177E-2,1.4516015E-2,4.4597846E-2,2.049534E-2,-1.4067188E-2],"split_indices":[2,3,3,2,2,3,3,12,3,2,1,139,17,1,12,0,0,0,0,0,0,0,0,0,0,0,0,0,0,0,0],"split_type":[0,0,0,0,0,0,0,0,0,0,0,0,0,0,0,0,0,0,0,0,0,0,0,0,0,0,0,0,0,0,0],"sum_hessian":[1.1011121E4,8.444676E3,2.5664453E3,4.2842886E3,4.160387E3,5.221133E2,2.044332E3,3.3194297E3,9.648589E2,4.7376105E2,3.6866265E3,2.1084512E2,3.1126816E2,1.5184595E3,5.258725E2,3.1593767E3,1.6005286E2,3.8054025E2,5.843186E2,1.0768409E2,3.6607697E2,1.9614292E3,1.7251973E3,1.7779025E2,3.3054882E1,2.3928488E2,7.1983284E1,1.1120189E3,4.0644055E2,9.891552E1,4.2695697E2],"tree_param":{"num_deleted":"0","num_feature":"162","num_nodes":"31","size_leaf_vector":"1"}},{"base_weights":[-1.7232135E-3,7.2645515E-2,-2.7613223E-1,-2.2886992E-2,2.370143E-1,-6.052302E-1,-1.7253521E-1,6.367579E-2,-2.5744945E-1,5.377106E-1,1.4009751E-1,-5.081924E-1,-8.6770797E-1,-5.468554E-1,-1.03626296E-1,2.6858227E-2,-1.9986783E-3,-1.3804284E-2,-4.0916216E-2,6.2122397E-2,3.74547E-2,2.0557389E-2,-4.597057E-3,-2.600177E-2,-5.419716E-2,-4.2418692E-2,-9.6039146E-2,-5.1773272E-2,1.6494866E-2,-1.722048E-2,1.2907643E-2],"categories":[],"categories_nodes":[],"categories_segments":[],"categories_sizes":[],"default_left":[0,0,0,0,0,0,0,0,0,0,0,0,0,0,0,0,0,0,0,0,0,0,0,0,0,0,0,0,0,0,0],"id":22,"left_children":[1,3,5,7,9,11,13,15,17,19,21,23,25,27,29,-1,-1,-1,-1,-1,-1,-1,-1,-1,-1,-1,-1,-1,-1,-1,-1],"loss_changes":[2.2366702E2,1.3545155E2,7.89005E1,1.10726746E2,9.168053E1,1.2646423E1,4.5284523E1,8.433957E1,3.0232635E1,1.3299362E1,4.4433292E1,8.794601E0,1.1291771E1,9.905067E0,3.564128E1,0E0,0E0,0E0,0E0,0E0,0E0,0E0,0E0,0E0,0E0,0E0,0E0,0E0,0E0,0E0,0E0],"parents":[2147483647,0,0,1,1,2,2,3,3,4,4,5,5,6,6,7,7,8,8,9,9,10,10,11,11,12,12,13,13,14,14],"right_children":[2,4,6,8,10,12,14,16,18,20,22,24,26,28,30,-1,-1,-1,-1,-1,-1,-1,-1,-1,-1,-1,-1,-1,-1,-1,-1],"split_conditions":[1.1288245E0,2.6006615E-1,2.6006615E-1,3.6858663E-2,3.6858663E-2,1.8568016E0,-7.580689E-1,3.8350387E-3,3.6865726E-1,-3.2712993E-1,5.016196E-1,3.26506E-1,-9.937019E-2,3.0394166E0,1.588173E0,2.6858227E-2,-1.9986783E-3,-1.3804284E-2,-4.0916216E-2,6.2122397E-2,3.74547E-2,2.0557389E-2,-4.597057E-3,-2.600177E-2,-5.419716E-2,-4.2418692E-2,-9.6039146E-2,-5.1773272E-2,1.6494866E-2,-1.722048E-2,1.2907643E-2],"split_indices":[3,7,7,3,3,3,26,120,68,3,68,22,68,11,7,0,0,0,0,0,0,0,0,0,0,0,0,0,0,0,0],"split_type":[0,0,0,0,0,0,0,0,0,0,0,0,0,0,0,0,0,0,0,0,0,0,0,0,0,0,0,0,0,0,0],"sum_hessian":[1.0949481E4,8.612312E3,2.33717E3,5.443259E3,3.1690525E3,5.567552E2,1.7804148E3,3.9732605E3,1.4699982E3,7.694597E2,2.3995928E3,4.1025772E2,1.4649748E2,2.7407965E2,1.5063351E3,1.0423551E3,2.9309053E3,1.00480725E3,4.651909E2,2.8994388E2,4.7951584E2,1.6073052E3,7.9228754E2,1.4734683E2,2.629109E2,5.7808315E1,8.868917E1,2.5901117E2,1.506847E1,1.1000511E3,4.0628394E2],"tree_param":{"num_deleted":"0","num_feature":"162","num_nodes":"31","size_leaf_vector":"1"}},{"base_weights":[1.3350726E-4,-8.064412E-2,2.6722136E-1,-1.7542455E-2,-4.0071929E-1,3.5734755E-1,-3.372944E-2,-2.3736857E-1,6.1310906E-2,-6.548042E-1,-3.2441676E-1,2.6125625E-1,6.095714E-1,-1.2817916E-1,4.5327142E-1,-5.1513493E-2,-1.6935885E-2,-2.4527207E-3,1.9195996E-2,-4.2985402E-2,-7.768294E-2,-2.3324957E-2,-7.680545E-2,1.768358E-2,5.7870477E-2,5.7105873E-2,-3.3861112E-3,3.3243326E-4,-4.5938343E-2,4.693623E-2,-2.2267638E-2],"categories":[],"categories_nodes":[],"categories_segments":[],"categories_sizes":[],"default_left":[0,0,0,0,0,0,0,0,0,0,0,0,0,0,0,0,0,0,0,0,0,0,0,0,0,0,0,0,0,0,0],"id":23,"left_children":[1,3,5,7,9,11,13,15,17,19,21,23,25,27,29,-1,-1,-1,-1,-1,-1,-1,-1,-1,-1,-1,-1,-1,-1,-1,-1],"loss_changes":[2.3654277E2,1.6943127E2,6.9393265E1,1.21984604E2,2.5749329E1,4.6642715E1,2.6623936E1,2.7537247E1,7.3600624E1,1.0511169E1,3.2584442E1,3.262195E1,1.638919E1,2.6384092E1,5.9678555E0,0E0,0E0,0E0,0E0,0E0,0E0,0E0,0E0,0E0,0E0,0E0,0E0,0E0,0E0,0E0,0E0],"parents":[2147483647,0,0,1,1,2,2,3,3,4,4,5,5,6,6,7,7,8,8,9,9,10,10,11,11,12,12,13,13,14,14],"right_children":[2,4,6,8,10,12,14,16,18,20,22,24,26,28,30,-1,-1,-1,-1,-1,-1,-1,-1,-1,-1,-1,-1,-1,-1,-1,-1],"split_conditions":[7.471312E-1,8.5482955E-1,1.418378E0,-6.203827E-1,-1.782715E-1,8.699935E-2,2.289469E0,-8.6475116E-1,-1.782715E-1,-1.9431819E-1,1.4306308E0,3.0394166E0,3.590793E0,2.2637007E0,1.2769102E0,-5.1513493E-2,-1.6935885E-2,-2.4527207E-3,1.9195996E-2,-4.2985402E-2,-7.768294E-2,-2.3324957E-2,-7.680545E-2,1.768358E-2,5.7870477E-2,5.7105873E-2,-3.3861112E-3,3.3243326E-4,-4.5938343E-2,4.693623E-2,-2.2267638E-2],"split_indices":[2,6,6,14,2,14,2,26,2,13,0,11,10,6,145,0,0,0,0,0,0,0,0,0,0,0,0,0,0,0,0],"split_type":[0,0,0,0,0,0,0,0,0,0,0,0,0,0,0,0,0,0,0,0,0,0,0,0,0,0,0,0,0,0,0],"sum_hessian":[1.0954558E4,8.408329E3,2.5462285E3,7.0266016E3,1.3817277E3,1.9618102E3,5.8441846E2,1.8580033E3,5.1685986E3,3.1529898E2,1.0664287E3,1.4241129E3,5.376972E2,4.914551E2,9.296332E1,1.9918361E2,1.6588197E3,3.3028499E3,1.8657487E3,1.903452E2,1.24953766E2,9.6963214E2,9.679653E1,1.2461191E3,1.7799376E2,5.040095E2,3.368772E1,3.677728E2,1.2368231E2,8.433363E1,8.629686E0],"tree_param":{"num_deleted":"0","num_feature":"162","num_nodes":"31","size_leaf_vector":"1"}},{"base_weights":[-2.0583768E-3,6.7771316E-2,-2.5965184E-1,-1.9934922E-2,2.828836E-1,-6.834619E-1,-1.6477577E-1,3.8410246E-2,-2.7419204E-1,5.6676424E-1,1.7062376E-1,-3.254607E-1,-7.6799333E-1,-2.502486E-1,1.9476983E-1,-1.924654E-3,2.2927776E-2,3.7615642E-2,-3.3523835E-2,6.8621576E-2,3.7445825E-2,-1.2436102E-3,2.8017886E-2,-3.84466E-2,3.0444266E-2,-5.6978818E-2,-8.401221E-2,-3.339864E-3,-3.7542254E-2,4.0021583E-2,-4.4288365E-3],"categories":[],"categories_nodes":[],"categories_segments":[],"categories_sizes":[],"default_left":[0,0,0,0,0,0,0,0,0,0,0,0,0,0,0,0,0,0,0,0,0,0,0,0,0,0,0,0,0,0,0],"id":24,"left_children":[1,3,5,7,9,11,13,15,17,19,21,23,25,27,29,-1,-1,-1,-1,-1,-1,-1,-1,-1,-1,-1,-1,-1,-1,-1,-1],"loss_changes":[1.9641081E2,1.6212154E2,9.279591E1,9.060289E1,7.85349E1,1.1656204E1,5.864992E1,6.7471375E1,8.869189E1,1.9899475E1,5.004441E1,6.7116575E0,5.7499237E0,5.845578E1,2.402523E1,0E0,0E0,0E0,0E0,0E0,0E0,0E0,0E0,0E0,0E0,0E0,0E0,0E0,0E0,0E0,0E0],"parents":[2147483647,0,0,1,1,2,2,3,3,4,4,5,5,6,6,7,7,8,8,9,9,10,10,11,11,12,12,13,13,14,14],"right_children":[2,4,6,8,10,12,14,16,18,20,22,24,26,28,30,-1,-1,-1,-1,-1,-1,-1,-1,-1,-1,-1,-1,-1,-1,-1,-1],"split_conditions":[1.1288245E0,4.3866363E-1,-1.782715E-1,5.730554E-1,3.6858663E-2,-1.0958933E-1,1.3640664E0,-1.782715E-1,-3.2712993E-1,-3.2712993E-1,3.6843604E-1,2.9815817E-1,1.8568016E0,2.9128116E-1,8.5482955E-1,-1.924654E-3,2.2927776E-2,3.7615642E-2,-3.3523835E-2,6.8621576E-2,3.7445825E-2,-1.2436102E-3,2.8017886E-2,-3.84466E-2,3.0444266E-2,-5.6978818E-2,-8.401221E-2,-3.339864E-3,-3.7542254E-2,4.0021583E-2,-4.4288365E-3],"split_indices":[3,2,2,6,3,21,2,2,3,3,1,14,3,6,6,0,0,0,0,0,0,0,0,0,0,0,0,0,0,0,0],"split_type":[0,0,0,0,0,0,0,0,0,0,0,0,0,0,0,0,0,0,0,0,0,0,0,0,0,0,0,0,0,0,0],"sum_hessian":[1.0907938E4,8.578971E3,2.328968E3,6.0913867E3,2.487584E3,4.2356946E2,1.9053986E3,4.951761E3,1.1396256E3,7.0192676E2,1.7856572E3,8.355554E1,3.4001392E2,1.5417179E3,3.6368073E2,3.897854E3,1.0539071E3,1.5259183E2,9.8703375E2,2.66152E2,4.3577475E2,7.990711E2,9.865862E2,7.271725E1,1.08383E1,2.1877242E2,1.212415E2,7.1124054E2,8.304773E2,1.7687334E2,1.8680739E2],"tree_param":{"num_deleted":"0","num_feature":"162","num_nodes":"31","size_leaf_vector":"1"}},{"base_weights":[8.002213E-3,-3.35084E-2,3.992392E-1,2.7655596E-2,-2.536614E-1,5.6586516E-1,2.836166E-1,-4.4158306E-2,2.1088202E-1,-3.1921634E-1,2.3347762E-1,6.0660285E-1,-0E0,3.4465876E-1,5.6690004E-2,-1.49844885E-2,3.8910476E-3,7.1270177E-3,3.1854942E-2,-3.574736E-2,-3.8085184E-3,-0E0,3.1708945E-2,5.728742E-2,5.211072E-3,-4.5557808E-2,3.740955E-2,3.176452E-2,-1.9693414E-2,2.8390018E-2,-1.5311003E-2],"categories":[],"categories_nodes":[],"categories_segments":[],"categories_sizes":[],"default_left":[0,0,0,0,0,0,0,0,0,0,0,0,0,0,0,0,0,0,0,0,0,0,0,0,0,0,0,0,0,0,0],"id":25,"left_children":[1,3,5,7,9,11,13,15,17,19,21,23,25,27,29,-1,-1,-1,-1,-1,-1,-1,-1,-1,-1,-1,-1,-1,-1,-1,-1],"loss_changes":[1.7653683E2,1.3226001E2,1.919374E1,1.0109992E2,6.8314865E1,9.959106E0,8.194603E0,6.254452E1,4.2702682E1,4.6633987E1,7.936328E0,1.0165497E1,6.510588E0,5.592148E0,8.627222E0,0E0,0E0,0E0,0E0,0E0,0E0,0E0,0E0,0E0,0E0,0E0,0E0,0E0,0E0,0E0,0E0],"parents":[2147483647,0,0,1,1,2,2,3,3,4,4,5,5,6,6,7,7,8,8,9,9,10,10,11,11,12,12,13,13,14,14],"right_children":[2,4,6,8,10,12,14,16,18,20,22,24,26,28,30,-1,-1,-1,-1,-1,-1,-1,-1,-1,-1,-1,-1,-1,-1,-1,-1],"split_conditions":[1.3640664E0,6.1787486E-1,-3.410163E-1,1.3019606E-1,3.0394166E0,1.6288961E0,7.2872E-1,-1.6993926E-1,-8.036178E-2,4.234671E-1,4.3866363E-1,2.378846E0,5.340751E-1,1.4569463E0,9.316777E-1,-1.49844885E-2,3.8910476E-3,7.1270177E-3,3.1854942E-2,-3.574736E-2,-3.8085184E-3,-0E0,3.1708945E-2,5.728742E-2,5.211072E-3,-4.5557808E-2,3.740955E-2,3.176452E-2,-1.9693414E-2,2.8390018E-2,-1.5311003E-2],"split_indices":[2,0,110,2,11,5,132,124,70,70,2,0,109,49,140,0,0,0,0,0,0,0,0,0,0,0,0,0,0,0,0],"split_type":[0,0,0,0,0,0,0,0,0,0,0,0,0,0,0,0,0,0,0,0,0,0,0,0,0,0,0,0,0,0,0],"sum_hessian":[1.0847636E4,9.805308E3,1.0423281E3,7.6703833E3,2.1349243E3,4.227646E2,6.195635E2,5.507092E3,2.1632913E3,1.883593E3,2.513312E2,3.9488593E2,2.7878664E1,4.8469107E2,1.3487242E2,2.2630547E3,3.244037E3,1.1816776E3,9.816137E2,1.4143905E3,4.6920248E2,8.79665E1,1.6336472E2,3.5993225E2,3.4953686E1,1.2868705E1,1.5009959E1,4.7042142E2,1.4269646E1,6.432822E1,7.0544205E1],"tree_param":{"num_deleted":"0","num_feature":"162","num_nodes":"31","size_leaf_vector":"1"}},{"base_weights":[4.531718E-3,1.22950055E-1,-1.4022742E-1,1.4844864E-2,3.8816625E-1,-4.7891033E-1,-5.987278E-2,-1.0635326E-2,3.5733718E-1,5.0455445E-1,1.2013324E-1,-6.470126E-1,-2.6093587E-1,-1.3349023E-1,3.0753815E-1,3.2488417E-3,-2.4914244E-2,3.9622616E-2,-2.1376882E-2,7.2315514E-2,3.693487E-2,8.701687E-2,6.044747E-3,-6.0224626E-2,-0E0,-2.901187E-2,3.1064814E-2,-7.357179E-3,-5.033704E-2,3.6424708E-2,-1.4479002E-2],"categories":[],"categories_nodes":[],"categories_segments":[],"categories_sizes":[],"default_left":[0,0,0,0,0,0,0,0,0,0,0,0,0,0,0,0,0,0,0,0,0,0,0,0,0,0,0,0,0,0,0],"id":26,"left_children":[1,3,5,7,9,11,13,15,17,19,21,23,25,27,29,-1,-1,-1,-1,-1,-1,-1,-1,-1,-1,-1,-1,-1,-1,-1,-1],"loss_changes":[1.8508594E2,1.7000562E2,1.315973E2,3.7206573E1,5.2976288E1,3.3069427E1,1.0606911E2,5.2013977E1,1.7508102E1,3.0069763E1,2.22881E1,1.4476746E1,1.8086205E1,7.070827E1,3.4356808E1,0E0,0E0,0E0,0E0,0E0,0E0,0E0,0E0,0E0,0E0,0E0,0E0,0E0,0E0,0E0,0E0],"parents":[2147483647,0,0,1,1,2,2,3,3,4,4,5,5,6,6,7,7,8,8,9,9,10,10,11,11,12,12,13,13,14,14],"right_children":[2,4,6,8,10,12,14,16,18,20,22,24,26,28,30,-1,-1,-1,-1,-1,-1,-1,-1,-1,-1,-1,-1,-1,-1,-1,-1],"split_conditions":[4.0084726E-1,1.3019606E-1,-1.782715E-1,9.241196E-1,1.1366038E0,9.241196E-1,1.588173E0,-3.2712993E-1,1.1366038E0,-3.2712993E-1,-6.9111854E-1,3.0394166E0,2.5842533E0,3.590793E0,2.2207901E0,3.2488417E-3,-2.4914244E-2,3.9622616E-2,-2.1376882E-2,7.2315514E-2,3.693487E-2,8.701687E-2,6.044747E-3,-6.0224626E-2,-0E0,-2.901187E-2,3.1064814E-2,-7.357179E-3,-5.033704E-2,3.6424708E-2,-1.4479002E-2],"split_indices":[3,2,2,7,6,7,7,3,6,3,3,11,7,10,3,0,0,0,0,0,0,0,0,0,0,0,0,0,0,0,0],"split_type":[0,0,0,0,0,0,0,0,0,0,0,0,0,0,0,0,0,0,0,0,0,0,0,0,0,0,0,0,0,0,0],"sum_hessian":[1.0797059E4,5.94254E3,4.8545186E3,4.2246753E3,1.717865E3,9.281219E2,3.9263965E3,3.9300012E3,2.9467398E2,1.194948E3,5.2291693E2,5.209479E2,4.07174E2,3.273442E3,6.529546E2,3.3446282E3,5.8537305E2,2.5529042E2,3.9383568E1,2.3538118E2,9.5956683E2,2.7061363E1,4.9585556E2,4.876018E2,3.334609E1,3.663823E2,4.0791718E1,2.94962E3,3.2382162E2,5.314515E2,1.2150314E2],"tree_param":{"num_deleted":"0","num_feature":"162","num_nodes":"31","size_leaf_vector":"1"}},{"base_weights":[-1.2660401E-2,-8.32852E-2,1.7685197E-1,-4.7105946E-2,-3.1710896E-1,1.3577285E-1,5.854217E-1,-7.491795E-2,9.4593905E-2,-4.0555292E-1,-1.18075155E-1,1.5539889E-1,-2.9342484E-1,4.6148327E-1,7.48272E-2,-3.7680697E-3,-1.7447103E-2,4.6227714E-3,3.8843416E-2,-2.4809463E-2,-4.798638E-2,-3.6180884E-2,1.440358E-2,1.4314044E-2,-4.206877E-2,-3.5165034E-2,2.714729E-2,4.387946E-2,-2.4992466E-2],"categories":[],"categories_nodes":[],"categories_segments":[],"categories_sizes":[],"default_left":[0,0,0,0,0,0,0,0,0,0,0,0,0,0,0,0,0,0,0,0,0,0,0,0,0,0,0,0,0],"id":27,"left_children":[1,3,5,7,9,11,13,15,17,19,21,23,25,27,-1,-1,-1,-1,-1,-1,-1,-1,-1,-1,-1,-1,-1,-1,-1],"loss_changes":[1.4406573E2,6.605109E1,4.8282906E1,2.679249E1,1.7925629E1,2.2267578E1,7.466278E0,2.2350945E1,1.5713003E1,1.17697525E1,2.7726103E1,1.3898842E1,7.7356615E0,6.059654E0,0E0,0E0,0E0,0E0,0E0,0E0,0E0,0E0,0E0,0E0,0E0,0E0,0E0,0E0,0E0],"parents":[2147483647,0,0,1,1,2,2,3,3,4,4,5,5,6,6,7,7,8,8,9,9,10,10,11,11,12,12,13,13],"right_children":[2,4,6,8,10,12,14,16,18,20,22,24,26,28,-1,-1,-1,-1,-1,-1,-1,-1,-1,-1,-1,-1,-1,-1,-1],"split_conditions":[-1.3436654E-2,1.1392193E0,1.1874727E0,1.1720483E0,1.3327707E0,2.324718E0,3.0633347E0,7.533342E-1,1.7830205E0,6.583703E-1,3.4031242E-1,2.378846E0,-2.8290406E-1,2.2433867E0,7.48272E-2,-3.7680697E-3,-1.7447103E-2,4.6227714E-3,3.8843416E-2,-2.4809463E-2,-4.798638E-2,-3.6180884E-2,1.440358E-2,1.4314044E-2,-4.206877E-2,-3.5165034E-2,2.714729E-2,4.387946E-2,-2.4992466E-2],"split_indices":[17,12,122,1,1,9,138,0,88,69,9,0,110,0,0,0,0,0,0,0,0,0,0,0,0,0,0,0,0],"split_type":[0,0,0,0,0,0,0,0,0,0,0,0,0,0,0,0,0,0,0,0,0,0,0,0,0,0,0,0,0],"sum_hessian":[1.0769419E4,7.8495195E3,2.9198997E3,6.801807E3,1.0477125E3,2.655902E3,2.639974E2,5.6916855E3,1.1101216E3,7.216718E2,3.260407E2,2.5422175E3,1.13684586E2,1.8485907E2,7.913833E1,4.5476357E3,1.1440498E3,9.954439E2,1.1467765E2,3.9733475E2,3.243371E2,1.607442E2,1.652965E2,2.5097393E3,3.2478413E1,9.770281E1,1.5981772E1,1.7648152E2,8.377539E0],"tree_param":{"num_deleted":"0","num_feature":"162","num_nodes":"29","size_leaf_vector":"1"}},{"base_weights":[-4.7144596E-4,-4.940645E-2,2.7424407E-1,5.9177317E-2,-2.029988E-1,3.557573E-1,-1.0880388E-2,-9.468419E-3,2.9328462E-1,-7.8521214E-2,-4.0164393E-1,5.5338687E-1,2.4153893E-1,-1.2034386E-1,3.986741E-1,-3.893336E-3,2.1624997E-2,5.6202676E-2,1.8141361E-2,-4.5415953E-2,-2.1259605E-3,-3.8183093E-2,3.3194695E-2,7.5764365E-2,4.0234122E-2,8.580366E-3,3.7551407E-2,-4.5749035E-2,-2.5723672E-3,4.929508E-2,-2.5353685E-2],"categories":[],"categories_nodes":[],"categories_segments":[],"categories_sizes":[],"default_left":[0,0,0,0,0,0,0,0,0,0,0,0,0,0,0,0,0,0,0,0,0,0,0,0,0,0,0,0,0,0,0],"id":28,"left_children":[1,3,5,7,9,11,13,15,17,19,21,23,25,27,29,-1,-1,-1,-1,-1,-1,-1,-1,-1,-1,-1,-1,-1,-1,-1,-1],"loss_changes":[1.4467929E2,1.5277121E2,3.8139015E1,8.6380486E1,9.333795E1,2.7783524E1,1.5876901E1,3.7303658E1,3.558539E1,5.5406967E1,4.1423798E1,1.1893463E1,2.1319805E1,9.962496E0,8.857687E0,0E0,0E0,0E0,0E0,0E0,0E0,0E0,0E0,0E0,0E0,0E0,0E0,0E0,0E0,0E0,0E0],"parents":[2147483647,0,0,1,1,2,2,3,3,4,4,5,5,6,6,7,7,8,8,9,9,10,10,11,11,12,12,13,13,14,14],"right_children":[2,4,6,8,10,12,14,16,18,20,22,24,26,28,30,-1,-1,-1,-1,-1,-1,-1,-1,-1,-1,-1,-1,-1,-1,-1,-1],"split_conditions":[1.0555987E0,4.0084726E-1,1.492813E0,2.6006615E-1,5.730554E-1,5.730554E-1,1.588173E0,4.8274833E-1,-3.2712993E-1,-4.8673907E-1,2.2522266E0,3.6858663E-2,1.672534E0,-7.196055E-2,1.5228615E0,-3.893336E-3,2.1624997E-2,5.6202676E-2,1.8141361E-2,-4.5415953E-2,-2.1259605E-3,-3.8183093E-2,3.3194695E-2,7.5764365E-2,4.0234122E-2,8.580366E-3,3.7551407E-2,-4.5749035E-2,-2.5723672E-3,4.929508E-2,-2.5353685E-2],"split_indices":[2,3,3,7,6,6,7,17,3,2,7,3,2,7,145,0,0,0,0,0,0,0,0,0,0,0,0,0,0,0,0],"split_type":[0,0,0,0,0,0,0,0,0,0,0,0,0,0,0,0,0,0,0,0,0,0,0,0,0,0,0,0,0,0,0],"sum_hessian":[1.0777251E4,9.151085E3,1.626166E3,5.357571E3,3.7935144E3,1.2671407E3,3.5902518E2,4.140023E3,1.2175481E3,2.335538E3,1.4579763E3,4.6030292E2,8.068379E2,2.8544073E2,7.358446E1,3.6459983E3,4.940244E2,2.3501463E2,9.825335E2,2.5233337E2,2.0832046E3,1.39491E3,6.3066174E1,1.00650475E2,3.5965247E2,4.6248495E2,3.4435294E2,4.9987743E1,2.3545299E2,6.0460068E1,1.3124394E1],"tree_param":{"num_deleted":"0","num_feature":"162","num_nodes":"31","size_leaf_vector":"1"}},{"base_weights":[1.1073578E-2,-3.681637E-2,2.8321153E-1,6.993227E-2,-1.8799745E-1,3.9794296E-1,8.134366E-2,2.0088818E-2,3.225257E-1,-4.297583E-1,-1.1062025E-1,4.193705E-1,-8.130621E-2,-1.6201653E-2,4.9103886E-1,-3.112767E-3,1.5810078E-2,3.6463648E-2,-1.5793879E-2,-2.4485769E-2,-5.4393295E-2,1.0521319E-3,-3.188233E-2,6.441232E-2,3.0742716E-2,2.3271054E-2,-1.4004491E-2,5.190341E-2,-0E0],"categories":[],"categories_nodes":[],"categories_segments":[],"categories_sizes":[],"default_left":[0,0,0,0,0,0,0,0,0,0,0,0,0,0,0,0,0,0,0,0,0,0,0,0,0,0,0,0,0],"id":29,"left_children":[1,3,5,7,9,11,13,15,17,19,21,23,-1,25,27,-1,-1,-1,-1,-1,-1,-1,-1,-1,-1,-1,-1,-1,-1],"loss_changes":[1.3979523E2,1.4702878E2,3.6706543E1,6.680223E1,7.000664E1,2.8798721E1,2.385674E1,4.022132E1,4.2416542E1,2.5372223E1,8.982056E1,2.0276062E1,0E0,1.9188068E1,5.5425224E0,0E0,0E0,0E0,0E0,0E0,0E0,0E0,0E0,0E0,0E0,0E0,0E0,0E0,0E0],"parents":[2147483647,0,0,1,1,2,2,3,3,4,4,5,5,6,6,7,7,8,8,9,9,10,10,11,11,13,13,14,14],"right_children":[2,4,6,8,10,12,14,16,18,20,22,24,-1,26,28,-1,-1,-1,-1,-1,-1,-1,-1,-1,-1,-1,-1,-1,-1],"split_conditions":[1.0555987E0,4.0084726E-1,1.1366038E0,3.6843604E-1,-1.782715E-1,3.312756E0,2.289469E0,6.790637E-2,1.1366038E0,2.9128116E-1,6.1787486E-1,3.6858663E-2,-8.130621E-2,-4.8797625E-1,7.3941153E-1,-3.112767E-3,1.5810078E-2,3.6463648E-2,-1.5793879E-2,-2.4485769E-2,-5.4393295E-2,1.0521319E-3,-3.188233E-2,6.441232E-2,3.0742716E-2,2.3271054E-2,-1.4004491E-2,5.190341E-2,-0E0],"split_indices":[2,3,6,1,2,3,2,112,6,6,0,3,0,12,132,0,0,0,0,0,0,0,0,0,0,0,0,0,0],"split_type":[0,0,0,0,0,0,0,0,0,0,0,0,0,0,0,0,0,0,0,0,0,0,0,0,0,0,0,0,0],"sum_hessian":[1.0707467E4,9.102555E3,1.6049117E3,5.3317534E3,3.7708015E3,1.01996405E3,5.8494763E2,4.4566846E3,8.750688E2,9.1068036E2,2.860121E3,1.0048535E3,1.511052E1,4.7097147E2,1.1397618E2,3.306834E3,1.1498508E3,7.3715295E2,1.3791582E2,5.18538E2,3.9214233E2,1.9287527E3,9.313685E2,1.7063199E2,8.342215E2,1.5670126E2,3.142702E2,9.306963E1,2.0906548E1],"tree_param":{"num_deleted":"0","num_feature":"162","num_nodes":"29","size_leaf_vector":"1"}},{"base_weights":[5.2478183E-3,3.7168458E-2,-3.735806E-1,-1.9122673E-2,2.4762581E-1,-5.261737E-1,-1.3567439E-1,4.282597E-2,-2.1604423E-1,4.5265162E-1,1.1127185E-1,-6.171549E-1,7.34854E-2,-1.9685191E-1,4.6639594E-1,2.024822E-3,4.4903316E-2,2.7251435E-2,-2.3952415E-2,4.6941254E-2,1.3146302E-2,3.917854E-2,1.6223023E-3,-6.556192E-2,-2.5718663E-2,-6.9009834E-3,6.673779E-2,-8.371359E-2,-1.1335139E-2,1.411984E-2,7.960833E-2],"categories":[],"categories_nodes":[],"categories_segments":[],"categories_sizes":[],"default_left":[0,0,0,0,0,0,0,0,0,0,0,0,0,0,0,0,0,0,0,0,0,0,0,0,0,0,0,0,0,0,0],"id":30,"left_children":[1,3,5,7,9,11,13,15,17,19,21,23,25,27,29,-1,-1,-1,-1,-1,-1,-1,-1,-1,-1,-1,-1,-1,-1,-1,-1],"loss_changes":[1.2850607E2,1.1665223E2,2.9300064E1,9.4724075E1,5.7514816E1,2.7842468E1,1.1788267E1,5.4023422E1,5.757831E1,2.0666565E1,3.873603E1,1.7789658E1,7.550165E0,1.4073752E1,2.8023324E0,0E0,0E0,0E0,0E0,0E0,0E0,0E0,0E0,0E0,0E0,0E0,0E0,0E0,0E0,0E0,0E0],"parents":[2147483647,0,0,1,1,2,2,3,3,4,4,5,5,6,6,7,7,8,8,9,9,10,10,11,11,12,12,13,13,14,14],"right_children":[2,4,6,8,10,12,14,16,18,20,22,24,26,28,30,-1,-1,-1,-1,-1,-1,-1,-1,-1,-1,-1,-1,-1,-1,-1,-1],"split_conditions":[1.8568016E0,7.471312E-1,1.0788232E0,5.730554E-1,5.730554E-1,2.2522266E0,2.289469E0,3.0394166E0,-3.2712993E-1,8.260816E-1,3.6858663E-2,1.001781E0,7.471312E-1,-7.196055E-2,1.3406868E0,2.024822E-3,4.4903316E-2,2.7251435E-2,-2.3952415E-2,4.6941254E-2,1.3146302E-2,3.917854E-2,1.6223023E-3,-6.556192E-2,-2.5718663E-2,-6.9009834E-3,6.673779E-2,-8.371359E-2,-1.1335139E-2,1.411984E-2,7.960833E-2],"split_indices":[3,2,143,6,6,7,2,11,3,148,3,9,2,7,149,0,0,0,0,0,0,0,0,0,0,0,0,0,0,0,0],"split_type":[0,0,0,0,0,0,0,0,0,0,0,0,0,0,0,0,0,0,0,0,0,0,0,0,0,0,0,0,0,0,0],"sum_hessian":[1.0652523E4,9.827446E3,8.2507715E2,7.7503687E3,2.077078E3,4.9982925E2,3.252479E2,5.8922812E3,1.8580873E3,8.263385E2,1.2507393E3,4.3535922E2,6.4470055E1,2.9700925E2,2.8238632E1,5.659761E3,2.3252016E2,1.8361485E2,1.6744724E3,6.410109E2,1.8532762E2,2.664928E2,9.8424646E2,3.0449796E2,1.3086125E2,5.205867E1,1.2411386E1,2.222069E1,2.7478857E2,1.8484774E1,9.753859E0],"tree_param":{"num_deleted":"0","num_feature":"162","num_nodes":"31","size_leaf_vector":"1"}},{"base_weights":[9.924166E-4,3.8950007E-2,-2.793652E-1,-1.3283611E-2,2.3686871E-1,-3.5849062E-1,1.9836617E-1,8.488888E-2,-1.2978393E-1,3.081514E-1,-1.15919575E-1,-5.8010095E-1,-2.6402736E-1,3.0141416E-1,-4.565215E-1,1.5851623E-5,2.8639758E-2,5.8375373E-3,-2.0649053E-2,2.069791E-2,4.917951E-2,-1.5495415E-2,5.5366773E-2,-5.784377E-2,-2.0121275E-2,-3.664334E-3,-3.3613943E-2,4.548974E-2,1.2356642E-3,-5.9102207E-2,-0E0],"categories":[],"categories_nodes":[],"categories_segments":[],"categories_sizes":[],"default_left":[0,0,0,0,0,0,0,0,0,0,0,0,0,0,0,0,0,0,0,0,0,0,0,0,0,0,0,0,0,0,0],"id":31,"left_children":[1,3,5,7,9,11,13,15,17,19,21,23,25,27,29,-1,-1,-1,-1,-1,-1,-1,-1,-1,-1,-1,-1,-1,-1,-1,-1],"loss_changes":[1.1293721E2,9.7075455E1,4.801149E1,8.4792725E1,4.949801E1,2.1871643E1,1.1960128E1,8.254193E1,7.1586006E1,2.87435E1,1.4810926E1,8.404472E0,2.023597E1,9.330505E0,2.0765333E0,0E0,0E0,0E0,0E0,0E0,0E0,0E0,0E0,0E0,0E0,0E0,0E0,0E0,0E0,0E0,0E0],"parents":[2147483647,0,0,1,1,2,2,3,3,4,4,5,5,6,6,7,7,8,8,9,9,10,10,11,11,12,12,13,13,14,14],"right_children":[2,4,6,8,10,12,14,16,18,20,22,24,26,28,30,-1,-1,-1,-1,-1,-1,-1,-1,-1,-1,-1,-1,-1,-1,-1,-1],"split_conditions":[9.483731E-1,9.241196E-1,1.9201998E0,3.6858663E-2,1.8568016E0,-7.954416E-1,2.5847788E0,-5.9054613E-1,2.9128116E-1,1.9201998E0,2.91628E0,1.2561463E0,-2.7226725E-1,1.4545897E0,1.4988815E0,1.5851623E-5,2.8639758E-2,5.8375373E-3,-2.0649053E-2,2.069791E-2,4.917951E-2,-1.5495415E-2,5.5366773E-2,-5.784377E-2,-2.0121275E-2,-3.664334E-3,-3.3613943E-2,4.548974E-2,1.2356642E-3,-5.9102207E-2,-0E0],"split_indices":[68,7,7,3,3,109,3,5,6,7,7,7,6,102,54,0,0,0,0,0,0,0,0,0,0,0,0,0,0,0,0],"split_type":[0,0,0,0,0,0,0,0,0,0,0,0,0,0,0,0,0,0,0,0,0,0,0,0,0,0,0,0,0,0,0],"sum_hessian":[1.063331E4,9.368742E3,1.2645676E3,7.409032E3,1.9597102E3,1.0867139E3,1.778538E2,4.0164028E3,3.3926294E3,1.6326146E3,3.2709558E2,3.209511E2,7.6576276E2,1.551795E2,2.2674305E1,2.9831423E3,1.0332606E3,1.1920472E3,2.2005823E3,1.2823068E3,3.5030786E2,3.0377948E2,2.3316095E1,2.5664972E2,6.430142E1,2.7375555E2,4.9200717E2,8.571371E1,6.94658E1,1.4527406E1,8.1469E0],"tree_param":{"num_deleted":"0","num_feature":"162","num_nodes":"31","size_leaf_vector":"1"}},{"base_weights":[-5.703903E-3,-6.2655956E-2,1.9119705E-1,5.65891E-3,-1.9871844E-1,3.1088924E-1,4.80558E-2,-9.961565E-2,9.071296E-2,-1.1423383E-1,-3.6080426E-1,3.4092572E-1,-2.9394987E-1,-6.436157E-3,3.9770585E-1,-6.14085E-3,-3.6688127E-2,2.1541757E-3,2.0911898E-2,-4.72631E-3,-4.4723615E-2,-3.553519E-2,7.774212E-3,4.351462E-2,2.05941E-2,-6.256683E-2,-5.43761E-3,5.088223E-2,-3.675494E-3,4.6327744E-2,7.540787E-3],"categories":[],"categories_nodes":[],"categories_segments":[],"categories_sizes":[],"default_left":[0,0,0,0,0,0,0,0,0,0,0,0,0,0,0,0,0,0,0,0,0,0,0,0,0,0,0,0,0,0,0],"id":32,"left_children":[1,3,5,7,9,11,13,15,17,19,21,23,25,27,29,-1,-1,-1,-1,-1,-1,-1,-1,-1,-1,-1,-1,-1,-1,-1,-1],"loss_changes":[1.1907623E2,7.685695E1,4.0441353E1,4.9129032E1,3.7343582E1,2.3586525E1,2.1116457E1,2.245954E1,2.9663038E1,4.3001305E1,2.010508E1,1.9661041E1,5.1080556E0,1.9292053E1,5.5820026E0,0E0,0E0,0E0,0E0,0E0,0E0,0E0,0E0,0E0,0E0,0E0,0E0,0E0,0E0,0E0,0E0],"parents":[2147483647,0,0,1,1,2,2,3,3,4,4,5,5,6,6,7,7,8,8,9,9,10,10,11,11,12,12,13,13,14,14],"right_children":[2,4,6,8,10,12,14,16,18,20,22,24,26,28,30,-1,-1,-1,-1,-1,-1,-1,-1,-1,-1,-1,-1,-1,-1,-1,-1],"split_conditions":[7.471312E-1,2.9128116E-1,8.5482955E-1,-4.4089773E-1,4.2716068E-1,1.5548328E0,3.0394166E0,2.6542344E0,-4.8673907E-1,1.1597122E0,3.0394166E0,6.1787486E-1,2.055756E0,-8.558639E-1,1.2331345E0,-6.14085E-3,-3.6688127E-2,2.1541757E-3,2.0911898E-2,-4.72631E-3,-4.4723615E-2,-3.553519E-2,7.774212E-3,4.351462E-2,2.05941E-2,-6.256683E-2,-5.43761E-3,5.088223E-2,-3.675494E-3,4.6327744E-2,7.540787E-3],"split_indices":[2,6,6,14,68,139,11,107,2,0,11,0,145,12,8,0,0,0,0,0,0,0,0,0,0,0,0,0,0,0,0],"split_type":[0,0,0,0,0,0,0,0,0,0,0,0,0,0,0,0,0,0,0,0,0,0,0,0,0,0,0,0,0,0,0],"sum_hessian":[1.0628529E4,8.248063E3,2.3804658E3,5.486719E3,2.7613442E3,1.2924435E3,1.0880223E3,2.4468293E3,3.03989E3,1.8196688E3,9.4167535E2,1.2330222E3,5.9421177E1,9.3938904E2,1.4863336E2,2.2461572E3,2.0067221E2,2.1117908E3,9.280991E2,1.5840565E3,2.3561227E2,8.551716E2,8.650381E1,4.8716943E2,7.458528E2,1.9160404E1,4.0260777E1,5.163477E1,8.877543E2,1.0160281E2,4.703054E1],"tree_param":{"num_deleted":"0","num_feature":"162","num_nodes":"31","size_leaf_vector":"1"}},{"base_weights":[4.7520837E-3,3.6743987E-2,-4.1981906E-1,1.5869631E-1,-3.0190006E-2,-5.0136214E-1,-2.6527338E-2,1.1276692E-1,4.033075E-1,-8.315989E-2,1.1877001E-1,2.2827506E-1,-5.396658E-1,2.8830448E-1,-5.4895675E-1,4.4509757E-2,6.2915646E-3,6.054498E-2,3.0170377E-2,-4.4120527E-3,-3.5089526E-2,2.2031574E-2,-4.5220573E-3,4.8939247E-2,-8.974053E-3,-4.995223E-2,6.689044E-3,5.312173E-2,-8.890553E-3,-6.2723145E-2,7.739441E-3],"categories":[],"categories_nodes":[],"categories_segments":[],"categories_sizes":[],"default_left":[0,0,0,0,0,0,0,0,0,0,0,0,0,0,0,0,0,0,0,0,0,0,0,0,0,0,0,0,0,0,0],"id":33,"left_children":[1,3,5,7,9,11,13,15,17,19,21,23,25,27,29,-1,-1,-1,-1,-1,-1,-1,-1,-1,-1,-1,-1,-1,-1,-1,-1],"loss_changes":[1.4344348E2,8.0510925E1,2.3212387E1,3.8745743E1,5.010252E1,1.7430084E1,2.1649841E1,4.7014194E1,8.039368E0,4.8331673E1,3.8159477E1,3.7298975E0,1.2369095E1,1.0542762E1,6.07265E0,0E0,0E0,0E0,0E0,0E0,0E0,0E0,0E0,0E0,0E0,0E0,0E0,0E0,0E0,0E0,0E0],"parents":[2147483647,0,0,1,1,2,2,3,3,4,4,5,5,6,6,7,7,8,8,9,9,10,10,11,11,12,12,13,13,14,14],"right_children":[2,4,6,8,10,12,14,16,18,20,22,24,26,28,30,-1,-1,-1,-1,-1,-1,-1,-1,-1,-1,-1,-1,-1,-1,-1,-1],"split_conditions":[3.590793E0,-2.7573338E-1,1.588173E0,9.241196E-1,9.241196E-1,-3.2712993E-1,1.492813E0,-7.9926586E-1,3.6858663E-2,1.492813E0,1.1288245E0,-2.4722813E-1,2.136383E0,2.4567893E-1,5.356292E-1,4.4509757E-2,6.2915646E-3,6.054498E-2,3.0170377E-2,-4.4120527E-3,-3.5089526E-2,2.2031574E-2,-4.5220573E-3,4.8939247E-2,-8.974053E-3,-4.995223E-2,6.689044E-3,5.312173E-2,-8.890553E-3,-6.2723145E-2,7.739441E-3],"split_indices":[10,12,7,7,7,3,3,12,3,3,3,13,1,107,64,0,0,0,0,0,0,0,0,0,0,0,0,0,0,0,0],"split_type":[0,0,0,0,0,0,0,0,0,0,0,0,0,0,0,0,0,0,0,0,0,0,0,0,0,0,0,0,0,0,0],"sum_hessian":[1.0586564E4,9.847292E3,7.39273E2,3.4943215E3,6.35297E3,6.101815E2,1.2909148E2,2.9458674E3,5.4845416E2,4.6913867E3,1.6615839E3,2.905848E1,5.8112305E2,7.9549965E1,4.9541515E1,2.7034387E2,2.6755234E3,8.6622246E1,4.6183188E2,4.2602915E3,4.3109525E2,9.341219E2,7.2746204E2,1.5755578E1,1.3302901E1,5.5300653E2,2.8116533E1,4.4847145E1,3.470282E1,4.0235786E1,9.30573E0],"tree_param":{"num_deleted":"0","num_feature":"162","num_nodes":"31","size_leaf_vector":"1"}},{"base_weights":[7.0603923E-3,5.6314744E-2,-1.7198518E-1,4.4743894E-3,2.663607E-1,-2.9637635E-1,-4.9163092E-2,7.992678E-2,-1.3493815E-1,6.0060465E-1,2.1739073E-1,-3.6497524E-1,-3.541075E-2,-1.3798988E-1,1.9817476E-1,4.730309E-4,3.0658823E-2,-2.6631167E-2,3.4959717E-3,5.7675973E-2,-3.9268848E-2,1.3253041E-2,4.3408357E-2,-2.7462773E-2,-5.724129E-2,1.9113338E-2,-3.644183E-2,-9.529509E-3,-6.0996868E-2,4.7718648E-2,-2.8818918E-3],"categories":[],"categories_nodes":[],"categories_segments":[],"categories_sizes":[],"default_left":[0,0,0,0,0,0,0,0,0,0,0,0,0,0,0,0,0,0,0,0,0,0,0,0,0,0,0,0,0,0,0],"id":34,"left_children":[1,3,5,7,9,11,13,15,17,19,21,23,25,27,29,-1,-1,-1,-1,-1,-1,-1,-1,-1,-1,-1,-1,-1,-1,-1,-1],"loss_changes":[9.30833E1,9.002937E1,3.442975E1,6.9954E1,2.5954247E1,1.977893E1,2.521311E1,8.713239E1,6.9840775E1,1.3536224E1,2.5599037E1,1.1935402E1,2.3409786E1,1.2874271E1,2.4800938E1,0E0,0E0,0E0,0E0,0E0,0E0,0E0,0E0,0E0,0E0,0E0,0E0,0E0,0E0,0E0,0E0],"parents":[2147483647,0,0,1,1,2,2,3,3,4,4,5,5,6,6,7,7,8,8,9,9,10,10,11,11,12,12,13,13,14,14],"right_children":[2,4,6,8,10,12,14,16,18,20,22,24,26,28,30,-1,-1,-1,-1,-1,-1,-1,-1,-1,-1,-1,-1,-1,-1,-1,-1],"split_conditions":[1.1288245E0,6.898809E-1,4.3866363E-1,3.6858663E-2,3.6858663E-2,1.8149381E0,1.4934932E0,-1.782715E-1,4.3866363E-1,1.7001522E0,1.4934932E0,3.590793E0,2.2207901E0,2.2637007E0,1.8568016E0,4.730309E-4,3.0658823E-2,-2.6631167E-2,3.4959717E-3,5.7675973E-2,-3.9268848E-2,1.3253041E-2,4.3408357E-2,-2.7462773E-2,-5.724129E-2,1.9113338E-2,-3.644183E-2,-9.529509E-3,-6.0996868E-2,4.7718648E-2,-2.8818918E-3],"split_indices":[3,1,2,3,3,1,1,2,2,6,1,10,3,6,3,0,0,0,0,0,0,0,0,0,0,0,0,0,0,0,0],"split_type":[0,0,0,0,0,0,0,0,0,0,0,0,0,0,0,0,0,0,0,0,0,0,0,0,0,0,0,0,0,0,0],"sum_hessian":[1.0566613E4,8.291407E3,2.2752068E3,6.654209E3,1.6371979E3,1.1261416E3,1.1490652E3,4.3221084E3,2.3321006E3,2.0596574E2,1.431232E3,8.88663E2,2.3747858E2,8.484608E2,3.0060437E2,3.394969E3,9.271395E2,1.1841437E3,1.1479569E3,1.95756E2,1.0209743E1,1.1638481E3,2.67384E2,7.6207227E2,1.2659075E2,1.4120323E2,9.627535E1,8.093841E2,3.907671E1,1.2116334E2,1.7944102E2],"tree_param":{"num_deleted":"0","num_feature":"162","num_nodes":"31","size_leaf_vector":"1"}},{"base_weights":[5.8396477E-3,-1.9500958E-2,3.4801012E-1,-6.129071E-2,1.4229101E-1,3.8919485E-1,-1.4141569E-1,-1.139948E-1,9.6044146E-2,2.1961732E-1,-1.0483678E-2,4.1405803E-1,-7.6352075E-2,-6.002506E-1,1.1301327E-1,-6.4758332E-3,-2.9264815E-2,5.1462874E-3,4.01791E-2,1.228494E-2,3.708949E-2,7.708187E-3,-2.7294828E-2,3.8883567E-2,-0E0,5.9763856E-2,-3.5800576E-2,-9.121052E-2,-0E0,-6.8184626E-3,4.1261207E-2],"categories":[],"categories_nodes":[],"categories_segments":[],"categories_sizes":[],"default_left":[0,0,0,0,0,0,0,0,0,0,0,0,0,0,0,0,0,0,0,0,0,0,0,0,0,0,0,0,0,0,0],"id":35,"left_children":[1,3,5,7,9,11,13,15,17,19,21,23,25,27,29,-1,-1,-1,-1,-1,-1,-1,-1,-1,-1,-1,-1,-1,-1,-1,-1],"loss_changes":[9.167004E1,6.623427E1,1.49620285E1,6.469321E1,2.3929684E1,8.146675E0,6.942039E0,5.1075966E1,2.5859053E1,2.1093811E1,2.0306759E1,8.573967E0,8.1988325E0,5.693806E0,2.7785397E0,0E0,0E0,0E0,0E0,0E0,0E0,0E0,0E0,0E0,0E0,0E0,0E0,0E0,0E0,0E0,0E0],"parents":[2147483647,0,0,1,1,2,2,3,3,4,4,5,5,6,6,7,7,8,8,9,9,10,10,11,11,12,12,13,13,14,14],"right_children":[2,4,6,8,10,12,14,16,18,20,22,24,26,28,30,-1,-1,-1,-1,-1,-1,-1,-1,-1,-1,-1,-1,-1,-1,-1,-1],"split_conditions":[3.0394166E0,9.883041E-2,1.6515613E0,9.241196E-1,5.1614416E-1,2.9861865E0,4.298795E-1,8.0477375E-1,2.5842533E0,2.6006615E-1,1.1597122E0,1.3896631E0,4.298795E-1,1.6026847E0,1.5155308E0,-6.4758332E-3,-2.9264815E-2,5.1462874E-3,4.01791E-2,1.228494E-2,3.708949E-2,7.708187E-3,-2.7294828E-2,3.8883567E-2,-0E0,5.9763856E-2,-3.5800576E-2,-9.121052E-2,-0E0,-6.8184626E-3,4.1261207E-2],"split_indices":[11,26,100,7,8,9,4,68,7,7,0,21,4,43,114,0,0,0,0,0,0,0,0,0,0,0,0,0,0,0,0],"split_type":[0,0,0,0,0,0,0,0,0,0,0,0,0,0,0,0,0,0,0,0,0,0,0,0,0,0,0,0,0,0,0],"sum_hessian":[1.0535021E4,9.806458E3,7.2856305E2,7.798425E3,2.0080331E3,6.739181E2,5.464494E1,5.8462734E3,1.9521517E3,1.337241E3,6.7079224E2,6.417602E2,3.2157867E1,2.0584827E1,3.4060116E1,4.9614375E3,8.848356E2,1.7751107E3,1.7704105E2,9.7098175E2,3.662592E2,5.03441E2,1.673512E2,5.9653735E2,4.522284E1,8.765484E0,2.3392382E1,1.1638043E1,8.946784E0,2.07744E1,1.3285714E1],"tree_param":{"num_deleted":"0","num_feature":"162","num_nodes":"31","size_leaf_vector":"1"}},{"base_weights":[-6.7665847E-3,1.6402118E-2,-3.1994942E-1,-2.0714987E-2,2.3810133E-1,-4.9484414E-1,-1.643173E-1,2.3265844E-2,-2.1432072E-1,3.08399E-1,-7.975072E-2,-5.217013E-1,3.4155674E-2,-2.5439897E-1,3.2129157E-1,-4.671193E-3,1.2269913E-2,-4.708715E-2,-1.4738747E-2,4.7827452E-2,1.7844327E-2,-1.4344648E-2,2.8300038E-2,-5.2934088E-2,-1.9790426E-2,-1.8026926E-2,-1.01297565E-1,-3.1392411E-3,4.4015013E-2],"categories":[],"categories_nodes":[],"categories_segments":[],"categories_sizes":[],"default_left":[0,0,0,0,0,0,0,0,0,0,0,0,0,0,0,0,0,0,0,0,0,0,0,0,0,0,0,0,0],"id":36,"left_children":[1,3,5,7,9,11,13,15,17,19,21,23,-1,25,27,-1,-1,-1,-1,-1,-1,-1,-1,-1,-1,-1,-1,-1,-1],"loss_changes":[7.6647804E1,8.0817635E1,1.9133827E1,7.160577E1,3.1704872E1,8.313499E0,1.6983402E1,6.1718166E1,2.2244652E1,2.8016983E1,8.541914E0,7.443451E0,0E0,1.2835215E1,4.350599E0,0E0,0E0,0E0,0E0,0E0,0E0,0E0,0E0,0E0,0E0,0E0,0E0,0E0,0E0],"parents":[2147483647,0,0,1,1,2,2,3,3,4,4,5,5,6,6,7,7,8,8,9,9,10,10,11,11,13,13,14,14],"right_children":[2,4,6,8,10,12,14,16,18,20,22,24,-1,26,28,-1,-1,-1,-1,-1,-1,-1,-1,-1,-1,-1,-1,-1,-1],"split_conditions":[3.590793E0,1.0555987E0,5.920929E-1,8.5482955E-1,1.7001522E0,2.053465E0,7.268742E-1,-1.782715E-1,-4.039873E-1,-3.7330085E-1,8.5895556E-1,6.9664556E-1,3.4155674E-2,2.6542344E0,1.4754528E0,-4.671193E-3,1.2269913E-2,-4.708715E-2,-1.4738747E-2,4.7827452E-2,1.7844327E-2,-1.4344648E-2,2.8300038E-2,-5.2934088E-2,-1.9790426E-2,-1.8026926E-2,-1.01297565E-1,-3.1392411E-3,4.4015013E-2],"split_indices":[10,2,7,6,6,32,32,2,7,110,137,132,0,107,50,0,0,0,0,0,0,0,0,0,0,0,0,0,0],"split_type":[0,0,0,0,0,0,0,0,0,0,0,0,0,0,0,0,0,0,0,0,0,0,0,0,0,0,0,0,0],"sum_hessian":[1.0522319E4,9.795125E3,7.2719476E2,8.387096E3,1.4080293E3,3.3897537E2,3.882194E2,6.830856E3,1.5562395E3,1.1555037E3,2.5252565E2,3.302643E2,8.711058E0,3.2934567E2,5.8873722E1,4.1244844E3,2.7063718E3,1.8686266E2,1.3693768E3,3.453644E2,8.101392E2,2.1098203E2,4.1543636E1,2.5321652E2,7.70478E1,3.145038E2,1.4841844E1,1.8339005E1,4.0534718E1],"tree_param":{"num_deleted":"0","num_feature":"162","num_nodes":"29","size_leaf_vector":"1"}},{"base_weights":[1.688546E-3,6.444787E-2,-1.2800716E-1,-8.7081855E-3,2.0783556E-1,-2.8274408E-1,-1.0308679E-2,3.0001277E-2,-3.0695733E-1,6.2543595E-1,1.5239558E-1,-3.323367E-1,1.0768238E-1,-1.03368625E-1,1.9669522E-1,-8.7838445E-4,1.868383E-2,2.1148615E-2,-3.8900495E-2,9.034987E-2,4.3473743E-2,-2.132658E-4,2.9489852E-2,-2.3297526E-2,-6.39645E-2,1.3672345E-2,-5.2990228E-2,-1.4695411E-3,-2.8413218E-2,3.0376526E-2,2.228436E-3],"categories":[],"categories_nodes":[],"categories_segments":[],"categories_sizes":[],"default_left":[0,0,0,0,0,0,0,0,0,0,0,0,0,0,0,0,0,0,0,0,0,0,0,0,0,0,0,0,0,0,0],"id":37,"left_children":[1,3,5,7,9,11,13,15,17,19,21,23,25,27,29,-1,-1,-1,-1,-1,-1,-1,-1,-1,-1,-1,-1,-1,-1,-1,-1],"loss_changes":[8.561297E1,7.464912E1,6.213823E1,5.4488388E1,5.482599E1,2.883535E1,3.7499557E1,3.0868319E1,4.1704384E1,1.2821762E1,6.1400562E1,3.327501E1,5.4007015E0,2.5634766E1,1.5257172E1,0E0,0E0,0E0,0E0,0E0,0E0,0E0,0E0,0E0,0E0,0E0,0E0,0E0,0E0,0E0,0E0],"parents":[2147483647,0,0,1,1,2,2,3,3,4,4,5,5,6,6,7,7,8,8,9,9,10,10,11,11,12,12,13,13,14,14],"right_children":[2,4,6,8,10,12,14,16,18,20,22,24,26,28,30,-1,-1,-1,-1,-1,-1,-1,-1,-1,-1,-1,-1,-1,-1,-1,-1],"split_conditions":[7.6483583E-1,1.3019606E-1,5.920929E-1,3.4695625E-1,-3.2712993E-1,1.672534E0,7.471312E-1,-4.8673907E-1,-3.2712993E-1,-6.9111854E-1,3.6843604E-1,1.1597122E0,1.6066207E0,1.8568016E0,2.8607747E-1,-8.7838445E-4,1.868383E-2,2.1148615E-2,-3.8900495E-2,9.034987E-2,4.3473743E-2,-2.132658E-4,2.9489852E-2,-2.3297526E-2,-6.39645E-2,1.3672345E-2,-5.2990228E-2,-1.4695411E-3,-2.8413218E-2,3.0376526E-2,2.228436E-3],"split_indices":[3,2,7,0,3,2,2,2,3,3,1,0,102,3,136,0,0,0,0,0,0,0,0,0,0,0,0,0,0,0,0],"split_type":[0,0,0,0,0,0,0,0,0,0,0,0,0,0,0,0,0,0,0,0,0,0,0,0,0,0,0,0,0,0,0],"sum_hessian":[1.0524502E4,7.097633E3,3.4268699E3,4.6957E3,2.4019324E3,1.4766556E3,1.9502141E3,4.153831E3,5.4186896E2,2.7885358E2,2.1230789E3,1.312475E3,1.6418065E2,1.3487603E3,6.014539E2,3.4078745E3,7.459567E2,1.0799371E2,4.3387524E2,6.3197052E1,2.1565652E2,1.1553407E3,9.6773816E2,1.1317744E3,1.8070059E2,1.5526924E2,8.911402E0,9.745586E2,3.7420163E2,3.1566495E2,2.8578897E2],"tree_param":{"num_deleted":"0","num_feature":"162","num_nodes":"31","size_leaf_vector":"1"}},{"base_weights":[-2.2156425E-3,-2.7759057E-2,3.452206E-1,-3.952947E-3,-3.887934E-1,3.6649692E-1,-9.9265195E-2,2.2838734E-2,-2.5383404E-1,-4.6318465E-1,-1.1663084E-2,4.5470837E-1,1.3552924E-1,-1.9071684E-3,1.8290017E-2,-3.0295875E-2,1.6207501E-3,-3.648133E-2,-1.0550856E-1,1.6072012E-2,-5.4522794E-2,1.2193407E-2,4.491235E-2,2.2394452E-2,-2.0911198E-2],"categories":[],"categories_nodes":[],"categories_segments":[],"categories_sizes":[],"default_left":[0,0,0,0,0,0,0,0,0,0,0,0,0,0,0,0,0,0,0,0,0,0,0,0,0],"id":38,"left_children":[1,3,5,7,9,11,-1,13,15,17,19,21,23,-1,-1,-1,-1,-1,-1,-1,-1,-1,-1,-1,-1],"loss_changes":[9.265791E1,8.350919E1,2.2037529E1,6.1543964E1,1.6410568E1,1.3780785E1,0E0,6.927419E1,2.3012543E1,1.4930153E1,1.2710914E1,8.9674835E0,9.094611E0,0E0,0E0,0E0,0E0,0E0,0E0,0E0,0E0,0E0,0E0,0E0,0E0],"parents":[2147483647,0,0,1,1,2,2,3,3,4,4,5,5,7,7,8,8,9,9,10,10,11,11,12,12],"right_children":[2,4,6,8,10,12,-1,14,16,18,20,22,24,-1,-1,-1,-1,-1,-1,-1,-1,-1,-1,-1,-1],"split_conditions":[3.0394166E0,3.590793E0,7.4287367E0,1.418378E0,1.588173E0,1.1366038E0,-9.9265195E-2,1.08154595E-1,1.3640664E0,7.4287367E0,8.844206E-1,-1.782715E-1,7.2701025E-1,-1.9071684E-3,1.8290017E-2,-3.0295875E-2,1.6207501E-3,-3.648133E-2,-1.0550856E-1,1.6072012E-2,-5.4522794E-2,1.2193407E-2,4.491235E-2,2.2394452E-2,-2.0911198E-2],"split_indices":[11,10,10,6,7,6,0,112,2,10,21,2,116,0,0,0,0,0,0,0,0,0,0,0,0],"split_type":[0,0,0,0,0,0,0,0,0,0,0,0,0,0,0,0,0,0,0,0,0,0,0,0,0],"sum_hessian":[1.0473881E4,9.759594E3,7.142867E2,9.158852E3,6.007429E2,7.052088E2,9.077853E0,8.268912E3,8.899386E2,4.995448E2,1.0119814E2,5.0694394E2,1.982649E2,6.6688794E3,1.6000331E3,6.6495526E2,2.2498332E2,4.7319934E2,2.6345448E1,7.579161E1,2.5406532E1,8.428312E1,4.2266083E2,1.519043E2,4.63606E1],"tree_param":{"num_deleted":"0","num_feature":"162","num_nodes":"25","size_leaf_vector":"1"}},{"base_weights":[5.0588895E-8,-2.0946477E-2,2.9568347E-1,-3.49491E-4,-3.360012E-1,2.4757572E-1,7.890239E-1,-2.4000444E-2,2.3450638E-1,-2.7982813E-1,-6.7355406E-1,3.097086E-1,-6.442889E-2,9.8458177E-1,9.997226E-3,3.664383E-4,-2.3675265E-2,-1.6329544E-4,2.6753513E-2,-2.6552308E-2,5.2761484E-2,-7.9205126E-2,-1.8558148E-2,3.988501E-2,1.5686424E-2,2.2428026E-2,-2.984778E-2,1.0685163E-1,5.6051172E-2],"categories":[],"categories_nodes":[],"categories_segments":[],"categories_sizes":[],"default_left":[0,0,0,0,0,0,0,0,0,0,0,0,0,0,0,0,0,0,0,0,0,0,0,0,0,0,0,0,0],"id":39,"left_children":[1,3,5,7,9,11,13,15,17,19,21,23,25,27,-1,-1,-1,-1,-1,-1,-1,-1,-1,-1,-1,-1,-1,-1,-1],"loss_changes":[6.496375E1,6.296213E1,1.53787E1,5.066574E1,1.0281593E1,1.2554653E1,6.7565117E0,5.8349625E1,1.4540943E1,1.1009647E1,7.7092934E0,9.547489E0,9.358129E0,1.509903E0,0E0,0E0,0E0,0E0,0E0,0E0,0E0,0E0,0E0,0E0,0E0,0E0,0E0,0E0,0E0],"parents":[2147483647,0,0,1,1,2,2,3,3,4,4,5,5,6,6,7,7,8,8,9,9,10,10,11,11,12,12,13,13],"right_children":[2,4,6,8,10,12,14,16,18,20,22,24,26,28,-1,-1,-1,-1,-1,-1,-1,-1,-1,-1,-1,-1,-1,-1,-1],"split_conditions":[3.0394166E0,3.590793E0,1.4934932E0,1.588173E0,1.012195E0,3.590793E0,1.327739E0,9.269763E-1,-1.782715E-1,2.6185503E0,8.571199E-1,6.1787486E-1,1.001781E0,4.3866363E-1,9.997226E-3,3.664383E-4,-2.3675265E-2,-1.6329544E-4,2.6753513E-2,-2.6552308E-2,5.2761484E-2,-7.9205126E-2,-1.8558148E-2,3.988501E-2,1.5686424E-2,2.2428026E-2,-2.984778E-2,1.0685163E-1,5.6051172E-2],"split_indices":[11,10,1,7,68,10,91,12,2,1,4,0,9,2,0,0,0,0,0,0,0,0,0,0,0,0,0,0,0],"split_type":[0,0,0,0,0,0,0,0,0,0,0,0,0,0,0,0,0,0,0,0,0,0,0,0,0,0,0,0,0],"sum_hessian":[1.0445397E4,9.751809E3,6.9358826E2,9.15674E3,5.950686E2,6.3444275E2,5.9145515E1,8.323115E3,8.336251E2,5.134175E2,8.16511E1,5.316461E2,1.0279662E2,4.4563343E1,1.45821705E1,7.4686196E3,8.5449554E2,1.9219147E2,6.4143365E2,5.0089548E2,1.25220175E1,5.2387497E1,2.9263605E1,2.4471033E2,2.869358E2,4.606323E1,5.67334E1,2.3722198E1,2.0841146E1],"tree_param":{"num_deleted":"0","num_feature":"162","num_nodes":"29","size_leaf_vector":"1"}},{"base_weights":[5.9089796E-3,-2.1001354E-2,2.833335E-1,1.1913578E-2,-2.6133138E-1,3.9733234E-1,8.218762E-2,4.9582656E-2,-1.7321812E-1,-3.217203E-1,1.8496594E-1,7.8331476E-1,3.543438E-1,1.10970475E-1,-5.8605682E-2,-2.4611515E-3,1.5077668E-2,3.13757E-2,-2.0284709E-2,-5.103967E-2,-2.1135464E-2,2.7890548E-2,-6.490345E-2,8.155007E-2,3.418145E-2,-2.3276523E-2,3.343866E-2,5.425073E-3,7.673878E-2],"categories":[],"categories_nodes":[],"categories_segments":[],"categories_sizes":[],"default_left":[0,0,0,0,0,0,0,0,0,0,0,0,0,0,0,0,0,0,0,0,0,0,0,0,0,0,0,0,0],"id":40,"left_children":[1,3,5,7,9,11,13,15,17,19,21,23,25,27,-1,-1,-1,-1,-1,-1,-1,-1,-1,-1,-1,-1,-1,-1,-1],"loss_changes":[7.821435E1,7.5520645E1,2.0769638E1,5.8236332E1,3.1152962E1,8.525665E0,6.856844E0,6.688603E1,4.455829E1,2.0361404E1,1.6691917E1,1.8813515E0,9.784119E0,1.1370434E1,0E0,0E0,0E0,0E0,0E0,0E0,0E0,0E0,0E0,0E0,0E0,0E0,0E0,0E0,0E0],"parents":[2147483647,0,0,1,1,2,2,3,3,4,4,5,5,6,6,7,7,8,8,9,9,10,10,11,11,12,12,13,13],"right_children":[2,4,6,8,10,12,14,16,18,20,22,24,26,28,-1,-1,-1,-1,-1,-1,-1,-1,-1,-1,-1,-1,-1,-1,-1],"split_conditions":[1.3640664E0,1.492813E0,1.1288245E0,7.533342E-1,2.2522266E0,-3.2712993E-1,1.8261884E0,-1.782715E-1,-3.2712993E-1,2.6006615E-1,3.312756E0,1.7015494E0,-7.36014E-1,1.7056024E0,-5.8605682E-2,-2.4611515E-3,1.5077668E-2,3.13757E-2,-2.0284709E-2,-5.103967E-2,-2.1135464E-2,2.7890548E-2,-6.490345E-2,8.155007E-2,3.418145E-2,-2.3276523E-2,3.343866E-2,5.425073E-3,7.673878E-2],"split_indices":[2,3,3,0,7,3,72,2,3,7,3,0,7,87,0,0,0,0,0,0,0,0,0,0,0,0,0,0,0],"split_type":[0,0,0,0,0,0,0,0,0,0,0,0,0,0,0,0,0,0,0,0,0,0,0,0,0,0,0,0,0],"sum_hessian":[1.0442039E4,9.516006E3,9.260335E2,8.366639E3,1.149367E3,5.876906E2,3.383429E2,6.956703E3,1.4099358E3,1.01439996E3,1.3496695E2,5.57649E1,5.319257E2,3.275553E2,1.0787593E1,4.2608286E3,2.6958748E3,1.394464E2,1.2704894E3,2.3124239E2,7.831576E2,1.1906072E2,1.5906234E1,3.789796E1,1.7866941E1,2.2122938E1,5.0980276E2,3.097212E2,1.783411E1],"tree_param":{"num_deleted":"0","num_feature":"162","num_nodes":"29","size_leaf_vector":"1"}},{"base_weights":[-7.3193796E-3,1.4788267E-2,-3.0317295E-1,3.3642098E-3,5.905679E-1,-4.915241E-1,-2.0408873E-1,5.2572276E-2,-1.04879715E-1,7.6269686E-1,3.348062E-1,3.3722788E-2,-5.260349E-1,-7.770025E-2,-1.7683826E-1,-2.1403802E-3,2.0297913E-2,-4.627972E-2,-6.974229E-3,7.2372735E-2,2.6933549E-2,5.359785E-2,-3.973836E-3,-0E0,-4.9021248E-2,-1.2580772E-2,-5.8341008E-2],"categories":[],"categories_nodes":[],"categories_segments":[],"categories_sizes":[],"default_left":[0,0,0,0,0,0,0,0,0,0,0,0,0,0,0,0,0,0,0,0,0,0,0,0,0,0,0],"id":41,"left_children":[1,3,5,7,9,11,13,15,17,19,21,-1,23,-1,25,-1,-1,-1,-1,-1,-1,-1,-1,-1,-1,-1,-1],"loss_changes":[6.862389E1,6.3367104E1,1.2896996E1,5.0731697E1,7.0689163E0,7.749115E0,7.9221363E0,9.135246E1,3.0930336E1,2.110962E0,8.922251E0,0E0,4.7985E0,0E0,6.6404047E0,0E0,0E0,0E0,0E0,0E0,0E0,0E0,0E0,0E0,0E0,0E0,0E0],"parents":[2147483647,0,0,1,1,2,2,3,3,4,4,5,5,6,6,7,7,8,8,9,9,10,10,12,12,14,14],"right_children":[2,4,6,8,10,12,14,16,18,20,22,-1,24,-1,26,-1,-1,-1,-1,-1,-1,-1,-1,-1,-1,-1,-1],"split_conditions":[3.590793E0,1.7509713E0,5.291585E-1,5.730554E-1,1.1366038E0,-7.763276E-1,-7.9520667E-1,1.3019606E-1,-4.8673907E-1,6.763777E-1,5.1614416E-1,3.3722788E-2,-7.246911E-1,-7.770025E-2,1.7001522E0,-2.1403802E-3,2.0297913E-2,-4.627972E-2,-6.974229E-3,7.2372735E-2,2.6933549E-2,5.359785E-2,-3.973836E-3,-0E0,-4.9021248E-2,-1.2580772E-2,-5.8341008E-2],"split_indices":[10,70,1,6,6,13,2,2,2,135,8,0,15,0,6,0,0,0,0,0,0,0,0,0,0,0,0],"split_type":[0,0,0,0,0,0,0,0,0,0,0,0,0,0,0,0,0,0,0,0,0,0,0,0,0,0,0],"sum_hessian":[1.044881E4,9.719755E3,7.290554E2,9.532801E3,1.869542E2,2.4727599E2,4.8177942E2,6.5598096E3,2.9729907E3,1.0889304E2,7.806115E1,8.099487E0,2.391765E2,1.641519E1,4.6536423E2,4.5902837E3,1.9695261E3,1.6160596E2,2.8113848E3,9.264174E1,1.625131E1,4.6246307E1,3.181484E1,1.4586561E1,2.2458994E2,4.389242E2,2.644003E1],"tree_param":{"num_deleted":"0","num_feature":"162","num_nodes":"27","size_leaf_vector":"1"}},{"base_weights":[2.7884373E-3,2.5219452E-2,-2.686359E-1,-6.900069E-3,2.653553E-1,-4.940157E-2,-4.2127287E-1,7.937807E-2,-1.0218667E-1,2.2657059E-1,7.4584985E-1,3.0540425E-1,-1.15245834E-1,-5.846219E-1,-2.2367294E-1,1.8040979E-3,2.8418127E-2,-3.354252E-2,-3.390219E-3,2.7336434E-2,-5.3144E-4,7.543772E-2,-0E0,4.75469E-2,1.3931415E-3,-5.1603867E-3,-6.0761597E-2,-5.5047713E-2,3.1610996E-2,1.2363803E-3,-5.0428692E-2],"categories":[],"categories_nodes":[],"categories_segments":[],"categories_sizes":[],"default_left":[0,0,0,0,0,0,0,0,0,0,0,0,0,0,0,0,0,0,0,0,0,0,0,0,0,0,0,0,0,0,0],"id":42,"left_children":[1,3,5,7,9,11,13,15,17,19,21,23,25,27,29,-1,-1,-1,-1,-1,-1,-1,-1,-1,-1,-1,-1,-1,-1,-1,-1],"loss_changes":[6.3281067E1,7.459508E1,2.6076523E1,6.989643E1,2.0238312E1,7.514645E0,1.4163307E1,6.411516E1,7.190016E1,2.1684605E1,7.956112E0,2.8800159E0,8.380132E0,1.1473396E1,1.8582884E1,0E0,0E0,0E0,0E0,0E0,0E0,0E0,0E0,0E0,0E0,0E0,0E0,0E0,0E0,0E0,0E0],"parents":[2147483647,0,0,1,1,2,2,3,3,4,4,5,5,6,6,7,7,8,8,9,9,10,10,11,11,12,12,13,13,14,14],"right_children":[2,4,6,8,10,12,14,16,18,20,22,24,26,28,30,-1,-1,-1,-1,-1,-1,-1,-1,-1,-1,-1,-1,-1,-1,-1,-1],"split_conditions":[1.8568016E0,1.1720483E0,-1.3704817E-1,3.6858663E-2,2.2971056E0,-4.809015E-1,1.6542157E0,-7.196055E-2,-1.782715E-1,8.6859566E-1,1.6216679E0,4.6849972E-1,9.190352E-1,2.324718E0,2.5847788E0,1.8040979E-3,2.8418127E-2,-3.354252E-2,-3.390219E-3,2.7336434E-2,-5.3144E-4,7.543772E-2,-0E0,4.75469E-2,1.3931415E-3,-5.1603867E-3,-6.0761597E-2,-5.5047713E-2,3.1610996E-2,1.2363803E-3,-5.0428692E-2],"split_indices":[3,1,21,3,1,12,1,7,2,68,50,134,130,9,3,0,0,0,0,0,0,0,0,0,0,0,0,0,0,0,0],"split_type":[0,0,0,0,0,0,0,0,0,0,0,0,0,0,0,0,0,0,0,0,0,0,0,0,0,0,0,0,0,0,0],"sum_hessian":[1.0431067E4,9.638524E3,7.925439E2,8.498336E3,1.1401881E3,3.2816403E2,4.6437985E2,4.45476E3,4.0435762E3,1.0575801E3,8.260806E1,4.879348E1,2.7937054E2,2.5101117E2,2.1336868E2,3.6015999E3,8.531598E2,7.372107E2,3.3063655E3,7.728989E2,2.8468112E2,7.191664E1,1.0691419E1,2.4623177E1,2.4170305E1,2.568238E2,2.254677E1,2.4037323E2,1.0637934E1,1.2638335E2,8.698533E1],"tree_param":{"num_deleted":"0","num_feature":"162","num_nodes":"31","size_leaf_vector":"1"}},{"base_weights":[1.0613868E-4,2.6247673E-2,-2.1945468E-1,-2.5078118E-2,1.5837683E-1,-1.06834665E-1,-3.7293273E-1,8.584464E-3,-3.3296666E-1,7.294139E-1,1.2683673E-1,-2.693248E-1,3.862206E-2,-4.068661E-1,3.490211E-1,2.1926812E-3,-2.7083369E-2,-4.9055503E-3,-3.6575805E-2,8.7280504E-2,5.529951E-2,1.6631516E-2,-9.862881E-3,7.501094E-4,-3.2121588E-2,1.0470722E-2,-5.249282E-2,5.3138672E-3,-3.9618865E-2,-0E0,7.1150064E-2],"categories":[],"categories_nodes":[],"categories_segments":[],"categories_sizes":[],"default_left":[0,0,0,0,0,0,0,0,0,0,0,0,0,0,0,0,0,0,0,0,0,0,0,0,0,0,0,0,0,0,0],"id":43,"left_children":[1,3,5,7,9,11,13,15,17,19,21,23,25,27,29,-1,-1,-1,-1,-1,-1,-1,-1,-1,-1,-1,-1,-1,-1,-1,-1],"loss_changes":[5.9565357E1,6.324268E1,1.8596355E1,6.9732315E1,4.6120636E1,1.5374481E1,1.14791565E1,3.1623674E1,1.5387642E1,1.5925674E0,3.8007065E1,8.763115E0,1.7078037E1,1.0241676E1,3.9209425E0,0E0,0E0,0E0,0E0,0E0,0E0,0E0,0E0,0E0,0E0,0E0,0E0,0E0,0E0,0E0,0E0],"parents":[2147483647,0,0,1,1,2,2,3,3,4,4,5,5,6,6,7,7,8,8,9,9,10,10,11,11,12,12,13,13,14,14],"right_children":[2,4,6,8,10,12,14,16,18,20,22,24,26,28,30,-1,-1,-1,-1,-1,-1,-1,-1,-1,-1,-1,-1,-1,-1,-1,-1],"split_conditions":[1.418378E0,4.3866363E-1,6.5789014E-1,6.1787486E-1,-3.2712993E-1,7.471312E-1,2.14648E0,2.4834242E0,3.6858663E-2,-6.9111854E-1,1.1597122E0,3.6858663E-2,1.8568016E0,-3.2712993E-1,4.8542136E-1,2.1926812E-3,-2.7083369E-2,-4.9055503E-3,-3.6575805E-2,8.7280504E-2,5.529951E-2,1.6631516E-2,-9.862881E-3,7.501094E-4,-3.2121588E-2,1.0470722E-2,-5.249282E-2,5.3138672E-3,-3.9618865E-2,-0E0,7.1150064E-2],"split_indices":[6,2,5,0,3,2,150,12,3,3,0,3,3,3,134,0,0,0,0,0,0,0,0,0,0,0,0,0,0,0,0],"split_type":[0,0,0,0,0,0,0,0,0,0,0,0,0,0,0,0,0,0,0,0,0,0,0,0,0,0,0,0,0,0,0],"sum_hessian":[1.0409087E4,9.30592E3,1.1031671E3,6.69745E3,2.6084697E3,6.4038586E2,4.6278122E2,6.035011E3,6.6243884E2,1.3434122E2,2.4741287E3,3.0538614E2,3.3499976E2,4.4349023E2,1.9291004E1,5.740647E3,2.9436435E2,1.6050578E2,5.0193307E2,3.102585E1,1.0331536E2,1.9572217E3,5.1690686E2,7.779008E1,2.2759604E2,2.9891226E2,3.608749E1,3.894754E1,4.045427E2,1.0293283E1,8.997721E0],"tree_param":{"num_deleted":"0","num_feature":"162","num_nodes":"31","size_leaf_vector":"1"}},{"base_weights":[-0E0,-2.094282E-2,2.9917613E-1,-9.6063374E-4,-3.1551E-1,4.369131E-1,1.6806766E-1,-6.39356E-2,9.055417E-2,-2.782086E-1,-9.033183E-1,4.713515E-1,-1.7844813E-2,9.539044E-2,5.396343E-1,3.794226E-4,-1.6154937E-2,4.908008E-2,6.035348E-3,-3.7732728E-2,-1.2363244E-2,-4.9617548E-2,-9.878952E-2,3.607629E-2,7.527405E-2,-3.9134774E-2,2.4721656E-2,4.6481416E-3,5.969716E-2,6.066466E-2,-5.349649E-3],"categories":[],"categories_nodes":[],"categories_segments":[],"categories_sizes":[],"default_left":[0,0,0,0,0,0,0,0,0,0,0,0,0,0,0,0,0,0,0,0,0,0,0,0,0,0,0,0,0,0,0],"id":44,"left_children":[1,3,5,7,9,11,13,15,17,19,21,23,25,27,29,-1,-1,-1,-1,-1,-1,-1,-1,-1,-1,-1,-1,-1,-1,-1,-1],"loss_changes":[6.490473E1,5.6716694E1,1.1619755E1,5.2280525E1,1.216357E1,5.5538483E0,8.859329E0,4.475969E1,3.6610886E1,1.160062E1,7.02816E-1,5.496704E0,3.0199609E0,6.6354885E0,5.809305E0,0E0,0E0,0E0,0E0,0E0,0E0,0E0,0E0,0E0,0E0,0E0,0E0,0E0,0E0,0E0,0E0],"parents":[2147483647,0,0,1,1,2,2,3,3,4,4,5,5,6,6,7,7,8,8,9,9,10,10,11,11,12,12,13,13,14,14],"right_children":[2,4,6,8,10,12,14,16,18,20,22,24,26,28,30,-1,-1,-1,-1,-1,-1,-1,-1,-1,-1,-1,-1,-1,-1,-1,-1],"split_conditions":[3.0394166E0,3.590793E0,5.730554E-1,-2.1089225E-1,7.4287367E0,9.801694E-1,1.672534E0,2.9128116E-1,-8.2643515E-1,5.920929E-1,-2.171616E-1,1.4934932E0,1.1134019E0,8.8434803E-1,2.2637007E0,3.794226E-4,-1.6154937E-2,4.908008E-2,6.035348E-3,-3.7732728E-2,-1.2363244E-2,-4.9617548E-2,-9.878952E-2,3.607629E-2,7.527405E-2,-3.9134774E-2,2.4721656E-2,4.6481416E-3,5.969716E-2,6.066466E-2,-5.349649E-3],"split_indices":[11,10,6,26,10,22,2,6,15,7,16,1,25,124,6,0,0,0,0,0,0,0,0,0,0,0,0,0,0,0,0],"split_type":[0,0,0,0,0,0,0,0,0,0,0,0,0,0,0,0,0,0,0,0,0,0,0,0,0,0,0,0,0,0,0],"sum_hessian":[1.0363901E4,9.686749E3,6.771526E2,9.07492E3,6.118298E2,3.260734E2,3.5107922E2,5.3819893E3,3.6929304E3,5.7757263E2,3.425716E1,3.0506027E2,2.1013136E1,2.9634622E2,5.473299E1,3.438791E3,1.943198E3,1.5722896E2,3.5357014E3,2.6708527E2,3.1048737E2,1.6375393E1,1.7881765E1,2.6897186E2,3.6088413E1,9.851868E0,1.1161268E1,2.786309E2,1.771534E1,4.4656143E1,1.0076848E1],"tree_param":{"num_deleted":"0","num_feature":"162","num_nodes":"31","size_leaf_vector":"1"}},{"base_weights":[-1.12103E-2,5.9023313E-2,-9.595175E-2,-1.6498221E-2,2.0336609E-1,-3.875213E-1,-3.8522594E-2,4.880648E-3,-2.8828418E-1,5.6552476E-1,1.2451425E-1,-5.576048E-1,-2.7812403E-1,-1.9205345E-1,4.9358748E-2,-7.6819217E-4,3.5016157E-2,1.2994193E-2,-4.1539982E-2,9.187942E-2,3.748185E-2,4.3855035E-3,3.49592E-2,-5.7679076E-2,-6.5132077E-3,-7.9850545E-3,-4.146988E-2,-7.123407E-3,-3.4938548E-2,2.0088762E-2,-7.389967E-4],"categories":[],"categories_nodes":[],"categories_segments":[],