{"learner":{"attributes":{"scikit_learn":"{\"_estimator_type\": \"classifier\"}"},"feature_names":[],"feature_types":[],"gradient_booster":{"model":{"cats":{"enc":[],"feature_segments":[],"sorted_idx":[]},"gbtree_model_param":{"num_parallel_tree":"1","num_trees":"297"},"iteration_indptr":[0,1,2,3,4,5,6,7,8,9,10,11,12,13,14,15,16,17,18,19,20,21,22,23,24,25,26,27,28,29,30,31,32,33,34,35,36,37,38,39,40,41,42,43,44,45,46,47,48,49,50,51,52,53,54,55,56,57,58,59,60,61,62,63,64,65,66,67,68,69,70,71,72,73,74,75,76,77,78,79,80,81,82,83,84,85,86,87,88,89,90,91,92,93,94,95,96,97,98,99,100,101,102,103,104,105,106,107,108,109,110,111,112,113,114,115,116,117,118,119,120,121,122,123,124,125,126,127,128,129,130,131,132,133,134,135,136,137,138,139,140,141,142,143,144,145,146,147,148,149,150,151,152,153,154,155,156,157,158,159,160,161,162,163,164,165,166,167,168,169,170,171,172,173,174,175,176,177,178,179,180,181,182,183,184,185,186,187,188,189,190,191,192,193,194,195,196,197,198,199,200,201,202,203,204,205,206,207,208,209,210,211,212,213,214,215,216,217,218,219,220,221,222,223,224,225,226,227,228,229,230,231,232,233,234,235,236,237,238,239,240,241,242,243,244,245,246,247,248,249,250,251,252,253,254,255,256,257,258,259,260,261,262,263,264,265,266,267,268,269,270,271,272,273,274,275,276,277,278,279,280,281,282,283,284,285,286,287,288,289,290,291,292,293,294,295,296,297],"tree_info":[0,0,0,0,0,0,0,0,0,0,0,0,0,0,0,0,0,0,0,0,0,0,0,0,0,0,0,0,0,0,0,0,0,0,0,0,0,0,0,0,0,0,0,0,0,0,0,0,0,0,0,0,0,0,0,0,0,0,0,0,0,0,0,0,0,0,0,0,0,0,0,0,0,0,0,0,0,0,0,0,0,0,0,0,0,0,0,0,0,0,0,0,0,0,0,0,0,0,0,0,0,0,0,0,0,0,0,0,0,0,0,0,0,0,0,0,0,0,0,0,0,0,0,0,0,0,0,0,0,0,0,0,0,0,0,0,0,0,0,0,0,0,0,0,0,0,0,0,0,0,0,0,0,0,0,0,0,0,0,0,0,0,0,0,0,0,0,0,0,0,0,0,0,0,0,0,0,0,0,0,0,0,0,0,0,0,0,0,0,0,0,0,0,0,0,0,0,0,0,0,0,0,0,0,0,0,0,0,0,0,0,0,0,0,0,0,0,0,0,0,0,0,0,0,0,0,0,0,0,0,0,0,0,0,0,0,0,0,0,0,0,0,0,0,0,0,0,0,0,0,0,0,0,0,0,0,0,0,0,0,0,0,0,0,0,0,0,0,0,0,0,0,0,0,0,0,0,0,0,0,0,0,0,0,0,0,0,0,0,0,0,0,0,0,0,0,0],"trees":[{"base_weights":[1.2099765E-3,-7.066239E-1,3.4961426E-1,-4.6030554E-1,-1.2419318E0,1.4721598E-1,8.720736E-1,-2.2093506E-1,-9.2987597E-1,-1.0513777E0,-1.565176E0,3.6116675E-1,-2.571523E-1,1.1153964E0,5.0151366E-1,-4.0323284E-2,4.2553205E-2,-1.1992255E-1,-5.1480506E-2,-1.1526071E-1,-5.7687428E-2,-1.575829E-1,-9.3282506E-2,1.4802662E-2,8.259402E-2,-5.3954642E-2,2.0813752E-2,8.610523E-2,1.354831E-1,-1.8298436E-2,7.2274745E-2],"categories":[],"categories_nodes":[],"categories_segments":[],"categories_sizes":[],"default_left":[0,0,0,0,0,0,0,0,0,0,0,0,0,0,0,0,0,0,0,0,0,0,0,0,0,0,0,0,0,0,0],"id":0,"left_children":[1,3,5,7,9,11,13,15,17,19,21,23,25,27,29,-1,-1,-1,-1,-1,-1,-1,-1,-1,-1,-1,-1,-1,-1,-1,-1],"loss_changes":[4.510811E3,7.932151E2,1.2952607E3,4.634098E2,1.12680664E2,7.6490784E2,3.06344E2,3.949358E2,1.8585278E2,9.4254395E1,4.602185E1,6.1392975E2,4.7468695E2,1.297915E2,2.6183688E2,0E0,0E0,0E0,0E0,0E0,0E0,0E0,0E0,0E0,0E0,0E0,0E0,0E0,0E0,0E0,0E0],"parents":[2147483647,0,0,1,1,2,2,3,3,4,4,5,5,6,6,7,7,8,8,9,9,10,10,11,11,12,12,13,13,14,14],"right_children":[2,4,6,8,10,12,14,16,18,20,22,24,26,28,30,-1,-1,-1,-1,-1,-1,-1,-1,-1,-1,-1,-1,-1,-1,-1,-1],"split_conditions":[-4.1015387E-1,1.002021E0,3.256215E-1,7.471312E-1,1.0555987E0,4.3866363E-1,1.3019606E-1,4.0084726E-1,4.0084726E-1,3.6858663E-2,1.9819264E0,4.0084726E-1,7.6483583E-1,7.6483583E-1,4.0084726E-1,-4.0323284E-2,4.2553205E-2,-1.1992255E-1,-5.1480506E-2,-1.1526071E-1,-5.7687428E-2,-1.575829E-1,-9.3282506E-2,1.4802662E-2,8.259402E-2,-5.3954642E-2,2.0813752E-2,8.610523E-2,1.354831E-1,-1.8298436E-2,7.2274745E-2],"split_indices":[12,14,12,2,2,2,2,3,3,3,6,3,3,3,3,0,0,0,0,0,0,0,0,0,0,0,0,0,0,0,0],"split_type":[0,0,0,0,0,0,0,0,0,0,0,0,0,0,0,0,0,0,0,0,0,0,0,0,0,0,0,0,0,0,0],"sum_hessian":[1.8290338E4,6.031857E3,1.2258481E4,4.1336167E3,1.8982406E3,8.837941E3,3.4205405E3,2.7403376E3,1.3932789E3,1.1990059E3,6.992347E2,5.781477E3,3.0564639E3,2.061865E3,1.3586755E3,2.0883118E3,6.520259E2,7.110987E2,6.821802E2,8.334462E2,3.655596E2,5.6650616E2,1.3272853E2,4.1795894E3,1.6018876E3,1.8302697E3,1.2261942E3,1.3270382E3,7.348267E2,3.8310843E2,9.7556714E2],"tree_param":{"num_deleted":"0","num_feature":"162","num_nodes":"31","size_leaf_vector":"1"}},{"base_weights":[-3.9972337E-3,-5.159549E-1,4.0267944E-1,-3.1791028E-1,-1.0860829E0,6.0498047E-1,-2.663497E-2,-1.1043826E-1,-7.773959E-1,-1.4226575E0,-9.180239E-1,4.3622753E-1,1.0383607E0,4.0247843E-1,-1.8200333E-1,-2.5738059E-2,3.547739E-2,-9.49904E-2,-2.8116152E-2,-1.4072354E-1,-9.649844E-2,-9.0498984E-2,1.6405648E-2,2.6958365E-2,7.462915E-2,1.175108E-1,8.3492145E-2,6.469624E-2,1.6530797E-2,-3.9500877E-2,2.072195E-2],"categories":[],"categories_nodes":[],"categories_segments":[],"categories_sizes":[],"default_left":[0,0,0,0,0,0,0,0,0,0,0,0,0,0,0,0,0,0,0,0,0,0,0,0,0,0,0,0,0,0,0],"id":1,"left_children":[1,3,5,7,9,11,13,15,17,19,21,23,25,27,29,-1,-1,-1,-1,-1,-1,-1,-1,-1,-1,-1,-1,-1,-1,-1,-1],"loss_changes":[3.814717E3,9.142036E2,8.872977E2,5.732639E2,1.1452588E2,5.0572314E2,2.1785097E2,3.391238E2,2.1483289E2,1.9705444E1,8.416943E1,2.6661365E2,5.823755E1,5.6131577E1,2.3601361E2,0E0,0E0,0E0,0E0,0E0,0E0,0E0,0E0,0E0,0E0,0E0,0E0,0E0,0E0,0E0,0E0],"parents":[2147483647,0,0,1,1,2,2,3,3,4,4,5,5,6,6,7,7,8,8,9,9,10,10,11,11,12,12,13,13,14,14],"right_children":[2,4,6,8,10,12,14,16,18,20,22,24,26,28,30,-1,-1,-1,-1,-1,-1,-1,-1,-1,-1,-1,-1,-1,-1,-1,-1],"split_conditions":[-2.7573338E-1,8.502928E-1,4.3866363E-1,7.471312E-1,-7.0427924E-1,5.378644E-1,-6.239021E-1,5.730554E-1,1.1366038E0,1.7001522E0,3.590793E0,2.9128116E-1,-8.5265744E-1,-3.1529322E-1,8.5482955E-1,-2.5738059E-2,3.547739E-2,-9.49904E-2,-2.8116152E-2,-1.4072354E-1,-9.649844E-2,-9.0498984E-2,1.6405648E-2,2.6958365E-2,7.462915E-2,1.175108E-1,8.3492145E-2,6.469624E-2,1.6530797E-2,-3.9500877E-2,2.072195E-2],"split_indices":[12,17,2,2,107,12,14,6,6,6,10,6,14,70,6,0,0,0,0,0,0,0,0,0,0,0,0,0,0,0,0],"split_type":[0,0,0,0,0,0,0,0,0,0,0,0,0,0,0,0,0,0,0,0,0,0,0,0,0,0,0,0,0,0,0],"sum_hessian":[1.8319572E4,8.110945E3,1.0208628E4,6.0223486E3,2.0885962E3,6.9401235E3,3.268504E3,4.1513364E3,1.8710121E3,6.90967E2,1.3976292E3,4.998262E3,1.9418617E3,8.667293E2,2.4017747E3,3.1047566E3,1.0465798E3,1.2354423E3,6.355698E2,5.563987E2,1.3456834E2,1.3324362E3,6.5193016E1,3.5713108E3,1.4269512E3,7.444767E2,1.197385E3,3.73732E2,4.929973E2,1.503428E3,8.983465E2],"tree_param":{"num_deleted":"0","num_feature":"162","num_nodes":"31","size_leaf_vector":"1"}},{"base_weights":[3.2783253E-3,-6.3250184E-1,2.756197E-1,-4.442394E-1,-1.047721E0,8.9134224E-2,7.019821E-1,-2.5247195E-1,-8.016593E-1,-1.2320523E0,-7.7403444E-1,2.9691586E-1,-4.7979763E-1,1.174304E0,4.270573E-1,-3.862443E-2,3.0773822E-2,-9.498074E-2,-3.801659E-2,-9.734648E-2,-1.4303774E-1,-3.724311E-2,-1.0279756E-1,8.6730365E-3,5.217664E-2,-7.646501E-2,-2.2462662E-2,1.2667842E-1,8.807366E-2,5.7181474E-2,1.6006427E-2],"categories":[],"categories_nodes":[],"categories_segments":[],"categories_sizes":[],"default_left":[0,0,0,0,0,0,0,0,0,0,0,0,0,0,0,0,0,0,0,0,0,0,0,0,0,0,0,0,0,0,0],"id":2,"left_children":[1,3,5,7,9,11,13,15,17,19,21,23,25,27,29,-1,-1,-1,-1,-1,-1,-1,-1,-1,-1,-1,-1,-1,-1,-1,-1],"loss_changes":[3.1616362E3,4.260747E2,1.01579364E3,2.5722028E2,8.308191E1,1.051863E3,5.029048E2,2.3315053E2,1.11291626E2,5.336328E1,8.351053E1,3.495797E2,1.9268982E2,5.7235474E1,1.1673416E2,0E0,0E0,0E0,0E0,0E0,0E0,0E0,0E0,0E0,0E0,0E0,0E0,0E0,0E0,0E0,0E0],"parents":[2147483647,0,0,1,1,2,2,3,3,4,4,5,5,6,6,7,7,8,8,9,9,10,10,11,11,12,12,13,13,14,14],"right_children":[2,4,6,8,10,12,14,16,18,20,22,24,26,28,30,-1,-1,-1,-1,-1,-1,-1,-1,-1,-1,-1,-1,-1,-1,-1,-1],"split_conditions":[-4.5260245E-1,1.0796188E0,7.6483583E-1,7.471312E-1,3.6858663E-2,4.3866363E-1,1.3019606E-1,4.0084726E-1,1.1366038E0,7.471312E-1,1.0555987E0,7.2571505E-3,3.6858663E-2,-1.782715E-1,9.241196E-1,-3.862443E-2,3.0773822E-2,-9.498074E-2,-3.801659E-2,-9.734648E-2,-1.4303774E-1,-3.724311E-2,-1.0279756E-1,8.6730365E-3,5.217664E-2,-7.646501E-2,-2.2462662E-2,1.2667842E-1,8.807366E-2,5.7181474E-2,1.6006427E-2],"split_indices":[12,26,3,2,3,2,2,3,6,2,2,12,3,2,7,0,0,0,0,0,0,0,0,0,0,0,0,0,0,0,0],"split_type":[0,0,0,0,0,0,0,0,0,0,0,0,0,0,0,0,0,0,0,0,0,0,0,0,0,0,0,0,0,0,0],"sum_hessian":[1.8259432E4,5.4744233E3,1.2785008E4,3.769761E3,1.7046625E3,8.897104E3,3.8879043E3,2.4563818E3,1.313379E3,1.0142417E3,6.9042084E2,6.5186294E3,2.3784746E3,1.4278313E3,2.460073E3,1.9224883E3,5.338936E2,8.410018E2,4.7237726E2,6.347448E2,3.794969E2,3.2645157E2,3.6396924E2,3.6804624E3,2.838167E3,9.7464343E2,1.4038312E3,7.794512E2,6.483801E2,1.415273E3,1.0448E3],"tree_param":{"num_deleted":"0","num_feature":"162","num_nodes":"31","size_leaf_vector":"1"}},{"base_weights":[7.210906E-4,-4.223729E-1,3.4026715E-1,-9.216366E-1,-2.628333E-1,1.9838761E-1,7.894032E-1,-7.806429E-1,-1.2798543E0,-4.4954423E-2,-5.631779E-1,3.284449E-1,-2.3163499E-1,9.869881E-1,4.7635394E-1,-8.21776E-2,-1.538678E-2,-1.372167E-1,-8.933476E-2,-2.3959266E-2,4.320293E-2,-9.574782E-2,-3.291903E-2,1.4099731E-2,6.247925E-2,-6.374967E-2,6.1659557E-3,7.693419E-2,1.1530538E-1,-4.777223E-2,5.891807E-2],"categories":[],"categories_nodes":[],"categories_segments":[],"categories_sizes":[],"default_left":[0,0,0,0,0,0,0,0,0,0,0,0,0,0,0,0,0,0,0,0,0,0,0,0,0,0,0,0,0,0,0],"id":3,"left_children":[1,3,5,7,9,11,13,15,17,19,21,23,25,27,29,-1,-1,-1,-1,-1,-1,-1,-1,-1,-1,-1,-1,-1,-1,-1,-1],"loss_changes":[2.6087507E3,6.424939E2,6.409413E2,9.5704834E1,4.0047394E2,4.2858807E2,1.4756543E2,8.749359E1,3.0268066E1,3.8457202E2,2.4941113E2,3.5605597E2,2.4071277E2,5.6634155E1,1.4611508E2,0E0,0E0,0E0,0E0,0E0,0E0,0E0,0E0,0E0,0E0,0E0,0E0,0E0,0E0,0E0,0E0],"parents":[2147483647,0,0,1,1,2,2,3,3,4,4,5,5,6,6,7,7,8,8,9,9,10,10,11,11,12,12,13,13,14,14],"right_children":[2,4,6,8,10,12,14,16,18,20,22,24,26,28,30,-1,-1,-1,-1,-1,-1,-1,-1,-1,-1,-1,-1,-1,-1,-1,-1],"split_conditions":[-2.7573338E-1,-6.665516E-1,5.661634E-1,1.3640664E0,4.3866363E-1,7.471312E-1,1.3019606E-1,1.418378E0,1.418378E0,3.6858663E-2,3.6858663E-2,4.0084726E-1,4.0084726E-1,7.6483583E-1,3.6858663E-2,-8.21776E-2,-1.538678E-2,-1.372167E-1,-8.933476E-2,-2.3959266E-2,4.320293E-2,-9.574782E-2,-3.291903E-2,1.4099731E-2,6.247925E-2,-6.374967E-2,6.1659557E-3,7.693419E-2,1.1530538E-1,-4.777223E-2,5.891807E-2],"split_indices":[12,15,12,2,2,2,2,6,6,3,3,3,3,3,3,0,0,0,0,0,0,0,0,0,0,0,0,0,0,0,0],"split_type":[0,0,0,0,0,0,0,0,0,0,0,0,0,0,0,0,0,0,0,0,0,0,0,0,0,0,0,0,0,0,0],"sum_hessian":[1.8157607E4,8.082826E3,1.0074782E4,1.9546658E3,6.12816E3,7.6590444E3,2.4157373E3,1.4070059E3,5.4765985E2,3.554259E3,2.5739014E3,5.882446E3,1.7765988E3,1.477671E3,9.380662E2,1.2046173E3,2.023886E2,3.363047E2,2.1135516E2,2.509451E3,1.0448081E3,7.959109E2,1.7779904E3,3.8829773E3,1.9994685E3,7.05213E2,1.0713857E3,9.081454E2,5.6952563E2,1.27052956E2,8.110133E2],"tree_param":{"num_deleted":"0","num_feature":"162","num_nodes":"31","size_leaf_vector":"1"}},{"base_weights":[-1.2701556E-4,-3.2057425E-1,3.8971972E-1,-1.7357795E-1,-7.957101E-1,2.616629E-1,8.0419314E-1,-3.3281633E-1,2.674364E-1,-9.976684E-1,-3.4814203E-1,4.8477694E-1,-9.0117104E-2,1.2918102E0,6.654843E-1,-5.6612995E-2,-1.33917285E-2,9.2171445E-2,1.22833075E-2,-1.1075345E-1,-6.784683E-2,-6.8431646E-2,-9.593313E-3,3.1794935E-2,7.567456E-2,-3.162671E-2,2.0398028E-2,1.2138706E-1,3.158811E-2,8.2034126E-2,4.078653E-2],"categories":[],"categories_nodes":[],"categories_segments":[],"categories_sizes":[],"default_left":[0,0,0,0,0,0,0,0,0,0,0,0,0,0,0,0,0,0,0,0,0,0,0,0,0,0,0,0,0,0,0],"id":4,"left_children":[1,3,5,7,9,11,13,15,17,19,21,23,25,27,29,-1,-1,-1,-1,-1,-1,-1,-1,-1,-1,-1,-1,-1,-1,-1,-1],"loss_changes":[2.2637852E3,6.9367633E2,4.3259448E2,5.338828E2,2.1060498E2,4.9082822E2,1.2752002E2,2.8989618E2,1.9610547E2,8.0730835E1,6.868522E1,1.7836139E2,1.8741336E2,2.9662476E0,7.211688E1,0E0,0E0,0E0,0E0,0E0,0E0,0E0,0E0,0E0,0E0,0E0,0E0,0E0,0E0,0E0,0E0],"parents":[2147483647,0,0,1,1,2,2,3,3,4,4,5,5,6,6,7,7,8,8,9,9,10,10,11,11,12,12,13,13,14,14],"right_children":[2,4,6,8,10,12,14,16,18,20,22,24,26,28,30,-1,-1,-1,-1,-1,-1,-1,-1,-1,-1,-1,-1,-1,-1,-1,-1],"split_conditions":[-1.6961193E-1,1.0555987E0,1.1288245E0,4.0084726E-1,7.6483583E-1,1.3019606E-1,-1.782715E-1,-5.2335006E-1,-1.782715E-1,1.1366038E0,5.730554E-1,3.6858663E-2,5.730554E-1,3.3841057E0,9.241196E-1,-5.6612995E-2,-1.33917285E-2,9.2171445E-2,1.22833075E-2,-1.1075345E-1,-6.784683E-2,-6.8431646E-2,-9.593313E-3,3.1794935E-2,7.567456E-2,-3.162671E-2,2.0398028E-2,1.2138706E-1,3.158811E-2,8.2034126E-2,4.078653E-2],"split_indices":[12,2,3,3,3,2,2,12,2,6,6,3,6,8,7,0,0,0,0,0,0,0,0,0,0,0,0,0,0,0,0],"split_type":[0,0,0,0,0,0,0,0,0,0,0,0,0,0,0,0,0,0,0,0,0,0,0,0,0,0,0,0,0,0,0],"sum_hessian":[1.8119484E4,9.9463955E3,8.173089E3,7.59896E3,2.3474353E3,6.2470728E3,1.9260161E3,5.5848726E3,2.0140873E3,1.6151389E3,7.322964E2,3.8240432E3,2.4230298E3,4.2301083E2,1.5030052E3,2.2689443E3,3.3159285E3,3.1562677E2,1.6984606E3,9.369989E2,6.7814E2,2.8149524E2,4.5080115E2,2.6665896E3,1.1574535E3,1.3423259E3,1.0807039E3,4.1614893E2,6.8618913E0,7.6686774E2,7.361376E2],"tree_param":{"num_deleted":"0","num_feature":"162","num_nodes":"31","size_leaf_vector":"1"}},{"base_weights":[5.253766E-3,-5.0705165E-1,2.0534675E-1,-3.7186816E-1,-8.900263E-1,5.432473E-1,4.1481044E-2,-1.7411551E-1,-6.153502E-1,-9.695192E-1,-4.3892926E-1,7.330468E-1,2.8911707E-1,2.314914E-1,-1.7160733E-1,-3.5445716E-2,2.1764645E-2,-9.181378E-2,-3.9482415E-2,-7.762803E-2,-1.0902599E-1,-1.8608784E-2,-8.3837144E-2,4.7362126E-2,8.9953616E-2,-3.6941472E-2,3.969092E-2,1.4905316E-3,5.9165556E-2,-5.9962843E-2,3.1681068E-4],"categories":[],"categories_nodes":[],"categories_segments":[],"categories_sizes":[],"default_left":[0,0,0,0,0,0,0,0,0,0,0,0,0,0,0,0,0,0,0,0,0,0,0,0,0,0,0,0,0,0,0],"id":5,"left_children":[1,3,5,7,9,11,13,15,17,19,21,23,25,27,29,-1,-1,-1,-1,-1,-1,-1,-1,-1,-1,-1,-1,-1,-1,-1,-1],"loss_changes":[1.8425968E3,2.5977234E2,7.1533246E2,1.7894965E2,4.5309692E1,2.0235486E2,3.5277063E2,1.7438016E2,1.1673834E2,2.748938E1,2.0895584E1,1.2433728E2,1.7061989E2,4.0066394E2,3.4012408E2,0E0,0E0,0E0,0E0,0E0,0E0,0E0,0E0,0E0,0E0,0E0,0E0,0E0,0E0,0E0,0E0],"parents":[2147483647,0,0,1,1,2,2,3,3,4,4,5,5,6,6,7,7,8,8,9,9,10,10,11,11,12,12,13,13,14,14],"right_children":[2,4,6,8,10,12,14,16,18,20,22,24,26,28,30,-1,-1,-1,-1,-1,-1,-1,-1,-1,-1,-1,-1,-1,-1,-1,-1],"split_conditions":[-4.6675196E-1,9.5736617E-1,-5.3943855E-1,4.3866363E-1,7.6483583E-1,1.3019606E-1,1.3019606E-1,-3.2712993E-1,3.6858663E-2,1.0555987E0,1.672534E0,3.6858663E-2,3.6858663E-2,-3.2712993E-1,3.6858663E-2,-3.5445716E-2,2.1764645E-2,-9.181378E-2,-3.9482415E-2,-7.762803E-2,-1.0902599E-1,-1.8608784E-2,-8.3837144E-2,4.7362126E-2,8.9953616E-2,-3.6941472E-2,3.969092E-2,1.4905316E-3,5.9165556E-2,-5.9962843E-2,3.1681068E-4],"split_indices":[12,16,14,2,3,2,2,3,3,2,2,3,3,3,3,0,0,0,0,0,0,0,0,0,0,0,0,0,0,0,0],"split_type":[0,0,0,0,0,0,0,0,0,0,0,0,0,0,0,0,0,0,0,0,0,0,0,0,0,0,0,0,0,0,0],"sum_hessian":[1.7975697E4,5.047052E3,1.2928645E4,3.7337551E3,1.3132966E3,4.2194634E3,8.709182E3,2.0635754E3,1.6701798E3,1.1136597E3,1.9963692E2,2.4121118E3,1.8073514E3,4.6062495E3,4.102932E3,1.371174E3,6.9240137E2,5.644427E2,1.1057372E3,6.728008E2,4.4085892E2,1.3396466E2,6.567226E1,1.2345162E3,1.1775956E3,2.9997238E2,1.507379E3,3.0069158E3,1.5993337E3,1.109358E3,2.9935742E3],"tree_param":{"num_deleted":"0","num_feature":"162","num_nodes":"31","size_leaf_vector":"1"}},{"base_weights":[-2.9535494E-3,-2.7270713E-1,3.294452E-1,-7.146662E-1,-1.5371034E-1,1.9433953E-1,6.667545E-1,-5.58342E-1,-9.708421E-1,-2.5461525E-2,-4.596491E-1,3.280463E-1,-6.536154E-2,8.312069E-1,4.1619974E-1,-4.1618194E-2,-8.61872E-2,-1.01555064E-1,-5.9274003E-2,-1.2557369E-2,4.6128273E-2,-6.748124E-2,-1.4093386E-2,2.0950165E-2,6.874527E-2,-2.9489884E-2,1.7918766E-2,9.3966864E-2,6.594449E-2,2.5992982E-2,7.2528854E-2],"categories":[],"categories_nodes":[],"categories_segments":[],"categories_sizes":[],"default_left":[0,0,0,0,0,0,0,0,0,0,0,0,0,0,0,0,0,0,0,0,0,0,0,0,0,0,0,0,0,0,0],"id":6,"left_children":[1,3,5,7,9,11,13,15,17,19,21,23,25,27,29,-1,-1,-1,-1,-1,-1,-1,-1,-1,-1,-1,-1,-1,-1,-1,-1],"loss_changes":[1.6020975E3,5.178627E2,3.637412E2,8.165906E1,3.0459882E2,1.9882027E2,9.2623474E1,5.1497772E1,2.9266418E1,3.1243558E2,1.8673328E2,1.5854083E2,1.2612791E2,2.769934E1,4.4002487E1,0E0,0E0,0E0,0E0,0E0,0E0,0E0,0E0,0E0,0E0,0E0,0E0,0E0,0E0,0E0,0E0],"parents":[2147483647,0,0,1,1,2,2,3,3,4,4,5,5,6,6,7,7,8,8,9,9,10,10,11,11,12,12,13,13,14,14],"right_children":[2,4,6,8,10,12,14,16,18,20,22,24,26,28,30,-1,-1,-1,-1,-1,-1,-1,-1,-1,-1,-1,-1,-1,-1,-1,-1],"split_conditions":[-1.6961193E-1,-6.789949E-1,5.661634E-1,2.057815E0,7.471312E-1,4.3866363E-1,1.3019606E-1,1.3640664E0,1.418378E0,8.5482955E-1,8.5482955E-1,5.730554E-1,5.730554E-1,-8.5265744E-1,1.8915858E0,-4.1618194E-2,-8.61872E-2,-1.01555064E-1,-5.9274003E-2,-1.2557369E-2,4.6128273E-2,-6.748124E-2,-1.4093386E-2,2.0950165E-2,6.874527E-2,-2.9489884E-2,1.7918766E-2,9.3966864E-2,6.594449E-2,2.5992982E-2,7.2528854E-2],"split_indices":[12,12,12,14,2,2,2,2,6,6,6,6,6,14,15,0,0,0,0,0,0,0,0,0,0,0,0,0,0,0,0],"split_type":[0,0,0,0,0,0,0,0,0,0,0,0,0,0,0,0,0,0,0,0,0,0,0,0,0,0,0,0,0,0,0],"sum_hessian":[1.786589E4,9.864003E3,8.001888E3,2.0896006E3,7.774402E3,5.716697E3,2.2851917E3,1.3021876E3,7.874129E2,5.481079E3,2.2933228E3,3.7760464E3,1.9406503E3,1.3758096E3,9.093821E2,1.0037666E3,2.9842102E2,5.7489856E2,2.1251437E2,4.531772E3,9.493075E2,1.2297389E3,1.0635839E3,3.0223508E3,7.5369556E2,9.842799E2,9.563703E2,5.540323E2,8.217773E2,6.6370416E2,2.4567792E2],"tree_param":{"num_deleted":"0","num_feature":"162","num_nodes":"31","size_leaf_vector":"1"}},{"base_weights":[4.2747934E-3,-3.217155E-1,2.4548195E-1,-2.2257371E-1,-7.710398E-1,7.723373E-2,4.7736996E-1,-3.1630215E-1,2.3740764E-1,-9.4754374E-1,-4.082638E-1,2.4711917E-1,-1.1406267E-1,5.6848365E-1,7.90387E-2,-1.8064953E-2,-5.9104312E-2,3.246176E-2,-3.1169385E-2,-1.0010994E-1,-5.847381E-2,-1.6586429E-3,-5.878203E-2,9.768482E-3,5.701228E-2,-2.9370695E-2,2.1807458E-2,8.636603E-2,4.4112258E-2,-2.127375E-2,2.498042E-2],"categories":[],"categories_nodes":[],"categories_segments":[],"categories_sizes":[],"default_left":[0,0,0,0,0,0,0,0,0,0,0,0,0,0,0,0,0,0,0,0,0,0,0,0,0,0,0,0,0,0,0],"id":7,"left_children":[1,3,5,7,9,11,13,15,17,19,21,23,25,27,29,-1,-1,-1,-1,-1,-1,-1,-1,-1,-1,-1,-1,-1,-1,-1,-1],"loss_changes":[1.3985836E3,3.3574573E2,3.9834503E2,2.6741284E2,8.566266E1,1.9285129E2,1.5526715E2,1.9973737E2,6.695908E1,3.50672E1,3.863378E1,1.6254857E2,1.9581563E2,1.169021E2,4.6888325E1,0E0,0E0,0E0,0E0,0E0,0E0,0E0,0E0,0E0,0E0,0E0,0E0,0E0,0E0,0E0,0E0],"parents":[2147483647,0,0,1,1,2,2,3,3,4,4,5,5,6,6,7,7,8,8,9,9,10,10,11,11,12,12,13,13,14,14],"right_children":[2,4,6,8,10,12,14,16,18,20,22,24,26,28,30,-1,-1,-1,-1,-1,-1,-1,-1,-1,-1,-1,-1,-1,-1,-1,-1],"split_conditions":[-3.3940625E-1,1.3640664E0,1.0630383E-1,1.1366038E0,1.418378E0,1.3019606E-1,7.471312E-1,2.8187135E-1,1.5500058E0,4.4097316E-1,1.6546947E-1,9.506951E-3,8.5482955E-1,-8.5265744E-1,2.9128116E-1,-1.8064953E-2,-5.9104312E-2,3.246176E-2,-3.1169385E-2,-1.0010994E-1,-5.847381E-2,-1.6586429E-3,-5.878203E-2,9.768482E-3,5.701228E-2,-2.9370695E-2,2.1807458E-2,8.636603E-2,4.4112258E-2,-2.127375E-2,2.498042E-2],"split_indices":[12,2,12,6,6,2,2,13,70,142,13,6,6,14,6,0,0,0,0,0,0,0,0,0,0,0,0,0,0,0,0],"split_type":[0,0,0,0,0,0,0,0,0,0,0,0,0,0,0,0,0,0,0,0,0,0,0,0,0,0,0,0,0,0,0],"sum_hessian":[1.77854E4,7.5615835E3,1.0223816E4,6.197824E3,1.3637593E3,5.928186E3,4.2956304E3,5.1507246E3,1.0470999E3,9.1444147E2,4.4931778E2,3.1423179E3,2.785868E3,3.4936152E3,8.020151E2,3.7268057E3,1.4239188E3,8.782784E2,1.6882146E2,6.4858234E2,2.6585913E2,1.6549446E2,2.838233E2,2.2652244E3,8.7709344E2,1.7667668E3,1.0191012E3,7.231295E2,2.7704856E3,3.035623E2,4.984528E2],"tree_param":{"num_deleted":"0","num_feature":"162","num_nodes":"31","size_leaf_vector":"1"}},{"base_weights":[2.5131747E-3,2.1148889E-1,-3.0424747E-1,6.1321996E-2,5.4064876E-1,-7.047349E-1,-2.073424E-1,2.4252428E-1,-2.454305E-1,1.062934E0,4.196705E-1,-1.0466818E0,-5.952697E-1,-2.961928E-1,1.5480086E-1,4.3503202E-2,1.1764714E-2,-7.746123E-2,-1.2724604E-2,1.0524796E-1,6.393606E-2,6.327988E-2,2.2648487E-2,-1.02882646E-1,-5.5859856E-2,-6.6924445E-2,-1.2389034E-2,-8.27409E-3,-5.0048575E-2,5.2776657E-2,-5.3248047E-3],"categories":[],"categories_nodes":[],"categories_segments":[],"categories_sizes":[],"default_left":[0,0,0,0,0,0,0,0,0,0,0,0,0,0,0,0,0,0,0,0,0,0,0,0,0,0,0,0,0,0,0],"id":8,"left_children":[1,3,5,7,9,11,13,15,17,19,21,23,25,27,29,-1,-1,-1,-1,-1,-1,-1,-1,-1,-1,-1,-1,-1,-1,-1,-1],"loss_changes":[1.1366553E3,5.208135E2,2.7773712E2,4.02906E2,2.0676819E2,5.0033203E1,1.8640057E2,1.1841104E2,1.705482E2,1.3208923E1,1.221319E2,6.4287415E0,5.989691E1,2.3216943E2,1.000608E2,0E0,0E0,0E0,0E0,0E0,0E0,0E0,0E0,0E0,0E0,0E0,0E0,0E0,0E0,0E0,0E0],"parents":[2147483647,0,0,1,1,2,2,3,3,4,4,5,5,6,6,7,7,8,8,9,9,10,10,11,11,12,12,13,13,14,14],"right_children":[2,4,6,8,10,12,14,16,18,20,22,24,26,28,30,-1,-1,-1,-1,-1,-1,-1,-1,-1,-1,-1,-1,-1,-1,-1,-1],"split_conditions":[-1.24159485E-1,7.6483583E-1,-7.4266773E-1,1.3019606E-1,-1.782715E-1,-8.7003976E-1,7.6483583E-1,-2.2623616E-1,-3.2712993E-1,1.9201998E0,5.920929E-1,2.2637007E0,1.418378E0,1.3019606E-1,4.3866363E-1,4.3503202E-2,1.1764714E-2,-7.746123E-2,-1.2724604E-2,1.0524796E-1,6.393606E-2,6.327988E-2,2.2648487E-2,-1.02882646E-1,-5.5859856E-2,-6.6924445E-2,-1.2389034E-2,-8.27409E-3,-5.0048575E-2,5.2776657E-2,-5.3248047E-3],"split_indices":[14,3,12,2,2,15,3,124,3,7,7,6,6,2,2,0,0,0,0,0,0,0,0,0,0,0,0,0,0,0,0],"split_type":[0,0,0,0,0,0,0,0,0,0,0,0,0,0,0,0,0,0,0,0,0,0,0,0,0,0,0,0,0,0,0],"sum_hessian":[1.7730242E4,1.0548046E4,7.1821953E3,7.2463784E3,3.301668E3,1.3960139E3,5.786181E3,4.557557E3,2.688821E3,6.1785767E2,2.6838103E3,3.3414102E2,1.0618729E3,4.648548E3,1.1376334E3,1.5478572E3,3.0097E3,4.177035E2,2.2711177E3,5.192864E2,9.8571236E1,1.0804374E3,1.6033729E3,2.9195148E2,4.2189537E1,8.353698E2,2.2650314E2,2.5047231E3,2.143825E3,3.8728906E2,7.503443E2],"tree_param":{"num_deleted":"0","num_feature":"162","num_nodes":"31","size_leaf_vector":"1"}},{"base_weights":[8.442368E-4,-3.748778E-1,1.4871027E-1,-2.1909556E-1,-6.212737E-1,1.9909872E-2,4.6571997E-1,-3.18923E-1,3.78485E-1,-8.418649E-1,-3.3693406E-1,2.2742304E-1,-2.0962448E-1,7.3217183E-1,1.9998522E-1,-3.680929E-2,3.0412322E-3,4.775524E-2,-1.844789E-2,-9.238507E-2,-4.68699E-2,-4.316323E-2,1.5856912E-2,1.0162761E-2,7.313584E-2,-4.0591277E-2,4.3011857E-3,9.473247E-2,5.327636E-2,3.384988E-3,4.7275215E-2],"categories":[],"categories_nodes":[],"categories_segments":[],"categories_sizes":[],"default_left":[0,0,0,0,0,0,0,0,0,0,0,0,0,0,0,0,0,0,0,0,0,0,0,0,0,0,0,0,0,0,0],"id":9,"left_children":[1,3,5,7,9,11,13,15,17,19,21,23,25,27,29,-1,-1,-1,-1,-1,-1,-1,-1,-1,-1,-1,-1,-1,-1,-1,-1],"loss_changes":[9.752396E2,1.8929724E2,5.1404205E2,1.8147137E2,1.18789734E2,4.2703152E2,2.5656226E2,7.057773E1,3.41406E1,5.2938416E1,5.4499542E1,3.100205E2,2.469567E2,8.064026E1,9.141275E1,0E0,0E0,0E0,0E0,0E0,0E0,0E0,0E0,0E0,0E0,0E0,0E0,0E0,0E0,0E0,0E0],"parents":[2147483647,0,0,1,1,2,2,3,3,4,4,5,5,6,6,7,7,8,8,9,9,10,10,11,11,12,12,13,13,14,14],"right_children":[2,4,6,8,10,12,14,16,18,20,22,24,26,28,30,-1,-1,-1,-1,-1,-1,-1,-1,-1,-1,-1,-1,-1,-1,-1,-1],"split_conditions":[-4.6675196E-1,7.471312E-1,7.6483583E-1,1.1366038E0,4.0084726E-1,-1.782715E-1,4.3866363E-1,4.0084726E-1,1.2438364E0,1.418378E0,1.7001522E0,-3.2712993E-1,5.730554E-1,-1.782715E-1,8.5482955E-1,-3.680929E-2,3.0412322E-3,4.775524E-2,-1.844789E-2,-9.238507E-2,-4.68699E-2,-4.316323E-2,1.5856912E-2,1.0162761E-2,7.313584E-2,-4.0591277E-2,4.3011857E-3,9.473247E-2,5.327636E-2,3.384988E-3,4.7275215E-2],"split_indices":[12,2,3,6,3,2,2,3,16,6,6,3,6,2,6,0,0,0,0,0,0,0,0,0,0,0,0,0,0,0,0],"split_type":[0,0,0,0,0,0,0,0,0,0,0,0,0,0,0,0,0,0,0,0,0,0,0,0,0,0,0,0,0,0,0],"sum_hessian":[1.7555783E4,4.955596E3,1.2600187E4,3.03972E3,1.9158761E3,8.962814E3,3.6373728E3,2.6064316E3,4.3328836E2,1.0757705E3,8.401056E2,4.709428E3,4.253386E3,1.8134708E3,1.823902E3,2.1423997E3,4.6403198E2,3.5273743E2,8.0550934E1,7.406491E2,3.351214E2,6.736672E2,1.6643843E2,3.889054E3,8.2037427E2,2.2575676E3,1.9958184E3,6.4604254E2,1.1674282E3,1.193955E3,6.2994696E2],"tree_param":{"num_deleted":"0","num_feature":"162","num_nodes":"31","size_leaf_vector":"1"}},{"base_weights":[-7.574672E-4,-1.7089073E-1,2.8316146E-1,-9.572043E-2,-5.9256184E-1,1.7488936E-1,6.296176E-1,-2.1736902E-1,2.0513695E-1,-7.24488E-1,-9.718323E-2,4.0372947E-1,-3.9848063E-2,7.4495834E-1,1.4639984E-1,-8.853013E-3,-4.341663E-2,5.4739837E-2,4.923407E-3,-9.617512E-2,-5.4204755E-2,-1.6995518E-2,8.088751E-2,2.7360497E-2,7.648633E-2,1.12971235E-2,-3.382091E-2,7.98756E-2,3.9368615E-2,-9.283809E-3,4.357294E-2],"categories":[],"categories_nodes":[],"categories_segments":[],"categories_sizes":[],"default_left":[0,0,0,0,0,0,0,0,0,0,0,0,0,0,0,0,0,0,0,0,0,0,0,0,0,0,0,0,0,0,0],"id":10,"left_children":[1,3,5,7,9,11,13,15,17,19,21,23,25,27,29,-1,-1,-1,-1,-1,-1,-1,-1,-1,-1,-1,-1,-1,-1,-1,-1],"loss_changes":[8.4349E2,3.4548737E2,2.4449377E2,3.3945142E2,1.0698749E2,2.4547115E2,8.569086E1,2.0059995E2,1.5493369E2,5.4905945E1,2.838961E1,1.0955795E2,1.3445374E2,4.4087646E1,2.4376537E1,0E0,0E0,0E0,0E0,0E0,0E0,0E0,0E0,0E0,0E0,0E0,0E0,0E0,0E0,0E0,0E0],"parents":[2147483647,0,0,1,1,2,2,3,3,4,4,5,5,6,6,7,7,8,8,9,9,10,10,11,11,12,12,13,13,14,14],"right_children":[2,4,6,8,10,12,14,16,18,20,22,24,26,28,30,-1,-1,-1,-1,-1,-1,-1,-1,-1,-1,-1,-1,-1,-1,-1,-1],"split_conditions":[-8.471477E-2,1.3640664E0,1.1288245E0,4.0084726E-1,1.1288245E0,-1.782715E-1,1.0555987E0,1.3019606E-1,1.3019606E-1,5.730554E-1,3.590793E0,3.6858663E-2,9.241196E-1,1.588173E0,1.8568016E0,-8.853013E-3,-4.341663E-2,5.4739837E-2,4.923407E-3,-9.617512E-2,-5.4204755E-2,-1.6995518E-2,8.088751E-2,2.7360497E-2,7.648633E-2,1.12971235E-2,-3.382091E-2,7.98756E-2,3.9368615E-2,-9.283809E-3,4.357294E-2],"split_indices":[12,2,3,3,3,2,2,2,2,6,10,3,7,7,3,0,0,0,0,0,0,0,0,0,0,0,0,0,0,0,0],"split_type":[0,0,0,0,0,0,0,0,0,0,0,0,0,0,0,0,0,0,0,0,0,0,0,0,0,0,0,0,0,0,0],"sum_hessian":[1.7462184E4,1.0921507E4,6.5406763E3,9.272195E3,1.6493121E3,4.9866885E3,1.5539877E3,6.605034E3,2.6671611E3,1.300514E3,3.4879797E2,2.4157952E3,2.5708936E3,1.2524491E3,3.0153867E2,4.4344805E3,2.1705535E3,7.558853E2,1.9112758E3,4.054325E2,8.950816E2,3.2219064E2,2.660734E1,1.9168038E3,4.989913E2,1.7142985E3,8.5659503E2,9.2289984E2,3.2954922E2,1.6956456E2,1.319741E2],"tree_param":{"num_deleted":"0","num_feature":"162","num_nodes":"31","size_leaf_vector":"1"}},{"base_weights":[3.928076E-3,1.4178304E-1,-2.9903904E-1,5.5521164E-2,5.0130844E-1,-6.659133E-1,-2.0448288E-1,1.457399E-1,-2.9545638E-1,9.7694343E-1,4.0177843E-1,-9.1448355E-1,-5.456502E-1,-2.4516283E-1,5.525086E-1,8.83107E-3,5.382317E-2,-7.9106465E-2,-1.9883823E-2,9.6767485E-2,6.2124778E-2,4.8193343E-2,-0E0,-8.705518E-2,-0E0,-5.4592967E-2,2.7676832E-2,-8.915119E-3,-4.025722E-2,8.066558E-2,2.9599048E-2],"categories":[],"categories_nodes":[],"categories_segments":[],"categories_sizes":[],"default_left":[0,0,0,0,0,0,0,0,0,0,0,0,0,0,0,0,0,0,0,0,0,0,0,0,0,0,0,0,0,0,0],"id":11,"left_children":[1,3,5,7,9,11,13,15,17,19,21,23,25,27,29,-1,-1,-1,-1,-1,-1,-1,-1,-1,-1,-1,-1,-1,-1,-1,-1],"loss_changes":[7.2155505E2,3.6781714E2,1.8639493E2,3.0335095E2,1.0694403E2,3.1060638E1,1.3221526E2,1.6705237E2,8.75905E1,5.2723694E0,8.821063E1,7.2335205E0,2.633696E1,1.13679535E2,1.4641708E1,0E0,0E0,0E0,0E0,0E0,0E0,0E0,0E0,0E0,0E0,0E0,0E0,0E0,0E0,0E0,0E0],"parents":[2147483647,0,0,1,1,2,2,3,3,4,4,5,5,6,6,7,7,8,8,9,9,10,10,11,11,12,12,13,13,14,14],"right_children":[2,4,6,8,10,12,14,16,18,20,22,24,26,28,30,-1,-1,-1,-1,-1,-1,-1,-1,-1,-1,-1,-1,-1,-1,-1,-1],"split_conditions":[6.236415E-2,1.1288245E0,-7.7804154E-1,7.471312E-1,-1.782715E-1,-8.983125E-1,3.590793E0,7.533342E-1,-3.2712993E-1,1.9201998E0,1.588173E0,-2.9929984E-1,3.590793E0,4.3866363E-1,2.6006615E-1,8.83107E-3,5.382317E-2,-7.9106465E-2,-1.9883823E-2,9.6767485E-2,6.2124778E-2,4.8193343E-2,-0E0,-8.705518E-2,-0E0,-5.4592967E-2,2.7676832E-2,-8.915119E-3,-4.025722E-2,8.066558E-2,2.9599048E-2],"split_indices":[14,3,12,2,2,12,10,0,3,7,7,120,10,2,7,0,0,0,0,0,0,0,0,0,0,0,0,0,0,0,0],"split_type":[0,0,0,0,0,0,0,0,0,0,0,0,0,0,0,0,0,0,0,0,0,0,0,0,0,0,0,0,0,0,0],"sum_hessian":[1.72778E4,1.1877234E4,5.400566E3,9.582111E3,2.295123E3,1.1032477E3,4.2973184E3,7.6253936E3,1.9567175E3,3.938322E2,1.9012908E3,3.5477994E2,7.484678E2,4.0800684E3,2.1725012E2,6.8264565E3,7.9893726E2,2.4873837E2,1.7079791E3,3.2266812E2,7.116411E1,1.4731372E3,4.2815363E2,3.4731943E2,7.460501E0,7.152127E2,3.325507E1,2.2741301E3,1.8059381E3,8.982897E1,1.2742114E2],"tree_param":{"num_deleted":"0","num_feature":"162","num_nodes":"31","size_leaf_vector":"1"}},{"base_weights":[3.124078E-3,-1.3093145E-1,3.0096713E-1,-1.6895333E-1,5.5579585E-1,3.523115E-1,-3.0978414E-1,-1.03628784E-1,-5.535095E-1,6.9137406E-1,2.0273706E-2,7.488675E-1,2.8483662E-1,3.4194994E-1,-4.2307782E-1,-1.6278459E-2,2.7612785E-2,-6.284874E-2,-1.1721708E-2,5.0645817E-2,9.549997E-2,-1.8525016E-2,3.730007E-2,7.512212E-2,3.3747885E-2,3.500127E-2,5.3217723E-3,4.8451703E-2,-4.364108E-2,-6.4693704E-2,-5.947192E-3],"categories":[],"categories_nodes":[],"categories_segments":[],"categories_sizes":[],"default_left":[0,0,0,0,0,0,0,0,0,0,0,0,0,0,0,0,0,0,0,0,0,0,0,0,0,0,0,0,0,0,0],"id":12,"left_children":[1,3,5,7,9,11,13,15,17,19,21,23,25,27,29,-1,-1,-1,-1,-1,-1,-1,-1,-1,-1,-1,-1,-1,-1,-1,-1],"loss_changes":[6.898934E2,3.1071857E2,1.6836719E2,2.8286325E2,4.458484E1,1.312196E2,3.088335E1,2.7536304E2,8.4354126E1,2.2330963E1,1.1010951E1,1.4699097E1,8.750806E1,9.121536E0,3.3940006E1,0E0,0E0,0E0,0E0,0E0,0E0,0E0,0E0,0E0,0E0,0E0,0E0,0E0,0E0,0E0,0E0],"parents":[2147483647,0,0,1,1,2,2,3,3,4,4,5,5,6,6,7,7,8,8,9,9,10,10,11,11,12,12,13,13,14,14],"right_children":[2,4,6,8,10,12,14,16,18,20,22,24,26,28,30,-1,-1,-1,-1,-1,-1,-1,-1,-1,-1,-1,-1,-1,-1,-1,-1],"split_conditions":[7.2571505E-3,3.590793E0,3.0394166E0,1.3640664E0,3.0394166E0,-8.5265744E-1,-1.782715E-1,1.1366038E0,1.7001522E0,1.1288245E0,8.5482955E-1,7.471312E-1,9.241196E-1,-4.7961017E-1,5.730554E-1,-1.6278459E-2,2.7612785E-2,-6.284874E-2,-1.1721708E-2,5.0645817E-2,9.549997E-2,-1.8525016E-2,3.730007E-2,7.512212E-2,3.3747885E-2,3.500127E-2,5.3217723E-3,4.8451703E-2,-4.364108E-2,-6.4693704E-2,-5.947192E-3],"split_indices":[12,10,11,2,11,14,2,6,6,3,6,2,7,14,6,0,0,0,0,0,0,0,0,0,0,0,0,0,0,0,0],"split_type":[0,0,0,0,0,0,0,0,0,0,0,0,0,0,0,0,0,0,0,0,0,0,0,0,0,0,0,0,0,0,0],"sum_hessian":[1.7272379E4,1.190944E4,5.3629385E3,1.1286753E4,6.2268774E2,4.948935E3,4.1400333E2,9.651192E3,1.6355607E3,4.9519717E2,1.2749061E2,7.1595496E2,4.2329805E3,5.972237E1,3.5428094E2,8.195045E3,1.4561469E3,1.2707227E3,3.6483795E2,3.4793103E2,1.4726616E2,7.958812E1,4.7902485E1,6.188604E2,9.709451E1,3.018297E3,1.2146833E3,5.0234562E1,9.487809E0,1.9948573E2,1.5479521E2],"tree_param":{"num_deleted":"0","num_feature":"162","num_nodes":"31","size_leaf_vector":"1"}},{"base_weights":[3.0676648E-3,-3.1739807E-1,1.01935305E-1,-4.574485E-1,-1.327286E-1,1.9059636E-1,-1.8078299E-1,-3.0523124E-1,-7.683796E-1,4.751363E-1,-2.4554312E-1,5.8334712E-2,4.521118E-1,-4.4957954E-1,1.487559E-3,-3.131552E-2,5.3205825E-2,-7.830669E-2,-8.755047E-3,2.1023961E-4,5.7875004E-2,-3.8996123E-2,4.77655E-3,1.4238988E-2,-1.5317846E-2,7.957387E-2,2.8937269E-2,-7.891148E-2,-2.5924018E-2,-8.123127E-3,6.065832E-2],"categories":[],"categories_nodes":[],"categories_segments":[],"categories_sizes":[],"default_left":[0,0,0,0,0,0,0,0,0,0,0,0,0,0,0,0,0,0,0,0,0,0,0,0,0,0,0,0,0,0,0],"id":13,"left_children":[1,3,5,7,9,11,13,15,17,19,21,23,25,27,29,-1,-1,-1,-1,-1,-1,-1,-1,-1,-1,-1,-1,-1,-1,-1,-1],"loss_changes":[5.4280725E2,1.0381198E2,3.2841507E2,1.0724783E2,1.1965832E2,3.4452454E2,1.5355894E2,4.2272446E1,3.5976257E1,1.8292656E1,7.6333496E1,1.3989548E2,1.8903204E2,8.483603E1,1.0805428E2,0E0,0E0,0E0,0E0,0E0,0E0,0E0,0E0,0E0,0E0,0E0,0E0,0E0,0E0,0E0,0E0],"parents":[2147483647,0,0,1,1,2,2,3,3,4,4,5,5,6,6,7,7,8,8,9,9,10,10,11,11,12,12,13,13,14,14],"right_children":[2,4,6,8,10,12,14,16,18,20,22,24,26,28,30,-1,-1,-1,-1,-1,-1,-1,-1,-1,-1,-1,-1,-1,-1,-1,-1],"split_conditions":[-5.2335006E-1,3.6858663E-2,7.471312E-1,4.3866363E-1,1.3019606E-1,4.0084726E-1,4.0084726E-1,1.1597122E0,2.2637007E0,9.506951E-3,1.1366038E0,-1.782715E-1,-1.782715E-1,2.9128116E-1,1.7001522E0,-3.131552E-2,5.3205825E-2,-7.830669E-2,-8.755047E-3,2.1023961E-4,5.7875004E-2,-3.8996123E-2,4.77655E-3,1.4238988E-2,-1.5317846E-2,7.957387E-2,2.8937269E-2,-7.891148E-2,-2.5924018E-2,-8.123127E-3,6.065832E-2],"split_indices":[12,3,2,2,2,3,3,0,6,6,6,2,2,6,6,0,0,0,0,0,0,0,0,0,0,0,0,0,0,0,0],"split_type":[0,0,0,0,0,0,0,0,0,0,0,0,0,0,0,0,0,0,0,0,0,0,0,0,0,0,0,0,0,0,0],"sum_hessian":[1.713647E4,4.0374524E3,1.3099018E4,2.2922275E3,1.745225E3,9.974704E3,3.1243132E3,1.5423954E3,7.498321E2,2.7131024E2,1.4739148E3,6.6277407E3,3.3469639E3,1.2640016E3,1.8603118E3,1.4910349E3,5.1360363E1,6.750423E2,7.478978E1,6.606665E1,2.0524359E2,9.320983E2,5.4181647E2,4.655528E3,1.972213E3,8.6533685E2,2.481627E3,3.767289E2,8.8727264E2,1.6363763E3,2.2393541E2],"tree_param":{"num_deleted":"0","num_feature":"162","num_nodes":"31","size_leaf_vector":"1"}},{"base_weights":[-5.7895323E-3,-1.0533424E-1,2.933928E-1,-4.8833735E-2,-4.7246268E-1,3.412529E-1,-2.695685E-1,-7.863353E-3,-5.0801146E-1,-5.373467E-1,5.6635335E-2,2.4560961E-1,5.7455075E-1,7.4346256E-1,-3.2681236E-1,2.1735742E-3,-3.8023777E-2,1.4498175E-2,-5.3510614E-2,-4.219572E-2,-7.958006E-2,-3.1225197E-2,2.4911333E-2,2.7566984E-2,-3.0275824E-2,6.2440287E-2,3.0479902E-2,9.1654524E-2,-0E0,-8.934914E-3,-5.2390486E-2],"categories":[],"categories_nodes":[],"categories_segments":[],"categories_sizes":[],"default_left":[0,0,0,0,0,0,0,0,0,0,0,0,0,0,0,0,0,0,0,0,0,0,0,0,0,0,0,0,0,0,0],"id":14,"left_children":[1,3,5,7,9,11,13,15,17,19,21,23,25,27,29,-1,-1,-1,-1,-1,-1,-1,-1,-1,-1,-1,-1,-1,-1,-1,-1],"loss_changes":[5.0878116E2,2.6550848E2,1.15058136E2,2.0866315E2,5.913916E1,8.679138E1,1.9177073E1,1.2810602E2,4.089003E1,3.895227E1,1.5418573E1,8.076436E1,2.5923035E1,2.6131172E0,1.6577377E1,0E0,0E0,0E0,0E0,0E0,0E0,0E0,0E0,0E0,0E0,0E0,0E0,0E0,0E0,0E0,0E0],"parents":[2147483647,0,0,1,1,2,2,3,3,4,4,5,5,6,6,7,7,8,8,9,9,10,10,11,11,12,12,13,13,14,14],"right_children":[2,4,6,8,10,12,14,16,18,20,22,24,26,28,30,-1,-1,-1,-1,-1,-1,-1,-1,-1,-1,-1,-1,-1,-1,-1,-1],"split_conditions":[9.215431E-2,1.002021E0,3.0394166E0,3.0394166E0,1.6632495E0,1.0684716E0,-4.8673907E-1,1.588173E0,-1.782715E-1,2.7686388E0,-2.8532588E-1,1.9201998E0,1.2561463E0,1.2843603E0,5.920929E-1,2.1735742E-3,-3.8023777E-2,1.4498175E-2,-5.3510614E-2,-4.219572E-2,-7.958006E-2,-3.1225197E-2,2.4911333E-2,2.7566984E-2,-3.0275824E-2,6.2440287E-2,3.0479902E-2,9.1654524E-2,-0E0,-8.934914E-3,-5.2390486E-2],"split_indices":[12,14,11,11,9,12,2,7,2,13,21,7,7,4,7,0,0,0,0,0,0,0,0,0,0,0,0,0,0,0,0],"split_type":[0,0,0,0,0,0,0,0,0,0,0,0,0,0,0,0,0,0,0,0,0,0,0,0,0,0,0,0,0,0,0],"sum_hessian":[1.7087414E4,1.2824386E4,4.263028E3,1.1117309E4,1.7070773E3,3.9309805E3,3.320475E2,1.0209561E4,9.0774774E2,1.5222178E3,1.8485942E2,2.7925186E3,1.1384619E3,1.6163105E1,3.1588437E2,9.470331E3,7.3922943E2,8.170891E1,8.260388E2,1.208514E3,3.137038E2,6.284901E1,1.22010414E2,2.5672395E3,2.252789E2,8.1487305E2,3.2358887E2,1.1441755E1,4.72135E0,1.6257657E2,1.5330782E2],"tree_param":{"num_deleted":"0","num_feature":"162","num_nodes":"31","size_leaf_vector":"1"}},{"base_weights":[2.3113983E-3,-9.3581684E-2,2.8574058E-1,2.5810987E-2,-3.42568E-1,6.3581395E-1,1.5098567E-1,-4.3856155E-2,3.823337E-1,-7.609989E-1,-2.3997308E-1,1.0199385E0,5.392673E-1,-2.0970155E-2,3.3637163E-1,1.1677887E-2,-1.4957377E-2,7.150263E-2,1.9586705E-2,-9.174287E-2,-5.696297E-2,-3.9784543E-2,4.054507E-4,9.554787E-2,-0E0,6.0698368E-2,1.1490233E-2,6.420491E-3,-3.9943393E-2,4.2058848E-2,-7.2556003E-3],"categories":[],"categories_nodes":[],"categories_segments":[],"categories_sizes":[],"default_left":[0,0,0,0,0,0,0,0,0,0,0,0,0,0,0,0,0,0,0,0,0,0,0,0,0,0,0,0,0,0,0],"id":15,"left_children":[1,3,5,7,9,11,13,15,17,19,21,23,25,27,29,-1,-1,-1,-1,-1,-1,-1,-1,-1,-1,-1,-1,-1,-1,-1,-1],"loss_changes":[4.6248178E2,3.7805438E2,2.0210315E2,2.136264E2,1.7574527E2,4.216028E1,9.945679E1,1.4217018E2,9.2149216E1,2.4888458E1,1.5218776E2,1.6410675E0,4.414923E1,5.9568066E1,7.217815E1,0E0,0E0,0E0,0E0,0E0,0E0,0E0,0E0,0E0,0E0,0E0,0E0,0E0,0E0,0E0,0E0],"parents":[2147483647,0,0,1,1,2,2,3,3,4,4,5,5,6,6,7,7,8,8,9,9,10,10,11,11,12,12,13,13,14,14],"right_children":[2,4,6,8,10,12,14,16,18,20,22,24,26,28,30,-1,-1,-1,-1,-1,-1,-1,-1,-1,-1,-1,-1,-1,-1,-1,-1],"split_conditions":[7.6483583E-1,4.3866363E-1,1.3019606E-1,5.730554E-1,-3.2712993E-1,-4.8673907E-1,5.730554E-1,-2.2450803E-1,-1.782715E-1,5.730554E-1,8.5482955E-1,2.4236681E0,1.588173E0,1.3640664E0,1.672534E0,1.1677887E-2,-1.4957377E-2,7.150263E-2,1.9586705E-2,-9.174287E-2,-5.696297E-2,-3.9784543E-2,4.054507E-4,9.554787E-2,-0E0,6.0698368E-2,1.1490233E-2,6.420491E-3,-3.9943393E-2,4.2058848E-2,-7.2556003E-3],"split_indices":[3,2,2,6,3,2,6,109,2,6,6,4,7,2,2,0,0,0,0,0,0,0,0,0,0,0,0,0,0,0,0],"split_type":[0,0,0,0,0,0,0,0,0,0,0,0,0,0,0,0,0,0,0,0,0,0,0,0,0,0,0,0,0,0,0],"sum_hessian":[1.7007223E4,1.2705768E4,4.3014556E3,8.58582E3,4.119948E3,1.19245E3,3.1090056E3,7.18086E3,1.4049602E3,8.0803516E2,3.311913E3,2.354255E2,9.570245E2,1.6107147E3,1.4982908E3,2.9286843E3,4.2521753E3,4.3001254E2,9.7494763E2,3.1704816E2,4.9098697E2,1.8756554E3,1.4362577E3,2.339051E2,1.5204092E0,7.5031665E2,2.0670786E2,1.3186526E3,2.9206216E2,1.173332E3,3.2495874E2],"tree_param":{"num_deleted":"0","num_feature":"162","num_nodes":"31","size_leaf_vector":"1"}},{"base_weights":[3.4172204E-3,-6.521254E-2,3.623666E-1,5.7335226E-3,-4.2374134E-1,5.945246E-1,1.8797551E-1,-6.8307236E-2,2.2899827E-1,-5.217024E-1,-1.7833889E-2,7.7677125E-1,4.0480694E-1,2.590793E-1,-2.599189E-1,3.8607246E-3,-2.7010672E-2,6.534844E-2,1.2410653E-2,-7.101763E-2,-3.5496432E-2,-2.1163875E-2,3.0505972E-2,6.679485E-2,1.043285E-1,9.666997E-2,2.8363852E-2,1.0609273E-2,5.0982106E-2,-4.104389E-2,1.0676213E-3],"categories":[],"categories_nodes":[],"categories_segments":[],"categories_sizes":[],"default_left":[0,0,0,0,0,0,0,0,0,0,0,0,0,0,0,0,0,0,0,0,0,0,0,0,0,0,0,0,0,0,0],"id":16,"left_children":[1,3,5,7,9,11,13,15,17,19,21,23,25,27,29,-1,-1,-1,-1,-1,-1,-1,-1,-1,-1,-1,-1,-1,-1,-1,-1],"loss_changes":[4.1639188E2,3.610336E2,1.0897772E2,1.9580396E2,9.268515E1,3.8660645E1,4.9544205E1,2.1672372E2,1.3263129E2,6.246515E1,3.321497E1,9.317047E0,3.47415E1,5.554812E1,1.0815373E1,0E0,0E0,0E0,0E0,0E0,0E0,0E0,0E0,0E0,0E0,0E0,0E0,0E0,0E0,0E0,0E0],"parents":[2147483647,0,0,1,1,2,2,3,3,4,4,5,5,6,6,7,7,8,8,9,9,10,10,11,11,12,12,13,13,14,14],"right_children":[2,4,6,8,10,12,14,16,18,20,22,24,26,28,30,-1,-1,-1,-1,-1,-1,-1,-1,-1,-1,-1,-1,-1,-1,-1,-1],"split_conditions":[1.1288245E0,1.0555987E0,4.3866363E-1,5.730554E-1,1.7001522E0,9.241196E-1,1.9810015E0,-1.782715E-1,-1.782715E-1,3.6858663E-2,6.5789014E-1,3.590793E0,-4.8673907E-1,8.5482955E-1,1.8568016E0,3.8607246E-3,-2.7010672E-2,6.534844E-2,1.2410653E-2,-7.101763E-2,-3.5496432E-2,-2.1163875E-2,3.0505972E-2,6.679485E-2,1.043285E-1,9.666997E-2,2.8363852E-2,1.0609273E-2,5.0982106E-2,-4.104389E-2,1.0676213E-3],"split_indices":[3,2,2,6,6,7,2,2,2,3,5,10,2,6,3,0,0,0,0,0,0,0,0,0,0,0,0,0,0,0,0],"split_type":[0,0,0,0,0,0,0,0,0,0,0,0,0,0,0,0,0,0,0,0,0,0,0,0,0,0,0,0,0,0,0],"sum_hessian":[1.6888928E4,1.4176602E4,2.7123254E3,1.1833365E4,2.3432363E3,1.159968E3,1.5523574E3,8.8837E3,2.9496658E3,1.8855004E3,4.5773593E2,5.8732733E2,5.726407E2,1.3419388E3,2.1041855E2,5.940995E3,2.9427048E3,4.9315564E2,2.45651E3,6.888158E2,1.1966846E3,2.86925E2,1.7081094E2,5.0653522E2,8.07921E1,7.535831E1,4.972824E2,8.9635504E2,4.4558383E2,1.2794033E2,8.2478226E1],"tree_param":{"num_deleted":"0","num_feature":"162","num_nodes":"31","size_leaf_vector":"1"}},{"base_weights":[-6.436865E-4,-1.1910488E-1,2.0062266E-1,-3.6110717E-1,-3.206111E-2,3.7279177E-1,4.9914375E-2,-3.0469427E-1,-7.691351E-1,3.9666735E-2,-3.1338567E-1,5.9767455E-1,2.1217231E-1,-4.483914E-2,4.348236E-1,-3.1655487E-2,4.310145E-2,-5.0893195E-2,-8.376551E-2,-6.3166313E-4,3.530613E-2,-5.7836156E-2,-2.0929994E-2,6.0124103E-2,1.5394095E-2,2.5333604E-2,-2.4666758E-2,2.5141245E-2,-1.0504085E-2,6.0199425E-2,1.7240282E-2],"categories":[],"categories_nodes":[],"categories_segments":[],"categories_sizes":[],"default_left":[0,0,0,0,0,0,0,0,0,0,0,0,0,0,0,0,0,0,0,0,0,0,0,0,0,0,0,0,0,0,0],"id":17,"left_children":[1,3,5,7,9,11,13,15,17,19,21,23,25,27,29,-1,-1,-1,-1,-1,-1,-1,-1,-1,-1,-1,-1,-1,-1,-1,-1],"loss_changes":[4.0015662E2,2.222663E2,1.6087486E2,6.3000122E1,1.5723233E2,1.0377603E2,1.214527E2,6.6922516E1,7.8597565E0,9.813745E1,4.218843E1,2.427246E1,4.8643852E1,5.692654E1,3.387056E1,0E0,0E0,0E0,0E0,0E0,0E0,0E0,0E0,0E0,0E0,0E0,0E0,0E0,0E0,0E0,0E0],"parents":[2147483647,0,0,1,1,2,2,3,3,4,4,5,5,6,6,7,7,8,8,9,9,10,10,11,11,12,12,13,13,14,14],"right_children":[2,4,6,8,10,12,14,16,18,20,22,24,26,28,30,-1,-1,-1,-1,-1,-1,-1,-1,-1,-1,-1,-1,-1,-1,-1,-1],"split_conditions":[4.0084726E-1,-5.2335006E-1,5.920929E-1,2.761678E0,5.920929E-1,-3.3531833E-1,1.8568016E0,2.2637007E0,3.1020036E0,5.024906E-1,-3.2712993E-1,3.0394166E0,3.0394166E0,-6.872497E-1,-2.1088247E-1,-3.1655487E-2,4.310145E-2,-5.0893195E-2,-8.376551E-2,-6.3166313E-4,3.530613E-2,-5.7836156E-2,-2.0929994E-2,6.0124103E-2,1.5394095E-2,2.5333604E-2,-2.4666758E-2,2.5141245E-2,-1.0504085E-2,6.0199425E-2,1.7240282E-2],"split_indices":[3,12,7,14,7,14,3,6,112,12,3,11,11,14,124,0,0,0,0,0,0,0,0,0,0,0,0,0,0,0,0],"split_type":[0,0,0,0,0,0,0,0,0,0,0,0,0,0,0,0,0,0,0,0,0,0,0,0,0,0,0,0,0,0,0],"sum_hessian":[1.6784654E4,1.0569132E4,6.215522E3,2.7920508E3,7.777081E3,2.897456E3,3.3180657E3,2.4566572E3,3.3539343E2,6.195049E3,1.5820319E3,1.2034901E3,1.6939661E3,2.6613562E3,6.567094E2,2.3500574E3,1.0659995E2,1.2911613E2,2.0627731E2,5.448197E3,7.4685236E2,3.4917084E2,1.232861E3,1.079937E3,1.2355319E2,1.506896E3,1.8707005E2,4.695871E2,2.191769E3,3.520586E2,3.0465085E2],"tree_param":{"num_deleted":"0","num_feature":"162","num_nodes":"31","size_leaf_vector":"1"}},{"base_weights":[-6.709361E-4,2.3765056E-1,-8.812607E-2,2.8087923E-1,-2.6580566E-1,-1.2013014E-1,4.834748E-1,2.0353419E-1,5.412209E-1,-6.060685E-1,-0E0,-4.547995E-1,-7.322022E-2,1.5966034E-1,6.046257E-1,2.3338852E-2,-1.0557296E-2,5.7671905E-2,2.2063516E-2,-6.9270425E-2,-0E0,1.3528987E-2,-5.6578923E-2,-6.8614036E-2,-3.4831923E-2,-1.0400167E-2,3.810328E-2,3.97893E-2,-5.972948E-3,5.8735736E-2,-5.1620558E-2],"categories":[],"categories_nodes":[],"categories_segments":[],"categories_sizes":[],"default_left":[0,0,0,0,0,0,0,0,0,0,0,0,0,0,0,0,0,0,0,0,0,0,0,0,0,0,0,0,0,0,0],"id":18,"left_children":[1,3,5,7,9,11,13,15,17,19,21,23,25,27,29,-1,-1,-1,-1,-1,-1,-1,-1,-1,-1,-1,-1,-1,-1,-1,-1],"loss_changes":[3.4977502E2,9.811928E1,2.244436E2,8.27283E1,3.2104927E1,1.8212874E2,2.4654678E1,4.813823E1,2.160968E1,1.34724655E1,1.7797424E1,3.1103699E1,1.8959636E2,1.121042E1,1.4891205E1,0E0,0E0,0E0,0E0,0E0,0E0,0E0,0E0,0E0,0E0,0E0,0E0,0E0,0E0,0E0,0E0],"parents":[2147483647,0,0,1,1,2,2,3,3,4,4,5,5,6,6,7,7,8,8,9,9,10,10,11,11,12,12,13,13,14,14],"right_children":[2,4,6,8,10,12,14,16,18,20,22,24,26,28,30,-1,-1,-1,-1,-1,-1,-1,-1,-1,-1,-1,-1,-1,-1,-1,-1],"split_conditions":[-4.7609088E-1,3.0394166E0,3.590793E0,1.1321445E0,2.9128116E-1,-7.3559296E-1,9.506951E-3,1.588173E0,1.588173E0,3.590793E0,1.3640664E0,-7.478019E-1,1.7001522E0,1.3019606E-1,6.362465E0,2.3338852E-2,-1.0557296E-2,5.7671905E-2,2.2063516E-2,-6.9270425E-2,-0E0,1.3528987E-2,-5.6578923E-2,-6.8614036E-2,-3.4831923E-2,-1.0400167E-2,3.810328E-2,3.97893E-2,-5.972948E-3,5.8735736E-2,-5.1620558E-2],"split_indices":[14,11,10,12,6,12,6,7,7,10,2,110,6,2,11,0,0,0,0,0,0,0,0,0,0,0,0,0,0,0,0],"split_type":[0,0,0,0,0,0,0,0,0,0,0,0,0,0,0,0,0,0,0,0,0,0,0,0,0,0,0,0,0,0,0],"sum_hessian":[1.6786645E4,4.502927E3,1.2283718E4,4.1490713E3,3.5385553E2,1.1634827E4,6.488907E2,3.2031016E3,9.459699E2,1.5459438E2,1.9926114E2,1.4266511E3,1.0208177E4,1.7953014E2,4.6936053E2,2.7905234E3,4.125782E2,7.485853E2,1.9738455E2,1.2646142E2,2.8132957E1,1.6147906E2,3.7782078E1,3.1192715E2,1.114724E3,9.456152E3,7.520244E2,8.3248375E1,9.628175E1,4.6017752E2,9.183011E0],"tree_param":{"num_deleted":"0","num_feature":"162","num_nodes":"31","size_leaf_vector":"1"}},{"base_weights":[8.541174E-3,-9.374503E-2,1.8420337E-1,-3.135148E-1,-1.7120002E-2,1.3194545E-1,6.343542E-1,-2.5763622E-1,-6.186023E-1,1.8567381E-2,-4.6783057E-1,1.788149E-1,-3.452832E-1,6.575083E-1,-6.31277E-1,-2.717497E-2,2.3286896E-2,-6.8373166E-2,-2.9368639E-2,6.003743E-3,-2.481347E-2,-5.7369694E-2,3.6868546E-2,1.138792E-2,4.783146E-2,-6.1109915E-2,-1.5159091E-2,5.1317204E-2,8.029038E-2,-0E0,-1.20314755E-1],"categories":[],"categories_nodes":[],"categories_segments":[],"categories_sizes":[],"default_left":[0,0,0,0,0,0,0,0,0,0,0,0,0,0,0,0,0,0,0,0,0,0,0,0,0,0,0,0,0,0,0],"id":19,"left_children":[1,3,5,7,9,11,13,15,17,19,21,23,25,27,29,-1,-1,-1,-1,-1,-1,-1,-1,-1,-1,-1,-1,-1,-1,-1,-1],"loss_changes":[2.9974063E2,1.7710751E2,1.4362268E2,4.5360382E1,1.2617774E2,1.2304531E2,1.9126434E1,4.0314224E1,1.3423416E1,9.471177E1,7.436885E1,9.420596E1,2.6965622E1,1.1756531E1,4.0427685E0,0E0,0E0,0E0,0E0,0E0,0E0,0E0,0E0,0E0,0E0,0E0,0E0,0E0,0E0,0E0,0E0],"parents":[2147483647,0,0,1,1,2,2,3,3,4,4,5,5,6,6,7,7,8,8,9,9,10,10,11,11,12,12,13,13,14,14],"right_children":[2,4,6,8,10,12,14,16,18,20,22,24,26,28,30,-1,-1,-1,-1,-1,-1,-1,-1,-1,-1,-1,-1,-1,-1,-1,-1],"split_conditions":[4.0084726E-1,-5.2335006E-1,3.590793E0,2.1120276E0,3.0394166E0,3.0394166E0,6.362465E0,1.9819264E0,1.418378E0,5.291585E-1,1.7001522E0,1.418378E0,2.9128116E-1,1.492813E0,7.8257686E-1,-2.717497E-2,2.3286896E-2,-6.8373166E-2,-2.9368639E-2,6.003743E-3,-2.481347E-2,-5.7369694E-2,3.6868546E-2,1.138792E-2,4.783146E-2,-6.1109915E-2,-1.5159091E-2,5.1317204E-2,8.029038E-2,-0E0,-1.20314755E-1],"split_indices":[3,12,10,26,11,11,11,6,6,1,6,6,6,3,131,0,0,0,0,0,0,0,0,0,0,0,0,0,0,0,0],"split_type":[0,0,0,0,0,0,0,0,0,0,0,0,0,0,0,0,0,0,0,0,0,0,0,0,0,0,0,0,0,0,0],"sum_hessian":[1.6675092E4,1.0535423E4,6.1396694E3,2.7195264E3,7.8158965E3,5.5042305E3,6.3543896E2,2.3029004E3,4.1662616E2,7.2414077E3,5.744887E2,5.014455E3,4.8977533E2,6.252832E2,1.0155791E1,2.1592092E3,1.4369118E2,2.9783694E2,1.1878919E2,6.240348E3,1.00105963E3,4.914028E2,8.308594E1,4.295246E3,7.192092E2,1.7794374E2,3.1183157E2,4.1787436E2,2.0740881E2,6.1372414E0,4.0185504E0],"tree_param":{"num_deleted":"0","num_feature":"162","num_nodes":"31","size_leaf_vector":"1"}},{"base_weights":[1.3067628E-3,6.449734E-2,-2.7937555E-1,-7.486575E-2,2.3551956E-1,-5.795244E-1,-1.679379E-1,1.2082346E-2,-3.268151E-1,9.7810316E-1,1.7828223E-1,-7.5067216E-1,-3.4454304E-1,-4.7695243E-1,-5.631031E-2,3.274089E-2,-4.121502E-3,-4.7044653E-2,1.6321446E-3,9.314162E-2,-0E0,4.310066E-3,4.1237194E-2,-7.6776855E-2,-3.9130956E-2,-9.065681E-3,-6.0449388E-2,-5.7343043E-2,-5.097074E-3,3.927709E-3,-2.9481594E-2],"categories":[],"categories_nodes":[],"categories_segments":[],"categories_sizes":[],"default_left":[0,0,0,0,0,0,0,0,0,0,0,0,0,0,0,0,0,0,0,0,0,0,0,0,0,0,0,0,0,0,0],"id":20,"left_children":[1,3,5,7,9,11,13,15,17,19,21,23,25,27,29,-1,-1,-1,-1,-1,-1,-1,-1,-1,-1,-1,-1,-1,-1,-1,-1],"loss_changes":[2.9510593E2,3.2415833E2,1.01416016E2,1.6433551E2,2.5825067E2,3.1833344E1,7.6483315E1,1.0687051E2,1.18850845E2,9.490265E0,1.9772887E2,1.0045105E1,2.573719E1,3.3992737E1,4.2463036E1,0E0,0E0,0E0,0E0,0E0,0E0,0E0,0E0,0E0,0E0,0E0,0E0,0E0,0E0,0E0,0E0],"parents":[2147483647,0,0,1,1,2,2,3,3,4,4,5,5,6,6,7,7,8,8,9,9,10,10,11,11,12,12,13,13,14,14],"right_children":[2,4,6,8,10,12,14,16,18,20,22,24,26,28,30,-1,-1,-1,-1,-1,-1,-1,-1,-1,-1,-1,-1,-1,-1,-1,-1],"split_conditions":[1.0555987E0,3.6858663E-2,3.6858663E-2,-1.782715E-1,-4.8673907E-1,1.1366038E0,2.9128116E-1,-1.9956575E-1,7.533342E-1,2.91628E0,6.1787486E-1,5.8454347E-1,5.919764E-1,1.492813E0,1.9810015E0,3.274089E-2,-4.121502E-3,-4.7044653E-2,1.6321446E-3,9.314162E-2,-0E0,4.310066E-3,4.1237194E-2,-7.6776855E-2,-3.9130956E-2,-9.065681E-3,-6.0449388E-2,-5.7343043E-2,-5.097074E-3,3.927709E-3,-2.9481594E-2],"split_indices":[2,3,3,2,2,6,6,125,0,7,0,142,69,3,2,0,0,0,0,0,0,0,0,0,0,0,0,0,0,0,0],"split_type":[0,0,0,0,0,0,0,0,0,0,0,0,0,0,0,0,0,0,0,0,0,0,0,0,0,0,0,0,0,0,0],"sum_hessian":[1.664791E4,1.359216E4,3.0557505E3,7.486493E3,6.1056675E3,8.237697E2,2.231981E3,5.5636543E3,1.9228389E3,4.344848E2,5.6711826E3,4.7286917E2,3.509005E2,5.890718E2,1.6429092E3,7.9341705E2,4.770237E3,1.2674971E3,6.553418E2,4.2444055E2,1.0044259E1,3.7881655E3,1.8830172E3,3.823235E2,9.0545685E1,1.963698E2,1.5453073E2,4.4092133E2,1.4815044E2,1.1900103E3,4.528989E2],"tree_param":{"num_deleted":"0","num_feature":"162","num_nodes":"31","size_leaf_vector":"1"}},{"base_weights":[3.2815794E-3,4.8658956E-2,-3.4229445E-1,-7.148434E-2,1.853265E-1,-4.252463E-1,7.707204E-2,1.8543249E-2,-2.9433993E-1,6.2316066E-1,9.975618E-2,-2.612325E-1,-5.434705E-1,2.280951E-1,-2.5204194E-1,3.6496468E-2,-2.0224662E-3,-3.8687482E-2,9.403107E-3,8.5675515E-2,4.1489188E-2,2.7109453E-2,-8.0435425E-3,-1.3176692E-2,-4.181293E-2,-6.234961E-2,-2.9793944E-2,2.9885983E-2,-1.9272693E-2,-5.346561E-3,-7.61661E-2],"categories":[],"categories_nodes":[],"categories_segments":[],"categories_sizes":[],"default_left":[0,0,0,0,0,0,0,0,0,0,0,0,0,0,0,0,0,0,0,0,0,0,0,0,0,0,0,0,0,0,0],"id":21,"left_children":[1,3,5,7,9,11,13,15,17,19,21,23,25,27,29,-1,-1,-1,-1,-1,-1,-1,-1,-1,-1,-1,-1,-1,-1,-1,-1],"loss_changes":[2.598759E2,2.4095552E2,6.727347E1,1.5681532E2,2.564646E2,3.0240997E1,1.5773761E1,8.395666E1,1.0821423E2,5.7336792E1,2.0513965E2,1.4634705E1,2.5071991E1,9.071041E0,9.90992E0,0E0,0E0,0E0,0E0,0E0,0E0,0E0,0E0,0E0,0E0,0E0,0E0,0E0,0E0,0E0,0E0],"parents":[2147483647,0,0,1,1,2,2,3,3,4,4,5,5,6,6,7,7,8,8,9,9,10,10,11,11,12,12,13,13,14,14],"right_children":[2,4,6,8,10,12,14,16,18,20,22,24,26,28,30,-1,-1,-1,-1,-1,-1,-1,-1,-1,-1,-1,-1,-1,-1,-1,-1],"split_conditions":[1.3640664E0,3.6858663E-2,1.492813E0,-1.782715E-1,-1.782715E-1,3.5959762E-1,1.2561463E0,-3.2347625E-1,1.0242529E0,-4.8673907E-1,5.920929E-1,3.6843604E-1,1.5660901E0,2.5979366E0,2.289469E0,3.6496468E-2,-2.0224662E-3,-3.8687482E-2,9.403107E-3,8.5675515E-2,4.1489188E-2,2.7109453E-2,-8.0435425E-3,-1.3176692E-2,-4.181293E-2,-6.234961E-2,-2.9793944E-2,2.9885983E-2,-1.9272693E-2,-5.346561E-3,-7.61661E-2],"split_indices":[2,3,3,2,2,69,7,124,0,2,7,1,0,2,2,0,0,0,0,0,0,0,0,0,0,0,0,0,0,0,0],"split_type":[0,0,0,0,0,0,0,0,0,0,0,0,0,0,0,0,0,0,0,0,0,0,0,0,0,0,0,0,0,0,0],"sum_hessian":[1.6588201E4,1.466613E4,1.9220721E3,7.801409E3,6.86472E3,1.6065791E3,3.1549304E2,5.554279E3,2.2471304E3,1.119341E3,5.7453794E3,6.7784644E2,9.2873267E2,2.1850023E2,9.6992805E1,5.419048E2,5.012374E3,1.7212404E3,5.2589E2,4.1444357E2,7.048974E2,2.8342893E3,2.9110898E3,4.1855283E2,2.5929364E2,5.8883E2,3.3990265E2,1.8208485E2,3.6415375E1,7.434587E1,2.2646929E1],"tree_param":{"num_deleted":"0","num_feature":"162","num_nodes":"31","size_leaf_vector":"1"}},{"base_weights":[-2.7219814E-3,-3.4845445E-2,5.225352E-1,-1.9672995E-3,-4.4005668E-1,6.057567E-1,1.5805694E-1,1.782451E-1,-7.6369785E-2,-5.276459E-1,6.857633E-2,8.164439E-1,5.0414693E-1,-2.832588E-1,3.201547E-1,1.1534179E-2,4.5127016E-2,-1.2911672E-2,1.07689155E-2,-7.852488E-2,-4.237596E-2,2.4943816E-2,-2.3459205E-2,8.23826E-2,2.877189E-2,3.5454117E-2,7.560437E-2,-7.6870404E-2,1.4469005E-2,3.625437E-2,-2.9948492E-2],"categories":[],"categories_nodes":[],"categories_segments":[],"categories_sizes":[],"default_left":[0,0,0,0,0,0,0,0,0,0,0,0,0,0,0,0,0,0,0,0,0,0,0,0,0,0,0,0,0,0,0],"id":22,"left_children":[1,3,5,7,9,11,13,15,17,19,21,23,25,27,29,-1,-1,-1,-1,-1,-1,-1,-1,-1,-1,-1,-1,-1,-1,-1,-1],"loss_changes":[2.7752652E2,2.0644397E2,2.7906921E1,1.9253763E2,5.2302277E1,1.4742004E1,1.299649E1,6.920149E1,1.2189274E2,2.1052399E1,1.0972746E1,7.10553E0,1.8437271E1,1.2042704E1,6.152814E0,0E0,0E0,0E0,0E0,0E0,0E0,0E0,0E0,0E0,0E0,0E0,0E0,0E0,0E0,0E0,0E0],"parents":[2147483647,0,0,1,1,2,2,3,3,4,4,5,5,6,6,7,7,8,8,9,9,10,10,11,11,12,12,13,13,14,14],"right_children":[2,4,6,8,10,12,14,16,18,20,22,24,26,28,30,-1,-1,-1,-1,-1,-1,-1,-1,-1,-1,-1,-1,-1,-1,-1,-1],"split_conditions":[3.590793E0,3.0394166E0,3.0394166E0,-4.4793636E-1,1.7001522E0,2.6006615E-1,3.6858663E-2,1.492813E0,8.5482955E-1,-3.2712993E-1,2.192781E-1,1.269863E0,1.492813E0,3.4695625E-1,7.6895875E-1,1.1534179E-2,4.5127016E-2,-1.2911672E-2,1.07689155E-2,-7.852488E-2,-4.237596E-2,2.4943816E-2,-2.3459205E-2,8.23826E-2,2.877189E-2,3.5454117E-2,7.560437E-2,-7.6870404E-2,1.4469005E-2,3.625437E-2,-2.9948492E-2],"split_indices":[10,11,11,14,6,7,3,3,6,3,26,73,3,0,125,0,0,0,0,0,0,0,0,0,0,0,0,0,0,0,0],"split_type":[0,0,0,0,0,0,0,0,0,0,0,0,0,0,0,0,0,0,0,0,0,0,0,0,0,0,0,0,0,0,0],"sum_hessian":[1.6473617E4,1.5526881E4,9.4673596E2,1.4364817E4,1.1620634E3,7.6800665E2,1.7872932E2,4.193385E3,1.0171433E4,9.929369E2,1.6912639E2,2.4431021E2,5.236964E2,4.6192184E1,1.3253714E2,3.5663604E3,6.2702435E2,7.6824727E3,2.48896E3,1.8025842E2,8.1267847E2,1.0624021E2,6.288617E1,2.1276834E2,3.154187E1,3.7810733E2,1.455891E2,2.1209454E1,2.498273E1,1.2135191E2,1.1185221E1],"tree_param":{"num_deleted":"0","num_feature":"162","num_nodes":"31","size_leaf_vector":"1"}},{"base_weights":[-4.715756E-4,9.351561E-2,-1.5075077E-1,-2.6384443E-2,3.238788E-1,-5.99115E-1,-9.046761E-2,4.2906478E-1,-5.296057E-2,9.042441E-1,2.52749E-1,-9.055614E-1,-4.928873E-1,1.0283916E-1,-2.1580496E-1,6.160423E-2,2.8219521E-2,-1.2109996E-3,-2.5353154E-2,2.7326528E-2,9.2010096E-2,-1.9548902E-2,3.0368164E-2,-8.6360596E-2,5.94894E-3,-6.068699E-2,-2.0229077E-2,1.7676406E-3,4.434504E-2,-2.8293256E-2,1.1080868E-2],"categories":[],"categories_nodes":[],"categories_segments":[],"categories_sizes":[],"default_left":[0,0,0,0,0,0,0,0,0,0,0,0,0,0,0,0,0,0,0,0,0,0,0,0,0,0,0,0,0,0,0],"id":23,"left_children":[1,3,5,7,9,11,13,15,17,19,21,23,25,27,29,-1,-1,-1,-1,-1,-1,-1,-1,-1,-1,-1,-1,-1,-1,-1,-1],"loss_changes":[2.3259157E2,2.7995102E2,1.7060136E2,8.023983E1,1.4182675E2,2.2551636E1,1.3558603E2,9.550278E0,5.4890938E1,1.7861206E1,1.0546796E2,5.0023346E0,2.3611328E1,6.833059E1,1.0048834E2,0E0,0E0,0E0,0E0,0E0,0E0,0E0,0E0,0E0,0E0,0E0,0E0,0E0,0E0,0E0,0E0],"parents":[2147483647,0,0,1,1,2,2,3,3,4,4,5,5,6,6,7,7,8,8,9,9,10,10,11,11,12,12,13,13,14,14],"right_children":[2,4,6,8,10,12,14,16,18,20,22,24,26,28,30,-1,-1,-1,-1,-1,-1,-1,-1,-1,-1,-1,-1,-1,-1,-1,-1],"split_conditions":[4.3866363E-1,9.506951E-3,-3.2712993E-1,-8.4561884E-1,-4.8673907E-1,-6.9111854E-1,2.6006615E-1,-9.2494684E-1,-1.782715E-1,-6.9111854E-1,-3.2712993E-1,1.2009795E0,1.1366038E0,1.7001522E0,1.492813E0,6.160423E-2,2.8219521E-2,-1.2109996E-3,-2.5353154E-2,2.7326528E-2,9.2010096E-2,-1.9548902E-2,3.0368164E-2,-8.6360596E-2,5.94894E-3,-6.068699E-2,-2.0229077E-2,1.7676406E-3,4.434504E-2,-2.8293256E-2,1.1080868E-2],"split_indices":[2,6,3,14,2,3,7,17,2,3,3,135,6,6,3,0,0,0,0,0,0,0,0,0,0,0,0,0,0,0,0],"split_type":[0,0,0,0,0,0,0,0,0,0,0,0,0,0,0,0,0,0,0,0,0,0,0,0,0,0,0,0,0,0,0],"sum_hessian":[1.6461375E4,1.0123766E4,6.337609E3,6.656123E3,3.4676423E3,7.480655E2,5.5895435E3,3.640713E2,6.292052E3,3.7572864E2,3.0919138E3,1.8812532E2,5.599402E2,2.1956628E3,3.3938806E3,1.2342169E2,2.4064961E2,5.3277554E3,9.642963E2,4.75979E1,3.2813074E2,4.2191815E2,2.6699956E3,1.8490466E2,3.2206588E0,3.5174243E2,2.0819774E2,1.7962908E3,3.99372E2,2.688701E3,7.051797E2],"tree_param":{"num_deleted":"0","num_feature":"162","num_nodes":"31","size_leaf_vector":"1"}},{"base_weights":[2.2573778E-3,-1.9062026E-1,6.729266E-2,-1.4713842E-1,-5.8971065E-1,2.9075446E-2,3.8760844E-1,-1.7662224E-1,4.310427E-1,-7.117406E-1,-3.1575295E-1,7.2980605E-2,-2.5409013E-1,5.7175624E-1,2.1777424E-1,-4.7074086E-3,-3.1324323E-2,5.115936E-2,-1.4216627E-2,-4.7973495E-2,-8.149025E-2,-6.832932E-2,-8.555325E-4,2.9090108E-4,2.3363955E-2,4.86023E-2,-2.9444108E-2,6.0951535E-2,2.2103578E-2,7.0838756E-3,5.134327E-2],"categories":[],"categories_nodes":[],"categories_segments":[],"categories_sizes":[],"default_left":[0,0,0,0,0,0,0,0,0,0,0,0,0,0,0,0,0,0,0,0,0,0,0,0,0,0,0,0,0,0,0],"id":24,"left_children":[1,3,5,7,9,11,13,15,17,19,21,23,25,27,29,-1,-1,-1,-1,-1,-1,-1,-1,-1,-1,-1,-1,-1,-1,-1,-1],"loss_changes":[2.0591182E2,7.0999695E1,1.4999564E2,6.3506905E1,1.2269043E1,1.3636612E2,3.9974655E1,7.13009E1,1.2939392E1,7.049011E0,1.5805658E1,1.1805176E2,7.111702E1,1.6302261E1,3.171708E1,0E0,0E0,0E0,0E0,0E0,0E0,0E0,0E0,0E0,0E0,0E0,0E0,0E0,0E0,0E0,0E0],"parents":[2147483647,0,0,1,1,2,2,3,3,4,4,5,5,6,6,7,7,8,8,9,9,10,10,11,11,12,12,13,13,14,14],"right_children":[2,4,6,8,10,12,14,16,18,20,22,24,26,28,30,-1,-1,-1,-1,-1,-1,-1,-1,-1,-1,-1,-1,-1,-1,-1,-1],"split_conditions":[-5.1627535E-1,2.761678E0,1.492813E0,2.2637007E0,1.418378E0,1.2561463E0,9.241196E-1,4.3866363E-1,2.289469E0,4.3866363E-1,-7.8460634E-1,5.730554E-1,-4.8673907E-1,1.3640664E0,7.7286273E-1,-4.7074086E-3,-3.1324323E-2,5.115936E-2,-1.4216627E-2,-4.7973495E-2,-8.149025E-2,-6.832932E-2,-8.555325E-4,2.9090108E-4,2.3363955E-2,4.86023E-2,-2.9444108E-2,6.0951535E-2,2.2103578E-2,7.0838756E-3,5.134327E-2],"split_indices":[12,14,3,6,6,7,7,2,2,2,110,6,2,2,68,0,0,0,0,0,0,0,0,0,0,0,0,0,0,0,0],"split_type":[0,0,0,0,0,0,0,0,0,0,0,0,0,0,0,0,0,0,0,0,0,0,0,0,0,0,0,0,0,0,0],"sum_hessian":[1.642269E4,4.1368647E3,1.2285825E4,3.7339453E3,4.029194E2,1.097999E4,1.3058352E3,3.555081E3,1.788644E2,2.751156E2,1.278038E2,9.509717E3,1.4702737E3,6.225562E2,6.8327893E2,1.9924697E3,1.5626113E3,1.500821E2,2.8782288E1,1.2989716E2,1.4521844E2,5.2069782E1,7.5734024E1,6.8348555E3,2.6748613E3,1.07447205E2,1.3628265E3,4.953871E2,1.2716915E2,4.827087E2,2.005702E2],"tree_param":{"num_deleted":"0","num_feature":"162","num_nodes":"31","size_leaf_vector":"1"}},{"base_weights":[1.1351348E-3,4.1057114E-2,-3.0342036E-1,-4.0386308E-2,2.0033655E-1,-4.400058E-1,-1.250345E-1,6.2895943E-3,-2.5480205E-1,5.942621E-1,1.2809116E-1,-5.7187504E-1,-2.04949E-1,-5.9716895E-2,-4.929543E-1,5.0093825E-3,-2.1824809E-2,4.8197903E-2,-3.0768657E-2,8.058864E-2,4.1509368E-2,1.6995702E-3,3.6203373E-2,-4.1324645E-2,-7.4844636E-2,-3.5832413E-2,8.475924E-3,2.0443233E-2,-1.284968E-2,-5.0839107E-2,1.1951675E-2],"categories":[],"categories_nodes":[],"categories_segments":[],"categories_sizes":[],"default_left":[0,0,0,0,0,0,0,0,0,0,0,0,0,0,0,0,0,0,0,0,0,0,0,0,0,0,0,0,0,0,0],"id":25,"left_children":[1,3,5,7,9,11,13,15,17,19,21,23,25,27,29,-1,-1,-1,-1,-1,-1,-1,-1,-1,-1,-1,-1,-1,-1,-1,-1],"loss_changes":[1.9892195E2,1.880792E2,4.5581955E1,9.613759E1,1.3881775E2,3.229222E1,1.9298698E1,8.987589E1,1.0054869E2,2.8832367E1,1.1847353E2,1.8671722E1,2.1052265E1,1.5395756E1,4.5288105E0,0E0,0E0,0E0,0E0,0E0,0E0,0E0,0E0,0E0,0E0,0E0,0E0,0E0,0E0,0E0,0E0],"parents":[2147483647,0,0,1,1,2,2,3,3,4,4,5,5,6,6,7,7,8,8,9,9,10,10,11,11,12,12,13,13,14,14],"right_children":[2,4,6,8,10,12,14,16,18,20,22,24,26,28,30,-1,-1,-1,-1,-1,-1,-1,-1,-1,-1,-1,-1,-1,-1,-1,-1],"split_conditions":[1.3640664E0,4.0084726E-1,3.2007188E-1,5.920929E-1,-1.782715E-1,1.001781E0,3.0394166E0,5.7463443E-1,-4.8673907E-1,-4.8673907E-1,7.533342E-1,1.9810015E0,1.5660901E0,-7.196055E-2,2.1079273E0,5.0093825E-3,-2.1824809E-2,4.8197903E-2,-3.0768657E-2,8.058864E-2,4.1509368E-2,1.6995702E-3,3.6203373E-2,-4.1324645E-2,-7.4844636E-2,-3.5832413E-2,8.475924E-3,2.0443233E-2,-1.284968E-2,-5.0839107E-2,1.1951675E-2],"split_indices":[2,3,142,7,2,9,11,17,2,2,0,2,0,7,0,0,0,0,0,0,0,0,0,0,0,0,0,0,0,0,0],"split_type":[0,0,0,0,0,0,0,0,0,0,0,0,0,0,0,0,0,0,0,0,0,0,0,0,0,0,0,0,0,0,0],"sum_hessian":[1.6379484E4,1.4484879E4,1.8946061E3,9.580743E3,4.9041357E3,1.0690519E3,8.255542E2,7.8651274E3,1.7156157E3,7.56739E2,4.1473965E3,6.812175E2,3.8783432E2,7.0438806E2,1.21166115E2,6.5725E3,1.2926276E3,1.5156403E2,1.5640518E3,2.630323E2,4.937067E2,2.9221614E3,1.2252351E3,4.4411334E2,2.3710419E2,2.429804E2,1.4485393E2,1.5114525E2,5.5324286E2,1.1314853E2,8.017583E0],"tree_param":{"num_deleted":"0","num_feature":"162","num_nodes":"31","size_leaf_vector":"1"}},{"base_weights":[-4.3369103E-3,-3.0688968E-2,4.3910673E-1,3.4841724E-2,-2.047874E-1,5.257817E-1,9.13155E-2,-7.5618E-3,3.3372116E-1,-4.5736453E-1,-1.0681013E-1,2.9181277E-2,5.6479466E-1,-1.24751605E-1,4.1740897E-1,-4.463191E-3,2.953749E-2,1.5891142E-2,4.4876795E-2,-5.3297944E-2,-1.4923958E-2,-3.2225784E-2,-1.0482442E-3,2.9450906E-2,-4.4671487E-2,5.8935225E-2,2.3362355E-2,5.8553506E-2,-1.9669827E-2,4.8685916E-2,-2.9577943E-2],"categories":[],"categories_nodes":[],"categories_segments":[],"categories_sizes":[],"default_left":[0,0,0,0,0,0,0,0,0,0,0,0,0,0,0,0,0,0,0,0,0,0,0,0,0,0,0,0,0,0,0],"id":26,"left_children":[1,3,5,7,9,11,13,15,17,19,21,23,25,27,29,-1,-1,-1,-1,-1,-1,-1,-1,-1,-1,-1,-1,-1,-1,-1,-1],"loss_changes":[1.8978429E2,1.754526E2,2.6807617E1,1.4174326E2,1.0347757E2,1.3485626E1,1.3391245E1,1.2800218E2,3.2896835E1,3.93423E1,6.907179E1,8.178086E0,1.3402878E1,6.950762E0,6.273858E0,0E0,0E0,0E0,0E0,0E0,0E0,0E0,0E0,0E0,0E0,0E0,0E0,0E0,0E0,0E0,0E0],"parents":[2147483647,0,0,1,1,2,2,3,3,4,4,5,5,6,6,7,7,8,8,9,9,10,10,11,11,12,12,13,13,14,14],"right_children":[2,4,6,8,10,12,14,16,18,20,22,24,26,28,30,-1,-1,-1,-1,-1,-1,-1,-1,-1,-1,-1,-1,-1,-1,-1,-1],"split_conditions":[3.590793E0,7.471312E-1,3.0394166E0,7.533342E-1,2.9128116E-1,-3.2712993E-1,6.1787486E-1,7.994552E-1,8.677708E-2,1.1288245E0,3.6858663E-2,4.3866363E-1,1.588173E0,-8.069064E-1,1.9810015E0,-4.463191E-3,2.953749E-2,1.5891142E-2,4.4876795E-2,-5.3297944E-2,-1.4923958E-2,-3.2225784E-2,-1.0482442E-3,2.9450906E-2,-4.4671487E-2,5.8935225E-2,2.3362355E-2,5.8553506E-2,-1.9669827E-2,4.8685916E-2,-2.9577943E-2],"split_indices":[10,2,11,0,6,3,0,68,68,3,3,2,7,14,2,0,0,0,0,0,0,0,0,0,0,0,0,0,0,0,0],"split_type":[0,0,0,0,0,0,0,0,0,0,0,0,0,0,0,0,0,0,0,0,0,0,0,0,0,0,0,0,0,0,0],"sum_hessian":[1.6272297E4,1.536255E4,9.097466E2,1.1157986E4,4.2045645E3,7.255844E2,1.8416217E2,9.769721E3,1.3882651E3,1.1712758E3,3.0332886E3,5.4794476E1,6.707899E2,1.0938392E2,7.477826E1,8.692959E3,1.0767617E3,6.660188E2,7.222464E2,8.406471E2,3.306286E2,8.614538E2,2.1718347E3,3.6507236E1,1.8287237E1,5.4722644E2,1.2356353E2,9.421423E0,9.9962494E1,6.680137E1,7.9768934E0],"tree_param":{"num_deleted":"0","num_feature":"162","num_nodes":"31","size_leaf_vector":"1"}},{"base_weights":[-2.6645304E-3,-2.6404412E-2,3.9657483E-1,5.058741E-2,-1.5131235E-1,6.049579E-1,2.912457E-1,-6.684448E-3,3.743791E-1,-5.73524E-1,-9.591676E-2,1.0480902E0,5.074468E-1,2.1512944E-1,7.231858E-1,4.376734E-3,-1.5702242E-2,6.3053414E-4,4.2120013E-2,-3.3631116E-2,-6.6823006E-2,-1.802936E-2,1.2208443E-2,1.0086323E-1,-0E0,-1.9486422E-3,5.3385448E-2,2.291515E-2,-7.5717255E-2,7.093074E-2,-3.384865E-2],"categories":[],"categories_nodes":[],"categories_segments":[],"categories_sizes":[],"default_left":[0,0,0,0,0,0,0,0,0,0,0,0,0,0,0,0,0,0,0,0,0,0,0,0,0,0,0,0,0,0,0],"id":27,"left_children":[1,3,5,7,9,11,13,15,17,19,21,23,25,27,29,-1,-1,-1,-1,-1,-1,-1,-1,-1,-1,-1,-1,-1,-1,-1,-1],"loss_changes":[1.5362732E2,1.4760123E2,1.8906418E1,1.7624117E2,1.3620242E2,1.0939644E1,1.8957886E1,7.0251434E1,4.0598434E1,1.9417648E1,1.150967E2,1.6236534E0,9.317757E0,1.634502E1,4.449501E0,0E0,0E0,0E0,0E0,0E0,0E0,0E0,0E0,0E0,0E0,0E0,0E0,0E0,0E0,0E0,0E0],"parents":[2147483647,0,0,1,1,2,2,3,3,4,4,5,5,6,6,7,7,8,8,9,9,10,10,11,11,12,12,13,13,14,14],"right_children":[2,4,6,8,10,12,14,16,18,20,22,24,26,28,30,-1,-1,-1,-1,-1,-1,-1,-1,-1,-1,-1,-1,-1,-1,-1,-1],"split_conditions":[3.590793E0,4.3866363E-1,2.6006615E-1,4.824156E-1,-3.2712993E-1,-1.782715E-1,1.8568016E0,-1.782715E-1,-3.2712993E-1,-7.196055E-2,1.1366038E0,1.8523035E0,-3.2712993E-1,2.91628E0,2.2812545E0,4.376734E-3,-1.5702242E-2,6.3053414E-4,4.2120013E-2,-3.3631116E-2,-6.6823006E-2,-1.802936E-2,1.2208443E-2,1.0086323E-1,-0E0,-1.9486422E-3,5.3385448E-2,2.291515E-2,-7.5717255E-2,7.093074E-2,-3.384865E-2],"split_indices":[10,2,7,0,3,2,3,2,3,7,6,136,3,7,4,0,0,0,0,0,0,0,0,0,0,0,0,0,0,0,0],"split_type":[0,0,0,0,0,0,0,0,0,0,0,0,0,0,0,0,0,0,0,0,0,0,0,0,0,0,0,0,0,0,0],"sum_hessian":[1.6244541E4,1.533605E4,9.084917E2,9.483453E3,5.852597E3,3.002222E2,6.0826953E2,8.056498E3,1.4269547E3,6.756197E2,5.1769775E3,5.045999E1,2.497622E2,5.204195E2,8.785002E1,6.046848E3,2.0096498E3,2.5265906E2,1.1742957E3,2.7793695E2,3.976827E2,3.6216348E3,1.5553425E3,4.850628E1,1.9537104E0,2.6250257E1,2.2351195E2,5.068635E2,1.3556018E1,8.5981895E1,1.8681242E0],"tree_param":{"num_deleted":"0","num_feature":"162","num_nodes":"31","size_leaf_vector":"1"}},{"base_weights":[-1.0194435E-2,-7.388906E-2,1.3045804E-1,-1.3886168E-2,-2.3811398E-1,9.548531E-2,4.918169E-1,-9.5616505E-2,1.4122397E-1,4.4201428E-1,-2.6794457E-1,1.7178723E-1,-8.5340805E-2,5.5343515E-1,-2.7015308E-1,-3.35195E-2,-4.697147E-3,4.6728216E-2,4.2645205E-3,-1.6942931E-2,5.069011E-2,-4.919137E-2,-1.7094433E-2,3.673105E-3,3.0418647E-2,5.216805E-2,-1.2838868E-2,4.5527674E-2,9.005762E-2,8.294687E-3,-1.0171158E-1],"categories":[],"categories_nodes":[],"categories_segments":[],"categories_sizes":[],"default_left":[0,0,0,0,0,0,0,0,0,0,0,0,0,0,0,0,0,0,0,0,0,0,0,0,0,0,0,0,0,0,0],"id":28,"left_children":[1,3,5,7,9,11,13,15,17,19,21,23,25,27,29,-1,-1,-1,-1,-1,-1,-1,-1,-1,-1,-1,-1,-1,-1,-1,-1],"loss_changes":[1.4480286E2,1.0946648E2,6.30147E1,1.034166E2,6.0318985E1,6.3494328E1,2.1169846E1,6.346544E1,9.626245E1,8.403656E0,6.1840134E1,6.60109E1,4.5900696E1,8.993233E0,1.0709769E1,0E0,0E0,0E0,0E0,0E0,0E0,0E0,0E0,0E0,0E0,0E0,0E0,0E0,0E0,0E0,0E0],"parents":[2147483647,0,0,1,1,2,2,3,3,4,4,5,5,6,6,7,7,8,8,9,9,10,10,11,11,12,12,13,13,14,14],"right_children":[2,4,6,8,10,12,14,16,18,20,22,24,26,28,30,-1,-1,-1,-1,-1,-1,-1,-1,-1,-1,-1,-1,-1,-1,-1,-1],"split_conditions":[-2.8116666E-2,5.920929E-1,2.129686E0,3.6858663E-2,-4.8673907E-1,9.241196E-1,2.5842533E0,-5.9283596E-1,1.3019606E-1,-6.9111854E-1,9.506951E-3,3.6858663E-2,-4.8673907E-1,2.2207901E0,-3.832252E-1,-3.35195E-2,-4.697147E-3,4.6728216E-2,4.2645205E-3,-1.6942931E-2,5.069011E-2,-4.919137E-2,-1.7094433E-2,3.673105E-3,3.0418647E-2,5.216805E-2,-1.2838868E-2,4.5527674E-2,9.005762E-2,8.294687E-3,-1.0171158E-1],"split_indices":[12,7,12,3,2,7,7,110,2,3,6,3,2,3,70,0,0,0,0,0,0,0,0,0,0,0,0,0,0,0,0],"split_type":[0,0,0,0,0,0,0,0,0,0,0,0,0,0,0,0,0,0,0,0,0,0,0,0,0,0,0,0,0,0,0],"sum_hessian":[1.6167055E4,1.1132902E4,5.0341533E3,8.1589346E3,2.9739673E3,4.5936206E3,4.4053275E2,5.347758E3,2.8111768E3,1.22968155E2,2.8509993E3,3.2342803E3,1.3593402E3,4.09022E2,3.151075E1,7.753765E2,4.5723813E3,5.8472235E2,2.2264543E3,1.5918226E1,1.0704993E2,6.924351E2,2.158564E3,1.7491667E3,1.4851135E3,1.0021482E2,1.2591254E3,3.581575E2,5.0864494E1,2.1784044E1,9.726706E0],"tree_param":{"num_deleted":"0","num_feature":"162","num_nodes":"31","size_leaf_vector":"1"}},{"base_weights":[-6.2920237E-3,2.2030266E-2,-3.2640374E-1,5.444407E-2,-2.8404146E-1,-4.008532E-1,1.1693263E-1,-2.2495195E-2,1.7584768E-1,-3.7929353E-1,-3.957836E-2,-4.6581584E-1,-5.772912E-3,3.1136626E-1,-3.3558932E-1,3.915256E-3,-1.7876357E-2,5.425427E-2,1.1277957E-2,-2.5313921E-2,-5.322184E-2,-2.1957489E-2,2.6006794E-2,2.8323805E-2,-4.5857955E-2,-5.896399E-2,5.8520813E-3,4.059565E-2,-8.29302E-3,-5.1923368E-2,1.8746555E-2],"categories":[],"categories_nodes":[],"categories_segments":[],"categories_sizes":[],"default_left":[0,0,0,0,0,0,0,0,0,0,0,0,0,0,0,0,0,0,0,0,0,0,0,0,0,0,0,0,0,0,0],"id":29,"left_children":[1,3,5,7,9,11,13,15,17,19,21,23,25,27,29,-1,-1,-1,-1,-1,-1,-1,-1,-1,-1,-1,-1,-1,-1,-1,-1],"loss_changes":[1.4664888E2,1.4690207E2,4.372603E1,1.2542831E2,3.2580193E1,2.8490662E1,1.6633493E1,8.999248E1,1.1514058E2,2.002687E1,2.5174528E1,2.0381577E1,7.5978923E0,7.0552845E0,7.0963984E0,0E0,0E0,0E0,0E0,0E0,0E0,0E0,0E0,0E0,0E0,0E0,0E0,0E0,0E0,0E0,0E0],"parents":[2147483647,0,0,1,1,2,2,3,3,4,4,5,5,6,6,7,7,8,8,9,9,10,10,11,11,12,12,13,13,14,14],"right_children":[2,4,6,8,10,12,14,16,18,20,22,24,26,28,30,-1,-1,-1,-1,-1,-1,-1,-1,-1,-1,-1,-1,-1,-1,-1,-1],"split_conditions":[3.0394166E0,9.421789E-1,1.7001522E0,2.9128116E-1,5.1614416E-1,3.590793E0,5.1970404E-1,1.3019606E-1,-1.782715E-1,7.471312E-1,1.1597122E0,-4.8673907E-1,-3.2712993E-1,6.6609144E-1,8.5895556E-1,3.915256E-3,-1.7876357E-2,5.425427E-2,1.1277957E-2,-2.5313921E-2,-5.322184E-2,-2.1957489E-2,2.6006794E-2,2.8323805E-2,-4.5857955E-2,-5.896399E-2,5.8520813E-3,4.059565E-2,-8.29302E-3,-5.1923368E-2,1.8746555E-2],"split_indices":[11,17,6,6,8,10,70,2,2,2,0,2,3,135,137,0,0,0,0,0,0,0,0,0,0,0,0,0,0,0,0],"split_type":[0,0,0,0,0,0,0,0,0,0,0,0,0,0,0,0,0,0,0,0,0,0,0,0,0,0,0,0,0,0,0],"sum_hessian":[1.6140742E4,1.48268955E4,1.3138464E3,1.3410715E4,1.4161805E3,1.1268937E3,1.8695273E2,8.204218E3,5.206497E3,1.015823E3,4.0035757E2,9.6549524E2,1.613984E2,1.3249818E2,5.445455E1,5.938429E3,2.2657883E3,6.13062E2,4.593435E3,6.5722797E2,3.58595E2,2.498767E2,1.5048087E2,3.1015144E1,9.344801E2,1.6424046E1,1.4497435E2,1.02782104E2,2.9716076E1,3.9756355E1,1.46981945E1],"tree_param":{"num_deleted":"0","num_feature":"162","num_nodes":"31","size_leaf_vector":"1"}},{"base_weights":[6.1052046E-3,-1.6333645E-2,3.9138475E-1,9.884478E-3,-3.4084627E-1,4.7098708E-1,5.911334E-2,-1.2529252E-1,7.372881E-2,-4.0765837E-1,2.6942365E-2,3.880375E-1,6.423017E-1,-1.02494605E-1,4.0837014E-1,-3.0751785E-2,-6.066903E-3,1.136489E-3,2.2426585E-2,-1.8177344E-2,-4.9879577E-2,-1.204149E-2,5.659613E-2,3.9757825E-2,-3.266502E-2,6.2404927E-2,-2.289722E-2,-2.8193112E-2,1.195741E-2,7.486304E-2,8.310003E-3],"categories":[],"categories_nodes":[],"categories_segments":[],"categories_sizes":[],"default_left":[0,0,0,0,0,0,0,0,0,0,0,0,0,0,0,0,0,0,0,0,0,0,0,0,0,0,0,0,0,0,0],"id":30,"left_children":[1,3,5,7,9,11,13,15,17,19,21,23,25,27,29,-1,-1,-1,-1,-1,-1,-1,-1,-1,-1,-1,-1,-1,-1,-1,-1],"loss_changes":[1.39345E2,1.2955626E2,2.292102E1,1.21234146E2,2.8349854E1,8.868179E0,1.0220852E1,5.5116745E1,9.800257E1,2.5481827E1,1.6335464E1,1.4327362E1,6.285652E0,5.703066E0,6.321163E0,0E0,0E0,0E0,0E0,0E0,0E0,0E0,0E0,0E0,0E0,0E0,0E0,0E0,0E0,0E0,0E0],"parents":[2147483647,0,0,1,1,2,2,3,3,4,4,5,5,6,6,7,7,8,8,9,9,10,10,11,11,12,12,13,13,14,14],"right_children":[2,4,6,8,10,12,14,16,18,20,22,24,26,28,30,-1,-1,-1,-1,-1,-1,-1,-1,-1,-1,-1,-1,-1,-1,-1,-1],"split_conditions":[3.590793E0,3.0394166E0,3.0394166E0,-4.4552767E-1,1.7001522E0,1.1288245E0,8.5482955E-1,-6.656442E-1,5.730554E-1,4.3866363E-1,2.8581792E-1,2.2522266E0,1.7117281E0,3.4695625E-1,2.0771357E-1,-3.0751785E-2,-6.066903E-3,1.136489E-3,2.2426585E-2,-1.8177344E-2,-4.9879577E-2,-1.204149E-2,5.659613E-2,3.9757825E-2,-3.266502E-2,6.2404927E-2,-2.289722E-2,-2.8193112E-2,1.195741E-2,7.486304E-2,8.310003E-3],"split_indices":[10,11,11,12,6,3,6,24,6,2,21,7,144,0,1,0,0,0,0,0,0,0,0,0,0,0,0,0,0,0,0],"split_type":[0,0,0,0,0,0,0,0,0,0,0,0,0,0,0,0,0,0,0,0,0,0,0,0,0,0,0,0,0,0,0],"sum_hessian":[1.6074274E4,1.5188228E4,8.860471E2,1.4051073E4,1.1371542E3,7.1208844E2,1.7395863E2,4.502267E3,9.548806E3,9.644649E2,1.7268932E2,4.8596265E2,2.261258E2,1.1755526E2,5.640337E1,1.0155185E3,3.4867485E3,6.9860137E3,2.5627925E3,3.670948E2,5.973701E2,1.354338E2,3.72555E1,4.631893E2,2.277336E1,2.2047485E2,5.650945E0,6.5001945E1,5.2553314E1,2.3081429E1,3.332194E1],"tree_param":{"num_deleted":"0","num_feature":"162","num_nodes":"31","size_leaf_vector":"1"}},{"base_weights":[9.0269395E-4,-3.8500343E-2,2.184258E-1,6.7678057E-3,-2.564842E-1,2.9354122E-1,-4.09136E-2,3.8397733E-2,-2.4006861E-1,3.5713148E-1,-2.9801148E-1,2.1518765E-1,5.7759356E-1,-1.6799195E-1,3.2540998E-1,-1.9651824E-3,1.4485458E-2,-2.6377248E-2,2.6908562E-2,4.4182822E-2,-7.915794E-3,-2.3266956E-2,-6.22175E-2,1.08953575E-2,3.666549E-2,6.0694605E-2,1.6259642E-2,-2.1829568E-2,2.7609283E-2,3.8533468E-2,-3.0040257E-2],"categories":[],"categories_nodes":[],"categories_segments":[],"categories_sizes":[],"default_left":[0,0,0,0,0,0,0,0,0,0,0,0,0,0,0,0,0,0,0,0,0,0,0,0,0,0,0,0,0,0,0],"id":31,"left_children":[1,3,5,7,9,11,13,15,17,19,21,23,25,27,29,-1,-1,-1,-1,-1,-1,-1,-1,-1,-1,-1,-1,-1,-1,-1,-1],"loss_changes":[1.3754758E2,1.3410698E2,4.821441E1,8.749537E1,5.959442E1,4.1651535E1,2.55545E1,6.9625404E1,2.9269302E1,8.070923E0,3.7895844E1,2.581942E1,1.1393845E1,1.2748746E1,8.29244E0,0E0,0E0,0E0,0E0,0E0,0E0,0E0,0E0,0E0,0E0,0E0,0E0,0E0,0E0,0E0,0E0],"parents":[2147483647,0,0,1,1,2,2,3,3,4,4,5,5,6,6,7,7,8,8,9,9,10,10,11,11,12,12,13,13,14,14],"right_children":[2,4,6,8,10,12,14,16,18,20,22,24,26,28,30,-1,-1,-1,-1,-1,-1,-1,-1,-1,-1,-1,-1,-1,-1,-1,-1],"split_conditions":[1.1288245E0,9.241196E-1,1.588173E0,8.534785E-1,-4.8673907E-1,6.2926346E-1,7.610378E-1,3.6858663E-2,2.2637007E0,1.3327707E0,2.2522266E0,8.5482955E-1,1.0555987E0,3.590793E0,3.2483068E0,-1.9651824E-3,1.4485458E-2,-2.6377248E-2,2.6908562E-2,4.4182822E-2,-7.915794E-3,-2.3266956E-2,-6.22175E-2,1.08953575E-2,3.666549E-2,6.0694605E-2,1.6259642E-2,-2.1829568E-2,2.7609283E-2,3.8533468E-2,-3.0040257E-2],"split_indices":[3,7,7,109,2,68,24,3,6,1,7,6,2,10,7,0,0,0,0,0,0,0,0,0,0,0,0,0,0,0,0],"split_type":[0,0,0,0,0,0,0,0,0,0,0,0,0,0,0,0,0,0,0,0,0,0,0,0,0,0,0,0,0,0,0],"sum_hessian":[1.6025431E4,1.3564704E4,2.4607273E3,1.1229342E4,2.335362E3,1.9108542E3,5.498729E2,9.958127E3,1.2712142E3,1.4603328E2,2.1893289E3,1.5018782E3,4.089762E2,4.106457E2,1.3922725E2,6.600414E3,3.3577131E3,1.1771212E3,9.409309E1,1.1702007E2,2.9013208E1,1.9420748E3,2.4725409E2,9.7432477E2,5.275534E2,3.4252118E2,6.645501E1,3.6148044E2,4.916526E1,1.24137665E2,1.5089582E1],"tree_param":{"num_deleted":"0","num_feature":"162","num_nodes":"31","size_leaf_vector":"1"}},{"base_weights":[4.529736E-3,3.040197E-2,-3.3152628E-1,-2.5208506E-3,3.4423086E-1,-5.004071E-1,-1.6267028E-1,-2.458319E-2,4.2991114E-1,-3.0800883E-2,4.1844988E-1,-6.599321E-1,-2.0608473E-1,-1.9861388E-1,3.4603024E-1,5.7017035E-3,-1.4440837E-2,5.778909E-2,1.9215057E-2,-3.2897063E-2,1.0491826E-2,3.5309277E-2,1.0167012E-1,-6.97388E-2,-2.6833216E-2,3.7187464E-3,-5.5201624E-2,-9.659326E-3,-4.4418316E-2,-8.817156E-2,4.386255E-2],"categories":[],"categories_nodes":[],"categories_segments":[],"categories_sizes":[],"default_left":[0,0,0,0,0,0,0,0,0,0,0,0,0,0,0,0,0,0,0,0,0,0,0,0,0,0,0,0,0,0,0],"id":32,"left_children":[1,3,5,7,9,11,13,15,17,19,21,23,25,27,29,-1,-1,-1,-1,-1,-1,-1,-1,-1,-1,-1,-1,-1,-1,-1,-1],"loss_changes":[1.3869373E2,1.5371394E2,3.1780167E1,1.2778529E2,3.969957E1,2.5617355E1,1.0436423E1,1.4341933E2,2.6806984E1,1.1028764E1,2.9223557E1,1.088179E1,1.987867E1,1.3628317E1,5.9401217E0,0E0,0E0,0E0,0E0,0E0,0E0,0E0,0E0,0E0,0E0,0E0,0E0,0E0,0E0,0E0,0E0],"parents":[2147483647,0,0,1,1,2,2,3,3,4,4,5,5,6,6,7,7,8,8,9,9,10,10,11,11,12,12,13,13,14,14],"right_children":[2,4,6,8,10,12,14,16,18,20,22,24,26,28,30,-1,-1,-1,-1,-1,-1,-1,-1,-1,-1,-1,-1,-1,-1,-1,-1],"split_conditions":[1.672534E0,1.1597122E0,2.1428323E-1,1.8568016E0,-3.2712993E-1,1.418378E0,2.5454748E0,1.3019606E-1,-2.2623616E-1,-6.9111854E-1,2.2433867E0,1.2331345E0,2.289469E0,2.5979366E0,-5.8944213E-1,5.7017035E-3,-1.4440837E-2,5.778909E-2,1.9215057E-2,-3.2897063E-2,1.0491826E-2,3.5309277E-2,1.0167012E-1,-6.97388E-2,-2.6833216E-2,3.7187464E-3,-5.5201624E-2,-9.659326E-3,-4.4418316E-2,-8.817156E-2,4.386255E-2],"split_indices":[2,0,142,3,3,6,6,2,124,3,0,8,2,2,26,0,0,0,0,0,0,0,0,0,0,0,0,0,0,0,0],"split_type":[0,0,0,0,0,0,0,0,0,0,0,0,0,0,0,0,0,0,0,0,0,0,0,0,0,0,0,0,0,0,0],"sum_hessian":[1.5983046E4,1.4844093E4,1.138953E3,1.3432878E4,1.4112147E3,5.655091E2,5.734439E2,1.2783909E4,6.489686E2,2.310915E2,1.1801232E3,3.6373337E2,2.0177574E2,5.3799133E2,3.5452564E1,7.7089907E3,5.0749185E3,3.4650345E2,3.0246518E2,7.2737404E1,1.583541E2,1.1184283E3,6.1694786E1,2.9021747E2,7.351588E1,1.2242101E2,7.935473E1,4.0509116E2,1.3290019E2,1.8224323E0,3.363013E1],"tree_param":{"num_deleted":"0","num_feature":"162","num_nodes":"31","size_leaf_vector":"1"}},{"base_weights":[4.037506E-4,-2.7951749E-2,2.31569E-1,-5.6195743E-3,-2.962793E-1,2.800122E-1,-1.1043943E-1,-7.892936E-2,8.6038E-2,2.548704E-1,-3.2512975E-1,1.9421491E-1,5.131107E-1,2.356434E-1,-2.944996E-1,-2.2078196E-3,-2.386376E-2,4.6535697E-2,3.46572E-3,3.5884142E-2,-6.981646E-2,-3.3856735E-2,5.584467E-3,1.0275238E-2,3.2374397E-2,4.25304E-2,9.2639044E-2,3.950115E-2,-2.7124621E-2,-1.2147434E-2,-8.5484214E-2],"categories":[],"categories_nodes":[],"categories_segments":[],"categories_sizes":[],"default_left":[0,0,0,0,0,0,0,0,0,0,0,0,0,0,0,0,0,0,0,0,0,0,0,0,0,0,0,0,0,0,0],"id":33,"left_children":[1,3,5,7,9,11,13,15,17,19,21,23,25,27,29,-1,-1,-1,-1,-1,-1,-1,-1,-1,-1,-1,-1,-1,-1,-1,-1],"loss_changes":[1.0481705E2,8.487628E1,2.915207E1,8.819649E1,1.746859E1,2.9878242E1,1.3835201E1,7.1240616E1,1.1718727E2,6.933034E0,1.5750145E1,1.4010834E1,9.172745E0,7.57237E0,1.3460957E1,0E0,0E0,0E0,0E0,0E0,0E0,0E0,0E0,0E0,0E0,0E0,0E0,0E0,0E0,0E0,0E0],"parents":[2147483647,0,0,1,1,2,2,3,3,4,4,5,5,6,6,7,7,8,8,9,9,10,10,11,11,12,12,13,13,14,14],"right_children":[2,4,6,8,10,12,14,16,18,20,22,24,26,28,30,-1,-1,-1,-1,-1,-1,-1,-1,-1,-1,-1,-1,-1,-1,-1,-1],"split_conditions":[5.661634E-1,1.588173E0,1.9201998E0,3.6858663E-2,-4.8673907E-1,1.8915858E0,-3.832252E-1,-7.196055E-2,-1.782715E-1,8.518466E-1,2.2207901E0,7.6483583E-1,2.2207901E0,2.91628E0,9.9953336E-1,-2.2078196E-3,-2.386376E-2,4.6535697E-2,3.46572E-3,3.5884142E-2,-6.981646E-2,-3.3856735E-2,5.584467E-3,1.0275238E-2,3.2374397E-2,4.25304E-2,9.2639044E-2,3.950115E-2,-2.7124621E-2,-1.2147434E-2,-8.5484214E-2],"split_indices":[12,7,7,3,2,15,70,7,2,130,3,3,3,7,4,0,0,0,0,0,0,0,0,0,0,0,0,0,0,0,0],"split_type":[0,0,0,0,0,0,0,0,0,0,0,0,0,0,0,0,0,0,0,0,0,0,0,0,0,0,0,0,0,0,0],"sum_hessian":[1.5958658E4,1.4212115E4,1.7465428E3,1.3124508E4,1.087608E3,1.5325001E3,2.1404277E2,7.2980625E3,5.8264453E3,5.201054E1,1.0355974E3,1.1246704E3,4.078297E2,7.2382805E1,1.4165997E2,5.5716396E3,1.7264229E3,6.112523E2,5.215193E3,4.7466366E1,4.5441732E0,9.434801E2,9.211736E1,7.32986E2,3.9168433E2,3.6899252E2,3.8837185E1,5.4801197E1,1.7581606E1,1.144429E2,2.7217064E1],"tree_param":{"num_deleted":"0","num_feature":"162","num_nodes":"31","size_leaf_vector":"1"}},{"base_weights":[-1.0581461E-3,-2.19391E-2,3.591204E-1,7.94426E-3,-2.51415E-1,4.3803325E-1,5.251795E-2,-2.2197751E-2,3.5018307E-1,-6.125191E-1,-2.0485619E-1,4.5850047E-1,-3.59463E-1,9.566874E-4,9.211376E-1,4.525254E-3,-1.2751142E-2,2.146759E-2,5.2250594E-2,-6.135491E-2,8.5018955E-2,-2.4196737E-2,2.7289386E-3,4.65645E-2,1.1975643E-2,-6.5741986E-2,2.3320781E-2,-1.25944605E-2,2.7776934E-2,1.0182584E-1,-0E0],"categories":[],"categories_nodes":[],"categories_segments":[],"categories_sizes":[],"default_left":[0,0,0,0,0,0,0,0,0,0,0,0,0,0,0,0,0,0,0,0,0,0,0,0,0,0,0,0,0,0,0],"id":34,"left_children":[1,3,5,7,9,11,13,15,17,19,21,23,25,27,29,-1,-1,-1,-1,-1,-1,-1,-1,-1,-1,-1,-1,-1,-1,-1,-1],"loss_changes":[1.1944078E2,1.03474174E2,2.055198E1,1.3770328E2,2.8299477E1,1.152533E1,7.2506585E0,9.959661E1,2.6375687E1,1.4352455E1,2.0163124E1,8.615692E0,4.1602755E0,7.2472525E0,1.7384248E0,0E0,0E0,0E0,0E0,0E0,0E0,0E0,0E0,0E0,0E0,0E0,0E0,0E0,0E0,0E0,0E0],"parents":[2147483647,0,0,1,1,2,2,3,3,4,4,5,5,6,6,7,7,8,8,9,9,10,10,11,11,12,12,13,13,14,14],"right_children":[2,4,6,8,10,12,14,16,18,20,22,24,26,28,30,-1,-1,-1,-1,-1,-1,-1,-1,-1,-1,-1,-1,-1,-1,-1,-1],"split_conditions":[3.590793E0,1.3640664E0,3.0394166E0,1.1597122E0,-3.2712993E-1,2.761678E0,1.139213E0,1.3019606E-1,1.5660901E0,3.0561426E0,1.492813E0,1.9201998E0,6.3249654E-1,8.5482955E-1,2.9758213E0,4.525254E-3,-1.2751142E-2,2.146759E-2,5.2250594E-2,-6.135491E-2,8.5018955E-2,-2.4196737E-2,2.7289386E-3,4.65645E-2,1.1975643E-2,-6.5741986E-2,2.3320781E-2,-1.25944605E-2,2.7776934E-2,1.0182584E-1,-0E0],"split_indices":[10,2,11,0,3,14,120,2,0,0,3,7,132,6,139,0,0,0,0,0,0,0,0,0,0,0,0,0,0,0,0],"split_type":[0,0,0,0,0,0,0,0,0,0,0,0,0,0,0,0,0,0,0,0,0,0,0,0,0,0,0,0,0,0,0],"sum_hessian":[1.5922422E4,1.5053418E4,8.6900433E2,1.3316154E4,1.7372633E3,6.8824536E2,1.8075897E2,1.223662E4,1.0795344E3,1.9453831E2,1.542725E3,6.7265466E2,1.5590728E1,1.7270242E2,8.056548E0,7.563364E3,4.673256E3,6.9381305E2,3.857214E2,1.8996915E2,4.5691657E0,1.251986E3,2.90739E2,5.9385675E2,7.879791E1,1.0841384E1,4.749344E0,1.1661696E2,5.608546E1,6.848572E0,1.2079765E0],"tree_param":{"num_deleted":"0","num_feature":"162","num_nodes":"31","size_leaf_vector":"1"}},{"base_weights":[4.6935E-3,-4.3436587E-2,1.5362006E-1,-1.7227495E-2,-3.9578152E-1,3.0594078E-1,4.117069E-2,8.260536E-3,-2.7895805E-1,2.3804422E-1,-4.4800442E-1,5.785084E-1,2.3014781E-1,3.9475137E-1,-6.541393E-3,-9.890099E-4,4.269723E-2,-3.709285E-2,-7.5506787E-3,4.3145116E-2,-7.7611078E-3,-6.5866254E-2,-3.306354E-2,2.9097049E-2,6.52747E-2,1.365017E-2,4.09493E-2,4.442801E-2,-1.35118095E-2,-1.0479034E-2,1.4007309E-2],"categories":[],"categories_nodes":[],"categories_segments":[],"categories_sizes":[],"default_left":[0,0,0,0,0,0,0,0,0,0,0,0,0,0,0,0,0,0,0,0,0,0,0,0,0,0,0,0,0,0,0],"id":35,"left_children":[1,3,5,7,9,11,13,15,17,19,21,23,25,27,29,-1,-1,-1,-1,-1,-1,-1,-1,-1,-1,-1,-1,-1,-1,-1,-1],"loss_changes":[1.1402388E2,1.1046625E2,6.622229E1,7.48374E1,2.7746628E1,3.3095535E1,3.8182064E1,8.709665E1,2.3051575E1,4.931432E0,1.7182907E1,1.0371086E1,2.2014992E1,1.2389534E1,3.284401E1,0E0,0E0,0E0,0E0,0E0,0E0,0E0,0E0,0E0,0E0,0E0,0E0,0E0,0E0,0E0,0E0],"parents":[2147483647,0,0,1,1,2,2,3,3,4,4,5,5,6,6,7,7,8,8,9,9,10,10,11,11,12,12,13,13,14,14],"right_children":[2,4,6,8,10,12,14,16,18,20,22,24,26,28,30,-1,-1,-1,-1,-1,-1,-1,-1,-1,-1,-1,-1,-1,-1,-1,-1],"split_conditions":[7.6483583E-1,1.0113258E0,5.920929E-1,1.3640664E0,-4.8673907E-1,1.3019606E-1,-1.782715E-1,1.4306308E0,2.2939588E-1,1.2561463E0,7.603762E-2,9.506951E-3,5.931243E-2,3.089381E-1,5.730554E-1,-9.890099E-4,4.269723E-2,-3.709285E-2,-7.5506787E-3,4.3145116E-2,-7.7611078E-3,-6.5866254E-2,-3.306354E-2,2.9097049E-2,6.52747E-2,1.365017E-2,4.09493E-2,4.442801E-2,-1.35118095E-2,-1.0479034E-2,1.4007309E-2],"split_indices":[3,1,7,2,2,2,2,0,142,7,0,6,110,141,6,0,0,0,0,0,0,0,0,0,0,0,0,0,0,0,0],"split_type":[0,0,0,0,0,0,0,0,0,0,0,0,0,0,0,0,0,0,0,0,0,0,0,0,0,0,0,0,0,0,0],"sum_hessian":[1.5890724E4,1.2005162E4,3.885562E3,1.1177599E4,8.2756366E2,1.6457762E3,2.239786E3,1.0183271E4,9.943268E2,6.1292046E1,7.662716E2,3.5373593E2,1.2920403E3,2.677795E2,1.9720063E3,9.772477E3,4.1079498E2,6.1596173E2,3.7836505E2,3.7507683E1,2.378436E1,1.9700409E2,5.692675E2,1.15495766E2,2.3824016E2,9.2893634E2,3.6310397E2,2.3390616E2,3.387335E1,1.1809684E3,7.9103796E2],"tree_param":{"num_deleted":"0","num_feature":"162","num_nodes":"31","size_leaf_vector":"1"}},{"base_weights":[4.079789E-3,1.4189942E-1,-4.4986047E-2,3.7840006E-1,9.941822E-2,-9.6985124E-2,1.0334938E-1,3.078509E-1,6.725284E-1,2.0860255E-2,2.2433728E-1,-2.1045377E-2,-2.1524906E-1,-3.2791264E-2,2.4109185E-1,2.4795445E-2,7.542809E-2,6.9553174E-2,-5.5988166E-2,4.524604E-3,-3.984568E-2,2.6442802E-2,-9.7721005E-3,-4.877611E-3,2.2375476E-2,-5.3693656E-2,-1.5576137E-2,3.6934692E-2,-1.0314925E-2,4.1145463E-2,1.3400942E-2],"categories":[],"categories_nodes":[],"categories_segments":[],"categories_sizes":[],"default_left":[0,0,0,0,0,0,0,0,0,0,0,0,0,0,0,0,0,0,0,0,0,0,0,0,0,0,0,0,0,0,0],"id":36,"left_children":[1,3,5,7,9,11,13,15,17,19,21,23,25,27,29,-1,-1,-1,-1,-1,-1,-1,-1,-1,-1,-1,-1,-1,-1,-1,-1],"loss_changes":[1.0752142E2,4.1453163E1,9.033055E1,1.1942894E1,3.4547085E1,7.768698E1,5.712834E1,9.436249E0,1.1940365E1,2.6851885E1,2.7058044E1,4.3209652E1,5.784703E1,5.0867233E1,2.8883553E1,0E0,0E0,0E0,0E0,0E0,0E0,0E0,0E0,0E0,0E0,0E0,0E0,0E0,0E0,0E0,0E0],"parents":[2147483647,0,0,1,1,2,2,3,3,4,4,5,5,6,6,7,7,8,8,9,9,10,10,11,11,12,12,13,13,14,14],"right_children":[2,4,6,8,10,12,14,16,18,20,22,24,26,28,30,-1,-1,-1,-1,-1,-1,-1,-1,-1,-1,-1,-1,-1,-1,-1,-1],"split_conditions":[-4.7609088E-1,-7.546276E-1,8.5482955E-1,4.0718164E0,2.9128116E-1,1.3019606E-1,5.1614416E-1,3.590793E0,3.2483068E0,3.0394166E0,1.3640664E0,2.1149693E-1,-3.2712993E-1,1.3019606E-1,-7.196055E-2,2.4795445E-2,7.542809E-2,6.9553174E-2,-5.5988166E-2,4.524604E-3,-3.984568E-2,2.6442802E-2,-9.7721005E-3,-4.877611E-3,2.2375476E-2,-5.3693656E-2,-1.5576137E-2,3.6934692E-2,-1.0314925E-2,4.1145463E-2,1.3400942E-2],"split_indices":[14,26,6,15,6,2,8,10,7,11,2,0,3,2,7,0,0,0,0,0,0,0,0,0,0,0,0,0,0,0,0],"split_type":[0,0,0,0,0,0,0,0,0,0,0,0,0,0,0,0,0,0,0,0,0,0,0,0,0,0,0,0,0,0,0],"sum_hessian":[1.5884308E4,4.174987E3,1.170932E4,6.3096564E2,3.5440212E3,8.675143E3,3.0341782E3,5.133375E2,1.1762813E2,2.1812832E3,1.362738E3,5.288647E3,3.3864954E3,1.5228419E3,1.5113363E3,4.775508E2,3.5786705E1,1.1224414E2,5.383988E0,2.057229E3,1.2405422E2,1.1559797E3,2.0675832E2,4.7262812E3,5.623659E2,3.9219855E2,2.9942966E3,2.3150298E2,1.2913389E3,4.8778635E2,1.0235499E3],"tree_param":{"num_deleted":"0","num_feature":"162","num_nodes":"31","size_leaf_vector":"1"}},{"base_weights":[-4.254531E-3,-2.2821404E-2,3.2417357E-1,-4.4902228E-4,-3.0512068E-1,5.2541816E-1,2.2724211E-1,6.4898245E-2,-9.376125E-2,-4.330326E-1,-1.7599088E-1,4.2541826E-1,9.267208E-1,1.7745961E-1,7.6850295E-1,8.856233E-3,-1.7156782E-2,-1.1523971E-2,2.09089E-2,-1.7312547E-2,-5.0928958E-2,-2.0474367E-2,6.3139424E-2,8.612629E-2,2.8824762E-2,9.922162E-2,-0E0,2.3248244E-2,-9.847181E-3,8.598852E-2,2.2037093E-2],"categories":[],"categories_nodes":[],"categories_segments":[],"categories_sizes":[],"default_left":[0,0,0,0,0,0,0,0,0,0,0,0,0,0,0,0,0,0,0,0,0,0,0,0,0,0,0,0,0,0,0],"id":37,"left_children":[1,3,5,7,9,11,13,15,17,19,21,23,25,27,29,-1,-1,-1,-1,-1,-1,-1,-1,-1,-1,-1,-1,-1,-1,-1,-1],"loss_changes":[9.634283E1,9.445127E1,1.5629097E1,8.4819885E1,1.7471214E1,9.128029E0,1.4445923E1,6.1567936E1,5.481336E1,1.4617722E1,2.047731E1,1.1257412E1,5.5815964E0,1.1030497E1,2.484682E0,0E0,0E0,0E0,0E0,0E0,0E0,0E0,0E0,0E0,0E0,0E0,0E0,0E0,0E0,0E0,0E0],"parents":[2147483647,0,0,1,1,2,2,3,3,4,4,5,5,6,6,7,7,8,8,9,9,10,10,11,11,12,12,13,13,14,14],"right_children":[2,4,6,8,10,12,14,16,18,20,22,24,26,28,30,-1,-1,-1,-1,-1,-1,-1,-1,-1,-1,-1,-1,-1,-1,-1,-1],"split_conditions":[3.590793E0,3.0394166E0,2.6006615E-1,-1.24159485E-1,1.001781E0,1.1288245E0,2.2207901E0,1.588173E0,1.5660901E0,-4.4441706E-1,2.1079273E0,-1.782715E-1,1.1373352E0,3.0394166E0,9.325783E-1,8.856233E-3,-1.7156782E-2,-1.1523971E-2,2.09089E-2,-1.7312547E-2,-5.0928958E-2,-2.0474367E-2,6.3139424E-2,8.612629E-2,2.8824762E-2,9.922162E-2,-0E0,2.3248244E-2,-9.847181E-3,8.598852E-2,2.2037093E-2],"split_indices":[10,11,7,14,9,3,3,7,0,14,0,2,143,11,145,0,0,0,0,0,0,0,0,0,0,0,0,0,0,0,0],"split_type":[0,0,0,0,0,0,0,0,0,0,0,0,0,0,0,0,0,0,0,0,0,0,0,0,0,0,0,0,0,0,0],"sum_hessian":[1.5844829E4,1.500075E4,8.440789E2,1.3903406E4,1.0973433E3,2.6959692E2,5.74482E2,8.171088E3,5.732319E3,5.462296E2,5.5111365E2,2.1952884E2,5.0068077E1,5.290448E2,4.5437187E1,7.2905195E3,8.805688E2,5.2412134E3,4.911052E2,1.7625774E2,3.6997186E2,5.259615E2,2.5152205E1,3.8262802E1,1.8126604E2,4.247829E1,7.5897865E0,4.2424875E2,1.0479604E2,3.31351E1,1.2302085E1],"tree_param":{"num_deleted":"0","num_feature":"162","num_nodes":"31","size_leaf_vector":"1"}},{"base_weights":[-2.7412265E-3,-1.884251E-2,3.3176413E-1,2.8409762E-2,-1.5905768E-1,3.7778312E-1,-5.337735E-1,-2.3730662E-2,2.3863032E-1,-2.4459828E-1,-0E0,4.4058937E-1,-8.581365E-2,-7.511104E-1,-0E0,3.4195618E-3,-1.378157E-2,5.825409E-2,1.7304635E-2,-4.3914672E-2,-1.5013299E-2,5.204123E-3,-3.165189E-2,3.444914E-2,7.018111E-2,-2.1390457E-2,5.1859543E-2,-8.151123E-2,-0E0,2.3629459E-2,-6.8394065E-2],"categories":[],"categories_nodes":[],"categories_segments":[],"categories_sizes":[],"default_left":[0,0,0,0,0,0,0,0,0,0,0,0,0,0,0,0,0,0,0,0,0,0,0,0,0,0,0,0,0,0,0],"id":38,"left_children":[1,3,5,7,9,11,13,15,17,19,21,23,25,27,29,-1,-1,-1,-1,-1,-1,-1,-1,-1,-1,-1,-1,-1,-1,-1,-1],"loss_changes":[8.4782646E1,1.0000869E2,2.8853989E1,1.23753265E2,5.1994675E1,2.0414757E1,4.0102844E0,6.800355E1,4.4880157E1,4.620656E1,2.5014715E1,1.2034073E1,7.3362846E0,2.4330406E0,2.4863677E0,0E0,0E0,0E0,0E0,0E0,0E0,0E0,0E0,0E0,0E0,0E0,0E0,0E0,0E0,0E0,0E0],"parents":[2147483647,0,0,1,1,2,2,3,3,4,4,5,5,6,6,7,7,8,8,9,9,10,10,11,11,12,12,13,13,14,14],"right_children":[2,4,6,8,10,12,14,16,18,20,22,24,26,28,30,-1,-1,-1,-1,-1,-1,-1,-1,-1,-1,-1,-1,-1,-1,-1,-1],"split_conditions":[1.9819264E0,7.471312E-1,3.2013826E0,4.824156E-1,4.4097316E-1,2.289469E0,-7.8460634E-1,-1.782715E-1,-1.782715E-1,6.1787486E-1,3.0394166E0,2.827249E0,3.1090233E0,7.78054E0,5.3328247E0,3.4195618E-3,-1.378157E-2,5.825409E-2,1.7304635E-2,-4.3914672E-2,-1.5013299E-2,5.204123E-3,-3.165189E-2,3.444914E-2,7.018111E-2,-2.1390457E-2,5.1859543E-2,-8.151123E-2,-0E0,2.3629459E-2,-6.8394065E-2],"split_indices":[6,2,16,0,142,2,110,2,2,0,11,6,6,109,64,0,0,0,0,0,0,0,0,0,0,0,0,0,0,0,0],"split_type":[0,0,0,0,0,0,0,0,0,0,0,0,0,0,0,0,0,0,0,0,0,0,0,0,0,0,0,0,0,0,0],"sum_hessian":[1.5795297E4,1.5073645E4,7.216519E2,1.1269725E4,3.80392E3,6.868595E2,3.4792416E1,9.02711E3,2.2426152E3,2.4769885E3,1.3269313E3,6.0679456E2,8.006493E1,2.414469E1,1.0647726E1,6.0687515E3,2.9583584E3,2.6498242E2,1.9776327E3,6.5984045E2,1.8171482E3,1.1426567E3,1.8427454E2,4.9990707E2,1.0688748E2,6.7210464E1,1.28544655E1,2.0644577E1,3.5001109E0,8.235274E0,2.4124522E0],"tree_param":{"num_deleted":"0","num_feature":"162","num_nodes":"31","size_leaf_vector":"1"}},{"base_weights":[-9.833714E-4,-2.6339676E-2,2.3663117E-1,3.478654E-2,-1.1933631E-1,3.2476604E-1,2.7461097E-2,-3.507654E-2,2.1778503E-1,5.174793E-1,-1.5033041E-1,2.7338004E-1,6.4760864E-1,-4.5263562E-2,5.685431E-1,-1.6097522E-3,-3.3350095E-2,2.3772707E-2,-3.598225E-2,-0E0,5.6089837E-2,-4.8670743E-2,-1.0504891E-2,3.034899E-2,1.4511727E-3,6.5165795E-2,-9.41673E-3,-2.2420682E-2,1.2013303E-2,6.13642E-2,-0E0],"categories":[],"categories_nodes":[],"categories_segments":[],"categories_sizes":[],"default_left":[0,0,0,0,0,0,0,0,0,0,0,0,0,0,0,0,0,0,0,0,0,0,0,0,0,0,0,0,0,0,0],"id":39,"left_children":[1,3,5,7,9,11,13,15,17,19,21,23,25,27,29,-1,-1,-1,-1,-1,-1,-1,-1,-1,-1,-1,-1,-1,-1,-1,-1],"loss_changes":[9.471457E1,8.102596E1,2.7585358E1,1.0995586E2,1.1131761E2,1.65486E1,1.8385605E1,3.532775E1,5.4048286E1,1.18122635E1,7.460242E1,1.2183128E1,6.2691803E0,1.3762485E1,3.3980618E0,0E0,0E0,0E0,0E0,0E0,0E0,0E0,0E0,0E0,0E0,0E0,0E0,0E0,0E0,0E0,0E0],"parents":[2147483647,0,0,1,1,2,2,3,3,4,4,5,5,6,6,7,7,8,8,9,9,10,10,11,11,12,12,13,13,14,14],"right_children":[2,4,6,8,10,12,14,16,18,20,22,24,26,28,30,-1,-1,-1,-1,-1,-1,-1,-1,-1,-1,-1,-1,-1,-1,-1,-1],"split_conditions":[7.994552E-1,2.6006615E-1,1.2561463E0,3.6858663E-2,-4.8673907E-1,1.492813E0,2.2207901E0,1.0140522E0,2.289469E0,-6.9111854E-1,-3.2712993E-1,7.471312E-1,-1.7292477E-2,9.506951E-3,1.6351223E0,-1.6097522E-3,-3.3350095E-2,2.3772707E-2,-3.598225E-2,-0E0,5.6089837E-2,-4.8670743E-2,-1.0504891E-2,3.034899E-2,1.4511727E-3,6.5165795E-2,-9.41673E-3,-2.2420682E-2,1.2013303E-2,6.13642E-2,-0E0],"split_indices":[68,7,7,3,2,3,3,69,2,3,3,2,141,6,104,0,0,0,0,0,0,0,0,0,0,0,0,0,0,0,0],"split_type":[0,0,0,0,0,0,0,0,0,0,0,0,0,0,0,0,0,0,0,0,0,0,0,0,0,0,0,0,0,0,0],"sum_hessian":[1.5751775E4,1.4237497E4,1.5142776E3,8.584933E3,5.6525645E3,1.0617009E3,4.5257672E2,6.2098076E3,2.3751255E3,2.601087E2,5.3924556E3,9.202232E2,1.4147774E2,3.9825018E2,5.4326527E1,5.8899775E3,3.1983E2,2.237953E3,1.3717279E2,3.6101837E1,2.2400685E2,4.8891907E2,4.9035366E3,7.6064496E2,1.5957823E2,1.3346774E2,8.009992E0,1.9008429E2,2.081659E2,4.793329E1,6.3932385E0],"tree_param":{"num_deleted":"0","num_feature":"162","num_nodes":"31","size_leaf_vector":"1"}},{"base_weights":[8.0089015E-4,-1.6498737E-2,3.2858142E-1,1.1074111E-2,-2.8079855E-1,4.381004E-1,6.1120298E-2,-5.8387987E-2,1.0824672E-1,2.7031448E-1,-3.137136E-1,5.8993965E-1,2.5813E-1,2.0947063E-1,-2.1857516E-1,-6.564703E-4,-1.9268474E-2,7.152131E-2,7.613647E-3,3.718775E-2,-4.242635E-2,-5.2749E-2,-2.2949787E-2,6.005476E-2,-3.5833055E-3,5.2397825E-2,1.4127737E-2,3.08669E-3,4.337355E-2,1.7048417E-2,-3.6659844E-2],"categories":[],"categories_nodes":[],"categories_segments":[],"categories_sizes":[],"default_left":[0,0,0,0,0,0,0,0,0,0,0,0,0,0,0,0,0,0,0,0,0,0,0,0,0,0,0,0,0,0,0],"id":40,"left_children":[1,3,5,7,9,11,13,15,17,19,21,23,25,27,29,-1,-1,-1,-1,-1,-1,-1,-1,-1,-1,-1,-1,-1,-1,-1,-1],"loss_changes":[8.9556755E1,1.0920076E2,2.2684242E1,9.140673E1,2.581083E1,1.4292969E1,9.745039E0,5.9976074E1,9.770071E1,7.5292797E0,2.1787903E1,1.1028786E1,7.6665974E0,6.5402446E0,5.8693733E0,0E0,0E0,0E0,0E0,0E0,0E0,0E0,0E0,0E0,0E0,0E0,0E0,0E0,0E0,0E0,0E0],"parents":[2147483647,0,0,1,1,2,2,3,3,4,4,5,5,6,6,7,7,8,8,9,9,10,10,11,11,12,12,13,13,14,14],"right_children":[2,4,6,8,10,12,14,16,18,20,22,24,26,28,30,-1,-1,-1,-1,-1,-1,-1,-1,-1,-1,-1,-1,-1,-1,-1,-1],"split_conditions":[1.8568016E0,1.1720483E0,1.588173E0,3.6858663E-2,-4.8673907E-1,1.0788232E0,5.83801E-1,1.3019606E-1,-4.8673907E-1,1.5691873E0,-2.7226725E-1,1.672534E0,1.4505254E-1,2.5847788E0,8.8689315E-1,-6.564703E-4,-1.9268474E-2,7.152131E-2,7.613647E-3,3.718775E-2,-4.242635E-2,-5.2749E-2,-2.2949787E-2,6.005476E-2,-3.5833055E-3,5.2397825E-2,1.4127737E-2,3.08669E-3,4.337355E-2,1.7048417E-2,-3.6659844E-2],"split_indices":[3,1,7,3,2,143,135,2,2,4,6,2,4,3,140,0,0,0,0,0,0,0,0,0,0,0,0,0,0,0,0],"split_type":[0,0,0,0,0,0,0,0,0,0,0,0,0,0,0,0,0,0,0,0,0,0,0,0,0,0,0,0,0,0,0],"sum_hessian":[1.5738125E4,1.4947308E4,7.908175E2,1.3532875E4,1.4144327E3,5.5801587E2,2.3280165E2,7.886105E3,5.64677E3,7.76195E1,1.3368132E3,2.984117E2,2.596042E2,1.5455637E2,7.824528E1,5.8674585E3,2.0186465E3,2.1484863E2,5.4319214E3,6.743452E1,1.0184988E1,2.7554092E2,1.0612722E3,2.7565146E2,2.276024E1,6.3576923E1,1.9602725E2,9.456555E1,5.999081E1,2.2080297E1,5.616498E1],"tree_param":{"num_deleted":"0","num_feature":"162","num_nodes":"31","size_leaf_vector":"1"}},{"base_weights":[-7.0322905E-4,-2.8705074E-2,2.232677E-1,-7.532048E-3,-3.0281758E-1,4.2243442E-1,8.134916E-2,-3.0712755E-2,2.514164E-1,-3.6022887E-1,-9.18331E-3,4.3730256E-1,-7.6488507E-1,-1.899517E-2,3.5192487E-1,-1.278457E-3,-3.5504643E-2,1.980931E-2,6.421248E-2,-3.77844E-2,3.920537E-3,-3.295822E-2,2.6897326E-2,4.7439687E-2,1.7381681E-2,-1.166236E-1,1.5210143E-2,6.14578E-3,-2.7539507E-2,1.7187718E-2,7.97751E-2],"categories":[],"categories_nodes":[],"categories_segments":[],"categories_sizes":[],"default_left":[0,0,0,0,0,0,0,0,0,0,0,0,0,0,0,0,0,0,0,0,0,0,0,0,0,0,0,0,0,0,0],"id":41,"left_children":[1,3,5,7,9,11,13,15,17,19,21,23,25,27,29,-1,-1,-1,-1,-1,-1,-1,-1,-1,-1,-1,-1,-1,-1,-1,-1],"loss_changes":[9.853163E1,8.092313E1,4.881099E1,7.78058E1,1.6500366E1,1.2809982E1,2.8114773E1,7.066903E1,1.6972809E1,1.5721733E1,1.7396498E1,1.2209869E1,5.142171E0,1.778366E1,2.2439812E1,0E0,0E0,0E0,0E0,0E0,0E0,0E0,0E0,0E0,0E0,0E0,0E0,0E0,0E0,0E0,0E0],"parents":[2147483647,0,0,1,1,2,2,3,3,4,4,5,5,6,6,7,7,8,8,9,9,10,10,11,11,12,12,13,13,14,14],"right_children":[2,4,6,8,10,12,14,16,18,20,22,24,26,28,30,-1,-1,-1,-1,-1,-1,-1,-1,-1,-1,-1,-1,-1,-1,-1,-1],"split_conditions":[1.418378E0,3.0394166E0,7.471312E-1,7.9583496E-1,1.950125E0,4.6876917E0,2.2637007E0,1.0140522E0,4.2885914E0,1.4288418E0,2.9128116E-1,9.9953336E-1,1.6840903E0,7.247643E-1,9.3532044E-1,-1.278457E-3,-3.5504643E-2,1.980931E-2,6.421248E-2,-3.77844E-2,3.920537E-3,-3.295822E-2,2.6897326E-2,4.7439687E-2,1.7381681E-2,-1.166236E-1,1.5210143E-2,6.14578E-3,-2.7539507E-2,1.7187718E-2,7.97751E-2],"split_indices":[6,11,2,24,8,106,6,69,110,116,6,4,92,69,5,0,0,0,0,0,0,0,0,0,0,0,0,0,0,0,0],"split_type":[0,0,0,0,0,0,0,0,0,0,0,0,0,0,0,0,0,0,0,0,0,0,0,0,0,0,0,0,0,0,0],"sum_hessian":[1.5738608E4,1.3994247E4,1.7443607E3,1.2995117E4,9.991301E2,7.2206714E2,1.0222936E3,1.1931697E4,1.0634199E3,8.327669E2,1.6636322E2,7.1461554E2,7.4515915E0,7.438574E2,2.7843616E2,1.1384613E4,5.470841E2,9.809533E2,8.246662E1,7.498855E2,8.2881386E1,7.854519E1,8.781802E1,5.504985E2,1.6411711E2,5.319069E0,2.1325223E0,5.670592E2,1.7679823E2,2.1173618E2,6.669998E1],"tree_param":{"num_deleted":"0","num_feature":"162","num_nodes":"31","size_leaf_vector":"1"}},{"base_weights":[2.7103545E-3,-1.9952504E-2,2.3331793E-1,4.169164E-3,-2.9219067E-1,3.1778336E-1,-1.7363465E-3,-6.1244626E-2,9.295117E-2,4.4654395E-2,-3.5860187E-1,2.5057235E-1,6.0159117E-1,-1.0449875E-1,3.0223864E-1,-8.559467E-3,1.7807133E-2,4.2831143E-3,1.9936396E-2,-8.919825E-3,3.828628E-2,-3.0069368E-2,-7.856461E-2,1.1406152E-2,3.7260592E-2,-4.309211E-2,5.9352256E-2,4.857543E-3,-3.309042E-2,5.3573307E-2,-1.2105551E-2],"categories":[],"categories_nodes":[],"categories_segments":[],"categories_sizes":[],"default_left":[0,0,0,0,0,0,0,0,0,0,0,0,0,0,0,0,0,0,0,0,0,0,0,0,0,0,0,0,0,0,0],"id":42,"left_children":[1,3,5,7,9,11,13,15,17,19,21,23,25,27,29,-1,-1,-1,-1,-1,-1,-1,-1,-1,-1,-1,-1,-1,-1,-1,-1],"loss_changes":[8.229735E1,9.417444E1,2.8287437E1,7.630342E1,2.6428635E1,1.8846962E1,1.14194E1,5.855755E1,3.1479263E1,1.0176501E1,1.5429611E1,1.5649796E1,8.011375E0,1.1334176E1,1.1330269E1,0E0,0E0,0E0,0E0,0E0,0E0,0E0,0E0,0E0,0E0,0E0,0E0,0E0,0E0,0E0,0E0],"parents":[2147483647,0,0,1,1,2,2,3,3,4,4,5,5,6,6,7,7,8,8,9,9,10,10,11,11,12,12,13,13,14,14],"right_children":[2,4,6,8,10,12,14,16,18,20,22,24,26,28,30,-1,-1,-1,-1,-1,-1,-1,-1,-1,-1,-1,-1,-1,-1,-1,-1],"split_conditions":[1.492813E0,1.1720483E0,1.588173E0,-1.0211044E-1,-1.782715E-1,6.718114E-1,2.5847788E0,1.6632495E0,4.0084726E-1,1.2654165E0,1.672534E0,5.730554E-1,-8.3581567E-1,1.6542157E0,3.5510242E-1,-8.559467E-3,1.7807133E-2,4.2831143E-3,1.9936396E-2,-8.919825E-3,3.828628E-2,-3.0069368E-2,-7.856461E-2,1.1406152E-2,3.7260592E-2,-4.309211E-2,5.9352256E-2,4.857543E-3,-3.309042E-2,5.3573307E-2,-1.2105551E-2],"split_indices":[3,1,7,110,2,68,3,9,3,63,2,6,6,1,150,0,0,0,0,0,0,0,0,0,0,0,0,0,0,0,0],"split_type":[0,0,0,0,0,0,0,0,0,0,0,0,0,0,0,0,0,0,0,0,0,0,0,0,0,0,0,0,0,0,0],"sum_hessian":[1.5705439E4,1.429718E4,1.4082596E3,1.3131197E4,1.1659819E3,1.0387339E3,3.6952576E2,7.554525E3,5.576673E3,1.8968068E2,9.763012E2,8.442442E2,1.9448973E2,2.7907385E2,9.045189E1,6.739248E3,8.152772E2,4.0274482E3,1.5492245E3,1.3580904E2,5.3871643E1,9.132944E2,6.300686E1,4.597415E2,3.845027E2,5.086739E0,1.89403E2,1.6998102E2,1.0909284E2,5.656242E1,3.388947E1],"tree_param":{"num_deleted":"0","num_feature":"162","num_nodes":"31","size_leaf_vector":"1"}},{"base_weights":[-3.1976565E-3,2.8621674E-2,-1.5035903E-1,-1.4834412E-2,2.603608E-1,-2.5619233E-1,-1.790736E-2,4.624039E-2,-9.63989E-2,-2.629805E-1,2.8688455E-1,-4.4021392E-1,-6.2047288E-2,8.63416E-2,-3.120604E-1,-9.6187525E-4,3.3519175E-2,-4.0294E-2,-4.9934606E-3,-4.8530065E-2,2.2631023E-2,2.0689169E-2,5.1034465E-2,-4.819018E-2,-1.3613618E-2,-2.96464E-3,-6.9455504E-2,2.0938758E-3,6.148699E-2,-1.3798049E-2,-6.174927E-2],"categories":[],"categories_nodes":[],"categories_segments":[],"categories_sizes":[],"default_left":[0,0,0,0,0,0,0,0,0,0,0,0,0,0,0,0,0,0,0,0,0,0,0,0,0,0,0,0,0,0,0],"id":43,"left_children":[1,3,5,7,9,11,13,15,17,19,21,23,25,27,29,-1,-1,-1,-1,-1,-1,-1,-1,-1,-1,-1,-1,-1,-1,-1,-1],"loss_changes":[7.346485E1,1.2988684E2,3.8841236E1,5.4045135E1,2.8372833E1,5.474539E1,3.840869E1,1.1030469E2,6.6368195E1,1.3100534E1,3.1891602E1,1.7320862E1,1.4849706E1,3.295459E1,1.8006163E1,0E0,0E0,0E0,0E0,0E0,0E0,0E0,0E0,0E0,0E0,0E0,0E0,0E0,0E0,0E0,0E0],"parents":[2147483647,0,0,1,1,2,2,3,3,4,4,5,5,6,6,7,7,8,8,9,9,10,10,11,11,12,12,13,13,14,14],"right_children":[2,4,6,8,10,12,14,16,18,20,22,24,26,28,30,-1,-1,-1,-1,-1,-1,-1,-1,-1,-1,-1,-1,-1,-1,-1,-1],"split_conditions":[1.0555987E0,7.533342E-1,1.1597122E0,-1.782715E-1,-6.9111854E-1,2.3695222E-1,2.289469E0,-2.7226725E-1,-3.2712993E-1,1.1945768E-1,1.4306308E0,9.6476567E-1,2.5979366E0,2.2433867E0,6.5362793E-1,-9.6187525E-4,3.3519175E-2,-4.0294E-2,-4.9934606E-3,-4.8530065E-2,2.2631023E-2,2.0689169E-2,5.1034465E-2,-4.819018E-2,-1.3613618E-2,-2.96464E-3,-6.9455504E-2,2.0938758E-3,6.148699E-2,-1.3798049E-2,-6.174927E-2],"split_indices":[2,0,0,2,3,142,2,6,3,136,0,77,2,0,69,0,0,0,0,0,0,0,0,0,0,0,0,0,0,0,0],"split_type":[0,0,0,0,0,0,0,0,0,0,0,0,0,0,0,0,0,0,0,0,0,0,0,0,0,0,0,0,0,0,0],"sum_hessian":[1.5661747E4,1.2872697E4,2.78905E3,1.0837304E4,2.0353939E3,1.5456826E3,1.2433673E3,6.1905063E3,4.6467974E3,9.5956566E1,1.9394374E3,7.902684E2,7.554143E2,9.161521E2,3.2721524E2,5.2434624E3,9.470439E2,5.200152E2,4.1267817E3,6.4764175E1,3.119239E1,1.5598461E3,3.7959128E2,6.2199286E2,1.6827548E2,7.2592615E2,2.9488165E1,8.270246E2,8.912748E1,2.2611041E2,1.01104836E2],"tree_param":{"num_deleted":"0","num_feature":"162","num_nodes":"31","size_leaf_vector":"1"}},{"base_weights":[-3.5702856E-3,-6.422529E-2,8.119607E-2,8.363365E-3,-1.8524429E-1,4.058152E-1,4.660981E-2,2.0689422E-1,-3.1692542E-2,-6.2265165E-2,-3.0901098E-1,-1.15401424E-1,4.6022505E-1,7.214538E-2,-3.5066602E-1,1.3677529E-2,5.2052416E-2,-2.1540946E-3,-5.0592236E-2,8.131152E-3,-1.621077E-2,-3.2986052E-2,1.3830054E-2,1.6044633E-2,-3.913664E-2,7.08132E-2,2.9804017E-2,2.627426E-3,2.9652357E-2,-5.3363383E-2,-8.280795E-3],"categories":[],"categories_nodes":[],"categories_segments":[],"categories_sizes":[],"default_left":[0,0,0,0,0,0,0,0,0,0,0,0,0,0,0,0,0,0,0,0,0,0,0,0,0,0,0,0,0,0,0],"id":44,"left_children":[1,3,5,7,9,11,13,15,17,19,21,23,25,27,29,-1,-1,-1,-1,-1,-1,-1,-1,-1,-1,-1,-1,-1,-1,-1,-1],"loss_changes":[8.017476E1,8.0095566E1,7.2505844E1,4.536958E1,5.161605E1,1.8056175E1,5.9377495E1,1.946711E1,2.0115154E1,2.8883852E1,3.5554657E1,5.4167304E0,2.2508507E1,5.9455093E1,1.986745E1,0E0,0E0,0E0,0E0,0E0,0E0,0E0,0E0,0E0,0E0,0E0,0E0,0E0,0E0,0E0,0E0],"parents":[2147483647,0,0,1,1,2,2,3,3,4,4,5,5,6,6,7,7,8,8,9,9,10,10,11,11,12,12,13,13,14,14],"right_children":[2,4,6,8,10,12,14,16,18,20,