{"learner":{"attributes":{"scikit_learn":"{\"_estimator_type\": \"classifier\"}"},"feature_names":[],"feature_types":[],"gradient_booster":{"model":{"cats":{"enc":[],"feature_segments":[],"sorted_idx":[]},"gbtree_model_param":{"num_parallel_tree":"1","num_trees":"151"},"iteration_indptr":[0,1,2,3,4,5,6,7,8,9,10,11,12,13,14,15,16,17,18,19,20,21,22,23,24,25,26,27,28,29,30,31,32,33,34,35,36,37,38,39,40,41,42,43,44,45,46,47,48,49,50,51,52,53,54,55,56,57,58,59,60,61,62,63,64,65,66,67,68,69,70,71,72,73,74,75,76,77,78,79,80,81,82,83,84,85,86,87,88,89,90,91,92,93,94,95,96,97,98,99,100,101,102,103,104,105,106,107,108,109,110,111,112,113,114,115,116,117,118,119,120,121,122,123,124,125,126,127,128,129,130,131,132,133,134,135,136,137,138,139,140,141,142,143,144,145,146,147,148,149,150,151],"tree_info":[0,0,0,0,0,0,0,0,0,0,0,0,0,0,0,0,0,0,0,0,0,0,0,0,0,0,0,0,0,0,0,0,0,0,0,0,0,0,0,0,0,0,0,0,0,0,0,0,0,0,0,0,0,0,0,0,0,0,0,0,0,0,0,0,0,0,0,0,0,0,0,0,0,0,0,0,0,0,0,0,0,0,0,0,0,0,0,0,0,0,0,0,0,0,0,0,0,0,0,0,0,0,0,0,0,0,0,0,0,0,0,0,0,0,0,0,0,0,0,0,0,0,0,0,0,0,0,0,0,0,0,0,0,0,0,0,0,0,0,0,0,0,0,0,0,0,0,0,0,0,0],"trees":[{"base_weights":[1.0684609E-2,-1.9634934E-1,3.5152933E-1,-2.9080474E-1,1.6412646E-1,-2.2816379E-2,5.029081E-1,-5.8805034E-2,-6.147667E-1,-3.3399728E-1,2.5041392E-1,-2.7291754E-1,2.2443512E-1,6.097451E-1,2.8876448E-1,-1.7940031E-1,1.9446738E-1,-1.1849726E0,-4.7465461E-1,-4.0913942E-1,2.7539957E-2,5.0779957E-2,3.606674E-1,-6.760549E-2,-6.005058E-1,2.5833393E-2,4.6071205E-1,5.0514996E-1,8.715322E-1,2.247196E-1,5.4342014E-1,-9.5728815E-2,-9.131387E-3,6.1114677E-3,2.0524323E-2,-4.6493173E-2,-7.9099104E-2,-6.405903E-2,-1.9671531E-2,-1.0349658E-2,-3.8842205E-2,8.60163E-3,-1.3579055E-2,1.317335E-2,2.8457357E-2,-1.7282028E-2,1.6364736E-2,2.257428E-2,-3.645896E-2,1.5522873E-2,-1.3380326E-2,2.7125832E-2,-2.3143794E-2,1.814479E-2,3.795601E-2,4.3712113E-2,5.566762E-2,9.595564E-3,2.7978776E-2,2.4398515E-2,5.1314354E-2],"categories":[],"categories_nodes":[],"categories_segments":[],"categories_sizes":[],"default_left":[0,0,0,0,0,0,0,0,0,0,0,0,0,0,0,0,0,0,0,0,0,0,0,0,0,0,0,0,0,0,0,0,0,0,0,0,0,0,0,0,0,0,0,0,0,0,0,0,0,0,0,0,0,0,0,0,0,0,0,0,0],"id":0,"left_children":[1,3,5,7,9,11,13,15,17,19,21,23,25,27,29,31,33,35,37,39,-1,41,43,45,47,49,51,53,55,57,59,-1,-1,-1,-1,-1,-1,-1,-1,-1,-1,-1,-1,-1,-1,-1,-1,-1,-1,-1,-1,-1,-1,-1,-1,-1,-1,-1,-1,-1,-1],"loss_changes":[9.4562415E2,2.8392267E2,2.873512E2,4.959765E2,7.43768E1,9.026516E1,8.1695496E1,1.1767844E2,2.1829907E2,1.635038E1,3.2174973E1,4.8358807E1,3.4006035E1,6.4331665E1,1.8968529E1,3.866851E1,1.8369389E1,4.646521E1,1.7125647E2,1.5144367E1,0E0,1.747206E1,1.7784477E1,4.249949E1,2.2438026E1,2.9014019E1,1.319429E1,5.6911407E1,4.301819E0,1.2638393E1,7.3277893E0,0E0,0E0,0E0,0E0,0E0,0E0,0E0,0E0,0E0,0E0,0E0,0E0,0E0,0E0,0E0,0E0,0E0,0E0,0E0,0E0,0E0,0E0,0E0,0E0,0E0,0E0,0E0,0E0,0E0,0E0],"parents":[2147483647,0,0,1,1,2,2,3,3,4,4,5,5,6,6,7,7,8,8,9,9,10,10,11,11,12,12,13,13,14,14,15,15,16,16,17,17,18,18,19,19,21,21,22,22,23,23,24,24,25,25,26,26,27,27,28,28,29,29,30,30],"right_children":[2,4,6,8,10,12,14,16,18,20,22,24,26,28,30,32,34,36,38,40,-1,42,44,46,48,50,52,54,56,58,60,-1,-1,-1,-1,-1,-1,-1,-1,-1,-1,-1,-1,-1,-1,-1,-1,-1,-1,-1,-1,-1,-1,-1,-1,-1,-1,-1,-1,-1,-1],"split_conditions":[4.3866363E-1,7.6483583E-1,3.6858663E-2,-1.1430962E0,-4.8673907E-1,1.0555987E0,4.5608583E-1,5.166881E-1,-3.2712993E-1,1.9679054E0,1.1288245E0,8.5482955E-1,5.730067E-1,1.1288245E0,1.1720483E0,-5.153975E-1,8.4027874E-1,1.0273257E-1,-4.8673907E-1,1.3327707E0,2.7539957E-2,1.2561463E0,6.186265E-1,-3.5588343E-2,-8.326704E-1,8.5482955E-1,2.827249E0,1.0555987E0,1.3640664E0,3.0394166E0,1.5691873E0,-9.5728815E-2,-9.131387E-3,6.1114677E-3,2.0524323E-2,-4.6493173E-2,-7.9099104E-2,-6.405903E-2,-1.9671531E-2,-1.0349658E-2,-3.8842205E-2,8.60163E-3,-1.3579055E-2,1.317335E-2,2.8457357E-2,-1.7282028E-2,1.6364736E-2,2.257428E-2,-3.645896E-2,1.5522873E-2,-1.3380326E-2,2.7125832E-2,-2.3143794E-2,1.814479E-2,3.795601E-2,4.3712113E-2,5.566762E-2,9.595564E-3,2.7978776E-2,2.4398515E-2,5.1314354E-2],"split_indices":[2,3,3,0,2,2,142,129,3,63,3,6,69,3,1,124,123,68,2,1,0,7,68,13,24,6,6,2,2,11,4,0,0,0,0,0,0,0,0,0,0,0,0,0,0,0,0,0,0,0,0,0,0,0,0,0,0,0,0,0,0],"split_type":[0,0,0,0,0,0,0,0,0,0,0,0,0,0,0,0,0,0,0,0,0,0,0,0,0,0,0,0,0,0,0,0,0,0,0,0,0,0,0,0,0,0,0,0,0,0,0,0,0,0,0,0,0,0,0,0,0,0,0,0,0],"sum_hessian":[1.3396663E4,8.333291E3,5.063372E3,6.6048286E3,1.7284629E3,1.4568842E3,3.6064878E3,3.8507363E3,2.754092E3,2.5350215E2,1.4749607E3,7.2564453E2,7.312396E2,2.4024602E3,1.2040276E3,2.6107708E3,1.2399656E3,5.405751E2,2.213517E3,2.3413441E2,1.9367737E1,5.276632E2,9.472975E2,4.482555E2,2.7738904E2,3.9962097E2,3.3161868E2,1.720931E3,6.815291E2,9.6601965E2,2.3800797E2,1.3987809E1,2.596783E3,8.696114E2,3.7035416E2,2.578061E2,2.8276895E2,2.9008566E2,1.9234314E3,1.4073889E2,9.339553E1,3.9015228E2,1.3751093E2,5.653227E2,3.819748E2,2.6770517E2,1.8055034E2,1.8506948E1,2.5888208E2,2.055132E2,1.9410776E2,3.1741568E2,1.4203007E1,9.3998083E2,7.809502E2,5.087259E2,1.7280325E2,8.38623E2,1.2739667E2,1.9862689E2,3.9381065E1],"tree_param":{"num_deleted":"0","num_feature":"162","num_nodes":"61","size_leaf_vector":"1"}},{"base_weights":[5.956173E-3,-1.864718E-1,3.2705146E-1,-2.906664E-1,2.3549914E-2,1.5505402E-1,4.7720882E-1,-3.1547087E-1,3.0279475E-1,1.1779433E-1,-2.0170563E-1,-1.6337782E-2,3.1072178E-1,3.4140402E-1,6.4005905E-1,-2.3696893E-1,-5.0128895E-1,5.9258723E-1,-2.3094775E-2,1.1017254E-2,2.9182988E-1,-4.7224486E-1,-7.6356925E-2,8.784538E-2,-2.633273E-1,4.8105207E-1,9.562193E-2,2.391844E-1,5.576947E-1,7.44204E-1,4.5677155E-1,-1.5634796E-2,-3.6876784E-3,-4.307789E-2,-1.8714922E-2,5.629794E-2,2.3702413E-2,-6.982669E-3,3.450659E-2,9.9246325E-3,-3.557749E-3,1.3476871E-2,3.6041252E-2,-4.4286184E-2,-1.849749E-2,-1.1041352E-2,8.546894E-3,-7.113058E-3,1.2660913E-2,-5.9225623E-2,-9.501715E-3,3.0236924E-2,8.973644E-3,2.3177799E-2,1.8102088E-3,1.0218404E-2,3.3656806E-2,3.154354E-2,-7.988946E-3,3.565875E-2,4.8668202E-2,2.0128341E-2,3.9496686E-2],"categories":[],"categories_nodes":[],"categories_segments":[],"categories_sizes":[],"default_left":[0,0,0,0,0,0,0,0,0,0,0,0,0,0,0,0,0,0,0,0,0,0,0,0,0,0,0,0,0,0,0,0,0,0,0,0,0,0,0,0,0,0,0,0,0,0,0,0,0,0,0,0,0,0,0,0,0,0,0,0,0,0,0],"id":1,"left_children":[1,3,5,7,9,11,13,15,17,19,21,23,25,27,29,31,33,35,37,39,41,43,45,47,49,51,53,55,57,59,61,-1,-1,-1,-1,-1,-1,-1,-1,-1,-1,-1,-1,-1,-1,-1,-1,-1,-1,-1,-1,-1,-1,-1,-1,-1,-1,-1,-1,-1,-1,-1,-1],"loss_changes":[8.292864E2,1.8379407E2,1.2937573E2,8.270096E1,5.90022E1,6.2872856E1,5.8383484E1,7.791498E1,2.1623796E1,3.6268475E1,2.732322E1,2.8885807E1,4.4707787E1,3.1729248E1,2.1972626E1,3.3981323E1,7.218805E1,6.6961823E0,7.2168803E0,1.6432898E1,1.0777687E1,1.0433289E1,1.712177E1,2.5562302E1,2.3095057E1,1.6830124E1,1.1038718E1,1.8330082E1,9.872253E0,8.270233E0,9.121681E0,0E0,0E0,0E0,0E0,0E0,0E0,0E0,0E0,0E0,0E0,0E0,0E0,0E0,0E0,0E0,0E0,0E0,0E0,0E0,0E0,0E0,0E0,0E0,0E0,0E0,0E0,0E0,0E0,0E0,0E0,0E0,0E0],"parents":[2147483647,0,0,1,1,2,2,3,3,4,4,5,5,6,6,7,7,8,8,9,9,10,10,11,11,12,12,13,13,14,14,15,15,16,16,17,17,18,18,19,19,20,20,21,21,22,22,23,23,24,24,25,25,26,26,27,27,28,28,29,29,30,30],"right_children":[2,4,6,8,10,12,14,16,18,20,22,24,26,28,30,32,34,36,38,40,42,44,46,48,50,52,54,56,58,60,62,-1,-1,-1,-1,-1,-1,-1,-1,-1,-1,-1,-1,-1,-1,-1,-1,-1,-1,-1,-1,-1,-1,-1,-1,-1,-1,-1,-1,-1,-1,-1,-1],"split_conditions":[4.3866363E-1,5.4949784E-1,3.6843604E-1,1.8769966E0,9.506951E-3,1.0555987E0,1.0555987E0,2.9128116E-1,3.8266212E-1,6.465392E-1,-1.782715E-1,1.1366038E0,3.6650038E-1,1.1720483E0,4.1093722E-1,-1.782715E-1,-1.782715E-1,6.666576E-2,1.950125E0,3.941449E-1,1.9030533E0,2.0771357E-1,8.506034E-1,-2.5781012E-1,-5.958987E-1,1.4505358E0,4.400496E-1,1.950125E0,2.265327E0,1.4032755E0,1.3327707E0,-1.5634796E-2,-3.6876784E-3,-4.307789E-2,-1.8714922E-2,5.629794E-2,2.3702413E-2,-6.982669E-3,3.450659E-2,9.9246325E-3,-3.557749E-3,1.3476871E-2,3.6041252E-2,-4.4286184E-2,-1.849749E-2,-1.1041352E-2,8.546894E-3,-7.113058E-3,1.2660913E-2,-5.9225623E-2,-9.501715E-3,3.0236924E-2,8.973644E-3,2.3177799E-2,1.8102088E-3,1.0218404E-2,3.3656806E-2,3.154354E-2,-7.988946E-3,3.565875E-2,4.8668202E-2,2.0128341E-2,3.9496686E-2],"split_indices":[2,130,1,93,6,2,2,6,79,122,2,6,127,1,139,2,2,64,8,128,108,1,1,13,1,90,132,8,139,44,1,0,0,0,0,0,0,0,0,0,0,0,0,0,0,0,0,0,0,0,0,0,0,0,0,0,0,0,0,0,0,0,0],"split_type":[0,0,0,0,0,0,0,0,0,0,0,0,0,0,0,0,0,0,0,0,0,0,0,0,0,0,0,0,0,0,0,0,0,0,0,0,0,0,0,0,0,0,0,0,0,0,0,0,0,0,0,0,0,0,0,0,0,0,0,0,0,0,0],"sum_hessian":[1.3417659E4,8.388688E3,5.0289707E3,5.608966E3,2.7797224E3,2.347311E3,2.6816597E3,5.3856025E3,2.2336316E2,1.9623904E3,8.1733203E2,1.1155321E3,1.231779E3,1.4665605E3,1.2150991E3,3.7906194E3,1.5949833E3,1.1889602E2,1.0446713E2,1.2194952E3,7.4289514E2,2.5599052E2,5.613415E2,7.830679E2,3.3246423E2,6.847922E2,5.469868E2,9.9976276E2,4.6679782E2,7.70133E2,4.4496613E2,2.8710496E3,9.1957E2,5.371553E2,1.057828E3,2.6974375E1,9.1921646E1,9.172721E1,1.27399235E1,3.7777435E2,8.4172095E2,6.731047E2,6.979045E1,6.544262E1,1.9054791E2,3.647029E2,1.9663855E2,3.1233688E2,4.70731E2,2.9171474E1,3.0329276E2,5.419576E2,1.428346E2,8.249771E1,4.6448914E2,8.89894E2,1.0986881E2,4.4976706E2,1.7030767E1,5.17756E2,2.52377E2,3.4687747E2,9.808867E1],"tree_param":{"num_deleted":"0","num_feature":"162","num_nodes":"63","size_leaf_vector":"1"}},{"base_weights":[2.4410235E-3,-1.7857036E-1,3.0599788E-1,-2.6772204E-1,1.6606589E-1,-4.151969E-2,4.4887266E-1,-6.888619E-2,-5.5481124E-1,-3.017508E-1,2.501581E-1,-2.6822236E-1,1.9121316E-1,5.984541E-1,2.925844E-1,-1.786386E-1,1.684646E-1,-8.743914E-1,-3.021365E-1,-7.634209E-2,-6.807028E-1,5.837445E-2,3.579135E-1,-3.2824436E-1,4.7216073E-1,3.3652896E-1,-1.1678721E-1,5.0030893E-1,8.1705594E-1,4.2986613E-2,3.6594537E-1,-7.0678242E-3,-1.8678641E-2,6.510722E-3,2.3186345E-2,-6.633513E-2,-3.5513043E-2,-4.8200853E-2,-1.128586E-2,-1.28853675E-2,4.424022E-2,-4.549736E-2,1.0786847E-2,1.2471545E-2,-1.1296732E-2,1.2594025E-2,2.8808946E-2,-3.2235753E-2,-6.587774E-3,3.7667546E-2,-1.3058379E-2,2.2101732E-2,9.225257E-5,1.208347E-2,-1.7770266E-2,2.121018E-2,4.0401343E-2,4.5851383E-2,2.0419583E-2,-8.6909847E-4,2.1937238E-2,3.1136693E-2,1.3250855E-2],"categories":[],"categories_nodes":[],"categories_segments":[],"categories_sizes":[],"default_left":[0,0,0,0,0,0,0,0,0,0,0,0,0,0,0,0,0,0,0,0,0,0,0,0,0,0,0,0,0,0,0,0,0,0,0,0,0,0,0,0,0,0,0,0,0,0,0,0,0,0,0,0,0,0,0,0,0,0,0,0,0,0,0],"id":2,"left_children":[1,3,5,7,9,11,13,15,17,19,21,23,25,27,29,31,33,35,37,39,41,43,45,47,49,51,53,55,57,59,61,-1,-1,-1,-1,-1,-1,-1,-1,-1,-1,-1,-1,-1,-1,-1,-1,-1,-1,-1,-1,-1,-1,-1,-1,-1,-1,-1,-1,-1,-1,-1,-1],"loss_changes":[7.385467E2,2.5875293E2,2.4965015E2,3.8138388E2,6.8068726E1,7.7285255E1,8.239575E1,1.03071304E2,2.1976996E2,2.1837587E1,3.0006165E1,3.309002E1,3.2464577E1,3.755127E1,3.1654312E1,2.117305E1,1.5104652E1,9.041052E1,8.294916E1,2.4319717E1,1.4704376E1,2.4816679E1,1.9910507E1,3.7808655E1,9.531198E0,1.1934025E1,1.6950771E1,3.2298187E1,7.3599854E0,8.916865E0,3.353984E1,0E0,0E0,0E0,0E0,0E0,0E0,0E0,0E0,0E0,0E0,0E0,0E0,0E0,0E0,0E0,0E0,0E0,0E0,0E0,0E0,0E0,0E0,0E0,0E0,0E0,0E0,0E0,0E0,0E0,0E0,0E0,0E0],"parents":[2147483647,0,0,1,1,2,2,3,3,4,4,5,5,6,6,7,7,8,8,9,9,10,10,11,11,12,12,13,13,14,14,15,15,16,16,17,17,18,18,19,19,20,20,21,21,22,22,23,23,24,24,25,25,26,26,27,27,28,28,29,29,30,30],"right_children":[2,4,6,8,10,12,14,16,18,20,22,24,26,28,30,32,34,36,38,40,42,44,46,48,50,52,54,56,58,60,62,-1,-1,-1,-1,-1,-1,-1,-1,-1,-1,-1,-1,-1,-1,-1,-1,-1,-1,-1,-1,-1,-1,-1,-1,-1,-1,-1,-1,-1,-1,-1,-1],"split_conditions":[4.3866363E-1,7.6483583E-1,3.6858663E-2,-8.3581567E-1,-4.8673907E-1,1.0555987E0,4.157201E-1,5.166881E-1,3.6858663E-2,1.2561463E0,1.1288245E0,1.8488868E0,5.0202096E-1,1.1288245E0,4.0084726E-1,9.766756E-1,1.1989877E0,-1.782715E-1,-4.8673907E-1,2.2207901E0,3.898377E0,2.424046E-1,6.0267097E-1,-3.2712993E-1,1.4306308E0,1.972468E0,5.730554E-1,1.3640664E0,1.4312783E0,5.814972E-1,4.5608583E-1,-7.0678242E-3,-1.8678641E-2,6.510722E-3,2.3186345E-2,-6.633513E-2,-3.5513043E-2,-4.8200853E-2,-1.128586E-2,-1.28853675E-2,4.424022E-2,-4.549736E-2,1.0786847E-2,1.2471545E-2,-1.1296732E-2,1.2594025E-2,2.8808946E-2,-3.2235753E-2,-6.587774E-3,3.7667546E-2,-1.3058379E-2,2.2101732E-2,9.225257E-5,1.208347E-2,-1.7770266E-2,2.121018E-2,4.0401343E-2,4.5851383E-2,2.0419583E-2,-8.6909847E-4,2.1937238E-2,3.1136693E-2,1.3250855E-2],"split_indices":[2,3,3,6,2,2,128,129,3,7,3,91,128,3,3,128,130,2,2,3,12,121,68,3,0,0,6,2,149,23,142,0,0,0,0,0,0,0,0,0,0,0,0,0,0,0,0,0,0,0,0,0,0,0,0,0,0,0,0,0,0,0,0],"split_type":[0,0,0,0,0,0,0,0,0,0,0,0,0,0,0,0,0,0,0,0,0,0,0,0,0,0,0,0,0,0,0,0,0,0,0,0,0,0,0,0,0,0,0,0,0,0,0,0,0,0,0,0,0,0,0,0,0,0,0,0,0,0,0],"sum_hessian":[1.3437093E4,8.416462E3,5.020631E3,6.688565E3,1.7278964E3,1.4615302E3,3.5591006E3,3.9539702E3,2.734595E3,2.6153162E2,1.4663649E3,7.418219E2,7.197082E2,1.8145942E3,1.7445065E3,2.7059915E3,1.2479788E3,1.2049574E3,1.5296375E3,1.6602518E2,9.5506424E1,5.30519E2,9.358458E2,6.876699E2,5.4151962E1,4.905E2,2.2920822E2,1.2571687E3,5.574256E2,3.9888867E2,1.3456178E3,2.1182793E3,5.877122E2,1.060665E3,1.8731377E2,4.4741302E2,7.5754443E2,2.0351578E2,1.3261217E3,1.4189049E2,2.4134691E1,8.116509E1,1.4341328E1,3.2395435E2,2.0656464E2,5.5531006E2,3.8053577E2,2.9440887E2,3.9326105E2,4.183223E1,1.2319733E1,3.994703E2,9.102967E1,8.688713E1,1.4232109E2,8.874496E2,3.697191E2,5.1338763E2,4.403795E1,3.42491E2,5.639767E1,4.8052917E2,8.6508856E2],"tree_param":{"num_deleted":"0","num_feature":"162","num_nodes":"63","size_leaf_vector":"1"}},{"base_weights":[7.618994E-3,-1.6600427E-1,3.0519354E-1,-2.2934055E-1,2.5198308E-1,-3.0340673E-2,4.4167435E-1,-7.671766E-2,-4.2769456E-1,-2.0028594E-1,3.4044522E-1,-1.6733173E-1,2.5170708E-1,5.490306E-1,2.6192296E-1,-1.520085E-1,1.9037719E-1,-7.9133385E-1,-2.1523549E-1,1.8362758E-1,-5.1607347E-1,4.8264527E-1,2.0027561E-1,1.0313253E-2,-4.2671385E-1,-1.531997E-1,4.1957915E-1,4.0890256E-1,7.236254E-1,2.088499E-1,5.340772E-1,-5.9273755E-3,-1.7694121E-2,7.028989E-3,2.2502024E-2,-5.854781E-2,-3.3169378E-2,-2.7583886E-2,-3.1264103E-3,-7.3886933E-3,3.481312E-2,-3.564469E-2,3.1920478E-2,1.83225E-2,3.5807833E-2,4.7904877E-3,1.9282285E-2,-9.1224285E-3,1.8605173E-2,-3.8922887E-2,-9.82165E-3,-2.883172E-2,3.7019888E-3,2.9587317E-2,-2.1509782E-3,1.542012E-2,3.8224503E-2,2.943146E-2,4.2854898E-2,5.7971063E-3,1.7878128E-2,1.8888503E-2,3.7876345E-2],"categories":[],"categories_nodes":[],"categories_segments":[],"categories_sizes":[],"default_left":[0,0,0,0,0,0,0,0,0,0,0,0,0,0,0,0,0,0,0,0,0,0,0,0,0,0,0,0,0,0,0,0,0,0,0,0,0,0,0,0,0,0,0,0,0,0,0,0,0,0,0,0,0,0,0,0,0,0,0,0,0,0,0],"id":3,"left_children":[1,3,5,7,9,11,13,15,17,19,21,23,25,27,29,31,33,35,37,39,41,43,45,47,49,51,53,55,57,59,61,-1,-1,-1,-1,-1,-1,-1,-1,-1,-1,-1,-1,-1,-1,-1,-1,-1,-1,-1,-1,-1,-1,-1,-1,-1,-1,-1,-1,-1,-1,-1,-1],"loss_changes":[6.928984E2,2.2419806E2,2.266423E2,2.2225616E2,4.471473E1,5.518713E1,6.7087036E1,8.3661285E1,2.4600238E2,2.2350418E1,1.7995766E1,4.472E1,3.1924442E1,5.2608765E1,1.8394402E1,2.3678078E1,1.1974964E1,5.9107483E1,9.398317E1,1.2623993E1,1.6894987E1,1.0972809E1,7.986149E0,3.4690353E1,2.7715652E1,1.1939698E1,2.0211903E1,4.4187622E1,1.1097717E1,1.3472359E1,5.5690193E0,0E0,0E0,0E0,0E0,0E0,0E0,0E0,0E0,0E0,0E0,0E0,0E0,0E0,0E0,0E0,0E0,0E0,0E0,0E0,0E0,0E0,0E0,0E0,0E0,0E0,0E0,0E0,0E0,0E0,0E0,0E0,0E0],"parents":[2147483647,0,0,1,1,2,2,3,3,4,4,5,5,6,6,7,7,8,8,9,9,10,10,11,11,12,12,13,13,14,14,15,15,16,16,17,17,18,18,19,19,20,20,21,21,22,22,23,23,24,24,25,25,26,26,27,27,28,28,29,29,30,30],"right_children":[2,4,6,8,10,12,14,16,18,20,22,24,26,28,30,32,34,36,38,40,42,44,46,48,50,52,54,56,58,60,62,-1,-1,-1,-1,-1,-1,-1,-1,-1,-1,-1,-1,-1,-1,-1,-1,-1,-1,-1,-1,-1,-1,-1,-1,-1,-1,-1,-1,-1,-1,-1,-1],"split_conditions":[4.3866363E-1,1.1288245E0,3.6858663E-2,-5.5404145E-1,-4.8673907E-1,1.3640664E0,3.3278286E-1,7.6226175E-1,3.6858663E-2,9.241196E-1,2.7548125E-1,8.5482955E-1,-2.3781344E-1,1.0555987E0,1.3327707E0,9.766756E-1,1.5829413E0,-1.782715E-1,-1.782715E-1,1.060566E0,2.9487674E0,8.5146993E-1,1.3019606E-1,2.192781E-1,-3.2712993E-1,1.1373352E0,1.7001522E0,1.1288245E0,4.0084726E-1,5.1614416E-1,1.0555987E0,-5.9273755E-3,-1.7694121E-2,7.028989E-3,2.2502024E-2,-5.854781E-2,-3.3169378E-2,-2.7583886E-2,-3.1264103E-3,-7.3886933E-3,3.481312E-2,-3.564469E-2,3.1920478E-2,1.83225E-2,3.5807833E-2,4.7904877E-3,1.9282285E-2,-9.1224285E-3,1.8605173E-2,-3.8922887E-2,-9.82165E-3,-2.883172E-2,3.7019888E-3,2.9587317E-2,-2.1509782E-3,1.542012E-2,3.8224503E-2,2.943146E-2,4.2854898E-2,5.7971063E-3,1.7878128E-2,1.8888503E-2,3.7876345E-2],"split_indices":[2,3,3,6,2,2,139,130,3,7,128,6,23,2,1,128,124,2,2,30,3,21,2,26,3,143,6,3,3,8,2,0,0,0,0,0,0,0,0,0,0,0,0,0,0,0,0,0,0,0,0,0,0,0,0,0,0,0,0,0,0,0,0],"split_type":[0,0,0,0,0,0,0,0,0,0,0,0,0,0,0,0,0,0,0,0,0,0,0,0,0,0,0,0,0,0,0,0,0,0,0,0,0,0,0,0,0,0,0,0,0,0,0,0,0,0,0,0,0,0,0,0,0,0,0,0,0,0,0],"sum_hessian":[1.3406972E4,8.465679E3,4.9412925E3,7.3536274E3,1.1120515E3,1.427494E3,3.5137983E3,4.1588145E3,3.1948132E3,1.803738E2,9.3167773E2,9.628356E2,4.6465836E2,2.1959595E3,1.317839E3,3.2467544E3,9.120598E2,1.1758329E3,2.0189805E3,8.0600746E1,9.977305E1,4.5858316E2,4.7309457E2,5.7047235E2,3.9236325E2,1.34967E2,3.2969138E2,1.2225997E3,9.733597E2,1.1066594E3,2.111795E2,2.630539E3,6.162154E2,7.2656354E2,1.8549626E2,4.3196387E2,7.4386896E2,6.9534094E2,1.3236395E3,4.718442E1,3.3416325E1,8.910852E1,1.066453E1,2.621533E2,1.9642986E2,2.814322E2,1.916624E2,3.7035202E2,2.0012032E2,1.7476901E2,2.1759424E2,5.0139732E1,8.482726E1,2.578617E2,7.1829666E1,8.731802E2,3.4941956E2,2.9027618E2,6.830835E2,6.128004E2,4.9385904E2,1.053943E2,1.05785194E2],"tree_param":{"num_deleted":"0","num_feature":"162","num_nodes":"63","size_leaf_vector":"1"}},{"base_weights":[-5.4142775E-4,-1.6340914E-1,2.788073E-1,-2.4157698E-1,1.4237191E-1,5.7223205E-2,4.8051736E-1,-6.386462E-2,-4.8592016E-1,-8.250017E-2,2.775858E-1,-5.7217725E-2,2.947044E-1,6.063615E-1,2.988961E-1,-1.7616764E-1,1.4675444E-1,-7.476757E-1,-2.8113538E-1,-6.632716E-1,-1.836891E-2,2.0824622E-1,5.8262026E-1,-7.422836E-1,-1.3046289E-2,1.3737151E-1,5.2209175E-1,4.9369234E-1,7.8135276E-1,2.3782891E-1,5.465753E-1,-5.7245743E-2,-8.709778E-3,5.891899E-3,2.826352E-2,-5.8439665E-2,-2.9606605E-2,-4.550078E-2,-1.0263234E-2,-2.5541704E-2,-7.619831E-2,-9.2380205E-3,1.3863422E-2,1.5042723E-2,2.4264846E-3,5.0072916E-2,2.388011E-2,-5.0392915E-2,2.4774887E-2,-6.996101E-3,7.25696E-3,-6.8315496E-3,1.4163871E-2,3.4878593E-2,1.5219331E-2,2.0253047E-2,3.5136674E-2,3.37096E-2,4.7638953E-2,1.0093275E-2,3.0230403E-2,2.4849973E-3,3.1973064E-2],"categories":[],"categories_nodes":[],"categories_segments":[],"categories_sizes":[],"default_left":[0,0,0,0,0,0,0,0,0,0,0,0,0,0,0,0,0,0,0,0,0,0,0,0,0,0,0,0,0,0,0,0,0,0,0,0,0,0,0,0,0,0,0,0,0,0,0,0,0,0,0,0,0,0,0,0,0,0,0,0,0,0,0],"id":4,"left_children":[1,3,5,7,9,11,13,15,17,19,21,23,25,27,29,31,33,35,37,39,41,43,45,47,49,51,53,55,57,59,61,-1,-1,-1,-1,-1,-1,-1,-1,-1,-1,-1,-1,-1,-1,-1,-1,-1,-1,-1,-1,-1,-1,-1,-1,-1,-1,-1,-1,-1,-1,-1,-1],"loss_changes":[6.1081274E2,2.0288655E2,2.2054288E2,2.930539E2,5.2646385E1,6.4293E1,5.8253845E1,9.267265E1,1.514743E2,2.3598507E1,2.2143608E1,4.7582638E1,2.6967888E1,2.8701782E1,1.5370506E1,3.1329216E1,1.8658112E1,8.142151E1,8.066025E1,6.858574E0,2.4751616E1,1.0043201E1,8.089455E0,2.3125854E1,2.591632E1,1.5380801E1,8.556854E0,1.6418213E1,7.8412476E0,1.3294025E1,4.4575005E0,0E0,0E0,0E0,0E0,0E0,0E0,0E0,0E0,0E0,0E0,0E0,0E0,0E0,0E0,0E0,0E0,0E0,0E0,0E0,0E0,0E0,0E0,0E0,0E0,0E0,0E0,0E0,0E0,0E0,0E0,0E0,0E0],"parents":[2147483647,0,0,1,1,2,2,3,3,4,4,5,5,6,6,7,7,8,8,9,9,10,10,11,11,12,12,13,13,14,14,15,15,16,16,17,17,18,18,19,19,20,20,21,21,22,22,23,23,24,24,25,25,26,26,27,27,28,28,29,29,30,30],"right_children":[2,4,6,8,10,12,14,16,18,20,22,24,26,28,30,32,34,36,38,40,42,44,46,48,50,52,54,56,58,60,62,-1,-1,-1,-1,-1,-1,-1,-1,-1,-1,-1,-1,-1,-1,-1,-1,-1,-1,-1,-1,-1,-1,-1,-1,-1,-1,-1,-1,-1,-1,-1,-1],"split_conditions":[4.3866363E-1,7.6483583E-1,4.0084726E-1,-1.078066E0,-1.782715E-1,6.2043095E-1,-1.3021213E-1,4.9128565E-1,3.6858663E-2,-7.9520667E-1,6.944943E-1,-6.9111854E-1,1.3640664E0,1.1288245E0,1.2331345E0,1.10248975E-1,1.6358482E0,-1.782715E-1,-4.8673907E-1,1.9201998E0,1.060566E0,4.6849972E-1,-7.989785E-1,1.4312783E0,1.0555987E0,-3.2712993E-1,5.1614416E-1,1.0555987E0,5.1614416E-1,8.518466E-1,7.190765E-2,-5.7245743E-2,-8.709778E-3,5.891899E-3,2.826352E-2,-5.8439665E-2,-2.9606605E-2,-4.550078E-2,-1.0263234E-2,-2.5541704E-2,-7.619831E-2,-9.2380205E-3,1.3863422E-2,1.5042723E-2,2.4264846E-3,5.0072916E-2,2.388011E-2,-5.0392915E-2,2.4774887E-2,-6.996101E-3,7.25696E-3,-6.8315496E-3,1.4163871E-2,3.4878593E-2,1.5219331E-2,2.0253047E-2,3.5136674E-2,3.37096E-2,4.7638953E-2,1.0093275E-2,3.0230403E-2,2.4849973E-3,3.1973064E-2],"split_indices":[2,3,3,1,2,69,144,129,3,2,22,3,2,3,8,129,111,2,2,7,30,134,112,149,2,3,8,2,8,130,131,0,0,0,0,0,0,0,0,0,0,0,0,0,0,0,0,0,0,0,0,0,0,0,0,0,0,0,0,0,0,0,0],"split_type":[0,0,0,0,0,0,0,0,0,0,0,0,0,0,0,0,0,0,0,0,0,0,0,0,0,0,0,0,0,0,0,0,0,0,0,0,0,0,0,0,0,0,0,0,0,0,0,0,0,0,0,0,0,0,0,0,0,0,0,0,0,0,0],"sum_hessian":[1.3424907E4,8.482444E3,4.9424634E3,6.7575586E3,1.7248853E3,2.3575864E3,2.584877E3,3.9147153E3,2.8428435E3,6.4588684E2,1.0789984E3,1.5894816E3,7.6810474E2,1.5230078E3,1.0618693E3,2.555621E3,1.3590944E3,1.2449949E3,1.5978486E3,6.2066475E1,5.838203E2,8.826167E2,1.9638176E2,9.421142E1,1.4952701E3,4.569179E2,3.1118683E2,9.316082E2,5.913996E2,8.559403E2,2.05929E2,3.8315235E1,2.5173057E3,1.2404421E3,1.1865213E2,4.55237E2,7.897578E2,2.1804439E2,1.3798042E3,5.1880978E1,1.01855E1,3.7726935E2,2.0655101E2,6.104139E2,2.7220285E2,5.2647743E1,1.4373402E2,8.182992E1,1.2381505E1,8.3772125E2,6.575489E2,1.4557726E2,3.1134067E2,2.0047104E2,1.107158E2,5.416175E2,3.899907E2,2.4385782E2,3.4754175E2,7.445667E2,1.1137354E2,1.9430208E1,1.864988E2],"tree_param":{"num_deleted":"0","num_feature":"162","num_nodes":"63","size_leaf_vector":"1"}},{"base_weights":[6.253507E-3,-1.14098825E-1,3.4225434E-1,-2.1166949E-1,2.1900952E-1,7.834164E-2,4.53933E-1,-5.3616356E-2,-3.7684867E-1,-3.954361E-2,3.2431152E-1,-9.651758E-2,3.0280277E-1,5.917419E-1,3.1039143E-1,-1.6801202E-1,1.3986328E-1,-8.158216E-1,-2.6633957E-1,-1.3967556E-1,2.7332047E-1,4.7481242E-1,1.7115773E-1,-5.514513E-1,-4.222057E-2,4.21072E-1,-2.5217573E-3,5.3554493E-1,8.421427E-1,4.6593037E-1,2.374172E-1,-3.6335837E-2,-7.981606E-3,2.5117468E-2,5.3457143E-3,-2.9915936E-2,-6.0906664E-2,-3.3736248E-2,-7.1317414E-3,3.363271E-3,-1.52900135E-2,3.1805433E-2,4.6998257E-4,2.002129E-2,3.3905488E-2,2.2056298E-3,1.994813E-2,-5.507706E-2,9.789912E-3,-8.824536E-3,6.9683185E-3,3.1327885E-2,1.0114263E-2,-3.8882747E-2,1.4430656E-2,3.213855E-2,2.1402666E-2,9.831916E-3,4.7289204E-2,9.249811E-3,3.1296268E-2,1.0195318E-2,2.8638491E-2],"categories":[],"categories_nodes":[],"categories_segments":[],"categories_sizes":[],"default_left":[0,0,0,0,0,0,0,0,0,0,0,0,0,0,0,0,0,0,0,0,0,0,0,0,0,0,0,0,0,0,0,0,0,0,0,0,0,0,0,0,0,0,0,0,0,0,0,0,0,0,0,0,0,0,0,0,0,0,0,0,0,0,0],"id":5,"left_children":[1,3,5,7,9,11,13,15,17,19,21,23,25,27,29,31,33,35,37,39,41,43,45,47,49,51,53,55,57,59,61,-1,-1,-1,-1,-1,-1,-1,-1,-1,-1,-1,-1,-1,-1,-1,-1,-1,-1,-1,-1,-1,-1,-1,-1,-1,-1,-1,-1,-1,-1,-1,-1],"loss_changes":[5.4102435E2,3.200609E2,1.035878E2,1.9854529E2,6.09196E1,4.1492184E1,4.8154846E1,8.628547E1,1.7955981E2,2.0132301E1,3.601239E1,1.4141663E1,1.7017834E1,1.6237091E1,1.320179E1,2.37416E1,1.8693966E1,5.9435425E1,1.4302098E2,1.4514217E1,1.2591009E1,1.1736343E1,2.0226585E1,2.2113028E1,1.1144143E1,1.193042E1,2.5643272E1,7.8311157E0,4.5687714E0,1.2448387E1,1.1164379E1,0E0,0E0,0E0,0E0,0E0,0E0,0E0,0E0,0E0,0E0,0E0,0E0,0E0,0E0,0E0,0E0,0E0,0E0,0E0,0E0,0E0,0E0,0E0,0E0,0E0,0E0,0E0,0E0,0E0,0E0,0E0,0E0],"parents":[2147483647,0,0,1,1,2,2,3,3,4,4,5,5,6,6,7,7,8,8,9,9,10,10,11,11,12,12,13,13,14,14,15,15,16,16,17,17,18,18,19,19,20,20,21,21,22,22,23,23,24,24,25,25,26,26,27,27,28,28,29,29,30,30],"right_children":[2,4,6,8,10,12,14,16,18,20,22,24,26,28,30,32,34,36,38,40,42,44,46,48,50,52,54,56,58,60,62,-1,-1,-1,-1,-1,-1,-1,-1,-1,-1,-1,-1,-1,-1,-1,-1,-1,-1,-1,-1,-1,-1,-1,-1,-1,-1,-1,-1,-1,-1,-1,-1],"split_conditions":[7.471312E-1,7.6483583E-1,3.6858663E-2,-1.1430962E0,-1.782715E-1,5.492946E-1,3.6650038E-1,4.658832E-1,-3.2712993E-1,1.8568016E0,2.9423642E-1,-6.9111854E-1,1.7015494E0,1.492813E0,3.3491436E-1,6.09897E-1,1.1357652E-1,1.559175E-1,-1.782715E-1,8.506034E-1,9.241196E-1,1.23141505E-1,1.492813E0,6.441678E-2,1.61236E-1,5.1614416E-1,1.3640664E0,1.3806324E0,-4.2460135E-1,4.0084726E-1,3.0394166E0,-3.6335837E-2,-7.981606E-3,2.5117468E-2,5.3457143E-3,-2.9915936E-2,-6.0906664E-2,-3.3736248E-2,-7.1317414E-3,3.363271E-3,-1.52900135E-2,3.1805433E-2,4.6998257E-4,2.002129E-2,3.3905488E-2,2.2056298E-3,1.994813E-2,-5.507706E-2,9.789912E-3,-8.824536E-3,6.9683185E-3,3.1327885E-2,1.0114263E-2,-3.8882747E-2,1.4430656E-2,3.213855E-2,2.1402666E-2,9.831916E-3,4.7289204E-2,9.249811E-3,3.1296268E-2,1.0195318E-2,2.8638491E-2],"split_indices":[2,3,3,0,2,69,127,129,3,3,127,3,0,3,139,128,127,68,2,1,7,13,3,26,68,8,2,43,4,3,11,0,0,0,0,0,0,0,0,0,0,0,0,0,0,0,0,0,0,0,0,0,0,0,0,0,0,0,0,0,0,0,0],"split_type":[0,0,0,0,0,0,0,0,0,0,0,0,0,0,0,0,0,0,0,0,0,0,0,0,0,0,0,0,0,0,0,0,0,0,0,0,0,0,0,0,0,0,0,0,0,0,0,0,0,0,0,0,0,0,0,0,0,0,0,0,0,0,0],"sum_hessian":[1.3372686E4,9.844945E3,3.5277397E3,7.616543E3,2.2284026E3,1.0514161E3,2.4763237E3,3.8952065E3,3.7213364E3,6.4315826E2,1.5852444E3,5.895865E2,4.618296E2,1.2590427E3,1.2172809E3,2.4502964E3,1.4449103E3,7.456589E2,2.9756775E3,4.8942746E2,1.5373079E2,7.9599274E2,7.8925165E2,6.0353817E1,5.292327E2,3.3425876E2,1.2757081E2,1.0335116E3,2.2553113E2,3.836533E2,8.336276E2,8.859475E1,2.3617017E3,1.5596185E2,1.2889485E3,4.1238895E2,3.3326996E2,8.02397E2,2.1732805E3,2.0222916E2,2.871983E2,6.7970535E1,8.576025E1,4.8444193E2,3.1155084E2,4.807505E2,3.0850116E2,3.7030155E1,2.3323662E1,3.1209253E2,2.1714018E2,1.9475613E2,1.3950264E2,3.5056595E1,9.251421E1,7.070465E2,3.264651E2,1.3323049E1,2.1220808E2,1.109507E2,2.727026E2,7.2081616E2,1.1281148E2],"tree_param":{"num_deleted":"0","num_feature":"162","num_nodes":"63","size_leaf_vector":"1"}},{"base_weights":[3.0550095E-3,-1.4335229E-1,2.582065E-1,-2.172296E-1,1.4685343E-2,1.17423184E-1,3.8313776E-1,-2.4022314E-1,3.46732E-1,1.0268438E-1,-1.20121874E-1,-2.8121948E-2,2.5246412E-1,2.6553902E-1,5.26568E-1,-1.6855101E-1,-3.5503143E-1,9.854654E-2,5.638611E-1,2.8370294E-1,5.4197E-2,-3.2017946E-1,-1.3299536E-2,5.93458E-2,-3.3382806E-1,1.8254495E-1,5.226959E-1,3.6493078E-1,9.029319E-2,6.517096E-1,3.349879E-1,-1.1244695E-2,5.4740725E-4,-3.1123867E-2,-1.2545964E-2,-2.8055338E-2,1.5590056E-2,1.3816337E-2,4.1621275E-2,-2.0527204E-2,1.6696803E-2,4.0376633E-3,-1.3686559E-2,-1.9547114E-2,2.184292E-2,8.20225E-3,-1.1080041E-2,5.569412E-3,-3.55275E-2,-2.1922601E-2,2.6824598E-3,2.4453953E-2,6.052237E-3,1.275243E-2,3.4484256E-2,2.4630839E-2,7.524267E-3,1.911515E-3,3.6287457E-2,3.837441E-2,2.6836747E-2,1.3289997E-2,3.604226E-2],"categories":[],"categories_nodes":[],"categories_segments":[],"categories_sizes":[],"default_left":[0,0,0,0,0,0,0,0,0,0,0,0,0,0,0,0,0,0,0,0,0,0,0,0,0,0,0,0,0,0,0,0,0,0,0,0,0,0,0,0,0,0,0,0,0,0,0,0,0,0,0,0,0,0,0,0,0,0,0,0,0,0,0],"id":6,"left_children":[1,3,5,7,9,11,13,15,17,19,21,23,25,27,29,31,33,35,37,39,41,43,45,47,49,51,53,55,57,59,61,-1,-1,-1,-1,-1,-1,-1,-1,-1,-1,-1,-1,-1,-1,-1,-1,-1,-1,-1,-1,-1,-1,-1,-1,-1,-1,-1,-1,-1,-1,-1,-1],"loss_changes":[4.984221E2,9.909354E1,8.516913E1,7.4947266E1,3.2003304E1,4.521622E1,4.270468E1,4.5257507E1,1.1621656E1,1.4100718E1,2.2469254E1,2.9673822E1,2.190197E1,2.4367783E1,2.6764465E1,2.4914604E1,5.725412E1,1.2834422E1,6.6755676E0,6.1525707E0,8.227044E0,1.16572E1,2.231119E1,2.6886435E1,7.260975E0,1.7646412E1,7.3854218E0,1.8382095E1,1.6036299E1,5.2817993E0,1.2750507E1,0E0,0E0,0E0,0E0,0E0,0E0,0E0,0E0,0E0,0E0,0E0,0E0,0E0,0E0,0E0,0E0,0E0,0E0,0E0,0E0,0E0,0E0,0E0,0E0,0E0,0E0,0E0,0E0,0E0,0E0,0E0,0E0],"parents":[2147483647,0,0,1,1,2,2,3,3,4,4,5,5,6,6,7,7,8,8,9,9,10,10,11,11,12,12,13,13,14,14,15,15,16,16,17,17,18,18,19,19,20,20,21,21,22,22,23,23,24,24,25,25,26,26,27,27,28,28,29,29,30,30],"right_children":[2,4,6,8,10,12,14,16,18,20,22,24,26,28,30,32,34,36,38,40,42,44,46,48,50,52,54,56,58,60,62,-1,-1,-1,-1,-1,-1,-1,-1,-1,-1,-1,-1,-1,-1,-1,-1,-1,-1,-1,-1,-1,-1,-1,-1,-1,-1,-1,-1,-1,-1,-1,-1],"split_conditions":[4.3866363E-1,4.4048077E-1,3.6843604E-1,1.8834578E0,-5.5404145E-1,1.0555987E0,1.0555987E0,9.506951E-3,5.1647216E-1,-5.247596E-1,-1.782715E-1,6.2845725E-1,1.4827958E0,7.533342E-1,3.276282E-1,-1.782715E-1,-1.782715E-1,-1.782715E-1,1.4996711E0,3.510517E-1,1.3963733E0,2.0450416E0,3.4695625E-1,2.2637007E0,7.1928895E-1,2.9128116E-1,1.3640664E0,6.3147223E-1,1.868931E0,1.1366038E0,1.3327707E0,-1.1244695E-2,5.4740725E-4,-3.1123867E-2,-1.2545964E-2,-2.8055338E-2,1.5590056E-2,1.3816337E-2,4.1621275E-2,-2.0527204E-2,1.6696803E-2,4.0376633E-3,-1.3686559E-2,-1.9547114E-2,2.184292E-2,8.20225E-3,-1.1080041E-2,5.569412E-3,-3.55275E-2,-2.1922601E-2,2.6824598E-3,2.4453953E-2,6.052237E-3,1.275243E-2,3.4484256E-2,2.4630839E-2,7.524267E-3,1.911515E-3,3.6287457E-2,3.837441E-2,2.6836747E-2,1.3289997E-2,3.604226E-2],"split_indices":[2,129,1,89,6,2,2,6,21,107,2,127,87,0,142,2,2,2,97,133,141,5,0,6,136,6,2,128,91,6,1,0,0,0,0,0,0,0,0,0,0,0,0,0,0,0,0,0,0,0,0,0,0,0,0,0,0,0,0,0,0,0,0],"split_type":[0,0,0,0,0,0,0,0,0,0,0,0,0,0,0,0,0,0,0,0,0,0,0,0,0,0,0,0,0,0,0,0,0,0,0,0,0,0,0,0,0,0,0,0,0,0,0,0,0,0,0,0,0,0,0,0,0,0,0,0,0,0,0],"sum_hessian":[1.33380205E4,8.473552E3,4.8644688E3,5.777059E3,2.696493E3,2.2908542E3,2.5736143E3,5.55259E3,2.2446931E2,1.6348591E3,1.0616338E3,1.1004362E3,1.1904181E3,1.4186647E3,1.1549497E3,3.4240542E3,2.1285356E3,1.0704861E2,1.174207E2,3.4111987E2,1.2937393E3,3.6643018E2,6.952036E2,8.54524E2,2.4591214E2,9.4933466E2,2.4108337E2,9.018644E2,5.1680035E2,6.9470667E2,4.60243E2,2.7950615E3,6.2899286E2,7.4737756E2,1.3811581E3,2.389182E1,8.315679E1,5.0069054E1,6.735165E1,1.1526121E1,3.2959375E2,1.2148182E3,7.8921005E1,3.4733823E2,1.9091951E1,3.7181964E2,3.23384E2,8.0695703E2,4.7566967E1,2.0780489E2,3.8107243E1,1.9104839E2,7.582863E2,7.336452E1,1.6771886E2,6.352907E2,2.6657367E2,4.7472797E2,4.2072346E1,4.889112E2,2.0579546E2,3.6777502E2,9.2467995E1],"tree_param":{"num_deleted":"0","num_feature":"162","num_nodes":"63","size_leaf_vector":"1"}},{"base_weights":[1.1616639E-2,-1.219624E-1,2.4735942E-1,-2.010468E-1,9.009875E-2,1.0666562E-1,3.4401008E-1,-1.0533384E-1,-3.331138E-1,5.058668E-2,4.8308033E-1,-7.5119697E-3,2.639201E-1,2.6429674E-1,5.380291E-1,-1.6824442E-1,1.2884587E-2,-5.4582405E-1,-2.1132687E-1,1.2625644E-1,-1.13461874E-1,5.9119785E-1,-4.349937E-1,-7.3977426E-2,3.0798176E-1,1.6807844E-1,3.6378348E-1,3.6279E-1,4.781507E-2,7.094844E-1,3.865227E-1,-9.423593E-3,5.3391233E-2,-5.0212354E-3,4.1980892E-3,-1.9517828E-2,-3.4836773E-2,-2.33228E-2,-3.0586314E-3,7.5685335E-3,-2.2965308E-2,-1.959112E-2,3.458105E-3,3.5562716E-2,-0E0,-5.1232856E-3,-3.697386E-2,-1.6744551E-3,-2.067755E-2,2.2541134E-2,-1.7552778E-2,6.7128446E-3,3.3475846E-2,2.2976527E-2,5.9904624E-3,2.493776E-2,1.1869941E-2,-1.0458232E-2,1.2348485E-2,4.0874295E-2,7.334931E-4,2.7586157E-2,1.1339175E-2],"categories":[],"categories_nodes":[],"categories_segments":[],"categories_sizes":[],"default_left":[0,0,0,0,0,0,0,0,0,0,0,0,0,0,0,0,0,0,0,0,0,0,0,0,0,0,0,0,0,0,0,0,0,0,0,0,0,0,0,0,0,0,0,0,0,0,0,0,0,0,0,0,0,0,0,0,0,0,0,0,0,0,0],"id":7,"left_children":[1,3,5,7,9,11,13,15,17,19,21,23,25,27,29,31,33,35,37,39,41,43,45,47,49,51,53,55,57,59,61,-1,-1,-1,-1,-1,-1,-1,-1,-1,-1,-1,-1,-1,-1,-1,-1,-1,-1,-1,-1,-1,-1,-1,-1,-1,-1,-1,-1,-1,-1,-1,-1],"loss_changes":[4.2145135E2,1.4330835E2,6.547269E1,7.830267E1,3.5581863E1,3.5667976E1,4.3598267E1,2.6980888E1,6.696796E1,2.6205708E1,2.1245716E1,2.3835289E1,7.5327644E0,4.31109E1,2.0493591E1,1.858281E1,8.660198E0,1.6656982E1,5.674788E1,1.14086075E1,2.979869E1,8.129936E0,1.2598782E0,1.2288274E1,1.4114E1,7.8606653E0,6.013748E0,1.9407074E1,2.8262634E1,1.2950928E1,9.254051E0,0E0,0E0,0E0,0E0,0E0,0E0,0E0,0E0,0E0,0E0,0E0,0E0,0E0,0E0,0E0,0E0,0E0,0E0,0E0,0E0,0E0,0E0,0E0,0E0,0E0,0E0,0E0,0E0,0E0,0E0,0E0,0E0],"parents":[2147483647,0,0,1,1,2,2,3,3,4,4,5,5,6,6,7,7,8,8,9,9,10,10,11,11,12,12,13,13,14,14,15,15,16,16,17,17,18,18,19,19,20,20,21,21,22,22,23,23,24,24,25,25,26,26,27,27,28,28,29,29,30,30],"right_children":[2,4,6,8,10,12,14,16,18,20,22,24,26,28,30,32,34,36,38,40,42,44,46,48,50,52,54,56,58,60,62,-1,-1,-1,-1,-1,-1,-1,-1,-1,-1,-1,-1,-1,-1,-1,-1,-1,-1,-1,-1,-1,-1,-1,-1,-1,-1,-1,-1,-1,-1,-1,-1],"split_conditions":[4.3866363E-1,6.1801158E-2,3.501128E-1,-2.7226725E-1,1.7077849E0,5.291585E-1,1.3640664E0,4.8230928E-1,-1.782715E-1,2.1149693E-1,1.1366038E0,6.6652054E-1,1.0555987E0,1.0242529E0,8.5482955E-1,3.7612777E0,5.953835E-1,2.6006615E-1,3.6843604E-1,1.6308153E0,3.6843604E-1,7.821775E-1,-1.1224835E-1,2.6222166E-1,9.559269E-1,8.78401E-1,7.0723665E-1,5.730554E-1,2.0771357E-1,6.072124E-1,5.937855E-2,-9.423593E-3,5.3391233E-2,-5.0212354E-3,4.1980892E-3,-1.9517828E-2,-3.4836773E-2,-2.33228E-2,-3.0586314E-3,7.5685335E-3,-2.2965308E-2,-1.959112E-2,3.458105E-3,3.5562716E-2,-0E0,-5.1232856E-3,-3.697386E-2,-1.6744551E-3,-2.067755E-2,2.2541134E-2,-1.7552778E-2,6.7128446E-3,3.3475846E-2,2.2976527E-2,5.9904624E-3,2.493776E-2,1.1869941E-2,-1.0458232E-2,1.2348485E-2,4.0874295E-2,7.334931E-4,2.7586157E-2,1.1339175E-2],"split_indices":[2,25,69,6,25,1,2,130,2,0,6,17,2,0,6,84,133,7,1,86,1,132,127,17,126,132,135,6,1,142,127,0,0,0,0,0,0,0,0,0,0,0,0,0,0,0,0,0,0,0,0,0,0,0,0,0,0,0,0,0,0,0,0],"split_type":[0,0,0,0,0,0,0,0,0,0,0,0,0,0,0,0,0,0,0,0,0,0,0,0,0,0,0,0,0,0,0,0,0,0,0,0,0,0,0,0,0,0,0,0,0,0,0,0,0,0,0,0,0,0,0,0,0,0,0,0,0,0,0],"sum_hessian":[1.3378465E4,8.538062E3,4.840404E3,6.221346E3,2.3167148E3,1.9750742E3,2.8653293E3,3.6114592E3,2.609887E3,2.1078787E3,2.0883626E2,1.1422596E3,8.328146E2,2.0354294E3,8.298999E2,2.360736E3,1.2507233E3,9.466581E2,1.6632289E3,1.4456594E3,6.6221924E2,1.8789117E2,2.0945078E1,9.460799E2,1.9617975E2,4.3016708E2,4.0264752E2,1.3961532E3,6.392763E2,3.8514542E2,4.4475446E2,2.3483164E3,1.2419494E1,4.7113684E2,7.795864E2,3.4251868E2,6.041394E2,6.793662E2,9.838627E2,1.4109977E3,3.4661655E1,2.7589963E2,3.8631964E2,1.686668E2,1.9224382E1,1.079743E1,1.0147648E1,8.3442163E2,1.1165828E2,1.6824411E2,2.7935648E1,3.9548096E2,3.4686134E1,3.1903427E2,8.361325E1,8.1263184E2,5.8352136E2,2.7230832E2,3.66968E2,3.581383E2,2.7007135E1,2.5520245E2,1.8955199E2],"tree_param":{"num_deleted":"0","num_feature":"162","num_nodes":"63","size_leaf_vector":"1"}},{"base_weights":[3.871114E-3,-1.350025E-1,2.3473023E-1,-2.0324798E-1,1.4474386E-1,-4.0586688E-2,3.7738234E-1,-3.408797E-2,-4.406854E-1,2.7044177E-1,-7.6119795E-2,-1.313197E-1,1.9773634E-1,4.716023E-1,2.2254542E-1,-9.78092E-2,1.8035789E-1,-7.582944E-1,-3.2197657E-1,1.1213084E-1,4.485557E-1,-1.7361175E-2,-6.952521E-1,-8.780409E-1,-9.2791714E-2,1.2749824E-1,7.099816E-1,4.0020648E-1,7.198014E-1,1.3764866E-1,3.9019176E-1,-6.8816006E-2,-4.965539E-3,2.6376687E-3,1.5935404E-2,-4.9110644E-2,-2.6529096E-2,-3.3683904E-2,-1.1323662E-2,9.991727E-3,-1.0368271E-2,1.9668829E-2,4.193116E-2,-8.007214E-3,1.163698E-2,-5.3733513E-2,-8.838698E-4,-2.4413314E-2,-7.8072764E-2,-1.223144E-2,1.5106113E-3,1.1062628E-2,-9.969402E-3,4.989612E-2,1.2390401E-2,1.658166E-2,3.3165913E-2,3.997185E-2,1.1203821E-2,3.7634866E-3,2.1592585E-2,2.2188704E-2,-1.2783391E-2],"categories":[],"categories_nodes":[],"categories_segments":[],"categories_sizes":[],"default_left":[0,0,0,0,0,0,0,0,0,0,0,0,0,0,0,0,0,0,0,0,0,0,0,0,0,0,0,0,0,0,0,0,0,0,0,0,0,0,0,0,0,0,0,0,0,0,0,0,0,0,0,0,0,0,0,0,0,0,0,0,0,0,0],"id":8,"left_children":[1,3,5,7,9,11,13,15,17,19,21,23,25,27,29,31,33,35,37,39,41,43,45,47,49,51,53,55,57,59,61,-1,-1,-1,-1,-1,-1,-1,-1,-1,-1,-1,-1,-1,-1,-1,-1,-1,-1,-1,-1,-1,-1,-1,-1,-1,-1,-1,-1,-1,-1,-1,-1],"loss_changes":[4.286204E2,1.5938112E2,1.9751962E2,2.6916934E2,4.555442E1,3.7035263E1,4.767758E1,5.3549416E1,1.04141235E2,2.8989922E1,2.1009235E1,3.500127E1,1.6237408E1,3.5272247E1,1.7457027E1,1.859043E1,1.3371704E1,2.9495117E1,6.82417E1,1.2521683E1,1.2278069E1,1.6663326E1,9.6045E0,1.2479015E1,1.9424097E1,1.0239933E1,4.699068E0,3.0956207E1,4.5446625E0,1.4613128E1,6.0913773E0,0E0,0E0,0E0,0E0,0E0,0E0,0E0,0E0,0E0,0E0,0E0,0E0,0E0,0E0,0E0,0E0,0E0,0E0,0E0,0E0,0E0,0E0,0E0,0E0,0E0,0E0,0E0,0E0,0E0,0E0,0E0,0E0],"parents":[2147483647,0,0,1,1,2,2,3,3,4,4,5,5,6,6,7,7,8,8,9,9,10,10,11,11,12,12,13,13,14,14,15,15,16,16,17,17,18,18,19,19,20,20,21,21,22,22,23,23,24,24,25,25,26,26,27,27,28,28,29,29,30,30],"right_children":[2,4,6,8,10,12,14,16,18,20,22,24,26,28,30,32,34,36,38,40,42,44,46,48,50,52,54,56,58,60,62,-1,-1,-1,-1,-1,-1,-1,-1,-1,-1,-1,-1,-1,-1,-1,-1,-1,-1,-1,-1,-1,-1,-1,-1,-1,-1,-1,-1,-1,-1,-1,-1],"split_conditions":[4.0084726E-1,7.471312E-1,1.3019606E-1,-1.1430962E0,1.1366038E0,1.492813E0,8.8573384E-1,6.1801158E-2,-1.782715E-1,6.1801158E-2,2.827249E0,-7.9520667E-1,1.7835218E0,1.492813E0,1.492813E0,-4.7701323E-1,8.630447E-1,3.6858663E-2,-3.2712993E-1,9.8378086E-1,1.800068E0,1.672534E0,8.669846E-1,9.241196E-1,4.0227944E-1,9.44356E-1,1.6070498E0,1.0555987E0,1.6804185E0,1.2331345E0,1.4932461E0,-6.8816006E-2,-4.965539E-3,2.6376687E-3,1.5935404E-2,-4.9110644E-2,-2.6529096E-2,-3.3683904E-2,-1.1323662E-2,9.991727E-3,-1.0368271E-2,1.9668829E-2,4.193116E-2,-8.007214E-3,1.163698E-2,-5.3733513E-2,-8.838698E-4,-2.4413314E-2,-7.8072764E-2,-1.223144E-2,1.5106113E-3,1.1062628E-2,-9.969402E-3,4.989612E-2,1.2390401E-2,1.658166E-2,3.3165913E-2,3.997185E-2,1.1203821E-2,3.7634866E-3,2.1592585E-2,2.2188704E-2,-1.2783391E-2],"split_indices":[3,2,2,0,6,3,143,25,2,25,6,2,44,3,3,124,130,3,3,148,89,2,61,7,69,148,100,2,104,8,131,0,0,0,0,0,0,0,0,0,0,0,0,0,0,0,0,0,0,0,0,0,0,0,0,0,0,0,0,0,0,0,0],"split_type":[0,0,0,0,0,0,0,0,0,0,0,0,0,0,0,0,0,0,0,0,0,0,0,0,0,0,0,0,0,0,0,0,0,0,0,0,0,0,0,0,0,0,0,0,0,0,0,0,0,0,0,0,0,0,0,0,0,0,0,0,0,0,0],"sum_hessian":[1.336474E4,8.343236E3,5.021504E3,6.7093257E3,1.6339108E3,1.712401E3,3.309103E3,3.9205051E3,2.7888206E3,1.0431877E3,5.90723E2,1.2427666E3,4.6963446E2,2.0529353E3,1.2561678E3,3.0254558E3,8.950491E2,7.554514E2,2.0333693E3,5.553984E2,4.8778928E2,5.416401E2,4.908299E1,5.8851818E1,1.1839148E3,4.1547778E2,5.4156693E1,1.5988595E3,4.5407568E2,8.380851E2,4.1808276E2,1.2226792E1,3.013229E3,4.2313638E2,4.7191272E2,4.738124E2,2.8163898E2,5.423398E2,1.4910294E3,4.496385E2,1.05759926E2,3.9364035E2,9.414895E1,3.4883237E2,1.928077E2,3.2820335E1,1.6262653E1,3.570494E1,2.314688E1,5.62544E2,6.213707E2,3.34579E2,8.089877E1,3.5508614E1,1.8648077E1,1.125989E3,4.7287054E2,4.325597E2,2.151601E1,6.7019244E2,1.6789264E2,4.0524884E2,1.2833926E1],"tree_param":{"num_deleted":"0","num_feature":"162","num_nodes":"63","size_leaf_vector":"1"}},{"base_weights":[7.345112E-4,-1.3985246E-1,2.3767544E-1,-1.8949984E-1,1.8753003E-1,-1.250538E-3,3.61984E-1,-4.5941517E-2,-3.5867932E-1,2.9410407E-1,-7.314534E-2,-2.8515315E-1,7.549963E-2,4.5965657E-1,1.9751155E-1,-1.2415286E-1,1.2610146E-1,-6.2245876E-1,-1.6379514E-1,3.6108008E-1,-1.1818668E-1,2.131878E-1,-2.4399735E-1,-1.0624286E-1,-4.9387044E-1,-1.4843475E-2,3.280086E-1,3.6600026E-1,6.739265E-1,1.4318486E-1,4.029321E-1,-6.911768E-2,-6.2931636E-3,1.0597906E-3,1.0893657E-2,-4.857987E-2,-2.7211737E-2,-2.1169365E-3,-2.0775903E-2,2.053469E-2,-2.829204E-2,-1.55252265E-2,2.9201014E-2,1.6544454E-2,-1.5642446E-2,-3.308835E-2,-4.4905655E-3,-1.4488578E-2,1.2950312E-2,-4.1868143E-2,-1.18155945E-2,-2.0419944E-3,3.8505014E-2,2.621033E-3,3.034914E-2,1.334461E-2,2.9404413E-2,3.7138656E-2,-4.5033456E-3,3.2721478E-3,1.6072806E-2,4.531488E-2,1.7249266E-2],"categories":[],"categories_nodes":[],"categories_segments":[],"categories_sizes":[],"default_left":[0,0,0,0,0,0,0,0,0,0,0,0,0,0,0,0,0,0,0,0,0,0,0,0,0,0,0,0,0,0,0,0,0,0,0,0,0,0,0,0,0,0,0,0,0,0,0,0,0,0,0,0,0,0,0,0,0,0,0,0,0,0,0],"id":9,"left_children":[1,3,5,7,9,11,13,15,17,19,21,23,25,27,29,31,33,35,37,39,41,43,45,47,49,51,53,55,57,59,61,-1,-1,-1,-1,-1,-1,-1,-1,-1,-1,-1,-1,-1,-1,-1,-1,-1,-1,-1,-1,-1,-1,-1,-1,-1,-1,-1,-1,-1,-1,-1,-1],"loss_changes":[4.4463232E2,1.3615257E2,1.4792148E2,1.7635464E2,3.0780067E1,3.7230125E1,5.199469E1,5.3011658E1,1.7084277E2,2.186924E1,1.5666488E1,1.3109198E1,3.0743895E1,4.010556E1,1.3203449E1,2.1410126E1,9.822741E0,4.4804993E1,5.2868645E1,1.248838E1,1.226379E1,5.7282953E0,1.1452142E1,1.1373079E1,1.2032303E1,1.6165344E1,2.2915672E1,2.9754593E1,8.197784E0,1.2183134E1,7.9983444E0,0E0,0E0,0E0,0E0,0E0,0E0,0E0,0E0,0E0,0E0,0E0,0E0,0E0,0E0,0E0,0E0,0E0,0E0,0E0,0E0,0E0,0E0,0E0,0E0,0E0,0E0,0E0,0E0,0E0,0E0,0E0,0E0],"parents":[2147483647,0,0,1,1,2,2,3,3,4,4,5,5,6,6,7,7,8,8,9,9,10,10,11,11,12,12,13,13,14,14,15,15,16,16,17,17,18,18,19,19,20,20,21,21,22,22,23,23,24,24,25,25,26,26,27,27,28,28,29,29,30,30],"right_children":[2,4,6,8,10,12,14,16,18,20,22,24,26,28,30,32,34,36,38,40,42,44,46,48,50,52,54,56,58,60,62,-1,-1,-1,-1,-1,-1,-1,-1,-1,-1,-1,-1,-1,-1,-1,-1,-1,-1,-1,-1,-1,-1,-1,-1,-1,-1,-1,-1,-1,-1,-1,-1],"split_conditions":[4.0084726E-1,1.0555987E0,1.3019606E-1,-1.1430962E0,1.418378E0,-4.8673907E-1,3.276282E-1,6.502808E-1,1.3019606E-1,8.1267715E-1,2.4174473E-1,9.241196E-1,1.492813E0,1.0555987E0,1.2331345E0,-5.4120284E-1,9.876584E-1,-3.2712993E-1,8.5482955E-1,1.7049266E0,5.082206E-1,8.641645E-1,-3.2712993E-1,7.854811E-1,-1.9431819E-1,3.2152333E0,4.890133E-1,1.1288245E0,2.032886E0,1.492813E0,4.9174306E-1,-6.911768E-2,-6.2931636E-3,1.0597906E-3,1.0893657E-2,-4.857987E-2,-2.7211737E-2,-2.1169365E-3,-2.0775903E-2,2.053469E-2,-2.829204E-2,-1.55252265E-2,2.9201014E-2,1.6544454E-2,-1.5642446E-2,-3.308835E-2,-4.4905655E-3,-1.4488578E-2,1.2950312E-2,-4.1868143E-2,-1.18155945E-2,-2.0419944E-3,3.8505014E-2,2.621033E-3,3.034914E-2,1.334461E-2,2.9404413E-2,3.7138656E-2,-4.5033456E-3,3.2721478E-3,1.6072806E-2,4.531488E-2,1.7249266E-2],"split_indices":[3,2,2,0,6,2,142,130,2,148,5,7,3,2,8,125,140,3,6,98,129,119,3,12,13,107,21,3,92,3,137,0,0,0,0,0,0,0,0,0,0,0,0,0,0,0,0,0,0,0,0,0,0,0,0,0,0,0,0,0,0,0,0],"split_type":[0,0,0,0,0,0,0,0,0,0,0,0,0,0,0,0,0,0,0,0,0,0,0,0,0,0,0,0,0,0,0,0,0,0,0,0,0,0,0,0,0,0,0,0,0,0,0,0,0,0,0,0,0,0,0,0,0,0,0,0,0,0,0],"sum_hessian":[1.3343622E4,8.373016E3,4.970607E3,7.2727637E3,1.100252E3,1.699495E3,3.2711118E3,3.9373574E3,3.335406E3,7.828036E2,3.174483E2,3.6298962E2,1.3365054E3,2.048327E3,1.2227849E3,2.7098943E3,1.2274633E3,1.4145839E3,1.9208223E3,6.750197E2,1.0778386E2,1.1696564E2,2.0048268E2,1.9821565E2,1.6477399E2,9.830366E2,3.5346872E2,1.4297844E3,6.185425E2,9.7130975E2,2.5147516E2,1.4799659E1,2.6950947E3,5.1745624E2,7.1000696E2,4.1141266E2,1.0031712E3,1.2345259E3,6.862963E2,6.611067E2,1.3913019E1,8.706042E1,2.0723442E1,1.0008852E2,1.6877121E1,5.8228928E1,1.4225375E2,1.3641376E2,6.1801884E1,7.8591156E1,8.618282E1,9.5488184E2,2.8154772E1,1.6394243E2,1.8952629E2,8.68853E2,5.6093134E2,6.064585E2,1.2083971E1,6.391185E2,3.3219122E2,3.6651848E1,2.148233E2],"tree_param":{"num_deleted":"0","num_feature":"162","num_nodes":"63","size_leaf_vector":"1"}},{"base_weights":[-1.0065719E-3,-1.2728775E-1,2.1111725E-1,-1.848117E-1,1.0592097E-1,-1.7092733E-2,3.3075938E-1,-8.4532924E-2,-3.147833E-1,2.2556859E-1,-8.0226526E-2,-3.078782E-1,6.6997476E-2,4.3291333E-1,2.2891207E-1,-6.9882035E-2,-8.2184094E-1,-6.341917E-1,-1.4382921E-1,1.4684884E-1,5.5757123E-1,-1.6163905E-1,2.420834E-1,-4.0546918E-1,4.3433598E-1,8.88405E-3,3.843623E-1,3.4167713E-1,6.1693364E-1,1.767365E-1,3.996273E-1,-8.97392E-3,4.6719084E-4,-5.214802E-2,-0E0,-4.1606545E-2,-2.1980656E-2,-1.2076457E-2,1.11791175E-2,4.1733254E-3,2.1522485E-2,3.3071566E-2,1.8252616E-3,-1.5613091E-2,5.6117005E-3,2.1864742E-2,-9.696674E-3,-7.914107E-3,-3.297626E-2,3.8860872E-2,-0E0,-3.3904237E-4,4.5442086E-2,1.49117485E-2,4.2498674E-2,1.4344028E-2,3.0692969E-2,3.0827409E-2,4.948704E-2,1.6062792E-2,5.9295134E-3,2.8135875E-2,1.1005491E-2],"categories":[],"categories_nodes":[],"categories_segments":[],"categories_sizes":[],"default_left":[0,0,0,0,0,0,0,0,0,0,0,0,0,0,0,0,0,0,0,0,0,0,0,0,0,0,0,0,0,0,0,0,0,0,0,0,0,0,0,0,0,0,0,0,0,0,0,0,0,0,0,0,0,0,0,0,0,0,0,0,0,0,0],"id":10,"left_children":[1,3,5,7,9,11,13,15,17,19,21,23,25,27,29,31,33,35,37,39,41,43,45,47,49,51,53,55,57,59,61,-1,-1,-1,-1,-1,-1,-1,-1,-1,-1,-1,-1,-1,-1,-1,-1,-1,-1,-1,-1,-1,-1,-1,-1,-1,-1,-1,-1,-1,-1,-1,-1],"loss_changes":[3.5707742E2,1.1221907E2,1.3601276E2,8.7115326E1,3.69228E1,4.1996284E1,3.33815E1,4.0252747E1,1.5867834E2,2.5758812E1,1.6911032E1,2.8107899E1,2.4153788E1,2.6361176E1,1.4122589E1,2.8438929E1,8.84589E0,3.0686981E1,5.40467E1,1.3979626E1,5.2337303E0,1.7857494E1,9.180041E0,1.7699612E1,5.748191E0,1.4858304E1,7.8215084E0,1.797805E1,5.448807E0,9.897858E0,8.501907E0,0E0,0E0,0E0,0E0,0E0,0E0,0E0,0E0,0E0,0E0,0E0,0E0,0E0,0E0,0E0,0E0,0E0,0E0,0E0,0E0,0E0,0E0,0E0,0E0,0E0,0E0,0E0,0E0,0E0,0E0,0E0,0E0],"parents":[2147483647,0,0,1,1,2,2,3,3,4,4,5,5,6,6,7,7,8,8,9,9,10,10,11,11,12,12,13,13,14,14,15,15,16,16,17,17,18,18,19,19,20,20,21,21,22,22,23,23,24,24,25,25,26,26,27,27,28,28,29,29,30,30],"right_children":[2,4,6,8,10,12,14,16,18,20,22,24,26,28,30,32,34,36,38,40,42,44,46,48,50,52,54,56,58,60,62,-1,-1,-1,-1,-1,-1,-1,-1,-1,-1,-1,-1,-1,-1,-1,-1,-1,-1,-1,-1,-1,-1,-1,-1,-1,-1,-1,-1,-1,-1,-1,-1],"split_conditions":[4.0084726E-1,2.9003006E-1,1.3019606E-1,-2.7226725E-1,5.730554E-1,-4.8673907E-1,4.157201E-1,1.5066987E0,1.3019606E-1,7.471312E-1,1.8026465E0,2.2207901E0,1.8568016E0,1.0555987E0,1.2331345E0,2.9653355E-1,1.950125E0,3.6858663E-2,1.3565111E0,9.908671E-1,1.6124742E0,3.6858663E-2,1.6050762E0,8.506034E-1,3.4031242E-1,1.226168E0,4.520501E-1,1.492813E0,2.0292842E0,2.9128116E-1,1.2198982E0,-8.97392E-3,4.6719084E-4,-5.214802E-2,-0E0,-4.1606545E-2,-2.1980656E-2,-1.2076457E-2,1.11791175E-2,4.1733254E-3,2.1522485E-2,3.3071566E-2,1.8252616E-3,-1.5613091E-2,5.6117005E-3,2.1864742E-2,-9.696674E-3,-7.914107E-3,-3.297626E-2,3.8860872E-2,-0E0,-3.3904237E-4,4.5442086E-2,1.49117485E-2,4.2498674E-2,1.4344028E-2,3.0692969E-2,3.0827409E-2,4.948704E-2,1.6062792E-2,5.9295134E-3,2.8135875E-2,1.1005491E-2],"split_indices":[3,111,2,6,6,2,128,113,2,2,93,3,3,2,8,129,8,3,42,129,104,3,103,1,9,137,115,3,91,6,149,0,0,0,0,0,0,0,0,0,0,0,0,0,0,0,0,0,0,0,0,0,0,0,0,0,0,0,0,0,0,0,0],"split_type":[0,0,0,0,0,0,0,0,0,0,0,0,0,0,0,0,0,0,0,0,0,0,0,0,0,0,0,0,0,0,0,0,0,0,0,0,0,0,0,0,0,0,0,0,0,0,0,0,0,0,0,0,0,0,0,0,0,0,0,0,0,0,0],"sum_hessian":[1.3330085E4,8.358147E3,4.971938E3,6.7070596E3,1.6510874E3,1.7083586E3,3.2635793E3,3.7901555E3,2.916904E3,1.00725806E3,6.438294E2,3.844353E2,1.3239233E3,1.6239938E3,1.6395856E3,3.7184788E3,7.167673E1,1.0143852E3,1.9025189E3,8.1726807E2,1.8998999E2,5.1621814E2,1.27611244E2,3.410669E2,4.3368404E1,1.1219056E3,2.0201765E2,1.0904702E3,5.335235E2,1.2607555E3,3.7883002E2,1.6682467E3,2.0502322E3,6.062072E1,1.1056011E1,6.2370605E2,3.906791E2,1.549565E3,3.52954E2,6.450808E2,1.7218724E2,1.6988626E2,2.010373E1,3.497227E2,1.6649544E2,9.3112114E1,3.4499134E1,1.5430615E2,1.8676076E2,2.5970839E1,1.7397568E1,1.102154E3,1.9751625E1,1.626954E2,3.9322254E1,8.253532E2,2.6511703E2,4.7089215E2,6.2631367E1,4.40062E2,8.2069354E2,2.2865688E2,1.5017314E2],"tree_param":{"num_deleted":"0","num_feature":"162","num_nodes":"63","size_leaf_vector":"1"}},{"base_weights":[2.653198E-3,-1.2282103E-1,2.1622752E-1,-1.9143483E-1,9.459013E-2,-9.364315E-3,3.3539772E-1,-9.345808E-2,-2.944862E-1,3.7635854E-1,3.6931556E-2,-3.0526346E-1,7.448651E-2,4.5135543E-1,2.055971E-1,-5.252894E-2,-8.7534234E-2,-6.0155535E-1,-1.1067845E-1,4.0921313E-1,-2.5929118E-2,-2.2707291E-2,2.3476851E-1,-3.6119702E-1,4.883166E-1,4.798727E-2,7.293737E-1,3.5477608E-1,5.853569E-1,3.24552E-1,1.2772857E-1,-3.6480979E-3,-1.6906068E-2,-4.653945E-2,-2.6430352E-2,-4.2224146E-2,-3.6129365E-3,2.4943177E-2,2.73478E-3,2.6206668E-3,-1.9123517E-2,5.35436E-3,2.7914405E-2,-3.784653E-2,-1.3893076E-2,4.5673113E-2,-0E0,8.771211E-4,2.1803651E-2,5.7683853E-3,4.661678E-2,1.4687959E-2,3.1288616E-2,3.264098E-2,-0E0,1.021769E-2,2.602667E-2,1.053684E-3,1.4429599E-2],"categories":[],"categories_nodes":[],"categories_segments":[],"categories_sizes":[],"default_left":[0,0,0,0,0,0,0,0,0,0,0,0,0,0,0,0,0,0,0,0,0,0,0,0,0,0,0,0,0,0,0,0,0,0,0,0,0,0,0,0,0,0,0,0,0,0,0,0,0,0,0,0,0,0,0,0,0,0,0],"id":11,"left_children":[1,3,5,7,9,11,13,15,17,19,21,23,25,27,29,-1,31,33,35,37,-1,39,41,43,45,47,49,51,53,55,57,-1,-1,-1,-1,-1,-1,-1,-1,-1,-1,-1,-1,-1,-1,-1,-1,-1,-1,-1,-1,-1,-1,-1,-1,-1,-1,-1,-1],"loss_changes":[3.5559528E2,1.24725494E2,1.3228682E2,6.3842422E1,3.222326E1,4.2292454E1,4.7833282E1,1.6206377E1,1.7396515E2,9.702316E0,1.9810957E1,1.6834305E1,2.2334187E1,2.1026794E1,1.3732719E1,0E0,1.4202858E1,3.214868E1,5.6178192E1,5.9823112E0,0E0,3.061464E1,1.4434874E1,1.1563469E1,4.536522E0,1.4092425E1,3.4871082E0,1.7584953E1,9.087082E0,1.2233128E1,1.385168E1,0E0,0E0,0E0,0E0,0E0,0E0,0E0,0E0,0E0,0E0,0E0,0E0,0E0,0E0,0E0,0E0,0E0,0E0,0E0,0E0,0E0,0E0,0E0,0E0,0E0,0E0,0E0,0E0],"parents":[2147483647,0,0,1,1,2,2,3,3,4,4,5,5,6,6,7,7,8,8,9,9,10,10,11,11,12,12,13,13,14,14,16,16,17,17,18,18,19,19,21,21,22,22,23,23,24,24,25,25,26,26,27,27,28,28,29,29,30,30],"right_children":[2,4,6,8,10,12,14,16,18,20,22,24,26,28,30,-1,32,34,36,38,-1,40,42,44,46,48,50,52,54,56,58,-1,-1,-1,-1,-1,-1,-1,-1,-1,-1,-1,-1,-1,-1,-1,-1,-1,-1,-1,-1,-1,-1,-1,-1,-1,-1,-1,-1],"split_conditions":[4.0084726E-1,1.23141505E-1,1.3019606E-1,-1.1430962E0,-8.629387E-1,-4.8673907E-1,3.9359936E-1,-1.8345267E0,1.3019606E-1,1.7676113E0,1.0555987E0,1.8663752E0,1.3191061E0,1.1288245E0,1.8018135E-1,-5.252894E-2,9.89777E-1,-3.2712993E-1,-6.9111854E-1,1.972468E0,-2.5929118E-2,8.887935E-1,1.4794401E0,-7.9520667E-1,3.4031242E-1,2.2207901E0,7.6483583E-1,7.3899156E-1,2.0375636E0,7.471312E-1,7.147064E-1,-3.6480979E-3,-1.6906068E-2,-4.653945E-2,-2.6430352E-2,-4.2224146E-2,-3.6129365E-3,2.4943177E-2,2.73478E-3,2.6206668E-3,-1.9123517E-2,5.35436E-3,2.7914405E-2,-3.784653E-2,-1.3893076E-2,4.5673113E-2,-0E0,8.771211E-4,2.1803651E-2,5.7683853E-3,4.661678E-2,1.4687959E-2,3.1288616E-2,3.264098E-2,-0E0,1.021769E-2,2.602667E-2,1.053684E-3,1.4429599E-2],"split_indices":[3,13,2,0,12,2,127,13,2,5,2,93,22,3,144,0,127,3,3,0,0,0,53,2,9,3,3,69,88,2,4,0,0,0,0,0,0,0,0,0,0,0,0,0,0,0,0,0,0,0,0,0,0,0,0,0,0,0,0],"split_type":[0,0,0,0,0,0,0,0,0,0,0,0,0,0,0,0,0,0,0,0,0,0,0,0,0,0,0,0,0,0,0,0,0,0,0,0,0,0,0,0,0,0,0,0,0,0,0,0,0,0,0,0,0,0,0,0,0,0,0],"sum_hessian":[1.3264683E4,8.353922E3,4.9107607E3,6.352519E3,2.001403E3,1.6957423E3,3.2150186E3,3.2610999E3,3.0914192E3,3.368092E2,1.6645938E3,3.7564532E2,1.3200969E3,1.6936649E3,1.5213536E3,1.9689674E1,3.2414102E3,1.1551538E3,1.9362655E3,3.2576587E2,1.1043342E1,1.2770273E3,3.875664E2,3.5233075E2,2.3314577E1,1.270978E3,4.9118896E1,9.8977356E2,7.038913E2,5.968372E2,9.245164E2,2.98623E3,2.5518019E2,3.365883E2,8.1856555E2,1.1524874E2,1.8210167E3,2.8079736E2,4.496848E1,1.0504044E3,2.266229E2,2.6531314E2,1.2225328E2,7.833515E1,2.7399557E2,1.324714E1,1.0067437E1,1.1703792E3,1.00598915E2,1.0176753E1,3.8942142E1,7.316747E2,2.5809888E2,6.797936E2,2.4097708E1,3.2717844E2,2.6965878E2,5.259932E2,3.9852322E2],"tree_param":{"num_deleted":"0","num_feature":"162","num_nodes":"59","size_leaf_vector":"1"}},{"base_weights":[-5.44703E-4,-1.09229706E-1,1.984889E-1,-1.5027826E-1,1.7740667E-1,-5.115967E-2,3.083651E-1,-4.9336582E-2,-3.0404705E-1,4.7613353E-2,3.042272E-1,1.0515322E-1,-2.2883578E-1,4.4258153E-1,1.9010068E-1,-1.1201679E-1,8.3684936E-2,-6.6527E-1,-2.2630396E-1,-2.9950273E-1,1.1104092E-1,2.2440103E-1,5.8977276E-1,-1.3235213E-2,3.9222085E-1,-3.1537497E-1,3.9404646E-1,3.5996598E-1,6.4504105E-1,7.163101E-2,2.9004237E-1,2.0624109E-2,-6.664365E-3,2.5576446E-3,1.4536143E-2,3.6915187E-3,-4.0158805E-2,-2.1855354E-2,-6.9455197E-3,-2.5497649E-2,3.174849E-3,-7.4198404E-3,9.322347E-3,1.9621102E-2,-1.9025088E-3,3.6841687E-2,8.031025E-3,-5.562556E-3,1.729557E-2,1.6710892E-2,4.0187504E-2,-2.2079296E-2,-3.6360498E-4,4.075922E-2,4.7780634E-3,1.5072014E-2,3.0291336E-2,3.6542248E-2,3.6756927E-3,4.8560644E-3,-5.4374028E-2,2.6640307E-2,1.0421018E-2],"categories":[],"categories_nodes":[],"categories_segments":[],"categories_sizes":[],"default_left":[0,0,0,0,0,0,0,0,0,0,0,0,0,0,0,0,0,0,0,0,0,0,0,0,0,0,0,0,0,0,0,0,0,0,0,0,0,0,0,0,0,0,0,0,0,0,0,0,0,0,0,0,0,0,0,0,0,0,0,0,0,0,0],"id":12,"left_children":[1,3,5,7,9,11,13,15,17,19,21,23,25,27,29,31,33,35,37,39,41,43,45,47,49,51,53,55,57,59,61,-1,-1,-1,-1,-1,-1,-1,-1,-1,-1,-1,-1,-1,-1,-1,-1,-1,-1,-1,-1,-1,-1,-1,-1,-1,-1,-1,-1,-1,-1,-1,-1],"loss_changes":[2.878373E2,1.01324036E2,1.2908028E2,1.166837E2,1.746016E1,3.9966854E1,5.1272522E1,3.7992344E1,8.296359E1,1.1712733E1,1.161697E1,2.6172503E1,3.6418827E1,2.4534943E1,2.0323166E1,1.807336E1,9.568704E0,3.1890335E1,4.2550903E1,5.4210978E0,7.1196E0,1.5819162E1,4.132263E0,1.6143257E1,5.474697E0,1.7104145E1,8.388825E0,1.6861282E1,8.055542E0,1.5602127E1,1.7982788E1,0E0,0E0,0E0,0E0,0E0,0E0,0E0,0E0,0E0,0E0,0E0,0E0,0E0,0E0,0E0,0E0,0E0,0E0,0E0,0E0,0E0,0E0,0E0,0E0,0E0,0E0,0E0,0E0,0E0,0E0,0E0,0E0],"parents":[2147483647,0,0,1,1,2,2,3,3,4,4,5,5,6,6,7,7,8,8,9,9,10,10,11,11,12,12,13,13,14,14,15,15,16,16,17,17,18,18,19,19,20,20,21,21,22,22,23,23,24,24,25,25,26,26,27,27,28,28,29,29,30,30],"right_children":[2,4,6,8,10,12,14,16,18,20,22,24,26,28,30,32,34,36,38,40,42,44,46,48,50,52,54,56,58,60,62,-1,-1,-1,-1,-1,-1,-1,-1,-1,-1,-1,-1,-1,-1,-1,-1,-1,-1,-1,-1,-1,-1,-1,-1,-1,-1,-1,-1,-1,-1,-1,-1],"split_conditions":[4.3866363E-1,1.1288245E0,3.6858663E-2,-2.7226725E-1,4.3547642E-1,8.5482955E-1,3.725697E-1,4.8281816E-1,-3.2712993E-1,-4.8673907E-1,2.2207901E0,4.3893075E-1,1.7775823E0,1.1288245E0,7.6483583E-1,-4.1909567E-1,1.4038149E0,-7.9520667E-1,-1.782715E-1,1.4538307E0,1.4505254E-1,1.2561463E0,1.3116877E0,1.3640664E0,1.8769966E0,1.672534E0,3.4031242E-1,1.3640664E0,9.509128E-1,2.827249E0,3.7296617E-1,2.0624109E-2,-6.664365E-3,2.5576446E-3,1.4536143E-2,3.6915187E-3,-4.0158805E-2,-2.1855354E-2,-6.9455197E-3,-2.5497649E-2,3.174849E-3,-7.4198404E-3,9.322347E-3,1.9621102E-2,-1.9025088E-3,3.6841687E-2,8.031025E-3,-5.562556E-3,1.729557E-2,1.6710892E-2,4.0187504E-2,-2.2079296E-2,-3.6360498E-4,4.075922E-2,4.7780634E-3,1.5072014E-2,3.0291336E-2,3.6542248E-2,3.6756927E-3,4.8560644E-3,-5.4374028E-2,2.6640307E-2,1.0421018E-2],"split_indices":[2,3,3,6,69,6,128,129,3,2,3,14,69,3,3,96,124,2,2,57,4,7,45,2,93,2,9,2,139,6,142,0,0,0,0,0,0,0,0,0,0,0,0,0,0,0,0,0,0,0,0,0,0,0,0,0,0,0,0,0,0,0,0],"split_type":[0,0,0,0,0,0,0,0,0,0,0,0,0,0,0,0,0,0,0,0,0,0,0,0,0,0,0,0,0,0,0,0,0,0,0,0,0,0,0,0,0,0,0,0,0,0,0,0,0,0,0,0,0,0,0,0,0,0,0,0,0,0,0],"sum_hessian":[1.3306775E4,8.609525E3,4.69725E3,7.533675E3,1.0758501E3,1.4337513E3,3.2634985E3,4.5517905E3,2.9818845E3,5.3524695E2,5.4060315E2,7.6084E2,6.729113E2,1.5243671E3,1.7391315E3,3.0976914E3,1.4540989E3,5.249596E2,2.456925E3,8.030191E1,4.5494504E2,4.2603226E2,1.1457091E2,5.376914E2,2.2314865E2,5.923245E2,8.058682E1,1.0873473E3,4.3701984E2,7.999602E2,9.391713E2,7.018426E1,3.027507E3,1.2224513E3,2.3164766E2,5.143538E1,4.7352423E2,8.5787897E2,1.599046E3,5.51111E1,2.5190813E1,8.8420746E1,3.665243E2,2.7810275E2,1.4792949E2,9.238838E1,2.2182526E1,4.2589117E2,1.1180022E2,1.8478876E2,3.8359898E1,4.508192E2,1.4150528E2,3.494245E1,4.5644375E1,7.8504694E2,3.0230032E2,4.1119696E2,2.5822876E1,7.8809424E2,1.1865953E1,2.962428E2,6.429285E2],"tree_param":{"num_deleted":"0","num_feature":"162","num_nodes":"63","size_leaf_vector":"1"}},{"base_weights":[5.396711E-3,-1.03018396E-1,1.9149038E-1,-1.706512E-1,1.1128363E-1,-1.8763099E-2,3.046691E-1,-7.72559E-2,-2.983489E-1,4.0748814E-1,4.961602E-2,-2.0112404E-1,6.304229E-2,2.7380595E-1,6.52862E-1,-6.443552E-2,-6.1260223E-1,-4.9659932E-1,-7.331729E-2,5.26908E-1,2.6955174E-2,8.664785E-2,-4.0478173E-1,1.2193648E-2,-4.6920568E-1,-1.5866849E-1,1.3168679E-1,2.2282243E-1,4.1461748E-1,6.808467E-1,-0E0,-1.3342606E-3,-1.1798367E-2,-5.9980184E-2,-1.1909248E-2,-3.8132496E-2,-2.2223502E-2,-3.7832804E-2,-1.7072838E-3,4.02003E-2,2.2226114E-2,1.4229356E-2,-1.945557E-2,1.4941703E-3,2.3593197E-2,8.318257E-3,-2.6409086E-2,-4.605677E-3,1.0710671E-2,-2.8720649E-2,8.9168025E-4,-1.3231419E-3,-2.2438195E-2,5.4693623E-3,3.857349E-2,1.678737E-2,7.237009E-3,5.254039E-2,2.060976E-2,3.845492E-2,1.2656723E-2],"categories":[],"categories_nodes":[],"categories_segments":[],"categories_sizes":[],"default_left":[0,0,0,0,0,0,0,0,0,0,0,0,0,0,0,0,0,0,0,0,0,0,0,0,0,0,0,0,0,0,0,0,0,0,0,0,0,0,0,0,0,0,0,0,0,0,0,0,0,0,0,0,0,0,0,0,0,0,0,0,0],"id":13,"left_children":[1,3,5,7,9,11,13,15,17,19,21,23,25,27,29,31,33,35,37,39,41,43,45,47,49,51,53,55,57,59,-1,-1,-1,-1,-1,-1,-1,-1,-1,-1,-1,-1,-1,-1,-1,-1,-1,-1,-1,-1,-1,-1,-1,-1,-1,-1,-1,-1,-1,-1,-1],"loss_changes":[2.6683124E2,1.2112529E2,1.1609552E2,7.546077E1,3.6217003E1,2.551829E1,3.318033E1,2.4684158E1,1.1909482E2,1.5166599E1,2.7749035E1,3.0661123E1,1.7868528E1,2.0359451E1,4.7336884E0,2.1856478E1,1.5367252E1,2.4078491E1,3.2402428E1,5.324272E0,7.839886E0,3.1506325E1,6.2918205E0,5.4919243E0,7.8068924E0,9.220091E0,1.5137369E1,1.6536346E1,1.2239471E1,2.835167E0,0E0,0E0,0E0,0E0,0E0,0E0,0E0,0E0,0E0,0E0,0E0,0E0,0E0,0E0,0E0,0E0,0E0,0E0,0E0,0E0,0E0,0E0,0E0,0E0,0E0,0E0,0E0,0E0,0E0,0E0,0E0],"parents":[2147483647,0,0,1,1,2,2,3,3,4,4,5,5,6,6,7,7,8,8,9,9,10,10,11,11,12,12,13,13,14,14,15,15,16,16,17,17,18,18,19,19,20,20,21,21,22,22,23,23,24,24,25,25,26,26,27,27,28,28,29,29],"right_children":[2,4,6,8,10,12,14,16,18,20,22,24,26,28,30,32,34,36,38,40,42,44,46,48,50,52,54,56,58,60,-1,-1,-1,-1,-1,-1,-1,-1,-1,-1,-1,-1,-1,-1,-1,-1,-1,-1,-1,-1,-1,-1,-1,-1,-1,-1,-1,-1,-1,-1,-1],"split_conditions":[4.0084726E-1,1.23141505E-1,1.3019606E-1,-2.7226725E-1,-8.558639E-1,7.6483583E-1,1.8117008E0,1.2727698E0,4.3866363E-1,1.418378E0,1.9819264E0,6.898809E-1,-4.8673907E-1,1.2331345E0,1.6911695E0,8.633151E-1,-1.782715E-1,-3.2712993E-1,-6.9111854E-1,-7.715991E-1,5.19175E-1,1.3640664E0,-1.744007E-1,1.001781E0,7.9286903E-1,1.4934932E0,1.2938551E0,5.730554E-1,-5.5404145E-1,1.9819264E0,-0E0,-1.3342606E-3,-1.1798367E-2,-5.9980184E-2,-1.1909248E-2,-3.8132496E-2,-2.2223502E-2,-3.7832804E-2,-1.7072838E-3,4.02003E-2,2.2226114E-2,1.4229356E-2,-1.945557E-2,1.4941703E-3,2.3593197E-2,8.318257E-3,-2.6409086E-2,-4.605677E-3,1.0710671E-2,-2.8720649E-2,8.9168025E-4,-1.3231419E-3,-2.2438195E-2,5.4693623E-3,3.857349E-2,1.678737E-2,7.237009E-3,5.254039E-2,2.060976E-2,3.845492E-2,1.2656723E-2],"split_indices":[3,13,2,6,12,3,87,62,2,6,6,1,2,8,97,127,2,3,3,107,5,2,5,9,132,1,69,6,6,6,0,0,0,0,0,0,0,0,0,0,0,0,0,0,0,0,0,0,0,0,0,0,0,0,0,0,0,0,0,0,0],"split_type":[0,0,0,0,0,0,0,0,0,0,0,0,0,0,0,0,0,0,0,0,0,0,0,0,0,0,0,0,0,0,0,0,0,0,0,0,0,0,0,0,0,0,0,0,0,0,0,0,0,0,0,0,0,0,0,0,0,0,0,0,0],"sum_hessian":[1.322022E4,8.351466E3,4.868754E3,6.3507563E3,2.00071E3,1.70185E3,3.166904E3,3.6723167E3,2.6784395E3,3.4166473E2,1.6590453E3,5.2920624E2,1.1726438E3,2.912799E3,2.5410492E2,3.588975E3,8.334155E1,1.4215374E3,1.2569021E3,2.5829376E2,8.337098E1,1.5363302E3,1.227151E2,2.9382623E2,2.3537999E2,2.7442105E2,8.982227E2,2.1443865E3,7.6841266E2,2.4376562E2,1.0339301E1,2.862362E3,7.2661316E2,3.4772022E1,4.8569534E1,3.9664508E2,1.0248922E3,7.565161E1,1.1812505E3,8.3667366E1,1.7462639E2,5.310718E1,3.0263796E1,1.3189213E3,2.1740889E2,1.5142998E1,1.07572105E2,1.9078493E2,1.03041306E2,2.089318E2,2.6448196E1,1.8331508E2,9.1105965E1,8.568253E2,4.1397415E1,1.0612123E3,1.0831742E3,3.7805305E1,7.306073E2,2.243835E2,1.9382126E1],"tree_param":{"num_deleted":"0","num_feature":"162","num_nodes":"61","size_leaf_vector":"1"}},{"base_weights":[-5.0839754E-3,-8.7465614E-2,2.4311608E-1,-1.4631897E-1,6.297726E-2,1.3992879E-1,3.4666345E-1,-1.2161353E-1,-3.0190626E-1,1.0292198E-1,-1.3066341E-1,9.24751E-2,4.6927255E-1,4.2613652E-1,1.8592995E-1,-9.804096E-2,-2.9021764E-1,-2.2956128E-1,-5.2298385E-1,4.429778E-2,2.587538E-1,-2.648799E-2,-4.146421E-1,1.13197915E-1,-3.563947E-1,6.0799265E-1,8.102224E-2,3.639982E-1,6.171511E-1,6.319965E-2,4.4446176E-1,-6.338597E-3,2.068376E-3,-4.3114092E-2,-1.0304817E-2,3.4011096E-2,-1.311798E-2,-0E0,-3.2440156E-2,-2.1587661E-3,1.023942E-2,1.0227791E-2,3.5382736E-2,2.1474552E-3,-2.0240715E-2,-1.1664143E-2,-4.698684E-2,5.1257904E-3,3.2897823E-2,-4.2575985E-2,-0E0,4.982794E-2,2.290257E-2,-1.1663246E-2,3.1560495E-2,1.8043118E-2,4.3398276E-2,3.4393243E-2,2.1246732E-3,-3.3813238E-4,1.9315865E-2,2.7355565E-2,-0E0],"categories":[],"categories_nodes":[],"categories_segments":[],"categories_sizes":[],"default_left":[0,0,0,0,0,0,0,0,0,0,0,0,0,0,0,0,0,0,0,0,0,0,0,0,0,0,0,0,0,0,0,0,0,0,0,0,0,0,0,0,0,0,0,0,0,0,0,0,0,0,0,0,0,0,0,0,0,0,0,0,0,0,0],"id":14,"left_children":[1,3,5,7,9,11,13,15,17,19,21,23,25,27,29,31,33,35,37,39,41,43,45,47,49,51,53,55,57,59,61,-1,-1,-1,-1,-1,-1,-1,-1,-1,-1,-1,-1,-1,-1,-1,-1,-1,-1,-1,-1,-1,-1,-1,-1,-1,-1,-1,-1,-1,-1,-1,-1],"loss_changes":[2.7078915E2,8.816166E1,3.4851837E1,2.716008E1,2.16153E1,2.5461533E1,2.0456268E1,2.4255386E1,1.4932793E1,2.0972435E1,1.3737525E1,1.3383029E1,1.0581089E1,1.2045181E1,1.7008308E1,1.4715565E1,3.714045E1,8.995571E0,1.0156723E1,2.0964432E1,1.6527939E1,8.40607E0,1.0412792E1,1.1848822E1,9.625005E0,7.328556E0,9.000584E0,9.417908E0,2.8689423E0,7.9650974E0,4.822201E0,0E0,0E0,0E0,0E0,0E0,0E0,0E0,0E0,0E0,0E0,0E0,0E0,0E0,0E0,0E0,0E0,0E0,0E0,0E0,0E0,0E0,0E0,0E0,0E0,0E0,0E0,0E0,0E0,0E0,0E0,0E0,0E0],"parents":[2147483647,0,0,1,1,2,2,3,3,4,4,5,5,6,6,7,7,8,8,9,9,10,10,11,11,12,12,13,13,14,14,15,15,16,16,17,17,18,18,19,19,20,20,21,21,22,22,23,23,24,24,25,25,26,26,27,27,28,28,29,29,30,30],"right_children":[2,4,6,8,10,12,14,16,18,20,22,24,26,28,30,32,34,36,38,40,42,44,46,48,50,52,54,56,58,60,62,-1,-1,-1,-1,-1,-1,-1,-1,-1,-1,-1,-1,-1,-1,-1,-1,-1,-1,-1,-1,-1,-1,-1,-1,-1,-1,-1,-1,-1,-1,-1,-1],"split_conditions":[7.471312E-1,6.1801158E-2,3.6843604E-1,9.766756E-1,7.533342E-1,1.8691698E0,5.019953E-1,1.7707922E0,7.603762E-2,1.3019606E-1,1.0331429E0,1.8844316E0,1.972468E0,1.672534E0,3.5959762E-1,4.3866363E-1,-4.8673907E-1,-4.576885E-2,8.813811E-1,6.945052E-1,1.849167E0,7.07337E-1,1.4306308E0,1.987695E0,2.0669415E0,-7.7362955E-1,2.5979366E0,2.1440506E0,3.183057E0,4.4432113E-1,3.4354633E-1,-6.338597E-3,2.068376E-3,-4.3114092E-2,-1.0304817E-2,3.4011096E-2,-1.311798E-2,-0E0,-3.2440156E-2,-2.1587661E-3,1.023942E-2,1.0227791E-2,3.5382736E-2,2.1474552E-3,-2.0240715E-2,-1.1664143E-2,-4.698684E-2,5.1257904E-3,3.2897823E-2,-4.2575985E-2,-0E0,4.982794E-2,2.290257E-2,-1.1663246E-2,3.1560495E-2,1.8043118E-2,4.3398276E-2,3.4393243E-2,2.1246732E-3,-3.3813238E-4,1.9315865E-2,2.7355565E-2,-0E0],"split_indices":[2,25,1,128,0,13,127,90,0,2,109,90,0,2,69,2,2,120,127,129,46,132,0,89,41,110,2,89,115,122,144,0,0,0,0,0,0,0,0,0,0,0,0,0,0,0,0,0,0,0,0,0,0,0,0,0,0,0,0,0,0,0,0],"split_type":[0,0,0,0,0,0,0,0,0,0,0,0,0,0,0,0,0,0,0,0,0,0,0,0,0,0,0,0,0,0,0,0,0,0,0,0,0,0,0,0,0,0,0,0,0,0,0,0,0,0,0,0,0,0,0,0,0,0,0,0,0,0,0],"sum_hessian":[1.3246498E4,9.948154E3,3.298343E3,7.1542007E3,2.7939539E3,1.6568347E3,1.6415084E3,6.1795693E3,9.746314E2,2.319665E3,4.742889E2,1.4513402E3,2.0549448E2,1.0941836E3,5.473247E2,5.426868E3,7.527011E2,7.385085E2,2.3612291E2,1.6899442E3,6.297207E2,3.4974377E2,1.2454514E2,1.3896257E3,6.1714466E1,1.4957175E2,5.5922718E1,8.3091907E2,2.632646E2,3.7396896E2,1.7335577E2,4.744663E3,6.8220514E2,1.1930677E2,6.3339435E2,1.0415996E1,7.2809247E2,3.0850058E1,2.0527286E2,1.0682787E3,6.216655E2,5.402336E2,8.94871E1,2.9306677E2,5.6677E1,8.927494E1,3.5270203E1,1.3440739E3,4.5551872E1,2.6977682E1,3.4736782E1,5.136105E1,9.82107E1,3.471379E1,2.120893E1,7.838576E2,4.706144E1,2.5223888E2,1.1025701E1,3.0178763E2,7.218133E1,1.508351E2,2.252068E1],"tree_param":{"num_deleted":"0","num_feature":"162","num_nodes":"63","size_leaf_vector":"1"}},{"base_weights":[-2.1286586E-3,-8.383368E-2,2.4272603E-1,-1.3311686E-1,2.1347894E-1,6.642807E-2,3.3662948E-1,-5.257344E-2,-2.5720152E-1,3.734172E-1,6.3164294E-2,-3.1099938E-2,2.4612789E-1,4.4525117E-1,1.7764848E-1,-9.845963E-2,1.4498037E-1,-5.759836E-1,-1.7034176E-1,4.5621443E-1,-3.684662E-2,3.1080315E-1,-1.4928888E-2,-2.5020546E-1,2.2600258E-2,3.938019E-1,2.7066763E-2,3.8471806E-1,7.287787E-1,1.8309413E-2,2.4699405E-1,-2.8395196E-3,-1.3716523E-2,2.0134477E-2,5.0443118E-3,-1.1947959E-2,-3.927475E-2,-3.625597E-2,-6.8657E-3,2.6478322E-2,-0E0,-1.2437382E-2,2.0071765E-2,2.8979005E-2,-1.1605732E-4,-1.1277425E-2,1.0684749E-2,-2.6319828E-3,-3.217037E-2,-2.0965915E-3,1.1196354E-2,2.443234E-2,-1.872745E-3,-3.611266E-2,4.915086E-3,1.2111829E-2,2.6532618E-2,4.1003622E-2,-0E0,-9.465816E-3,1.1676678E-2,2.3197817E-2,8.565775E-3],"categories":[],"categories_nodes":[],"categories_segments":[],"categories_sizes":[],"default_left":[0,0,0,0,0,0,0,0,0,0,0,0,0,0,0,0,0,0,0,0,0,0,0,0,0,0,0,0,0,0,0,0,0,0,0,0,0,0,0,0,0,0,0,0,0,0,0,0,0,0,0,0,0,0,0,0,0,0,0,0,0,0,0],"id":15,"left_children":[1,3,5,7,9,11,13,15,17,19,21,23,25,27,29,31,33,35,37,39,41,43,45,47,49,51,53,55,57,59,61,-1,-1,-1,-1,-1,-1,-1,-1,-1,-1,-1,-1,-1,-1,-1,-1,-1,-1,-1,-1,-1,-1,-1,-1,-1,-1,-1,-1,-1,-1,-1,-1],"loss_changes":[2.6644135E2,1.4638846E2,5.483879E1,8.545688E1,3.3781082E1,2.0524178E1,3.6951492E1,4.715995E1,9.270056E1,2.358915E1,1.4436059E1,9.011465E0,1.2997213E1,2.096141E1,9.591749E0,2.9982723E1,1.1116501E1,3.836795E1,5.6401047E1,9.072487E0,9.129986E0,1.3114611E1,2.324916E1,1.0050371E1,7.006553E0,6.620804E0,7.236371E0,1.7785187E1,5.063545E0,1.0608893E1,9.426296E0,0E0,0E0,0E0,0E0,0E0,0E0,0E0,0E0,0E0,0E0,0E0,0E0,0E0,0E0,0E0,0E0,0E0,0E0,0E0,0E0,0E0,0E0,0E0,0E0,0E0,0E0,0E0,0E0,0E0,0E0,0E0,0E0],"parents":[2147483647,0,0,1,1,2,2,3,3,4,4,5,5,6,6,7,7,8,8,9,9,10,10,11,11,12,12,13,13,14,14,15,15,16,16,17,17,18,18,19,19,20,20,21,21,22,22,23,23,24,24,25,25,26,26,27,27,28,28,29,29,30,30],"right_children":[2,4,6,8,10,12,14,16,18,20,22,24,26,28,30,32,34,36,38,40,42,44,46,48,50,52,54,56,58,60,62,-1,-1,-1,-1,-1,-1,-1,-1,-1,-1,-1,-1,-1,-1,-1,-1,-1,-1,-1,-1,-1,-1,-1,-1,-1,-1,-1,-1,-1,-1,-1,-1],"split_conditions":[7.6483583E-1,1.0555987E0,1.3019606E-1,9.506951E-3,8.5482955E-1,6.439858E-1,3.7296617E-1,5.7070744E-1,-3.2712993E-1,8.1267715E-1,-2.0084623E-1,-4.8673907E-1,1.2561463E0,1.3640664E0,2.9448006E-1,3.9524972E-1,1.316425E-1,-1.5787362E-1,-4.8673907E-1,1.791454E0,3.6843604E-1,5.497898E-1,4.699113E-2,1.487524E-1,1.0023539E0,1.082898E0,-7.9520667E-1,1.1288245E0,2.5454748E0,1.492813E0,2.9128116E-1,-2.8395196E-3,-1.3716523E-2,2.0134477E-2,5.0443118E-3,-1.1947959E-2,-3.927475E-2,-3.625597E-2,-6.8657E-3,2.6478322E-2,-0E0,-1.2437382E-2,2.0071765E-2,2.8979005E-2,-1.1605732E-4,-1.1277425E-2,1.0684749E-2,-2.6319828E-3,-3.217037E-2,-2.0965915E-3,1.1196354E-2,2.443234E-2,-1.872745E-3,-3.611266E-2,4.915086E-3,1.2111829E-2,2.6532618E-2,4.1003622E-2,-0E0,-9.465816E-3,1.1676678E-2,2.3197817E-2,8.565775E-3],"split_indices":[3,2,2,6,6,12,142,122,3,148,8,2,7,2,147,68,127,68,2,90,1,119,1,12,71,126,2,3,6,3,6,0,0,0,0,0,0,0,0,0,0,0,0,0,0,0,0,0,0,0,0,0,0,0,0,0,0,0,0,0,0,0,0],"split_type":[0,0,0,0,0,0,0,0,0,0,0,0,0,0,0,0,0,0,0,0,0,0,0,0,0,0,0,0,0,0,0,0,0,0,0,0,0,0,0,0,0,0,0,0,0,0,0,0,0,0,0,0,0,0,0,0,0,0,0,0,0,0,0],"sum_hessian":[1.3321541E4,9.991246E3,3.330295E3,8.573167E3,1.4180785E3,1.1606973E3,2.1695977E3,5.2031616E3,3.3700056E3,6.839283E2,7.3415015E2,7.5040234E2,4.1029495E2,1.2850609E3,8.8453674E2,4.2258076E3,9.773539E2,7.184867E2,2.651519E3,5.704211E2,1.1350725E2,1.7738872E2,5.567614E2,1.4950925E2,6.008931E2,2.4259314E2,1.6770181E2,1.0632528E3,2.2180814E2,2.7178015E2,6.127566E2,3.27576E3,9.500479E2,1.7461069E2,8.0274316E2,2.2014624E2,4.9834048E2,2.0474309E2,2.446776E3,5.2740717E2,4.3013863E1,7.852004E1,3.4987206E1,1.0349731E2,7.389141E1,2.9298795E2,2.6377347E2,9.682026E1,5.2688988E1,4.4894324E2,1.5194989E2,2.1405501E2,2.8538126E1,1.2297954E1,1.5540385E2,4.3431433E2,6.289385E2,2.114197E2,1.0388437E1,1.3568794E2,1.360922E2,1.936957E2,4.1906088E2],"tree_param":{"num_deleted":"0","num_feature":"162","num_nodes":"63","size_leaf_vector":"1"}},{"base_weights":[-8.661071E-3,-1.077545E-1,1.6576953E-1,-1.7368275E-1,3.0288646E-2,-9.916433E-2,2.3128437E-1,-2.1408927E-1,1.2568155E-1,5.2962106E-2,-2.603917E-1,-2.0579764E-1,1.7614557E-1,3.2529244E-1,1.3787016E-1,-1.12204365E-1,-3.4311432E-1,-2.8470356E-2,2.9659888E-1,2.9657591E-2,3.6599025E-1,-4.6165773E-1,-7.829367E-2,1.4883738E-3,-3.815751E-1,2.6645806E-1,-4.2332444E-1,2.8956747E-1,6.252324E-1,2.016613E-1,2.8107682E-2,-5.1369662E-3,-2.6084347E-2,-3.3900227E-2,-1.3912122E-2,8.116006E-3,-1.256748E-2,1.9711321E-2,-6.058061E-3,1.8989404E-3,-4.281379E-2,1.4185295E-2,5.1315524E-2,-8.253364E-3,-3.6151025E-2,3.3300004E-3,-2.1978252E-2,-3.2604001E-3,3.284842E-2,-5.6206055E-2,-1.7019035E-2,-8.475018E-3,2.2998424E-2,3.9711134E-3,-4.2105835E-2,1.35372635E-2,2.9267568E-2,3.5813224E-2,-0E0,3.7981838E-3,1.4860377E-2,1.3223417E-2,-1.4717373E-3],"categories":[],"categories_nodes":[],"categories_segments":[],"categories_sizes":[],"default_left":[0,0,0,0,0,0,0,0,0,0,0,0,0,0,0,0,0,0,0,0,0,0,0,0,0,0,0,0,0,0,0,0,0,0,0,0,0,0,0,0,0,0,0,0,0,0,0,0,0,0,0,0,0,0,0,0,0,0,0,0,0,0,0],"id":16,"left_children":[1,3,5,7,9,11,13,15,17,19,21,23,25,27,29,31,33,35,37,39,41,43,45,47,49,51,53,55,57,59,61,-1,-1,-1,-1,-1,-1,-1,-1,-1,-1,-1,-1,-1,-1,-1,-1,-1,-1,-1,-1,-1,-1,-1,-1,-1,-1,-1,-1,-1,-1,-1,-1],"loss_changes":[2.291354E2,7.708294E1,8.3449265E1,6.9378204E1,1.7868578E1,2.7965065E1,3.3441498E1,6.600557E1,1.8111204E1,1.8211529E1,6.740197E0,2.5321537E1,1.4314459E1,1.9661514E1,1.3396782E1,1.714093E1,5.3135498E1,1.3204507E1,9.499735E0,1.0496237E1,9.284189E0,5.179371E0,5.178327E0,1.2337962E1,1.4826645E1,1.6058146E1,6.6420627E0,1.583725E1,5.030113E0,1.1663429E1,8.828055E0,0E0,0E0,0E0,0E0,0E0,0E0,0E0,0E0,0E0,0E0,0E0,0E0,0E0,0E0,0E0,0E0,0E0,0E0,0E0,0E0,0E0,0E0,0E0,0E0,0E0,0E0,0E0,0E0,0E0,0E0,0E0,0E0],"parents":[2147483647,0,0,1,1,2,2,3,3,4,4,5,5,6,6,7,7,8,8,9,9,10,10,11,11,12,12,13,13,14,14,15,15,16,16,17,17,18,18,19,19,20,20,21,21,22,22,23,23,24,24,25,25,26,26,27,27,28,28,29,29,30,30],"right_children":[2,4,6,8,10,12,14,16,18,20,22,24,26,28,30,32,34,36,38,40,42,44,46,48,50,52,54,56,58,60,62,-1,-1,-1,-1,-1,-1,-1,-1,-1,-1,-1,-1,-1,-1,-1,-1,-1,-1,-1,-1,-1,-1,-1,-1,-1,-1,-1,-1,-1,-1,-1,-1],"split_conditions":[4.0084726E-1,4.4894823E-1,-1.782715E-1,1.0555987E0,1.7001522E0,1.492813E0,4.049325E-1,-2.7226725E-1,1.2385199E0,2.761678E0,-1.13731325E-1,5.920929E-1,2.2522266E0,1.9301039E0,1.0905256E0,1.1466868E0,-1.782715E-1,8.5482955E-1,1.9819264E0,3.6388347E0,1.9810015E0,3.8045985E-1,4.324773E-1,1.418378E0,-7.9520667E-1,1.7598256E-1,2.8746602E-1,1.8568016E0,1.2843603E0,-3.655361E-1,9.506951E-3,-5.1369662E-3,-2.6084347E-2,-3.3900227E-2,-1.3912122E-2,8.116006E-3,-1.256748E-2,1.9711321E-2,-6.058061E-3,1.8989404E-3,-4.281379E-2,1.4185295E-2,5.1315524E-2,-8.253364E-3,-3.6151025E-2,3.3300004E-3,-2.1978252E-2,-3.2604001E-3,3.284842E-2,-5.6206055E-2,-1.7019035E-2,-8.475018E-3,2.2998424E-2,3.9711134E-3,-4.2105835E-2,1.35372635E-2,2.9267568E-2,3.5813224E-2,-0E0,3.7981838E-3,1.4860377E-2,1.3223417E-2,-1.4717373E-3],"split_indices":[3,129,2,2,6,3,128,6,60,14,1,7,7,93,143,62,2,6,6,135,2,5,145,6,2,21,4,3,4,112,6,0,0,0,0,0,0,0,0,0,0,0,0,0,0,0,0,0,0,0,0,0,0,0,0,0,0,0,0,0,0,0,0],"split_type":[0,0,0,0,0,0,0,0,0,0,0,0,0,0,0,0,0,0,0,0,0,0,0,0,0,0,0,0,0,0,0,0,0,0,0,0,0,0,0,0,0,0,0,0,0,0,0,0,0,0,0,0,0,0,0,0,0,0,0,0,0,0,0],"sum_hessian":[1.3256455E4,8.456737E3,4.799718E3,5.726625E3,2.730112E3,9.493179E2,3.8504001E3,5.047984E3,6.78641E2,2.535708E3,1.9440404E2,6.8635657E2,2.629613E2,1.913886E3,1.936514E3,2.824929E3,2.223055E3,3.5512384E2,3.2351715E2,2.3632886E3,1.7241942E2,8.965158E1,1.04752464E2,3.136048E2,3.727518E2,2.3011542E2,3.2845898E1,1.7143127E3,1.9957326E2,1.2200178E3,7.164963E2,2.7068247E3,1.1810412E2,5.0212238E2,1.7209325E3,1.87783E2,1.6734082E2,2.7797122E2,4.5545948E1,2.349192E3,1.4096732E1,1.492949E2,2.3124523E1,3.853336E1,5.1118217E1,7.266671E1,3.2085754E1,2.844586E2,2.9146215E1,3.087187E1,3.418799E2,6.2128086E1,1.6798734E2,1.3326206E1,1.9519691E1,1.4962781E3,2.1803468E2,1.8726987E2,1.2303392E1,4.4666238E2,7.733554E2,1.4730714E2,5.6918915E2],"tree_param":{"num_deleted":"0","num_feature":"162","num_nodes":"63","size_leaf_vector":"1"}},{"base_weights":[-4.8776987E-4,-7.1141474E-2,2.1216539E-1,-1.4926493E-1,5.0828844E-2,1.11852586E-1,2.9907057E-1,-5.5892035E-2,-2.3446037E-1,-2.4308473E-2,1.8102607E-1,3.854095E-2,2.210754E-1,4.1098845E-1,2.1525083E-1,-7.797268E-2,8.706351E-2,-5.066681E-1,-1.6488568E-1,4.4992156E-2,-2.5992158E-1,1.6043115E-1,6.8205893E-1,2.4905471E-2,3.7305962E-2,4.1146758E-1,1.1881637E-1,3.151566E-1,5.8978605E-1,1.3894826E-1,4.3149987E-1,-5.663798E-3,3.4731368E-3,2.267685E-3,2.550014E-2,-2.890766E-2,1.7227458E-2,-9.798711E-3,1.9824024E-2,-2.1562597E-3,1.1187525E-2,-2.066792E-2,7.605305E-4,1.6976539E-2,6.1404984E-3,4.6177115E-2,9.1411E-3,-2.0751986E-3,6.977007E-3,2.8018324E-2,-2.1160443E-3,-3.2010198E-2,7.8029498E-3,9.096717E-3,2.2785755E-2,3.332771E-2,-0E0,5.351563E-4,1.6344316E-2,3.164594E-2,1.2715968E-2],"categories":[],"categories_nodes":[],"categories_segments":[],"categories_sizes":[],"default_left":[0,0,0,0,0,0,0,0,0,0,0,0,0,0,0,0,0,0,0,0,0,0,0,0,0,0,0,0,0,0,0,0,0,0,0,0,0,0,0,0,0,0,0,0,0,0,0,0,0,0,0,0,0,0,0,0,0,0,0,0,0],"id":17,"left_children":[1,3,5,7,9,11,13,15,17,19,21,23,25,27,29,31,33,35,37,39,41,43,45,47,-1,49,51,53,55,57,59,-1,-1,-1,-1,-1,-1,-1,-1,-1,-1,-1,-1,-1,-1,-1,-1,-1,-1,-1,-1,-1,-1,-1,-1,-1,-1,-1,-1,-1,-1],"loss_changes":[1.9773238E2,9.427929E1,2.8273514E1,4.7746033E1,3.784942E1,1.2046217E1,1.5903091E1,9.099692E0,5.9058395E1,4.0059612E1,1.3875603E1,7.6835403E0,1.143928E1,1.1926071E1,1.6168793E1,9.772772E0,6.2448206E0,1.653444E1,2.3051826E1,2.628297E1,1.926411E1,9.433235E0,3.9889545E0,6.080414E0,0E0,1.0726585E1,7.2791753E0,7.264797E0,4.8166504E0,1.5716997E1,7.2086067E0,0E0,0E0,0E0,0E0,0E0,0E0,0E0,0E0,0E0,0E0,0E0,0E0,0E0,0E0,0E0,0E0,0E0,0E0,0E0,0E0,0E0,0E0,0E0,0E0,0E0,0E0,0E0,0E0,0E0,0E0],"parents":[2147483647,0,0,1,1,2,2,3,3,4,4,5,5,6,6,7,7,8,8,9,9,10,10,11,11,12,12,13,13,14,14,15,15,16,16,17,17,18,18,19,19,20,20,21,21,22,22,23,23,25,25,26,26,27,27,28,28,29,29,30,30],"right_children":[2,4,6,8,10,12,14,16,18,20,22,24,26,28,30,32,34,36,38,40,42,44,46,48,-1,50,52,54,56,58,60,-1,-1,-1,-1,-1,-1,-1,-1,-1,-1,-1,-1,-1,-1,-1,-1,-1,-1,-1,-1,-1,-1,-1,-1,-1,-1,-1,-1,-1,-1],"split_conditions":[7.6483583E-1,-2.9642384E-2,3.8330975E-1,-5.670148E-1,3.6858663E-2,1.492813E0,5.920929E-1,5.166881E-1,-3.2712993E-1,8.5482955E-1,2.9149125E0,3.4043326E0,6.2988144E-1,6.799684E-1,1.8568016E0,1.0295035E0,5.343838E-1,8.1825227E-1,1.5081364E0,6.945052E-1,1.492036E0,9.506951E-3,-2.5377068E-1,5.176643E-1,3.7305962E-2,1.5483587E0,-5.670148E-1,1.1288245E0,4.769845E0,-3.993583E-1,2.588503E-1,-5.663798E-3,3.4731368E-3,2.267685E-3,2.550014E-2,-2.890766E-2,1.7227458E-2,-9.798711E-3,1.9824024E-2,-2.1562597E-3,1.1187525E-2,-2.066792E-2,7.605305E-4,1.6976539E-2,6.1404984E-3,4.6177115E-2,9.1411E-3,-2.0751986E-3,6.977007E-3,2.8018324E-2,-2.1160443E-3,-3.2010198E-2,7.8029498E-3,9.096717E-3,2.2785755E-2,3.332771E-2,-0E0,5.351563E-4,1.6344316E-2,3.164594E-2,1.2715968E-2],"split_indices":[3,25,69,4,3,3,7,129,3,6,16,95,142,22,3,150,128,130,91,129,51,6,136,147,0,103,4,3,113,17,108,0,0,0,0,0,0,0,0,0,0,0,0,0,0,0,0,0,0,0,0,0,0,0,0,0,0,0,0,0,0],"split_type":[0,0,0,0,0,0,0,0,0,0,0,0,0,0,0,0,0,0,0,0,0,0,0,0,0,0,0,0,0,0,0,0,0,0,0,0,0,0,0,0,0,0,0,0,0,0,0,0,0,0,0,0,0,0,0,0,0,0,0,0,0],"sum_hessian":[1.3164878E4,9.884785E3,3.2800935E3,6.028838E3,3.8559473E3,1.5276133E3,1.7524802E3,2.881269E3,3.1475688E3,2.4420654E3,1.4138817E3,9.1890485E2,6.087084E2,7.449098E2,1.0075704E3,2.5005476E3,3.8072137E2,6.371907E2,2.510378E3,1.8854045E3,5.5666095E2,1.3608683E3,5.3013367E1,9.0238605E2,1.651881E1,2.0905713E2,3.996512E2,4.8961685E2,2.5529295E2,7.4859784E2,2.5897253E2,2.1029802E3,3.975675E2,3.4390756E2,3.6813828E1,6.1562415E2,2.1566584E1,2.4337502E3,7.662788E1,1.2364161E3,6.489884E2,3.8449164E2,1.7216934E2,3.077121E2,1.0531562E3,3.7830875E1,1.5182492E1,5.5815344E2,3.4423264E2,1.6938354E2,3.9673588E1,1.2323644E1,3.8732758E2,2.1259201E2,2.7702484E2,2.4384354E2,1.1449417E1,4.2307437E2,3.2552347E2,1.4032303E2,1.18649506E2],"tree_param":{"num_deleted":"0","num_feature":"162","num_nodes":"61","size_leaf_vector":"1"}},{"base_weights":[-6.7029014E-4,-7.2888054E-2,2.1975091E-1,-1.267609E-1,2.0324022E-2,3.2379588E-1,9.6943855E-2,-1.4989777E-1,-2.1360265E-3,-7.389611E-4,2.888844E-1,1.3293973E-1,3.888777E-1,5.7079133E-2,4.5328707E-1,-1.6500051E-1,5.1718958E-2,-2.0085642E-2,5.03189E-1,-3.1330835E-2,2.2736154E-1,3.3134285E-1,-2.4724633E-2,6.0305994E-2,3.7205482E-1,3.018649E-1,5.2886486E-1,-5.0679244E-2,1.6590106E-1,7.0807105E-1,1.9647594E-1,-5.7091855E-2,-8.671376E-3,-7.1642194E-3,1.0232297E-2,4.2245775E-3,-7.524607E-3,3.7922926E-2,-0E0,-3.8866358E-4,-1.0204999E-2,1.3892095E-2,-3.315533E-2,2.025959E-2,-1.3493477E-2,-3.4050469E-3,1.1406596E-2,1.1481957E-2,4.0279876E-2,1.2930861E-2,2.6369104E-2,3.163203E-2,1.9019848E-2,-4.088872E-3,2.8913781E-2,1.4540036E-2,3.7063868E-3,4.500911E-2,9.213428E-3,2.8717887E-2,-6.741798E-3],"categories":[],"categories_nodes":[],"categories_segments":[],"categories_sizes":[],"default_left":[0,0,0,0,0,0,0,0,0,0,0,0,0,0,0,0,0,0,0,0,0,0,0,0,0,0,0,0,0,0,0,0,0,0,0,0,0,0,0,0,0,0,0,0,0,0,0,0,0,0,0,0,0,0,0,0,0,0,0,0,0],"id":18,"left_children":[1,3,5,7,9,11,13,15,17,19,21,23,25,27,29,31,33,35,37,39,41,43,-1,45,47,49,51,53,55,57,59,-1,-1,-1,-1,-1,-1,-1,-1,-1,-1,-1,-1,-1,-1,-1,-1,-1,-1,-1,-1,-1,-1,-1,-1,-1,-1,-1,-1,-1,-1],"loss_changes":[2.1009766E2,5.0037426E1,4.1271576E1,1.8085045E1,2.079649E1,2.1420212E1,2.0890087E1,1.6280518E1,8.682605E0,2.3412045E1,8.572525E0,7.5136943E0,1.5163757E1,1.5929814E1,8.93154E0,1.5874359E1,9.493772E0,1.14232025E1,2.9206934E0,1.1229155E1,1.02455635E1,6.8972054E0,0E0,6.688794E0,5.2721043E0,8.756531E0,4.241089E0,9.788198E0,6.57633E0,4.1454315E0,8.732915E0,0E0,0E0,0E0,0E0,0E0,0E0,0E0,0E0,0E0,0E0,0E0,0E0,0E0,0E0,0E0,0E0,0E0,0E0,0E0,0E0,0E0,0E0,0E0,0E0,0E0,0E0,0E0,0E0,0E0,0E0],"parents":[2147483647,0,0,1,1,2,2,3,3,4,4,5,5,6,6,7,7,8,8,9,9,10,10,11,11,12,12,13,13,14,14,15,15,16,16,17,17,18,18,19,19,20,20,21,21,23,23,24,24,25,25,26,26,27,27,28,28,29,29,30,30],"right_children":[2,4,6,8,10,12,14,16,18,20,22,24,26,28,30,32,34,36,38,40,42,44,-1,46,48,50,52,54,56,58,60,-1,-1,-1,-1,-1,-1,-1,-1,-1,-1,-1,-1,-1,-1,-1,-1,-1,-1,-1,-1,-1,-1,-1,-1,-1,-1,-1,-1,-1,-1],"split_conditions":[7.471312E-1,1.6079387E-2,8.5482955E-1,5.9429026E-1,1.8769966E0,-3.6363003E-1,1.8209155E0,1.2788824E0,1.9063264E0,9.1465974E-1,1.9819264E0,1.2843603E0,1.3640664E0,1.3640664E0,6.937768E-1,-2.1414044E0,3.5270175E-1,-5.5404145E-1,5.533738E-1,6.7462265E-1,1.7001522E0,1.6824799E0,-2.4724633E-2,2.0309764E-1,5.1100457E-1,1.4834259E0,8.336413E-1,3.631815E0,3.6650038E-1,3.504274E0,2.4174473E-1,-5.7091855E-2,-8.671376E-3,-7.1642194E-3,1.0232297E-2,4.2245775E-3,-7.524607E-3,3.7922926E-2,-0E0,-3.8866358E-4,-1.0204999E-2,1.3892095E-2,-3.315533E-2,2.025959E-2,-1.3493477E-2,-3.4050469E-3,1.1406596E-2,1.1481957E-2,4.0279876E-2,1.2930861E-2,2.6369104E-2,3.163203E-2,1.9019848E-2,-4.088872E-3,2.8913781E-2,1.4540036E-2,3.7063868E-3,4.500911E-2,9.213428E-3,2.8717887E-2,-6.741798E-3],"split_indices":[2,25,6,130,93,13,89,89,5,129,6,4,2,2,109,13,68,6,147,128,6,98,0,69,121,42,144,48,127,61,5,0,0,0,0,0,0,0,0,0,0,0,0,0,0,0,0,0,0,0,0,0,0,0,0,0,0,0,0,0,0],"split_type":[0,0,0,0,0,0,0,0,0,0,0,0,0,0,0,0,0,0,0,0,0,0,0,0,0,0,0,0,0,0,0,0,0,0,0,0,0,0,0,0,0,0,0,0,0,0,0,0,0,0,0,0,0,0,0,0,0,0,0,0,0],"sum_hessian":[1.3202779E4,9.947595E3,3.2551848E3,6.308678E3,3.6389163E3,1.7580518E3,1.497133E3,5.315827E3,9.9285144E2,3.3728618E3,2.6605444E2,4.5071814E2,1.3073336E3,1.3494852E3,1.4764777E2,4.948863E3,3.669644E2,9.612121E2,3.1639381E1,2.9776245E3,3.9523727E2,2.5327377E2,1.2780678E1,3.490871E2,1.0163105E2,8.115676E2,4.9576596E2,6.7506635E2,6.744189E2,7.171883E1,7.592894E1,1.886947E1,4.929993E3,1.5496062E2,2.1200378E2,5.24139E2,4.370731E2,2.14429E1,1.0196481E1,2.5891748E3,3.8844974E2,3.8286615E2,1.2371119E1,2.3652141E2,1.6752363E1,1.9014355E2,1.5894354E2,7.409942E1,2.7531624E1,6.1653107E2,1.9503653E2,3.6572943E2,1.3003651E2,6.4931104E2,2.5755316E1,3.2036542E2,3.5405347E2,5.6277924E1,1.54409E1,3.778668E1,3.814226E1],"tree_param":{"num_deleted":"0","num_feature":"162","num_nodes":"61","size_leaf_vector":"1"}},{"base_weights":[6.7949863E-3,-3.9268903E-2,2.536608E-1,-7.6357715E-2,1.12330005E-1,3.2205358E-1,1.2192765E-1,-1.1042275E-1,2.1459633E-2,2.6930916E-1,5.573115E-2,2.129067E-1,3.9412135E-1,1.9234033E-1,-7.5321816E-2,-1.702189E-1,-2.1121345E-2,5.3174596E-2,-1.1160227E-1,3.1757358E-1,-2.8632918E-1,6.773576E-2,-6.3773924E-1,1.8318106E-1,6.9632125E-1,2.9991007E-1,5.8508176E-1,2.211713E-1,-2.873536E-1,-6.3770586E-1,3.0095406E-2,-3.1978677E-3,-1.8040342E-2,-4.6674344E-3,6.248544E-3,4.104848E-3,-8.101093E-3,-2.2345075E-2,-1.5140772E-3,2.0660393E-2,5.503522E-4,-5.0671924E-2,-1.3254853E-3,1.7410202E-3,1.876036E-2,-6.6025026E-2,1.0773905E-2,1.14368675E-2,-1.5005906E-2,5.1135853E-2,7.2350544E-3,1.3473336E-2,3.356525E-2,3.4558777E-2,-2.2748723E-3,9.480498E-3,2.8183492E-2,-3.2993384E-2,6.573491E-3,-0E0,-4.9919736E-2,-1.5744621E-2,8.754688E-3],"categories":[],"categories_nodes":[],"categories_segments":[],"categories_sizes":[],"default_left":[0,0,0,0,0,0,0,0,0,0,0,0,0,0,0,0,0,0,0,0,0,0,0,0,0,0,0,0,0,0,0,0,0,0,0,0,0,0,0,0,0,0,0,0,0,0,0,0,0,0,0,0,0,0,0,0,0,0,0,0,0,0,0],"id":19,"left_children":[1,3,5,7,9,11,13,15,17,19,21,23,25,27,29,31,33,35,37,39,41,43,45,47,49,51,53,55,57,59,61,-1,-1,-1,-1,-1,-1,-1,-1,-1,-1,-1,-1,-1,-1,-1,-1,-1,-1,-1,-1,-1,-1,-1,-1,-1,-1,-1,-1,-1,-1,-1,-1],"loss_changes":[1.4992886E2,6.238157E1,1.8320908E1,2.9791218E1,1.9102509E1,1.0174637E1,1.0017299E1,3.5220444E1,9.6700735E0,1.5506859E1,1.3008929E1,7.0955734E0,1.3818489E1,7.3437805E0,1.1481963E1,7.215061E1,2.3973366E1,8.734668E0,1.0790607E1,1.0527985E1,7.047427E0,1.5422775E1,1.4064015E1,7.069195E0,3.3536263E0,8.015629E0,9.994919E0,6.2153797E0,4.319008E0,5.0082865E0,6.6673083E0,0E0,0E0,0E0,0E0,0E0,0E0,0E0,0E0,0E0,0E0,0E0,0E0,0E0,0E0,0E0,0E0,0E0,0E0,0E0,0E0,0E0,0E0,0E0,0E0,0E0,0E0,0E0,0E0,0E0,0E0,0E0,0E0],"parents":[2147483647,0,0,1,1,2,2,3,3,4,4,5,5,6,6,7,7,8,8,9,9,10,10,11,11,12,12,13,13,14,14,15,15,16,16,17,17,18,18,19,19,20,20,21,21,22,22,23,23,24,24,25,25,26,26,27,27,28,28,29,29,30,30],"right_children":[2,4,6,8,10,12,14,16,18,20,22,24,26,28,30,32,34,36,38,40,42,44,46,48,50,52,54,56,58,60,62,-1,-1,-1,-1,-1,-1,-1,-1,-1,-1,-1,-1,-1,-1,-1,-1,-1,-1,-1,-1,-1,-1,-1,-1,-1,-1,-1,-1,-1,-1,-1,-1],"split_conditions":[1.1288245E0,1.6546947E-1,5.883218E-1,5.6069595E-1,-6.967993E-1,2.1149693E-1,1.2500954E0,3.6858663E-2,4.165237E-1,-3.524701E-1,1.8149381E0,4.272624E0,1.8568016E0,1.5947703E0,3.7860024E-1,-1.1430962E0,1.1838611E0,1.418378E0,5.274557E-1,1.7001522E0,1.439848E0,1.8730341E0,4.4499823E-1,1.6824799E0,7.9161215E0,8.8126427E-1,2.4578278E0,1.6632495E0,-2.9412797E-2,-2.8400463E-1,5.015105E-1,-3.1978677E-3,-1.8040342E-2,-4.6674344E-3,6.248544E-3,4.104848E-3,-8.101093E-3,-2.2345075E-2,-1.5140772E-3,2.0660393E-2,5.503522E-4,-5.0671924E-2,-1.3254853E-3,1.7410202E-3,1.876036E-2,-6.6025026E-2,1.0773905E-2,1.14368675E-2,-1.5005906E-2,5.1135853E-2,7.2350544E-3,1.3473336E-2,3.356525E-2,3.4558777E-2,-2.2748723E-3,9.480498E-3,2.8183492E-2,-3.2993384E-2,6.573491E-3,-0E0,-4.9919736E-2,-1.5744621E-2,8.754688E-3],"split_indices":[3,13,128,130,107,0,149,3,68,24,1,27,3,131,122,0,60,6,21,6,31,89,119,98,36,69,1,9,70,16,135,0,0,0,0,0,0,0,0,0,0,0,0,0,0,0,0,0,0,0,0,0,0,0,0,0,0,0,0,0,0,0,0],"split_type":[0,0,0,0,0,0,0,0,0,0,0,0,0,0,0,0,0,0,0,0,0,0,0,0,0,0,0,0,0,0,0,0,0,0,0,0,0,0,0,0,0,0,0,0,0,0,0,0,0,0,0,0,0,0,0,0,0,0,0,0,0,0,0],"sum_hessian":[1.3168913E4,1.1096439E4,2.0724731E3,8.919538E3,2.1769016E3,1.3595613E3,7.1291187E2,6.620936E3,2.298602E3,5.7241254E2,1.6044891E3,5.4641345E2,8.131479E2,5.280563E2,1.848556E2,3.960181E3,2.6607551E3,1.861067E3,4.375351E2,5.282946E2,4.41179E1,1.5792064E3,2.528274E1,5.1762775E2,2.8785728E1,5.489699E2,2.64178E2,5.0009915E2,2.7957104E1,2.9343277E1,1.5551233E2,2.3735618E3,1.586619E3,1.8038463E3,8.5690875E2,1.675157E3,1.8591002E2,9.1490486E1,3.4604462E2,4.3222775E2,9.6066895E1,1.0965973E1,3.3151928E1,1.4060034E3,1.7320302E2,1.5031709E1,1.0251032E1,4.886893E2,2.893844E1,1.8403337E1,1.0382391E1,4.799105E2,6.905939E1,2.4308992E2,2.1088076E1,4.390565E2,6.104267E1,1.6223251E1,1.1733852E1,1.02667055E1,1.9076572E1,4.332755E1,1.1218478E2],"tree_param":{"num_deleted":"0","num_feature":"162","num_nodes":"63","size_leaf_vector":"1"}},{"base_weights":[-5.814562E-3,-9.043605E-2,1.4284046E-1,-1.2955625E-1,7.6058656E-2,-9.360688E-2,2.0209432E-1,-1.8024694E-2,-2.827136E-1,1.3344683E-1,-1.8330128E-1,3.2328222E-2,-2.4896312E-1,2.662817E-1,7.6358706E-2,-8.837543E-2,6.944243E-2,-4.341203E-1,-1.2541862E-1,5.7075E-1,9.155614E-2,-0E0,-4.3234593E-1,-1.3258393E-1,2.5661632E-1,-2.8664705E-1,2.6280636E-2,2.0724544E-1,4.582254E-1,-3.4144174E-2,1.7630064E-1,-3.4430787E-2,-4.2188587E-3,3.1271833E-3,3.0543555E-2,-3.587957E-2,-1.9649487E-2,9.189126E-4,-1.3889334E-2,3.4803983E-2,-5.313636E-3,-1.6516926E-2,6.645333E-3,7.928809E-3,-1.4090059E-2,-8.331349E-3,-5.0542295E-2,-1.05406735E-2,2.8126907E-2,8.902937E-3,4.3470867E-2,-4.6361294E-2,-1.1870844E-2,6.550177E-3,1.8300904E-2,2.5515588E-2,-1.768344E-2,-4.2688753E-3,2.1402948E-2,-1.2277905E-2,1.2432277E-2],"categories":[],"categories_nodes":[],"categories_segments":[],"categories_sizes":[],"default_left":[0,0,0,0,0,0,0,0,0,0,0,0,0,0,0,0,0,0,0,0,0,0,0,0,0,0,0,0,0,0,0,0,0,0,0,0,0,0,0,0,0,0,0,0,0,0,0,0,0,0,0,0,0,0,0,0,0,0,0,0,0],"id":20,"left_children":[1,3,5,7,9,11,13,15,17,19,21,23,25,27,29,31,33,35,37,39,41,43,45,47,49,51,-1,53,55,57,59,-1,-1,-1,-1,-1,-1,-1,-1,-1,-1,-1,-1,-1,-1,-1,-1,-1,-1,-1,-1,-1,-1,-1,-1,-1,-1,-1,-1,-1,-1],"loss_changes":[1.6553247E2,5.4698997E1,6.694947E1,1.1590188E2,2.3711834E1,1.8838245E1,3.0547134E1,2.424902E1,6.769127E1,2.3425325E1,1.3049963E1,1.956923E1,1.1964989E1,2.8012787E1,1.4418354E1,1.1442696E1,9.390123E0,2.232367E1,2.6802317E1,6.2077827E0,1.5153912E1,6.4913607E0,1.613624E1,1.2413756E1,1.0456716E1,1.4600216E1,0E0,2.1611473E1,7.7318344E0,1.1777427E1,1.5220507E1,0E0,0E0,0E0,0E0,0E0,0E0,0E0,0E0,0E0,0E0,0E0,0E0,0E0,0E0,0E0,0E0,0E0,0E0,0E0,0E0,0E0,0E0,0E0,0E0,0E0,0E0,0E0,0E0,0E0,0E0],"parents":[2147483647,0,0,1,1,2,2,3,3,4,4,5,5,6,6,7,7,8,8,9,9,10,10,11,11,12,12,13,13,14,14,15,15,16,16,17,17,18,18,19,19,20,20,21,21,22,22,23,23,24,24,25,25,27,27,28,28,29,29,30,30],"right_children":[2,4,6,8,10,12,14,16,18,20,22,24,26,28,30,32,34,36,38,40,42,44,46,48,50,52,-1,54,56,58,60,-1,-1,-1,-1,-1,-1,-1,-1,-1,-1,-1,-1,-1,-1,-1,-1,-1,-1,-1,-1,-1,-1,-1,-1,-1,-1,-1,-1,-1,-1],"split_conditions":[4.0084726E-1,7.471312E-1,-1.782715E-1,-1.1430962E0,1.7001522E0,9.241196E-1,4.6364215E-1,4.0661082E-1,1.3019606E-1,-8.558639E-1,6.384992E-1,2.738781E-1,2.9487674E0,1.0555987E0,5.722929E-1,1.01781495E-1,3.7364235E0,-4.8673907E-1,4.824156E-1,1.3514658E0,-6.9111854E-1,1.1751792E0,7.0294935E-1,1.6492E0,3.590793E0,-7.9520667E-1,2.6280636E-2,1.1288245E0,2.0561688E0,3.0394166E0,1.3061492E-1,-3.4430787E-2,-4.2188587E-3,3.1271833E-3,3.0543555E-2,-3.587957E-2,-1.9649487E-2,9.189126E-4,-1.3889334E-2,3.4803983E-2,-5.313636E-3,-1.6516926E-2,6.645333E-3,7.928809E-3,-1.4090059E-2,-8.331349E-3,-5.0542295E-2,-1.05406735E-2,2.8126907E-2,8.902937E-3,4.3470867E-2,-4.6361294E-2,-1.1870844E-2,6.550177E-3,1.8300904E-2,2.5515588E-2,-1.768344E-2,-4.2688753E-3,2.1402948E-2,-1.2277905E-2,1.2432277E-2],"split_indices":[3,2,2,0,6,7,142,129,2,12,126,24,3,2,4,129,145,2,0,5,3,86,144,56,10,2,0,3,41,11,126,0,0,0,0,0,0,0,0,0,0,0,0,0,0,0,0,0,0,0,0,0,0,0,0,0,0,0,0,0,0],"split_type":[0,0,0,0,0,0,0,0,0,0,0,0,0,0,0,0,0,0,0,0,0,0,0,0,0,0,0,0,0,0,0,0,0,0,0,0,0,0,0,0,0,0,0,0,0,0,0,0,0,0,0,0,0,0,0,0,0,0,0,0,0],"sum_hessian":[1.3159672E4,8.389319E3,4.7703525E3,6.7968457E3,1.5924734E3,9.5335803E2,3.8169944E3,3.9363003E3,2.8605454E3,1.306655E3,2.8581827E2,5.2449664E2,4.288614E2,2.5223843E3,1.2946102E3,2.1861243E3,1.750176E3,1.454223E3,1.4063223E3,1.1148283E2,1.1951722E3,1.655603E2,1.20257965E2,3.0069098E2,2.2380568E2,4.0959393E2,1.926747E1,1.9337129E3,5.8867126E2,6.1178534E2,6.8282495E2,3.6211853E1,2.1499124E3,1.713958E3,3.6218117E1,3.2740833E2,1.1268147E3,6.7614984E2,7.301725E2,1.0108534E2,1.039748E1,8.635416E1,1.1088181E3,1.0598126E2,5.957905E1,7.959615E1,4.0661808E1,2.7591025E2,2.4780724E1,1.9444269E2,2.9362995E1,3.9639057E1,3.6995486E2,1.181428E3,7.522849E2,5.782339E2,1.0437372E1,5.5616473E2,5.562057E1,7.946699E1,6.03358E2],"tree_param":{"num_deleted":"0","num_feature":"162","num_nodes":"61","size_leaf_vector":"1"}},{"base_weights":[1.2968626E-3,-7.818648E-2,1.4383405E-1,-5.3000282E-2,-3.6940426E-1,-2.3255315E-2,2.37599E-1,1.9464947E-2,-1.2567809E-1,-1.080475E0,-2.7907187E-1,-2.1260692E-1,3.1720124E-2,3.170322E-1,1.10083595E-1,-4.1850567E-2,1.3127352E-1,-5.420839E-2,-2.6465452E-1,-6.340902E-1,-1.3860263E0,-4.1212708E-1,-8.035384E-2,-1.585714E-1,-8.15133E-1,1.8622018E-2,5.222403E-2,2.7854002E-1,6.166137E-1,1.1565579E-2,2.3273458E-1,3.6341497E-3,-1.0076039E-2,-3.2052144E-3,1.1226212E-2,-5.3021996E-3,1.1264789E-3,-2.4785403E-2,-8.702477E-3,-5.1470987E-2,-3.3732017E-3,-8.993494E-2,-5.41373E-2,-1.9409679E-2,-6.548333E-2,1.9905705E-2,-9.933212E-3,-7.5320096E-4,-1.8488836E-2,-1.5602847E-2,-6.017583E-2,-1.0745333E-3,1.2931224E-2,1.1703886E-2,2.3095459E-2,3.551527E-2,-0E0,7.5005526E-3,-4.6753273E-3,1.9194689E-2,5.359392E-3],"categories":[],"categories_nodes":[],"categories_segments":[],"categories_sizes":[],"default_left":[0,0,0,0,0,0,0,0,0,0,0,0,0,0,0,0,0,0,0,0,0,0,0,0,0,0,0,0,0,0,0,0,0,0,0,0,0,0,0,0,0,0,0,0,0,0,0,0,0,0,0,0,0,0,0,0,0,0,0,0,0],"id":21,"left_children":[1,3,5,7,9,11,13,15,17,19,21,23,25,27,29,31,33,35,37,39,41,43,45,47,49,51,-1,53,55,57,59,-1,-1,-1,-1,-1,-1,-1,-1,-1,-1,-1,-1,-1,-1,-1,-1,-1,-1,-1,-1,-1,-1,-1,-1,-1,-1,-1,-1,-1,-1],"loss_changes":[1.491672E2,6.1632343E1,7.403479E1,4.1043343E1,4.1719635E1,1.7762823E1,3.0277603E1,2.6744265E1,3.8378807E1,7.6836777E0,1.5392071E1,1.1662365E1,1.5389323E1,2.0600388E1,1.3906867E1,4.0030685E1,2.0540794E1,8.63163E0,2.6036087E1,5.326277E0,7.498398E-1,1.3051422E1,1.1354337E1,9.2375345E0,3.4450188E0,1.123865E1,0E0,1.4615326E1,5.3671722E0,8.24474E0,8.153402E0,0E0,0E0,0E0,0E0,0E0,0E0,0E0,0E0,0E0,0E0,0E0,0E0,0E0,0E0,0E0,0E0,0E0,0E0,0E0,0E0,0E0,0E0,0E0,0E0,0E0,0E0,0E0,0E0,0E0,0E0],"parents":[2147483647,0,0,1,1,2,2,3,3,4,4,5,5,6,6,7,7,8,8,9,9,10,10,11,11,12,12,13,13,14,14,15,15,16,16,17,17,18,18,19,19,20,20,21,21,22,22,23,23,24,24,25,25,27,27,28,28,29,29,30,30],"right_children":[2,4,6,8,10,12,14,16,18,20,22,24,26,28,30,32,34,36,38,40,42,44,46,48,50,52,-1,54,56,58,60,-1,-1,-1,-1,-1,-1,-1,-1,-1,-1,-1,-1,-1,-1,-1,-1,-1,-1,-1,-1,-1,-1,-1,-1,-1,-1,-1,-1,-1,-1],"split_conditions":[4.0084726E-1,1.6976134E0,1.3019606E-1,5.381273E-1,-4.8673907E-1,-4.8673907E-1,3.2007188E-1,4.3866363E-1,-5.9054613E-1,6.737726E-1,4.3866363E-1,7.7298516E-1,1.9625368E0,1.8568016E0,7.147064E-1,-1.1430962E0,-3.2712993E-1,-1.24159485E-1,1.3019606E-1,3.6858663E-2,7.147064E-1,1.2174963E0,3.4695625E-1,1.1720483E0,5.3511452E-2,1.5918953E0,5.222403E-2,1.0555987E0,1.7306927E0,5.795285E-1,1.2500954E0,3.6341497E-3,-1.0076039E-2,-3.2052144E-3,1.1226212E-2,-5.3021996E-3,1.1264789E-3,-2.4785403E-2,-8.702477E-3,-5.1470987E-2,-3.3732017E-3,-8.993494E-2,-5.41373E-2,-1.9409679E-2,-6.548333E-2,1.9905705E-2,-9.933212E-3,-7.5320096E-4,-1.8488836E-2,-1.5602847E-2,-6.017583E-2,-1.0745333E-3,1.2931224E-2,1.1703886E-2,2.3095459E-2,3.551527E-2,-0E0,7.5005526E-3,-4.6753273E-3,1.9194689E-2,5.359392E-3],"split_indices":[3,45,2,127,2,2,142,2,5,73,2,127,69,3,4,0,3,14,2,3,4,91,0,1,138,52,0,2,45,131,149,0,0,0,0,0,0,0,0,0,0,0,0,0,0,0,0,0,0,0,0,0,0,0,0,0,0,0,0,0,0],"split_type":[0,0,0,0,0,0,0,0,0,0,0,0,0,0,0,0,0,0,0,0,0,0,0,0,0,0,0,0,0,0,0,0,0,0,0,0,0,0,0,0,0,0,0,0,0,0,0,0,0,0,0,0,0,0,0,0,0,0,0,0,0],"sum_hessian":[1.3160059E4,8.445873E3,4.714185E3,7.777062E3,6.688113E2,1.692101E3,3.0220842E3,3.8897263E3,3.887336E3,7.309201E1,5.957193E2,3.8292285E2,1.3091781E3,1.8576268E3,1.1644573E3,2.5084358E3,1.3812904E3,2.5715906E3,1.3157452E3,3.2070717E1,4.102129E1,3.5392834E2,2.4179095E2,3.5381265E2,2.9110191E1,1.2930607E3,1.611744E1,1.6501771E3,2.0744972E2,6.496752E2,5.147821E2,1.4291346E3,1.0793013E3,3.9595517E2,9.853352E2,1.6229532E3,9.486373E2,4.491206E2,8.6662463E2,1.9208746E1,1.286197E1,2.01306E1,2.089069E1,3.3509012E2,1.8838215E1,4.363E1,1.9816095E2,2.0150366E2,1.5230899E2,1.2335725E1,1.6774466E1,1.0995024E3,1.9355829E2,1.1802089E3,4.6996826E2,1.9316022E2,1.4289498E1,2.8561118E2,3.6406396E2,2.6269833E2,2.5208376E2],"tree_param":{"num_deleted":"0","num_feature":"162","num_nodes":"61","size_leaf_vector":"1"}},{"base_weights":[2.4460657E-3,-9.378178E-2,1.0300128E-1,-3.4566052E-2,-2.548344E-1,4.506647E-2,2.2830142E-1,-6.874658E-2,1.5724976E-1,-2.9305834E-1,2.1441436E-1,1.019813E-2,2.4888101E-1,1.1637558E-1,3.2185754E-1,-5.6683708E-2,-4.607445E-1,1.405048E-1,6.570187E-1,-1.6105154E-1,-3.80558E-1,4.8685926E-1,-0E0,-1.9747468E-2,2.5247857E-1,2.9679638E-1,-1.3549536E-1,2.3183806E-1,4.0206436E-2,1.8941762E-1,4.167155E-1,-4.541345E-2,-2.8085588E-3,-3.260617E-2,6.986492E-4,8.659155E-3,-2.0497313E-2,4.7488645E-2,1.679779E-2,-6.320527E-3,-4.1524414E-2,-3.9382882E-2,-1.8007265E-2,3.3607844E-2,-0E0,1.3157054E-2,-1.5562265E-2,-1.5458716E-3,2.5539735E-2,1.6192809E-2,-1.8083319E-2,1.8335296E-2,-2.22354E-3,-2.6808018E-2,6.3892826E-3,1.388036E-2,-2.8279569E-2,-4.6185334E-3,8.181846E-3,2.5253754E-2,5.944839E-3,1.7650416E-2,3.351266E-2],"categories":[],"categories_nodes":[],"categories_segments":[],"categories_sizes":[],"default_left":[0,0,0,0,0,0,0,0,0,0,0,0,0,0,0,0,0,0,0,0,0,0,0,0,0,0,0,0,0,0,0,0,0,0,0,0,0,0,0,0,0,0,0,0,0,0,0,0,0,0,0,0,0,0,0,0,0,0,0,0,0,0,0],"id":22,"left_children":[1,3,5,7,9,11,13,15,17,19,21,23,25,27,29,31,33,35,37,39,41,43,45,47,49,51,53,55,57,59,61,-1,-1,-1,-1,-1,-1,-1,-1,-1,-1,-1,-1,-1,-1,-1,-1,-1,-1,-1,-1,-1,-1,-1,-1,-1,-1,-1,-1,-1,-1,-1,-1],"loss_changes":[1.2721434E2,6.3815376E1,4.6486725E1,3.2165253E1,3.2441635E1,3.1108969E1,2.0897049E1,1.9340683E1,5.521696E0,1.8807465E1,8.136988E0,2.7485397E1,1.1953655E1,7.9683323E0,1.3314461E1,1.3604329E1,8.879889E0,7.582509E0,5.7008934E-1,1.7092018E1,1.5055054E1,4.4692583E0,5.4507484E0,1.4579422E1,1.19918E1,8.733036E0,6.8047137E0,7.206341E0,8.0305195E0,9.798889E0,1.0743637E1,0E0,0E0,0E0,0E0,0E0,0E0,0E0,0E0,0E0,0E0,0E0,0E0,0E0,0E0,0E0,0E0,0E0,0E0,0E0,0E0,0E0,0E0,0E0,0E0,0E0,0E0,0E0,0E0,0E0,0E0,0E0,0E0],"parents":[2147483647,0,0,1,1,2,2,3,3,4,4,5,5,6,6,7,7,8,8,9,9,10,10,11,11,12,12,13,13,14,14,15,15,16,16,17,17,18,18,19,19,20,20,21,21,22,22,23,23,24,24,25,25,26,26,27,27,28,28,29,29,30,30],"right_children":[2,4,6,8,10,12,14,16,18,20,22,24,26,28,30,32,34,36,38,40,42,44,46,48,50,52,54,56,58,60,62,-1,-1,-1,-1,-1,-1,-1,-1,-1,-1,-1,-1,-1,-1,-1,-1,-1,-1,-1,-1,-1,-1,-1,-1,-1,-1,-1,-1,-1,-1,-1,-1],"split_conditions":[3.6858663E-2,2.9128116E-1,1.1288245E0,2.9003006E-1,1.8087986E0,4.2757532E-1,3.9913526E-1,1.2521293E0,1.6123172E0,-4.1219133E-1,2.4174473E-1,3.0394166E0,1.2858292E0,5.920929E-1,2.1149693E-1,-1.8345267E0,1.5779732E0,5.933224E-1,1.7993081E0,2.5454748E0,-6.9111854E-1,1.001781E0,-1.13731325E-1,1.9090194E0,9.858806E-1,1.9819264E0,1.5023029E0,1.2074741E0,-3.243216E-1,-6.621589E-2,1.2331345E0,-4.541345E-2,-2.8085588E-3,-3.260617E-2,6.986492E-4,8.659155E-3,-2.0497313E-2,4.7488645E-2,1.679779E-2,-6.320527E-3,-4.1524414E-2,-3.9382882E-2,-1.8007265E-2,3.3607844E-2,-0E0,1.3157054E-2,-1.5562265E-2,-1.5458716E-3,2.5539735E-2,1.6192809E-2,-1.8083319E-2,1.8335296E-2,-2.22354E-3,-2.6808018E-2,6.3892826E-3,1.388036E-2,-2.8279569E-2,-4.6185334E-3,8.181846E-3,2.5253754E-2,5.944839E-3,1.7650416E-2,3.351266E-2],"split_indices":[3,6,3,111,91,25,22,80,97,15,5,11,39,7,0,13,114,62,63,6,3,9,1,91,136,6,99,91,109,111,8,0,0,0,0,0,0,0,0,0,0,0,0,0,0,0,0,0,0,0,0,0,0,0,0,0,0,0,0,0,0,0,0],"split_type":[0,0,0,0,0,0,0,0,0,0,0,0,0,0,0,0,0,0,0,0,0,0,0,0,0,0,0,0,0,0,0,0,0,0,0,0,0,0,0,0,0,0,0,0,0,0,0,0,0,0,0,0,0,0,0,0,0,0,0,0,0,0,0],"sum_hessian":[1.3144171E4,6.713022E3,6.4311484E3,4.9125796E3,1.8004424E3,4.402714E3,2.0284346E3,4.1733594E3,7.3922015E2,1.66663E3,1.338123E2,3.7635461E3,6.391679E2,9.2818225E2,1.1002523E3,4.051796E3,1.2156351E2,7.1804596E2,2.1174164E1,6.688902E2,9.9773987E2,5.9365913E1,7.444639E1,3.3478538E3,4.1569232E2,5.7020337E2,6.896454E1,3.6428372E2,5.6389856E2,4.6372836E2,6.36524E2,2.0808752E1,4.030987E3,9.393477E1,2.7628733E1,6.930247E2,2.5021276E1,1.0474469E1,1.0699695E1,6.2671173E2,4.2178417E1,1.1135821E2,8.8638165E2,4.706461E1,1.2301305E1,3.9459312E1,3.4987076E1,3.290563E3,5.729072E1,3.8567484E2,3.0017483E1,5.0638525E2,6.3818142E1,2.9123323E1,3.9841213E1,3.537551E2,1.0528629E1,2.622725E2,3.0162607E2,9.873826E1,3.6499008E2,4.496584E2,1.868656E2],"tree_param":{"num_deleted":"0","num_feature":"162","num_nodes":"63","size_leaf_vector":"1"}},{"base_weights":[-3.7691165E-3,-6.385204E-2,1.8392998E-1,-8.846904E-2,2.1156202E-1,3.1373775E-1,9.448348E-2,-8.756505E-3,-1.5918997E-1,3.8107687E-1,1.2469287E-1,2.1544191E-1,4.4465566E-1,-1.8775372E-1,1.5228967E-1,-3.0686641E-2,2.4084726E-1,-3.5161865E-1,-5.8781274E-2,1.7769158E-1,6.3486063E-1,9.499738E-2,6.722689E-1,2.5050256E-1,-6.319684E-2,4.7804895E-1,-1.0856106E-1,-2.905963E-1,4.657639E-1,2.6987174E-1,2.6741926E-2,-2.4581638E-3,1.3189639E-2,-5.2970937E-3,1.5852159E-2,-2.4437016E-2,-1.3289151E-2,-3.8546495E-2,-2.2552619E-3,1.3244745E-2,-2.0237833E-2,4.080565E-2,1.0156708E-2,-1.8881053E-2,6.979709E-3,1.6859185E-2,4.9511984E-2,1.9308507E-2,7.463077E-3,-2.0067045E-2,1.004192E-2,2.7394854E-2,-0E0,-3.1370003E-2,1.7994886E-2,-1.9391818E-2,8.986061E-3,4.6809763E-2,1.4079171E-2,1.2203865E-2,3.2411188E-2,-1.122886E-3,1.3529688E-2],"categories":[],"categories_nodes":[],"categories_segments":[],"categories_sizes":[],"default_left":[0,0,0,0,0,0,0,0,0,0,0,0,0,0,0,0,0,0,0,0,0,0,0,0,0,0,0,0,0,0,0,0,0,0,0,0,0,0,0,0,0,0,0,0,0,0,0,0,0,0,0,0,0,0,0,0,0,0,0,0,0,0,0],"id":23,"left_children":[1,3,5,7,9,11,13,15,17,19,21,23,25,27,29,31,33,35,37,39,41,43,45,47,49,51,53,55,57,59,61,-1,-1,-1,-1,-1,-1,-1,-1,-1,-1,-1,-1,-1,-1,-1,-1,-1,-1,-1,-1,-1,-1,-1,-1,-1,-1,-1,-1,-1,-1,-1,-1],"loss_changes":[1.4856892E2,6.765106E1,3.675329E1,5.1582718E1,1.1622623E1,1.6136932E1,3.0932707E1,2.3492874E1,9.349261E1,1.3416E1,8.241154E0,7.451992E0,1.0536697E1,2.1579046E1,2.3045506E1,1.6313988E1,6.494177E0,1.7211853E1,3.4847343E1,5.894708E0,5.7640457E0,7.9419622E0,1.1606827E0,7.661373E0,6.571217E0,7.7765045E0,6.9553156E0,9.115408E0,2.4888659E0,1.08553505E1,8.371626E0,0E0,0E0,0E0,0E0,0E0,0E0,0E0,0E0,0E0,0E0,0E0,0E0,0E0,0E0,0E0,0E0,0E0,0E0,0E0,0E0,0E0,0E0,0E0,0E0,0E0,0E0,0E0,0E0,0E0,0E0,0E0,0E0],"parents":[2147483647,0,0,1,1,2,2,3,3,4,4,5,5,6,6,7,7,8,8,9,9,10,10,11,11,12,12,13,13,14,14,15,15,16,16,17,17,18,18,19,19,20,20,21,21,22,22,23,23,24,24,25,25,26,26,27,27,28,28,29,29,30,30],"right_children":[2,4,6,8,10,12,14,16,18,20,22,24,26,28,30,32,34,36,38,40,42,44,46,48,50,52,54,56,58,60,62,-1,-1,-1,-1,-1,-1,-1,-1,-1,-1,-1,-1,-1,-1,-1,-1,-1,-1,-1,-1,-1,-1,-1,-1,-1,-1,-1,-1,-1,-1,-1,-1],"split_conditions":[7.471312E-1,1.492813E0,5.730554E-1,-5.5404145E-1,5.920929E-1,-4.5279484E-2,-3.2712993E-1,6.858589E-1,3.6858663E-2,2.4567893E-1,1.5706196E0,1.1677006E0,1.8370087E0,1.7814037E0,3.7553337E-1,-1.782715E-1,-7.8349847E-1,1.3019606E-1,-7.9520667E-1,1.5691873E0,-2.3605126E-1,-2.8218788E-1,-1.94881E-1,6.223251E-1,4.0084726E-1,6.9619787E-1,1.9810015E0,2.0313954E0,2.6320853E0,1.492813E0,1.492813E0,-2.4581638E-3,1.3189639E-2,-5.2970937E-3,1.5852159E-2,-2.4437016E-2,-1.3289151E-2,-3.8546495E-2,-2.2552619E-3,1.3244745E-2,-2.0237833E-2,4.080565E-2,1.0156708E-2,-1.8881053E-2,6.979709E-3,1.6859185E-2,4.9511984E-2,1.9308507E-2,7.463077E-3,-2.0067045E-2,1.004192E-2,2.7394854E-2,-0E0,-3.1370003E-2,1.7994886E-2,-1.9391818E-2,8.986061E-3,4.6809763E-2,1.4079171E-2,1.2203865E-2,3.2411188E-2,-1.122886E-3,1.3529688E-2],"split_indices":[2,3,6,6,7,16,3,111,3,107,25,62,0,93,127,2,112,2,2,4,125,4,0,142,3,128,2,138,35,3,3,0,0,0,0,0,0,0,0,0,0,0,0,0,0,0,0,0,0,0,0,0,0,0,0,0,0,0,0,0,0,0,0],"split_type":[0,0,0,0,0,0,0,0,0,0,0,0,0,0,0,0,0,0,0,0,0,0,0,0,0,0,0,0,0,0,0,0,0,0,0,0,0,0,0,0,0,0,0,0,0,0,0,0,0,0,0,0,0,0,0,0,0,0,0,0,0,0,0],"sum_hessian":[1.3179188E4,9.986907E3,3.192281E3,9.170587E3,8.1632074E2,1.2978984E3,1.8943824E3,4.3165684E3,4.8540186E3,2.725015E2,5.438193E2,7.461397E2,5.517587E2,3.1950546E2,1.574877E3,3.97149E3,3.450783E2,1.660944E3,3.1930745E3,1.5390488E2,1.1859663E2,5.183461E2,2.5473125E1,6.651241E2,8.101563E1,5.2171155E2,3.004719E1,2.7755112E2,4.195435E1,8.096275E2,7.6524945E2,3.769956E3,2.0153375E2,4.5289413E1,2.9978888E2,8.330904E2,8.278536E2,7.7573845E1,3.1155005E3,1.3867438E2,1.5230497E1,9.098469E1,2.7611933E1,3.5228756E1,4.8311737E2,1.263778E1,1.2835345E1,3.3315106E2,3.3197302E2,3.7193512E1,4.382212E1,4.896696E2,3.204198E1,1.5112174E1,1.4935017E1,2.4235713E2,3.519397E1,1.1654719E1,3.029963E1,7.204716E2,8.9155876E1,6.296991E2,1.3555034E2],"tree_param":{"num_deleted":"0","num_feature":"162","num_nodes":"63","size_leaf_vector":"1"}},{"base_weights":[-1.9009348E-3,-7.495569E-2,1.2956461E-1,-3.4378156E-2,-1.8724017E-1,-7.622181E-2,1.8125463E-1,-6.0124647E-2,2.0124413E-1,-3.6458355E-1,-6.60064E-2,-1.6282365E-1,1.5451664E-1,2.88242E-1,8.052193E-2,-2.2022447E-2,-2.0858157E-1,6.270346E-2,3.5743454E-1,-5.858222E-1,-2.7030015E-1,-2.9138693E-1,2.8203899E-2,3.3264704E-2,-2.6299945E-1,3.0093044E-1,-1.5693426E-1,2.1571252E-1,3.9598024E-1,