{"learner":{"attributes":{"scikit_learn":"{\"_estimator_type\": \"classifier\"}"},"feature_names":[],"feature_types":[],"gradient_booster":{"model":{"cats":{"enc":[],"feature_segments":[],"sorted_idx":[]},"gbtree_model_param":{"num_parallel_tree":"1","num_trees":"300"},"iteration_indptr":[0,1,2,3,4,5,6,7,8,9,10,11,12,13,14,15,16,17,18,19,20,21,22,23,24,25,26,27,28,29,30,31,32,33,34,35,36,37,38,39,40,41,42,43,44,45,46,47,48,49,50,51,52,53,54,55,56,57,58,59,60,61,62,63,64,65,66,67,68,69,70,71,72,73,74,75,76,77,78,79,80,81,82,83,84,85,86,87,88,89,90,91,92,93,94,95,96,97,98,99,100,101,102,103,104,105,106,107,108,109,110,111,112,113,114,115,116,117,118,119,120,121,122,123,124,125,126,127,128,129,130,131,132,133,134,135,136,137,138,139,140,141,142,143,144,145,146,147,148,149,150,151,152,153,154,155,156,157,158,159,160,161,162,163,164,165,166,167,168,169,170,171,172,173,174,175,176,177,178,179,180,181,182,183,184,185,186,187,188,189,190,191,192,193,194,195,196,197,198,199,200,201,202,203,204,205,206,207,208,209,210,211,212,213,214,215,216,217,218,219,220,221,222,223,224,225,226,227,228,229,230,231,232,233,234,235,236,237,238,239,240,241,242,243,244,245,246,247,248,249,250,251,252,253,254,255,256,257,258,259,260,261,262,263,264,265,266,267,268,269,270,271,272,273,274,275,276,277,278,279,280,281,282,283,284,285,286,287,288,289,290,291,292,293,294,295,296,297,298,299,300],"tree_info":[0,0,0,0,0,0,0,0,0,0,0,0,0,0,0,0,0,0,0,0,0,0,0,0,0,0,0,0,0,0,0,0,0,0,0,0,0,0,0,0,0,0,0,0,0,0,0,0,0,0,0,0,0,0,0,0,0,0,0,0,0,0,0,0,0,0,0,0,0,0,0,0,0,0,0,0,0,0,0,0,0,0,0,0,0,0,0,0,0,0,0,0,0,0,0,0,0,0,0,0,0,0,0,0,0,0,0,0,0,0,0,0,0,0,0,0,0,0,0,0,0,0,0,0,0,0,0,0,0,0,0,0,0,0,0,0,0,0,0,0,0,0,0,0,0,0,0,0,0,0,0,0,0,0,0,0,0,0,0,0,0,0,0,0,0,0,0,0,0,0,0,0,0,0,0,0,0,0,0,0,0,0,0,0,0,0,0,0,0,0,0,0,0,0,0,0,0,0,0,0,0,0,0,0,0,0,0,0,0,0,0,0,0,0,0,0,0,0,0,0,0,0,0,0,0,0,0,0,0,0,0,0,0,0,0,0,0,0,0,0,0,0,0,0,0,0,0,0,0,0,0,0,0,0,0,0,0,0,0,0,0,0,0,0,0,0,0,0,0,0,0,0,0,0,0,0,0,0,0,0,0,0,0,0,0,0,0,0,0,0,0,0,0,0,0,0,0,0,0,0],"trees":[{"base_weights":[3.3423672E-7,-1.0709747E-1,3.8863462E-1,-1.8690978E-1,1.5156457E-1,2.6785713E-1,6.841804E-1,-2.2767384E-1,2.7526462E-1,3.3834815E-1,2.3777797E-3,1.6951464E-1,5.503991E-1,7.7262574E-1,3.770347E-1,-1.280453E-1,-3.17781E-1,5.8500326E-1,1.6712192E-1,5.566159E-1,1.9141653E-1,2.5438461E-2,-6.122371E-1,2.3654245E-1,-4.1915017E-1,6.6862535E-1,7.789171E-2,6.472943E-1,1.0443771E0,6.1763577E-2,8.5220444E-1,-3.244274E-1,-3.3888094E-2,-4.6681964E-1,-1.5226501E-1,6.1424977E-1,-8.518939E-1,2.5367934E-1,-1.919108E-2,8.320988E-1,4.6308056E-1,8.23146E-3,3.07248E-1,-8.611145E-2,1.6748865E-1,-7.3191E-1,1.5769708E-1,1.5527816E-1,3.737203E-1,-5.232932E-1,5.097703E-1,9.401814E-1,5.2721226E-1,1.8494421E-1,-8.745604E-1,6.677036E-1,-2.8398764E-1,1.1862272E0,9.21644E-1,2.182507E-1,-6.894367E-1,6.17098E-1,9.908296E-1,-5.279842E-1,-9.453851E-2,-3.212788E-2,3.0809728E-2,-2.1867923E-1,-5.5135995E-2,8.184641E-3,-6.8683036E-2,2.524218E-1,1.4421627E-1,-5.207386E-1,-1.9442378E-2,9.238979E-2,-8.750687E-2,1.2002902E-1,-4.443571E-2,2.76766E-1,6.2388018E-2,1.2517306E-1,2.627909E-1,-1.0936653E-1,3.410573E-2,3.793586E-2,1.4135763E-1,-4.817612E-4,-9.01341E-2,1.2559058E-1,2.021848E-2,-1.2593144E-1,-3.2511476E-1,1.7330599E-1,-2.8939095E-1,4.165612E-2,2.27481E-1,1.3243343E-1,3.8025744E-2,-5.8939327E-2,-2.1139155E-1,2.1542405E-1,-1.4354381E-1,2.942205E-1,3.9327182E-2,1.87855E-1,4.3243814E-2,1.2475338E-2,1.8481775E-1,-6.596465E-1,-1.23171315E-1,1.6459122E-1,2.4413884E-1,7.907556E-2,-5.303674E-1,2.1974961E-1,3.6239424E-1,2.9850492E-1,5.5224586E-2,-6.2325023E-2,1.1004146E-1,-4.1292506E-1,-5.253351E-2,2.9934224E-1,-4.5064256E-2,3.2650882E-1,1.1721324E-1],"categories":[],"categories_nodes":[],"categories_segments":[],"categories_sizes":[],"default_left":[0,0,0,0,0,0,0,0,0,0,0,0,0,0,0,0,0,0,0,0,0,0,0,0,0,0,0,0,0,0,0,0,0,0,0,0,0,0,0,0,0,0,0,0,0,0,0,0,0,0,0,0,0,0,0,0,0,0,0,0,0,0,0,0,0,0,0,0,0,0,0,0,0,0,0,0,0,0,0,0,0,0,0,0,0,0,0,0,0,0,0,0,0,0,0,0,0,0,0,0,0,0,0,0,0,0,0,0,0,0,0,0,0,0,0,0,0,0,0,0,0,0,0,0,0,0,0],"id":0,"left_children":[1,3,5,7,9,11,13,15,17,19,21,23,25,27,29,31,33,35,37,39,41,43,45,47,49,51,53,55,57,59,61,63,65,67,69,71,73,75,77,79,81,83,85,87,89,91,93,95,97,99,101,103,105,107,109,111,113,115,117,119,121,123,125,-1,-1,-1,-1,-1,-1,-1,-1,-1,-1,-1,-1,-1,-1,-1,-1,-1,-1,-1,-1,-1,-1,-1,-1,-1,-1,-1,-1,-1,-1,-1,-1,-1,-1,-1,-1,-1,-1,-1,-1,-1,-1,-1,-1,-1,-1,-1,-1,-1,-1,-1,-1,-1,-1,-1,-1,-1,-1,-1,-1,-1,-1,-1,-1],"loss_changes":[7.820048E2,3.0410596E2,1.4470453E2,2.1213754E2,9.6796684E1,8.001677E1,3.1679932E1,9.282666E1,3.0477959E1,4.93618E1,2.7401937E1,8.454321E1,4.150769E1,3.0413574E1,3.9658524E1,9.086176E1,1.3390887E2,1.0433708E1,1.0938679E1,1.5592255E1,1.9591148E1,2.9539928E1,6.557539E0,2.1368011E1,2.1466225E1,2.2350922E1,1.5458596E1,1.2113251E1,3.8943176E0,1.9009604E1,2.831894E0,2.0704346E1,3.323645E1,2.118454E2,3.5455395E1,6.62352E0,3.4517539E0,1.3797384E1,1.1735543E1,8.6104965E0,8.437851E0,1.4144103E1,1.6707428E1,1.8915674E1,2.058378E1,6.209404E0,5.3784738E0,1.1865496E1,1.1891495E1,1.15695E1,4.9956055E0,6.5140686E0,1.4827911E1,8.360724E0,8.518516E0,1.02369995E1,1.1967562E1,3.9242554E-1,8.371323E0,8.526644E0,9.616561E0,1.2372129E1,3.3682785E0,0E0,0E0,0E0,0E0,0E0,0E0,0E0,0E0,0E0,0E0,0E0,0E0,0E0,0E0,0E0,0E0,0E0,0E0,0E0,0E0,0E0,0E0,0E0,0E0,0E0,0E0,0E0,0E0,0E0,0E0,0E0,0E0,0E0,0E0,0E0,0E0,0E0,0E0,0E0,0E0,0E0,0E0,0E0,0E0,0E0,0E0,0E0,0E0,0E0,0E0,0E0,0E0,0E0,0E0,0E0,0E0,0E0,0E0,0E0,0E0,0E0,0E0,0E0,0E0],"parents":[2147483647,0,0,1,1,2,2,3,3,4,4,5,5,6,6,7,7,8,8,9,9,10,10,11,11,12,12,13,13,14,14,15,15,16,16,17,17,18,18,19,19,20,20,21,21,22,22,23,23,24,24,25,25,26,26,27,27,28,28,29,29,30,30,31,31,32,32,33,33,34,34,35,35,36,36,37,37,38,38,39,39,40,40,41,41,42,42,43,43,44,44,45,45,46,46,47,47,48,48,49,49,50,50,51,51,52,52,53,53,54,54,55,55,56,56,57,57,58,58,59,59,60,60,61,61,62,62],"right_children":[2,4,6,8,10,12,14,16,18,20,22,24,26,28,30,32,34,36,38,40,42,44,46,48,50,52,54,56,58,60,62,64,66,68,70,72,74,76,78,80,82,84,86,88,90,92,94,96,98,100,102,104,106,108,110,112,114,116,118,120,122,124,126,-1,-1,-1,-1,-1,-1,-1,-1,-1,-1,-1,-1,-1,-1,-1,-1,-1,-1,-1,-1,-1,-1,-1,-1,-1,-1,-1,-1,-1,-1,-1,-1,-1,-1,-1,-1,-1,-1,-1,-1,-1,-1,-1,-1,-1,-1,-1,-1,-1,-1,-1,-1,-1,-1,-1,-1,-1,-1,-1,-1,-1,-1,-1,-1],"split_conditions":[1.7204814E-1,7.471221E-1,1.4665914E0,1.4928044E0,5.730461E-1,1.05559E0,1.4183697E0,-4.2461392E-1,-5.8023727E-1,4.0083808E-1,2.2433817E0,1.4183697E0,1.7001442E0,1.05559E0,3.2864962E0,-5.0652504E-1,4.0083808E-1,3.580326E0,1.001772E0,-3.2713947E-1,1.05559E0,1.3640579E0,2.5010768E-1,7.401565E-1,-4.0677106E-1,3.684931E-2,3.1090167E0,1.7015429E0,3.684931E-2,1.6632406E0,1.3640579E0,-1.7673926E0,-2.6507556E-1,1.301864E-1,-5.4912955E-1,-1.7828149E-1,1.8567932E0,1.7100414E-2,8.505944E-1,2.297837E-1,3.2865384E-1,-1.1778271E0,-3.3798435E-1,1.1597041E0,-4.2095786E-1,1.001772E0,1.7611347E-1,2.5847707E0,1.001772E0,7.53325E-1,1.5881646E0,2.324709E0,1.2331256E0,2.2894616E0,-1.3357462E0,2.146513E0,1.6632406E0,-1.3737191E0,1.3514583E0,7.471221E-1,-2.9984158E-1,1.5660832E0,7.648269E-1,-5.279842E-1,-9.453851E-2,-3.212788E-2,3.0809728E-2,-2.1867923E-1,-5.5135995E-2,8.184641E-3,-6.8683036E-2,2.524218E-1,1.4421627E-1,-5.207386E-1,-1.9442378E-2,9.238979E-2,-8.750687E-2,1.2002902E-1,-4.443571E-2,2.76766E-1,6.2388018E-2,1.2517306E-1,2.627909E-1,-1.0936653E-1,3.410573E-2,3.793586E-2,1.4135763E-1,-4.817612E-4,-9.01341E-2,1.2559058E-1,2.021848E-2,-1.2593144E-1,-3.2511476E-1,1.7330599E-1,-2.8939095E-1,4.165612E-2,2.27481E-1,1.3243343E-1,3.8025744E-2,-5.8939327E-2,-2.1139155E-1,2.1542405E-1,-1.4354381E-1,2.942205E-1,3.9327182E-2,1.87855E-1,4.3243814E-2,1.2475338E-2,1.8481775E-1,-6.596465E-1,-1.23171315E-1,1.6459122E-1,2.4413884E-1,7.907556E-2,-5.303674E-1,2.1974961E-1,3.6239424E-1,2.9850492E-1,5.5224586E-2,-6.2325023E-2,1.1004146E-1,-4.1292506E-1,-5.253351E-2,2.9934224E-1,-4.5064256E-2,3.2650882E-1,1.1721324E-1],"split_indices":[4,17,7,18,21,17,21,19,11,18,15,21,21,17,7,13,18,22,24,18,17,17,11,4,3,18,21,15,18,24,17,13,7,17,8,17,18,14,16,6,11,0,5,15,3,24,7,18,24,15,22,24,23,17,0,14,24,1,20,17,1,15,18,0,0,0,0,0,0,0,0,0,0,0,0,0,0,0,0,0,0,0,0,0,0,0,0,0,0,0,0,0,0,0,0,0,0,0,0,0,0,0,0,0,0,0,0,0,0,0,0,0,0,0,0,0,0,0,0,0,0,0,0,0,0,0,0],"split_type":[0,0,0,0,0,0,0,0,0,0,0,0,0,0,0,0,0,0,0,0,0,0,0,0,0,0,0,0,0,0,0,0,0,0,0,0,0,0,0,0,0,0,0,0,0,0,0,0,0,0,0,0,0,0,0,0,0,0,0,0,0,0,0,0,0,0,0,0,0,0,0,0,0,0,0,0,0,0,0,0,0,0,0,0,0,0,0,0,0,0,0,0,0,0,0,0,0,0,0,0,0,0,0,0,0,0,0,0,0,0,0,0,0,0,0,0,0,0,0,0,0,0,0,0,0,0,0],"sum_hessian":[1.878631E4,1.472829E4,4.0580205E3,1.1255568E4,3.4727217E3,2.8821213E3,1.1758993E3,1.0343751E4,9.118177E2,1.5414902E3,1.9312314E3,2.139159E3,7.429625E2,9.118177E2,2.6408157E2,4.913488E3,5.430263E3,2.3482643E2,6.769913E2,6.1907E2,9.224202E2,1.862315E3,6.891645E1,1.9210216E3,2.1813725E2,5.939381E2,1.4902446E2,6.263347E2,2.8548297E2,1.5943065E2,1.0465091E2,1.5915577E3,3.3219302E3,2.8564004E3,2.5738625E3,2.3070322E2,4.1232066E0,4.6199548E2,2.1499577E2,1.5491476E2,4.6415524E2,3.5773724E2,5.64683E2,1.0433676E3,8.189473E2,5.9688324E1,9.228129E0,1.2077068E3,7.1331476E2,1.965395E2,2.1597748E1,2.0144809E2,3.9249E2,1.346914E2,1.4333052E1,6.131797E2,1.3154992E1,1.2840843E2,1.5707454E2,1.3253163E2,2.6899014E1,4.083938E1,6.381153E1,9.031786E0,1.5825259E3,2.1629163E3,1.1590137E3,1.4821946E3,1.3742058E3,7.704506E2,1.803412E3,8.344585E1,1.4725737E2,1.3744022E0,2.7488043E0,4.2056708E2,4.142841E1,5.006751E1,1.6492827E2,1.3488776E2,2.0027002E1,4.1958536E2,4.45699E1,7.834093E1,2.7939633E2,2.693828E2,2.9530014E2,7.490492E2,2.9431842E2,2.324703E2,5.8647705E2,3.278931E1,2.6899014E1,7.068354E0,2.1597748E0,1.176881E3,3.0825878E1,5.5918536E2,1.541294E2,7.087988E1,1.2565963E2,1.8063572E1,3.534177E0,1.9163094E2,9.817159E0,3.1140027E2,8.108973E1,1.0190211E2,3.278931E1,2.7488043E0,1.1584247E1,3.4045905E2,2.7272067E2,1.0209845E1,2.9451475E0,7.4610405E0,1.20947395E2,1.4254514E2,1.4529394E1,3.416371E1,9.836793E1,1.0798874E1,1.610014E1,2.7095358E1,1.3744021E1,5.4190716E1,9.620815E0],"tree_param":{"num_deleted":"0","num_feature":"25","num_nodes":"127","size_leaf_vector":"1"}},{"base_weights":[3.3989423E-3,-5.568853E-2,3.8904783E-1,-1.1386778E-1,1.32327E-1,3.0141398E-1,6.7451113E-1,-1.6788107E-1,7.86417E-2,2.5039765E-1,-2.0128768E-2,3.7006748E-1,-7.676868E-2,8.32905E-1,4.1606003E-1,-9.529085E-2,-3.058123E-1,2.267643E-1,-4.2597402E-2,4.1890216E-1,1.3619454E-1,1.3306436E-2,-4.3946594E-1,2.6118362E-1,5.57603E-1,-3.4089363E-1,1.04541466E-1,9.6588665E-1,6.202259E-1,6.1084145E-1,4.6807174E-2,-1.9308148E-1,2.1258412E-2,-5.50166E-1,-2.1927252E-1,3.0068117E-1,-2.8204718E-3,2.0306021E-2,-2.212941E-1,5.376454E-1,1.515933E-1,7.105628E-2,3.8824964E-1,-7.040171E-2,1.6972098E-1,-7.6126695E-1,-1.2564027E-1,2.0229994E-1,5.4270697E-1,6.1890864E-1,2.5397187E-1,8.142521E-1,-4.0378103E-1,3.2687175E-1,-2.6618376E-1,8.9110875E-1,3.5491183E-1,7.101498E-1,-4.634182E-2,3.448544E-1,8.194346E-1,7.638604E-1,-1.357857E-1,-6.572015E-1,-5.7043497E-2,5.5279132E-2,-7.0318324E-3,-2.3675026E-1,-1.03005074E-1,-4.1398868E-2,-1.2114482E-1,1.3675358E-2,1.1351054E-1,2.2931209E-2,-7.581628E-2,-6.323693E-3,7.819404E-2,-8.651687E-2,2.8091589E-2,2.323749E-1,1.3588749E-1,2.227792E-2,2.000495E-1,-1.8906814E-1,2.555172E-2,1.2275958E-1,-3.7028283E-1,-1.3335869E-1,-7.441989E-3,8.07183E-2,-2.1128329E-2,5.200237E-2,-2.6422727E-1,4.572929E-2,-1.34411E-1,4.6728965E-2,2.0476335E-1,2.0059584E-1,2.5638176E-2,1.8858053E-1,-1.9193976E-1,1.071923E-1,-1.4295591E-1,3.2384893E-1,-7.64759E-2,1.3001184E-1,-1.4738493E-1,1.1682344E-1,-3.176718E-1,1.07180655E-1,-1.2647647E-1,2.9100874E-1,1.5973733E-1,2.343913E-1,-9.448462E-2,9.5731765E-2,-1.789892E-1,1.227768E-1,-2.3745812E-1,3.055492E-1,1.9066386E-1,2.88079E-1,-4.7071107E-2,-2.0366109E-3,-3.0705962E-1],"categories":[],"categories_nodes":[],"categories_segments":[],"categories_sizes":[],"default_left":[0,0,0,0,0,0,0,0,0,0,0,0,0,0,0,0,0,0,0,0,0,0,0,0,0,0,0,0,0,0,0,0,0,0,0,0,0,0,0,0,0,0,0,0,0,0,0,0,0,0,0,0,0,0,0,0,0,0,0,0,0,0,0,0,0,0,0,0,0,0,0,0,0,0,0,0,0,0,0,0,0,0,0,0,0,0,0,0,0,0,0,0,0,0,0,0,0,0,0,0,0,0,0,0,0,0,0,0,0,0,0,0,0,0,0,0,0,0,0,0,0,0,0,0,0],"id":1,"left_children":[1,3,5,7,9,11,13,15,17,19,21,23,25,27,29,31,33,35,37,39,41,43,45,47,49,51,53,55,57,59,61,63,65,67,69,71,73,75,77,79,81,83,85,87,89,91,93,95,97,99,101,103,105,107,109,111,-1,113,115,117,119,121,123,-1,-1,-1,-1,-1,-1,-1,-1,-1,-1,-1,-1,-1,-1,-1,-1,-1,-1,-1,-1,-1,-1,-1,-1,-1,-1,-1,-1,-1,-1,-1,-1,-1,-1,-1,-1,-1,-1,-1,-1,-1,-1,-1,-1,-1,-1,-1,-1,-1,-1,-1,-1,-1,-1,-1,-1,-1,-1,-1,-1,-1,-1],"loss_changes":[4.2760553E2,1.7801031E2,6.2165894E1,1.2923413E2,6.923178E1,4.9602234E1,2.3592957E1,9.714044E1,4.8919525E1,4.165164E1,2.355239E1,3.285594E1,1.4123929E1,9.627319E0,1.6097221E1,7.2491394E1,7.063278E1,2.0806522E1,1.6848787E1,2.7693924E1,2.1206846E1,2.0389828E1,1.2431799E1,1.6871567E1,1.08771515E1,9.04474E0,1.4528223E1,2.529251E0,8.53849E0,7.8566475E0,1.0382936E1,1.9870163E1,2.1152481E1,4.2950104E1,3.702928E1,1.836235E1,5.953017E0,1.1038922E1,8.273006E0,1.1799133E1,1.0730488E1,1.0239731E1,9.525101E0,1.7295027E1,1.2969488E1,6.970291E0,5.8057923E0,1.886308E1,1.0113174E1,6.4111633E0,7.8153434E0,2.1259584E0,8.597076E0,9.943276E0,6.5679173E0,4.244522E0,0E0,9.370495E0,3.7712927E0,5.1691246E0,2.335762E0,3.0595598E0,7.25622E0,0E0,0E0,0E0,0E0,0E0,0E0,0E0,0E0,0E0,0E0,0E0,0E0,0E0,0E0,0E0,0E0,0E0,0E0,0E0,0E0,0E0,0E0,0E0,0E0,0E0,0E0,0E0,0E0,0E0,0E0,0E0,0E0,0E0,0E0,0E0,0E0,0E0,0E0,0E0,0E0,0E0,0E0,0E0,0E0,0E0,0E0,0E0,0E0,0E0,0E0,0E0,0E0,0E0,0E0,0E0,0E0,0E0,0E0,0E0,0E0,0E0,0E0],"parents":[2147483647,0,0,1,1,2,2,3,3,4,4,5,5,6,6,7,7,8,8,9,9,10,10,11,11,12,12,13,13,14,14,15,15,16,16,17,17,18,18,19,19,20,20,21,21,22,22,23,23,24,24,25,25,26,26,27,27,28,28,29,29,30,30,31,31,32,32,33,33,34,34,35,35,36,36,37,37,38,38,39,39,40,40,41,41,42,42,43,43,44,44,45,45,46,46,47,47,48,48,49,49,50,50,51,51,52,52,53,53,54,54,55,55,57,57,58,58,59,59,60,60,61,61,62,62],"right_children":[2,4,6,8,10,12,14,16,18,20,22,24,26,28,30,32,34,36,38,40,42,44,46,48,50,52,54,56,58,60,62,64,66,68,70,72,74,76,78,80,82,84,86,88,90,92,94,96,98,100,102,104,106,108,110,112,-1,114,116,118,120,122,124,-1,-1,-1,-1,-1,-1,-1,-1,-1,-1,-1,-1,-1,-1,-1,-1,-1,-1,-1,-1,-1,-1,-1,-1,-1,-1,-1,-1,-1,-1,-1,-1,-1,-1,-1,-1,-1,-1,-1,-1,-1,-1,-1,-1,-1,-1,-1,-1,-1,-1,-1,-1,-1,-1,-1,-1,-1,-1,-1,-1,-1,-1],"split_conditions":[4.936189E-1,7.471221E-1,1.3640579E0,7.648269E-1,8.548206E-1,1.1597041E0,1.4183697E0,9.497033E-3,-4.9663585E-1,4.0083808E-1,2.5454676E0,1.5348796E0,7.471221E-1,4.0083808E-1,5.1613563E-1,-3.6390314E-1,-1.7828149E-1,1.5881646E0,1.2561376E0,-1.01755135E-1,1.6725258E0,-1.3271886E-1,4.0083808E-1,7.471221E-1,1.2331256E0,9.497033E-3,1.001772E0,3.2201662E0,1.2127428E0,1.3684552E0,-9.3674177E-1,-2.1218233E0,-5.754952E-1,3.684931E-2,7.53325E-1,-4.8250854E-1,2.5842454E0,1.8567932E0,1.8149314E0,-3.2713947E-1,1.6725258E0,-7.3602396E-1,4.0407257E0,-1.3358176E0,1.7001442E0,-6.38851E-1,1.6725258E0,1.8567932E0,1.2331256E0,3.580326E0,8.8878465E-1,1.5660832E0,-9.95173E-1,3.1090167E0,5.730461E-1,1.1365951E0,3.5491183E-1,9.532262E-1,1.4306234E0,1.1277924E0,1.8370025E0,7.178763E0,2.6497607E0,-6.572015E-1,-5.7043497E-2,5.5279132E-2,-7.0318324E-3,-2.3675026E-1,-1.03005074E-1,-4.1398868E-2,-1.2114482E-1,1.3675358E-2,1.1351054E-1,2.2931209E-2,-7.581628E-2,-6.323693E-3,7.819404E-2,-8.651687E-2,2.8091589E-2,2.323749E-1,1.3588749E-1,2.227792E-2,2.000495E-1,-1.8906814E-1,2.555172E-2,1.2275958E-1,-3.7028283E-1,-1.3335869E-1,-7.441989E-3,8.07183E-2,-2.1128329E-2,5.200237E-2,-2.6422727E-1,4.572929E-2,-1.34411E-1,4.6728965E-2,2.0476335E-1,2.0059584E-1,2.5638176E-2,1.8858053E-1,-1.9193976E-1,1.071923E-1,-1.4295591E-1,3.2384893E-1,-7.64759E-2,1.3001184E-1,-1.4738493E-1,1.1682344E-1,-3.176718E-1,1.07180655E-1,-1.2647647E-1,2.9100874E-1,1.5973733E-1,2.343913E-1,-9.448462E-2,9.5731765E-2,-1.789892E-1,1.227768E-1,-2.3745812E-1,3.055492E-1,1.9066386E-1,2.88079E-1,-4.7071107E-2,-2.0366109E-3,-3.0705962E-1],"split_indices":[4,17,17,18,21,15,21,21,5,18,21,13,17,18,23,4,17,22,22,3,17,7,18,17,23,21,24,14,20,11,6,4,6,18,15,13,22,18,16,18,17,22,18,1,21,9,17,18,23,22,15,15,9,21,21,21,0,9,15,0,15,13,15,0,0,0,0,0,0,0,0,0,0,0,0,0,0,0,0,0,0,0,0,0,0,0,0,0,0,0,0,0,0,0,0,0,0,0,0,0,0,0,0,0,0,0,0,0,0,0,0,0,0,0,0,0,0,0,0,0,0,0,0,0,0],"split_type":[0,0,0,0,0,0,0,0,0,0,0,0,0,0,0,0,0,0,0,0,0,0,0,0,0,0,0,0,0,0,0,0,0,0,0,0,0,0,0,0,0,0,0,0,0,0,0,0,0,0,0,0,0,0,0,0,0,0,0,0,0,0,0,0,0,0,0,0,0,0,0,0,0,0,0,0,0,0,0,0,0,0,0,0,0,0,0,0,0,0,0,0,0,0,0,0,0,0,0,0,0,0,0,0,0,0,0,0,0,0,0,0,0,0,0,0,0,0,0,0,0,0,0,0,0],"sum_hessian":[1.876336E4,1.627121E4,2.4921497E3,1.2426398E4,3.844812E3,1.9083615E3,5.837883E2,9.703867E3,2.7225315E3,2.1663904E3,1.6784218E3,1.6151722E3,2.9318924E2,3.605808E2,2.2320752E2,6.358969E3,3.3448975E3,1.2250135E3,1.497518E3,8.740614E2,1.292329E3,1.5553745E3,1.23047134E2,1.0233842E3,5.91788E2,1.1898165E2,1.742076E2,2.1968005E2,1.4090074E2,1.4569756E2,7.750995E1,3.4573901E3,2.9015793E3,8.7340204E2,2.4714954E3,9.264311E2,2.985824E2,1.1082772E3,3.8924075E2,6.0451434E2,2.6954703E2,1.0279573E3,2.6437173E2,1.01352026E3,5.418543E2,6.004768E1,6.2999454E1,8.477802E2,1.7560397E2,4.9150977E2,1.0027823E2,5.52619E0,1.1345546E2,1.0897294E2,6.523466E1,1.672054E2,5.2474648E1,1.24094315E2,1.6806429E1,6.520491E1,8.049265E1,1.5085372E1,6.2424576E1,3.9814103E0,3.4534087E3,6.2374963E2,2.2778298E3,4.0386713E2,4.6953488E2,1.7170314E3,7.544639E2,2.1664262E2,7.097885E2,2.2721391E2,7.136849E1,9.462516E2,1.6202559E2,3.2094806E2,6.829271E1,1.5702979E2,4.4748456E2,2.3536461E2,3.418241E1,1.9422222E1,1.00853503E3,2.6174014E2,2.6316085E0,1.091498E2,9.043704E2,3.8321362E2,1.5864072E2,6.7558026E0,5.3291874E1,3.410802E1,2.8891434E1,7.7409326E2,7.368696E1,1.3731815E2,3.828582E1,4.8825046E2,3.2593265E0,8.8298355E1,1.1979872E1,4.420002E0,1.1061878E0,1.0362466E1,1.03092995E2,1.0495534E2,4.0176053E0,1.2757015E1,5.2477642E1,1.3565102E2,3.155439E1,1.16262115E2,7.832202E0,1.0351856E1,6.454572E0,6.2313324E1,2.8915896E0,3.647217E1,4.4020477E1,1.2397941E1,2.6874313E0,5.5384407E1,7.040172E0],"tree_param":{"num_deleted":"0","num_feature":"25","num_nodes":"125","size_leaf_vector":"1"}},{"base_weights":[4.5818505E-3,-5.676453E-2,2.1652488E-1,-8.6372785E-2,1.2118454E-1,1.6082908E-1,5.1606095E-1,-1.0632184E-1,1.429437E-1,1.7504591E-1,-1.5021028E-1,1.0222216E-1,3.5655075E-1,5.711779E-1,8.692504E-2,-3.0537027E-1,-8.960024E-2,4.442684E-1,5.597377E-2,1.1687156E-1,5.1561683E-1,2.4520281E-1,-2.1129575E-1,1.408167E-1,-2.1313682E-1,4.7301203E-1,8.612982E-2,5.936909E-1,-3.7712014E-1,7.645103E-1,-1.6579872E-1,-2.424275E-1,-4.7665542E-1,2.2676397E-2,-1.08361125E-1,5.9202915E-1,1.1847568E-1,-2.750759E-2,2.8237152E-1,-2.4494627E-1,1.5955156E-1,6.4036244E-1,3.023421E-1,4.0984604E-1,-3.3634764E-1,-3.6365134E-1,-6.97161E-2,2.2110204E-1,3.955136E-2,4.2426646E-1,-2.7203658E-1,5.5606496E-1,1.5224853E-1,2.3346853E-1,-1.5890096E-1,5.078238E-1,7.6667994E-1,-1.6491423E0,1.4296475E-1,-1.4370233E-1,8.824661E-1,-4.263609E-1,4.2447722E-1,-9.490405E-2,2.307971E-2,-2.5594255E-1,-8.837341E-2,1.671275E-2,-1.0229341E-1,-2.3040718E-1,-3.1700514E-2,2.0297346E-1,-3.281865E-2,-1.7801818E-1,6.708522E-2,-3.3372492E-4,-1.7548409E-1,2.6431558E-1,6.446577E-2,-3.5380892E-2,-1.9464009E-1,2.5585117E-2,9.187176E-2,2.047047E-1,-1.92405E-2,1.223127E-1,-1.8249974E-1,1.5511909E-1,-1.3632491E-1,1.2464929E-1,-2.3364069E-1,-2.7022484E-1,-7.694501E-2,-5.3673107E-2,6.0809672E-2,5.6539323E-2,1.4139129E-1,-3.519809E-2,4.188208E-2,-6.0918603E-2,2.6495054E-1,2.4653132E-1,-9.053731E-2,1.2812877E-1,2.2809136E-1,1.9568367E-2,2.9320446E-1,-2.2294982E-1,8.441792E-2,1.7210157E-1,-7.9336345E-2,1.3378076E-1,2.4934609E-1,1.22915395E-1,2.5517637E-1,-5.7999563E-1,-1.7367709E-1,1.4559044E-1,-3.6885172E-1,2.8988653E-1,-8.872088E-2,1.06201535E-2,-2.1000941E-1,2.0371738E-1,-2.719775E-1],"categories":[],"categories_nodes":[],"categories_segments":[],"categories_sizes":[],"default_left":[0,0,0,0,0,0,0,0,0,0,0,0,0,0,0,0,0,0,0,0,0,0,0,0,0,0,0,0,0,0,0,0,0,0,0,0,0,0,0,0,0,0,0,0,0,0,0,0,0,0,0,0,0,0,0,0,0,0,0,0,0,0,0,0,0,0,0,0,0,0,0,0,0,0,0,0,0,0,0,0,0,0,0,0,0,0,0,0,0,0,0,0,0,0,0,0,0,0,0,0,0,0,0,0,0,0,0,0,0,0,0,0,0,0,0,0,0,0,0,0,0,0,0,0,0],"id":2,"left_children":[1,3,5,7,9,11,13,15,17,19,21,23,25,27,29,31,33,35,37,39,41,43,45,47,49,51,53,55,57,59,61,63,65,67,69,71,73,75,77,79,81,83,85,87,89,91,93,95,97,99,101,103,105,107,109,111,113,115,117,-1,119,121,123,-1,-1,-1,-1,-1,-1,-1,-1,-1,-1,-1,-1,-1,-1,-1,-1,-1,-1,-1,-1,-1,-1,-1,-1,-1,-1,-1,-1,-1,-1,-1,-1,-1,-1,-1,-1,-1,-1,-1,-1,-1,-1,-1,-1,-1,-1,-1,-1,-1,-1,-1,-1,-1,-1,-1,-1,-1,-1,-1,-1,-1,-1],"loss_changes":[2.430148E2,7.638195E1,6.991116E1,5.6868874E1,3.025808E1,4.0560516E1,1.5498596E1,3.802942E1,2.605174E1,3.4138954E1,8.337099E0,3.3196846E1,2.5631691E1,1.2656708E1,1.3140957E1,9.433151E0,2.2223488E1,1.0651821E1,1.4623657E1,2.282593E1,6.498642E0,4.577063E0,6.3952236E0,1.9735325E1,1.128563E1,1.5088547E1,8.940258E0,8.066223E0,9.574593E0,3.4771442E0,8.820924E0,1.5362049E1,1.5992893E1,1.8172087E1,1.5974998E1,9.146496E0,5.427897E0,8.325905E0,8.231453E0,7.9299164E0,1.4359787E1,4.711838E0,9.337328E0,3.6250143E0,3.9093199E0,8.007761E0,4.662426E0,1.0970871E1,1.689257E1,7.537234E0,9.132097E0,1.1582245E1,8.445911E0,7.4361935E0,7.3583612E0,7.300812E0,5.248497E0,1.5094948E-1,5.736764E0,0E0,2.198885E0,5.012737E0,6.6149845E0,0E0,0E0,0E0,0E0,0E0,0E0,0E0,0E0,0E0,0E0,0E0,0E0,0E0,0E0,0E0,0E0,0E0,0E0,0E0,0E0,0E0,0E0,0E0,0E0,0E0,0E0,0E0,0E0,0E0,0E0,0E0,0E0,0E0,0E0,0E0,0E0,0E0,0E0,0E0,0E0,0E0,0E0,0E0,0E0,0E0,0E0,0E0,0E0,0E0,0E0,0E0,0E0,0E0,0E0,0E0,0E0,0E0,0E0,0E0,0E0,0E0,0E0],"parents":[2147483647,0,0,1,1,2,2,3,3,4,4,5,5,6,6,7,7,8,8,9,9,10,10,11,11,12,12,13,13,14,14,15,15,16,16,17,17,18,18,19,19,20,20,21,21,22,22,23,23,24,24,25,25,26,26,27,27,28,28,29,29,30,30,31,31,32,32,33,33,34,34,35,35,36,36,37,37,38,38,39,39,40,40,41,41,42,42,43,43,44,44,45,45,46,46,47,47,48,48,49,49,50,50,51,51,52,52,53,53,54,54,55,55,56,56,57,57,58,58,60,60,61,61,62,62],"right_children":[2,4,6,8,10,12,14,16,18,20,22,24,26,28,30,32,34,36,38,40,42,44,46,48,50,52,54,56,58,60,62,64,66,68,70,72,74,76,78,80,82,84,86,88,90,92,94,96,98,100,102,104,106,108,110,112,114,116,118,-1,120,122,124,-1,-1,-1,-1,-1,-1,-1,-1,-1,-1,-1,-1,-1,-1,-1,-1,-1,-1,-1,-1,-1,-1,-1,-1,-1,-1,-1,-1,-1,-1,-1,-1,-1,-1,-1,-1,-1,-1,-1,-1,-1,-1,-1,-1,-1,-1,-1,-1,-1,-1,-1,-1,-1,-1,-1,-1,-1,-1,-1,-1,-1,-1],"split_conditions":[8.787566E-2,1.05559E0,1.962929E0,1.4928044E0,1.7001442E0,1.05559E0,1.6632406E0,-6.8522155E-1,-1.7828149E-1,3.317072E-2,-3.211648E-1,1.4183697E0,1.4183697E0,2.92068E0,-9.387756E-1,5.9208375E-1,-4.77705E-1,8.57111E-1,3.4267324E-1,-1.3484514E0,1.001772E0,2.2894616E0,2.0770307E-1,3.4030363E-1,-5.197263E-1,1.2331256E0,1.001772E0,3.9359353E0,1.9809936E0,1.301864E-1,1.3640579E0,4.0083808E-1,-1.7828149E-1,1.4183697E0,-1.16783E0,2.2522185E0,-2.594044E-1,2.4578228E0,-1.2978456E0,-1.1904606E0,1.6725258E0,6.3606477E-1,2.7923837E-1,6.4771813E-1,-2.0085424E-1,-3.8713425E-1,-2.4930617E-1,1.5955079E0,1.301864E-1,7.648269E-1,-7.0944166E-1,8.618161E-1,1.3588057E0,-8.61482E-1,-2.0085424E-1,1.4928044E0,1.301864E-1,3.2160363E0,7.648269E-1,-1.4370233E-1,2.8272421E0,7.53325E-1,2.9861774E0,-9.490405E-2,2.307971E-2,-2.5594255E-1,-8.837341E-2,1.671275E-2,-1.0229341E-1,-2.3040718E-1,-3.1700514E-2,2.0297346E-1,-3.281865E-2,-1.7801818E-1,6.708522E-2,-3.3372492E-4,-1.7548409E-1,2.6431558E-1,6.446577E-2,-3.5380892E-2,-1.9464009E-1,2.5585117E-2,9.187176E-2,2.047047E-1,-1.92405E-2,1.223127E-1,-1.8249974E-1,1.5511909E-1,-1.3632491E-1,1.2464929E-1,-2.3364069E-1,-2.7022484E-1,-7.694501E-2,-5.3673107E-2,6.0809672E-2,5.6539323E-2,1.4139129E-1,-3.519809E-2,4.188208E-2,-6.0918603E-2,2.6495054E-1,2.4653132E-1,-9.053731E-2,1.2812877E-1,2.2809136E-1,1.9568367E-2,2.9320446E-1,-2.2294982E-1,8.441792E-2,1.7210157E-1,-7.9336345E-2,1.3378076E-1,2.4934609E-1,1.22915395E-1,2.5517637E-1,-5.7999563E-1,-1.7367709E-1,1.4559044E-1,-3.6885172E-1,2.8988653E-1,-8.872088E-2,1.06201535E-2,-2.1000941E-1,2.0371738E-1,-2.719775E-1],"split_indices":[7,17,7,18,21,17,24,10,17,11,24,21,21,15,3,22,3,19,6,1,24,17,16,24,14,23,24,14,17,17,17,18,17,21,4,22,6,16,0,0,17,8,4,0,23,10,1,8,17,18,19,8,10,6,23,18,17,13,18,0,21,15,24,0,0,0,0,0,0,0,0,0,0,0,0,0,0,0,0,0,0,0,0,0,0,0,0,0,0,0,0,0,0,0,0,0,0,0,0,0,0,0,0,0,0,0,0,0,0,0,0,0,0,0,0,0,0,0,0,0,0,0,0,0,0],"split_type":[0,0,0,0,0,0,0,0,0,0,0,0,0,0,0,0,0,0,0,0,0,0,0,0,0,0,0,0,0,0,0,0,0,0,0,0,0,0,0,0,0,0,0,0,0,0,0,0,0,0,0,0,0,0,0,0,0,0,0,0,0,0,0,0,0,0,0,0,0,0,0,0,0,0,0,0,0,0,0,0,0,0,0,0,0,0,0,0,0,0,0,0,0,0,0,0,0,0,0,0,0,0,0,0,0,0,0,0,0,0,0,0,0,0,0,0,0,0,0,0,0,0,0,0,0],"sum_hessian":[1.8688713E4,1.449415E4,4.194563E3,1.2426987E4,2.0671636E3,3.5382053E3,6.563578E2,1.1432932E4,9.940553E2,1.7251442E3,3.4201932E2,2.7240408E3,8.141647E2,5.813589E2,7.499895E1,8.84684E2,1.0548248E4,2.2172754E2,7.7232776E2,1.4746041E3,2.5054012E2,4.5363335E1,2.9665598E2,2.4275088E3,2.96532E2,5.68557E2,2.4560768E2,5.682425E2,1.3116378E1,1.9823769E1,5.517518E1,6.4871405E2,2.3596994E2,1.5101819E3,9.038065E3,1.519807E2,6.974686E1,5.6490466E2,2.0742308E2,1.5509065E2,1.3195134E3,1.568154E2,9.372472E1,3.558429E1,9.779045E0,1.4213463E2,1.5452135E2,1.3533557E3,1.074153E3,2.45587E1,2.7197333E2,4.5103918E2,1.1751781E2,1.5340898E2,9.219871E1,3.8237668E2,1.858658E2,3.1764688E0,9.939909E0,1.4523067E0,1.8371462E1,3.8470886E1,1.6704294E1,5.267918E2,1.2192228E2,7.5718704E1,1.6025124E2,1.3852029E3,1.2497893E2,3.5588013E1,9.002478E3,1.3566339E2,1.63173E1,8.37816E0,6.1368694E1,5.40322E2,2.458266E1,1.9791636E1,1.8763144E2,1.18967896E2,3.6122757E1,8.770467E2,4.424667E2,1.4802487E2,8.790522E0,8.4500175E1,9.224544E0,3.2014412E1,3.5698764E0,3.6454334E0,6.133611E0,2.2411085E1,1.1972355E2,1.1055141E2,4.3969944E1,1.1987393E3,1.546164E2,4.18231E2,6.55922E2,1.0610893E1,1.3947807E1,6.4975486E0,2.6547577E2,2.783583E2,1.7268088E2,1.0728216E2,1.0235654E1,6.4972434E0,1.4691174E2,1.1052964E1,8.114574E1,3.2294214E2,5.9434563E1,3.649429E1,1.493715E2,1.8727301E0,1.3037387E0,8.472906E0,1.4670026E0,1.7319164E1,1.052297E0,1.4639853E1,2.3831032E1,1.4433565E1,2.270728E0],"tree_param":{"num_deleted":"0","num_feature":"25","num_nodes":"125","size_leaf_vector":"1"}},{"base_weights":[4.6166675E-3,-2.0984793E-2,2.8777146E-1,-6.7225315E-2,6.9219425E-2,2.2018091E-1,5.0497365E-1,-9.469106E-2,1.3710454E-1,3.213887E-1,3.835862E-2,2.9930553E-1,-8.248737E-2,8.315219E-1,4.0525615E-1,-2.0116352E-2,-1.837215E-1,2.3401837E-1,-4.840081E-2,7.597874E-2,4.687436E-1,1.0200402E-1,-5.5075705E-2,2.381986E-1,4.7194266E-1,-1.9351156E-1,5.38889E-1,8.6041987E-1,-1.8785444E-1,6.1063653E-1,2.334562E-1,-1.10603824E-1,2.1494037E-2,-2.887219E-1,-1.226655E-1,1.534302E-1,5.136701E-1,-1.7001815E-1,1.4435391E-1,5.016352E-1,-1.1250505E-1,6.1789167E-1,2.632652E-1,1.9553433E-1,1.9410696E-2,-2.2460535E-2,-2.1391664E-1,1.769344E-1,4.9611282E-1,5.471636E-1,-3.3543313E-1,1.0027342E-1,-3.6210686E-1,-1.996593E-1,9.0237767E-1,-5.0194822E-2,8.9593655E-1,3.2769477E-1,8.2520485E-1,4.2921558E-1,-7.925528E-2,-3.7250213E-2,4.919515E-2,2.4970123E-4,5.6191064E-2,-1.4341559E-1,-5.171503E-2,-1.0363914E-2,-8.1011824E-2,6.851104E-2,-1.486347E-2,2.7059373E-1,1.231798E-1,-6.354741E-2,1.399409E-1,-5.7212513E-2,7.486201E-2,2.5924835E-1,5.6822892E-2,-7.377226E-2,1.370307E-1,1.2659328E-1,2.2370334E-1,-8.371891E-2,1.2688266E-1,4.512736E-2,1.370212E-1,-9.065785E-2,1.0924368E-2,3.807281E-2,-1.9931082E-2,-1.0419751E-1,2.6254333E-4,2.2570454E-2,1.1673882E-1,2.4220069E-1,9.00323E-2,1.7125739E-1,-4.313731E-2,-3.4402165E-1,8.260608E-2,-5.1579762E-2,1.02137454E-1,1.6899094E-1,-1.3661495E-1,6.559348E-2,-3.158785E-1,-4.9025793E-2,2.8851217E-1,2.2382016E-1,-2.680399E-1,2.76227E-1,7.7653274E-2,-1.4691019E-1,1.3409555E-1,7.7581756E-2,2.8677687E-1,-1.2554212E-1,1.4643098E-1,-7.276762E-3,-4.4317073E-1],"categories":[],"categories_nodes":[],"categories_segments":[],"categories_sizes":[],"default_left":[0,0,0,0,0,0,0,0,0,0,0,0,0,0,0,0,0,0,0,0,0,0,0,0,0,0,0,0,0,0,0,0,0,0,0,0,0,0,0,0,0,0,0,0,0,0,0,0,0,0,0,0,0,0,0,0,0,0,0,0,0,0,0,0,0,0,0,0,0,0,0,0,0,0,0,0,0,0,0,0,0,0,0,0,0,0,0,0,0,0,0,0,0,0,0,0,0,0,0,0,0,0,0,0,0,0,0,0,0,0,0,0,0,0,0,0,0,0,0,0,0],"id":3,"left_children":[1,3,5,7,9,11,13,15,17,19,21,23,25,27,29,31,33,35,37,39,41,43,45,47,49,51,53,55,-1,57,59,61,63,65,67,69,71,73,75,77,79,81,83,85,87,89,91,93,95,97,99,101,103,105,107,109,111,113,115,117,119,-1,-1,-1,-1,-1,-1,-1,-1,-1,-1,-1,-1,-1,-1,-1,-1,-1,-1,-1,-1,-1,-1,-1,-1,-1,-1,-1,-1,-1,-1,-1,-1,-1,-1,-1,-1,-1,-1,-1,-1,-1,-1,-1,-1,-1,-1,-1,-1,-1,-1,-1,-1,-1,-1,-1,-1,-1,-1,-1,-1],"loss_changes":[1.3493318E2,7.120663E1,2.2547203E1,6.334966E1,4.501175E1,2.8257004E1,1.1565475E1,6.605265E1,2.4060102E1,2.2772186E1,3.0665762E1,9.748825E0,1.7013174E1,4.1007423E0,9.806503E0,2.039187E1,2.9037384E1,1.9726734E1,1.0804726E1,1.9136368E1,1.1908714E1,2.368996E1,1.0821111E1,1.0853069E1,1.4962948E1,1.0372439E1,1.022538E1,2.7402077E0,0E0,7.489174E0,9.532011E0,6.373934E0,1.271092E1,3.6628098E1,3.725185E1,1.0410191E1,7.4810677E0,7.6137896E0,6.3365564E0,8.11853E0,1.2691935E1,5.380455E0,1.461469E1,1.6877785E1,8.924248E0,1.1404063E1,1.0197731E1,1.2078648E1,7.831291E0,3.732895E0,1.0900595E1,5.0844965E0,1.1720312E1,4.927644E0,1.7543049E0,3.402977E0,1.0307922E0,5.755604E0,5.0877304E0,4.975298E0,4.6219096E0,0E0,0E0,0E0,0E0,0E0,0E0,0E0,0E0,0E0,0E0,0E0,0E0,0E0,0E0,0E0,0E0,0E0,0E0,0E0,0E0,0E0,0E0,0E0,0E0,0E0,0E0,0E0,0E0,0E0,0E0,0E0,0E0,0E0,0E0,0E0,0E0,0E0,0E0,0E0,0E0,0E0,0E0,0E0,0E0,0E0,0E0,0E0,0E0,0E0,0E0,0E0,0E0,0E0,0E0,0E0,0E0,0E0,0E0,0E0,0E0],"parents":[2147483647,0,0,1,1,2,2,3,3,4,4,5,5,6,6,7,7,8,8,9,9,10,10,11,11,12,12,13,13,14,14,15,15,16,16,17,17,18,18,19,19,20,20,21,21,22,22,23,23,24,24,25,25,26,26,27,27,29,29,30,30,31,31,32,32,33,33,34,34,35,35,36,36,37,37,38,38,39,39,40,40,41,41,42,42,43,43,44,44,45,45,46,46,47,47,48,48,49,49,50,50,51,51,52,52,53,53,54,54,55,55,56,56,57,57,58,58,59,59,60,60],"right_children":[2,4,6,8,10,12,14,16,18,20,22,24,26,28,30,32,34,36,38,40,42,44,46,48,50,52,54,56,-1,58,60,62,64,66,68,70,72,74,76,78,80,82,84,86,88,90,92,94,96,98,100,102,104,106,108,110,112,114,116,118,120,-1,-1,-1,-1,-1,-1,-1,-1,-1,-1,-1,-1,-1,-1,-1,-1,-1,-1,-1,-1,-1,-1,-1,-1,-1,-1,-1,-1,-1,-1,-1,-1,-1,-1,-1,-1,-1,-1,-1,-1,-1,-1,-1,-1,-1,-1,-1,-1,-1,-1,-1,-1,-1,-1,-1,-1,-1,-1,-1,-1],"split_conditions":[9.223799E-1,4.3865427E-1,1.3640579E0,1.1288157E0,-3.2713947E-1,1.1365951E0,-3.2713947E-1,-4.2461392E-1,1.2561376E0,-7.197009E-2,8.548206E-1,2.146513E0,1.2730732E0,3.7334383E0,1.1365951E0,-5.0652504E-1,-1.7828149E-1,7.849191E-1,1.8567932E0,-5.099685E-1,8.548206E-1,-2.0815605E-1,1.6632406E0,1.4928044E0,1.5573324E0,3.4030363E-1,1.4114428E0,-1.4053037E0,-1.8785444E-1,-4.3881395E-1,5.1613563E-1,-4.1749826E-1,1.9817291E-1,3.684931E-2,4.8240557E-1,-1.7287739E-1,-4.8674935E-1,2.1112764E0,-1.1715103E0,1.0242443E0,1.6725258E0,-2.674319E-1,-3.658423E-1,1.6725258E0,-4.5184368E-1,-4.0383005E-1,7.648269E-1,1.1277838E0,-1.7828149E-1,1.332763E0,1.8951275E0,1.5348796E0,-1.3610853E0,1.5660832E0,-2.0631848E-1,1.7015429E0,3.05614E0,7.113152E-1,1.0898789E0,-5.959111E-1,3.831801E0,-3.7250213E-2,4.919515E-2,2.4970123E-4,5.6191064E-2,-1.4341559E-1,-5.171503E-2,-1.0363914E-2,-8.1011824E-2,6.851104E-2,-1.486347E-2,2.7059373E-1,1.231798E-1,-6.354741E-2,1.399409E-1,-5.7212513E-2,7.486201E-2,2.5924835E-1,5.6822892E-2,-7.377226E-2,1.370307E-1,1.2659328E-1,2.2370334E-1,-8.371891E-2,1.2688266E-1,4.512736E-2,1.370212E-1,-9.065785E-2,1.0924368E-2,3.807281E-2,-1.9931082E-2,-1.0419751E-1,2.6254333E-4,2.2570454E-2,1.1673882E-1,2.4220069E-1,9.00323E-2,1.7125739E-1,-4.313731E-2,-3.4402165E-1,8.260608E-2,-5.1579762E-2,1.02137454E-1,1.6899094E-1,-1.3661495E-1,6.559348E-2,-3.158785E-1,-4.9025793E-2,2.8851217E-1,2.2382016E-1,-2.680399E-1,2.76227E-1,7.7653274E-2,-1.4691019E-1,1.3409555E-1,7.7581756E-2,2.8677687E-1,-1.2554212E-1,1.4643098E-1,-7.276762E-3,-4.4317073E-1],"split_indices":[4,17,17,18,18,21,18,19,22,22,21,14,1,15,21,13,17,3,18,9,21,3,24,18,0,24,7,1,0,1,23,4,7,18,15,8,17,6,0,15,17,4,10,17,20,9,18,1,17,16,13,13,1,15,13,15,15,8,5,16,17,0,0,0,0,0,0,0,0,0,0,0,0,0,0,0,0,0,0,0,0,0,0,0,0,0,0,0,0,0,0,0,0,0,0,0,0,0,0,0,0,0,0,0,0,0,0,0,0,0,0,0,0,0,0,0,0,0,0,0,0],"split_type":[0,0,0,0,0,0,0,0,0,0,0,0,0,0,0,0,0,0,0,0,0,0,0,0,0,0,0,0,0,0,0,0,0,0,0,0,0,0,0,0,0,0,0,0,0,0,0,0,0,0,0,0,0,0,0,0,0,0,0,0,0,0,0,0,0,0,0,0,0,0,0,0,0,0,0,0,0,0,0,0,0,0,0,0,0,0,0,0,0,0,0,0,0,0,0,0,0,0,0,0,0,0,0,0,0,0,0,0,0,0,0,0,0,0,0,0,0,0,0,0,0],"sum_hessian":[1.8611754E4,1.7069354E4,1.5424009E3,1.1284793E4,5.78456E3,1.177875E3,3.6452588E2,9.948117E3,1.3366758E3,6.297056E2,5.1548545E3,9.337752E2,2.4409975E2,8.3557755E1,2.8096814E2,5.4142207E3,4.5338965E3,8.778158E2,4.5886002E2,2.3681738E2,3.9288824E2,3.0661614E3,2.088693E3,6.9141907E2,2.4235617E2,2.07681E2,3.641875E1,8.233526E1,1.2224962E0,1.26813286E2,1.5415486E2,1.7049392E3,3.7092812E3,1.6656624E3,2.868234E3,6.826445E2,1.9517131E2,2.814187E2,1.7744133E2,7.217095E1,1.6464642E2,2.2648515E2,1.6640309E2,1.4372377E3,1.6289238E3,1.7338245E3,3.548687E2,5.600681E2,1.3135092E2,2.2199573E2,2.0360432E1,7.58734E1,1.318076E2,1.2160782E1,2.4257967E1,3.075255E0,7.926E1,5.5782536E1,7.103075E1,9.457668E1,5.957817E1,1.6252081E3,7.973109E1,3.2991729E3,4.1010846E2,6.327733E2,1.032889E3,1.7957422E3,1.0724918E3,4.9847763E2,1.8416682E2,3.931286E1,1.5585846E2,2.646996E2,1.6719112E1,4.220081E1,1.3524051E2,3.2577446E1,3.9593506E1,1.3384865E2,3.0797775E1,9.110718E1,1.3537798E2,3.767972E1,1.2872337E2,1.2269236E3,2.1031407E2,8.0957504E1,1.5479663E3,3.9392755E2,1.3398969E3,2.1852473E2,1.3634396E2,3.795258E2,1.8054234E2,4.9551933E1,8.179898E1,2.1480348E2,7.1922507E0,8.367901E0,1.199253E1,3.5699093E1,4.01743E1,1.16075945E1,1.2020001E2,8.659386E0,3.5013967E0,1.1866452E0,2.3071323E1,1.6410028E0,1.4342521E0,7.58594E1,3.400605E0,6.708661E0,4.9073875E1,1.3873641E1,5.715711E1,5.7466874E0,8.883E1,5.830181E1,1.2763618E0],"tree_param":{"num_deleted":"0","num_feature":"25","num_nodes":"121","size_leaf_vector":"1"}},{"base_weights":[4.604229E-3,-1.3701321E-2,2.3932038E-1,-2.8964143E-2,1.4278252E-1,2.8815988E-1,-9.192343E-2,-5.6058057E-2,5.2617308E-2,4.8850772E-1,1.0317735E-1,1.8038923E-1,4.2444032E-1,5.8223295E-1,-1.6248623E-1,-4.50704E-2,-3.6478594E-1,3.8207963E-1,2.0548692E-2,6.548644E-1,3.2555077E-2,1.3169783E-1,-2.2984493E-1,2.136198E-1,-5.2459764E-1,6.0475886E-1,2.598006E-1,-1.4731531E-1,7.161866E-1,5.6004785E-2,-4.1146317E-1,-7.530752E-2,7.5221114E-2,-9.6233624E-1,-3.2411894E-1,6.139699E-1,2.31959E-1,1.0208257E-1,-3.817777E-2,2.9830712E-1,7.793434E-1,3.8921025E-1,-5.423081E-1,3.637505E-2,2.5443232E-1,-9.880083E-1,-1.3985813E-1,1.4728874E-1,3.6952E-1,-8.625466E-1,1.7251705E-1,1.9942367E-2,6.469672E-1,1.6400677E-1,7.065982E-1,8.722831E-1,-7.0072256E-2,3.3815756E-1,-2.0762326E-1,1.7306186E-1,-5.464952E-1,-4.3670586E-3,-4.786196E-2,6.6014476E-2,-2.441609E-3,2.5687963E-1,-3.333354E-1,-5.902928E-2,-1.6422652E-1,2.1824978E-1,-8.956887E-3,8.5826464E-2,-1.0476921E-1,2.8178026E-4,7.624262E-2,6.5545524E-3,-2.8926438E-2,-2.1876337E-2,3.027605E-1,2.4841912E-1,-1.3084377E-1,-1.0045147E-2,2.5550485E-1,-3.172331E-1,2.3307119E-2,-1.2999168E-1,1.8333824E-2,1.2570053E-1,4.686527E-2,-3.7396106E-1,6.827288E-2,8.621659E-2,-8.4542684E-2,-7.9821615E-4,9.573741E-2,2.0665386E-1,7.055776E-2,-5.0147884E-2,-3.8124636E-1,-9.432993E-2,2.3266385E-1,-1.2123519E-1,2.510119E-1,2.0894805E-1,6.0652003E-2,-4.106307E-2,8.66839E-2,2.5240317E-1,-4.949114E-2,2.984653E-1,-8.935259E-2,1.3610417E-1,-2.013929E-1,-1.7434381E-1,2.4731247E-2,-9.582638E-2,2.7012536E-1,-3.089345E-1,-8.9936964E-2],"categories":[],"categories_nodes":[],"categories_segments":[],"categories_sizes":[],"default_left":[0,0,0,0,0,0,0,0,0,0,0,0,0,0,0,0,0,0,0,0,0,0,0,0,0,0,0,0,0,0,0,0,0,0,0,0,0,0,0,0,0,0,0,0,0,0,0,0,0,0,0,0,0,0,0,0,0,0,0,0,0,0,0,0,0,0,0,0,0,0,0,0,0,0,0,0,0,0,0,0,0,0,0,0,0,0,0,0,0,0,0,0,0,0,0,0,0,0,0,0,0,0,0,0,0,0,0,0,0,0,0,0,0,0,0,0,0,0,0],"id":4,"left_children":[1,3,5,7,9,11,13,15,17,19,21,23,25,27,29,31,33,35,37,39,41,43,45,47,49,51,53,-1,55,57,59,61,63,65,67,69,71,73,75,77,79,81,83,85,87,89,91,93,95,97,99,101,103,105,107,109,-1,111,113,115,117,-1,-1,-1,-1,-1,-1,-1,-1,-1,-1,-1,-1,-1,-1,-1,-1,-1,-1,-1,-1,-1,-1,-1,-1,-1,-1,-1,-1,-1,-1,-1,-1,-1,-1,-1,-1,-1,-1,-1,-1,-1,-1,-1,-1,-1,-1,-1,-1,-1,-1,-1,-1,-1,-1,-1,-1,-1,-1],"loss_changes":[7.9596924E1,4.1049686E1,2.1709229E1,3.461515E1,2.0863691E1,1.7082275E1,8.323315E0,3.9860806E1,4.124463E1,1.1866261E1,1.3058511E1,1.5436411E1,1.5137062E1,2.7394443E0,8.583936E0,4.1298557E1,9.502197E0,1.1912113E1,1.7046082E1,4.861698E0,9.016573E0,1.4780165E1,7.2690196E0,6.4127865E0,7.153981E0,6.0377884E0,1.1485016E1,0E0,2.4530725E0,6.3702946E0,5.909646E0,4.6424583E1,2.7539204E1,7.7769756E0,1.0688644E1,9.923805E0,6.7632475E0,2.2923325E1,7.238124E0,8.339306E0,5.3624725E0,5.323475E0,5.4674263E0,8.306993E0,8.863663E0,3.8518906E0,6.0376225E0,1.1348266E1,7.8164635E0,5.5205345E0,3.3393848E0,6.4105964E0,4.8948364E0,8.478847E0,5.723139E0,2.195959E0,0E0,5.1198688E0,4.859014E0,5.5121727E0,6.855648E0,0E0,0E0,0E0,0E0,0E0,0E0,0E0,0E0,0E0,0E0,0E0,0E0,0E0,0E0,0E0,0E0,0E0,0E0,0E0,0E0,0E0,0E0,0E0,0E0,0E0,0E0,0E0,0E0,0E0,0E0,0E0,0E0,0E0,0E0,0E0,0E0,0E0,0E0,0E0,0E0,0E0,0E0,0E0,0E0,0E0,0E0,0E0,0E0,0E0,0E0,0E0,0E0,0E0,0E0,0E0,0E0,0E0,0E0],"parents":[2147483647,0,0,1,1,2,2,3,3,4,4,5,5,6,6,7,7,8,8,9,9,10,10,11,11,12,12,13,13,14,14,15,15,16,16,17,17,18,18,19,19,20,20,21,21,22,22,23,23,24,24,25,25,26,26,28,28,29,29,30,30,31,31,32,32,33,33,34,34,35,35,36,36,37,37,38,38,39,39,40,40,41,41,42,42,43,43,44,44,45,45,46,46,47,47,48,48,49,49,50,50,51,51,52,52,53,53,54,54,55,55,57,57,58,58,59,59,60,60],"right_children":[2,4,6,8,10,12,14,16,18,20,22,24,26,28,30,32,34,36,38,40,42,44,46,48,50,52,54,-1,56,58,60,62,64,66,68,70,72,74,76,78,80,82,84,86,88,90,92,94,96,98,100,102,104,106,108,110,-1,112,114,116,118,-1,-1,-1,-1,-1,-1,-1,-1,-1,-1,-1,-1,-1,-1,-1,-1,-1,-1,-1,-1,-1,-1,-1,-1,-1,-1,-1,-1,-1,-1,-1,-1,-1,-1,-1,-1,-1,-1,-1,-1,-1,-1,-1,-1,-1,-1,-1,-1,-1,-1,-1,-1,-1,-1,-1,-1,-1,-1],"split_conditions":[1.0012827E0,1.3640579E0,1.6632406E0,7.648269E-1,-3.2713947E-1,7.471221E-1,-9.387756E-1,1.4306234E0,-8.80925E-1,1.7015429E0,2.1079218E0,1.5660832E0,1.2951638E0,1.301864E-1,1.1365951E0,4.3865427E-1,-2.8220004E-1,-1.7828149E-1,5.9208375E-1,-3.8640255E-1,1.001772E0,-7.609772E-1,-4.9269173E-1,1.301864E-1,5.722832E-1,-1.3610853E0,4.2938194E0,-1.4731531E-1,6.8987155E-1,-9.487813E-2,6.9430125E-1,-8.358265E-1,2.9127154E-1,-1.3989139E0,1.4869368E-1,2.2522185E0,1.6632406E0,4.004576E-3,-2.2490947E-1,-1.6880913E-1,2.5454676E0,1.9809936E0,2.2218738E-1,-1.4242545E0,-3.6823955E-1,9.9952483E-1,1.0301847E-1,1.1277838E0,3.4694588E-1,1.5348796E0,-6.691762E-1,2.0080452E0,1.9819187E0,9.944259E-1,2.92068E0,2.8272421E0,-7.0072256E-2,1.5691804E0,1.1746317E0,6.39362E-1,1.2439507E0,-4.3670586E-3,-4.786196E-2,6.6014476E-2,-2.441609E-3,2.5687963E-1,-3.333354E-1,-5.902928E-2,-1.6422652E-1,2.1824978E-1,-8.956887E-3,8.5826464E-2,-1.0476921E-1,2.8178026E-4,7.624262E-2,6.5545524E-3,-2.8926438E-2,-2.1876337E-2,3.027605E-1,2.4841912E-1,-1.3084377E-1,-1.0045147E-2,2.5550485E-1,-3.172331E-1,2.3307119E-2,-1.2999168E-1,1.8333824E-2,1.2570053E-1,4.686527E-2,-3.7396106E-1,6.827288E-2,8.621659E-2,-8.4542684E-2,-7.9821615E-4,9.573741E-2,2.0665386E-1,7.055776E-2,-5.0147884E-2,-3.8124636E-1,-9.432993E-2,2.3266385E-1,-1.2123519E-1,2.510119E-1,2.0894805E-1,6.0652003E-2,-4.106307E-2,8.66839E-2,2.5240317E-1,-4.949114E-2,2.984653E-1,-8.935259E-2,1.3610417E-1,-2.013929E-1,-1.7434381E-1,2.4731247E-2,-9.582638E-2,2.7012536E-1,-3.089345E-1,-8.9936964E-2],"split_indices":[14,17,24,18,18,17,3,15,5,15,15,15,15,17,21,17,19,17,22,7,24,1,8,17,19,1,14,0,16,2,13,21,21,0,0,22,24,6,11,9,21,17,8,1,12,19,20,1,15,13,9,11,21,11,15,21,0,19,13,7,4,0,0,0,0,0,0,0,0,0,0,0,0,0,0,0,0,0,0,0,0,0,0,0,0,0,0,0,0,0,0,0,0,0,0,0,0,0,0,0,0,0,0,0,0,0,0,0,0,0,0,0,0,0,0,0,0,0,0],"split_type":[0,0,0,0,0,0,0,0,0,0,0,0,0,0,0,0,0,0,0,0,0,0,0,0,0,0,0,0,0,0,0,0,0,0,0,0,0,0,0,0,0,0,0,0,0,0,0,0,0,0,0,0,0,0,0,0,0,0,0,0,0,0,0,0,0,0,0,0,0,0,0,0,0,0,0,0,0,0,0,0,0,0,0,0,0,0,0,0,0,0,0,0,0,0,0,0,0,0,0,0,0,0,0,0,0,0,0,0,0,0,0,0,0,0,0,0,0,0,0],"sum_hessian":[1.8523762E4,1.7184482E4,1.3392789E3,1.5658071E4,1.526412E3,1.1672992E3,1.7197975E2,1.1754584E4,3.9034875E3,1.5572328E2,1.3706887E3,6.531284E2,5.141708E2,1.5608168E1,1.5637158E2,1.1351721E4,4.0286298E2,3.4528006E2,3.5582075E3,1.1377547E2,4.1947815E1,1.2631182E3,1.0757065E2,6.243937E2,2.8734713E1,2.4412462E2,2.7004614E2,1.4360662E0,1.4172102E1,8.369748E1,7.26741E1,9.071767E3,2.2799539E3,2.4226173E1,3.786368E2,1.3447212E2,2.1080795E2,1.4894985E3,2.068709E3,3.0320892E1,8.3454575E1,2.6086342E1,1.5861473E1,7.116812E2,5.514369E2,1.0354202E1,9.7216446E1,4.3939044E2,1.8500325E2,1.9192982E1,9.541731E0,1.6532417E1,2.275922E2,2.2349553E2,4.6550594E1,1.224171E1,1.9303923E0,4.0291767E1,4.3405716E1,1.3585169E1,5.9088936E1,5.2712046E3,3.8005625E3,8.3229926E2,1.4476545E3,1.472478E0,2.2753696E1,2.4231828E2,1.3631853E2,1.14203964E2,2.0268158E1,1.933116E2,1.7496355E1,8.95114E2,5.943845E2,1.0190722E3,1.0496367E3,2.05087E1,9.812193E0,8.0544846E1,2.9097295E0,1.4113959E1,1.19723835E1,8.278004E0,7.5834694E0,3.478185E1,6.7689935E2,2.0487708E2,3.4655984E2,8.517295E0,1.8369067E0,2.3989063E1,7.322739E1,2.3516371E2,2.0422672E2,5.355739E1,1.3144586E2,7.6213937E0,1.15715885E1,5.5437174E0,3.9980128E0,1.1214913E1,5.3175044E0,2.0428038E2,2.3311815E1,6.554714E1,1.579484E2,4.03475E1,6.203095E0,1.1216273E1,1.0254364E0,3.6648323E1,3.6434436E0,1.853453E1,2.4871185E1,8.434874E0,5.1502953E0,1.8896757E1,4.0192177E1],"tree_param":{"num_deleted":"0","num_feature":"25","num_nodes":"119","size_leaf_vector":"1"}},{"base_weights":[4.245946E-3,-5.199442E-2,5.0636105E-2,-5.261008E-1,-4.9110554E-2,3.253854E-2,2.6783276E-1,-2.0213105E-1,-8.8815343E-1,-5.2265916E-2,3.4757188E-1,5.3969312E-2,-1.1527739E-1,3.4932345E-1,-4.238277E-2,-3.970903E-1,4.8571756E-1,2.8744057E-1,-1.0483762E0,-8.853354E-2,-2.5546942E-2,4.83416E-2,6.3120383E-1,3.946075E-2,2.4936189E-1,-1.7848106E-1,4.0561326E-2,6.332121E-1,2.2943325E-1,-2.4846451E-1,1.9775344E-1,1.9680946E-1,-1.0367476E0,-1.4359705E-1,3.167951E-1,-1.1494178E0,5.0154682E-2,-9.2321575E-2,4.071753E-1,1.0325726E-2,-8.29227E-2,-5.5292696E-1,2.4640273E-1,-2.702417E-1,7.225883E-1,3.4251746E-2,3.2233053E-1,1.9907863E-1,6.410978E-1,4.602533E-1,-1.9295178E-1,1.0450118E-1,-1.8280002E-1,4.4483718E-1,8.093967E-1,3.3662122E-1,2.3584293E-2,-2.953329E-1,7.950423E-1,7.251375E-1,5.0525605E-3,2.1524303E-1,-1.1153029E-1,-4.0851608E-2,-4.1039243E-1,1.7409144E-1,-2.8699908E-1,-3.78314E-1,-2.1608345E-2,6.936487E-2,-2.9302482E-2,-1.5656312E-1,1.6692008E-1,5.39591E-3,-6.4786464E-2,-1.0724644E-1,-1.6980728E-2,1.6554466E-1,-1.2236344E-1,2.3486885E-1,-5.289534E-2,1.1974126E-2,-1.16575435E-1,1.23185806E-1,-8.860939E-2,3.7460055E-2,1.3693313E-1,2.2112466E-1,-2.244153E-3,1.7362846E-1,-2.4129406E-1,-4.2159714E-2,-1.0530716E-1,1.6330943E-2,2.4115779E-1,2.2343313E-2,-1.5382375E-1,3.777051E-2,1.9188127E-1,9.4228186E-2,2.5693387E-1,1.1618533E-1,-5.7977263E-2,-1.5135276E-2,1.890787E-1,1.8927801E-2,-1.3125946E-1,5.8520555E-2,2.823743E-1,2.5007284E-1,-1.4826338E-1,6.839037E-2,-1.8409461E-1],"categories":[],"categories_nodes":[],"categories_segments":[],"categories_sizes":[],"default_left":[0,0,0,0,0,0,0,0,0,0,0,0,0,0,0,0,0,0,0,0,0,0,0,0,0,0,0,0,0,0,0,0,0,0,0,0,0,0,0,0,0,0,0,0,0,0,0,0,0,0,0,0,0,0,0,0,0,0,0,0,0,0,0,0,0,0,0,0,0,0,0,0,0,0,0,0,0,0,0,0,0,0,0,0,0,0,0,0,0,0,0,0,0,0,0,0,0,0,0,0,0,0,0,0,0,0,0,0,0,0,0,0,0],"id":5,"left_children":[1,3,5,7,9,11,13,15,17,19,21,23,25,27,29,31,33,-1,35,37,39,41,43,45,47,49,51,53,55,57,59,61,63,65,-1,67,-1,69,71,73,75,-1,77,-1,79,81,83,85,87,89,91,93,95,97,99,101,103,105,107,109,111,-1,-1,-1,-1,-1,-1,-1,-1,-1,-1,-1,-1,-1,-1,-1,-1,-1,-1,-1,-1,-1,-1,-1,-1,-1,-1,-1,-1,-1,-1,-1,-1,-1,-1,-1,-1,-1,-1,-1,-1,-1,-1,-1,-1,-1,-1,-1,-1,-1,-1,-1,-1],"loss_changes":[4.8135864E1,1.1376575E1,3.9732178E1,5.7224874E0,1.0394939E1,2.9573969E1,1.966956E1,3.927669E0,7.9466534E0,7.9687614E0,5.5331764E0,2.3101706E1,1.1651491E1,2.0815483E1,8.097887E0,8.656664E0,2.5203185E0,0E0,2.9030056E0,6.5890236E0,9.752255E0,1.28102045E1,5.3509836E0,1.1173003E1,1.0968666E1,7.864645E0,4.9025207E0,5.6899414E0,9.580429E0,4.5372047E0,7.686614E0,3.9311554E0,3.056755E0,2.9200609E0,0E0,2.3751965E0,0E0,6.021105E0,3.9842434E0,5.0587134E0,1.3152006E1,0E0,6.367447E0,0E0,1.8856182E0,1.7861511E1,7.5996094E0,9.5060425E0,3.9668674E0,3.302752E0,6.7729034E0,9.286299E0,6.528926E0,5.529833E0,1.8976059E0,7.744175E0,6.7634897E0,4.3556747E0,1.7184353E-1,3.0886202E0,7.9223366E0,0E0,0E0,0E0,0E0,0E0,0E0,0E0,0E0,0E0,0E0,0E0,0E0,0E0,0E0,0E0,0E0,0E0,0E0,0E0,0E0,0E0,0E0,0E0,0E0,0E0,0E0,0E0,0E0,0E0,0E0,0E0,0E0,0E0,0E0,0E0,0E0,0E0,0E0,0E0,0E0,0E0,0E0,0E0,0E0,0E0,0E0,0E0,0E0,0E0,0E0,0E0,0E0],"parents":[2147483647,0,0,1,1,2,2,3,3,4,4,5,5,6,6,7,7,8,8,9,9,10,10,11,11,12,12,13,13,14,14,15,15,16,16,18,18,19,19,20,20,21,21,22,22,23,23,24,24,25,25,26,26,27,27,28,28,29,29,30,30,31,31,32,32,33,33,35,35,37,37,38,38,39,39,40,40,42,42,44,44,45,45,46,46,47,47,48,48,49,49,50,50,51,51,52,52,53,53,54,54,55,55,56,56,57,57,58,58,59,59,60,60],"right_children":[2,4,6,8,10,12,14,16,18,20,22,24,26,28,30,32,34,-1,36,38,40,42,44,46,48,50,52,54,56,58,60,62,64,66,-1,68,-1,70,72,74,76,-1,78,-1,80,82,84,86,88,90,92,94,96,98,100,102,104,106,108,110,112,-1,-1,-1,-1,-1,-1,-1,-1,-1,-1,-1,-1,-1,-1,-1,-1,-1,-1,-1,-1,-1,-1,-1,-1,-1,-1,-1,-1,-1,-1,-1,-1,-1,-1,-1,-1,-1,-1,-1,-1,-1,-1,-1,-1,-1,-1,-1,-1,-1,-1,-1,-1],"split_conditions":[-2.9816476E-1,-1.1253942E0,1.6725258E0,3.9035026E-2,2.5979295E0,1.1597041E0,1.9819187E0,-9.5344955E-1,-6.091974E-1,-5.2468854E-1,-1.7268908E-1,1.0926563E0,5.9208375E-1,3.684931E-2,-7.4834335E-1,-1.1069382E0,-1.0888498E-1,2.8744057E-1,-8.1410223E-1,3.3840952E0,5.191651E-1,-3.3798435E-1,-5.353538E-1,2.5847707E0,1.05559E0,-9.529624E-1,6.540349E-1,3.8704734E-2,1.001772E0,2.220782E0,-3.6928108E-1,1.2059931E-1,-2.5131294E-1,-2.5071642E-1,3.167951E-1,6.8987155E-1,5.0154682E-2,-5.4539126E-1,-7.7244294E-1,1.8794981E0,-1.3358176E0,-5.5292696E-1,1.001772E0,-2.702417E-1,-2.5131294E-1,2.2970998E0,1.0740273E0,1.3046578E0,1.2127428E0,2.324709E0,1.2331256E0,2.939495E-1,8.505944E-1,-7.197009E-2,-7.3602396E-1,6.621178E-2,2.9063973E0,1.2951638E0,-3.5697065E-2,-8.541462E-2,9.353117E-1,2.1524303E-1,-1.1153029E-1,-4.0851608E-2,-4.1039243E-1,1.7409144E-1,-2.8699908E-1,-3.78314E-1,-2.1608345E-2,6.936487E-2,-2.9302482E-2,-1.5656312E-1,1.6692008E-1,5.39591E-3,-6.4786464E-2,-1.0724644E-1,-1.6980728E-2,1.6554466E-1,-1.2236344E-1,2.3486885E-1,-5.289534E-2,1.1974126E-2,-1.16575435E-1,1.23185806E-1,-8.860939E-2,3.7460055E-2,1.3693313E-1,2.2112466E-1,-2.244153E-3,1.7362846E-1,-2.4129406E-1,-4.2159714E-2,-1.0530716E-1,1.6330943E-2,2.4115779E-1,2.2343313E-2,-1.5382375E-1,3.777051E-2,1.9188127E-1,9.4228186E-2,2.5693387E-1,1.1618533E-1,-5.7977263E-2,-1.5135276E-2,1.890787E-1,1.8927801E-2,-1.3125946E-1,5.8520555E-2,2.823743E-1,2.5007284E-1,-1.4826338E-1,6.839037E-2,-1.8409461E-1],"split_indices":[7,7,17,12,17,15,21,4,14,4,3,10,22,18,1,13,6,0,4,23,20,5,11,18,17,3,0,10,24,18,0,8,14,3,0,16,0,6,7,1,1,0,24,0,14,16,20,1,20,24,23,1,16,22,22,9,17,15,20,9,20,0,0,0,0,0,0,0,0,0,0,0,0,0,0,0,0,0,0,0,0,0,0,0,0,0,0,0,0,0,0,0,0,0,0,0,0,0,0,0,0,0,0,0,0,0,0,0,0,0,0,0,0],"split_type":[0,0,0,0,0,0,0,0,0,0,0,0,0,0,0,0,0,0,0,0,0,0,0,0,0,0,0,0,0,0,0,0,0,0,0,0,0,0,0,0,0,0,0,0,0,0,0,0,0,0,0,0,0,0,0,0,0,0,0,0,0,0,0,0,0,0,0,0,0,0,0,0,0,0,0,0,0,0,0,0,0,0,0,0,0,0,0,0,0,0,0,0,0,0,0,0,0,0,0,0,0,0,0,0,0,0,0,0,0,0,0,0,0],"sum_hessian":[1.8447922E4,8.338614E3,1.0109307E4,4.931806E1,8.289297E3,9.332814E3,7.764922E2,2.6850315E1,2.2467747E1,8.224742E3,6.4554474E1,8.1516064E3,1.1812081E3,6.1485065E2,1.6164151E2,2.125005E1,5.600266E0,1.3964195E0,2.1071327E1,3.4879622E3,4.73678E3,3.1983004E1,3.2571472E1,7.589279E3,5.623278E2,8.402726E2,3.4093555E2,1.8129044E2,4.335602E2,8.697017E1,7.467134E1,1.137815E1,9.8719E0,3.0179803E0,2.582286E0,1.9504457E1,1.5668694E0,3.462318E3,2.5644045E1,2.9150454E3,1.8217346E3,2.244354E0,2.973865E1,1.3349237E0,3.1236547E1,7.4531514E3,1.3612752E2,4.996951E2,6.263271E1,1.7932451E1,8.2234015E2,2.654729E2,7.546265E1,8.931764E1,9.1972786E1,2.8468573E2,1.4887448E2,8.391803E1,3.0521426E0,1.924328E1,5.542806E1,5.8026056E0,5.575544E0,3.0339603E0,6.8379393E0,1.7479739E0,1.2700065E0,1.7518858E1,1.9855995E0,5.5669464E1,3.4066487E3,3.2033303E0,2.2440714E1,2.8204797E3,9.456569E1,1.5825737E2,1.6634773E3,2.0381393E1,9.357256E0,2.9393581E1,1.8429654E0,7.355562E3,9.758925E1,1.19397026E2,1.6730495E1,3.8900876E2,1.10686356E2,5.443962E1,8.193088E0,1.6891773E1,1.0406793E0,6.1896857E2,2.0337157E2,2.4874399E2,1.6728914E1,4.2835564E1,3.2627087E1,3.4488445E1,5.48292E1,8.644602E0,8.3328186E1,2.600872E2,2.4598562E1,1.3349983E2,1.5374648E1,2.3994308E1,5.992372E1,1.0553945E0,1.9967481E0,1.7962246E1,1.2810351E0,4.1211334E1,1.4216724E1],"tree_param":{"num_deleted":"0","num_feature":"25","num_nodes":"113","size_leaf_vector":"1"}},{"base_weights":[3.6147137E-3,1.3854884E-1,-8.920078E-3,1.9857192E-1,5.888223E-3,-2.1520909E-2,6.874705E-2,1.1938784E-1,3.493146E-1,2.893967E-1,-6.070368E-2,-1.3563567E0,-2.0955727E-2,5.520687E-2,4.5202386E-1,1.7814659E-1,-1.2202595E-1,-3.1191596E-1,3.9391908E-1,5.347389E-1,-1.0019352E-2,-4.709025E-2,-1.4660692E0,-1.1065018E-1,-4.702509E-1,-2.8743299E-2,5.5883244E-2,3.5051972E-1,3.9402608E-2,5.7401764E-1,-1.2119217E-1,1.3800384E-1,6.244429E-1,-2.2527166E-1,3.4406048E-1,-8.031949E-1,3.5364568E-1,5.1597464E-1,2.3063068E-1,-3.24303E-2,7.015083E-1,-3.477012E-1,2.453323E-1,2.072602E-1,-1.22335374E-1,-6.3239443E-1,4.4367682E-2,-3.7204858E-2,8.2759164E-2,-2.646654E-2,1.897027E-1,4.0548262E-1,-5.9825975E-1,1.6170157E-2,2.0204207E-1,-3.7087452E-1,6.1438113E-1,-1.0059205E0,2.9257825E-1,4.7943894E-2,-1.7477636E-1,-7.760108E-2,2.1771316E-1,-8.716747E-2,1.3684505E-1,1.9563545E-1,-1.2764439E-1,2.178787E-2,-3.8741055E-1,1.8682541E-1,-2.2581397E-1,1.7148507E-1,2.5271317E-3,-2.6649453E-2,1.313782E-1,2.2174156E-1,-1.07756704E-1,2.3358086E-1,-1.9454081E-1,-1.8396212E-1,1.643098E-1,1.6421404E-1,-1.3956064E-1,1.7896089E-1,2.4401912E-2,-5.094594E-2,9.172862E-2,-8.132091E-3,-4.2468734E-2,8.753808E-2,-6.59191E-3,-4.086282E-1,-5.1616677E-3,1.6926174E-1,4.493397E-2,1.3673788E-1,-1.9746318E-1,5.785385E-3,-4.2369437E-1,3.1039703E-3,1.0951418E-1,1.9660616E-1,-4.1080573E-1,6.0958557E-2,2.0272543E-1,-4.9100184E-1,1.9708842E-1,1.8173839E-1,-2.1602362E-1],"categories":[],"categories_nodes":[],"categories_segments":[],"categories_sizes":[],"default_left":[0,0,0,0,0,0,0,0,0,0,0,0,0,0,0,0,0,0,0,0,0,0,0,0,0,0,0,0,0,0,0,0,0,0,0,0,0,0,0,0,0,0,0,0,0,0,0,0,0,0,0,0,0,0,0,0,0,0,0,0,0,0,0,0,0,0,0,0,0,0,0,0,0,0,0,0,0,0,0,0,0,0,0,0,0,0,0,0,0,0,0,0,0,0,0,0,0,0,0,0,0,0,0,0,0,0,0,0,0],"id":6,"left_children":[1,3,5,7,9,11,13,15,17,19,21,23,25,27,29,31,33,35,37,39,41,43,45,-1,-1,47,49,51,53,55,57,59,61,63,65,67,69,71,73,75,77,79,81,83,85,-1,-1,87,89,91,93,95,-1,97,99,101,103,105,107,-1,-1,-1,-1,-1,-1,-1,-1,-1,-1,-1,-1,-1,-1,-1,-1,-1,-1,-1,-1,-1,-1,-1,-1,-1,-1,-1,-1,-1,-1,-1,-1,-1,-1,-1,-1,-1,-1,-1,-1,-1,-1,-1,-1,-1,-1,-1,-1,-1,-1],"loss_changes":[3.112729E1,1.2454838E1,1.6481853E1,1.2813454E1,9.236847E0,1.0902921E1,1.2175535E1,1.0059065E1,1.1046692E1,6.841257E0,7.512313E0,6.972666E-1,8.668979E0,1.0589386E1,5.669422E0,1.011652E1,6.7714233E0,8.119584E0,6.8050194E0,4.862296E0,3.7837355E0,7.55641E0,4.2160482E0,0E0,0E0,1.2412034E1,1.4697384E1,1.566503E1,8.149155E0,2.7527275E0,5.740698E0,8.324487E0,4.3652573E0,5.225624E0,6.3514166E0,6.1191244E0,3.705348E0,5.586941E0,9.999808E0,3.4375901E0,4.6245823E0,4.8247857E0,5.622036E0,4.3731527E0,6.2376184E0,0E0,0E0,1.28790455E1,2.0322632E1,1.0196287E1,7.5110474E0,6.3723564E0,0E0,8.431237E0,8.420258E0,4.3153777E0,1.4743195E0,6.2840896E0,3.8971806E0,0E0,0E0,0E0,0E0,0E0,0E0,0E0,0E0,0E0,0E0,0E0,0E0,0E0,0E0,0E0,0E0,0E0,0E0,0E0,0E0,0E0,0E0,0E0,0E0,0E0,0E0,0E0,0E0,0E0,0E0,0E0,0E0,0E0,0E0,0E0,0E0,0E0,0E0,0E0,0E0,0E0,0E0,0E0,0E0,0E0,0E0,0E0,0E0,0E0,0E0],"parents":[2147483647,0,0,1,1,2,2,3,3,4,4,5,5,6,6,7,7,8,8,9,9,10,10,11,11,12,12,13,13,14,14,15,15,16,16,17,17,18,18,19,19,20,20,21,21,22,22,25,25,26,26,27,27,28,28,29,29,30,30,31,31,32,32,33,33,34,34,35,35,36,36,37,37,38,38,39,39,40,40,41,41,42,42,43,43,44,44,47,47,48,48,49,49,50,50,51,51,53,53,54,54,55,55,56,56,57,57,58,58],"right_children":[2,4,6,8,10,12,14,16,18,20,22,24,26,28,30,32,34,36,38,40,42,44,46,-1,-1,48,50,52,54,56,58,60,62,64,66,68,70,72,74,76,78,80,82,84,86,-1,-1,88,90,92,94,96,-1,98,100,102,104,106,108,-1,-1,-1,-1,-1,-1,-1,-1,-1,-1,-1,-1,-1,-1,-1,-1,-1,-1,-1,-1,-1,-1,-1,-1,-1,-1,-1,-1,-1,-1,-1,-1,-1,-1,-1,-1,-1,-1,-1,-1,-1,-1,-1,-1,-1,-1,-1,-1,-1,-1],"split_conditions":[-6.866542E-1,5.1613563E-1,3.8704734E-2,-7.197009E-2,-3.2713947E-1,-2.1111042E0,1.9809936E0,3.4030363E-1,-1.7828149E-1,-7.7562755E-1,2.136377E0,1.10793084E-1,1.4928044E0,-4.2332377E-2,1.6632406E0,1.3640579E0,-7.401606E-1,5.722832E-1,4.0083808E-1,-7.104418E-1,4.3865427E-1,2.9127154E-1,7.1469706E-1,-1.1065018E-1,-4.702509E-1,1.3640579E0,-1.4606518E-1,1.1215959E0,1.5320653E0,-2.7227747E-1,-6.13125E-1,1.4306234E0,-1.3358176E0,4.8798866E0,1.3640579E0,3.8044956E-1,6.540349E-1,2.263693E0,5.1940876E-1,1.5348796E0,2.7852204E0,3.684259E-1,1.4306234E0,4.6980236E-2,2.2894616E0,-6.3239443E-1,4.4367682E-2,1.0242443E0,5.730461E-1,-3.1841677E-1,-4.8674935E-1,2.6671052E0,-5.9825975E-1,4.101085E0,-5.9433218E-2,7.648269E-1,6.485788E-2,1.0330409E0,-1.8311474E-1,4.7943894E-2,-1.7477636E-1,-7.760108E-2,2.1771316E-1,-8.716747E-2,1.3684505E-1,1.9563545E-1,-1.2764439E-1,2.178787E-2,-3.8741055E-1,1.8682541E-1,-2.2581397E-1,1.7148507E-1,2.5271317E-3,-2.6649453E-2,1.313782E-1,2.2174156E-1,-1.07756704E-1,2.3358086E-1,-1.9454081E-1,-1.8396212E-1,1.643098E-1,1.6421404E-1,-1.3956064E-1,1.7896089E-1,2.4401912E-2,-5.094594E-2,9.172862E-2,-8.132091E-3,-4.2468734E-2,8.753808E-2,-6.59191E-3,-4.086282E-1,-5.1616677E-3,1.6926174E-1,4.493397E-2,1.3673788E-1,-1.9746318E-1,5.785385E-3,-4.2369437E-1,3.1039703E-3,1.0951418E-1,1.9660616E-1,-4.1080573E-1,6.0958557E-2,2.0272543E-1,-4.9100184E-1,1.9708842E-1,1.8173839E-1,-2.1602362E-1],"split_indices":[12,23,10,22,18,4,17,24,17,3,16,0,18,4,24,17,3,19,18,1,17,21,19,0,0,17,9,11,0,21,6,15,1,5,17,20,0,21,11,13,15,16,15,16,17,0,0,15,21,11,17,23,0,23,15,18,4,0,12,0,0,0,0,0,0,0,0,0,0,0,0,0,0,0,0,0,0,0,0,0,0,0,0,0,0,0,0,0,0,0,0,0,0,0,0,0,0,0,0,0,0,0,0,0,0,0,0,0,0],"split_type":[0,0,0,0,0,0,0,0,0,0,0,0,0,0,0,0,0,0,0,0,0,0,0,0,0,0,0,0,0,0,0,0,0,0,0,0,0,0,0,0,0,0,0,0,0,0,0,0,0,0,0,0,0,0,0,0,0,0,0,0,0,0,0,0,0,0,0,0,0,0,0,0,0,0,0,0,0,0,0,0,0,0,0,0,0,0,0,0,0,0,0,0,0,0,0,0,0,0,0,0,0,0,0,0,0,0,0,0,0],"sum_hessian":[1.8401854E4,1.5632948E3,1.6838559E4,1.0759692E3,4.873256E2,1.4488625E4,2.349933E3,7.0659296E2,3.693763E2,9.205683E1,3.9526874E2,5.1167564E0,1.4483508E4,2.2708538E3,7.907937E1,5.684882E2,1.381047E2,2.296362E1,3.464127E2,5.0165318E1,4.1891518E1,3.925002E2,2.7685447E0,1.3851727E0,3.731584E0,1.3151263E4,1.3322449E3,1.1427993E2,2.1565737E3,6.520155E1,1.3877816E1,5.227757E2,4.5712555E1,1.1348305E2,2.462166E1,1.3092618E1,9.871001E0,1.9699905E2,1.4941364E2,1.1581866E1,3.858345E1,1.7882158E1,2.400936E1,8.9205414E1,3.032948E2,1.7617584E0,1.0067862E0,1.222427E4,9.269936E2,8.252221E2,5.0702277E2,1.1247056E2,1.8093735E0,1.8879819E3,2.685919E2,2.3356886E0,6.2865864E1,3.9661798E0,9.911636E0,5.0817374E2,1.4601951E1,4.542754E0,4.1169804E1,1.0408439E2,9.398655E0,1.7691936E1,6.9297247E0,4.990502E0,8.102116E0,8.291364E0,1.5796368E0,1.7742221E2,1.9576843E1,5.902399E1,9.038965E1,3.0702097E0,8.511656E0,3.6899445E1,1.6840056E0,1.4035487E1,3.8466704E0,1.7008623E1,7.000736E0,2.0889452E1,6.831596E1,2.7355542E2,2.9739368E1,1.1146926E4,1.0773433E3,3.0882513E2,6.1816846E2,4.676621E0,8.2054553E2,4.7577824E1,4.5944495E2,1.0793688E2,4.5336747E0,1.884859E3,3.1229718E0,1.23922E2,1.4466988E2,1.3213063E0,1.0143821E0,8.724166E0,5.4141697E1,2.8869026E0,1.0792774E0,7.877034E0,2.034602E0],"tree_param":{"num_deleted":"0","num_feature":"25","num_nodes":"109","size_leaf_vector":"1"}},{"base_weights":[2.9701493E-3,1.550541E-5,3.6465293E-1,-3.6470253E-2,2.257595E-2,5.8715228E-2,5.146227E-1,1.6718985E-1,-4.4257406E-2,1.5902761E-2,2.6650438E-1,-3.9711684E-1,2.801473E-1,5.670235E-1,-1.6928247E-1,8.556809E-2,4.233065E-1,-5.9966836E-2,4.3528244E-2,3.0677954E-2,-8.325993E-2,5.089271E-1,8.8902704E-2,9.849464E-3,-9.4120204E-1,4.095712E-1,-4.3553632E-1,4.5699754E-1,8.3627397E-1,2.2593816E-1,-5.5130404E-1,1.6118622E-1,-3.398064E-1,7.085054E-1,1.3305327E-1,-7.850847E-1,-5.8044747E-2,2.7925177E-2,4.8872742E-1,4.1115835E-2,-9.497703E-2,-1.1102239E-1,2.4932136E-1,-9.580115E-2,5.78351E-1,-9.297858E-2,3.7888932E-1,6.835416E-1,-4.1854808E-1,-1.4127018E0,-2.3716718E-2,8.993917E-1,4.6689678E-2,-9.3463135E-1,1.2240291E-1,7.255249E-1,2.8165573E-1,8.920483E-1,1.297287E-1,1.4078085E-1,-9.8909646E-1,-1.1071932E-1,6.423195E-2,-2.8058404E-1,-7.1823657E-3,5.8415726E-2,3.0789262E-1,-3.8243532E-2,3.2093108E-1,-4.5538816E-1,-5.7971172E-2,-1.7099159E-2,-4.0964848E-1,1.2444931E-2,-2.4281542E-1,1.9688307E-1,-5.8609854E-2,7.7939336E-3,4.2475473E-2,5.8008652E-2,-4.4133037E-2,-6.765355E-2,-2.0240303E-2,5.4713182E-2,2.7948296E-1,6.989501E-2,-5.272507E-1,1.8904759E-1,-1.5549071E-2,1.1789358E-1,-6.090087E-2,1.7127103E-1,1.1639839E-2,2.496507E-1,2.8386781E-2,-3.620493E-1,1.2194414E-1,-7.254304E-1,-1.0348833E-1,1.9368336E-1,-2.149632E-1,3.082949E-1,1.4797428E-1,1.9541004E-1,-7.357475E-2,-4.117033E-1,-3.8630567E-2,-9.87942E-2,2.445359E-1,-3.1022823E-1,1.1894577E-1,2.394349E-2,2.779229E-1,1.7322856E-1,-1.1807001E-1,-4.3527046E-1,5.8022883E-2],"categories":[],"categories_nodes":[],"categories_segments":[],"categories_sizes":[],"default_left":[0,0,0,0,0,0,0,0,0,0,0,0,0,0,0,0,0,0,0,0,0,0,0,0,0,0,0,0,0,0,0,0,0,0,0,0,0,0,0,0,0,0,0,0,0,0,0,0,0,0,0,0,0,0,0,0,0,0,0,0,0,0,0,0,0,0,0,0,0,0,0,0,0,0,0,0,0,0,0,0,0,0,0,0,0,0,0,0,0,0,0,0,0,0,0,0,0,0,0,0,0,0,0,0,0,0,0,0,0,0,0,0,0,0,0,0,0],"id":7,"left_children":[1,3,5,7,9,11,13,15,17,19,21,23,25,27,29,31,33,35,37,39,41,43,45,47,49,51,53,55,57,-1,59,61,63,65,67,69,71,73,75,77,79,81,83,85,87,89,91,93,95,97,99,101,103,105,-1,107,109,111,113,-1,115,-1,-1,-1,-1,-1,-1,-1,-1,-1,-1,-1,-1,-1,-1,-1,-1,-1,-1,-1,-1,-1,-1,-1,-1,-1,-1,-1,-1,-1,-1,-1,-1,-1,-1,-1,-1,-1,-1,-1,-1,-1,-1,-1,-1,-1,-1,-1,-1,-1,-1,-1,-1,-1,-1,-1,-1],"loss_changes":[1.9619667E1,1.4991466E1,6.7953568E0,1.1043448E1,1.8314697E1,5.1645947E0,3.6689873E0,5.3254952E0,9.246777E0,1.6053722E1,1.2854538E1,3.7253041E0,3.3538527E0,2.368023E0,3.1868563E0,6.351349E0,5.0158577E0,7.8794823E0,7.0582533E0,1.2510259E1,1.314751E1,5.3652E0,9.219806E0,3.3426445E0,3.0776038E0,5.2100124E0,2.7957556E0,3.0025063E0,8.9806366E-1,0E0,3.2072086E0,4.761965E0,5.5954504E0,4.8465242E0,7.9033E0,6.19246E0,7.690983E0,1.1211446E1,4.0724382E0,1.3385769E1,1.1026409E1,6.527878E0,4.844441E0,7.9939704E0,3.7412872E0,5.8445697E0,4.3738794E0,3.148353E-1,5.104273E0,4.2471704E0,2.0663493E0,1.4528275E-1,3.3421934E0,1.2014008E0,0E0,2.751217E0,6.8823776E0,5.8678246E-1,9.423696E-1,0E0,2.8025212E0,0E0,0E0,0E0,0E0,0E0,0E0,0E0,0E0,0E0,0E0,0E0,0E0,0E0,0E0,0E0,0E0,0E0,0E0,0E0,0E0,0E0,0E0,0E0,0E0,0E0,0E0,0E0,0E0,0E0,0E0,0E0,0E0,0E0,0E0,0E0,0E0,0E0,0E0,0E0,0E0,0E0,0E0,0E0,0E0,0E0,0E0,0E0,0E0,0E0,0E0,0E0,0E0,0E0,0E0,0E0,0E0],"parents":[2147483647,0,0,1,1,2,2,3,3,4,4,5,5,6,6,7,7,8,8,9,9,10,10,11,11,12,12,13,13,14,14,15,15,16,16,17,17,18,18,19,19,20,20,21,21,22,22,23,23,24,24,25,25,26,26,27,27,28,28,30,30,31,31,32,32,33,33,34,34,35,35,36,36,37,37,38,38,39,39,40,40,41,41,42,42,43,43,44,44,45,45,46,46,47,47,48,48,49,49,50,50,51,51,52,52,53,53,55,55,56,56,57,57,58,58,60,60],"right_children":[2,4,6,8,10,12,14,16,18,20,22,24,26,28,30,32,34,36,38,40,42,44,46,48,50,52,54,56,58,-1,60,62,64,66,68,70,72,74,76,78,80,82,84,86,88,90,92,94,96,98,100,102,104,106,-1,108,110,112,114,-1,116,-1,-1,-1,-1,-1,-1,-1,-1,-1,-1,-1,-1,-1,-1,-1,-1,-1,-1,-1,-1,-1,-1,-1,-1,-1,-1,-1,-1,-1,-1,-1,-1,-1,-1,-1,-1,-1,-1,-1,-1,-1,-1,-1,-1,-1,-1,-1,-1,-1,-1,-1,-1,-1,-1,-1,-1],"split_conditions":[3.5622394E0,-3.6390314E-1,-1.3978617E-1,-6.9963044E-1,2.2894616E0,4.33432E0,2.8272421E0,3.4694588E-1,9.256422E-1,1.4183697E0,1.1365951E0,4.041591E0,1.3551931E0,1.6725258E0,-9.81336E-1,1.001772E0,9.9952483E-1,-1.7073513E0,1.5881646E0,1.3514583E0,3.6188325E-1,8.8878465E-1,-8.1782955E-1,-9.529624E-1,-4.2461392E-1,-3.211648E-1,1.5320653E0,3.4030363E-1,3.05614E0,2.2593816E-1,4.041591E0,-5.6811583E-1,-7.748809E-1,-1.2292724E-1,1.6288894E0,2.6871222E-1,2.7852204E0,1.4934857E0,-2.334187E-1,1.05559E0,-2.7227747E-1,-1.137426E-1,1.8567932E0,2.220782E0,1.4901738E0,-2.7099818E-1,2.2433817E0,1.3236085E0,-9.245888E-1,1.0898823E0,1.0301847E-1,6.083242E0,-4.03997E-1,4.8798866E0,1.2240291E-1,-2.0615269E-1,-1.7441261E-1,-1.3295007E0,1.7001442E0,1.4078085E-1,1.0267241E0,-1.1071932E-1,6.423195E-2,-2.8058404E-1,-7.1823657E-3,5.8415726E-2,3.0789262E-1,-3.8243532E-2,3.2093108E-1,-4.5538816E-1,-5.7971172E-2,-1.7099159E-2,-4.0964848E-1,1.2444931E-2,-2.4281542E-1,1.9688307E-1,-5.8609854E-2,7.7939336E-3,4.2475473E-2,5.8008652E-2,-4.4133037E-2,-6.765355E-2,-2.0240303E-2,5.4713182E-2,2.7948296E-1,6.989501E-2,-5.272507E-1,1.8904759E-1,-1.5549071E-2,1.1789358E-1,-6.090087E-2,1.7127103E-1,1.1639839E-2,2.496507E-1,2.8386781E-2,-3.620493E-1,1.2194414E-1,-7.254304E-1,-1.0348833E-1,1.9368336E-1,-2.149632E-1,3.082949E-1,1.4797428E-1,1.9541004E-1,-7.357475E-2,-4.117033E-1,-3.8630567E-2,-9.87942E-2,2.445359E-1,-3.1022823E-1,1.1894577E-1,2.394349E-2,2.779229E-1,1.7322856E-1,-1.1807001E-1,-4.3527046E-1,5.8022883E-2],"split_indices":[7,4,19,8,17,7,21,15,1,21,21,10,1,17,3,24,19,13,22,20,9,15,1,3,19,24,0,24,15,0,10,10,8,0,20,0,15,16,14,17,21,16,18,18,20,5,15,1,3,1,20,14,22,5,0,10,20,1,21,0,0,0,0,0,0,0,0,0,0,0,0,0,0,0,0,0,0,0,0,0,0,0,0,0,0,0,0,0,0,0,0,0,0,0,0,0,0,0,0,0,0,0,0,0,0,0,0,0,0,0,0,0,0,0,0,0,0],"split_type":[0,0,0,0,0,0,0,0,0,0,0,0,0,0,0,0,0,0,0,0,0,0,0,0,0,0,0,0,0,0,0,0,0,0,0,0,0,0,0,0,0,0,0,0,0,0,0,0,0,0,0,0,0,0,0,0,0,0,0,0,0,0,0,0,0,0,0,0,0,0,0,0,0,0,0,0,0,0,0,0,0,0,0,0,0,0,0,0,0,0,0,0,0,0,0,0,0,0,0,0,0,0,0,0,0,0,0,0,0,0,0,0,0,0,0,0,0],"sum_hessian":[1.8358412E4,1.8210646E4,1.4776561E2,6.9577104E3,1.1252937E4,4.9064903E1,9.870071E1,2.5548392E2,6.7022266E3,1.0954323E4,2.9861392E2,1.5782407E1,3.3282494E1,9.183519E1,6.865517E0,1.9475241E2,6.0731506E1,5.6851704E3,1.01705646E3,9.534394E3,1.4199293E3,1.2547605E2,1.7313786E2,9.590658E0,6.191749E0,2.8547668E1,4.734827E0,6.710913E1,2.4726057E1,1.7261702E0,5.139347E0,1.6588448E2,2.8867937E1,2.990564E1,3.0825867E1,1.3952798E1,5.6712173E3,9.83645E2,3.3411457E1,8.803758E3,7.3063605E2,1.3111466E3,1.0878271E2,1.2882346E1,1.12593704E2,1.0681945E2,6.631841E1,3.4965124E0,6.094146E0,3.7333894E0,2.4583595E0,1.1519747E1,1.7027922E1,2.9069266E0,1.8279002E0,2.527063E1,4.1838505E1,2.2673662E1,2.0523956E0,1.5212163E0,3.618131E0,1.4511192E1,1.5137328E2,9.325797E0,1.9542141E1,1.2045164E1,1.7860476E1,2.4793806E1,6.032061E0,5.5346017E0,8.418197E0,5.6677197E3,3.497494E0,9.689067E2,1.4738315E1,2.6870861E1,6.540598E0,7.6521846E3,1.151573E3,1.11460144E2,6.191759E2,3.60182E2,9.509646E2,1.0021702E2,8.565689E0,1.1472239E1,1.4101071E0,1.0404051E2,8.553196E0,1.92452E1,8.757425E1,4.195309E1,2.436532E1,2.4620996E0,1.0344129E0,2.8798168E0,3.214329E0,1.2714682E0,2.4619212E0,1.2850479E0,1.1733117E0,7.5919847E0,3.9277618E0,5.1434326E0,1.1884489E1,1.4282223E0,1.4787045E0,1.7689073E0,2.3501722E1,2.715722E0,3.912278E1,1.055131E0,2.161853E1,1.0503409E0,1.0020547E0,2.4387515E0,1.1793792E0],"tree_param":{"num_deleted":"0","num_feature":"25","num_nodes":"117","size_leaf_vector":"1"}},{"base_weights":[2.471484E-3,2.4943374E-2,-3.304809E-2,-1.6103286E-2,1.0159382E-1,-3.2154113E-2,-1.6017907E0,1.2768753E-2,-1.0674035E-1,4.825723E-2,2.1946359E-1,-5.8866307E-2,1.8116912E-2,-5.941324E-1,-7.675366E-2,-3.019298E-3,1.7495719E-1,-6.0531914E-2,-2.2240576E-1,-3.9289195E-2,8.787305E-2,2.842368E-1,-2.4974216E-3,-2.0754056E-1,-4.103672E-2,-3.9194053E-1,2.0822521E-2,2.1267133E-2,-2.2847262E-1,2.0670247E-1,-7.2931886E-1,-6.7484565E-2,7.6418585E-1,-1.2117918E-1,-3.9592114E-1,1.00682E-1,-9.620942E-2,7.7327475E-2,5.166174E-1,5.495227E-1,1.9501548E-1,4.423788E-1,-5.8407713E-2,-4.1655782E-1,-1.0378461E-1,-3.527551E-2,-4.8692223E-1,-5.1486928E-2,6.661582E-2,3.8694687E-2,1.6412718E-3,-7.9415224E-2,5.0937127E-2,6.441944E-2,-5.1697546E-1,-3.0521142E-1,1.2645465E-1,-2.6144585E-2,4.8891336E-2,3.1195965E-1,1.162233E-2,-2.2270733E-1,-2.826277E-2,3.8369928E-2,-1.3896972E-1,4.5824457E-2,-1.4572527E-1,9.827421E-2,-3.9830223E-2,-1.0963734E-1,2.5865976E-2,2.0722564E-1,1.543012E-2,1.6974443E-1,-2.030023E-1,7.8652985E-2,-1.4425896E-2,-2.3155142E-1,1.6530123E-1,-3.528894E-2,1.349396E-1,-9.9241965E-2,-3.3811674E-1,3.457776E-2,-6.0339216E-2,1.0123182E-3,-3.1604603E-2,-4.8544785E-1,-1.1498659E-1,-4.754275E-2,1.7797504E-2,-9.473049E-2,2.3624258E-2],"categories":[],"categories_nodes":[],"categories_segments":[],"categories_sizes":[],"default_left":[0,0,0,0,0,0,0,0,0,0,0,0,0,0,0,0,0,0,0,0,0,0,0,0,0,0,0,0,0,0,0,0,0,0,0,0,0,0,0,0,0,0,0,0,0,0,0,0,0,0,0,0,0,0,0,0,0,0,0,0,0,0,0,0,0,0,0,0,0,0,0,0,0,0,0,0,0,0,0,0,0,0,0,0,0,0,0,0,0,0,0,0,0],"id":8,"left_children":[1,3,5,7,9,11,13,15,17,19,21,23,25,-1,-1,27,29,31,33,35,37,39,41,43,45,-1,47,49,51,53,55,57,59,61,63,65,67,69,71,73,75,77,79,81,83,85,87,89,91,-1,-1,-1,-1,-1,-1,-1,-1,-1,-1,-1,-1,-1,-1,-1,-1,-1,-1,-1,-1,-1,-1,-1,-1,-1,-1,-1,-1,-1,-1,-1,-1,-1,-1,-1,-1,-1,-1,-1,-1,-1,-1,-1,-1],"loss_changes":[1.4627344E1,3.5316048E1,9.907415E0,1.9132591E1,2.4599556E1,9.532932E0,1.5441084E0,1.4200345E1,9.426863E0,9.354984E0,1.7529972E1,1.2279203E1,8.856864E0,0E0,0E0,2.768042E1,1.4272733E1,7.29622E0,8.801493E0,6.7077384E0,8.354586E0,2.2232445E1,6.9012494E0,1.0716234E1,1.0618704E1,0E0,8.148288E0,7.7646675E0,7.1414204E0,7.7465286E0,6.032913E0,5.6961164E0,2.0883112E0,5.285027E0,6.5889206E0,7.510026E0,9.310926E0,7.1710625E0,3.5606222E0,5.1172714E0,1.1569483E1,4.5110416E0,7.4700694E0,9.6342125E0,7.1212287E0,1.1073622E1,5.5622587E0,1.1323253E1,7.0131245E0,0E0,0E0,0E0,0E0,0E0,0E0,0E0,0E0,0E0,0E0,0E0,0E0,0E0,0E0,0E0,0E0,0E0,0E0,0E0,0E0,0E0,0E0,0E0,0E0,0E0,0E0,0E0,0E0,0E0,0E0,0E0,0E0,0E0,0E0,0E0,0E0,0E0,0E0,0E0,0E0,0E0,0E0,0E0,0E0],"parents":[2147483647,0,0,1,1,2,2,3,3,4,4,5,5,6,6,7,7,8,8,9,9,10,10,11,11,12,12,15,15,16,16,17,17,18,18,19,19,20,20,21,21,22,22,23,23,24,24,26,26,27,27,28,28,29,29,30,30,31,31,32,32,33,33,34,34,35,35,36,36,37,37,38,38,39,39,40,40,41,41,42,42,43,43,44,44,45,45,46,46,47,47,48,48],"right_children":[2,4,6,8,10,12,14,16,18,20,22,24,26,-1,-1,28,30,32,34,36,38,40,42,44,46,-1,48,50,52,54,56,58,60,62,64,66,68,70,72,74,76,78,80,82,84,86,88,90,92,-1,-1,-1,-1,-1,-1,-1,-1,-1,-1,-1,-1,-1,-1,-1,-1,-1,-1,-1,-1,-1,-1,-1,-1,-1,-1,-1,-1,-1,-1,-1,-1,-1,-1,-1,-1,-1,-1,-1,-1,-1,-1,-1,-1],"split_conditions":[5.1613563E-1,1.301864E-1,4.236115E0,-2.0246772E-1,-5.2856013E-2,9.9952483E-1,7.648269E-1,7.648269E-1,-5.54052E-1,-1.1588768E0,7.648269E-1,-5.894078E-1,-1.0927969E0,-5.941324E-1,-7.675366E-2,2.6005685E-1,2.9162722E0,7.9659617E-1,1.23426616E-1,1.0301847E-1,1.5217401E0,2.9127154E-1,-9.7626954E-2,3.684931E-2,1.8163289E0,-3.9194053E-1,-4.016244E-1,-5.5336434E-1,1.4183697E0,3.7436054E0,2.9926012E0,1.0181345E0,2.0148389E-1,-5.959111E-1,-2.4812782E-1,-1.1778271E0,-4.7230208E-1,-8.0673164E-1,1.4306234E0,-2.2187836E-1,1.7015429E0,-1.4052306E0,1.9809936E0,1.4183697E0,-7.703894E-1,8.548206E-1,-1.7441261E-1,2.9127154E-1,-1.3358176E0,3.8694687E-2,1.6412718E-3,-7.9415224E-2,5.0937127E-2,6.441944E-2,-5.1697546E-1,-3.0521142E-1,1.2645465E-1,-2.6144585E-2,4.8891336E-2,3.1195965E-1,1.162233E-2,-2.2270733E-1,-2.826277E-2,3.8369928E-2,-1.3896972E-1,4.5824457E-2,-1.4572527E-1,9.827421E-2,-3.9830223E-2,-1.0963734E-1,2.5865976E-2,2.0722564E-1,1.543012E-2,1.6974443E-1,-2.030023E-1,7.8652985E-2,-1.4425896E-2,-2.3155142E-1,1.6530123E-1,-3.528894E-2,1.349396E-1,-9.9241965E-2,-3.3811674E-1,3.457776E-2,-6.0339216E-2,1.0123182E-3,-3.1604603E-2,-4.8544785E-1,-1.1498659E-1,-4.754275E-2,1.7797504E-2,-9.473049E-2,2.3624258E-2],"split_indices":[23,17,21,11,11,19,18,18,21,0,18,10,4,0,0,22,22,20,0,20,7,21,8,18,1,0,14,12,21,16,9,10,11,16,8,0,10,13,15,9,15,0,17,21,10,21,20,21,1,0,0,0,0,0,0,0,0,0,0,0,0,0,0,0,0,0,0,0,0,0,0,0,0,0,0,0,0,0,0,0,0,0,0,0,0,0,0,0,0,0,0,0,0],"split_type":[0,0,0,0,0,0,0,0,0,0,0,0,0,0,0,0,0,0,0,0,0,0,0,0,0,0,0,0,0,0,0,0,0,0,0,0,0,0,0,0,0,0,0,0,0,0,0,0,0,0,0,0,0,0,0,0,0,0,0,0,0,0,0,0,0,0,0,0,0,0,0,0,0,0,0,0,0,0,0,0,0,0,0,0,0,0,0,0,0,0,0,0,0],"sum_hessian":[1.8323564E4,1.1223304E4,7.100262E3,7.3097104E3,3.913593E3,7.0972383E3,3.0239835E0,5.544419E3,1.7652914E3,2.6953462E3,1.2182467E3,4.6344756E3,2.4627627E3,1.9921303E0,1.0318531E0,5.0534756E3,4.909435E2,1.2624606E3,5.0283075E2,8.3970416E2,1.8556421E3,9.428279E2,2.754189E2,4.951302E2,4.139345E3,4.0379343E0,2.4587249E3,4.562858E3,4.9061752E2,4.7503833E2,1.5905162E1,1.2528171E3,9.643499E0,3.186392E2,1.8419154E2,2.425316E2,5.9717255E2,1.8122477E3,4.3394413E1,2.3598965E2,7.068382E2,2.997741E1,2.454415E2,1.6324895E2,3.3188123E2,4.0876091E3,5.1736164E1,9.533006E2,1.5054242E3,5.826406E2,3.9802173E3,4.4999966E2,4.061786E1,4.7395532E2,1.0830114E0,1.2813841E1,3.0913203E0,1.1548954E3,9.792171E1,6.673901E0,2.9695983E0,1.2155076E1,3.0648413E2,2.0871088E1,1.6332045E2,2.2343367E2,1.909793E1,4.6791557E1,5.50381E2,3.4889324E1,1.7773583E3,3.122201E1,1.2172401E1,2.3342676E2,2.5628948E0,5.537708E2,1.5306737E2,1.9602433E0,2.8017166E1,2.2051328E2,2.4928225E1,1.4697577E2,1.6273178E1,1.02055824E2,2.2982542E2,2.6351206E3,1.4524884E3,3.1153693E0,4.8620796E1,4.8479807E2,4.6850256E2,4.552346E1,1.4599006E3],"tree_param":{"num_deleted":"0","num_feature":"25","num_nodes":"93","size_leaf_vector":"1"}},{"base_weights":[2.0769676E-3,-8.2657184E-4,2.4581127E-1,1.3797883E-3,-2.420626E-1,5.1714313E-1,5.6374647E-2,-1.8395989E-3,1.7320643E-1,-1.4079595E-1,-6.0144013E-1,5.5461866E-1,-3.2936102E-1,3.5880217E-1,-1.19715914E-1,4.6627843E-3,-6.653473E-2,8.143762E-2,5.0608206E-1,-2.646045E-1,1.5454161E-1,-8.8342583E-1,3.7283722E-1,6.217408E-1,-4.1111607E-2,-3.2269353E-1,1.5578814E-1,5.0202864E-1,-2.1735904E-1,-5.6754726E-1,4.6404626E-2,-6.718402E-3,4.8353795E-2,-5.6196816E-2,-6.6840523E-1,1.11530714E-1,-1.088564E0,5.783705E-1,-2.0298299E-1,-1.5236022E-1,-7.0040977E-1,-7.1176016E-1,3.136525E-1,2.3835418E-1,-1.3004944E0,6.717498E-1,-1.6861954E-1,6.840199E-1,-7.754241E-2,-5.4349244E-1,7.4326426E-1,8.1749216E-2,7.356379E-1,3.6516026E-1,-9.29714E-1,-1.3990084E0,6.266814E-3,1.4205955E-1,-8.813736E-1,-3.9294665E-3,4.2904705E-2,6.373328E-2,-1.720631E-3,3.897833E-2,-2.2494294E-2,-3.1089848E-1,5.941508E-3,1.266877E-1,1.2917744E-2,-4.3946186E-1,8.927274E-3,2.8478318E-1,1.2859994E-1,-3.0949247E-1,1.0818264E-1,-4.3356347E-1,-2.3945408E-2,-4.125283E-2,-3.5466856E-1,1.03832476E-1,-3.899377E-1,1.2649318E-2,2.5757357E-1,-3.0664837E-1,1.7296138E-1,-4.5496154E-1,-1.459799E-1,3.3451414E-1,5.063832E-2,1.3448346E-1,2.7460876E-1,-2.1723652E-1,2.5485224E-1,-3.1722796E-1,1.381304E-1,2.548403E-1,6.221195E-2,-9.6896894E-2,2.470925E-1,-6.87135E-2,2.4717553E-1,-1.4180516E-1,2.0669797E-1,8.982734E-2,-4.240847E-1,-5.353099E-1,1.12322755E-1,1.7595613E-1,-1.7961705E-1,1.16992034E-1,-3.953461E-2,-4.6881378E-1,2.2161491E-2],"categories":[],"categories_nodes":[],"categories_segments":[],"categories_sizes":[],"default_left":[0,0,0,0,0,0,0,0,0,0,0,0,0,0,0,0,0,0,0,0,0,0,0,0,0,0,0,0,0,0,0,0,0,0,0,0,0,0,0,0,0,0,0,0,0,0,0,0,0,0,0,0,0,0,0,0,0,0,0,0,0,0,0,0,0,0,0,0,0,0,0,0,0,0,0,0,0,0,0,0,0,0,0,0,0,0,0,0,0,0,0,0,0,0,0,0,0,0,0,0,0,0,0,0,0,0,0,0,0,0,0,0,0],"id":9,"left_children":[1,3,5,7,9,11,13,15,17,19,21,23,25,27,29,31,33,35,37,39,41,43,45,47,49,-1,-1,51,53,55,57,59,61,63,65,67,69,71,73,75,77,79,81,83,85,87,-1,89,91,93,95,97,99,101,103,105,107,109,111,-1,-1,-1,-1,-1,-1,-1,-1,-1,-1,-1,-1,-1,-1,-1,-1,-1,-1,-1,-1,-1,-1,-1,-1,-1,-1,-1,-1,-1,-1,-1,-1,-1,-1,-1,-1,-1,-1,-1,-1,-1,-1,-1,-1,-1,-1,-1,-1,-1,-1,-1,-1,-1,-1],"loss_changes":[1.2940564E1,9.618704E0,1.1035595E1,9.906738E0,5.8759975E0,2.986391E0,6.853478E0,7.39568E0,1.002034E1,4.760957E0,1.01375065E1,3.4246845E0,3.3289433E0,4.01331E0,6.0950184E0,7.944111E0,9.952705E0,9.254077E0,3.756052E0,4.36059E0,5.565989E0,1.3402533E1,2.8134935E0,3.3829498E0,4.1655903E0,0E0,0E0,3.6897812E0,4.5377617E0,1.0575563E1,5.4879055E0,1.2109714E1,2.9304295E1,5.5323057E0,6.8624763E0,5.3819923E0,2.819903E0,3.1845322E0,3.7849572E0,6.8153443E0,4.83484E0,4.381501E0,4.911045E0,4.1826916E0,2.8762894E0,1.3859887E0,0E0,3.424141E0,4.901518E0,3.787219E0,5.9996605E-2,4.701122E0,2.2686987E0,2.0306206E0,3.2980995E0,6.851507E0,5.3008485E0,3.8287764E0,3.8816328E0,0E0,0E0,0E0,0E0,0E0,0E0,0E0,0E0,0E0,0E0,0E0,0E0,0E0,0E0,0E0,0E0,0E0,0E0,0E0,0E0,0E0,0E0,0E0,0E0,0E0,0E0,0E0,0E0,0E0,0E0,0E0,0E0,0E0,0E0,0E0,0E0,0E0,0E0,0E0,0E0,0E0,0E0,0E0,0E0,0E0,0E0,0E0,0E0,0E0,0E0,0E0,0E0,0E0,0E0],"parents":[2147483647,0,0,1,1,2,2,3,3,4,4,5,5,6,6,7,7,8,8,9,9,10,10,11,11,12,12,13,13,14,14,15,15,16,16,17,17,18,18,19,19,20,20,21,21,22,22,23,23,24,24,27,27,28,28,29,29,30,30,31,31,32,32,33,33,34,34,35,35,36,36,37,37,38,38,39,39,40,40,41,41,42,42,43,43,44,44,45,45,47,47,48,48,49,49,50,50,51,51,52,52,53,53,54,54,55,55,56,56,57,57,58,58],"right_children":[2,4,6,8,10,12,14,16,18,20,22,24,26,28,30,32,34,36,38,40,42,44,46,48,50,-1,-1,52,54,56,58,60,62,64,66,68,70,72,74,76,78,80,82,84,86,88,-1,90,92,94,96,98,100,102,104,106,108,110,112,-1,-1,-1,-1,-1,-1,-1,-1,-1,-1,-1,-1,-1,-1,-1,-1,-1,-1,-1,-1,-1,-1,-1,-1,-1,-1,-1,-1,-1,-1,-1,-1,-1,-1,-1,-1,-1,-1,-1,-1,-1,-1,-1,-1,-1,-1,-1,-1,-1,-1,-1,-1,-1,-1],"split_conditions":[2.5979295E0,2.2433817E0,4.0083808E-1,2.040148E0,7.2981745E-1,4.4487367E0,2.4173401E-1,1.3514583E0,1.2541276E0,8.549094E-2,1.6632406E0,1.3514583E0,3.8044956E-1,2.263693E0,-1.2690625E0,7.471221E-1,2.136377E0,1.1277924E0,1.7973781E0,5.9208375E-1,-3.5697065E-2,-2.0085424E-1,1.9809936E0,1.0709414E0,-5.272002E-1,-3.2269353E-1,1.5578814E-1,2.6277117E-3,3.684259E-1,2.6005685E-1,1.9501154E0,1.8567932E0,3.684931E-2,-6.8081784E-1,1.5881646E0,1.8951275E0,-1.7828149E-1,2.497925E0,2.065823E0,-4.9467435E-1,1.001772E0,4.6980236E-2,4.0083808E-1,-5.5937298E-2,1.5320653E0,6.578806E-1,-1.6861954E-1,-1.0830756E0,5.1613563E-1,-1.137426E-1,1.2331256E0,3.4030363E-1,-4.1749826E-1,-1.3610853E0,1.2951638E0,7.1469706E-1,-5.0023544E-1,1.7015429E0,9.9952483E-1,-3.9294665E-3,4.2904705E-2,6.373328E-2,-1.720631E-3,3.897833E-2,-2.2494294E-2,-3.1089848E-1,5.941508E-3,1.266877E-1,1.2917744E-2,-4.3946186E-1,8.927274E-3,2.8478318E-1,1.2859994E-1,-3.0949247E-1,1.0818264E-1,-4.3356347E-1,-2.3945408E-2,-4.125283E-2,-3.5466856E-1,1.03832476E-1,-3.899377E-1,1.2649318E-2,2.5757357E-1,-3.0664837E-1,1.7296138E-1,-4.5496154E-1,-1.459799E-1,3.3451414E-1,5.063832E-2,1.3448346E-1,2.7460876E-1,-2.1723652E-1,2.5485224E-1,-3.1722796E-1,1.381304E-1,2.548403E-1,6.221195E-2,-9.6896894E-2,2.470925E-1,-6.87135E-2,2.4717553E-1,-1.4180516E-1,2.0669797E-1,8.982734E-2,-4.240847E-1,-5.353099E-1,1.12322755E-1,1.7595613E-1,-1.7961705E-1,1.16992034E-1,-3.953461E-2,-4.6881378E-1,2.2161491E-2],"split_indices":[17,15,18,10,1,17,20,20,0,1,24,20,20,21,2,17,16,0,1,22,20,23,17,0,0,0,0,19,16,22,23,18,18,8,22,13,17,10,8,14,24,16,18,5,0,20,0,0,23,16,23,24,4,1,15,19,6,15,19,0,0,0,0,0,0,0,0,0,0,0,0,0,0,0,0,0,0,0,0,0,0,0,0,0,0,0,0,0,0,0,0,0,0,0,0,0,0,0,0,0,0,0,0,0,0,0,0,0,0,0,0,0,0],"split_type":[0,0,0,0,0,0,0,0,0,0,0,0,0,0,0,0,0,0,0,0,0,0,0,0,0,0,0,0,0,0,0,0,0,0,0,0,0,0,0,0,0,0,0,0,0,0,0,0,0,0,0,0,0,0,0,0,0,0,0,0,0,0,0,0,0,0,0,0,0,0,0,0,0,0,0,0,0,0,0,0,0,0,0,0,0,0,0,0,0,0,0,0,0,0,0,0,0,0,0,0,0,0,0,0,0,0,0,0,0,0,0,0,0],"sum_hessian":[1.8284299E4,1.8070031E4,2.142667E2,1.7907244E4,1.6278653E2,8.738066E1,1.2688603E2,1.7578871E4,3.2837286E2,1.2808583E2,3.470069E1,8.4006424E1,3.374235E0,4.6311146E1,8.057489E1,1.5974258E4,1.604614E3,2.583847E2,6.9988144E1,9.032481E1,3.776103E1,2.698396E1,7.716734E0,7.546048E1,8.545946E0,1.6530856E0,1.7211493E0,3.719388E1,9.117269E0,2.1147776E1,5.9427113E1,1.2673699E4,3.3005588E3,1.578593E3,2.6021032E1,2.5278755E2,5.5971627E0,6.368032E1,6.3078256E0,7.2898865E1,1.7425938E1,5.320337E0,3.2440693E1,7.429501E0,1.9554459E1,6.0605083E0,1.6562257E0,6.930951E1,6.150968E0,5.3966045E0,3.149341E0,1.3770222E1,2.3423656E1,5.2838535E0,3.8334146E0,8.04803E0,1.3099746E1,5.4640503E1,4.786612E0,1.21566455E4,5.1705365E2,8.175203E2,2.4830386E3,1.4416858E2,1.4344244E3,1.6626522E1,9.394509E0,4.470848E1,2.0807907E2,3.9560792E0,1.6410832E0,1.6775734E1,4.6904587E1,2.2172656E0,4.09056E0,2.8677254E0,7.003114E1,8.629564E0,8.796373E0,2.0477865E0,3.2725503E0,2.2372063E1,1.0068629E1,1.1437792E0,6.285722E0,1.477042E1,4.784038E0,2.5744426E0,3.4860656E0,3.5783394E1,3.3526115E1,3.7525883E0,2.3983798E0,3.5341165E0,1.8624883E0,2.1400704E0,1.0092708E0,9.274931E0,4.4952908E0,1.8301566E0,2.15935E1,1.34481E0,3.9390435E0,1.1905575E0,2.642857E0,6.6063237E0,1.4417062E0,6.7021556E0,6.39759E0,2.8455303E1,2.6185198E1,2.4226806E0,2.3639312E0],"tree_param":{"num_deleted":"0","num_feature":"25","num_nodes":"113","size_leaf_vector":"1"}},{"base_weights":[1.736368E-3,-1.0085728E-4,2.547718E-1,3.4197746E-4,-9.761406E-1,-2.0901649E-1,3.3440703E-1,1.6567642E-2,-2.5061464E-2,-1.291364E0,6.0046803E-2,2.5414175E-1,-7.5539654E-1,8.4213656E-1,2.3639396E-1,-2.2837237E-4,9.1207765E-2,-4.2288896E-1,-2.1644482E-2,-1.5517153E0,-3.8831888E-4,6.987798E-1,-4.2962733E-1,-9.232079E-1,6.1607398E-2,4.257493E-1,9.5744175E-1,5.9570795E-1,6.812771E-2,3.997592E-4,-5.157718E-1,4.3469362E-2,2.666905E-1,-5.465904E-1,4.455345E-1,1.5630245E-3,-6.902657E-2,-1.7081173E-1,-5.5345285E-1,2.7846357E-1,-2.6410567E-2,-4.0734613E-1,1.4037202E-1,1.3639229E-2,-1.2037793E0,6.620874E-1,-8.3340205E-2,3.0395576E-1,6.556733E-2,-1.8978877E-1,8.936985E-1,2.9151702E-1,-2.5620438E-2,-2.8288967E-4,1.7230567E-1,2.1327764E-2,-5.3305782E-2,1.2891911E-1,3.6225744E-2,-3.139108E-1,-8.3074525E-2,2.545766E-1,-1.2243545E-1,4.8698015E-3,-2.8685743E-2,-6.163076E-2,-1.157901E-2,2.0567311E-1,-1.21468246E-1,-4.4406718E-1,2.9301148E-2,2.4255161E-1,2.4844617E-2,1.7356426E-1,-3.1761572E-1,7.483541E-2,2.8865114E-1,1.8289138E-1,-4.7607634E-2],"categories":[],"categories_nodes":[],"categories_segments":[],"categories_sizes":[],"default_left":[0,0,0,0,0,0,0,0,0,0,0,0,0,0,0,0,0,0,0,0,0,0,0,0,0,0,0,0,0,0,0,0,0,0,0,0,0,0,0,0,0,0,0,0,0,0,0,0,0,0,0,0,0,0,0,0,0,0,0,0,0,0,0,0,0,0,0,0,0,0,0,0,0,0,0,0,0,0,0],"id":10,"left_children":[1,3,5,7,9,11,13,15,17,19,-1,21,23,25,27,29,31,33,35,37,-1,39,41,43,-1,45,47,49,51,53,-1,55,57,59,61,63,65,-1,-1,-1,-1,-1,67,-1,69,71,-1,-1,-1,73,75,-1,77,-1,-1,-1,-1,-1,-1,-1,-1,-1,-1,-1,-1,-1,-1,-1,-1,-1,-1,-1,-1,-1,-1,-1,-1,-1,-1],"loss_changes":[8.488006E0,7.835565E0,4.9308996E0,7.469453E0,3.3068848E0,5.2285147E0,5.409897E0,1.3863341E1,9.5922985E0,2.220768E0,0E0,3.802592E0,1.702312E0,4.4923973E-1,5.755397E0,9.748796E0,1.7005285E1,6.69932E0,7.701925E0,5.3500366E-1,0E0,1.4105814E0,2.9198306E0,2.2750425E0,0E0,1.126903E0,3.212576E-1,7.2960567E0,5.6512194E0,6.956284E0,0E0,9.775389E0,1.0279945E1,6.860467E0,3.1139617E0,6.705345E0,9.550503E0,0E0,0E0,0E0,0E0,0E0,1.4971086E0,0E0,2.4367447E0,3.181659E-1,0E0,0E0,0E0,6.753581E0,7.413826E-1,0E0,5.2660084E0,0E0,0E0,0E0,0E0,0E0,0E0,0E0,0E0,0E0,0E0,0E0,0E0,0E0,0E0,0E0,0E0,0E0,0E0,0E0,0E0,0E0,0E0,0E0,0E0,0E0,0E0],"parents":[2147483647,0,0,1,1,2,2,3,3,4,4,5,5,6,6,7,7,8,8,9,9,11,11,12,12,13,13,14,14,15,15,16,16,17,17,18,18,19,19,21,21,22,22,23,23,25,25,26,26,27,27,28,28,29,29,31,31,32,32,33,33,34,34,35,35,36,36,42,42,44,44,45,45,49,49,50,50,52,52],"right_children":[2,4,6,8,10,12,14,16,18,20,-1,22,24,26,28,30,32,34,36,38,-1,40,42,44,-1,46,48,50,52,54,-1,56,58,60,62,64,66,-1,-1,-1,-1,-1,68,-1,70,72,-1,-1,-1,74,76,-1,78,-1,-1,-1,-1,-1,-1,-1,-1,-1,-1,-1,-1,-1,-1,-1,-1,-1,-1,-1,-1,-1,-1,-1,-1,-1,-1],"split_conditions":[3.5622394E0,4.236115E0,-8.358265E-1,5.1613563E-1,4.799664E0,-9.529624E-1,-3.211648E-1,7.471221E-1,-7.367317E-1,1.0740273E0,6.0046803E-2,1.3551931E0,1.7215683E0,4.041591E0,5.730461E-1,3.7436054E0,2.5010768E-1,1.8567932E0,7.53325E-1,3.4030363E-1,-3.8831888E-4,5.9779367E0,1.4120455E0,1.0330409E0,6.1607398E-2,6.6033125E-1,2.8272421E0,-4.3881395E-1,-6.9112825E-1,3.3127484E0,-5.157718E-1,1.7015429E0,1.1597041E0,-1.3848385E-1,2.6871222E-1,1.4934857E0,-1.137426E-1,-1.7081173E-1,-5.5345285E-1,2.7846357E-1,-2.6410567E-2,-4.0734613E-1,4.7771106E0,1.3639229E-2,5.228437E0,5.722832E-1,-8.3340205E-2,3.0395576E-1,6.556733E-2,4.9039154E0,-1.7441261E-1,2.9151702E-1,4.058577E0,-2.8288967E-4,1.7230567E-1,2.1327764E-2,-5.3305782E-2,1.2891911E-1,3.6225744E-2,-3.139108E-1,-8.3074525E-2,2.545766E-1,-1.2243545E-1,4.8698015E-3,-2.8685743E-2,-6.163076E-2,-1.157901E-2,2.0567311E-1,-1.21468246E-1,-4.4406718E-1,2.9301148E-2,2.4255161E-1,2.4844617E-2,1.7356426E-1,-3.1761572E-1,7.483541E-2,2.8865114E-1,1.8289138E-1,-4.7607634E-2],"split_indices":[7,21,21,23,21,3,24,17,15,20,0,1,0,10,21,16,11,18,15,24,0,13,1,0,0,1,21,1,18,18,0,15,15,9,0,16,16,0,0,0,0,0,13,0,11,19,0,0,0,10,20,0,7,0,0,0,0,0,0,0,0,0,0,0,0,0,0,0,0,0,0,0,0,0,0,0,0,0,0],"split_type":[0,0,0,0,0,0,0,0,0,0,0,0,0,0,0,0,0,0,0,0,0,0,0,0,0,0,0,0,0,0,0,0,0,0,0,0,0,0,0,0,0,0,0,0,0,0,0,0,0,0,0,0,0,0,0,0,0,0,0,0,0,0,0,0,0,0,0,0,0,0,0,0,0,0,0,0,0,0,0],"sum_hessian":[1.825731E4,1.8126695E4,1.3061368E2,1.8119475E4,7.2212586E0,1.890251E1,1.11711174E2,1.1057308E4,7.0621665E3,5.6179433E0,1.6033151E0,1.0519851E1,8.382658E0,1.684714E1,9.486404E1,9.026991E3,2.0303164E3,5.90957E1,7.003071E3,4.5058036E0,1.1121398E0,6.3613014E0,4.1585493E0,7.1694736E0,1.2131844E0,4.6711535E0,1.2175986E1,2.9445707E1,6.541833E1,9.024693E3,2.2978818E0,1.5970907E3,4.3322565E2,5.2051838E1,7.043862E0,4.7013438E3,2.3017273E3,1.7117411E0,2.7940624E0,4.786012E0,1.5752894E0,1.0563058E0,3.1022437E0,1.7984142E0,5.3710594E0,3.5406904E0,1.1304631E0,1.0976632E1,1.1993545E0,8.198291E0,2.1247417E1,5.268867E0,6.014946E1,9.004626E3,2.0067385E1,1.4203606E3,1.7673018E2,2.0370488E2,2.2952077E2,1.7233517E1,3.481832E1,4.7887664E0,2.2550955E0,4.0854744E3,6.158693E2,4.187642E2,1.8829631E3,1.4225389E0,1.6797047E0,4.3167596E0,1.0543001E0,2.5104237E0,1.0302666E0,4.528356E0,3.6699347E0,2.4873402E0,1.8760077E1,9.797382E0,5.0352077E1],"tree_param":{"num_deleted":"0","num_feature":"25","num_nodes":"79","size_leaf_vector":"1"}},{"base_weights":[1.4573786E-3,-8.356697E-4,2.0412609E-1,-1.2485404E-4,-4.765677E-1,4.3295723E-1,5.5707186E-2,-1.5985817E-1,1.8559252E-3,-6.3020784E-1,4.6767583E-1,3.525192E-1,9.662278E-1,-3.859978E-2,4.7663036E-1,-1.595957E0,-1.2850563E-1,5.2525965E-3,-9.03742E-2,4.912073E-1,-7.8734845E-1,2.6767853E-1,-1.5872648E-2,2.5431976E-1,9.166246E-1,4.0343482E-2,3.1514663E-1,7.3192525E-1,-1.0538284E-1,-4.263415E-1,7.186034E-1,-5.915229E-1,-5.5722475E-2,1.7302912E-1,-2.0447417E-1,8.831017E-3,-9.510175E-2,-7.256973E-1,-6.7537226E-2,2.9153866E-1,-1.05652265E-1,-1.3040147E0,-3.4006223E-1,4.154677E-1,-5.024292E-2,2.959129E-1,7.238499E-2,2.9531318E-1,2.9666066E-1,-6.1650836E-1,9.699875E-3,3.2479373E-1,-3.9077452E-1,8.488984E-1,-1.2590231E-1,-1.965418E-2,1.993249E-1,-4.757093E-2,-3.9490974E-1,2.1582812E-2,1.0545368E-3,5.709788E-2,-5.0843503E-2,8.365041E-2,-2.7970833E-1,-1.605487E-2,-2.0611818E-1,-4.5102438E-1,5.599293E-2,1.24133766E-1,-2.7020776E-1,2.697143E-2,1.8181752E-1,4.3017108E-2,-1.9205098E-1,-1.5321523E-1,2.4849169E-1,9.5998645E-2,-2.9545718E-1,-4.756375E-2,1.4097677E-1,2.0095365E-1,-3.3802427E-2,2.928052E-1,1.6653193E-2],"categories":[],"categories_nodes":[],"categories_segments":[],"categories_sizes":[],"default_left":[0,0,0,0,0,0,0,0,0,0,0,0,0,0,0,0,0,0,0,0,0,0,0,0,0,0,0,0,0,0,0,0,0,0,0,0,0,0,0,0,0,0,0,0,0,0,0,0,0,0,0,0,0,0,0,0,0,0,0,0,0,0,0,0,0,0,0,0,0,0,0,0,0,0,0,0,0,0,0,0,0,0,0,0,0],"id":11,"left_children":[1,3,5,7,9,11,13,15,17,19,21,23,25,27,29,31,33,35,37,39,41,-1,-1,43,45,-1,-1,47,49,51,53,-1,-1,55,57,59,61,63,65,-1,-1,67,69,71,73,-1,-1,75,-1,77,79,81,-1,83,-1,-1,-1,-1,-1,-1,-1,-1,-1,-1,-1,-1,-1,-1,-1,-1,-1,-1,-1,-1,-1,-1,-1,-1,-1,-1,-1,-1,-1,-1,-1],"loss_changes":[8.476748E0,6.0992103E0,6.9065294E0,5.6988645E0,4.198547E0,3.096859E0,4.977581E0,9.728406E0,5.5740294E0,4.5401525E0,1.0064354E0,3.7114096E0,5.545931E-1,5.3766565E0,5.319025E0,2.0852861E0,5.0060945E0,6.163249E0,9.120598E0,1.7659681E0,4.422736E0,0E0,0E0,3.0654612E0,2.4125671E-1,0E0,0E0,6.435995E-1,5.6321173E0,4.027334E0,3.0949306E0,0E0,0E0,5.2256207E0,8.661354E0,5.559005E0,1.2576868E1,4.7911997E0,5.272093E0,0E0,0E0,3.079937E0,5.714248E0,2.469442E0,2.6456623E0,0E0,0E0,2.3629508E0,0E0,6.384125E0,6.1956944E0,6.4138085E-1,0E0,1.6502447E0,0E0,0E0,0E0,0E0,0E0,0E0,0E0,0E0,0E0,0E0,0E0,0E0,0E0,0E0,0E0,0E0,0E0,0E0,0E0,0E0,0E0,0E0,0E0,0E0,0E0,0E0,0E0,0E0,0E0,0E0,0E0],"parents":[2147483647,0,0,1,1,2,2,3,3,4,4,5,5,6,6,7,7,8,8,9,9,10,10,11,11,12,12,13,13,14,14,15,15,16,16,17,17,18,18,19,19,20,20,23,23,24,24,27,27,28,28,29,29,30,30,33,33,34,34,35,35,36,36,37,37,38,38,41,41,42,42,43,43,44,44,47,47,49,49,50,50,51,51,53,53],"right_children":[2,4,6,8,10,12,14,16,18,20,22,24,26,28,30,32,34,36,38,40,42,-1,-1,44,46,-1,-1,48,50,52,54,-1,-1,56,58,60,62,64,66,-1,-1,68,70,72,74,-1,-1,76,-1,78,80,82,-1,84,-1,-1,-1,-1,-1,-1,-1,-1,-1,-1,-1,-1,-1,-1,-1,-1,-1,-1,-1,-1,-1,-1,-1,-1,-1,-1,-1,-1,-1,-1,-1],"split_conditions":[2.5979295E0,2.92068E0,4.0083808E-1,-8.662031E-1,1.0772582E0,9.241107E-1,-7.3381566E-2,-2.9769155E-1,1.767605E0,-2.8220004E-1,1.9819187E0,3.1945796E0,-3.8640255E-1,-3.1312814E-1,-5.12912E-1,6.0979587E-1,-1.8311474E-1,2.324709E0,-8.1410223E-1,3.3341606E0,3.8044956E-1,2.6767853E-1,-1.5872648E-2,2.1079218E0,9.9952483E-1,4.0343482E-2,3.1514663E-1,-6.126043E-1,-3.7462217E-1,-6.176402E-1,1.9201915E0,-5.915229E-1,-5.5722475E-2,8.57111E-1,-1.1712794E-2,-6.792492E-1,-4.616561E-1,9.815955E-2,1.4373138E0,2.9153866E-1,-1.05652265E-1,8.57111E-1,-4.198632E-1,-1.2662618E0,4.6980236E-2,2.959129E-1,7.238499E-2,2.6277117E-3,2.9666066E-1,-1.2536283E0,-7.609772E-1,-7.1038646E-1,-3.9077452E-1,3.523333E0,-1.2590231E-1,-1.965418E-2,1.993249E-1,-4.757093E-2,-3.9490974E-1,2.1582812E-2,1.0545368E-3,5.709788E-2,-5.0843503E-2,8.365041E-2,-2.7970833E-1,-1.605487E-2,-2.0611818E-1,-4.5102438E-1,5.599293E-2,1.24133766E-1,-2.7020776E-1,2.697143E-2,1.8181752E-1,4.3017108E-2,-1.9205098E-1,-1.5321523E-1,2.4849169E-1,9.5998645E-2,-2.9545718E-1,-4.756375E-2,1.4097677E-1,2.0095365E-1,-3.3802427E-2,2.928052E-1,1.6653193E-2],"split_indices":[17,15,18,10,0,22,3,9,20,19,21,8,7,20,11,1,12,24,4,4,20,0,0,15,19,0,0,12,4,11,22,0,0,19,11,12,10,0,0,0,0,19,1,0,16,0,0,19,0,0,1,0,0,17,0,0,0,0,0,0,0,0,0,0,0,0,0,0,0,0,0,0,0,0,0,0,0,0,0,0,0,0,0,0,0],"split_type":[0,0,0,0,0,0,0,0,0,0,0,0,0,0,0,0,0,0,0,0,0,0,0,0,0,0,0,0,0,0,0,0,0,0,0,0,0,0,0,0,0,0,0,0,0,0,0,0,0,0,0,0,0,0,0,0,0,0,0,0,0,0,0,0,0,0,0,0,0,0,0,0,0,0,0,0,0,0,0,0,0,0,0,0,0],"sum_hessian":[1.8238822E4,1.8035756E4,2.0306552E2,1.8009848E4,2.5909176E1,7.913644E1,1.23929085E2,2.1962003E2,1.7790227E4,2.2569427E1,3.3397472E0,7.020746E1,8.928975E0,1.01987335E2,2.1941755E1,3.6260436E0,2.1599397E2,1.7159227E4,6.3100073E2,2.5126061E0,2.0056822E1,1.4462408E0,1.8935065E0,6.1033573E1,9.173885E0,1.0601435E0,7.8688316E0,7.34005E0,9.4647285E1,4.476149E0,1.7465605E1,2.5486965E0,1.077347E0,4.3209385E1,1.7278459E2,1.6569312E4,5.8991406E2,2.082668E1,6.101741E2,1.5035627E0,1.0090435E0,8.417855E0,1.16389675E1,3.967623E1,2.135734E1,7.897631E0,1.2762547E0,3.5155585E0,3.8244917E0,1.6593267E1,7.8054016E1,2.7489836E0,1.7271657E0,1.5899828E1,1.5657772E0,2.9671894E1,1.3537493E1,1.6703133E2,5.7532697E0,1.286237E3,1.5283075E4,1.2162115E2,4.682929E2,3.4940257E0,1.7332655E1,5.977326E2,1.2441444E1,7.417134E0,1.0007211E0,5.07581E0,6.5631576E0,1.5193956E1,2.4482277E1,1.66494E1,4.70794E0,1.4159884E0,2.09957E0,4.7211957E0,1.1872071E1,5.763839E1,2.0415627E1,1.2398616E0,1.509122E0,1.3505715E1,2.3941128E0],"tree_param":{"num_deleted":"0","num_feature":"25","num_nodes":"85","size_leaf_vector":"1"}},{"base_weights":[1.1869284E-3,1.2923634E-1,-1.1527693E-3,-1.0669223E-1,2.911421E-1,-2.4363007E-3,2.400478E-1,7.942495E-2,-6.943026E-1,6.9840366E-1,1.6394137E-1,-2.8546725E-3,7.307232E-1,9.088887E-1,1.7299399E-1,5.544045E-1,-3.179255E-2,1.4460954E-2,-1.139389E0,-1.7691515E-1,7.6737463E-1,3.1866303E-1,-2.007281E-1,-9.454913E-1,-2.5564088E-3,2.8316516E-1,2.5260597E-1,6.27161E-2,3.008874E-1,-3.60901E-1,2.0420627E-1,7.2056365E-1,-3.347602E-1,5.2487142E-2,-6.80904E-1,4.7577313E-1,-9.694076E-1,-1.2901243E0,1.9486378E-1,-1.3585663E-1,8.317119E-1,7.05478E-1,7.353107E-2,-7.661464E-2,-9.085339E-1,-3.823728E-2,-3.4976453E-1,-1.5404297E-1,-8.4183237E-4,-1.377001E-1,2.2972937E-1,2.3628494E-1,-3.209777E-1,5.0197914E-2,2.9333568E-1,-3.126664E-2,1.8077952E-1,2.4437748E-1,-3.243885E-1,-1.0468821E-1,2.8653774E-1,-5.3754026E-1,-2.2431094E-2,-4.5655298E-1,-1.3897209E-2,-2.9314557E-1,2.1668419E-1,2.889719E-1,1.0641408E-1,2.3059954E-1,-2.5892746E-1,5.7805657E-2,-2.4014977E-1,-1.712142E-1,6.761119E-2,4.65555E-2,-5.468713E-1,-1.8946451E-1,-2.0487279E-2,3.5416347E-3,-7.936115E-3,1.4609593E-1,2.4833363E-2],"categories":[],"categories_nodes":[],"categories_segments":[],"categories_sizes":[],"default_left":[0,0,0,0,0,0,0,0,0,0,0,0,0,0,0,0,0,0,0,0,0,0,0,0,0,0,0,0,0,0,0,0,0,0,0,0,0,0,0,0,0,0,0,0,0,0,0,0,0,0,0,0,0,0,0,0,0,0,0,0,0,0,0,0,0,0,0,0,0,0,0,0,0,0,0,0,0,0,0,0,0,0,0],"id":12,"left_children":[1,3,5,7,9,11,13,15,17,19,21,23,25,27,29,31,33,35,37,-1,39,41,43,45,47,-1,49,-1,-1,-1,51,53,-1,55,57,59,61,63,-1,65,67,69,71,73,75,-1,-1,77,79,-1,-1,81,-1,-1,-1,-1,-1,-1,-1,-1,-1,-1,-1,-1,-1,-1,-1,-1,-1,-1,-1,-1,-1,-1,-1,-1,-1,-1,-1,-1,-1,-1,-1],"loss_changes":[5.4602637E0,1.2523221E1,5.5418577E0,1.4690795E1,9.9463825E0,5.463496E0,4.092293E0,5.4339314E0,1.0203864E1,4.5317516E0,8.487566E0,5.0009828E0,7.968731E-1,3.4324026E-1,3.9973657E0,6.2178884E0,4.6324234E0,6.5632486E0,6.1904507E0,0E0,2.670824E0,9.924065E0,3.8912315E0,8.6576414E-1,4.620898E0,0E0,1.9939502E0,0E0,0E0,0E0,3.778949E0,2.4476519E0,0E0,6.5539236E0,6.705418E0,4.2169685E0,3.26573E0,5.3022327E0,0E0,3.439339E0,2.2450085E0,4.696741E0,6.977223E0,6.01541E0,6.735773E0,0E0,0E0,8.109792E0,5.69911E0,0E0,0E0,3.2297983E0,0E0,0E0,0E0,0E0,0E0,0E0,0E0,0E0,0E0,0E0,0E0,0E0,0E0,0E0,0E0,0E0,0E0,0E0,0E0,0E0,0E0,0E0,0E0,0E0,0E0,0E0,0E0,0E0,0E0,0E0,0E0],"parents":[2147483647,0,0,1,1,2,2,3,3,4,4,5,5,6,6,7,7,8,8,9,9,10,10,11,11,12,12,13,13,14,14,15,15,16,16,17,17,18,18,20,20,21,21,22,22,23,23,24,24,26,26,30,30,31,31,33,33,34,34,35,35,36,36,37,37,39,39,40,40,41,41,42,42,43,43,44,44,47,47,48,48,51,51],"right_children":[2,4,6,8,10,12,14,16,18,20,22,24,26,28,30,32,34,36,38,-1,40,42,44,46,48,-1,50,-1,-1,-1,52,54,-1,56,58,60,62,64,-1,66,68,70,72,74,76,-1,-1,78,80,-1,-1,82,-1,-1,-1,-1,-1,-1,-1,-1,-1,-1,-1,-1,-1,-1,-1,-1,-1,-1,-1,-1,-1,-1,-1,-1,-1,-1,-1,-1,-1,-1,-1],"split_conditions":[-9.09383E-1,7.648269E-1,4.3008447E0,1.2561376E0,1.0113173E0,5.367473E0,3.066185E0,5.742186E-1,-2.7227747E-1,-1.3610133E0,1.9201915E0,-2.1111042E0,7.424513E-1,-2.9352465E-1,2.7645333E0,9.353117E-1,1.9501154E0,1.7750449E0,3.2864962E0,-1.7691515E-1,2.2994256E0,-1.7828149E-1,7.9659617E-1,1.10793084E-1,-8.607592E-1,2.8316516E-1,1.1277838E0,6.27161E-2,3.008874E-1,-3.60901E-1,1.8567932E0,2.7401203E-1,-3.347602E-1,5.9208375E-1,2.9926012E0,8.505944E-1,1.8591665E0,1.3551959E0,1.9486378E-1,1.1288157E0,4.3865427E-1,1.3514583E0,2.4578228E0,1.4504158E-1,1.001772E0,-3.823728E-2,-3.4976453E-1,8.787566E-2,5.730461E-1,-1.377001E-1,2.2972937E-1,4.5273275E0,-3.209777E-1,5.0197914E-2,2.9333568E-1,-3.126664E-2,1.8077952E-1,2.4437748E-1,-3.243885E-1,-1.0468821E-1,2.8653774E-1,-5.3754026E-1,-2.2431094E-2,-4.5655298E-1,-1.3897209E-2,-2.9314557E-1,2.1668419E-1,2.889719E-1,1.0641408E-1,2.3059954E-1,-2.5892746E-1,5.7805657E-2,-2.4014977E-1,-1.712142E-1,6.761119E-2,4.65555E-2,-5.468713E-1,-1.8946451E-1,-2.0487279E-2,3.5416347E-3,-7.936115E-3,1.4609593E-1,2.4833363E-2],"split_indices":[11,18,11,22,16,14,4,13,21,0,22,4,1,1,5,20,23,13,7,0,6,17,20,0,11,0,1,0,0,0,18,13,0,22,9,16,10,0,0,18,17,20,16,19,24,0,0,7,21,0,0,5,0,0,0,0,0,0,0,0,0,0,0,0,0,0,0,0,0,0,0,0,0,0,0,0,0,0,0,0,0,0,0],"split_type":[0,0,0,0,0,0,0,0,0,0,0,0,0,0,0,0,0,0,0,0,0,0,0,0,0,0,0,0,0,0,0,0,0,0,0,0,0,0,0,0,0,0,0,0,0,0,0,0,0,0,0,0,0,0,0,0,0,0,0,0,0,0,0,0,0,0,0,0,0,0,0,0,0,0,0,0,0,0,0,0,0,0,0],"sum_hessian":[1.822387E4,3.2603528E2,1.7897834E4,1.3282465E2,1.9321063E2,1.7804082E4,9.3753235E1,1.0153098E2,3.1293652E1,4.491492E1,1.4829572E2,1.7794924E4,9.158428E0,7.398718E0,8.6354515E1,1.8507147E1,8.302384E1,1.2444429E1,1.8849224E1,1.8989731E0,4.301595E1,1.0420841E2,4.4087296E1,4.6263924E0,1.7790297E4,5.660583E0,3.4978452E0,1.2584821E0,6.1402354E0,1.0826615E0,8.527185E1,1.7349781E1,1.1573663E0,7.429644E1,8.727403E0,8.823656E0,3.6207728E0,1.7641579E1,1.2076452E0,2.7863753E0,4.0229572E1,3.9693943E1,6.451447E1,3.8452847E1,5.634449E0,1.3168614E0,3.309531E0,1.981088E2,1.7592188E4,1.5097654E0,1.9880798E0,8.3972244E1,1.2996068E0,6.0302753E0,1.1319505E1,5.8455E1,1.5841436E1,1.6246613E0,7.1027412E0,3.343363E0,5.4802933E0,1.3640499E0,2.256723E0,1.4682667E1,2.958911E0,1.3369627E0,1.4494125E0,3.0735243E1,9.49433E0,3.864707E1,1.0468718E0,5.7460556E1,7.0539155E0,1.424907E1,2.4203777E1,2.9883177E0,2.6461313E0,2.9191696E1,1.6891708E2,1.1777123E4,5.815065E3,3.1065287E1,5.290696E1],"tree_param":{"num_deleted":"0","num_feature":"25","num_nodes":"83","size_leaf_vector":"1"}},{"base_weights":[1.0158714E-3,-7.731075E-4,1.658159E-1,2.692138E-3,-7.671858E-2,6.667292E-2,3.97956E-1,2.0963796E-4,1.3109422E-1,-2.4427536E-1,1.5967071E-2,-5.288349E-1,1.8962033E-1,8.2038534E-1,1.6688263E-1,1.908381E-3,-1.7300996E-1,4.9012887E-1,2.2498485E-2,-8.8298124E-1,-1.8458143E-1,1.4776523E-1,-1.3320296E-1,1.9368331E-1,-7.99474E-1,4.568889E-1,3.453533E-2,-1.11955814E-1,9.412178E-1,-1.1166465E-1,5.532897E-1,-2.003268E-3,8.260411E-2,-2.8546095E-1,2.4987221E-1,1.571444E-1,7.499521E-1,-3.0872E-1,1.6809541E-1,-1.0757383E0,2.896935E-1,2.9851478E-1,-2.3415838E-1,-2.2915484E-1,2.0167767E-1,4.3305653E-1,-2.0117813E-1,6.588684E-1,-5.846961E-1,-1.2423707E0,-2.9952351E-2,9.7602166E-2,6.629743E-1,-4.8923835E-2,6.0486317E-1,1.0249993E0,3.1963384E-1,2.2626916E-1,-7.597067E-1,7.3403305E-1,-2.6752892E-1,-5.913215E-3,7.107861E-3,8.2895584E-2,-3.4952322E-3,-4.744397E-2,-2.1538681E-1,-3.0993548E-1,9.7919434E-2,1.9184586E-1,-1.3479797E-2,-1.1467297E-1,2.360932E-1,1.9846018E-1,-1.2525477E-1,6.92282E-2,-1.8136343E-1,-1.672985E-1,-4.4172302E-1,-1.4102477E-1,1.671074E-1,-4.0085387E-1,-4.8416696E-2,8.915089E-2,-2.5638548E-1,-1.1319091E-1,7.3431395E-2,1.6744481E-1,-3.0654088E-1,-2.54114E-1,-3.1337623E-2,-8.814878E-2,2.97786E-1,-4.5913752E-2,-2.2932748E-1,-6.937669E-2,-4.8458838E-1,-2.9025206E-1,2.191851E-1,-1.7752978E-1,1.2869193E-1,-2.3313142E-1,2.2688128E-1,-5.2239966E-2,1.8740767E-1,3.2248592E-1,-1.384086E-1,7.372016E-2,3.2402474E-1,2.0677994E-1,-8.3631985E-2,2.0711668E-1,-4.9090758E-2,-3.9710528E-1,5.132636E-2,2.8367642E-1,4.959057E-2],"categories":[],"categories_nodes":[],"categories_segments":[],"categories_sizes":[],"default_left":[0,0,0,0,0,0,0,0,0,0,0,0,0,0,0,0,0,0,0,0,0,0,0,0,0,0,0,0,0,0,0,0,0,0,0,0,0,0,0,0,0,0,0,0,0,0,0,0,0,0,0,0,0,0,0,0,0,0,0,0,0,0,0,0,0,0,0,0,0,0,0,0,0,0,0,0,0,0,0,0,0,0,0,0,0,0,0,0,0,0,0,0,0,0,0,0,0,0,0,0,0,0,0,0,0,0,0,0,0,0,0,0,0,0,0,0,0],"id":13,"left_children":[1,3,5,7,9,11,13,15,17,19,21,23,25,27,29,31,33,35,37,39,41,43,45,47,49,51,53,-1,55,57,59,61,63,65,67,69,71,73,75,77,-1,79,81,83,85,87,89,91,93,95,97,99,101,103,105,107,109,111,113,115,-1,-1,-1,-1,-1,-1,-1,-1,-1,-1,-1,-1,-1,-1,-1,-1,-1,-1,-1,-1,-1,-1,-1,-1,-1,-1,-1,-1,-1,-1,-1,-1,-1,-1,-1,-1,-1,-1,-1,-1,-1,-1,-1,-1,-1,-1,-1,-1,-1,-1,-1,-1,-1,-1,-1,-1,-1],"loss_changes":[5.369997E0,4.742322E0,4.475229E0,5.4934144E0,1.2215828E1,1.0223478E1,5.5574045E0,4.9756074E0,1.2733713E1,1.0517E1,9.9918375E0,4.833139E0,4.7649803E0,3.2893171E0,4.2556114E0,5.2857175E0,7.8803463E0,6.4453945E0,1.220514E1,9.476095E0,6.235674E0,5.5280337E0,9.26569E0,3.037398E0,5.9612684E0,3.0651312E0,3.5552406E0,0E0,6.505413E-1,5.3126683E0,4.9614863E0,7.2677574E0,1.4138707E1,7.054944E0,3.7763257E0,3.3928452E0,2.075966E0,8.436581E0,8.646912E0,3.6826115E0,0E0,5.1098714E0,1.855274E1,1.1520835E1,5.9941216E0,5.279223E0,1.3253581E1,1.8989141E0,1.3667572E-1,3.829319E0,6.022187E0,4.041474E0,4.1735535E0,5.636579E0,5.2726817E0,4.2561722E-1,1.0070466E0,3.0444307E0,4.5704546E0,1.6731529E0,0E0,0E0,0E0,0E0,0E0,0E0,0E0,0E0,0E0,0E0,0E0,0E0,0E0,0E0,0E0,0E0,0E0,0E0,0E0,0E0,0E0,0E0,0E0,0E0,0E0,0E0,0E0,0E0,0E0,0E0,0E0,0E0,0E0,0E0,0E0,0E0,0E0,0E0,0E0,0E0,0E0,0E0,0E0,0E0,0E0,0E0,0E0,0E0,0E0,0E0,0E0,0E0,0E0,0E0,0E0,0E0,0E0],"parents":[2147483647,0,0,1,1,2,2,3,3,4,4,5,5,6,6,7,7,8,8,9,9,10,10,11,11,12,12,13,13,14,14,15,15,16,16,17,17,18,18,19,19,20,20,21,21,22,22,23,23,24,24,25,25,26,26,28,28,29,29,30,30,31,31,32,32,33,33,34,34,35,35,36,36,37,37,38,38,39,39,41,41,42,42,43,43,44,44,45,45,46,46,47,47,48,48,49,49,50,50,51,51,52,52,53,53,54,54,55,55,56,56,57,57,58,58,59,59],"right_children":[2,4,6,8,10,12,14,16,18,20,22,24,26,28,30,32,34,36,38,40,42,44,46,48,50,52,54,-1,56,58,60,62,64,66,68,70,72,74,76,78,-1,80,82,84,86,88,90,92,94,96,98,100,102,104,106,108,110,112,114,116,-1,-1,-1,-1,-1,-1,-1,-1,-1,-1,-1,-1,-1,-1,-1,-1,-1,-1,-1,-1,-1,-1,-1,-1,-1,-1,-1,-1,-1,-1,-1,-1,-1,-1,-1,-1,-1,-1,-1,-1,-1,-1,-1,-1,-1,-1,-1,-1,-1,-1,-1,-1,-1,-1,-1,-1,-1],"split_conditions":[2.5979295E0,1.9819187E0,8.618161E-1,1.9809936E0,3.684931E-2,-6.20651E-1,-2.0085424E-1,2.4578228E0,3.684931E-2,-5.3617793E-1,-3.563912E-3,-1.316796E0,1.4306234E0,-1.4053037E0,-6.851741E-1,1.8567932E0,2.9487596E0,-1.3271886E-1,2.0770307E-1,5.2914876E-1,-1.3358176E0,-3.211648E-1,-1.7441261E-1,1.001772E0,-7.609772E-1,-3.7462217E-1,1.2561376E0,-1.11955814E-1,5.2914876E-1,6.578806E-1,3.7334383E0,1.301864E-1,1.301864E-1,5.742186E-1,-5.6656635E-1,1.0242443E0,-7.0944166E-1,9.497033E-3,2.5847707E0,-6.6392964E-1,2.896935E-1,-5.959111E-1,-1.2690625E0,-9.125229E-1,-1.3737191E0,3.6725657E0,9.049913E-2,-4.2332377E-2,7.648269E-1,-2.0085424E-1,-6.995015E-1,-2.594044E-1,-4.2461392E-1,5.9996687E-2,1.332763E0,-5.670278E-1,3.2148652E0,1.4504158E-1,2.6005685E-1,1.8659426E-1,-2.6752892E-1,-5.913215E-3,7.107861E-3,8.2895584E-2,-3.4952322E-3,-4.744397E-2,-2.1538681E-1,-3.0993548E-1,9.7919434E-2,1.9184586E-1,-1.3479797E-2,-1.1467297E-1,2.360932E-1,1.9846018E-1,-1.2525477E-1,6.92282E-2,-1.8136343E-1,-1.672985E-1,-4.4172302E-1,-1.4102477E-1,1.671074E-1,-4.0085387E-1,-4.8416696E-2,8.915089E-2,-2.5638548E-1,-1.1319091E-1,7.3431395E-2,1.6744481E-1,-3.0654088E-1,-2.54114E-1,-3.1337623E-2,-8.814878E-2,2.97786E-1,-4.5913752E-2,-2.2932748E-1,-6.937669E-2,-4.8458838E-1,-2.9025206E-1,2.191851E-1,-1.7752978E-1,1.2869193E-1,-2.3313142E-1,2.2688128E-1,-5.2239966E-2,1.8740767E-1,3.2248592E-1,-1.384086E-1,7.372016E-2,3.2402474E-1,2.0677994E-1,-8.3631985E-2,2.0711668E-1,-4.9090758E-2,-3.9710528E-1,5.132636E-2,2.8367642E-1,4.959057E-2],"split_indices":[17,21,8,17,18,6,23,16,18,10,8,0,15,1,1,18,18,7,16,16,1,24,20,24,1,4,22,0,16,20,15,17,17,13,13,15,19,21,18,10,0,16,2,0,1,21,8,4,18,23,9,6,19,10,16,19,17,19,22,0,0,0,0,0,0,0,0,0,0,0,0,0,0,0,0,0,0,0,0,0,0,0,0,0,0,0,0,0,0,0,0,0,0,0,0,0,0,0,0,0,0,0,0,0,0,0,0,0,0,0,0,0,0,0,0,0,0],"split_type":[0,0,0,0,0,0,0,0,0,0,0,0,0,0,0,0,0,0,0,0,0,0,0,0,0,0,0,0,0,0,0,0,0,0,0,0,0,0,0,0,0,0,0,0,0,0,0,0,0,0,0,0,0,0,0,0,0,0,0,0,0,0,0,0,0,0,0,0,0,0,0,0,0,0,0,0,0,0,0,0,0,0,0,0,0,0,0,0,0,0,0,0,0,0,0,0,0,0,0,0,0,0,0,0,0,0,0,0,0,0,0,0,0,0,0,0,0],"sum_hessian":[1.8212826E4,1.8018225E4,1.9460068E2,1.7232887E4,7.853388E2,1.3726459E2,5.7336094E1,1.6907012E4,3.2587515E2,2.7911688E2,5.0622195E2,2.2924793E1,1.1433979E2,1.9371815E1,3.7964283E1,1.6743797E4,1.6321535E2,7.486066E1,2.5101451E2,2.2677982E1,2.5643887E2,2.6876547E2,2.3745648E2,6.3245792E0,1.6600214E1,4.127012E1,7.306967E1,1.5888498E0,1.7782965E1,2.247434E1,1.5489942E1,1.5970611E4,7.7318506E2,1.2918736E2,3.402798E1,3.3514248E1,4.134641E1,7.630588E1,1.7470863E2,2.091523E1,1.7627525E0,2.339994E1,2.3303894E2,3.322534E1,2.3554013E2,2.4874172E1,2.125823E2,4.0548224E0,2.2697566E0,1.0146148E1,6.454067E0,1.5580632E1,2.5689486E1,6.4539474E1,8.530193E0,1.5098825E1,2.6841385E0,1.5199245E1,7.2750936E0,1.4205228E1,1.2847143E0,9.455187E3,6.5154243E3,2.5243796E2,5.2074713E2,1.0086207E2,2.8325298E1,1.2117766E0,3.2816208E1,9.256102E0,2.4258144E1,1.0140438E0,4.0332367E1,7.1813436E0,6.9124535E1,1.6225058E2,1.2458056E1,1.0112959E1,1.0802271E1,5.6834793E0,1.7716461E1,1.3359569E1,2.1967938E2,1.8327618E1,1.4897723E1,1.5779584E1,2.1976054E2,2.3472315E1,1.4018589E0,2.6677656E1,1.8590466E2,1.0830009E0,2.9718215E0,1.2115483E0,1.0582082E0,3.1703732E0,6.9757743E0,2.768837E0,3.6852303E0,4.8029637E0,1.0777668E1,1.1171001E0,2.4572386E1,5.504871E1,9.490766E0,5.914398E0,2.6157951E0,1.3573549E0,1.3741471E1,1.5653782E0,1.1187602E0,6.587371E0,8.611875E0,4.267358E0,3.0077357E0,9.870865E0,4.334363E0],"tree_param":{"num_deleted":"0","num_feature":"25","num_nodes":"117","size_leaf_vector":"1"}},{"base_weights":[1.0127738E-3,7.0046115E-4,7.4672574E-1,1.8910903E-2,-1.1411187E-2,2.7836025E-1,2.2378452E-1,3.346517E-3,1.3388124E-1,-2.4658632E-1,-8.406347E-3,1.9734466E-1,-1.1464455E-1,-1.9490467E-2,4.1073345E-2,3.8737917E-1,6.2391926E-2,-3.0194673E-1,4.9823606E-1,-1.9864159E-2,4.322991E-2,-2.2335747E-2,4.6718878E-1,5.3771645E-2,-1.845091E-1,-4.5938623E-1,4.3856475E-1,-3.9598507E-1,9.884393E-2,-1.170236E0,-2.5859845E-1,-1.435998E-1,7.568083E-1,-3.8669208E-1,-1.5035627E-2,