{"learner":{"attributes":{"scikit_learn":"{\"_estimator_type\": \"classifier\"}"},"feature_names":[],"feature_types":[],"gradient_booster":{"model":{"cats":{"enc":[],"feature_segments":[],"sorted_idx":[]},"gbtree_model_param":{"num_parallel_tree":"1","num_trees":"300"},"iteration_indptr":[0,1,2,3,4,5,6,7,8,9,10,11,12,13,14,15,16,17,18,19,20,21,22,23,24,25,26,27,28,29,30,31,32,33,34,35,36,37,38,39,40,41,42,43,44,45,46,47,48,49,50,51,52,53,54,55,56,57,58,59,60,61,62,63,64,65,66,67,68,69,70,71,72,73,74,75,76,77,78,79,80,81,82,83,84,85,86,87,88,89,90,91,92,93,94,95,96,97,98,99,100,101,102,103,104,105,106,107,108,109,110,111,112,113,114,115,116,117,118,119,120,121,122,123,124,125,126,127,128,129,130,131,132,133,134,135,136,137,138,139,140,141,142,143,144,145,146,147,148,149,150,151,152,153,154,155,156,157,158,159,160,161,162,163,164,165,166,167,168,169,170,171,172,173,174,175,176,177,178,179,180,181,182,183,184,185,186,187,188,189,190,191,192,193,194,195,196,197,198,199,200,201,202,203,204,205,206,207,208,209,210,211,212,213,214,215,216,217,218,219,220,221,222,223,224,225,226,227,228,229,230,231,232,233,234,235,236,237,238,239,240,241,242,243,244,245,246,247,248,249,250,251,252,253,254,255,256,257,258,259,260,261,262,263,264,265,266,267,268,269,270,271,272,273,274,275,276,277,278,279,280,281,282,283,284,285,286,287,288,289,290,291,292,293,294,295,296,297,298,299,300],"tree_info":[0,0,0,0,0,0,0,0,0,0,0,0,0,0,0,0,0,0,0,0,0,0,0,0,0,0,0,0,0,0,0,0,0,0,0,0,0,0,0,0,0,0,0,0,0,0,0,0,0,0,0,0,0,0,0,0,0,0,0,0,0,0,0,0,0,0,0,0,0,0,0,0,0,0,0,0,0,0,0,0,0,0,0,0,0,0,0,0,0,0,0,0,0,0,0,0,0,0,0,0,0,0,0,0,0,0,0,0,0,0,0,0,0,0,0,0,0,0,0,0,0,0,0,0,0,0,0,0,0,0,0,0,0,0,0,0,0,0,0,0,0,0,0,0,0,0,0,0,0,0,0,0,0,0,0,0,0,0,0,0,0,0,0,0,0,0,0,0,0,0,0,0,0,0,0,0,0,0,0,0,0,0,0,0,0,0,0,0,0,0,0,0,0,0,0,0,0,0,0,0,0,0,0,0,0,0,0,0,0,0,0,0,0,0,0,0,0,0,0,0,0,0,0,0,0,0,0,0,0,0,0,0,0,0,0,0,0,0,0,0,0,0,0,0,0,0,0,0,0,0,0,0,0,0,0,0,0,0,0,0,0,0,0,0,0,0,0,0,0,0,0,0,0,0,0,0,0,0,0,0,0,0,0,0,0,0,0,0,0,0,0,0,0,0,0,0,0,0,0,0],"trees":[{"base_weights":[9.903401E-8,-7.15338E-1,3.5134327E-1,-1.2892773E0,-4.8553616E-1,9.561806E-2,7.7258736E-1,-1.0962846E0,-1.5888213E0,-2.507618E-1,-9.442578E-1,3.1457913E-1,-3.121562E-1,1.0244209E0,4.1429585E-1,-1.2813568E0,-6.565369E-1,-1.7985128E0,-1.2109767E0,-4.4842753E-1,3.8131377E-1,-1.2807736E0,-5.937638E-1,1.2101383E-1,8.61594E-1,-7.393993E-1,1.8700209E-2,7.834215E-1,1.3549222E0,-2.0075975E-1,6.902611E-1,-1.113402E0,-1.5392997E0,-8.547506E-1,1.1669763E-2,-2.018622E0,-1.6297733E0,-9.644245E-1,-1.6714079E0,-5.2445203E-1,2.25738E-1,1.0573007E0,2.2291486E-1,-1.5545161E0,-8.133633E-1,-7.362298E-1,1.6878079E-1,5.621448E-2,5.394201E-1,1.2923559E0,6.52783E-1,-1.0118731E0,-3.3236313E-1,-2.4769184E-1,4.4758505E-1,1.2479506E0,6.830628E-1,1.5225011E0,1.1176342E0,5.1148273E-2,-5.656599E-1,4.2394826E-1,9.105927E-1,-3.479591E-1,-1.7611092E-1,-4.7561207E-1,-1.793733E-1,-4.8452735E-2,-3.1422818E-1,-7.2816916E-2,1.7408927E-1,-4.4156143E-1,-6.1262E-1,-5.170584E-1,-3.160582E-1,-3.7040043E-1,-1.4766996E-1,-5.754176E-1,-4.0037054E-1,-1.2273697E-1,-3.0246034E-1,1.7396957E-1,-3.8150062E-3,1.2756352E-1,3.8075027E-1,1.934592E-2,2.149062E-1,-5.413536E-1,-4.3458676E-1,-2.8221327E-1,4.823198E-3,-1.12311564E-1,-2.6623785E-1,-2.327738E-2,1.8750906E-1,3.99507E-2,-1.1940004E-1,3.2768112E-1,8.185272E-2,4.6196172E-1,3.4606683E-1,6.1859682E-2,2.5066635E-1,-4.516318E-1,-2.5692013E-1,-1.3004617E-1,1.2345034E-1,-1.3848796E-1,7.0817326E-4,1.8518396E-1,4.7919635E-2,3.826635E-1,1.1038061E-1,1.8646865E-1,3.0363026E-1,4.9790773E-1,4.2407578E-1,2.6489875E-1,3.9420536E-1,-3.5902463E-2,1.6894045E-1,-2.305481E-1,-1.565616E-3,1.7734692E-1,-8.618791E-3,3.163847E-1,1.5951759E-1],"categories":[],"categories_nodes":[],"categories_segments":[],"categories_sizes":[],"default_left":[0,0,0,0,0,0,0,0,0,0,0,0,0,0,0,0,0,0,0,0,0,0,0,0,0,0,0,0,0,0,0,0,0,0,0,0,0,0,0,0,0,0,0,0,0,0,0,0,0,0,0,0,0,0,0,0,0,0,0,0,0,0,0,0,0,0,0,0,0,0,0,0,0,0,0,0,0,0,0,0,0,0,0,0,0,0,0,0,0,0,0,0,0,0,0,0,0,0,0,0,0,0,0,0,0,0,0,0,0,0,0,0,0,0,0,0,0,0,0,0,0,0,0,0,0,0,0],"id":0,"left_children":[1,3,5,7,9,11,13,15,17,19,21,23,25,27,29,31,33,35,37,39,41,43,45,47,49,51,53,55,57,59,61,63,65,67,69,71,73,75,77,79,81,83,85,87,89,91,93,95,97,99,101,103,105,107,109,111,113,115,117,119,121,123,125,-1,-1,-1,-1,-1,-1,-1,-1,-1,-1,-1,-1,-1,-1,-1,-1,-1,-1,-1,-1,-1,-1,-1,-1,-1,-1,-1,-1,-1,-1,-1,-1,-1,-1,-1,-1,-1,-1,-1,-1,-1,-1,-1,-1,-1,-1,-1,-1,-1,-1,-1,-1,-1,-1,-1,-1,-1,-1,-1,-1,-1,-1,-1,-1],"loss_changes":[5.9442114E3,1.0268408E3,1.7085066E3,1.2698462E2,5.9903394E2,8.814105E2,5.401709E2,1.0963464E2,6.677539E1,4.6020453E2,2.2138245E2,6.799431E2,4.875465E2,2.7912378E2,4.2016882E2,3.9629883E1,5.3535767E1,1.7420532E1,3.3995453E1,1.4390112E2,9.374438E1,1.2156824E2,1.0054935E2,1.2862119E2,1.5013525E2,1.6660632E2,2.2229742E2,9.40957E1,5.722998E1,7.05523E1,9.9859375E1,1.354248E1,1.5261963E1,4.1463425E1,1.3657418E1,4.23584E-2,1.5517517E1,2.576117E1,6.4149475E0,1.4025433E2,2.4075462E1,2.1738281E1,5.564116E1,1.3384399E1,3.7689423E1,4.230182E1,1.649744E1,1.4370952E2,9.346608E1,1.7015686E1,9.226767E1,6.786365E1,4.5693626E1,6.420833E1,3.63152E1,8.287903E0,3.3307495E1,1.0591309E1,2.7279114E1,3.9843555E1,3.5624214E1,5.8705902E1,5.040631E1,0E0,0E0,0E0,0E0,0E0,0E0,0E0,0E0,0E0,0E0,0E0,0E0,0E0,0E0,0E0,0E0,0E0,0E0,0E0,0E0,0E0,0E0,0E0,0E0,0E0,0E0,0E0,0E0,0E0,0E0,0E0,0E0,0E0,0E0,0E0,0E0,0E0,0E0,0E0,0E0,0E0,0E0,0E0,0E0,0E0,0E0,0E0,0E0,0E0,0E0,0E0,0E0,0E0,0E0,0E0,0E0,0E0,0E0,0E0,0E0,0E0,0E0,0E0,0E0],"parents":[2147483647,0,0,1,1,2,2,3,3,4,4,5,5,6,6,7,7,8,8,9,9,10,10,11,11,12,12,13,13,14,14,15,15,16,16,17,17,18,18,19,19,20,20,21,21,22,22,23,23,24,24,25,25,26,26,27,27,28,28,29,29,30,30,31,31,32,32,33,33,34,34,35,35,36,36,37,37,38,38,39,39,40,40,41,41,42,42,43,43,44,44,45,45,46,46,47,47,48,48,49,49,50,50,51,51,52,52,53,53,54,54,55,55,56,56,57,57,58,58,59,59,60,60,61,61,62,62],"right_children":[2,4,6,8,10,12,14,16,18,20,22,24,26,28,30,32,34,36,38,40,42,44,46,48,50,52,54,56,58,60,62,64,66,68,70,72,74,76,78,80,82,84,86,88,90,92,94,96,98,100,102,104,106,108,110,112,114,116,118,120,122,124,126,-1,-1,-1,-1,-1,-1,-1,-1,-1,-1,-1,-1,-1,-1,-1,-1,-1,-1,-1,-1,-1,-1,-1,-1,-1,-1,-1,-1,-1,-1,-1,-1,-1,-1,-1,-1,-1,-1,-1,-1,-1,-1,-1,-1,-1,-1,-1,-1,-1,-1,-1,-1,-1,-1,-1,-1,-1,-1,-1,-1,-1,-1,-1,-1],"split_conditions":[-4.1386446E-1,-7.401606E-1,1.0395329E-1,1.05559E0,7.471221E-1,4.3865427E-1,1.301864E-1,3.684931E-2,1.4183697E0,4.0083808E-1,4.0083808E-1,4.0083808E-1,4.0083808E-1,4.0083808E-1,4.0083808E-1,2.065823E0,1.4183697E0,3.684931E-2,3.010753E0,1.1365951E0,-1.7828149E-1,1.1365951E0,1.7001442E0,5.730461E-1,-1.7828149E-1,8.548206E-1,8.548206E-1,-8.562459E-1,-1.7828149E-1,7.471221E-1,1.1288157E0,1.4183697E0,1.5660832E0,1.301864E-1,7.648269E-1,-1.3737191E0,1.2127428E0,5.1613563E-1,3.684931E-2,1.301864E-1,1.301864E-1,9.497033E-3,1.1365951E0,-3.2713947E-1,2.5454676E0,1.05559E0,-5.273588E-1,-1.7828149E-1,-1.7828149E-1,-4.8674935E-1,9.497033E-3,-3.2713947E-1,2.263693E0,1.1288157E0,1.3640579E0,1.9201915E0,2.9127154E-1,-4.8674935E-1,1.1288157E0,8.548206E-1,1.1365951E0,1.2561376E0,1.05559E0,-3.479591E-1,-1.7611092E-1,-4.7561207E-1,-1.793733E-1,-4.8452735E-2,-3.1422818E-1,-7.2816916E-2,1.7408927E-1,-4.4156143E-1,-6.1262E-1,-5.170584E-1,-3.160582E-1,-3.7040043E-1,-1.4766996E-1,-5.754176E-1,-4.0037054E-1,-1.2273697E-1,-3.0246034E-1,1.7396957E-1,-3.8150062E-3,1.2756352E-1,3.8075027E-1,1.934592E-2,2.149062E-1,-5.413536E-1,-4.3458676E-1,-2.8221327E-1,4.823198E-3,-1.12311564E-1,-2.6623785E-1,-2.327738E-2,1.8750906E-1,3.99507E-2,-1.1940004E-1,3.2768112E-1,8.185272E-2,4.6196172E-1,3.4606683E-1,6.1859682E-2,2.5066635E-1,-4.516318E-1,-2.5692013E-1,-1.3004617E-1,1.2345034E-1,-1.3848796E-1,7.0817326E-4,1.8518396E-1,4.7919635E-2,3.826635E-1,1.1038061E-1,1.8646865E-1,3.0363026E-1,4.9790773E-1,4.2407578E-1,2.6489875E-1,3.9420536E-1,-3.5902463E-2,1.6894045E-1,-2.305481E-1,-1.565616E-3,1.7734692E-1,-8.618791E-3,3.163847E-1,1.5951759E-1],"split_indices":[3,3,3,17,17,17,17,18,21,18,18,18,18,18,18,8,21,18,7,21,17,21,21,21,17,21,21,5,17,17,18,21,15,17,18,1,20,23,18,17,17,21,21,18,21,17,3,17,17,17,21,18,21,18,17,22,21,17,18,21,21,22,17,0,0,0,0,0,0,0,0,0,0,0,0,0,0,0,0,0,0,0,0,0,0,0,0,0,0,0,0,0,0,0,0,0,0,0,0,0,0,0,0,0,0,0,0,0,0,0,0,0,0,0,0,0,0,0,0,0,0,0,0,0,0,0,0],"split_type":[0,0,0,0,0,0,0,0,0,0,0,0,0,0,0,0,0,0,0,0,0,0,0,0,0,0,0,0,0,0,0,0,0,0,0,0,0,0,0,0,0,0,0,0,0,0,0,0,0,0,0,0,0,0,0,0,0,0,0,0,0,0,0,0,0,0,0,0,0,0,0,0,0,0,0,0,0,0,0,0,0,0,0,0,0,0,0,0,0,0,0,0,0,0,0,0,0,0,0,0,0,0,0,0,0,0,0,0,0,0,0,0,0,0,0,0,0,0,0,0,0,0,0,0,0,0,0],"sum_hessian":[2.3649102E4,7.7891934E3,1.5859909E4,2.225731E3,5.5634624E3,9.869591E3,5.9903184E3,1.3564478E3,8.6928326E2,3.6810452E3,1.8824172E3,6.421623E3,3.4479675E3,3.5166797E3,2.4736387E3,9.5331976E2,4.0312796E2,5.566181E2,3.1266516E2,2.804347E3,8.7669824E2,9.590046E2,9.2341266E2,4.7441064E3,1.6775165E3,1.504253E3,1.9437145E3,2.0356603E3,1.4810194E3,7.6621497E2,1.7074236E3,5.8059326E2,3.7272653E2,3.1068784E2,9.244013E1,2.3678516E2,3.1983298E2,2.0564221E2,1.07022934E2,2.520353E3,2.8399387E2,1.6535414E2,7.113441E2,6.033325E2,3.5567206E2,7.78079E2,1.4533368E2,4.1088896E3,6.352169E2,5.4599E2,1.1315265E3,9.00179E2,6.0407404E2,1.19925E3,7.4446436E2,3.596267E2,1.6760334E3,8.648343E2,6.161852E2,4.53797E2,3.12418E2,7.7437146E2,9.330521E2,5.323958E2,4.8197395E1,3.5468338E2,1.8043127E1,6.797069E1,2.4271713E2,6.426319E1,2.8176939E1,1.2358306E1,2.2442685E2,2.7336572E2,4.646723E1,1.2976222E2,7.588E1,5.9072704E1,4.795023E1,2.0366489E3,4.837041E2,1.1369642E2,1.7029745E2,4.2265408E1,1.2308873E2,5.3931647E2,1.7202762E2,1.7474644E2,4.2858606E2,3.0821616E2,4.7455894E1,2.3035883E2,5.4772015E2,9.491179E1,5.042189E1,3.514208E3,5.946817E2,2.0564221E2,4.2957474E2,1.9254242E2,3.5344757E2,3.2922528E2,8.023013E2,2.1355153E2,6.866275E2,5.321487E2,7.192535E1,6.458451E2,5.5340497E2,4.676383E2,2.7682605E2,3.4825708E2,1.1369642E1,1.4145317E3,2.6150177E2,3.7643402E2,4.8840027E2,2.8325238E2,3.3293277E2,3.408421E2,1.1295492E2,2.29123E2,8.329498E1,5.652689E2,2.0910254E2,6.7476355E2,2.582886E2],"tree_param":{"num_deleted":"0","num_feature":"25","num_nodes":"127","size_leaf_vector":"1"}},{"base_weights":[2.9444143E-3,-4.073521E-1,3.3265895E-1,-8.5438186E-1,-2.5144294E-1,1.9703564E-1,7.669733E-1,-7.294549E-1,-1.1746323E0,-9.933561E-2,-5.94762E-1,3.2272255E-1,-2.1659857E-1,9.509862E-1,4.792975E-1,-8.1012505E-1,-1.521306E-1,-1.2843351E0,-7.9396856E-1,-2.929729E-1,2.5491512E-1,-7.8621936E-1,-2.2119546E-1,2.074127E-1,7.083997E-1,-7.5444317E-1,-5.2891176E-2,7.92915E-1,1.2060829E0,-3.423382E-1,6.0246724E-1,-8.828081E-1,-3.6594468E-1,-3.8923955E-1,4.9812344E-1,-1.3545214E0,-8.291698E-1,-1.0197945E0,-3.8806644E-1,-2.3257795E-1,-6.1793816E-1,6.03769E-1,3.8115182E-3,-8.8273495E-1,-1.4228166E-2,-4.8101994E-1,9.5398016E-2,2.850395E-1,-4.314604E-2,1.1287874E0,5.6788313E-1,-8.592469E-1,-5.8587585E-2,-3.7153143E-1,2.3213726E-1,1.0339208E0,7.062552E-1,1.2922438E0,9.898061E-1,-6.828183E-1,-4.0088452E-2,8.6174464E-1,4.355316E-1,-2.1741752E-1,-3.2955527E-1,-1.5777746E-1,9.048154E-2,8.8723394E-4,-2.1779431E-1,4.180363E-2,2.7155414E-1,-4.207894E-1,-2.9291797E-1,-4.154621E-1,-1.8556678E-1,9.33086E-2,-3.2189736E-1,-1.6225715E-1,2.3077525E-1,-1.23806156E-1,-4.1764446E-2,-2.4766582E-1,-2.4044827E-2,3.7017712E-1,1.4780793E-1,-5.231091E-2,1.1389733E-1,-3.262146E-1,-2.1285373E-1,-3.166009E-1,4.0483743E-2,-8.600019E-2,-2.3610929E-1,-4.692124E-2,9.175135E-2,5.176616E-2,1.7426053E-1,-9.182716E-2,8.093054E-2,3.5673335E-1,2.0892958E-1,2.1935675E-1,5.043093E-2,-1.6485567E-1,-2.9661497E-1,-1.1906921E-1,1.438291E-1,-1.4935453E-1,1.00589246E-1,1.07533775E-1,-1.1825916E-2,3.1457135E-1,-1.4436561E-1,1.8543118E-1,2.8757408E-1,3.577602E-1,4.120328E-1,3.5289618E-1,2.0734596E-1,3.1495031E-3,-2.8556302E-1,4.4776246E-2,-1.5754488E-1,2.1219416E-1,3.253594E-1,8.1479825E-2,2.531176E-1],"categories":[],"categories_nodes":[],"categories_segments":[],"categories_sizes":[],"default_left":[0,0,0,0,0,0,0,0,0,0,0,0,0,0,0,0,0,0,0,0,0,0,0,0,0,0,0,0,0,0,0,0,0,0,0,0,0,0,0,0,0,0,0,0,0,0,0,0,0,0,0,0,0,0,0,0,0,0,0,0,0,0,0,0,0,0,0,0,0,0,0,0,0,0,0,0,0,0,0,0,0,0,0,0,0,0,0,0,0,0,0,0,0,0,0,0,0,0,0,0,0,0,0,0,0,0,0,0,0,0,0,0,0,0,0,0,0,0,0,0,0,0,0,0,0,0,0],"id":1,"left_children":[1,3,5,7,9,11,13,15,17,19,21,23,25,27,29,31,33,35,37,39,41,43,45,47,49,51,53,55,57,59,61,63,65,67,69,71,73,75,77,79,81,83,85,87,89,91,93,95,97,99,101,103,105,107,109,111,113,115,117,119,121,123,125,-1,-1,-1,-1,-1,-1,-1,-1,-1,-1,-1,-1,-1,-1,-1,-1,-1,-1,-1,-1,-1,-1,-1,-1,-1,-1,-1,-1,-1,-1,-1,-1,-1,-1,-1,-1,-1,-1,-1,-1,-1,-1,-1,-1,-1,-1,-1,-1,-1,-1,-1,-1,-1,-1,-1,-1,-1,-1,-1,-1,-1,-1,-1,-1],"loss_changes":[3.1521353E3,7.233496E2,7.608179E2,1.0652869E2,4.019724E2,5.1195337E2,1.622633E2,8.992651E1,3.036621E1,3.6611447E2,1.6886487E2,3.3570447E2,2.0205043E2,7.4597534E1,1.2176663E2,5.4439087E1,3.6932365E1,1.746399E1,1.5256699E1,6.7580444E1,1.6524918E2,1.1638623E2,6.603729E1,1.1311708E2,1.0201178E2,3.900351E1,1.5999477E2,2.3492188E1,1.2043335E1,1.6153168E1,4.4852936E1,4.8887695E1,2.5814903E1,2.3137E1,9.236534E0,7.7720947E0,8.54266E0,8.057785E0,1.1495446E1,4.890091E1,6.024872E1,5.4656403E1,7.359243E1,4.8453125E1,2.7262236E1,2.599002E1,1.9253807E1,1.4764056E2,1.1332675E2,1.0499817E1,8.503952E1,1.8117004E1,1.3144366E1,7.442596E1,3.1912346E1,7.265381E0,1.845163E1,2.4749146E0,1.0770264E1,1.3791115E1,7.825636E0,1.3279022E1,4.2442955E1,0E0,0E0,0E0,0E0,0E0,0E0,0E0,0E0,0E0,0E0,0E0,0E0,0E0,0E0,0E0,0E0,0E0,0E0,0E0,0E0,0E0,0E0,0E0,0E0,0E0,0E0,0E0,0E0,0E0,0E0,0E0,0E0,0E0,0E0,0E0,0E0,0E0,0E0,0E0,0E0,0E0,0E0,0E0,0E0,0E0,0E0,0E0,0E0,0E0,0E0,0E0,0E0,0E0,0E0,0E0,0E0,0E0,0E0,0E0,0E0,0E0,0E0,0E0,0E0],"parents":[2147483647,0,0,1,1,2,2,3,3,4,4,5,5,6,6,7,7,8,8,9,9,10,10,11,11,12,12,13,13,14,14,15,15,16,16,17,17,18,18,19,19,20,20,21,21,22,22,23,23,24,24,25,25,26,26,27,27,28,28,29,29,30,30,31,31,32,32,33,33,34,34,35,35,36,36,37,37,38,38,39,39,40,40,41,41,42,42,43,43,44,44,45,45,46,46,47,47,48,48,49,49,50,50,51,51,52,52,53,53,54,54,55,55,56,56,57,57,58,58,59,59,60,60,61,61,62,62],"right_children":[2,4,6,8,10,12,14,16,18,20,22,24,26,28,30,32,34,36,38,40,42,44,46,48,50,52,54,56,58,60,62,64,66,68,70,72,74,76,78,80,82,84,86,88,90,92,94,96,98,100,102,104,106,108,110,112,114,116,118,120,122,124,126,-1,-1,-1,-1,-1,-1,-1,-1,-1,-1,-1,-1,-1,-1,-1,-1,-1,-1,-1,-1,-1,-1,-1,-1,-1,-1,-1,-1,-1,-1,-1,-1,-1,-1,-1,-1,-1,-1,-1,-1,-1,-1,-1,-1,-1,-1,-1,-1,-1,-1,-1,-1,-1,-1,-1,-1,-1,-1,-1,-1,-1,-1,-1,-1],"split_conditions":[-2.7909E-1,-6.8341345E-1,5.650239E-1,1.3640579E0,7.471221E-1,7.471221E-1,1.301864E-1,7.648269E-1,7.648269E-1,3.684931E-2,7.648269E-1,7.648269E-1,3.684931E-2,7.648269E-1,3.684931E-2,1.4183697E0,1.1365951E0,2.263693E0,1.4183697E0,1.301864E-1,1.301864E-1,1.9819187E0,8.548206E-1,1.301864E-1,-1.7828149E-1,1.7001442E0,5.730461E-1,-8.8797617E-1,1.5881646E0,2.9127154E-1,5.9208375E-1,1.2947143E0,1.6632406E0,1.1903555E0,1.1597041E0,2.3788414E0,-9.95173E-1,1.613291E-1,1.6632406E0,-5.273588E-1,8.8878465E-1,-4.8674935E-1,7.53325E-1,3.684931E-2,-1.7441261E-1,9.241107E-1,-5.202654E-1,-3.2713947E-1,4.8240557E-1,1.9201915E0,1.2561376E0,-7.197009E-2,-1.3556077E-1,1.8567932E0,9.241107E-1,3.2482991E0,9.497033E-3,9.497033E-3,-1.7828149E-1,2.8745547E-1,1.05559E0,1.1288157E0,1.8567932E0,-2.1741752E-1,-3.2955527E-1,-1.5777746E-1,9.048154E-2,8.8723394E-4,-2.1779431E-1,4.180363E-2,2.7155414E-1,-4.207894E-1,-2.9291797E-1,-4.154621E-1,-1.8556678E-1,9.33086E-2,-3.2189736E-1,-1.6225715E-1,2.3077525E-1,-1.23806156E-1,-4.1764446E-2,-2.4766582E-1,-2.4044827E-2,3.7017712E-1,1.4780793E-1,-5.231091E-2,1.1389733E-1,-3.262146E-1,-2.1285373E-1,-3.166009E-1,4.0483743E-2,-8.600019E-2,-2.3610929E-1,-4.692124E-2,9.175135E-2,5.176616E-2,1.7426053E-1,-9.182716E-2,8.093054E-2,3.5673335E-1,2.0892958E-1,2.1935675E-1,5.043093E-2,-1.6485567E-1,-2.9661497E-1,-1.1906921E-1,1.438291E-1,-1.4935453E-1,1.00589246E-1,1.07533775E-1,-1.1825916E-2,3.1457135E-1,-1.4436561E-1,1.8543118E-1,2.8757408E-1,3.577602E-1,4.120328E-1,3.5289618E-1,2.0734596E-1,3.1495031E-3,-2.8556302E-1,4.4776246E-2,-1.5754488E-1,2.1219416E-1,3.253594E-1,8.1479825E-2,2.531176E-1],"split_indices":[3,3,3,17,17,17,17,18,18,18,18,18,18,18,18,21,21,21,21,17,17,21,21,17,17,21,21,5,22,21,22,13,24,4,15,15,9,4,24,3,15,17,15,18,20,22,3,18,15,22,22,22,0,18,22,22,21,21,17,19,17,18,18,0,0,0,0,0,0,0,0,0,0,0,0,0,0,0,0,0,0,0,0,0,0,0,0,0,0,0,0,0,0,0,0,0,0,0,0,0,0,0,0,0,0,0,0,0,0,0,0,0,0,0,0,0,0,0,0,0,0,0,0,0,0,0,0],"split_type":[0,0,0,0,0,0,0,0,0,0,0,0,0,0,0,0,0,0,0,0,0,0,0,0,0,0,0,0,0,0,0,0,0,0,0,0,0,0,0,0,0,0,0,0,0,0,0,0,0,0,0,0,0,0,0,0,0,0,0,0,0,0,0,0,0,0,0,0,0,0,0,0,0,0,0,0,0,0,0,0,0,0,0,0,0,0,0,0,0,0,0,0,0,0,0,0,0,0,0,0,0,0,0,0,0,0,0,0,0,0,0,0,0,0,0,0,0,0,0,0,0,0,0,0,0,0,0],"sum_hessian":[2.3298695E4,1.0380712E4,1.2917984E4,2.6831067E3,7.697605E3,9.845107E3,3.0728774E3,1.9325234E3,7.505833E2,5.3351562E3,2.3624487E3,7.550907E3,2.2941997E3,1.8726953E3,1.200182E3,1.6952421E3,2.372814E2,5.80823E2,1.6976035E2,3.449691E3,1.8854653E3,1.5612068E3,8.012419E2,5.814134E3,1.7367734E3,5.345102E2,1.7596895E3,1.1587697E3,7.139257E2,1.5623E2,1.043952E3,1.4560028E3,2.392392E2,1.7417249E2,6.310893E1,5.01514E2,7.9309E1,1.0810379E2,6.1656548E1,2.9104905E3,5.392003E2,7.885467E2,1.0969187E3,1.3875852E3,1.7362161E2,4.3979117E2,3.614507E2,4.4387925E3,1.3753414E3,4.3333096E2,1.3034425E3,4.6434045E2,7.016974E1,8.3071234E2,9.289771E2,3.0357632E2,8.551933E2,5.0697913E2,2.0694661E2,7.287651E1,8.335348E1,4.072564E2,6.366957E2,8.4275116E2,6.1325165E2,1.9316002E2,4.6079185E1,8.091888E1,9.325361E1,3.425716E1,2.8851768E1,4.42504E2,5.900999E1,2.0264856E1,5.904414E1,3.9688306E0,1.04134964E2,5.493642E1,6.7201247E0,9.924703E2,1.9180203E3,3.886327E2,1.5056761E2,1.16651596E2,6.718951E2,7.4450146E2,3.5241724E2,6.3367615E2,7.53909E2,2.09981E1,1.526235E2,2.7015076E2,1.6964041E2,1.646706E2,1.9678012E2,3.2171067E3,1.2216858E3,7.47355E2,6.2798645E2,3.787379E2,5.4593056E1,9.248301E2,3.7861243E2,1.3842737E2,3.259131E2,4.3241467E1,2.6928268E1,7.0501514E2,1.25697205E2,6.3384045E2,2.9513666E2,3.0097406E2,2.6022842E0,6.363353E2,2.1885796E2,2.3459262E2,2.723865E2,1.2558045E2,8.136616E1,2.0643301E1,5.223321E1,6.044946E1,2.290402E1,2.4299348E2,1.6426291E2,4.5545038E2,1.8124527E2],"tree_param":{"num_deleted":"0","num_feature":"25","num_nodes":"127","size_leaf_vector":"1"}},{"base_weights":[3.589073E-3,-2.4471003E-1,3.1171915E-1,-1.0177569E-1,-5.384391E-1,4.400981E-1,3.980773E-2,-1.8606386E-1,3.996797E-1,-8.54608E-1,-3.846612E-1,2.4483769E-1,6.578078E-1,-2.0109394E-1,3.048977E-1,-6.36793E-1,-1.2750234E-1,2.819636E-1,8.562976E-1,-1.1050081E0,-7.195061E-1,-5.3582484E-1,-1.0639733E-1,3.166833E-1,-1.618285E-1,9.3445057E-1,4.9332035E-1,-7.331857E-1,-1.10817194E-1,5.7854587E-1,1.2374184E-1,-7.277069E-1,-1.3003904E-1,-2.1097386E-1,1.8231602E-1,5.5131257E-1,8.372407E-2,1.1779059E0,6.721546E-1,-1.2557117E0,-9.715823E-1,-4.7627646E-1,-9.580526E-1,-6.569449E-1,-2.4185689E-1,1.5288392E-1,-3.0580845E-1,1.789423E-1,5.376171E-1,-3.7521186E-1,2.3960029E-1,1.1264484E0,7.996307E-1,3.6523655E-1,8.2769376E-1,-9.72876E-1,-5.104741E-1,2.9116321E-2,-4.3593976E-1,6.624998E-1,1.3668664E-1,-7.379202E-2,4.041592E-1,-1.9182782E-1,-3.0449897E-1,-1.7367165E-1,1.9949857E-2,-3.9158974E-2,-1.4074104E-1,2.1885239E-1,1.39203705E-2,2.3149084E-1,1.098165E-1,3.8622037E-2,-2.8464183E-1,2.8380278E-1,3.9664567E-1,2.3696303E-1,2.4857385E-2,-1.2028862E-1,-3.7970266E-1,-2.3077767E-1,-3.2355288E-1,-8.6916596E-2,-2.2714026E-1,-3.1091434E-1,-1.4589483E-1,-1.641873E-1,-2.9101732E-1,-1.5225868E-1,-1.9824404E-2,-1.1496638E-2,1.4987206E-1,-1.3376932E-1,1.4900361E-2,4.425048E-2,1.7327996E-1,1.4233226E-1,2.53775E-1,-1.4848718E-1,3.670792E-2,-3.327382E-2,1.4024274E-1,4.0586787E-1,3.1635624E-1,2.0503204E-1,3.1779596E-1,6.028579E-2,1.8408357E-1,2.062594E-1,3.0868047E-1,-1.4861971E-2,-3.0487132E-1,-9.881648E-2,-2.9716387E-1,4.044415E-2,-1.0659694E-1,-2.1414733E-1,-6.813072E-2,1.3045269E-1,2.920216E-1,1.9166266E-3,2.0940831E-1,-6.626951E-2,1.4386666E-1,1.344451E-1,-2.4444108E-1],"categories":[],"categories_nodes":[],"categories_segments":[],"categories_sizes":[],"default_left":[0,0,0,0,0,0,0,0,0,0,0,0,0,0,0,0,0,0,0,0,0,0,0,0,0,0,0,0,0,0,0,0,0,0,0,0,0,0,0,0,0,0,0,0,0,0,0,0,0,0,0,0,0,0,0,0,0,0,0,0,0,0,0,0,0,0,0,0,0,0,0,0,0,0,0,0,0,0,0,0,0,0,0,0,0,0,0,0,0,0,0,0,0,0,0,0,0,0,0,0,0,0,0,0,0,0,0,0,0,0,0,0,0,0,0,0,0,0,0,0,0,0,0,0,0,0,0],"id":2,"left_children":[1,3,5,7,9,11,13,15,17,19,21,23,25,27,29,31,33,35,37,39,41,43,45,47,49,51,53,55,57,59,61,63,65,67,69,71,73,75,77,79,81,83,85,87,89,91,93,95,97,99,101,103,105,107,109,111,113,115,117,119,121,123,125,-1,-1,-1,-1,-1,-1,-1,-1,-1,-1,-1,-1,-1,-1,-1,-1,-1,-1,-1,-1,-1,-1,-1,-1,-1,-1,-1,-1,-1,-1,-1,-1,-1,-1,-1,-1,-1,-1,-1,-1,-1,-1,-1,-1,-1,-1,-1,-1,-1,-1,-1,-1,-1,-1,-1,-1,-1,-1,-1,-1,-1,-1,-1,-1],"loss_changes":[1.7359445E3,5.274597E2,3.5342004E2,3.5735828E2,1.99625E2,2.922068E2,2.075003E2,1.9095174E2,6.515828E1,4.4703064E1,1.1640277E2,1.0603169E2,1.4748596E2,8.169429E1,7.661339E1,3.823401E1,1.6571478E2,5.168474E1,1.394783E1,8.220032E0,5.039679E1,6.3710754E1,5.050191E1,9.3726074E1,4.6797916E1,3.0451538E1,8.711221E1,1.2675903E1,6.628317E1,2.2756287E1,5.165638E1,1.723587E1,1.1310216E1,1.047569E2,1.0112835E2,1.647538E1,2.6116707E1,1.7360306E0,1.1075684E1,1.3409729E0,4.6530304E0,2.2622566E1,1.5809448E1,4.3066895E1,2.4483627E1,2.8185936E1,2.7508198E1,2.373671E1,2.2649475E1,2.1296825E1,1.5216784E1,6.671631E0,2.085019E1,6.0166977E1,1.5215424E1,4.6639023E0,1.0976456E1,4.1465538E1,2.527703E1,3.619066E1,7.280118E0,4.468679E1,2.1029129E1,0E0,0E0,0E0,0E0,0E0,0E0,0E0,0E0,0E0,0E0,0E0,0E0,0E0,0E0,0E0,0E0,0E0,0E0,0E0,0E0,0E0,0E0,0E0,0E0,0E0,0E0,0E0,0E0,0E0,0E0,0E0,0E0,0E0,0E0,0E0,0E0,0E0,0E0,0E0,0E0,0E0,0E0,0E0,0E0,0E0,0E0,0E0,0E0,0E0,0E0,0E0,0E0,0E0,0E0,0E0,0E0,0E0,0E0,0E0,0E0,0E0,0E0,0E0,0E0],"parents":[2147483647,0,0,1,1,2,2,3,3,4,4,5,5,6,6,7,7,8,8,9,9,10,10,11,11,12,12,13,13,14,14,15,15,16,16,17,17,18,18,19,19,20,20,21,21,22,22,23,23,24,24,25,25,26,26,27,27,28,28,29,29,30,30,31,31,32,32,33,33,34,34,35,35,36,36,37,37,38,38,39,39,40,40,41,41,42,42,43,43,44,44,45,45,46,46,47,47,48,48,49,49,50,50,51,51,52,52,53,53,54,54,55,55,56,56,57,57,58,58,59,59,60,60,61,61,62,62],"right_children":[2,4,6,8,10,12,14,16,18,20,22,24,26,28,30,32,34,36,38,40,42,44,46,48,50,52,54,56,58,60,62,64,66,68,70,72,74,76,78,80,82,84,86,88,90,92,94,96,98,100,102,104,106,108,110,112,114,116,118,120,122,124,126,-1,-1,-1,-1,-1,-1,-1,-1,-1,-1,-1,-1,-1,-1,-1,-1,-1,-1,-1,-1,-1,-1,-1,-1,-1,-1,-1,-1,-1,-1,-1,-1,-1,-1,-1,-1,-1,-1,-1,-1,-1,-1,-1,-1,-1,-1,-1,-1,-1,-1,-1,-1,-1,-1,-1,-1,-1,-1,-1,-1,-1,-1,-1,-1],"split_conditions":[-1.7268908E-1,7.471221E-1,4.3865427E-1,7.648269E-1,3.684931E-2,3.684931E-2,7.648269E-1,-7.4589413E-1,1.1365951E0,5.730461E-1,1.1365951E0,-1.7828149E-1,-1.7828149E-1,-3.2713947E-1,5.9208375E-1,8.8878465E-1,5.730461E-1,1.301864E-1,1.301864E-1,-3.2713947E-1,2.7401203E-1,1.1288157E0,1.3640579E0,2.6710135E-1,4.8240557E-1,-4.8674935E-1,4.8240557E-1,5.730461E-1,9.241107E-1,1.6725258E0,5.730461E-1,3.1170921E0,-3.2713947E-1,-1.7828149E-1,-1.7828149E-1,5.9208375E-1,1.6096863E0,5.191651E-1,1.2561376E0,-5.9433218E-2,1.05559E0,2.6005685E-1,1.6632406E0,1.6725258E0,-4.941244E-1,1.2951638E0,1.1288157E0,9.497033E-3,1.923127E0,8.548206E-1,-3.2713947E-1,-7.952172E-1,2.1148618E-1,1.1288157E0,2.9365137E-1,-8.1410223E-1,1.3640579E0,1.3640579E0,2.9127154E-1,7.53325E-1,1.7001442E0,2.220782E0,2.5979295E0,-1.9182782E-1,-3.0449897E-1,-1.7367165E-1,1.9949857E-2,-3.9158974E-2,-1.4074104E-1,2.1885239E-1,1.39203705E-2,2.3149084E-1,1.098165E-1,3.8622037E-2,-2.8464183E-1,2.8380278E-1,3.9664567E-1,2.3696303E-1,2.4857385E-2,-1.2028862E-1,-3.7970266E-1,-2.3077767E-1,-3.2355288E-1,-8.6916596E-2,-2.2714026E-1,-3.1091434E-1,-1.4589483E-1,-1.641873E-1,-2.9101732E-1,-1.5225868E-1,-1.9824404E-2,-1.1496638E-2,1.4987206E-1,-1.3376932E-1,1.4900361E-2,4.425048E-2,1.7327996E-1,1.4233226E-1,2.53775E-1,-1.4848718E-1,3.670792E-2,-3.327382E-2,1.4024274E-1,4.0586787E-1,3.1635624E-1,2.0503204E-1,3.1779596E-1,6.028579E-2,1.8408357E-1,2.062594E-1,3.0868047E-1,-1.4861971E-2,-3.0487132E-1,-9.881648E-2,-2.9716387E-1,4.044415E-2,-1.0659694E-1,-2.1414733E-1,-6.813072E-2,1.3045269E-1,2.920216E-1,1.9166266E-3,2.0940831E-1,-6.626951E-2,1.4386666E-1,1.344451E-1,-2.4444108E-1],"split_indices":[3,17,17,18,18,18,18,12,21,21,21,17,17,18,22,15,21,17,17,18,13,18,17,3,15,17,15,21,22,17,21,5,18,17,17,22,14,20,22,15,17,22,24,17,12,15,18,21,6,21,18,17,15,18,9,4,17,17,21,15,21,18,17,0,0,0,0,0,0,0,0,0,0,0,0,0,0,0,0,0,0,0,0,0,0,0,0,0,0,0,0,0,0,0,0,0,0,0,0,0,0,0,0,0,0,0,0,0,0,0,0,0,0,0,0,0,0,0,0,0,0,0,0,0,0,0,0],"split_type":[0,0,0,0,0,0,0,0,0,0,0,0,0,0,0,0,0,0,0,0,0,0,0,0,0,0,0,0,0,0,0,0,0,0,0,0,0,0,0,0,0,0,0,0,0,0,0,0,0,0,0,0,0,0,0,0,0,0,0,0,0,0,0,0,0,0,0,0,0,0,0,0,0,0,0,0,0,0,0,0,0,0,0,0,0,0,0,0,0,0,0,0,0,0,0,0,0,0,0,0,0,0,0,0,0,0,0,0,0,0,0,0,0,0,0,0,0,0,0,0,0,0,0,0,0,0,0],"sum_hessian":[2.2687588E4,1.2563668E4,1.0123919E4,8.452071E3,4.111597E3,6.876611E3,3.2473083E3,7.2363613E3,1.21571E3,1.3439224E3,2.7676746E3,3.6263335E3,3.250277E3,1.7013975E3,1.5459109E3,8.309482E2,6.4054136E3,9.6782275E2,2.4788718E2,4.6847122E2,8.754511E2,1.7928202E3,9.7485443E2,3.08205E3,5.442835E2,1.2102094E3,2.0400679E3,2.4576071E2,1.4556367E3,6.1488776E2,9.3102313E2,7.0417926E2,1.26768936E2,5.046185E3,1.3592283E3,4.0956448E2,5.5825824E2,8.829031E1,1.5959688E2,2.16042E2,2.5242921E2,4.3495438E2,4.4049673E2,1.2688121E3,5.240081E2,4.2390796E2,5.509465E2,1.8995729E3,1.182477E3,3.5542123E2,1.8886229E2,4.9620517E2,7.1400415E2,1.4765562E3,5.6351166E2,1.16746056E2,1.2901465E2,1.01827795E3,4.3735876E2,5.162922E2,9.8595604E1,5.4667017E2,3.8435297E2,5.411237E2,1.6305554E2,3.80112E1,8.875774E1,3.8484941E3,1.1976909E3,2.695708E2,1.0896575E3,1.8563132E2,2.2393318E2,5.3577496E2,2.2483294E1,3.6756783E1,5.1533527E1,1.327395E2,2.6857374E1,2.964591E0,2.1307741E2,9.011373E1,1.6231548E2,2.6257526E2,1.7237914E2,3.7674408E2,6.3752644E1,9.417529E2,3.270592E2,2.0789798E2,3.161101E2,2.7379446E2,1.501135E2,3.950194E2,1.559271E2,1.7619818E3,1.3759116E2,9.834823E2,1.9899478E2,2.8648187E2,6.893938E1,7.461083E1,1.1425145E2,1.1532552E2,3.8087967E2,4.9580283E2,2.1820131E2,8.8981274E2,5.8674347E2,3.347665E2,2.2874516E2,5.3328023E0,1.1141325E2,9.490288E1,3.4111774E1,7.991967E2,2.1908125E2,1.8661961E2,2.5073915E2,2.9943353E2,2.1685863E2,8.0842026E1,1.7753582E1,4.3233548E2,1.1433471E2,3.7157556E2,1.2777426E1],"tree_param":{"num_deleted":"0","num_feature":"25","num_nodes":"127","size_leaf_vector":"1"}},{"base_weights":[3.6864635E-3,-3.326778E-1,1.3444038E-1,-6.6158456E-1,-2.5615343E-1,5.67018E-2,4.612518E-1,-9.133998E-1,-5.568524E-1,-1.3031496E-1,-4.0363723E-1,1.115713E-1,-2.3210852E-1,3.4296635E-1,6.9090915E-1,-9.63518E-1,-3.2802054E-1,-6.13549E-1,-6.168016E-2,-2.5888455E-1,2.154372E-1,-6.342332E-1,-2.5526005E-1,1.2113162E-2,2.993114E-1,-3.411296E-1,1.49548E-1,4.0377054E-1,-1.5047802E-1,5.687846E-1,8.641757E-1,-6.486465E-1,-1.1033125E0,8.4666497E-1,-5.974123E-1,-4.3528724E-1,-7.5922924E-1,-4.3896413E-1,3.6273915E-1,-1.4919086E-1,-3.283209E-1,5.338533E-1,7.039782E-2,-7.2357607E-1,-2.1242106E-1,-7.296246E-1,-1.6177495E-1,7.544198E-2,-1.947844E-1,7.0692056E-1,2.1617346E-1,-4.306374E-1,4.8508424E-2,-6.48373E-2,4.6550202E-1,3.161445E-1,6.7604387E-1,1.1910113E-1,-5.424101E-1,6.3499224E-1,5.6475226E-2,1.0194361E0,6.7525345E-1,1.9035456E-1,-2.1476246E-1,-3.409748E-1,-1.812516E-1,-9.736844E-2,3.5958853E-1,-9.6098654E-2,-3.509267E-1,-1.5660897E-1,1.1869263E-1,-2.4213639E-1,5.384141E-2,-2.2853425E-1,-4.448425E-2,-2.6201078E-1,1.5815896E-1,-1.603061E-1,-3.270822E-2,-1.091745E-1,2.6444968E-2,-1.12071596E-1,1.9119298E-1,1.3988678E-1,-2.1097595E-2,-2.3861043E-1,-1.08091645E-1,-1.1340882E-1,9.763816E-2,-3.0981737E-1,-1.825098E-1,-1.01787426E-1,1.3777701E-2,1.2611841E-2,1.3674192E-1,-1.5922871E-1,-2.6085446E-2,2.8103745E-1,1.7119253E-1,-3.1163657E-2,1.0335977E-1,-1.9672328E-1,-9.349966E-2,6.0517013E-2,-1.3107811E-1,-6.3586704E-2,4.394625E-2,1.698831E-1,-5.8448795E-2,1.08458355E-1,-1.005086E-1,2.1551982E-1,-1.1989931E-1,-9.0874076E-2,9.1915585E-2,-2.3542581E-1,8.088168E-3,1.9565126E-1,-2.2871646E-1,6.0930494E-2,-1.4918943E-1,3.498456E-1,2.6469934E-1,1.4522468E-1,2.4993129E-1],"categories":[],"categories_nodes":[],"categories_segments":[],"categories_sizes":[],"default_left":[0,0,0,0,0,0,0,0,0,0,0,0,0,0,0,0,0,0,0,0,0,0,0,0,0,0,0,0,0,0,0,0,0,0,0,0,0,0,0,0,0,0,0,0,0,0,0,0,0,0,0,0,0,0,0,0,0,0,0,0,0,0,0,0,0,0,0,0,0,0,0,0,0,0,0,0,0,0,0,0,0,0,0,0,0,0,0,0,0,0,0,0,0,0,0,0,0,0,0,0,0,0,0,0,0,0,0,0,0,0,0,0,0,0,0,0,0,0,0,0,0,0,0,0,0,0,0],"id":3,"left_children":[1,3,5,7,9,11,13,15,17,19,21,23,25,27,29,31,33,35,37,39,41,43,45,47,49,51,53,55,57,59,61,63,65,67,69,71,73,75,77,79,81,83,85,87,89,91,93,95,97,99,101,103,105,107,109,111,113,115,117,119,121,123,125,-1,-1,-1,-1,-1,-1,-1,-1,-1,-1,-1,-1,-1,-1,-1,-1,-1,-1,-1,-1,-1,-1,-1,-1,-1,-1,-1,-1,-1,-1,-1,-1,-1,-1,-1,-1,-1,-1,-1,-1,-1,-1,-1,-1,-1,-1,-1,-1,-1,-1,-1,-1,-1,-1,-1,-1,-1,-1,-1,-1,-1,-1,-1,-1],"loss_changes":[9.696183E2,1.5515399E2,4.032965E2,3.0193878E1,9.289096E1,2.0327377E2,8.262872E1,9.670563E0,2.3116959E1,1.20246605E2,7.871121E1,2.0126015E2,8.5265076E1,6.0530136E1,2.143103E1,1.3063324E1,9.480803E0,1.8884491E1,1.3905125E1,1.496611E1,3.383417E1,3.3834167E1,6.2158722E1,9.234931E1,1.2633981E2,5.558699E1,3.0899313E1,4.2601776E1,2.3502487E1,2.0675903E1,1.1819E1,8.9663925E0,2.8897095E0,2.740592E0,3.3769722E0,2.4358936E1,1.8389175E1,4.1939907E0,8.78422E0,1.1791092E1,1.7914902E1,2.1771667E1,2.8169737E1,1.9112213E1,1.4290872E1,7.8585205E0,4.3316986E1,6.8541084E1,5.9797356E1,1.92612E1,1.2746159E2,3.4497147E1,2.2291714E1,8.499319E0,1.2377636E1,4.02984E1,2.0154709E1,1.0545414E1,1.2519701E1,1.3475464E1,5.864435E0,3.6397095E0,5.4905777E0,0E0,0E0,0E0,0E0,0E0,0E0,0E0,0E0,0E0,0E0,0E0,0E0,0E0,0E0,0E0,0E0,0E0,0E0,0E0,0E0,0E0,0E0,0E0,0E0,0E0,0E0,0E0,0E0,0E0,0E0,0E0,0E0,0E0,0E0,0E0,0E0,0E0,0E0,0E0,0E0,0E0,0E0,0E0,0E0,0E0,0E0,0E0,0E0,0E0,0E0,0E0,0E0,0E0,0E0,0E0,0E0,0E0,0E0,0E0,0E0,0E0,0E0,0E0,0E0],"parents":[2147483647,0,0,1,1,2,2,3,3,4,4,5,5,6,6,7,7,8,8,9,9,10,10,11,11,12,12,13,13,14,14,15,15,16,16,17,17,18,18,19,19,20,20,21,21,22,22,23,23,24,24,25,25,26,26,27,27,28,28,29,29,30,30,31,31,32,32,33,33,34,34,35,35,36,36,37,37,38,38,39,39,40,40,41,41,42,42,43,43,44,44,45,45,46,46,47,47,48,48,49,49,50,50,51,51,52,52,53,53,54,54,55,55,56,56,57,57,58,58,59,59,60,60,61,61,62,62],"right_children":[2,4,6,8,10,12,14,16,18,20,22,24,26,28,30,32,34,36,38,40,42,44,46,48,50,52,54,56,58,60,62,64,66,68,70,72,74,76,78,80,82,84,86,88,90,92,94,96,98,100,102,104,106,108,110,112,114,116,118,120,122,124,126,-1,-1,-1,-1,-1,-1,-1,-1,-1,-1,-1,-1,-1,-1,-1,-1,-1,-1,-1,-1,-1,-1,-1,-1,-1,-1,-1,-1,-1,-1,-1,-1,-1,-1,-1,-1,-1,-1,-1,-1,-1,-1,-1,-1,-1,-1,-1,-1,-1,-1,-1,-1,-1,-1,-1,-1,-1,-1,-1,-1,-1,-1,-1,-1],"split_conditions":[-4.7061163E-1,-8.0400115E-1,5.0118333E-1,-9.3674177E-1,4.3865427E-1,1.05559E0,1.5651925E0,2.5454676E0,1.6632406E0,2.9127154E-1,5.730461E-1,2.9127154E-1,1.4183697E0,1.05559E0,1.1288157E0,1.301864E-1,3.617388E0,4.3865427E-1,1.1365951E0,-1.3271886E-1,-7.197009E-2,1.1288157E0,-3.2713947E-1,1.301864E-1,-1.7828149E-1,1.4928044E0,7.648269E-1,1.1288157E0,9.241107E-1,7.471221E-1,1.2561376E0,-6.9780797E-1,2.6497607E0,-3.2713947E-1,1.0267241E0,8.8878465E-1,2.6497607E0,5.1613563E-1,-2.8220004E-1,-9.0264924E-2,4.8240557E-1,-6.9112825E-1,-1.7828149E-1,1.6632406E0,-4.941244E-1,-6.9112825E-1,5.1613563E-1,7.648269E-1,3.684931E-2,-4.8674935E-1,3.684931E-2,2.9127154E-1,1.5881646E0,1.9819187E0,2.5979295E0,1.9201915E0,2.9162722E0,2.9127154E-1,9.196936E-1,3.2482991E0,1.1720401E0,-9.09383E-1,2.8420033E0,1.9035456E-1,-2.1476246E-1,-3.409748E-1,-1.812516E-1,-9.736844E-2,3.5958853E-1,-9.6098654E-2,-3.509267E-1,-1.5660897E-1,1.1869263E-1,-2.4213639E-1,5.384141E-2,-2.2853425E-1,-4.448425E-2,-2.6201078E-1,1.5815896E-1,-1.603061E-1,-3.270822E-2,-1.091745E-1,2.6444968E-2,-1.12071596E-1,1.9119298E-1,1.3988678E-1,-2.1097595E-2,-2.3861043E-1,-1.08091645E-1,-1.1340882E-1,9.763816E-2,-3.0981737E-1,-1.825098E-1,-1.01787426E-1,1.3777701E-2,1.2611841E-2,1.3674192E-1,-1.5922871E-1,-2.6085446E-2,2.8103745E-1,1.7119253E-1,-3.1163657E-2,1.0335977E-1,-1.9672328E-1,-9.349966E-2,6.0517013E-2,-1.3107811E-1,-6.3586704E-2,4.394625E-2,1.698831E-1,-5.8448795E-2,1.08458355E-1,-1.005086E-1,2.1551982E-1,-1.1989931E-1,-9.0874076E-2,9.1915585E-2,-2.3542581E-1,8.088168E-3,1.9565126E-1,-2.2871646E-1,6.0930494E-2,-1.4918943E-1,3.498456E-1,2.6469934E-1,1.4522468E-1,2.4993129E-1],"split_indices":[3,3,3,6,17,17,3,21,24,21,21,21,21,17,18,17,7,17,21,7,22,18,18,17,17,18,18,18,22,17,22,1,15,18,0,15,15,23,19,14,15,18,17,24,12,18,23,18,18,17,18,21,22,21,17,22,22,21,3,22,16,11,3,0,0,0,0,0,0,0,0,0,0,0,0,0,0,0,0,0,0,0,0,0,0,0,0,0,0,0,0,0,0,0,0,0,0,0,0,0,0,0,0,0,0,0,0,0,0,0,0,0,0,0,0,0,0,0,0,0,0,0,0,0,0,0,0],"split_type":[0,0,0,0,0,0,0,0,0,0,0,0,0,0,0,0,0,0,0,0,0,0,0,0,0,0,0,0,0,0,0,0,0,0,0,0,0,0,0,0,0,0,0,0,0,0,0,0,0,0,0,0,0,0,0,0,0,0,0,0,0,0,0,0,0,0,0,0,0,0,0,0,0,0,0,0,0,0,0,0,0,0,0,0,0,0,0,0,0,0,0,0,0,0,0,0,0,0,0,0,0,0,0,0,0,0,0,0,0,0,0,0,0,0,0,0,0,0,0,0,0,0,0,0,0,0,0],"sum_hessian":[2.204431E4,6.170126E3,1.5874184E4,1.1631566E3,5.006969E3,1.2824738E4,3.049445E3,3.393974E2,8.237592E2,2.7027605E3,2.3042087E3,1.0777747E4,2.0469916E3,2.0144117E3,1.0350334E3,3.1203595E2,2.736144E1,7.389153E2,8.484392E1,1.9703337E3,7.3242664E2,9.008717E2,1.403337E3,7.046057E3,3.73169E3,1.5922639E3,4.5472778E2,1.7935812E3,2.2083054E2,6.0962823E2,4.2540518E2,9.767468E1,2.1436127E2,4.7045083E0,2.2656933E1,3.3409177E2,4.0482355E2,4.4897976E1,3.9945946E1,7.649829E2,1.2053508E3,2.2837556E2,5.0405106E2,7.4282135E2,1.580504E2,2.299111E2,1.1734259E3,5.395267E3,1.65079E3,6.30918E2,3.1007717E3,1.2947323E3,2.9753162E2,2.7138132E2,1.8334645E2,1.3585262E3,4.3505496E2,1.3125008E2,8.958046E1,5.396481E2,6.998018E1,2.3109236E2,1.9431284E2,4.442586E0,9.32321E1,1.9976865E2,1.4592626E1,1.1050606E0,3.599448E0,1.631714E1,6.3397927E0,3.0284848E2,3.1243294E1,3.8530563E2,1.951793E1,2.0505287E1,2.4392687E1,4.184376E0,3.576157E1,7.107526E1,6.9390765E2,1.1105618E3,9.478904E1,2.310542E1,2.0527014E2,1.3157689E2,3.7247418E2,6.192512E2,1.23570114E2,1.21071045E2,3.6979362E1,6.354827E1,1.6636284E2,6.3234406E2,5.410819E2,4.9607397E3,4.345274E2,4.001402E2,1.2506498E3,2.3263776E2,3.9828027E2,8.876597E2,2.213112E3,4.4611865E2,8.486136E2,2.2659676E2,7.093487E1,1.599946E2,1.1138673E2,1.5919388E2,2.4152573E1,1.2704288E3,8.809738E1,4.188934E2,1.6161554E1,4.015341E1,9.109667E1,6.257025E1,2.7010208E1,5.3362134E2,6.0267367E0,5.583073E1,1.4149449E1,1.0800785E2,1.2308451E2,8.972033E1,1.045925E2],"tree_param":{"num_deleted":"0","num_feature":"25","num_nodes":"127","size_leaf_vector":"1"}},{"base_weights":[3.0691205E-3,-1.21837795E-1,2.1497057E-1,-6.995656E-2,-4.286686E-1,3.0179945E-1,3.645326E-2,-1.297866E-1,2.0587605E-1,-8.478362E-1,-3.59301E-1,2.3619004E-1,6.090794E-1,-1.0916792E-1,2.1060489E-1,-7.472806E-2,-3.6385274E-1,3.7515283E-1,-7.931563E-2,-8.8217556E-1,1.3935643E-1,-5.857412E-1,-2.516404E-1,2.9398E-1,-1.1929962E-2,8.846185E-1,4.5342535E-1,-1.7921922E-1,3.2996956E-1,-1.0791565E0,2.335938E-1,-1.6515197E-1,1.14877746E-1,4.2744753E-1,-4.1165444E-1,3.0383924E-1,7.554551E-1,7.215148E-2,-2.8891903E-1,2.8045094E-1,-8.937763E-1,-9.09164E-1,9.011256E-1,-2.6200825E-1,-6.873678E-1,-1.4838357E-1,-4.9212492E-1,1.9754717E-1,4.726429E-1,6.3650703E-1,-1.3290526E-1,9.5034945E-1,6.190344E-1,1.8812136E-1,6.323679E-1,7.6395884E-2,-2.8717822E-1,4.1602606E-1,-4.280527E-1,-2.1330692E-1,-1.4794016E0,1.6139759E-1,5.631158E-1,-3.2374773E-2,-1.2961952E-1,1.3281417E-1,-3.6063644E-3,-1.0005E-1,1.8163471E-1,-1.4111932E-1,7.227693E-3,1.5478233E-1,3.296511E-2,3.1604207E-1,1.7999132E-1,-1.3214831E-1,4.647649E-2,-1.0457501E-1,1.01445E-1,-2.1009374E-1,-2.9582107E-1,-3.1850302E-1,-5.8430016E-2,3.7507164E-1,-9.8502904E-2,1.5916165E-2,-1.1826544E-1,-1.603851E-1,-2.631498E-1,-9.744322E-3,-1.029003E-1,-9.689895E-2,-2.4452741E-1,6.664497E-2,-2.7779302E-2,2.7090475E-1,1.20516606E-1,2.928232E-1,1.5199104E-1,-8.413879E-2,3.0001858E-2,2.9710513E-1,2.0246376E-1,-2.392605E-1,2.1793847E-1,-1.8007902E-2,1.544176E-1,2.4331716E-1,1.2949164E-1,-2.613821E-2,7.2229825E-2,-1.5531191E-1,-4.8741832E-2,2.3346497E-1,9.434029E-2,1.6167861E-1,-2.5607592E-1,2.4744704E-1,-1.8894221E-1,-1.4699109E-1,-4.73526E-1,5.645516E-3,9.6087955E-2,1.8806471E-1,-7.371084E-2],"categories":[],"categories_nodes":[],"categories_segments":[],"categories_sizes":[],"default_left":[0,0,0,0,0,0,0,0,0,0,0,0,0,0,0,0,0,0,0,0,0,0,0,0,0,0,0,0,0,0,0,0,0,0,0,0,0,0,0,0,0,0,0,0,0,0,0,0,0,0,0,0,0,0,0,0,0,0,0,0,0,0,0,0,0,0,0,0,0,0,0,0,0,0,0,0,0,0,0,0,0,0,0,0,0,0,0,0,0,0,0,0,0,0,0,0,0,0,0,0,0,0,0,0,0,0,0,0,0,0,0,0,0,0,0,0,0,0,0,0,0,0,0,0,0],"id":4,"left_children":[1,3,5,7,9,11,13,15,17,19,21,23,25,27,29,31,33,35,37,39,41,43,45,47,49,51,53,55,57,59,61,63,65,67,69,71,73,75,77,-1,79,81,83,85,87,89,91,93,95,97,99,101,103,105,107,109,111,113,115,117,119,121,123,-1,-1,-1,-1,-1,-1,-1,-1,-1,-1,-1,-1,-1,-1,-1,-1,-1,-1,-1,-1,-1,-1,-1,-1,-1,-1,-1,-1,-1,-1,-1,-1,-1,-1,-1,-1,-1,-1,-1,-1,-1,-1,-1,-1,-1,-1,-1,-1,-1,-1,-1,-1,-1,-1,-1,-1,-1,-1,-1,-1,-1,-1],"loss_changes":[5.688101E2,2.1520244E2,1.2352533E2,1.9090706E2,5.6549683E1,1.0795148E2,6.619022E1,1.22471176E2,9.957676E1,9.509827E0,4.0794754E1,6.338109E1,4.0032745E1,4.3790688E1,3.549135E1,1.319741E2,6.8634705E1,3.486882E1,2.4431015E1,6.4789734E0,8.943826E0,1.7599808E1,2.8235077E1,6.1673218E1,6.566048E1,5.334381E0,2.8578674E1,3.3873184E1,1.2958992E1,6.9588966E0,2.7708199E1,7.9571655E1,1.0342151E2,1.4233702E1,4.3712524E1,4.4844536E1,8.806068E0,1.9040962E1,1.2192657E1,0E0,4.068741E0,3.1381536E-1,3.1548567E0,5.4665394E0,1.1437714E1,1.8011295E1,1.8418495E1,1.6653282E1,3.7973206E1,5.309475E0,2.4268997E1,2.3078003E0,1.1258856E1,1.9880035E1,1.258316E1,9.83255E0,2.4715103E1,6.2460766E0,8.8824E0,3.8939002E0,6.1652184E-1,2.1740862E1,1.0964302E1,0E0,0E0,0E0,0E0,0E0,0E0,0E0,0E0,0E0,0E0,0E0,0E0,0E0,0E0,0E0,0E0,0E0,0E0,0E0,0E0,0E0,0E0,0E0,0E0,0E0,0E0,0E0,0E0,0E0,0E0,0E0,0E0,0E0,0E0,0E0,0E0,0E0,0E0,0E0,0E0,0E0,0E0,0E0,0E0,0E0,0E0,0E0,0E0,0E0,0E0,0E0,0E0,0E0,0E0,0E0,0E0,0E0,0E0,0E0,0E0,0E0,0E0],"parents":[2147483647,0,0,1,1,2,2,3,3,4,4,5,5,6,6,7,7,8,8,9,9,10,10,11,11,12,12,13,13,14,14,15,15,16,16,17,17,18,18,19,19,20,20,21,21,22,22,23,23,24,24,25,25,26,26,27,27,28,28,29,29,30,30,31,31,32,32,33,33,34,34,35,35,36,36,37,37,38,38,40,40,41,41,42,42,43,43,44,44,45,45,46,46,47,47,48,48,49,49,50,50,51,51,52,52,53,53,54,54,55,55,56,56,57,57,58,58,59,59,60,60,61,61,62,62],"right_children":[2,4,6,8,10,12,14,16,18,20,22,24,26,28,30,32,34,36,38,40,42,44,46,48,50,52,54,56,58,60,62,64,66,68,70,72,74,76,78,-1,80,82,84,86,88,90,92,94,96,98,100,102,104,106,108,110,112,114,116,118,120,122,124,-1,-1,-1,-1,-1,-1,-1,-1,-1,-1,-1,-1,-1,-1,-1,-1,-1,-1,-1,-1,-1,-1,-1,-1,-1,-1,-1,-1,-1,-1,-1,-1,-1,-1,-1,-1,-1,-1,-1,-1,-1,-1,-1,-1,-1,-1,-1,-1,-1,-1,-1,-1,-1,-1,-1,-1,-1,-1,-1,-1,-1,-1],"split_conditions":[-8.756835E-2,1.3640579E0,4.3865427E-1,7.648269E-1,-3.2713947E-1,1.1288157E0,5.730461E-1,5.9208375E-1,9.241107E-1,3.05614E0,5.730461E-1,9.241107E-1,-1.7828149E-1,1.8567932E0,-6.9112825E-1,-3.2713947E-1,-4.8674935E-1,1.1597041E0,1.5881646E0,-4.508032E-1,-2.0085424E-1,-3.264011E-1,5.290647E-1,-3.2713947E-1,-4.8674935E-1,1.9201915E0,9.497033E-3,2.6005685E-1,2.5842454E0,8.548206E-1,1.7001442E0,2.5332156E-1,1.301864E-1,-6.9112825E-1,1.1597041E0,4.3865427E-1,-7.197009E-2,-2.7227747E-1,2.5847707E0,2.8045094E-1,-8.1782955E-1,4.674039E0,7.424513E-1,-1.1399928E0,-4.0718168E-1,5.9208375E-1,2.2894616E0,-4.8674935E-1,-4.8674935E-1,-7.952172E-1,2.1148618E-1,2.136377E0,-5.787618E-1,7.917401E-2,9.241107E-1,6.1786526E-1,4.0083808E-1,-8.5977143E-1,-3.5697065E-2,-8.998894E-1,-1.2536975E0,7.648269E-1,2.2894616E0,-3.2374773E-2,-1.2961952E-1,1.3281417E-1,-3.6063644E-3,-1.0005E-1,1.8163471E-1,-1.4111932E-1,7.227693E-3,1.5478233E-1,3.296511E-2,3.1604207E-1,1.7999132E-1,-1.3214831E-1,4.647649E-2,-1.0457501E-1,1.01445E-1,-2.1009374E-1,-2.9582107E-1,-3.1850302E-1,-5.8430016E-2,3.7507164E-1,-9.8502904E-2,1.5916165E-2,-1.1826544E-1,-1.603851E-1,-2.631498E-1,-9.744322E-3,-1.029003E-1,-9.689895E-2,-2.4452741E-1,6.664497E-2,-2.7779302E-2,2.7090475E-1,1.20516606E-1,2.928232E-1,1.5199104E-1,-8.413879E-2,3.0001858E-2,2.9710513E-1,2.0246376E-1,-2.392605E-1,2.1793847E-1,-1.8007902E-2,1.544176E-1,2.4331716E-1,1.2949164E-1,-2.613821E-2,7.2229825E-2,-1.5531191E-1,-4.8741832E-2,2.3346497E-1,9.434029E-2,1.6167861E-1,-2.5607592E-1,2.4744704E-1,-1.8894221E-1,-1.4699109E-1,-4.73526E-1,5.645516E-3,9.6087955E-2,1.8806471E-1,-7.371084E-2],"split_indices":[3,17,17,18,18,18,21,22,22,15,21,22,17,18,18,18,17,15,22,5,23,13,7,18,17,22,21,22,22,21,21,7,17,18,15,17,22,21,18,0,1,4,1,1,0,22,17,17,17,17,15,16,10,1,22,15,18,5,20,0,1,18,17,0,0,0,0,0,0,0,0,0,0,0,0,0,0,0,0,0,0,0,0,0,0,0,0,0,0,0,0,0,0,0,0,0,0,0,0,0,0,0,0,0,0,0,0,0,0,0,0,0,0,0,0,0,0,0,0,0,0,0,0,0,0],"split_type":[0,0,0,0,0,0,0,0,0,0,0,0,0,0,0,0,0,0,0,0,0,0,0,0,0,0,0,0,0,0,0,0,0,0,0,0,0,0,0,0,0,0,0,0,0,0,0,0,0,0,0,0,0,0,0,0,0,0,0,0,0,0,0,0,0,0,0,0,0,0,0,0,0,0,0,0,0,0,0,0,0,0,0,0,0,0,0,0,0,0,0,0,0,0,0,0,0,0,0,0,0,0,0,0,0,0,0,0,0,0,0,0,0,0,0,0,0,0,0,0,0,0,0,0,0],"sum_hessian":[2.148853E4,1.3519678E4,7.9688516E3,1.1565351E4,1.9543271E3,5.36075E3,2.6081013E3,9.504325E3,2.0610254E3,2.7590332E2,1.678424E3,4.4189907E3,9.4175964E2,1.4206025E3,1.1874988E3,7.6954673E3,1.808858E3,1.2931532E3,7.678722E2,2.6673148E2,9.171834E0,5.3942413E2,1.1389998E3,3.5840417E3,8.349487E2,3.382701E2,6.034895E2,1.2256746E3,1.9492793E2,1.999097E1,1.1675078E3,5.2106245E3,2.4848428E3,1.0259401E2,1.706264E3,1.0904694E3,2.0268388E2,4.4613464E2,3.2173752E2,1.1872673E0,2.6554422E2,3.7780836E0,5.39375E0,1.2973372E2,4.096904E2,7.9798566E2,3.4101413E2,2.3290493E3,1.2549924E3,1.306096E2,7.043391E2,2.6909253E2,6.917757E1,2.4391194E2,3.5957758E2,3.640363E2,8.616383E2,1.754596E2,1.9468346E1,6.804262E0,1.3186708E1,9.58907E2,2.0860077E2,4.291724E3,9.189004E2,6.9272894E2,1.7921138E3,1.9283674E1,8.331033E1,1.5034972E3,2.0276686E2,5.200757E2,5.703936E2,6.7510376E1,1.3517351E2,6.1417416E1,3.8471722E2,2.9419006E2,2.754746E1,8.8539055E1,1.7700516E2,2.7128224E0,1.065261E0,4.1877313E0,1.2060188E0,3.8525173E1,9.120854E1,2.2911435E2,1.8057605E2,5.008664E2,2.9711923E2,2.2512344E2,1.15890686E2,2.1472117E3,1.8183757E2,1.7589104E2,1.0791014E3,3.4330433E1,9.627917E1,4.3105005E2,2.7328906E2,2.3270618E2,3.638636E1,4.423527E0,6.4754036E1,1.3906734E2,1.04844604E2,1.886239E2,1.7095366E2,1.8272386E2,1.8131242E2,3.013735E2,5.602648E2,3.6965572E1,1.3849402E2,5.867829E0,1.3600516E1,1.66754E0,5.1367226E0,1.740747E0,1.1445962E1,5.0599188E2,4.5291513E2,1.935652E2,1.5035565E1],"tree_param":{"num_deleted":"0","num_feature":"25","num_nodes":"125","size_leaf_vector":"1"}},{"base_weights":[2.988394E-3,-2.2615466E-1,7.162068E-2,-1.9038136E-1,-6.081473E-1,4.1842076E-1,4.0993445E-2,-2.3371452E-1,1.3669163E-1,-6.6262084E-1,-1.8639827E-1,2.4099126E-1,5.402594E-1,9.199026E-2,-1.3386954E-1,-1.3173838E-1,-3.692349E-1,4.0046668E-1,-6.2206835E-3,-2.5334632E-1,-7.3022175E-1,1.9355651E-2,-8.544714E-1,2.8750813E-1,-5.628558E-1,8.0529976E-1,4.452579E-1,2.9478406E-3,2.2173843E-1,5.3303057E-1,-1.744867E-1,-1.8306352E-1,1.4628547E-1,-5.1825726E-1,-1.9871038E-1,5.701276E-1,1.7806122E-1,-2.1281856E-1,2.301931E-1,1.1129899E0,-3.7542638E-1,-5.329009E-1,-8.330643E-1,5.0384706E-1,-2.7487862E-1,-1.1149429E0,1.0780672E-2,3.183466E-1,-3.7531355E-1,4.719079E-1,-7.8116626E-1,8.493775E-1,4.0052137E-1,2.2134425E-1,5.9782284E-1,2.7317697E-2,-3.0084866E-1,6.175232E-1,1.6418166E-1,-2.918388E-1,6.079391E-1,-3.0772537E-1,-2.8628118E-2,-6.091293E-2,1.4107248E-1,1.2909894E-1,-5.930848E-3,-1.814478E-1,-7.39378E-2,2.661729E-2,-8.7265566E-2,-3.6809415E-2,1.9348744E-1,-4.003884E-1,8.5564226E-2,1.0408409E-1,-1.0421311E-1,1.094615E-1,-9.1657676E-2,-2.9680276E-2,5.652931E-1,-1.4209768E-1,3.660103E-1,1.3975847E-1,-1.9684134E-1,-3.3763E-1,-2.1960163E-1,2.9429972E-1,-4.106196E-2,-3.1804502E-2,-2.8330296E-1,-6.7881815E-2,-3.610065E-1,-2.1865092E-1,1.9406821E-1,1.8264669E-1,7.5770274E-2,2.4110655E-1,-1.8592224E-1,-1.4597532E-1,2.6894996E-1,1.12126954E-1,-2.944529E-1,2.5738266E-1,-6.9809E-2,-6.5830655E-2,2.4057683E-1,9.704436E-2,-6.1540887E-2,1.5507892E-1,2.91122E-1,-8.598787E-3,3.595974E-2,9.490749E-2,-1.1159896E-1,1.3627012E-1,2.4259387E-1,1.9455122E-2,1.0151943E-1,-2.831253E-2,-4.0038338E-1,3.3697245E-1,1.3853194E-1,-1.9074972E-1,-7.694938E-2,1.1049899E-2,-1.0555267E-1],"categories":[],"categories_nodes":[],"categories_segments":[],"categories_sizes":[],"default_left":[0,0,0,0,0,0,0,0,0,0,0,0,0,0,0,0,0,0,0,0,0,0,0,0,0,0,0,0,0,0,0,0,0,0,0,0,0,0,0,0,0,0,0,0,0,0,0,0,0,0,0,0,0,0,0,0,0,0,0,0,0,0,0,0,0,0,0,0,0,0,0,0,0,0,0,0,0,0,0,0,0,0,0,0,0,0,0,0,0,0,0,0,0,0,0,0,0,0,0,0,0,0,0,0,0,0,0,0,0,0,0,0,0,0,0,0,0,0,0,0,0,0,0,0,0,0,0],"id":5,"left_children":[1,3,5,7,9,11,13,15,17,19,21,23,25,27,29,31,33,35,37,39,41,43,45,47,49,51,53,55,57,59,61,63,65,67,69,71,73,75,77,79,81,83,85,87,89,91,93,95,97,99,101,103,105,107,109,111,113,115,117,119,121,123,125,-1,-1,-1,-1,-1,-1,-1,-1,-1,-1,-1,-1,-1,-1,-1,-1,-1,-1,-1,-1,-1,-1,-1,-1,-1,-1,-1,-1,-1,-1,-1,-1,-1,-1,-1,-1,-1,-1,-1,-1,-1,-1,-1,-1,-1,-1,-1,-1,-1,-1,-1,-1,-1,-1,-1,-1,-1,-1,-1,-1,-1,-1,-1,-1],"loss_changes":[3.3078757E2,6.613153E1,1.718996E2,6.2878815E1,9.403183E0,2.8260757E1,1.326449E2,5.4067764E1,1.9581564E1,9.964645E0,6.7278476E0,2.0222324E1,1.922667E1,1.3304135E2,9.1071014E1,3.1933895E1,4.261026E1,6.7859745E0,1.6550665E1,9.347551E0,5.934372E0,5.5991335E0,2.6079702E0,1.0499134E1,7.0744934E0,3.299591E0,1.9504562E1,5.057477E1,1.0665973E2,1.210659E1,6.15309E1,2.4739147E1,1.6470383E1,2.0941208E1,2.0836674E1,5.42371E0,1.3419294E1,1.3739795E1,1.1513911E1,4.5267525E0,8.397181E0,1.3902235E1,5.228668E0,4.6670303E0,2.6672254E0,4.2406178E-1,2.1913567E0,9.127865E0,7.136174E0,2.7946575E0,6.1259146E0,1.8963318E0,5.632173E0,1.0282452E1,9.784843E0,3.2766323E1,2.2394367E1,1.8190857E1,7.080699E1,3.3227031E0,1.2836426E1,2.7650742E1,3.202094E1,0E0,0E0,0E0,0E0,0E0,0E0,0E0,0E0,0E0,0E0,0E0,0E0,0E0,0E0,0E0,0E0,0E0,0E0,0E0,0E0,0E0,0E0,0E0,0E0,0E0,0E0,0E0,0E0,0E0,0E0,0E0,0E0,0E0,0E0,0E0,0E0,0E0,0E0,0E0,0E0,0E0,0E0,0E0,0E0,0E0,0E0,0E0,0E0,0E0,0E0,0E0,0E0,0E0,0E0,0E0,0E0,0E0,0E0,0E0,0E0,0E0,0E0,0E0,0E0],"parents":[2147483647,0,0,1,1,2,2,3,3,4,4,5,5,6,6,7,7,8,8,9,9,10,10,11,11,12,12,13,13,14,14,15,15,16,16,17,17,18,18,19,19,20,20,21,21,22,22,23,23,24,24,25,25,26,26,27,27,28,28,29,29,30,30,31,31,32,32,33,33,34,34,35,35,36,36,37,37,38,38,39,39,40,40,41,41,42,42,43,43,44,44,45,45,46,46,47,47,48,48,49,49,50,50,51,51,52,52,53,53,54,54,55,55,56,56,57,57,58,58,59,59,60,60,61,61,62,62],"right_children":[2,4,6,8,10,12,14,16,18,20,22,24,26,28,30,32,34,36,38,40,42,44,46,48,50,52,54,56,58,60,62,64,66,68,70,72,74,76,78,80,82,84,86,88,90,92,94,96,98,100,102,104,106,108,110,112,114,116,118,120,122,124,126,-1,-1,-1,-1,-1,-1,-1,-1,-1,-1,-1,-1,-1,-1,-1,-1,-1,-1,-1,-1,-1,-1,-1,-1,-1,-1,-1,-1,-1,-1,-1,-1,-1,-1,-1,-1,-1,-1,-1,-1,-1,-1,-1,-1,-1,-1,-1,-1,-1,-1,-1,-1,-1,-1,-1,-1,-1,-1,-1,-1,-1,-1,-1,-1],"split_conditions":[-5.273588E-1,3.1170921E0,-7.927853E-1,1.7001442E0,2.263693E0,4.0083808E-1,9.241107E-1,4.3865427E-1,7.471221E-1,2.315853E0,2.5979295E0,1.9201915E0,-1.7828149E-1,3.684931E-2,-4.8674935E-1,4.0083808E-1,4.0083808E-1,-3.7559786E-1,5.191651E-1,-9.245888E-1,4.3865427E-1,3.617388E0,5.1613563E-1,1.05559E0,-1.3358176E0,2.4578228E0,9.497033E-3,3.684259E-1,-1.7828149E-1,-6.9112825E-1,7.648269E-1,1.1597041E0,5.2914876E-1,1.4306234E0,-7.197009E-2,-6.9112825E-1,-3.211648E-1,-1.2600144E0,2.2894616E0,-9.45829E-1,2.2433817E0,-6.91491E-1,8.8878465E-1,-3.3774313E-1,1.1277838E0,-6.9112825E-1,-9.387756E-1,-9.1339916E-1,-2.2095667E-1,-1.3736469E0,-4.6581233E-1,1.8794874E0,-4.6581233E-1,7.471221E-1,3.5513427E0,-1.01755135E-1,-4.8674935E-1,7.602648E-2,8.548206E-1,-6.15635E-1,-7.952172E-1,-3.2713947E-1,2.2522185E0,-6.091293E-2,1.4107248E-1,1.2909894E-1,-5.930848E-3,-1.814478E-1,-7.39378E-2,2.661729E-2,-8.7265566E-2,-3.6809415E-2,1.9348744E-1,-4.003884E-1,8.5564226E-2,1.0408409E-1,-1.0421311E-1,1.094615E-1,-9.1657676E-2,-2.9680276E-2,5.652931E-1,-1.4209768E-1,3.660103E-1,1.3975847E-1,-1.9684134E-1,-3.3763E-1,-2.1960163E-1,2.9429972E-1,-4.106196E-2,-3.1804502E-2,-2.8330296E-1,-6.7881815E-2,-3.610065E-1,-2.1865092E-1,1.9406821E-1,1.8264669E-1,7.5770274E-2,2.4110655E-1,-1.8592224E-1,-1.4597532E-1,2.6894996E-1,1.12126954E-1,-2.944529E-1,2.5738266E-1,-6.9809E-2,-6.5830655E-2,2.4057683E-1,9.704436E-2,-6.1540887E-2,1.5507892E-1,2.91122E-1,-8.598787E-3,3.595974E-2,9.490749E-2,-1.1159896E-1,1.3627012E-1,2.4259387E-1,1.9455122E-2,1.0151943E-1,-2.831253E-2,-4.0038338E-1,3.3697245E-1,1.3853194E-1,-1.9074972E-1,-7.694938E-2,1.1049899E-2,-1.0555267E-1],"split_indices":[3,5,5,21,21,18,22,17,17,4,17,22,17,18,17,18,18,0,20,3,17,7,23,17,1,16,21,16,17,18,18,15,16,15,22,18,24,1,17,12,15,1,15,1,1,18,3,14,7,0,15,0,15,17,3,3,17,15,21,0,17,18,22,0,0,0,0,0,0,0,0,0,0,0,0,0,0,0,0,0,0,0,0,0,0,0,0,0,0,0,0,0,0,0,0,0,0,0,0,0,0,0,0,0,0,0,0,0,0,0,0,0,0,0,0,0,0,0,0,0,0,0,0,0,0,0,0],"split_type":[0,0,0,0,0,0,0,0,0,0,0,0,0,0,0,0,0,0,0,0,0,0,0,0,0,0,0,0,0,0,0,0,0,0,0,0,0,0,0,0,0,0,0,0,0,0,0,0,0,0,0,0,0,0,0,0,0,0,0,0,0,0,0,0,0,0,0,0,0,0,0,0,0,0,0,0,0,0,0,0,0,0,0,0,0,0,0,0,0,0,0,0,0,0,0,0,0,0,0,0,0,0,0,0,0,0,0,0,0,0,0,0,0,0,0,0,0,0,0,0,0,0,0,0,0,0,0],"sum_hessian":[2.1031588E4,4.8469043E3,1.6184685E4,4.433234E3,4.1367035E2,1.3123173E3,1.4872367E4,3.9148496E3,5.1838416E2,3.6584616E2,4.7824196E1,5.354856E2,7.768317E2,1.1514707E4,3.3576604E3,2.2350183E3,1.6798312E3,1.8152992E2,3.3685425E2,5.2534634E1,3.1331152E2,3.730575E1,1.0518441E1,5.0680054E2,2.8685095E1,2.0300386E2,5.738278E2,6.829109E3,4.6855977E3,1.9206064E2,3.1655999E3,1.8870056E3,3.4801282E2,8.953448E2,7.844864E2,1.0208865E2,7.944128E1,1.7981598E2,1.5703825E2,3.643148E0,4.8891487E1,1.0946543E2,2.038461E2,1.3826459E1,2.3479296E1,7.862864E0,2.6555772E0,4.84766E2,2.2034533E1,4.795134E0,2.388996E1,1.8207832E2,2.0925533E1,2.3353235E2,3.402955E2,6.3228174E3,5.0629178E2,5.936537E2,4.0919438E3,1.5748394E1,1.7631226E2,1.6537893E3,1.5118105E3,1.8316779E3,5.53277E1,1.278051E2,2.2020772E2,6.7813184E2,2.1721297E2,1.9049402E2,5.939924E2,9.889161E0,9.219949E1,4.4972806E0,7.494399E1,3.4542046E1,1.4527394E2,1.2574511E2,3.129315E1,1.7559208E0,1.8872273E0,4.671817E1,2.1733174E0,1.1717965E1,9.774747E1,4.975776E1,1.5408833E2,7.6203823E0,6.2060766E0,1.9674915E1,3.8043797E0,1.0335428E0,6.8293214E0,1.1604927E0,1.4950846E0,8.79831E1,3.967829E2,3.3908098E0,1.8643723E1,1.4272325E0,3.3679018E0,3.4036E0,2.048636E1,1.8085399E2,1.2243341E0,8.40205E0,1.2523482E1,1.8860518E2,4.4927166E1,2.8155365E2,5.8741844E1,3.9401792E3,2.382638E3,5.1973736E1,4.5431805E2,3.2195883E2,2.716949E2,2.606942E3,1.4850021E3,1.41579E1,1.5904942E0,3.7482956E1,1.388293E2,2.2179579E2,1.4319935E3,1.2579265E3,2.5388399E2],"tree_param":{"num_deleted":"0","num_feature":"25","num_nodes":"127","size_leaf_vector":"1"}},{"base_weights":[2.5740298E-3,-6.238388E-2,1.5370429E-1,-1.5945278E-2,-2.4270855E-1,1.1199054E-1,3.9708167E-1,-6.695862E-2,2.196548E-1,-2.841689E-1,1.8807262E-1,1.5693879E-1,-1.7476709E-1,5.2564937E-1,1.0148088E-1,-7.6790885E-3,-2.0923027E-1,-4.2304805E-1,2.5733525E-1,-3.8268992E-1,-1.1998612E-1,7.232358E-2,9.453249E-1,9.5073566E-2,2.9535004E-1,2.387527E-1,-2.8841057E-1,5.96537E-1,7.3796734E-2,5.3550494E-1,-1.3606275E-3,-5.247903E-2,1.8620111E-1,-2.581497E-1,1.6181488E-1,-7.295354E-1,-2.4919966E-1,2.2648525E-1,9.1867065E-1,-2.6812947E-1,-5.488346E-1,6.805811E-2,-2.0612346E-1,-3.5128046E-2,5.964451E-1,1.1998105E0,4.093611E-1,1.7521884E-1,-3.2573376E-2,4.4246632E-1,1.3338952E-1,-1.6254966E-1,4.1452843E-1,-4.4008157E-1,-6.749576E-2,5.1599985E-1,9.1312504E-1,2.4706039E-1,-3.4899256E-1,5.9477407E-1,-2.91583E-1,4.5094398E-1,-1.4195584E-1,-5.3928778E-2,-6.7274417E-3,1.9638382E-1,3.125231E-2,-1.6844428E-1,-6.249333E-2,-4.318164E-3,1.4063872E-1,-2.6136392E-1,1.0081997E-1,-3.8837647E-1,-5.2566897E-2,1.561546E-1,4.731677E-2,3.019757E-1,-1.5890995E-2,-4.429391E-2,-1.2903911E-1,-1.8887995E-1,-3.7628092E-2,6.884575E-2,-3.252867E-2,-1.1137183E-1,-1.0256503E-2,3.062912E-2,-1.3053049E-1,-1.3213247E-1,2.0905297E-1,3.7763458E-2,4.1204065E-1,4.706588E-2,4.317485E-1,3.8977817E-2,1.436498E-1,-8.7714106E-2,1.2147226E-2,5.450994E-2,1.7917061E-1,1.938011E-1,2.542166E-2,-1.0624378E-1,2.2181195E-1,-3.1141537E-1,1.34597E-1,4.8330557E-2,-1.512106E-1,3.2635434E-3,-2.6557422E-1,1.934055E-1,9.152636E-2,2.980945E-1,1.7818546E-1,1.8914047E-1,-1.3023977E-2,1.3342963E-1,-1.861892E-1,-1.7591703E-1,1.9552957E-1,1.6280735E-1,-1.9443573E-1,-2.3699157E-1,-9.611098E-3],"categories":[],"categories_nodes":[],"categories_segments":[],"categories_sizes":[],"default_left":[0,0,0,0,0,0,0,0,0,0,0,0,0,0,0,0,0,0,0,0,0,0,0,0,0,0,0,0,0,0,0,0,0,0,0,0,0,0,0,0,0,0,0,0,0,0,0,0,0,0,0,0,0,0,0,0,0,0,0,0,0,0,0,0,0,0,0,0,0,0,0,0,0,0,0,0,0,0,0,0,0,0,0,0,0,0,0,0,0,0,0,0,0,0,0,0,0,0,0,0,0,0,0,0,0,0,0,0,0,0,0,0,0,0,0,0,0,0,0,0,0,0,0,0,0],"id":6,"left_children":[1,3,5,7,9,11,13,15,17,19,21,23,25,27,29,31,33,35,37,39,41,43,45,47,49,51,53,55,57,59,61,63,65,67,69,71,73,75,77,79,81,83,85,87,89,91,93,95,97,99,101,103,105,107,109,111,113,115,117,119,-1,121,123,-1,-1,-1,-1,-1,-1,-1,-1,-1,-1,-1,-1,-1,-1,-1,-1,-1,-1,-1,-1,-1,-1,-1,-1,-1,-1,-1,-1,-1,-1,-1,-1,-1,-1,-1,-1,-1,-1,-1,-1,-1,-1,-1,-1,-1,-1,-1,-1,-1,-1,-1,-1,-1,-1,-1,-1,-1,-1,-1,-1,-1,-1],"loss_changes":[2.0275633E2,1.2095743E2,6.298607E1,1.3808313E2,5.288559E1,6.836035E1,3.4455994E1,7.964594E1,4.963089E1,4.360782E1,2.2747679E1,3.9221237E1,3.3851112E1,2.0217407E1,1.2341038E1,5.792074E1,5.045807E1,5.8725243E0,3.9214554E1,3.1947296E1,1.64314E1,1.2798011E1,4.2049694E0,3.242817E1,3.366622E1,1.1037423E1,1.8879574E1,1.3466537E1,6.4535613E0,5.3100204E0,1.4340703E1,2.0716816E1,4.8023556E1,3.6987656E1,1.7541298E1,6.423218E0,5.4975123E0,3.7270798E1,7.381836E0,1.9454613E1,2.3421295E1,9.1181555E0,1.9728914E1,1.0430035E1,4.3309135E0,4.084385E0,3.0509138E0,2.671246E1,2.323176E1,2.9807983E1,1.6782867E1,8.571725E0,5.840975E0,1.2939522E1,1.4809089E1,1.1693359E1,2.2255936E0,6.9590454E0,5.813292E0,3.8542824E0,0E0,5.744089E0,1.2228128E1,0E0,0E0,0E0,0E0,0E0,0E0,0E0,0E0,0E0,0E0,0E0,0E0,0E0,0E0,0E0,0E0,0E0,0E0,0E0,0E0,0E0,0E0,0E0,0E0,0E0,0E0,0E0,0E0,0E0,0E0,0E0,0E0,0E0,0E0,0E0,0E0,0E0,0E0,0E0,0E0,0E0,0E0,0E0,0E0,0E0,0E0,0E0,0E0,0E0,0E0,0E0,0E0,0E0,0E0,0E0,0E0,0E0,0E0,0E0,0E0,0E0,0E0],"parents":[2147483647,0,0,1,1,2,2,3,3,4,4,5,5,6,6,7,7,8,8,9,9,10,10,11,11,12,12,13,13,14,14,15,15,16,16,17,17,18,18,19,19,20,20,21,21,22,22,23,23,24,24,25,25,26,26,27,27,28,28,29,29,30,30,31,31,32,32,33,33,34,34,35,35,36,36,37,37,38,38,39,39,40,40,41,41,42,42,43,43,44,44,45,45,46,46,47,47,48,48,49,49,50,50,51,51,52,52,53,53,54,54,55,55,56,56,57,57,58,58,59,59,61,61,62,62],"right_children":[2,4,6,8,10,12,14,16,18,20,22,24,26,28,30,32,34,36,38,40,42,44,46,48,50,52,54,56,58,60,62,64,66,68,70,72,74,76,78,80,82,84,86,88,90,92,94,96,98,100,102,104,106,108,110,112,114,116,118,120,-1,122,124,-1,-1,-1,-1,-1,-1,-1,-1,-1,-1,-1,-1,-1,-1,-1,-1,-1,-1,-1,-1,-1,-1,-1,-1,-1,-1,-1,-1,-1,-1,-1,-1,-1,-1,-1,-1,-1,-1,-1,-1,-1,-1,-1,-1,-1,-1,-1,-1,-1,-1,-1,-1,-1,-1,-1,-1,-1,-1,-1,-1,-1,-1],"split_conditions":[4.6457704E-3,1.05559E0,1.4928044E0,7.53325E-1,2.263693E0,1.1720401E0,1.5881646E0,1.301864E-1,-6.9112825E-1,7.648269E-1,1.2127428E0,4.0083808E-1,-1.7828149E-1,1.3640579E0,-1.7828149E-1,9.497033E-3,1.4928044E0,3.4030363E-1,1.9724623E0,-5.710904E-2,5.2914876E-1,1.1288157E0,2.6005685E-1,-1.7828149E-1,4.3865427E-1,4.0083808E-1,4.8240557E-1,1.7710242E-1,1.001772E0,3.3840952E0,-3.5697065E-2,-6.20651E-1,-4.8674935E-1,-3.2713947E-1,5.730461E-1,-1.8414469E-1,-1.2852821E0,1.301864E-1,2.975871E0,2.0770307E-1,1.6632406E0,1.6725258E0,1.4928044E0,2.2894616E0,6.1786526E-1,-8.110945E-1,2.045036E0,-2.7227747E-1,-3.2713947E-1,9.497033E-3,-4.03997E-1,1.3514583E0,-1.4179376E0,-8.7761074E-1,1.6725258E0,9.241107E-1,1.001772E0,5.9208375E-1,-1.1841439E0,-7.2927475E-1,-2.91583E-1,1.1419387E0,7.926428E-2,-5.3928778E-2,-6.7274417E-3,1.9638382E-1,3.125231E-2,-1.6844428E-1,-6.249333E-2,-4.318164E-3,1.4063872E-1,-2.6136392E-1,1.0081997E-1,-3.8837647E-1,-5.2566897E-2,1.561546E-1,4.731677E-2,3.019757E-1,-1.5890995E-2,-4.429391E-2,-1.2903911E-1,-1.8887995E-1,-3.7628092E-2,6.884575E-2,-3.252867E-2,-1.1137183E-1,-1.0256503E-2,3.062912E-2,-1.3053049E-1,-1.3213247E-1,2.0905297E-1,3.7763458E-2,4.1204065E-1,4.706588E-2,4.317485E-1,3.8977817E-2,1.436498E-1,-8.7714106E-2,1.2147226E-2,5.450994E-2,1.7917061E-1,1.938011E-1,2.542166E-2,-1.0624378E-1,2.2181195E-1,-3.1141537E-1,1.34597E-1,4.8330557E-2,-1.512106E-1,3.2635434E-3,-2.6557422E-1,1.934055E-1,9.152636E-2,2.980945E-1,1.7818546E-1,1.8914047E-1,-1.3023977E-2,1.3342963E-1,-1.861892E-1,-1.7591703E-1,1.9552957E-1,1.6280735E-1,-1.9443573E-1,-2.3699157E-1,-9.611098E-3],"split_indices":[3,17,18,15,21,16,22,17,18,18,20,18,17,17,17,21,18,24,15,10,16,18,22,17,17,18,15,10,24,23,20,6,17,18,21,6,1,17,13,16,24,17,18,17,15,3,20,21,18,21,22,20,1,14,17,22,24,22,0,20,0,19,6,0,0,0,0,0,0,0,0,0,0,0,0,0,0,0,0,0,0,0,0,0,0,0,0,0,0,0,0,0,0,0,0,0,0,0,0,0,0,0,0,0,0,0,0,0,0,0,0,0,0,0,0,0,0,0,0,0,0,0,0,0,0],"split_type":[0,0,0,0,0,0,0,0,0,0,0,0,0,0,0,0,0,0,0,0,0,0,0,0,0,0,0,0,0,0,0,0,0,0,0,0,0,0,0,0,0,0,0,0,0,0,0,0,0,0,0,0,0,0,0,0,0,0,0,0,0,0,0,0,0,0,0,0,0,0,0,0,0,0,0,0,0,0,0,0,0,0,0,0,0,0,0,0,0,0,0,0,0,0,0,0,0,0,0,0,0,0,0,0,0,0,0,0,0,0,0,0,0,0,0,0,0,0,0,0,0,0,0,0,0],"sum_hessian":[2.0651395E4,1.4443823E4,6.207571E3,1.1486754E4,2.9570693E3,5.300543E3,9.0702814E2,9.4428545E3,2.0438998E3,2.6977644E3,2.5930493E2,4.5826772E3,7.178658E2,6.3156085E2,2.7546732E2,6.666299E3,2.7765554E3,1.1262725E2,1.9312725E3,1.6851981E3,1.01256616E3,2.2587462E2,3.343033E1,3.168258E3,1.4144191E3,1.5451694E2,5.633488E2,5.4563947E2,8.5921364E1,5.196238E1,2.2350494E2,5.415636E3,1.250663E3,2.4533982E3,3.2315735E2,3.9606422E1,7.302083E1,1.8464802E3,8.4792244E1,9.989877E2,6.862105E2,3.181754E2,6.9439075E2,1.8822006E2,3.765455E1,2.1827581E1,1.1602748E1,1.9460347E3,1.2222233E3,7.4026764E2,6.741514E2,4.7088177E1,1.0742877E2,3.3343442E2,2.2991443E2,4.370801E2,1.0855937E2,6.1240135E1,2.4681232E1,5.057917E1,1.3832062E0,5.2476616E1,1.7102832E2,1.0335283E3,4.382108E3,1.8533453E2,1.0653284E3,3.4477E2,2.1086282E3,2.059144E2,1.1724294E2,3.511951E1,4.4869113E0,3.7353554E0,6.928547E1,3.487313E2,1.4977489E3,7.772376E1,7.0684867E0,5.7400256E2,4.249851E2,5.758751E2,1.103354E2,1.6602068E2,1.5215474E2,3.5362848E2,3.407623E2,1.4069455E2,4.7525513E1,3.025102E0,3.4629448E1,3.2783797E0,1.8549202E1,1.0243668E1,1.3590802E0,1.6946558E3,2.5137898E2,2.676152E2,9.546081E2,2.7652744E2,4.6374023E2,5.7371407E1,6.1678E2,3.9338753E1,7.7494226E0,1.7908235E0,1.0563795E2,3.1914068E1,3.0152036E2,2.1070676E2,1.9207678E1,2.7017798E2,1.6690211E2,8.5001434E1,2.3557936E1,2.589276E1,3.5347374E1,6.130336E0,1.8550896E1,1.9005377E0,4.8678635E1,4.8900726E1,3.5758903E0,2.390599E1,1.4712233E2],"tree_param":{"num_deleted":"0","num_feature":"25","num_nodes":"125","size_leaf_vector":"1"}},{"base_weights":[2.380679E-3,-3.1283267E-2,1.884237E-1,-3.904076E-3,-2.8470215E-1,5.8796775E-1,1.4031424E-1,-2.7935151E-2,2.7228406E-1,-5.9869397E-1,-2.2853087E-1,8.198146E-1,4.630722E-1,3.109063E-1,3.3234872E-2,1.4973768E-2,-1.7914125E-1,1.587861E-1,4.4121683E-1,-6.503853E-1,-2.1313284E-2,4.0813544E-1,-2.5796014E-1,8.455277E-1,-5.7647243E-2,2.804786E-1,6.548575E-1,3.6921328E-1,-1.2994541E-1,-4.074954E-2,2.763695E-1,7.296927E-2,-1.05670474E-1,3.290279E-1,-2.1579185E-1,3.7764224E-1,1.2394522E-2,5.2474934E-1,9.512953E-2,-8.860026E-1,-5.510302E-1,-6.573853E-1,3.983322E-1,8.4855354E-1,1.1233333E-1,-4.096516E-1,-1.3239579E-1,9.196858E-1,5.0407636E-1,2.2243302E-1,-2.5824374E-1,3.9479458E-1,-1.7704314E-1,-2.3715179E-1,6.9123757E-1,5.514722E-1,2.8008398E-1,-2.794797E-1,3.2973683E-1,2.6498195E-2,-4.110732E-1,3.3492553E-1,-2.4759082E-1,8.150666E-3,6.617077E-2,-2.1722158E-2,-1.13972634E-1,8.817382E-3,1.3754863E-1,-1.08172074E-1,-4.198468E-2,1.4076093E-1,6.1405646E-3,-4.3852434E-2,5.3468537E-2,2.1799032E-2,1.7258304E-1,5.284719E-3,2.5249407E-1,-6.0801827E-3,-2.8321767E-1,-1.0289595E-1,-2.2449784E-1,1.954561E-2,-2.8599262E-1,-1.8844427E-1,2.0659891E-1,3.107316E-1,-6.3579236E-3,-1.7742092E-2,2.962371E-1,-8.1586674E-2,-1.7049897E-1,-7.2665103E-3,-1.082364E-1,2.8572434E-1,9.980326E-2,-1.0080855E-1,1.9614553E-1,7.837698E-2,2.7341586E-1,-3.5929453E-1,1.2232209E-1,1.4691854E-1,2.5135756E-1,1.3828489E-1,2.6385948E-1,8.921729E-2,-3.4192085E-1,8.462161E-2,-1.2727846E-1,1.4635946E-1,-2.88624E-1,1.4615186E-1,-1.6825928E-3,-2.7969813E-1,-7.021626E-2,1.3657804E-1,3.5225585E-2,1.1273704E-1,-1.24053545E-1],"categories":[],"categories_nodes":[],"categories_segments":[],"categories_sizes":[],"default_left":[0,0,0,0,0,0,0,0,0,0,0,0,0,0,0,0,0,0,0,0,0,0,0,0,0,0,0,0,0,0,0,0,0,0,0,0,0,0,0,0,0,0,0,0,0,0,0,0,0,0,0,0,0,0,0,0,0,0,0,0,0,0,0,0,0,0,0,0,0,0,0,0,0,0,0,0,0,0,0,0,0,0,0,0,0,0,0,0,0,0,0,0,0,0,0,0,0,0,0,0,0,0,0,0,0,0,0,0,0,0,0,0,0,0,0,0,0,0,0,0,0],"id":7,"left_children":[1,3,5,7,9,11,13,15,17,19,21,23,25,27,29,31,33,35,37,39,41,43,45,47,49,51,53,55,57,59,61,63,65,67,69,71,73,75,77,79,81,83,85,87,89,91,93,95,97,-1,-1,99,101,-1,103,105,107,109,111,113,115,117,119,-1,-1,-1,-1,-1,-1,-1,-1,-1,-1,-1,-1,-1,-1,-1,-1,-1,-1,-1,-1,-1,-1,-1,-1,-1,-1,-1,-1,-1,-1,-1,-1,-1,-1,-1,-1,-1,-1,-1,-1,-1,-1,-1,-1,-1,-1,-1,-1,-1,-1,-1,-1,-1,-1,-1,-1,-1,-1],"loss_changes":[1.27204735E2,1.193305E2,5.9736748E1,1.0303374E2,2.9439987E1,9.295906E0,5.0751614E1,9.266009E1,2.3755241E1,7.5625916E0,2.6787918E1,2.6588364E0,7.5013733E0,2.7591095E1,3.0742014E1,7.784906E1,5.8867546E1,2.3858316E1,1.4370056E1,4.965355E0,6.1057253E0,8.151979E0,2.5883728E1,2.3839035E0,3.3528473E0,6.041256E0,6.135105E0,1.5222931E1,8.746605E0,3.265153E1,1.231539E1,5.078978E1,3.292346E1,8.240349E0,3.22892E1,9.751942E0,1.1789072E1,9.131668E0,5.667797E0,3.3711395E0,6.5778694E0,2.003527E0,4.5492506E0,4.1388206E0,5.914249E0,1.3310135E1,1.8435202E1,1.4348297E0,3.0222926E0,0E0,0E0,6.084776E0,1.4522403E1,0E0,2.66856E0,8.79628E0,1.6010487E1,7.8874717E0,6.875843E0,1.6423426E1,1.8373863E1,9.344044E0,4.3602242E0,0E0,0E0,0E0,0E0,0E0,0E0,0E0,0E0,0E0,0E0,0E0,0E0,0E0,0E0,0E0,0E0,0E0,0E0,0E0,0E0,0E0,0E0,0E0,0E0,0E0,0E0,0E0,0E0,0E0,0E0,0E0,0E0,0E0,0E0,0E0,0E0,0E0,0E0,0E0,0E0,0E0,0E0,0E0,0E0,0E0,0E0,0E0,0E0,0E0,0E0,0E0,0E0,0E0,0E0,0E0,0E0,0E0,0E0],"parents":[2147483647,0,0,1,1,2,2,3,3,4,4,5,5,6,6,7,7,8,8,9,9,10,10,11,11,12,12,13,13,14,14,15,15,16,16,17,17,18,18,19,19,20,20,21,21,22,22,23,23,24,24,25,25,26,26,27,27,28,28,29,29,30,30,31,31,32,32,33,33,34,34,35,35,36,36,37,37,38,38,39,39,40,40,41,41,42,42,43,43,44,44,45,45,46,46,47,47,48,48,51,51,52,52,54,54,55,55,56,56,57,57,58,58,59,59,60,60,61,61,62,62],"right_children":[2,4,6,8,10,12,14,16,18,20,22,24,26,28,30,32,34,36,38,40,42,44,46,48,50,52,54,56,58,60,62,64,66,68,70,72,74,76,78,80,82,84,86,88,90,92,94,96,98,-1,-1,100,102,-1,104,106,108,110,112,114,116,118,120,-1,-1,-1,-1,-1,-1,-1,-1,-1,-1,-1,-1,-1,-1,-1,-1,-1,-1,-1,-1,-1,-1,-1,-1,-1,-1,-1,-1,-1,-1,-1,-1,-1,-1,-1,-1,-1,-1,-1,-1,-1,-1,-1,-1,-1,-1,-1,-1,-1,-1,-1,-1,-1,-1,-1,-1,-1,-1],"split_conditions":[1.1288157E0,1.3640579E0,-1.7828149E-1,1.1597041E0,-3.2713947E-1,-4.8674935E-1,5.9208375E-1,5.2914876E-1,-3.4293053E-1,2.514301E0,-1.4053037E0,3.2482991E0,-5.9433218E-2,1.9809936E0,2.220782E0,3.4061305E-2,-4.8674935E-1,-7.197009E-2,9.241107E-1,5.730461E-1,3.4030363E-1,-3.264011E-1,1.1597041E0,1.1419387E0,-4.2332377E-2,1.9756542E0,-7.980587E-1,-7.197009E-2,1.8370025E0,1.8149314E0,1.9809936E0,3.684931E-2,1.2947143E0,3.684931E-2,9.497033E-3,1.7886285E0,5.1613563E-1,-3.211648E-1,1.3551959E0,-5.555147E-1,-2.0615269E-1,1.9809936E0,-6.9112825E-1,-4.7508016E-2,2.1079218E0,-7.546603E-1,2.2894616E0,2.7792685E0,-5.54052E-1,2.2243302E-1,-2.5824374E-1,1.0740273E0,1.8567932E0,-2.3715179E-1,-6.788572E-1,7.37931E-2,2.4578228E0,-4.8250854E-1,2.876625E-1,-8.491947E-1,-2.7227747E-1,7.1469706E-1,9.241107E-1,8.150666E-3,6.617077E-2,-2.1722158E-2,-1.13972634E-1,8.817382E-3,1.3754863E-1,-1.08172074E-1,-4.198468E-2,1.4076093E-1,6.1405646E-3,-4.3852434E-2,5.3468537E-2,2.1799032E-2,1.7258304E-1,5.284719E-3,2.5249407E-1,-6.0801827E-3,-2.8321767E-1,-1.0289595E-1,-2.2449784E-1,1.954561E-2,-2.8599262E-1,-1.8844427E-1,2.0659891E-1,3.107316E-1,-6.3579236E-3,-1.7742092E-2,2.962371E-1,-8.1586674E-2,-1.7049897E-1,-7.2665103E-3,-1.082364E-1,2.8572434E-1,9.980326E-2,-1.0080855E-1,1.9614553E-1,7.837698E-2,2.7341586E-1,-3.5929453E-1,1.2232209E-1,1.4691854E-1,2.5135756E-1,1.3828489E-1,2.6385948E-1,8.921729E-2,-3.4192085E-1,8.462161E-2,-1.2727846E-1,1.4635946E-1,-2.88624E-1,1.4615186E-1,-1.6825928E-3,-2.7969813E-1,-7.021626E-2,1.3657804E-1,3.5225585E-2,1.1273704E-1,-1.24053545E-1],"split_indices":[18,17,17,15,18,17,22,16,3,15,1,22,15,17,18,8,17,22,22,21,24,13,15,19,4,16,9,22,15,16,17,18,13,18,21,14,23,24,0,14,10,17,18,9,15,1,17,16,21,0,0,20,18,0,1,9,16,13,0,5,21,19,22,0,0,0,0,0,0,0,0,0,0,0,0,0,0,0,0,0,0,0,0,0,0,0,0,0,0,0,0,0,0,0,0,0,0,0,0,0,0,0,0,0,0,0,0,0,0,0,0,0,0,0,0,0,0,0,0,0,0],"split_type":[0,0,0,0,0,0,0,0,0,0,0,0,0,0,0,0,0,0,0,0,0,0,0,0,0,0,0,0,0,0,0,0,0,0,0,0,0,0,0,0,0,0,0,0,0,0,0,0,0,0,0,0,0,0,0,0,0,0,0,0,0,0,0,0,0,0,0,0,0,0,0,0,0,0,0,0,0,0,0,0,0,0,0,0,0,0,0,0,0,0,0,0,0,0,0,0,0,0,0,0,0,0,0,0,0,0,0,0,0,0,0,0,0,0,0,0,0,0,0,0,0],"sum_hessian":[2.0308758E4,1.7197713E4,3.1110444E3,1.5521768E4,1.675945E3,3.3313898E2,2.7779055E3,1.4280153E4,1.2416144E3,2.5285466E2,1.4230903E3,1.1468401E2,2.1845496E2,1.070519E3,1.7073865E3,1.1124242E4,3.155911E3,7.43818E2,4.9779636E2,2.3196133E2,2.0893318E1,6.230606E1,1.3607843E3,1.1145435E2,3.229661E0,1.13170685E2,1.0528427E2,9.4561456E2,1.2490442E2,1.3096886E3,3.97698E2,7.513017E3,3.6112253E3,2.117648E2,2.944146E3,2.9748975E2,4.4632828E2,4.0059216E2,9.7204185E1,6.645294E1,1.6550839E2,8.079858E0,1.281346E1,2.4282835E1,3.8023228E1,6.152509E2,7.455333E2,9.0176025E1,2.1278326E1,1.657459E0,1.5722021E0,9.065644E1,2.2514238E1,2.0760145E0,1.0320826E2,3.088551E2,6.3675946E2,9.454199E1,3.0362425E1,1.109196E3,2.0049246E2,3.580449E2,3.96531E1,5.7347144E3,1.7783027E3,3.2217166E3,3.8950873E2,6.426299E1,1.4750182E2,1.0108024E3,1.9333435E3,2.365396E2,6.095015E1,2.2822224E2,2.1810603E2,4.051641E1,3.6007574E2,8.898783E1,8.216355E0,4.2610636E0,6.2191883E1,8.189284E1,8.3615555E1,2.5742679E0,5.5055895E0,2.5685742E0,1.0244886E1,1.982458E1,4.458256E0,3.2573185E1,5.4500394E0,3.3085724E2,2.8439365E2,5.0666574E2,2.3886758E2,8.482416E1,5.351866E0,3.0307446E0,1.8247581E1,7.323187E1,1.7424574E1,7.819345E0,1.4694893E1,4.5295834E1,5.7912426E1,2.4394705E2,6.490806E1,6.2987213E2,6.887322E0,1.918452E1,7.535747E1,2.7605633E1,2.7567928E0,7.134544E1,1.0378506E3,4.9745125E1,1.5074733E2,2.298104E2,1.2823448E2,8.069677E0,3.1583422E1],"tree_param":{"num_deleted":"0","num_feature":"25","num_nodes":"121","size_leaf_vector":"1"}},{"base_weights":[2.0621032E-3,5.728412E-2,-8.7623134E-2,-5.470661E-3,2.090034E-1,-3.7830788E-1,-5.3381912E-2,1.9581825E-1,-3.4154482E-2,-9.262449E-2,2.6754594E-1,-6.534724E-1,-2.890872E-1,-1.7239125E-1,2.0994805E-2,1.22823924E-1,3.7733194E-1,6.5670433E-3,-1.871335E-1,3.924199E-1,-1.4922452E-1,5.349394E-1,2.071459E-1,-7.362388E-1,-2.636617E-1,-4.920139E-1,-1.7091891E-1,-1.479242E-1,-5.581948E-1,9.793338E-2,-1.8141524E-1,1.887722E-1,-8.127875E-2,3.2128513E-1,8.577816E-1,-1.5373941E-2,5.1858693E-1,-1.6475058E-1,-8.119035E-1,1.1084099E0,1.8578725E-1,3.1365344E-1,-2.0392969E-1,4.5206147E-1,7.2094667E-1,9.85664E-2,3.414031E-1,-8.1251603E-1,-3.370736E-1,-5.483973E-1,2.644097E-1,-3.572321E-1,-8.1359565E-1,-4.1037366E-1,-6.537795E-2,-2.5095004E-1,-5.418695E-2,3.7710893E-1,-6.0985494E-1,1.3193594E-1,-2.212195E-1,-2.6651928E-1,7.459031E-2,2.478853E-2,1.008762E-1,4.4939943E-2,-6.621766E-2,1.2884356E-1,-1.6926728E-2,1.07453115E-1,2.7577326E-1,1.3551592E-2,-1.2658575E-2,3.1319755E-1,1.1231633E-1,-6.694134E-2,2.442665E-2,-2.649375E-1,2.714718E-1,4.5323005E-1,8.8546194E-2,-2.295958E-1,9.850733E-2,-7.327718E-2,1.6937536E-1,-1.01043805E-1,-1.486755E-2,1.5314202E-1,8.205827E-3,2.7159762E-1,1.6809595E-1,4.845542E-2,-3.9468143E-2,1.9448896E-1,8.779265E-2,-1.976934E-1,-2.8597453E-1,-4.4978768E-2,-3.0001962E-1,1.6068996E-1,-1.9064976E-1,-1.0044964E-1,3.276827E-1,9.6465774E-2,-1.5036713E-1,8.444436E-2,-2.5854552E-1,-5.0774615E-2,-1.8166363E-1,-3.6784496E-2,1.8886378E-1,6.740959E-2,-8.351782E-2,6.0408983E-2,-2.8204046E-2,-1.7825615E-1,2.8427958E-1,-2.7506596E-1,-1.466807E-1,2.7917467E-2,1.3355206E-1,-1.16036996E-1,7.5328154E-3,-5.283937E-2,-1.4580214E-1,4.980775E-4,1.3523692E-1],"categories":[],"categories_nodes":[],"categories_segments":[],"categories_sizes":[],"default_left":[0,0,0,0,0,0,0,0,0,0,0,0,0,0,0,0,0,0,0,0,0,0,0,0,0,0,0,0,0,0,0,0,0,0,0,0,0,0,0,0,0,0,0,0,0,0,0,0,0,0,0,0,0,0,0,0,0,0,0,0,0,0,0,0,0,0,0,0,0,0,0,0,0,0,0,0,0,0,0,0,0,0,0,0,0,0,0,0,0,0,0,0,0,0,0,0,0,0,0,0,0,0,0,0,0,0,0,0,0,0,0,0,0,0,0,0,0,0,0,0,0,0,0,0,0,0,0],"id":8,"left_children":[1,3,5,7,9,11,13,15,17,19,21,23,25,27,29,31,33,35,37,39,41,43,45,47,49,51,53,55,57,59,61,63,65,67,69,71,73,75,77,79,81,83,85,87,89,91,93,95,97,99,101,103,105,107,109,111,113,115,117,119,121,123,125,-1,-1,-1,-1,-1,-1,-1,-1,-1,-1,-1,-1,-1,-1,-1,-1,-1,-1,-1,-1,-1,-1,-1,-1,-1,-1,-1,-1,-1,-1,-1,-1,-1,-1,-1,-1,-1,-1,-1,-1,-1,-1,-1,-1,-1,-1,-1,-1,-1,-1,-1,-1,-1,-1,-1,-1,-1,-1,-1,-1,-1,-1,-1,-1],"loss_changes":[9.948459E1,1.1837075E2,7.6173096E1,5.07903E1,6.425964E1,1.961174E1,6.0631855E1,1.4490986E1,4.7965096E1,1.6311596E1,4.909494E1,6.1516724E0,1.4563641E1,2.4785057E1,6.567474E1,1.0568161E1,8.185104E0,6.833164E1,2.2502125E1,8.987435E0,1.3506827E1,8.318665E0,3.621975E1,4.648903E0,5.5588217E0,9.429905E0,9.768088E0,2.3923916E1,7.8036957E0,3.3187515E1,2.5326424E1,9.252741E0,6.2249775E0,1.1588163E1,6.6028214E-1,9.473928E0,1.8544868E1,2.249733E1,7.613495E0,4.0420856E0,6.953188E0,8.048389E0,9.734837E0,9.676018E0,4.5618362E0,1.9960323E1,1.6444336E1,2.2896194E0,3.2805393E0,2.579844E0,6.957723E0,1.5781483E1,3.698967E0,5.4684486E0,1.0824421E1,1.5472519E1,1.3240982E1,5.4516997E0,5.080681E0,3.3593346E1,1.2023428E1,1.7213333E1,7.9715486E0,0E0,0E0,0E0,0E0,0E0,0E0,0E0,0E0,0E0,0E0,0E0,0E0,0E0,0E0,0E0,0E0,0E0,0E0,0E0,0E0,0E0,0E0,0E0,0E0,0E0,0E0,0E0,0E0,0E0,0E0,0E0,0E0,0E0,0E0,0E0,0E0,0E0,0E0,0E0,0E0,0E0,0E0,0E0,0E0,0E0,0E0,0E0,0E0,0E0,0E0,0E0,0E0,0E0,0E0,0E0,0E0,0E0,0E0,0E0,0E0,0E0,0E0,0E0,0E0],"parents":[2147483647,0,0,1,1,2,2,3,3,4,4,5,5,6,6,7,7,8,8,9,9,10,10,11,11,12,12,13,13,14,14,15,15,16,16,17,17,18,18,19,19,20,20,21,21,22,22,23,23,24,24,25,25,26,26,27,27,28,28,29,29,30,30,31,31,32,32,33,33,34,34,35,35,36,36,37,37,38,38,39,39,40,40,41,41,42,42,43,43,44,44,45,45,46,46,47,47,48,48,49,49,50,50,51,51,52,52,53,53,54,54,55,55,56,56,57,57,58,58,59,59,60,60,61,61,62,62],"right_children":[2,4,6,8,10,12,14,16,18,20,22,24,26,28,30,32,34,36,38,40,42,44,46,48,50,52,54,56,58,60,62,64,66,68,70,72,74,76,78,80,82,84,86,88,90,92,94,96,98,100,102,104,106,108,110,112,114,116,118,120,122,124,126,-1,-1,-1,-1,-1,-1,-1,-1,-1,-1,-1,-1,-1,-1,-1,-1,-1,-1,-1,-1,-1,-1,-1,-1,-1,-1,-1,-1,-1,-1,-1,-1,-1,-1,-1,-1,-1,-1,-1,-1,-1,-1,-1,-1,-1,-1,-1,-1,-1,-1,-1,-1,-1,-1,-1,-1,-1,-1,-1,-1,-1,-1,-1,-1],"split_conditions":[4.3865427E-1,7.602648E-2,-3.2713947E-1,-6.729153E-1,-3.2713947E-1,-6.9112825E-1,6.1786526E-1,1.7204814E-1,-4.8674935E-1,-5.959111E-1,-1.7828149E-1,1.2331256E0,5.730461E-1,9.135995E-1,1.6725258E0,-1.7828149E-1,2.220782E0,-7.367317E-1,2.5842454E0,-1.0342257E0,-5.555147E-1,6.1786526E-1,5.730461E-1,1.7015429E0,1.1365951E0,3.8704734E-2,2.4173401E-1,2.9127154E-1,-1.3737191E0,1.5881646E0,1.7001442E0,-6.986685E-1,5.1613563E-1,1.4934857E0,2.7401203E-1,-5.0652504E-1,-7.952172E-1,1.1288157E0,4.8289987E-1,1.301864E-1,-1.045175E0,9.497033E-3,6.1786526E-1,1.5881646E0,2.6005685E-1,4.4391595E-2,-1.137426E-1,-5.2856013E-2,3.5622394E0,-2.8220004E-1,-1.6718613E-1,-4.03997E-1,-7.5235116E-1,-1.635688E-1,2.2433817E0,-8.167704E-1,-6.091974E-1,7.602648E-2,2.1148618E-1,1.4928044E0,1.1288157E0,-4.6463065E-2,1.4928044E0,2.478853E-2,1.008762E-1,4.4939943E-2,-6.621766E-2,1.2884356E-1,-1.6926728E-2,1.07453115E-1,2.7577326E-1,1.3551592E-2,-1.2658575E-2,3.1319755E-1,1.1231633E-1,-6.694134E-2,2.442665E-2,-2.649375E-1,2.714718E-1,4.5323005E-1,8.8546194E-2,-2.295958E-1,9.850733E-2,-7.327718E-2,1.6937536E-1,-1.01043805E-1,-1.486755E-2,1.5314202E-1,8.205827E-3,2.7159762E-1,1.6809595E-1,4.845542E-2,-3.9468143E-2,1.9448896E-1,8.779265E-2,-1.976934E-1,-2.8597453E-1,-4.4978768E-2,-3.0001962E-1,1.6068996E-1,-1.9064976E-1,-1.0044964E-1,3.276827E-1,9.6465774E-2,-1.5036713E-1,8.444436E-2,-2.5854552E-1,-5.0774615E-2,-1.8166363E-1,-3.6784496E-2,1.8886378E-1,6.740959E-2,-8.351782E-2,6.0408983E-2,-2.8204046E-2,-1.7825615E-1,2.8427958E-1,-2.7506596E-1,-1.466807E-1,2.7917467E-2,1.3355206E-1,-1.16036996E-1,7.5328154E-3,-5.283937E-2,-1.4580214E-1,4.980775E-4,1.3523692E-1],"split_indices":[17,15,18,5,18,18,15,4,17,16,17,23,21,5,17,17,18,15,22,2,14,15,21,15,21,10,20,21,1,22,21,14,23,16,13,13,17,18,4,17,0,21,15,22,22,11,16,11,7,19,1,22,14,10,15,14,14,15,15,18,18,10,18,0,0,0,0,0,0,0,0,0,0,0,0,0,0,0,0,0,0,0,0,0,0,0,0,0,0,0,0,0,0,0,0,0,0,0,0,0,0,0,0,0,0,0,0,0,0,0,0,0,0,0,0,0,0,0,0,0,0,0,0,0,0,0,0],"split_type":[0,0,0,0,0,0,0,0,0,0,0,0,0,0,0,0,0,0,0,0,0,0,0,0,0,0,0,0,0,0,0,0,0,0,0,0,0,0,0,0,0,0,0,0,0,0,0,0,0,0,0,0,0,0,0,0,0,0,0,0,0,0,0,0,0,0,0,0,0,0,0,0,0,0,0,0,0,0,0,0,0,0,0,0,0,0,0,0,0,0,0,0,0,0,0,0,0,0,0,0,0,0,0,0,0,0,0,0,0,0,0,0,0,0,0,0,0,0,0,0,0,0,0,0,0,0,0],"sum_hessian":[2.0085334E4,1.2431332E4,7.654001E3,8.794625E3,3.6367068E3,8.05532E2,6.8484688E3,1.096201E3,7.6984243E3,5.9102014E2,3.0456868E3,1.9568808E2,6.0984393E2,2.63343E3,4.215039E3,7.8300024E2,3.1320078E2,6.080746E3,1.6176783E3,6.1139614E1,5.298805E2,5.5975806E2,2.4859287E3,1.6068254E2,3.500554E1,2.232684E2,3.865755E2,2.4776826E3,1.5574727E2,3.054501E3,1.1605377E3,5.91843E2,1.9115723E2,2.8197565E2,3.1225128E1,5.8318125E3,2.4893379E2,1.562948E3,5.473027E1,1.2715561E1,4.8424053E1,5.5504635E1,4.743759E2,3.8959796E2,1.7016011E2,1.3753547E3,1.110574E3,1.3403415E2,2.664839E1,2.2717691E1,1.2287849E1,1.5881606E2,6.445235E1,1.17377464E2,2.6919803E2,1.1795604E3,1.2981223E3,7.822455E0,1.479248E2,2.7609375E3,2.9356366E2,8.7096234E2,2.895754E2,3.4506055E2,2.4678249E2,7.1913864E1,1.1924336E2,2.1908286E2,6.2892803E1,4.168512E0,2.7056618E1,1.7901277E3,4.0416848E3,5.22641E1,1.966697E2,1.2633907E3,2.9955728E2,5.3016495E1,1.7137777E0,7.933031E0,4.78253E0,5.7430973E0,4.2680954E1,1.7227732E1,3.82769E1,2.542958E2,2.2008008E2,3.4231592E2,4.728204E1,7.706421E1,9.30959E1,1.0801702E3,2.951846E2,1.5057623E2,9.599977E2,6.681829E1,6.721586E1,2.1738382E1,4.9100084E0,1.3066171E0,2.1411074E1,7.473665E0,4.8141837E0,2.7578121E1,1.3123793E2,2.5144851E0,6.1937862E1,5.3342567E1,6.40349E1,2.4947382E2,1.9724222E1,6.3950775E1,1.1156096E3,1.7448283E2,1.1236394E3,2.8790848E0,4.9433703E0,3.9936836E1,1.07987976E2,2.457251E3,3.0368643E2,1.7521938E2,1.183443E2,6.18187E2,2.5277531E2,2.433952E2,4.6180206E1],"tree_param":{"num_deleted":"0","num_feature":"25","num_nodes":"127","size_leaf_vector":"1"}},{"base_weights":[1.7734689E-3,2.0337656E-2,-1.8292117E-1,6.2207864E-3,2.688473E-1,-2.261049E-1,9.899702E-2,6.245055E-2,-7.620093E-2,3.6597523E-1,4.4410557E-2,-1.1479927E-1,-3.79029E-1,-6.413007E-1,1.4661482E-1,1.0648468E-3,1.7400244E-1,2.8869402E-1,-9.441904E-2,2.7687448E-1,6.7115605E-1,5.8137834E-1,-2.2890821E-2,-5.7824296E-1,-7.676616E-2,-5.7874477E-1,-2.623906E-1,1.3291565E-1,-8.1018025E-1,-1.412092E-1,3.0907547E-1,1.144102E-2,-2.546294E-1,2.3227817E-1,-9.059112E-3,6.1518884E-1,1.7009184E-1,-7.077709E-1,-8.326754E-2,1.7443927E-1,5.2374756E-1,6.936618E-1,-2.986796E-1,-3.5355738E-1,7.1385175E-1,-1.0091826E-1,4.782913E-1,-2.3969461E-1,-7.197148E-1,-1.1019305E-1,2.7147034E-1,-7.2032726E-1,-4.1427672E-1,-3.3651182E-1,2.2983879E-1,-8.0048606E-2,-1.0712084E0,4.910676E-1,-3.0179474E-1,7.685744E-1,2.3430261E-1,3.216373E-2,-2.0840492E-3,-1.4654577E-2,-1.5232028E-1,1.6165116E-1,5.864126E-2,-7.711892E-2,2.1863349E-2,-3.435361E-2,3.0533746E-1,9.92767E-3,1.5726736E-1,-1.167198E-1,-2.863448E-1,-1.5072995E-2,-7.930903E-2,9.085132E-2,-3.1497687E-2,1.9712125E-1,3.465577E-2,6.617574E-2,2.2196044E-1,-4.9867606E-1,1.5599656E-1,2.705902E-1,8.63678E-3,-3.8825877E-2,2.7718025E-1,-1.7266798E-1,1.9210449E-1,1.09619506E-1,-2.1589886E-1,-2.7205047E-1,-6.441862E-2,-2.764468E-2,-2.4388503E-1,1.5861554E-1,-8.986449E-2,-1.3518798E-1,-2.517346E-1,-1.04858756E-1,-3.870781E-1,-1.1014823E-1,1.95087E-1,2.508573E-2,3.458863E-1,-2.6484463E-1,2.5702935E-1,-3.9210796E-1,3.136137E-2,-1.7431977E-1,2.6262277E-1,2.3782507E-1,-1.2644683E-1,2.9539862E-1,-1.8676901E-1,2.1196851E-1,4.7832742E-2],"categories":[],"categories_nodes":[],"categories_segments":[],"categories_sizes":[],"default_left":[0,0,0,0,0,0,0,0,0,0,0,0,0,0,0,0,0,0,0,0,0,0,0,0,0,0,0,0,0,0,0,0,0,0,0,0,0,0,0,0,0,0,0,0,0,0,0,0,0,0,0,0,0,0,0,0,0,0,0,0,0,0,0,0,0,0,0,0,0,0,0,0,0,0,0,0,0,0,0,0,0,0,0,0,0,0,0,0,0,0,0,0,0,0,0,0,0,0,0,0,0,0,0,0,0,0,0,0,0,0,0,0,0,0,0,0,0,0,0],"id":9,"left_children":[1,3,5,7,9,11,13,15,17,19,21,23,25,27,29,31,33,35,37,39,41,43,45,47,49,51,53,-1,55,57,59,61,63,65,67,69,71,73,75,77,79,81,-1,83,85,87,89,91,93,95,97,99,101,103,105,107,109,111,113,115,117,-1,-1,-1,-1,-1,-1,-1,-1,-1,-1,-1,-1,-1,-1,-1,-1,-1,-1,-1,-1,-1,-1,-1,-1,-1,-1,-1,-1,-1,-1,-1,-1,-1,-1,-1,-1,-1,-1,-1,-1,-1,-1,-1,-1,-1,-1,-1,-1,-1,-1,-1,-1,-1,-1,-1,-1,-1,-1],"loss_changes":[6.7986984E1,6.320748E1,2.2070198E1,7.902476E1,2.1095566E1,2.6692894E1,8.598596E0,6.940852E1,4.5996803E1,1.8190681E1,1.0625913E1,1.60046E1,1.5251465E1,3.0630465E0,1.068104E1,1.7352226E1,3.8384476E1,1.2638308E1,4.4995007E1,1.3179806E1,6.3930817E0,4.3079987E0,1.0290834E1,3.1275883E0,9.838358E0,5.359276E0,1.5374418E1,0E0,2.4166412E0,8.551536E0,4.826763E0,1.1069059E1,1.3259644E1,3.0689224E1,1.7692514E1,2.576514E1,1.176108E1,8.866566E0,3.8684128E1,1.3392781E1,8.2729E0,3.1284103E0,0E0,6.274779E0,3.712884E0,6.763603E0,6.4242487E0,6.596093E0,4.3500404E0,9.6832075E0,1.1041252E1,3.7615433E0,6.057562E0,1.1272137E1,7.3903627E0,4.169618E0,2.7959719E0,7.57289E0,9.062086E0,6.611987E0,4.3690696E0,0E0,0E0,0E0,0E0,0E0,0E0,0E0,0E0,0E0,0E0,0E0,0E0,0E0,0E0,0E0,0E0,0E0,0E0,0E0,0E0,0E0,0E0,0E0,0E0,0E0,0E0,0E0,0E0,0E0,0E0,0E0,0E0,0E0,0E0,0E0,0E0,0E0,0E0,0E0,0E0,0E0,0E0,0E0,0E0,0E0,0E0,0E0,0E0,0E0,0E0,0E0,0E0,0E0,0E0,0E0,0E0,0E0,0E0],"parents":[2147483647,0,0,1,1,2,2,3,3,4,4,5,5,6,6,7,7,8,8,9,9,10,10,11,11,12,12,13,13,14,14,15,15,16,16,17,17,18,18,19,19,20,20,21,21,22,22,23,23,24,24,25,25,26,26,28,28,29,29,30,30,31,31,32,32,33,33,34,34,35,35,36,36,37,37,38,38,39,39,40,40,41,41,43,43,44,44,45,45,46,46,47,47,48,48,49,49,50,50,51,51,52,52,53,53,54,54,55,55,56,56,57,57,58,58,59,59,60,60],"right_children":[2,4,6,8,10,12,14,16,18,20,22,24,26,28,30,32,34,36,38,40,42,44,46,48,50,52,54,-1,56,58,60,62,64,66,68,70,72,74,76,78,80,82,-1,84,86,88,90,92,94,96,98,100,102,104,106,108,110,112,114,116,118,-1,-1,-1,-1,-1,-1,-1,-1,-1,-1,-1,-1,-1,-1,-1,-1,-1,-1,-1,-1,-1,-1,-1,-1,-1,-1,-1,-1,-1,-1,-1,-1,-1,-1,-1,-1,-1,-1,-1,-1,-1,-1,-1,-1,-1,-1,-1,-1,-1,-1,-1,-1,-1,-1,-1,-1,-1,-1],"split_conditions":[1.0017393E0,1.8567932E0,1.2331256E0,2.6005685E-1,1.5881646E0,-7.197009E-2,-5.9433218E-2,-3.2713947E-1,-4.8674935E-1,-8.904696E-2,-1.7828149E-1,-9.45869E-1,5.730461E-1,-4.8674935E-1,3.684931E-2,-7.197009E-2,6.8987155E-1,-7.952172E-1,-6.9112825E-1,8.548206E-1,2.3788414E0,-7.367317E-1,3.3127484E0,-3.6296433E-1,1.8370025E0,-7.7562755E-1,1.6632406E0,1.3291565E-1,3.684931E-2,1.1251926E0,1.301864E-1,-5.706732E-1,-1.9124684E-1,-1.7828149E-1,4.0083808E-1,-6.9112825E-1,7.602648E-2,-1.137426E-1,1.332763E0,1.05559E0,8.57111E-1,-1.3547683E0,-2.986796E-1,-1.8397178E-1,7.235193E-1,3.6979705E-1,-4.0846202E-1,1.3640579E0,1.3362424E0,8.505944E-1,2.2894616E0,4.3865427E-1,-6.7632E-1,2.6497607E0,1.2561376E0,-7.401606E-1,1.2127428E0,2.4173401E-1,-1.2979159E0,1.1597041E0,-1.137426E-1,3.216373E-2,-2.0840492E-3,-1.4654577E-2,-1.5232028E-1,1.6165116E-1,5.864126E-2,-7.711892E-2,2.1863349E-2,-3.435361E-2,3.0533746E-1,9.92767E-3,1.5726736E-1,-1.167198E-1,-2.863448E-1,-1.5072995E-2,-7.930903E-2,9.085132E-2,-3.1497687E-2,1.9712125E-1,3.465577E-2,6.617574E-2,2.2196044E-1,-4.9867606E-1,1.5599656E-1,2.705902E-1,8.63678E-3,-3.8825877E-2,2.7718025E-1,-1.7266798E-1,1.9210449E-1,1.09619506E-1,-2.1589886E-1,-2.7205047E-1,-6.441862E-2,-2.764468E-2,-2.4388503E-1,1.5861554E-1,-8.986449E-2,-1.3518798E-1,-2.517346E-1,-1.04858756E-1,-3.870781E-1,-1.1014823E-1,1.95087E-1,2.508573E-2,3.458863E-1,-2.6484463E-1,2.5702935E-1,-3.9210796E-1,3.136137E-2,-1.7431977E-1,2.6262277E-1,2.3782507E-1,-1.2644683E-1,2.9539862E-1,-1.8676901E-1,2.1196851E-1,4.7832742E-2],"split_indices":[5,18,23,22,22,22,15,18,17,10,17,3,21,17,18,22,16,17,18,21,15,15,18,0,15,3,24,0,18,8,17,5,11,17,18,18,15,16,16,17,19,1,0,9,0,11,7,17,1,16,17,17,3,15,22,3,20,20,1,15,16,0,0,0,0,0,0,0,0,0,0,0,0,0,0,0,0,0,0,0,0,0,0,0,0,0,0,0,0,0,0,0,0,0,0,0,0,0,0,0,0,0,0,0,0,0,0,0,0,0,0,0,0,0,0,0,0,0,0],"split_type":[0,0,0,0,0,0,0,0,0,0,0,0,0,0,0,0,0,0,0,0,0,0,0,0,0,0,0,0,0,0,0,0,0,0,0,0,0,0,0,0,0,0,0,0,0,0,0,0,0,0,0,0,0,0,0,0,0,0,0,0,0,0,0,0,0,0,0,0,0,0,0,0,0,0,0,0,0,0,0,0,0,0,0,0,0,0,0,0,0,0,0,0,0,0,0,0,0,0,0,0,0,0,0,0,0,0,0,0,0,0,0,0,0,0,0,0,0,0,0],"sum_hessian":[1.9826674E4,1.8016658E4,1.810016E3,1.7049186E4,9.674731E2,1.5697607E3,2.402552E2,1.0135074E4,6.9141104E3,6.7480975E2,2.9266336E2,9.0951904E2,6.6024176E2,1.3766377E1,2.2648883E2,6.5381924E3,3.5968818E3,3.280795E2,6.5860312E3,5.237908E2,1.5101895E2,3.1745073E1,2.6091827E2,6.7902695E1,8.4161633E2,2.4196753E2,4.182742E2,1.6363188E0,1.2130059E1,8.176333E1,1.447255E2,6.2841353E3,2.5405743E2,2.7281384E3,8.687433E2,8.630558E1,2.4177391E2,1.1648861E2,6.4695425E3,3.713944E2,1.5239636E2,1.49583E2,1.4359566E0,3.7326775E0,2.8012396E1,2.2646007E2,3.4458206E1,2.0806393E1,4.70963E1,7.685295E2,7.3086845E1,1.2821432E2,1.13753204E2,3.6380743E2,5.446675E1,3.538645E0,8.5914135E0,1.614344E1,6.561989E1,1.8956154E1,1.2576935E2,1.01141956E3,5.2727153E3,1.4078697E2,1.1327046E2,2.90982E2,2.4371565E3,2.1521138E2,6.535319E2,3.0941303E1,5.5364277E1,1.7512038E2,6.665354E1,5.1952637E1,6.453597E1,5.472811E3,9.967315E2,2.544097E2,1.1698472E2,1.1441878E2,3.7977585E1,1.3823818E1,1.3575917E2,1.1327605E0,2.599917E0,2.1729061E1,6.283335E0,2.2118266E2,5.277409E0,4.252532E0,3.0205673E1,9.309132E0,1.1497261E1,3.3782574E1,1.3313725E1,7.503934E2,1.8136112E1,5.0438156E1,2.2648687E1,4.0669777E1,8.754455E1,1.0722666E2,6.5265484E0,3.534574E2,1.0350042E1,4.7960487E1,6.506264E0,1.9367013E0,1.6019436E0,7.063115E0,1.5282989E0,4.1249394E0,1.2018501E1,5.914231E0,5.9705654E1,1.666045E1,2.2957046E0,1.605392E1,1.0971542E2],"tree_param":{"num_deleted":"0","num_feature":"25","num_nodes":"119","size_leaf_vector":"1"}},{"base_weights":[1.4154194E-3,3.461176E-2,-8.918457E-2,1.7238768E-2,3.009672E-1,-2.3109326E-1,-3.428352E-2,-3.6712346E-4,2.2720055E-1,-4.250869E-1,3.2800025E-1,-4.120695E-1,-1.277599E-1,-5.465972E-3,-2.64206E-1,-2.6363494E-2,8.781257E-2,6.718408E-2,3.576029E-1,3.1153595E-1,-5.2865887E-1,4.3381624E-2,3.931671E-1,-4.8999044E-1,-1.6041382E-1,1.1244631E-1,-2.195158E-1,-4.8310343E-2,2.605669E-1,-1.609662E-1,-5.608437E-1,1.0676574E-2,-1.2836431E-1,-3.4409103E-1,1.08113416E-1,1.7593637E-1,-1.3833424E-1,4.478411E-1,3.871404E-2,2.5916848E-1,-7.0262486E-1,2.2144288E-1,-2.6738423E-1,4.084237E-1,-4.6329153E-1,3.1845912E-1,-5.1477206E-1,-8.529049E-1,-5.9800506E-2,2.114805E-2,4.7978276E-1,9.006943E-3,-3.1502962E-1,3.4693033E-2,-1.8026055E-1,7.2311633E-3,3.876516E-1,-4.623779E-1,-6.6553354E-2,-8.451981E-1,-4.385645E-1,-1.9470502E-3,5.0466884E-2,-1.9806902E-1,-3.462036E-2,4.04785E-2,-1.2527396E-1,-4.9616154E-3,5.0093953E-2,3.079884E-2,1.4821747E-1,-2.2906433E-1,-1.344142E-2,1.4189887E-1,-8.503653E-2,5.3043265E-2,-1.797244E-1,-1.5018688E-1,2.6357588E-1,-5.8497524E-1,-1.4346053E-1,9.4127856E-2,-3.0240482E-1,-2.1333867E-1,-1.9665621E-2,2.1880756E-1,1.0701145E-1,-2.0118712E-1,1.9602533E-1,2.0192328E-1,-1.22395925E-1,-1.031394E-1,-1.954497E-1,1.047897E-2,-3.9134017E-1,-1.8220711E-1,1.7998729E-2,-8.8919744E-2,4.778368E-2,6.8903714E-2,3.0353397E-1,1.5063672E-2,-4.2217478E-1,-4.2170912E-2,-1.3015419E-1,-7.641626E-2,1.903068E-2,-1.0668739E-1,-4.041037E-3,-9.360809E-3,2.7369824E-1,7.290487E-2,1.8091835E-1,-1.7713035E-2,-2.1658604E-1,-4.6975998E-4,-1.6819271E-1,6.5510124E-2,-2.670465E-1,-1.6356964E-1,5.5231046E-2],"categories":[],"categories_nodes":[],"categories_segments":[],"categories_sizes":[],"default_left":[0,0,0,0,0,0,0,0,0,0,0,0,0,0,0,0,0,0,0,0,0,0,0,0,0,0,0,0,0,0,0,0,0,0,0,0,0,0,0,0,0,0,0,0,0,0,0,0,0,0,0,0,0,0,0,0,0,0,0,0,0,0,0,0,0,0,0,0,0,0,0,0,0,0,0,0,0,0,0,0,0,0,0,0,0,0,0,0,0,0,0,0,0,0,0,0,0,0,0,0,0,0,0,0,0,0,0,0,0,0,0,0,0,0,0,0,0,0,0,0,0],"id":10,"left_children":[1,3,5,7,9,11,13,15,17,19,21,23,25,27,29,31,33,35,37,-1,39,41,43,45,47,49,51,53,55,57,59,61,63,65,67,69,71,73,75,77,79,81,83,85,87,89,91,93,95,97,99,101,103,105,107,109,111,113,115,117,119,-1,-1,-1,-1,-1,-1,-1,-1,-1,-1,-1,-1,-1,-1,-1,-1,-1,-1,-1,-1,-1,-1,-1,-1,-1,-1,-1,-1,-1,-1,-1,-1,-1,-1,-1,-1,-1,-1,-1,-1,-1,-1,-1,-1,-1,-1,-1,-1,-1,-1,-1,-1,-1,-1,-1,-1,-1,-1,-1,-1],"loss_changes":[5.9173477E1,6.662397E1,4.1095814E1,4.997122E1,1.7442947E1,2.7466576E1,2.521167E1,2.8595778E1,2.1799206E1,5.4119773E0,1.5758049E1,1.0400391E1,2.070199E1,3.8566284E1,1.2888483E1,3.6400333E1,2.494064E1,1.0547733E1,1.6558075E1,0E0,4.3792715E0,8.889599E0,9.230492E0,8.329239E0,8.855478E0,8.708594E0,1.4827457E1,3.1922953E1,1.5107714E1,8.955581E0,3.4197845E0,1.9118443E1,1.76195E1,4.5533714E0,1.9914057E1,7.136735E0,9.526018E0,8.3914795E0,1.139238E1,3.390538E0,6.164748E0,1.1892966E1,5.200084E0,1.1032661E1,3.350529E0,3.5563736E0,9.028992E0,6.5168037E0,7.4283547E0,9.226304E0,6.6472473E0,1.1810414E1,9.868473E0,1.4903801E1,3.291349E1,5.5180745E0,9.590672E0,7.8256435E0,7.7578278E0,1.710247E0,5.301631E0,0E0,0E0,0E0,0E0,0E0,0E0,0E0,0E0,0E0,0E0,0E0,0E0,0E0,0E0,0E0,0E0,0E0,0E0,0E0,0E0,0E0,0E0,0E0,0E0,0E0,0E0,0E0,0E0,0E0,0E0,0E0,0E0,0E0,0E0,0E0,0E0,0E0,0E0,0E0,0E0,0E0,0E0,0E0,0E0,0E0,0E0,0E0,0E0,0E0,0E0,0E0,0E0,0E0,0E0,0E0,0E0,0E0,0E0,0E0,0E0],"parents":[2147483647,0,0,1,1,2,2,3,3,4,4,5,5,6,6,7,7,8,8,9,9,10,10,11,11,12,12,13,13,14,14,15,15,16,16,17,17,18,18,20,20,21,21,22,22,23,23,24,24,25,25,26,26,27,27,28,28,29,29,30,30,31,31,32,32,33,33,34,34,35,35,36,36,37,37,38,38,39,39,40,40,41,41,42,42,43,43,44,44,45,45,46,46,47,47,48,48,49,49,50,50,51,51,52,52,53,53,54,54,55,55,56,56,57,57,58,58,59,59,60,60],"right_children":[2,4,6,8,10,12,14,16,18,20,22,24,26,28,30,32,34,36,38,-1,40,42,44,46,48,50,52,54,56,58,60,62,64,66,68,70,72,74,76,78,80,82,84,86,88,90,92,94,96,98,100,102,104,106,108,110,112,114,116,118,120,-1,-1,-1,-1,-1,-1,-1,-1,-1,-1,-1,-1,-1,-1,-1,-1,-1,-1,-1,-1,-1,-1,-1,-1,-1,-1,-1,-1,-1,-1,-1,-1,-1,-1,-1,-1,-1,-1,-1,-1,-1,-1,-1,-1,-1,-1,-1,-1,-1,-1,-1,-1,-1,-1,-1,-1,-1,-1,-1,-1],"split_conditions":[7.471221E-1,1.4183697E0,2.9127154E-1,7.5611186E-1,-1.4052306E0,4.0083808E-1,2.2894616E0,3.4694588E-1,4.0083808E-1,-5.959111E-1,-3.2713947E-1,1.2331256E0,-1.1399928E0,1.7015429E0,7.064266E-2,-1.7828149E-1,-6.9112825E-1,3.684259E-1,1.9201915E0,3.1153595E-1,-3.798161E-1,7.1469706E-1,4.1766973E0,-7.7070683E-1,-5.54052E-1,8.57111E-1,-3.7462217E-1,-1.9872743E-1,3.4030363E-1,1.1597041E0,-2.0085424E-1,2.4173401E-1,-6.9112825E-1,-4.8393783E-1,-3.7350476E-1,-6.6288006E-1,-5.54052E-1,2.324709E0,9.9952483E-1,-5.4912955E-1,-3.3125392E-1,1.2561376E0,-4.189927E-1,-4.03997E-1,1.9501154E0,9.497033E-3,-6.7254025E-1,3.8044956E-1,-3.2713947E-1,-2.136886E-1,1.001772E0,1.5194333E0,1.05559E0,2.1148618E-1,5.1613563E-1,4.907657E-1,2.1079218E0,-3.264011E-1,1.2974338E-1,1.4516449E-1,2.7852204E0,-1.9470502E-3,5.0466884E-2,-1.9806902E-1,-3.462036E-2,4.04785E-2,-1.2527396E-1,-4.9616154E-3,5.0093953E-2,3.079884E-2,1.4821747E-1,-2.2906433E-1,-1.344142E-2,1.4189887E-1,-8.503653E-2,5.3043265E-2,-1.797244E-1,-1.5018688E-1,2.6357588E-1,-5.8497524E-1,-1.4346053E-1,9.4127856E-2,-3.0240482E-1,-2.1333867E-1,-1.9665621E-2,2.1880756E-1,1.0701145E-1,-2.0118712E-1,1.9602533E-1,2.0192328E-1,-1.22395925E-1,-1.031394E-1,-1.954497E-1,1.047897E-2,-3.9134017E-1,-1.8220711E-1,1.7998729E-2,-8.8919744E-2,4.778368E-2,6.8903714E-2,3.0353397E-1,1.5063672E-2,-4.2217478E-1,-4.2170912E-2,-1.3015419E-1,-7.641626E-2,1.903068E-2,-1.0668739E-1,-4.041037E-3,-9.360809E-3,2.7369824E-1,7.290487E-2,1.8091835E-1,-1.7713035E-2,-2.1658604E-1,-4.6975998E-4,-1.6819271E-1,6.5510124E-2,-2.670465E-1,-1.6356964E-1,5.5231046E-2],"split_indices":[17,21,21,9,0,18,17,15,18,16,18,23,1,15,10,17,18,16,22,0,8,19,13,13,21,19,4,11,24,15,23,20,18,14,9,14,21,24,19,8,7,22,9,22,23,21,1,20,18,11,24,1,17,15,23,9,15,13,0,10,15,0,0,0,0,0,0,0,0,0,0,0,0,0,0,0,0,0,0,0,0,0,0,0,0,0,0,0,0,0,0,0,0,0,0,0,0,0,0,0,0,0,0,0,0,0,0,0,0,0,0,0,0,0,0,0,0,0,0,0,0],"split_type":[0,0,0,0,0,0,0,0,0,0,0,0,0,0,0,0,0,0,0,0,0,0,0,0,0,0,0,0,0,0,0,0,0,0,0,0,0,0,0,0,0,0,0,0,0,0,0,0,0,0,0,0,0,0,0,0,0,0,0,0,0,0,0,0,0,0,0,0,0,0,0,0,0,0,0,0,0,0,0,0,0,0,0,0,0,0,0,0,0,0,0,0,0,0,0,0,0,0,0,0,0,0,0,0,0,0,0,0,0,0,0,0,0,0,0,0,0,0,0,0,0],"sum_hessian":[1.9672701E4,1.4397861E4,5.2748394E3,1.3517265E4,8.8059705E2,1.4705471E3,3.8042922E3,1.2472415E4,1.0448491E3,3.108163E1,8.495154E2,5.3338983E2,9.3715735E2,3.3814934E3,4.2279883E2,9.633153E3,2.8392615E3,4.698331E2,5.7501605E2,1.457653E0,2.9623978E1,1.5857951E2,6.9093585E2,4.0655872E2,1.268311E2,2.589724E2,6.7818494E2,2.9131514E3,4.6834216E2,3.1478558E2,1.08013245E2,7.067568E3,2.565586E3,1.2674715E2,2.7125144E3,3.0734308E2,1.6249004E2,4.4787375E2,1.2714231E2,5.2696986E0,2.4354279E1,1.0099772E2,5.75818E1,6.7935724E2,1.157865E1,1.1739235E1,3.9481946E2,1.5141266E1,1.11689835E2,2.0826703E2,5.0705376E1,2.0017044E2,4.7801453E2,1.7887032E3,1.124448E3,1.5680925E2,3.1153293E2,7.4153656E1,2.4063194E2,3.0702951E1,7.731029E1,6.373996E3,6.9357166E2,5.985502E1,2.505731E3,1.6747368E1,1.0999978E2,8.7031165E2,1.8422028E3,2.5088011E2,5.6462955E1,2.0212503E1,1.4227753E2,4.3332156E2,1.4552183E1,1.0510708E2,2.2035234E1,2.4528112E0,2.8168874E0,2.5413663E0,2.1812912E1,9.463653E1,6.361194E0,1.7213385E1,4.0368412E1,9.24664E1,5.868908E2,1.0102457E1,1.4761934E0,7.937812E0,3.801423E0,1.7699971E2,2.1781976E2,5.415763E0,9.725503E0,1.9318813E1,9.2371025E1,6.2785194E1,1.4548183E2,3.5464466E1,1.5240908E1,1.954485E2,4.7219353E0,1.9454596E2,2.8346857E2,1.6088292E2,1.6278204E3,5.4758405E2,5.7686395E2,1.5134796E2,5.4612894E0,1.8765877E2,1.2387415E2,2.9516968E1,4.463669E1,2.1354726E2,2.7084686E1,1.088748E0,2.9614202E1,6.61096E1,1.1200698E1],"tree_param":{"num_deleted":"0","num_feature":"25","num_nodes":"121","size_leaf_vector":"1"}},{"base_weights":[9.0010534E-4,9.361885E-3,-2.6176196E-1,-2.898665E-2,8.242716E-2,-3.0597433E-1,1.9350244E-1,3.2538318E-4,-1.7645971E-1,2.1134293E-1,4.3027278E-2,-1.2519018E-1,-4.0521586E-1,3.921352E-1,-2.8230414E-1,1.2572064E-2,-2.131937E-1,-2.5764958E-3,-2.2089995E-1,6.702017E-2,3.0235672E-1,3.846041E-1,2.7468525E-2,-9.5743924E-1,-5.096309E-2,-1.9511606E-1,-5.577874E-1,-5.350501E-1,4.8943955E-1,6.367387E-1,-5.635537E-1,4.996074E-3,3.7212664E-1,-7.5643444E-1,-1.7305127E-1,1.9610408E-1,-1.4366668E-1,-2.4591488E-1,7.6731496E-2,4.5408604E-1,6.98745E-3,4.8885778E-1,2.0883147E-1,1.7375417E-1,7.218288E-1,-1.4222748E-2,1.3336618E-1,-1.441401E0,-2.826559E-1,-1.0926561E-1,6.249807E-1,-3.5444602E-1,4.0608585E-1,-7.404021E-1,-4.1627562E-1,9.5132396E-2,-4.7531754E-1,6.2670505E-1,-1.07750475E-1,3.4158406E-1,-6.4966135E-2,-9.062927E-1,3.2735217E-1,3.2767202E-3,-9.997062E-2,1.699219E-1,-1.1194347E-2,-1.0216953E-1,-2.669268E-1,-6.2030803E-2,3.5018284E-2,-2.8187169E-2,1.046339E-1,-5.3801634E-3,-1.1811788E-1,-5.517369E-2,-1.0848732E-1,5.21358E-2,-1.5709947E-1,3.5017945E-2,1.8778305E-1,2.285618E-2,-9.3552E-2,2.0876999E-1,1.17424056E-1,1.6976576E-2,9.9323146E-2,-2.953983E-1,6.856926E-2,2.2851978E-1,-1.8188646E-1,-1.2286563E-2,4.3035954E-2,7.223969E-2,-1.7789287E-2,-7.135656E-3,-4.9469885E-1,4.1688003E-2,-3.6423495E-1,7.7316105E-2,-6.0410663E-2,-2.2825088E-1,2.6830736E-1,-2.4548832E-1,-7.512526E-2,3.7697352E-2,3.1689662E-1,-2.3862539E-1,3.6144508E-3,-6.0148437E-2,-2.1707812E-1,2.1983753E-1,-8.612957E-2,1.356373E-1,-2.2851484E-1,1.216893E-1,-3.389806E-1,-6.971004E-2,2.8537363E-1],"categories":[],"categories_nodes":[],"categories_segments":[],"categories_sizes":[],"default_left":[0,0,0,0,0,0,0,0,0,0,0,0,0,0,0,0,0,0,0,0,0,0,0,0,0,0,0,0,0,0,0,0,0,0,0,0,0,0,0,0,0,0,0,0,0,0,0,0,0,0,0,0,0,0,0,0,0,0,0,0,0,0,0,0,0,0,0,0,0,0,0,0,0,0,0,0,0,0,0,0,0,0,0,0,0,0,0,0,0,0,0,0,0,0,0,0,0,0,0,0,0,0,0,0,0,0,0,0,0,0,0,0,0,0,0,0,0,0,0],"id":11,"left_children":[1,3,5,7,9,11,13,15,17,19,21,23,25,27,29,31,33,35,37,39,41,43,45,47,49,51,53,55,57,59,61,63,65,67,69,71,73,75,77,79,81,83,85,87,89,91,93,95,97,99,101,103,105,107,109,-1,-1,111,113,-1,-1,115,117,-1,-1,-1,-1,-1,-1,-1,-1,-1,-1,-1,-1,-1,-1,-1,-1,-1,-1,-1,-1,-1,-1,-1,-1,-1,-1,-1,-1,-1,-1,-1,-1,-1,-1,-1,-1,-1,-1,-1,-1,-1,-1,-1,-1,-1,-1,-1,-1,-1,-1,-1,-1,-1,-1,-1,-1],"loss_changes":[4.3329292E1,5.2921135E1,1.2306049E1,5.3543514E1,3.3010963E1,9.90612E0,5.2586985E0,2.7024326E1,1.5869633E1,1.9965302E1,2.6458054E1,1.2190692E1,1.1361813E1,3.7665548E0,4.655728E0,2.6622643E1,1.2094303E1,1.1775163E1,1.2196999E1,1.3699722E1,1.6168274E1,1.5296856E1,2.1037405E1,4.872426E0,7.2786446E0,1.4711302E1,5.034981E0,4.228841E0,2.9922638E0,2.1157486E0,4.3452673E0,1.919329E1,1.606414E1,1.8193169E0,5.1374817E0,7.7577705E0,7.7154303E0,1.0760345E1,7.5251503E0,4.5168E0,1.1309879E1,5.997963E0,1.1575947E1,8.782114E0,4.867237E0,1.4419498E1,2.787426E1,2.6597443E0,3.3090882E0,5.7738104E0,6.1594048E0,5.6217394E0,5.7617064E0,3.6933556E0,7.7313347E0,0E0,0E0,3.0369806E0,3.0983005E0,0E0,0E0,3.3455906E0,1.7639389E0,0E0,0E0,0E0,0E0,0E0,0E0,0E0,0E0,0E0,0E0,0E0,0E0,0E0,0E0,0E0,0E0,0E0,0E0,0E0,0E0,0E0,0E0,0E0,0E0,0E0,0E0,0E0,0E0,0E0,0E0,0E0,0E0,0E0,0E0,0E0,0E0,0E0,0E0,0E0,0E0,0E0,0E0,0E0,0E0,0E0,0E0,0E0,0E0,0E0,0E0,0E0,0E0,0E0,0E0,0E0,0E0],"parents":[2147483647,0,0,1,1,2,2,3,3,4,4,5,5,6,6,7,7,8,8,9,9,10,10,11,11,12,12,13,13,14,14,15,15,16,16,17,17,18,18,19,19,20,20,21,21,22,22,23,23,24,24,25,25,26,26,27,27,28,28,29,29,30,30,31,31,32,32,33,33,34,34,35,35,36,36,37,37,38,38,39,39,40,40,41,41,42,42,43,43,44,44,45,45,46,46,47,47,48,48,49,49,50,50,51,51,52,52,53,53,54,54,57,57,58,58,61,61,62,62],"right_children":[2,4,6,8,10,12,14,16,18,20,22,24,26,28,30,32,34,36,38,40,42,44,46,48,50,52,54,56,58,60,62,64,66,68,70,72,74,76,78,80,82,84,86,88,90,92,94,96,98,100,102,104,106,108,110,-1,-1,112,114,-1,-1,116,118,-1,-1,-1,-1,-1,-1,-1,-1,-1,-1,-1,-1,-1,-1,-1,-1,-1,-1,-1,-1,-1,-1,-1,-1,-1,-1,-1,-1,-1,-1,-1,-1,-1,-1,-1,-1,-1,-1,-1,-1,-1,-1,-1,-1,-1,-1,-1,-1,-1,-1,-1,-1,-1,-1,-1,-1],"split_conditions":[2.2522185E0,4.0083808E-1,2.5847707E0,3.684259E-1,1.301864E-1,1.301864E-1,1.05559E0,1.5955079E0,-5.4912955E-1,9.497033E-3,-1.137426E-1,-1.3737191E0,-9.125835E-1,-4.966998E-1,-3.211648E-1,2.263693E0,-9.671492E-1,5.9208375E-1,1.6288894E0,-4.8674935E-1,-4.0070322E-1,1.001772E0,1.0242443E0,-1.4952263E-1,6.1786526E-1,1.001772E0,-1.443155E-1,-4.1749826E-1,5.730461E-1,-8.623586E-2,1.9809936E0,1.9809936E0,1.3640579E0,-1.7828149E-1,1.6632406E0,9.497033E-3,1.2331256E0,8.57111E-1,2.4611826E0,-3.264011E-1,-7.23707E-2,6.8987155E-1,-6.7254025E-1,-1.9489291E-1,3.3416448E0,1.8567932E0,1.6725258E0,-3.211648E-1,5.284196E-1,6.8987155E-1,3.684931E-2,-2.7227747E-1,-1.3525218E-1,2.2970998E0,1.4934857E0,9.5132396E-2,-4.7531754E-1,1.2843525E0,2.9162722E0,3.4158406E-1,-6.4966135E-2,-4.8250854E-1,-7.040697E-1,3.2767202E-3,-9.997062E-2,1.699219E-1,-1.1194347E-2,-1.0216953E-1,-2.669268E-1,-6.2030803E-2,3.5018284E-2,-2.8187169E-2,1.046339E-1,-5.3801634E-3,-1.1811788E-1,-5.517369E-2,-1.0848732E-1,5.21358E-2,-1.5709947E-1,3.5017945E-2,1.8778305E-1,2.285618E-2,-9.3552E-2,2.0876999E-1,1.17424056E-1,1.6976576E-2,9.9323146E-2,-2.953983E-1,6.856926E-2,2.2851978E-1,-1.8188646E-1,-1.2286563E-2,4.3035954E-2,7.223969E-2,-1.7789287E-2,-7.135656E-3,-4.9469885E-1,4.1688003E-2,-3.6423495E-1,7.7316105E-2,-6.0410663E-2,-2.2825088E-1,2.6830736E-1,-2.4548832E-1,-7.512526E-2,3.7697352E-2,3.1689662E-1,-2.3862539E-1,3.6144508E-3,-6.0148437E-2,-2.1707812E-1,2.1983753E-1,-8.612957E-2,1.356373E-1,-2.2851484E-1,1.216893E-1,-3.389806E-1,-6.971004E-2,2.8537363E-1],"split_indices":[22,18,18,16,17,17,17,8,8,21,16,1,1,7,24,21,3,22,20,17,11,24,15,4,15,24,3,4,21,13,17,17,17,17,24,21,23,19,20,13,14,16,1,15,7,18,17,24,10,16,18,21,8,16,16,0,0,19,22,0,0,13,0,0,0,0,0,0,0,0,0,0,0,0,0,0,0,0,0,0,0,0,0,0,0,0,0,0,0,0,0,0,0,0,0,0,0,0,0,0,0,0,0,0,0,0,0,0,0,0,0,0,0,0,0,0,0,0,0],"split_type":[0,0,0,0,0,0,0,0,0,0,0,0,0,0,0,0,0,0,0,0,0,0,0,0,0,0,0,0,0,0,0,0,0,0,0,0,0,0,0,0,0,0,0,0,0,0,0,0,0,0,0,0,0,0,0,0,0,0,0,0,0,0,0,0,0,0,0,0,0,0,0,0,0,0,0,0,0,0,0,0,0,0,0,0,0,0,0,0,0,0,0,0,0,0,0,0,0,0,0,0,0,0,0,0,0,0,0,0,0,0,0,0,0,0,0,0,0,0,0],"sum_hessian":[1.9492865E4,1.8885428E4,6.0743835E2,1.2385476E4,6.4999517E3,5.539684E2,5.346995E1,1.0332722E4,2.052754E3,1.5205084E3,4.9794434E3,1.9712872E2,3.568397E2,3.784629E1,1.5623663E1,9.773112E3,5.596092E2,4.180582E2,1.6346958E3,5.887112E2,9.317972E2,2.1589809E2,4.763545E3,1.5167612E1,1.819611E2,1.5107692E2,2.0576277E2,3.1672971E0,3.4678993E1,3.3647296E0,1.2258933E1,9.57243E3,2.0068187E2,3.727872E1,5.2233044E2,1.7343723E2,2.4462097E2,1.5081173E3,1.2657843E2,7.816594E1,5.1054526E2,3.097967E2,6.220005E2,1.337722E2,8.212589E1,3.4185488E3,1.3449963E3,8.171111E0,6.996501E0,1.6828435E2,1.36767645E1,1.19751045E2,3.1325872E1,8.798715E1,1.1777562E2,2.1329534E0,1.0343437E0,2.8157503E1,6.5214906E0,1.9080874E0,1.4566422E0,8.840607E0,3.4183264E0,9.408546E3,1.6388425E2,1.3584167E2,6.4840195E1,9.912655E0,2.7366064E1,4.681446E2,5.418586E1,5.9941578E1,1.1349564E2,1.634887E2,8.113228E1,9.83631E2,5.244863E2,1.0957595E2,1.700248E1,2.6947222E1,5.121872E1,4.2012122E2,9.042405E1,9.717823E1,2.1261845E2,2.7766437E2,3.4433612E2,5.2770133E0,1.284952E2,8.014439E1,1.9815087E0,2.9236174E3,4.949314E2,8.633354E2,4.81661E2,1.1861007E0,6.9850106E0,5.402108E0,1.5943929E0,3.3400738E1,1.348836E2,1.9289268E0,1.1747837E1,2.0679226E1,9.9071815E1,2.272045E1,8.605422E0,8.1939026E1,6.0481257E0,7.016338E1,4.7612232E1,2.5406105E1,2.7513974E0,3.6797853E0,2.8417053E0,1.1690459E0,7.671561E0,2.1326218E0,1.2857046E0],"tree_param":{"num_deleted":"0","num_feature":"25","num_nodes":"119","size_leaf_vector":"1"}},{"base_weights":[7.4994797E-4,2.5884166E-1,-6.8160696E-3,2.8282928E-1,-5.622144E-1,1.028533E-2,-1.18393876E-1,1.9539249E-1,5.683991E-1,-6.986815E-2,-1.0961554E0,-5.5243704E-4,2.4629176E-1,4.3708116E-2,-1.7009321E-1,4.4431892E-1,1.2592545E-1,6.0374653E-1,-3.710854E-1,2.4935214E-1,-3.1557444E-1,-1.8920854E0,-3.0426433E-2,1.8945297E-2,-9.598893E-2,3.1806085E-2,3.201881E-1,-4.5923582E-1,7.7794194E-2,-4.91712E-1,-1.4697286E-1,4.890803E-1,-6.0213333E-1,-3.357901E-2,2.2851495E-1,5.0462115E-1,8.0937654E-1,-5.338449E-1,1.7386165E-1,-7.0842606E-1,-1.4291847E-1,1.953066E-1,-2.670442E-1,-2.9555946E-3,1.3376404E-1,-2.4264169E-1,-5.3296357E-2,1.0791378E-1,-7.144242E-1,7.248111E-1,2.9040816E-1,-2.3958634E-1,-1.1797944E0,1.0867358E-1,-4.9572608E-1,-5.718576E-1,2.0695338E-1,-1.22003175E-1,-4.7122765E-1,1.06630765E-1,2.3270403E-1,-3.553909E-1,1.801179E-1,3.330723E-4,-4.2341927E-1,-2.2212894E-1,8.067896E-2,1.8310672E-1,-5.3809825E-3,2.6428464E-1,5.6874953E-2,-2.9481614E-1,5.1964745E-2,-3.110275E-3,5.2091774E-2,1.1614668E-2,7.085469E-2,-2.3678055E-2,-1.0831005E-1,-2.5790857E-2,3.0974736E-2,7.853923E-2,-6.1596964E-2,-2.4231619E-1,8.1413046E-2,3.4110743E-1,7.264861E-2,1.2233872E-1,5.367805E-2,-2.0424394E-2,-3.122507E-1,-4.5036352E-1,1.12841666E-1,-2.8176838E-1,3.6401425E-2,-2.1356647E-1,1.12286545E-1,-2.606439E-1,-1.1231615E-1,-3.0829754E-1,2.6450205E-1,-4.2931948E-2,7.3462665E-2,-2.1723181E-1,-4.89307E-2],"categories":[],"categories_nodes":[],"categories_segments":[],"categories_sizes":[],"default_left":[0,0,0,0,0,0,0,0,0,0,0,0,0,0,0,0,0,0,0,0,0,0,0,0,0,0,0,0,0,0,0,0,0,0,0,0,0,0,0,0,0,0,0,0,0,0,0,0,0,0,0,0,0,0,0,0,0,0,0,0,0,0,0,0,0,0,0,0,0,0,0,0,0,0,0,0,0,0,0,0,0,0,0,0,0,0,0,0,0,0,0,0,0,0,0,0,0,0,0,0,0,0,0,0,0],"id":12,"left_children":[1,3,5,7,9,11,13,15,17,19,21,23,25,27,29,31,33,35,-1,-1,37,39,41,43,45,47,49,51,53,55,57,59,61,63,65,67,69,71,-1,-1,-1,-1,-1,73,75,77,79,81,83,85,87,89,91,93,95,97,99,101,103,-1,-1,-1,-1,-1,-1,-1,-1,-1,-1,-1,-1,-1,-1,-1,-1,-1,-1,-1,-1,-1,-1,-1,-1,-1,-1,-1,-1,-1,-1,-1,-1,-1,-1,-1,-1,-1,-1,-1,-1,-1,-1,-1,-1,-1,-1],"loss_changes":[3.7806515E1,1.1019009E1,3.589246E1,1.3282902E1,4.1261315E0,4.17194E1,2.0957695E1,7.071869E0,8.737545E0,2.340177E0,6.390318E0,2.902201E1,1.1340252E1,1.0412409E1,1.4023113E1,4.48851E0,5.303894E0,2.1085968E0,0E0,0E0,1.8918123E0,1.7554731E0,3.078909E0,3.2566765E1,1.6552628E1,1.0562068E1,6.2061195E0,5.820773E0,1.0108248E1,7.2130527E0,1.42723465E1,3.0342789E0,3.597928E0,6.0983653E0,7.9175577E0,4.761343E0,1.5412617E0,2.402077E0,0E0,0E0,0E0,0E0,0E0,1.4239125E1,2.0186275E1,1.152906E1,1.0497108E1,8.17084E0,1.8027067E0,6.854656E0,6.4398956E0,4.1628704E0,4.942709E0,7.2742662E0,5.755183E0,6.3555565E0,1.2379155E1,1.2768711E1,9.714958E0,0E0,0E0,0E0,0E0,0E0,0E0,0E0,0E0,0E0,0E0,0E0,0E0,0E0,0E0,0E0,0E0,0E0,0E0,0E0,0E0,0E0,0E0,0E0,0E0,0E0,0E0,0E0,0E0,0E0,0E0,0E0,0E0,0E0,0E0,0E0,0E0,0E0,0E0,0E0,0E0,0E0,0E0,0E0,0E0,0E0,0E0],