{"learner":{"attributes":{"scikit_learn":"{\"_estimator_type\": \"classifier\"}"},"feature_names":[],"feature_types":[],"gradient_booster":{"model":{"cats":{"enc":[],"feature_segments":[],"sorted_idx":[]},"gbtree_model_param":{"num_parallel_tree":"1","num_trees":"227"},"iteration_indptr":[0,1,2,3,4,5,6,7,8,9,10,11,12,13,14,15,16,17,18,19,20,21,22,23,24,25,26,27,28,29,30,31,32,33,34,35,36,37,38,39,40,41,42,43,44,45,46,47,48,49,50,51,52,53,54,55,56,57,58,59,60,61,62,63,64,65,66,67,68,69,70,71,72,73,74,75,76,77,78,79,80,81,82,83,84,85,86,87,88,89,90,91,92,93,94,95,96,97,98,99,100,101,102,103,104,105,106,107,108,109,110,111,112,113,114,115,116,117,118,119,120,121,122,123,124,125,126,127,128,129,130,131,132,133,134,135,136,137,138,139,140,141,142,143,144,145,146,147,148,149,150,151,152,153,154,155,156,157,158,159,160,161,162,163,164,165,166,167,168,169,170,171,172,173,174,175,176,177,178,179,180,181,182,183,184,185,186,187,188,189,190,191,192,193,194,195,196,197,198,199,200,201,202,203,204,205,206,207,208,209,210,211,212,213,214,215,216,217,218,219,220,221,222,223,224,225,226,227],"tree_info":[0,0,0,0,0,0,0,0,0,0,0,0,0,0,0,0,0,0,0,0,0,0,0,0,0,0,0,0,0,0,0,0,0,0,0,0,0,0,0,0,0,0,0,0,0,0,0,0,0,0,0,0,0,0,0,0,0,0,0,0,0,0,0,0,0,0,0,0,0,0,0,0,0,0,0,0,0,0,0,0,0,0,0,0,0,0,0,0,0,0,0,0,0,0,0,0,0,0,0,0,0,0,0,0,0,0,0,0,0,0,0,0,0,0,0,0,0,0,0,0,0,0,0,0,0,0,0,0,0,0,0,0,0,0,0,0,0,0,0,0,0,0,0,0,0,0,0,0,0,0,0,0,0,0,0,0,0,0,0,0,0,0,0,0,0,0,0,0,0,0,0,0,0,0,0,0,0,0,0,0,0,0,0,0,0,0,0,0,0,0,0,0,0,0,0,0,0,0,0,0,0,0,0,0,0,0,0,0,0,0,0,0,0,0,0,0,0,0,0,0,0,0,0,0,0,0,0],"trees":[{"base_weights":[2.6924287E-3,-2.0464121E-1,5.610592E-1,-3.1420568E-1,2.9849234E-1,3.921159E-1,8.211987E-1,-1.4016743E-1,-4.4093758E-1,1.932905E-1,6.690037E-1,1.5553795E-1,6.404774E-1,6.6973186E-1,1.0863065E0,-2.91888E-1,8.689326E-3,-7.843603E-1,-1.8260105E-1,3.888221E-1,3.9876718E-2,7.929875E-1,3.888991E-1,-7.289822E-2,2.8259602E-1,5.172196E-1,9.6633357E-1,8.833715E-1,5.2164155E-1,1.2440336E0,8.3197665E-1,-2.1729467E-2,-1.2435615E-2,-1.2232936E-2,2.5985246E-3,-5.1021107E-2,-2.7971433E-2,-2.8696297E-2,-1.842517E-3,3.0531509E-2,1.5959814E-2,-1.4544792E-2,1.6460618E-2,5.5066593E-2,3.2729484E-2,-1.320557E-2,2.4330059E-2,1.1320031E-3,-2.7123043E-2,3.337415E-3,2.0674355E-2,1.917142E-2,3.2071844E-2,6.53465E-2,4.1114204E-2,-3.5281483E-2,4.2483654E-2,1.6867308E-2,3.8559556E-2,4.8793323E-2,6.678693E-2,3.297438E-2,5.8074135E-2],"categories":[],"categories_nodes":[],"categories_segments":[],"categories_sizes":[],"default_left":[0,0,0,0,0,0,0,0,0,0,0,0,0,0,0,0,0,0,0,0,0,0,0,0,0,0,0,0,0,0,0,0,0,0,0,0,0,0,0,0,0,0,0,0,0,0,0,0,0,0,0,0,0,0,0,0,0,0,0,0,0,0,0],"id":0,"left_children":[1,3,5,7,9,11,13,15,17,19,21,23,25,27,29,31,33,35,37,39,41,43,45,47,49,51,53,55,57,59,61,-1,-1,-1,-1,-1,-1,-1,-1,-1,-1,-1,-1,-1,-1,-1,-1,-1,-1,-1,-1,-1,-1,-1,-1,-1,-1,-1,-1,-1,-1,-1,-1],"loss_changes":[2.2281467E3,7.737865E2,2.2871838E2,2.5415308E2,9.771878E1,1.8566025E2,8.1631714E1,1.0971748E2,5.915071E2,5.86763E1,1.8956772E1,4.705454E1,6.1434326E1,4.0917847E1,2.8816223E1,1.14552765E1,3.0430761E1,1.6209277E2,2.32275E2,1.1066147E1,1.1790315E2,1.3503769E1,1.4666567E1,2.8176863E1,3.4204185E1,1.9915222E1,1.5680847E1,1.4632721E1,3.72834E1,1.4935303E1,1.4461517E1,0E0,0E0,0E0,0E0,0E0,0E0,0E0,0E0,0E0,0E0,0E0,0E0,0E0,0E0,0E0,0E0,0E0,0E0,0E0,0E0,0E0,0E0,0E0,0E0,0E0,0E0,0E0,0E0,0E0,0E0,0E0,0E0],"parents":[2147483647,0,0,1,1,2,2,3,3,4,4,5,5,6,6,7,7,8,8,9,9,10,10,11,11,12,12,13,13,14,14,15,15,16,16,17,17,18,18,19,19,20,20,21,21,22,22,23,23,24,24,25,25,26,26,27,27,28,28,29,29,30,30],"right_children":[2,4,6,8,10,12,14,16,18,20,22,24,26,28,30,32,34,36,38,40,42,44,46,48,50,52,54,56,58,60,62,-1,-1,-1,-1,-1,-1,-1,-1,-1,-1,-1,-1,-1,-1,-1,-1,-1,-1,-1,-1,-1,-1,-1,-1,-1,-1,-1,-1,-1,-1,-1,-1],"split_conditions":[7.648269E-1,3.8642865E-1,1.4928044E0,-1.1431108E0,2.262258E0,4.8240557E-1,-1.8486074E-1,-4.1749826E-1,3.684931E-2,-2.0085424E-1,5.191651E-1,-5.9433218E-2,-1.452514E-2,-2.1679866E-1,1.2561376E0,-6.5328366E-1,-3.2325843E-1,3.4694588E-1,7.602648E-2,-8.283839E-1,3.684931E-2,-1.0179169E0,4.8240557E-1,1.9201915E0,-3.3125392E-1,1.1288157E0,-8.4354657E-1,-7.367317E-1,-8.30405E-1,1.8567932E0,2.5847707E0,-2.1729467E-2,-1.2435615E-2,-1.2232936E-2,2.5985246E-3,-5.1021107E-2,-2.7971433E-2,-2.8696297E-2,-1.842517E-3,3.0531509E-2,1.5959814E-2,-1.4544792E-2,1.6460618E-2,5.5066593E-2,3.2729484E-2,-1.320557E-2,2.4330059E-2,1.1320031E-3,-2.7123043E-2,3.337415E-3,2.0674355E-2,1.917142E-2,3.2071844E-2,6.53465E-2,4.1114204E-2,-3.5281483E-2,4.2483654E-2,1.6867308E-2,3.8559556E-2,4.8793323E-2,6.678693E-2,3.297438E-2,5.8074135E-2],"split_indices":[18,4,18,15,4,15,10,4,18,23,20,15,10,10,22,10,10,15,15,9,18,9,15,22,7,18,9,15,0,18,18,0,0,0,0,0,0,0,0,0,0,0,0,0,0,0,0,0,0,0,0,0,0,0,0,0,0,0,0,0,0,0,0],"split_type":[0,0,0,0,0,0,0,0,0,0,0,0,0,0,0,0,0,0,0,0,0,0,0,0,0,0,0,0,0,0,0,0,0,0,0,0,0,0,0,0,0,0,0,0,0,0,0,0,0,0,0,0,0,0,0,0,0,0,0,0,0,0,0],"sum_hessian":[1.9244625E4,1.4034096E4,5.2105293E3,1.1524785E4,2.5093103E3,3.1605015E3,2.050028E3,4.8569473E3,6.6678384E3,1.9555728E3,5.537374E2,1.6194822E3,1.5410193E3,1.3068804E3,7.4314764E2,2.4048599E3,2.4520874E3,2.861643E3,3.8061953E3,8.5909265E2,1.0964801E3,3.825686E2,1.7116884E2,5.7897546E2,1.0405067E3,1.119969E3,4.2105035E2,5.329973E2,7.7388306E2,4.5628366E2,2.8686398E2,3.475852E2,2.0572747E3,3.610788E2,2.0910085E3,1.1252164E3,1.7364266E3,9.6054456E2,2.845651E3,1.3993365E2,7.19159E2,5.1550555E2,5.8097455E2,7.871268E1,3.0385593E2,2.6987204E1,1.4418164E2,4.8601956E2,9.2955925E1,4.4029123E2,6.002154E2,6.654345E2,4.545345E2,7.621387E1,3.448365E2,4.747749E0,5.282495E2,4.980139E2,2.758692E2,2.0665202E2,2.4963164E2,2.1664728E2,7.0216705E1],"tree_param":{"num_deleted":"0","num_feature":"25","num_nodes":"63","size_leaf_vector":"1"}},{"base_weights":[-1.6978551E-3,-2.2626348E-1,6.043312E-1,-3.9238095E-1,3.226842E-1,1.8866788E-1,7.7196014E-1,-6.877979E-2,-7.3247635E-1,-1.3556708E-1,5.03318E-1,-1.543247E-1,5.86262E-1,5.894048E-1,1.0644726E0,-1.9967486E-1,2.2517103E-1,-1.0930656E0,-3.7234938E-1,-4.8752367E-1,3.6982948E-1,3.197069E-1,7.950996E-1,1.309892E-1,-3.6046264E-1,3.0933955E-1,9.208959E-1,8.2954144E-1,4.4539538E-1,7.890816E-1,1.1959299E0,-1.3452336E-2,-3.9984677E-3,8.487774E-3,3.584292E-2,-6.6030405E-2,-4.0452976E-2,-3.530044E-2,-4.0780907E-3,-3.8140304E-2,-1.397159E-2,4.743164E-3,4.044905E-2,2.2756893E-3,2.1524746E-2,4.6165444E-2,2.8248293E-2,-1.716892E-3,3.14643E-2,-2.7763657E-2,-3.4178952E-3,2.8929112E-2,2.0070674E-3,3.10509E-2,5.9598137E-2,1.8708434E-2,4.6282228E-2,1.3737997E-2,3.3088878E-2,3.1045035E-2,5.1989533E-2,4.5396972E-2,6.099629E-2],"categories":[],"categories_nodes":[],"categories_segments":[],"categories_sizes":[],"default_left":[0,0,0,0,0,0,0,0,0,0,0,0,0,0,0,0,0,0,0,0,0,0,0,0,0,0,0,0,0,0,0,0,0,0,0,0,0,0,0,0,0,0,0,0,0,0,0,0,0,0,0,0,0,0,0,0,0,0,0,0,0,0,0],"id":1,"left_children":[1,3,5,7,9,11,13,15,17,19,21,23,25,27,29,31,33,35,37,39,41,43,45,47,49,51,53,55,57,59,61,-1,-1,-1,-1,-1,-1,-1,-1,-1,-1,-1,-1,-1,-1,-1,-1,-1,-1,-1,-1,-1,-1,-1,-1,-1,-1,-1,-1,-1,-1,-1,-1],"loss_changes":[2.6305535E3,1.2861853E3,3.6398352E2,1.1915447E3,2.7131204E2,2.0508136E2,1.9822046E2,2.1356247E2,6.851106E2,1.6511948E2,1.25677246E2,4.7556732E1,6.424736E1,7.899841E1,5.0814453E1,3.7573685E1,4.1369896E1,1.8905786E2,2.8336685E2,3.331781E1,4.9881332E1,5.3311264E1,3.1998108E1,3.0430828E1,3.0687355E1,3.0916763E1,2.7448364E1,5.5585022E1,5.6450073E1,1.8372833E1,2.0397827E1,0E0,0E0,0E0,0E0,0E0,0E0,0E0,0E0,0E0,0E0,0E0,0E0,0E0,0E0,0E0,0E0,0E0,0E0,0E0,0E0,0E0,0E0,0E0,0E0,0E0,0E0,0E0,0E0,0E0,0E0,0E0,0E0],"parents":[2147483647,0,0,1,1,2,2,3,3,4,4,5,5,6,6,7,7,8,8,9,9,10,10,11,11,12,12,13,13,14,14,15,15,16,16,17,17,18,18,19,19,20,20,21,21,22,22,23,23,24,24,25,25,26,26,27,27,28,28,29,29,30,30],"right_children":[2,4,6,8,10,12,14,16,18,20,22,24,26,28,30,32,34,36,38,40,42,44,46,48,50,52,54,56,58,60,62,-1,-1,-1,-1,-1,-1,-1,-1,-1,-1,-1,-1,-1,-1,-1,-1,-1,-1,-1,-1,-1,-1,-1,-1,-1,-1,-1,-1,-1,-1,-1,-1],"split_conditions":[7.471221E-1,7.648269E-1,3.684931E-2,-1.1431108E0,-1.7828149E-1,1.3640579E0,-2.0615269E-1,-1.4627717E-1,1.301864E-1,1.4928044E0,1.4928044E0,5.730461E-1,4.935071E-2,-2.1679866E-1,1.05559E0,-4.8250854E-1,2.0752513E0,3.684931E-2,3.684931E-2,-4.8674935E-1,2.220782E0,1.301864E-1,-2.4735123E-1,5.608143E-1,-5.710904E-2,8.548206E-1,1.9809936E0,4.0083808E-1,-8.304634E-1,1.1288157E0,4.0083808E-1,-1.3452336E-2,-3.9984677E-3,8.487774E-3,3.584292E-2,-6.6030405E-2,-4.0452976E-2,-3.530044E-2,-4.0780907E-3,-3.8140304E-2,-1.397159E-2,4.743164E-3,4.044905E-2,2.2756893E-3,2.1524746E-2,4.6165444E-2,2.8248293E-2,-1.716892E-3,3.14643E-2,-2.7763657E-2,-3.4178952E-3,2.8929112E-2,2.0070674E-3,3.10509E-2,5.9598137E-2,1.8708434E-2,4.6282228E-2,1.3737997E-2,3.3088878E-2,3.1045035E-2,5.1989533E-2,4.5396972E-2,6.099629E-2],"split_indices":[17,18,18,15,17,17,10,13,17,18,18,21,10,10,17,13,13,18,18,17,18,17,11,8,10,21,17,18,1,18,18,0,0,0,0,0,0,0,0,0,0,0,0,0,0,0,0,0,0,0,0,0,0,0,0,0,0,0,0,0,0,0,0],"split_type":[0,0,0,0,0,0,0,0,0,0,0,0,0,0,0,0,0,0,0,0,0,0,0,0,0,0,0,0,0,0,0,0,0,0,0,0,0,0,0,0,0,0,0,0,0,0,0,0,0,0,0,0,0,0,0,0,0,0,0,0,0,0,0],"sum_hessian":[1.932704E4,1.4102098E4,5.224942E3,1.0826245E4,3.2758533E3,1.5021761E3,3.7227656E3,5.5482656E3,5.2779795E3,9.26262E2,2.349591E3,8.0679236E2,6.9538385E2,2.2940664E3,1.4286992E3,3.8390662E3,1.7091993E3,2.6362798E3,2.6416995E3,5.4603815E2,3.8022388E2,1.4433939E3,9.0619727E2,3.3855945E2,4.682329E2,3.81556E2,3.1382785E2,8.582196E2,1.4358469E3,4.6389185E2,9.648074E2,2.2054893E3,1.6335768E3,1.5762069E3,1.3299245E2,1.1499918E3,1.4862881E3,1.1423634E3,1.499336E3,2.0341164E2,3.426265E2,2.4548631E2,1.3473756E2,4.8210754E2,9.612863E2,4.6873224E2,4.3746506E2,2.5862027E2,7.9939156E1,2.6114783E2,2.0708508E2,1.7803432E2,2.035217E2,1.786379E2,1.3518996E2,2.2187978E2,6.3633984E2,8.954917E2,5.4035516E2,3.281496E2,1.3574226E2,2.8191492E2,6.8289246E2],"tree_param":{"num_deleted":"0","num_feature":"25","num_nodes":"63","size_leaf_vector":"1"}},{"base_weights":[1.6391764E-3,-2.149927E-1,5.8533525E-1,-3.347463E-1,-1.8439155E-2,4.034707E-1,8.358329E-1,-4.1695586E-1,-1.0622053E-1,1.9646047E-1,-1.8915278E-1,1.5770039E-1,6.1411536E-1,6.324252E-1,1.0816337E0,-1.9995019E-1,-7.4069536E-1,-4.1511583E-1,9.935885E-2,1.5047131E-1,7.2468394E-1,-4.131704E-1,2.0819974E-1,-3.80469E-2,3.8742274E-1,4.8155704E-1,7.989665E-1,4.8480994E-1,1.0117763E0,1.2541499E0,8.517873E-1,-1.4782512E-2,-5.7764035E-3,-4.7422577E-2,-2.3475578E-2,-2.9977027E-2,-1.3692692E-2,3.9916954E-4,1.3997494E-2,5.235608E-3,2.2905264E-2,3.6586545E-2,-7.199118E-3,-3.399368E-2,-8.474615E-3,-1.3869486E-2,1.8562453E-2,9.0870885E-3,-9.839565E-3,1.6692216E-2,5.700761E-2,3.0200621E-2,1.5462591E-2,2.4337215E-2,4.6281196E-2,1.5585031E-2,3.0781297E-2,6.503473E-2,4.1751157E-2,5.0873566E-2,6.507186E-2,4.449062E-2,1.6257811E-2],"categories":[],"categories_nodes":[],"categories_segments":[],"categories_sizes":[],"default_left":[0,0,0,0,0,0,0,0,0,0,0,0,0,0,0,0,0,0,0,0,0,0,0,0,0,0,0,0,0,0,0,0,0,0,0,0,0,0,0,0,0,0,0,0,0,0,0,0,0,0,0,0,0,0,0,0,0,0,0,0,0,0,0],"id":2,"left_children":[1,3,5,7,9,11,13,15,17,19,21,23,25,27,29,31,33,35,37,39,41,43,45,47,49,51,53,55,57,59,61,-1,-1,-1,-1,-1,-1,-1,-1,-1,-1,-1,-1,-1,-1,-1,-1,-1,-1,-1,-1,-1,-1,-1,-1,-1,-1,-1,-1,-1,-1,-1,-1],"loss_changes":[2.4393926E3,3.3117145E2,2.375542E2,1.6421063E2,1.9549866E2,1.566289E2,1.0908838E2,4.515504E2,1.4701337E2,5.720186E1,2.6443265E2,6.2902752E1,3.955139E1,6.6918884E1,3.8296997E1,3.3755417E1,1.6502539E2,2.5245483E1,2.489543E1,2.8727798E1,8.372719E0,1.359562E2,9.945564E1,2.9700743E1,1.7522545E1,2.2949753E1,3.4341125E1,2.2226212E1,1.4481354E1,1.0871826E1,1.9287628E1,0E0,0E0,0E0,0E0,0E0,0E0,0E0,0E0,0E0,0E0,0E0,0E0,0E0,0E0,0E0,0E0,0E0,0E0,0E0,0E0,0E0,0E0,0E0,0E0,0E0,0E0,0E0,0E0,0E0,0E0,0E0,0E0],"parents":[2147483647,0,0,1,1,2,2,3,3,4,4,5,5,6,6,7,7,8,8,9,9,10,10,11,11,12,12,13,13,14,14,15,15,16,16,17,17,18,18,19,19,20,20,21,21,22,22,23,23,24,24,25,25,26,26,27,27,28,28,29,29,30,30],"right_children":[2,4,6,8,10,12,14,16,18,20,22,24,26,28,30,32,34,36,38,40,42,44,46,48,50,52,54,56,58,60,62,-1,-1,-1,-1,-1,-1,-1,-1,-1,-1,-1,-1,-1,-1,-1,-1,-1,-1,-1,-1,-1,-1,-1,-1,-1,-1,-1,-1,-1,-1,-1,-1],"split_conditions":[7.471221E-1,-2.0631848E-1,-2.0615269E-1,1.301864E-1,-2.7227747E-1,3.684259E-1,1.3640579E0,-1.1431108E0,3.684259E-1,2.0752513E0,8.505944E-1,1.3640579E0,1.3640579E0,8.505944E-1,1.1365951E0,-5.0652504E-1,5.2914876E-1,-1.137426E-1,1.1720401E0,1.301864E-1,2.2522185E0,1.301864E-1,-1.7828149E-1,5.730461E-1,2.7982094E0,-2.2744465E-1,-1.1209762E0,2.0770307E-1,9.497033E-3,1.6725258E0,2.5454676E0,-1.4782512E-2,-5.7764035E-3,-4.7422577E-2,-2.3475578E-2,-2.9977027E-2,-1.3692692E-2,3.9916954E-4,1.3997494E-2,5.235608E-3,2.2905264E-2,3.6586545E-2,-7.199118E-3,-3.399368E-2,-8.474615E-3,-1.3869486E-2,1.8562453E-2,9.0870885E-3,-9.839565E-3,1.6692216E-2,5.700761E-2,3.0200621E-2,1.5462591E-2,2.4337215E-2,4.6281196E-2,1.5585031E-2,3.0781297E-2,6.503473E-2,4.1751157E-2,5.0873566E-2,6.507186E-2,4.449062E-2,1.6257811E-2],"split_indices":[17,13,10,17,21,16,17,15,16,13,16,17,17,16,21,13,16,16,16,17,22,17,17,21,4,10,0,16,21,17,21,0,0,0,0,0,0,0,0,0,0,0,0,0,0,0,0,0,0,0,0,0,0,0,0,0,0,0,0,0,0,0,0],"split_type":[0,0,0,0,0,0,0,0,0,0,0,0,0,0,0,0,0,0,0,0,0,0,0,0,0,0,0,0,0,0,0,0,0,0,0,0,0,0,0,0,0,0,0,0,0,0,0,0,0,0,0,0,0,0,0,0,0,0,0,0,0,0,0],"sum_hessian":[1.9289799E4,1.4068918E4,5.2208804E3,8.742002E3,5.326916E3,3.0263337E3,2.1945466E3,6.428571E3,2.3134304E3,2.3581953E3,2.9687207E3,1.3975206E3,1.628813E3,1.2027814E3,9.917654E2,3.8496987E3,2.5788723E3,9.2401843E2,1.3894121E3,2.1705076E3,1.8768788E2,1.898406E3,1.0703147E3,7.55009E2,6.4251166E2,9.506788E2,6.781343E2,8.674948E2,3.352865E2,5.639922E2,4.2777322E2,1.5667842E3,2.2829146E3,1.2381589E3,1.3407134E3,3.3417645E2,5.898419E2,9.513791E2,4.3803302E2,1.941754E3,2.2875346E2,1.7769948E2,9.988394E0,8.204998E2,1.0779062E3,2.8788535E2,7.824293E2,3.207672E2,4.3424176E2,6.182629E2,2.4248772E1,4.6828928E2,4.823895E2,2.6546844E2,4.1266583E2,4.5145255E2,4.160423E2,8.444653E1,2.5083998E2,2.3565205E2,3.2834012E2,3.6255634E2,6.521688E1],"tree_param":{"num_deleted":"0","num_feature":"25","num_nodes":"63","size_leaf_vector":"1"}},{"base_weights":[-6.534196E-4,-2.0581476E-1,5.497812E-1,-3.640409E-1,3.142251E-1,1.5330683E-1,7.12074E-1,-6.5174036E-2,-6.819096E-1,6.519218E-2,5.842499E-1,-5.8421824E-2,6.8470556E-1,5.445071E-1,9.9871075E-1,-1.9477808E-1,2.2717513E-1,-1.0097197E0,-3.5432523E-1,-1.0280687E-1,6.080627E-1,4.2991748E-1,8.2903665E-1,-2.2672075E-1,2.3381032E-1,3.551861E-1,9.8594236E-1,3.6585134E-1,7.3056203E-1,8.969702E-1,1.2594252E0,-1.3308363E-2,-3.4985943E-3,8.035628E-3,2.8327271E-2,-6.197153E-2,-3.648913E-2,-3.291116E-2,-4.494527E-3,-1.4470269E-2,6.1649084E-3,3.7254814E-2,1.4761673E-2,1.7430726E-2,3.686222E-2,4.9823172E-2,2.9761575E-2,-2.3322916E-2,-1.2030923E-3,2.445875E-2,-1.3769014E-3,3.9515536E-2,6.0827876E-3,4.946719E-2,-1.4500189E-2,3.177598E-2,1.2479014E-2,2.8614607E-2,4.7784302E-2,3.7109517E-2,5.5570774E-2,7.023136E-4,6.0069017E-2],"categories":[],"categories_nodes":[],"categories_segments":[],"categories_sizes":[],"default_left":[0,0,0,0,0,0,0,0,0,0,0,0,0,0,0,0,0,0,0,0,0,0,0,0,0,0,0,0,0,0,0,0,0,0,0,0,0,0,0,0,0,0,0,0,0,0,0,0,0,0,0,0,0,0,0,0,0,0,0,0,0,0,0],"id":3,"left_children":[1,3,5,7,9,11,13,15,17,19,21,23,25,27,29,31,33,35,37,39,41,43,45,47,49,51,53,55,57,59,61,-1,-1,-1,-1,-1,-1,-1,-1,-1,-1,-1,-1,-1,-1,-1,-1,-1,-1,-1,-1,-1,-1,-1,-1,-1,-1,-1,-1,-1,-1,-1,-1],"loss_changes":[2.1747139E3,1.1544492E3,3.3634106E2,1.0218303E3,2.200653E2,1.7105704E2,1.7764453E2,2.1014517E2,5.5938403E2,1.5546016E2,5.896588E1,5.3555485E1,4.2645355E1,7.7627075E1,3.51427E1,4.0317215E1,3.6108986E1,1.8575488E2,2.3144656E2,6.1875164E1,2.1260162E1,2.0311447E1,2.6560272E1,3.711256E1,2.9740635E1,2.2608536E1,1.8214645E1,3.7179825E1,3.960858E1,2.9792725E1,5.8081055E0,0E0,0E0,0E0,0E0,0E0,0E0,0E0,0E0,0E0,0E0,0E0,0E0,0E0,0E0,0E0,0E0,0E0,0E0,0E0,0E0,0E0,0E0,0E0,0E0,0E0,0E0,0E0,0E0,0E0,0E0,0E0,0E0],"parents":[2147483647,0,0,1,1,2,2,3,3,4,4,5,5,6,6,7,7,8,8,9,9,10,10,11,11,12,12,13,13,14,14,15,15,16,16,17,17,18,18,19,19,20,20,21,21,22,22,23,23,24,24,25,25,26,26,27,27,28,28,29,29,30,30],"right_children":[2,4,6,8,10,12,14,16,18,20,22,24,26,28,30,32,34,36,38,40,42,44,46,48,50,52,54,56,58,60,62,-1,-1,-1,-1,-1,-1,-1,-1,-1,-1,-1,-1,-1,-1,-1,-1,-1,-1,-1,-1,-1,-1,-1,-1,-1,-1,-1,-1,-1,-1,-1,-1],"split_conditions":[7.471221E-1,7.648269E-1,3.684931E-2,-1.1431108E0,1.301864E-1,1.6725258E0,-1.8486074E-1,-2.0631848E-1,1.301864E-1,1.8567932E0,1.4928044E0,3.318774E-1,-1.1033892E-1,-8.367217E-1,1.1288157E0,-3.8644242E-1,1.5348796E0,3.684931E-2,3.684931E-2,-1.7828149E-1,-3.4085855E-1,3.3405334E-1,-2.4735123E-1,-3.2713947E-1,8.548206E-1,5.730461E-1,3.1090167E0,-2.1679866E-1,1.1288157E0,1.6725258E0,-1.4432054E0,-1.3308363E-2,-3.4985943E-3,8.035628E-3,2.8327271E-2,-6.197153E-2,-3.648913E-2,-3.291116E-2,-4.494527E-3,-1.4470269E-2,6.1649084E-3,3.7254814E-2,1.4761673E-2,1.7430726E-2,3.686222E-2,4.9823172E-2,2.9761575E-2,-2.3322916E-2,-1.2030923E-3,2.445875E-2,-1.3769014E-3,3.9515536E-2,6.0827876E-3,4.946719E-2,-1.4500189E-2,3.177598E-2,1.2479014E-2,2.8614607E-2,4.7784302E-2,3.7109517E-2,5.5570774E-2,7.023136E-4,6.0069017E-2],"split_indices":[17,18,18,15,17,17,10,13,17,18,18,5,10,0,18,13,13,18,18,17,11,13,11,18,21,21,21,10,18,17,1,0,0,0,0,0,0,0,0,0,0,0,0,0,0,0,0,0,0,0,0,0,0,0,0,0,0,0,0,0,0,0,0],"split_type":[0,0,0,0,0,0,0,0,0,0,0,0,0,0,0,0,0,0,0,0,0,0,0,0,0,0,0,0,0,0,0,0,0,0,0,0,0,0,0,0,0,0,0,0,0,0,0,0,0,0,0,0,0,0,0,0,0,0,0,0,0,0,0],"sum_hessian":[1.925554E4,1.4027683E4,5.227857E3,1.0755529E4,3.272153E3,1.5189849E3,3.708872E3,5.544076E3,5.211453E3,1.702889E3,1.569264E3,1.0868387E3,4.3214618E2,2.342408E3,1.366464E3,3.84143E3,1.7026465E3,2.6037883E3,2.6076646E3,1.3010662E3,4.0182294E2,9.641474E2,6.051166E2,6.8980084E2,3.9703787E2,2.0742525E2,2.2472095E2,1.1964784E3,1.1459297E3,9.8609357E2,3.8037042E2,2.2319963E3,1.6094336E3,1.4777738E3,2.2487274E2,1.1429459E3,1.4608425E3,1.1226721E3,1.4849924E3,6.9471704E2,6.063491E2,2.4835379E2,1.5346913E2,8.231715E2,1.409759E2,2.8145895E2,3.2365762E2,2.958204E2,3.9398044E2,1.9041733E2,2.0662054E2,6.548919E1,1.4193605E2,2.1472832E2,9.992621E0,2.9634433E2,9.0013403E2,7.9580664E2,3.5012308E2,7.0791345E2,2.7818008E2,3.7370489E0,3.7663336E2],"tree_param":{"num_deleted":"0","num_feature":"25","num_nodes":"63","size_leaf_vector":"1"}},{"base_weights":[2.9598172E-3,-1.9259478E-1,5.278845E-1,-3.410956E-1,2.996055E-1,1.550889E-1,6.7848474E-1,-5.6261104E-2,-6.470768E-1,-1.14677295E-1,4.6384194E-1,-1.2970053E-1,4.9131596E-1,5.120195E-1,9.421482E-1,-1.7085694E-1,2.0796007E-1,-9.498677E-1,-3.460983E-1,-4.3273988E-1,3.2752E-1,3.004644E-1,7.2191983E-1,2.1258119E-1,-2.7638578E-1,2.0658003E-1,7.252922E-1,3.3920997E-1,6.868243E-1,6.8962675E-1,1.06039E0,-1.3438706E-2,-4.4381134E-3,7.3935245E-3,2.5845774E-2,-5.809361E-2,-3.4508504E-2,-3.2842733E-2,-3.8730104E-3,-3.3938922E-2,-1.2084032E-2,4.4009746E-3,3.6657955E-2,3.9208326E-3,1.934513E-2,4.337274E-2,2.4196988E-2,-1.9195329E-3,2.34272E-2,-2.4044469E-2,-1.4548227E-3,2.6524406E-2,9.913234E-4,4.0336356E-2,3.375742E-3,2.9680256E-2,1.1275857E-2,2.6267001E-2,4.292994E-2,4.4261206E-2,2.6433805E-2,5.7439744E-2,4.2236608E-2],"categories":[],"categories_nodes":[],"categories_segments":[],"categories_sizes":[],"default_left":[0,0,0,0,0,0,0,0,0,0,0,0,0,0,0,0,0,0,0,0,0,0,0,0,0,0,0,0,0,0,0,0,0,0,0,0,0,0,0,0,0,0,0,0,0,0,0,0,0,0,0,0,0,0,0,0,0,0,0,0,0,0,0],"id":4,"left_children":[1,3,5,7,9,11,13,15,17,19,21,23,25,27,29,31,33,35,37,39,41,43,45,47,49,51,53,55,57,59,61,-1,-1,-1,-1,-1,-1,-1,-1,-1,-1,-1,-1,-1,-1,-1,-1,-1,-1,-1,-1,-1,-1,-1,-1,-1,-1,-1,-1,-1,-1,-1,-1],"loss_changes":[1.9783795E3,1.0264419E3,2.9358374E2,9.401478E2,2.2153159E2,1.4431409E2,1.6303735E2,1.6923146E2,4.7362573E2,1.3022516E2,9.807645E1,4.104906E1,4.5889206E1,6.882062E1,4.2285034E1,3.4040894E1,2.941504E1,1.5826465E2,2.4062692E2,2.7035103E1,4.066184E1,3.3869217E1,3.6693787E1,1.7635757E1,3.266236E1,2.0615498E1,3.1814926E1,3.3308746E1,3.245294E1,1.4345764E1,2.4249268E1,0E0,0E0,0E0,0E0,0E0,0E0,0E0,0E0,0E0,0E0,0E0,0E0,0E0,0E0,0E0,0E0,0E0,0E0,0E0,0E0,0E0,0E0,0E0,0E0,0E0,0E0,0E0,0E0,0E0,0E0,0E0,0E0],"parents":[2147483647,0,0,1,1,2,2,3,3,4,4,5,5,6,6,7,7,8,8,9,9,10,10,11,11,12,12,13,13,14,14,15,15,16,16,17,17,18,18,19,19,20,20,21,21,22,22,23,23,24,24,25,25,26,26,27,27,28,28,29,29,30,30],"right_children":[2,4,6,8,10,12,14,16,18,20,22,24,26,28,30,32,34,36,38,40,42,44,46,48,50,52,54,56,58,60,62,-1,-1,-1,-1,-1,-1,-1,-1,-1,-1,-1,-1,-1,-1,-1,-1,-1,-1,-1,-1,-1,-1,-1,-1,-1,-1,-1,-1,-1,-1,-1,-1],"split_conditions":[7.471221E-1,7.648269E-1,3.684931E-2,-1.0780796E0,-1.7828149E-1,1.3640579E0,-2.0615269E-1,-1.4627717E-1,1.301864E-1,1.4928044E0,1.4928044E0,2.9127154E-1,-2.0615269E-1,-8.6204803E-1,1.05559E0,-5.0652504E-1,1.5348796E0,3.684931E-2,3.684931E-2,-4.8674935E-1,2.220782E0,1.301864E-1,-2.660527E-1,-2.0631848E-1,-1.9550672E-1,5.730461E-1,1.9819187E0,-2.1679866E-1,1.3640579E0,2.9127154E-1,8.548206E-1,-1.3438706E-2,-4.4381134E-3,7.3935245E-3,2.5845774E-2,-5.809361E-2,-3.4508504E-2,-3.2842733E-2,-3.8730104E-3,-3.3938922E-2,-1.2084032E-2,4.4009746E-3,3.6657955E-2,3.9208326E-3,1.934513E-2,4.337274E-2,2.4196988E-2,-1.9195329E-3,2.34272E-2,-2.4044469E-2,-1.4548227E-3,2.6524406E-2,9.913234E-4,4.0336356E-2,3.375742E-3,2.9680256E-2,1.1275857E-2,2.6267001E-2,4.292994E-2,4.4261206E-2,2.6433805E-2,5.7439744E-2,4.2236608E-2],"split_indices":[17,18,18,16,17,17,10,13,17,18,18,21,10,1,17,13,13,18,18,17,18,17,11,13,10,21,21,10,17,21,21,0,0,0,0,0,0,0,0,0,0,0,0,0,0,0,0,0,0,0,0,0,0,0,0,0,0,0,0,0,0,0,0],"split_type":[0,0,0,0,0,0,0,0,0,0,0,0,0,0,0,0,0,0,0,0,0,0,0,0,0,0,0,0,0,0,0,0,0,0,0,0,0,0,0,0,0,0,0,0,0,0,0,0,0,0,0,0,0,0,0,0,0,0,0,0,0,0,0],"sum_hessian":[1.92708E4,1.4040725E4,5.230076E3,1.078662E4,3.254104E3,1.5054696E3,3.7246064E3,5.5869624E3,5.1996577E3,9.2389685E2,2.3302073E3,8.15415E2,6.900546E2,2.2849404E3,1.439666E3,3.8970984E3,1.689864E3,2.5909497E3,2.6087083E3,5.3738745E2,3.8650934E2,1.4282256E3,9.019816E2,2.4448166E2,5.709333E2,3.1211325E2,3.779414E2,1.1505066E3,1.1344338E3,4.6130933E2,9.783567E2,1.571649E3,2.3254492E3,1.4686385E3,2.212255E2,1.1359269E3,1.4550227E3,1.1226632E3,1.4860449E3,2.0430641E2,3.3308105E2,2.54666E2,1.3184335E2,4.7770236E2,9.5052325E2,4.6406793E2,4.3791367E2,1.2956592E2,1.1491574E2,2.926364E2,2.782969E2,1.06465294E2,2.0564795E2,3.155444E2,6.2396996E1,2.953784E2,8.551282E2,7.162212E2,4.1821265E2,1.5676395E2,3.0454538E2,5.0197238E2,4.7638434E2],"tree_param":{"num_deleted":"0","num_feature":"25","num_nodes":"63","size_leaf_vector":"1"}},{"base_weights":[-1.4370342E-3,-1.8837327E-1,4.9935555E-1,-3.320444E-1,2.8141916E-1,2.571546E-1,7.0880914E-1,-5.946536E-2,-6.250246E-1,8.8843815E-2,5.808307E-1,2.7730128E-2,5.410958E-1,5.846522E-1,9.9468195E-1,-1.7295866E-1,1.99151E-1,-9.22666E-1,-3.2994312E-1,-3.902783E-1,2.660442E-1,3.6028087E-1,6.9774187E-1,-1.591252E-1,2.5497186E-1,8.37919E-1,3.241991E-1,8.487099E-1,4.5931083E-1,7.119291E-1,1.1261206E0,-1.3349417E-2,-4.662647E-3,7.514236E-3,3.1251524E-2,-5.6377348E-2,-3.3692457E-2,-3.0124614E-2,-4.3972046E-3,-8.223529E-3,-3.200012E-2,3.316752E-3,1.7133592E-2,9.149607E-4,2.2287972E-2,3.972346E-2,2.267653E-2,-2.6584247E-2,-1.3526495E-3,2.4981454E-2,3.2509214E-3,2.9085845E-2,5.3595923E-2,2.0054746E-2,-3.5137837E-3,3.330718E-2,4.9842756E-2,1.4887225E-2,3.3013973E-2,2.8447209E-2,4.8912976E-2,5.10571E-2,6.906599E-2],"categories":[],"categories_nodes":[],"categories_segments":[],"categories_sizes":[],"default_left":[0,0,0,0,0,0,0,0,0,0,0,0,0,0,0,0,0,0,0,0,0,0,0,0,0,0,0,0,0,0,0,0,0,0,0,0,0,0,0,0,0,0,0,0,0,0,0,0,0,0,0,0,0,0,0,0,0,0,0,0,0,0,0],"id":5,"left_children":[1,3,5,7,9,11,13,15,17,19,21,23,25,27,29,31,33,35,37,39,41,43,45,47,49,51,53,55,57,59,61,-1,-1,-1,-1,-1,-1,-1,-1,-1,-1,-1,-1,-1,-1,-1,-1,-1,-1,-1,-1,-1,-1,-1,-1,-1,-1,-1,-1,-1,-1,-1,-1],"loss_changes":[1.7997274E3,9.4496204E2,2.649088E2,8.5613745E2,1.8901611E2,1.5795052E2,9.8857544E1,1.630783E2,4.535039E2,1.6962773E2,3.2838654E1,5.7034748E1,6.949313E1,6.433972E1,3.0673462E1,3.140921E1,3.1299095E1,1.4500781E2,1.8922092E2,3.337658E1,2.7584068E1,1.6980026E1,2.571112E1,3.881656E1,3.0864372E1,2.9420532E1,2.5146416E1,1.7884583E1,4.565976E1,9.011642E0,7.176758E0,0E0,0E0,0E0,0E0,0E0,0E0,0E0,0E0,0E0,0E0,0E0,0E0,0E0,0E0,0E0,0E0,0E0,0E0,0E0,0E0,0E0,0E0,0E0,0E0,0E0,0E0,0E0,0E0,0E0,0E0,0E0,0E0],"parents":[2147483647,0,0,1,1,2,2,3,3,4,4,5,5,6,6,7,7,8,8,9,9,10,10,11,11,12,12,13,13,14,14,15,15,16,16,17,17,18,18,19,19,20,20,21,21,22,22,23,23,24,24,25,25,26,26,27,27,28,28,29,29,30,30],"right_children":[2,4,6,8,10,12,14,16,18,20,22,24,26,28,30,32,34,36,38,40,42,44,46,48,50,52,54,56,58,60,62,-1,-1,-1,-1,-1,-1,-1,-1,-1,-1,-1,-1,-1,-1,-1,-1,-1,-1,-1,-1,-1,-1,-1,-1,-1,-1,-1,-1,-1,-1,-1,-1],"split_conditions":[7.471221E-1,7.648269E-1,4.0083808E-1,-1.1431108E0,1.4928044E0,1.3640579E0,-9.969294E-2,-1.4627717E-1,1.301864E-1,-1.7828149E-1,-3.3125392E-1,-1.9550672E-1,-5.175498E-1,-2.1679866E-1,1.05559E0,-5.0652504E-1,2.0752513E0,3.684931E-2,3.684931E-2,9.241107E-1,1.301864E-1,-1.7828149E-1,1.2561376E0,-3.2713947E-1,5.730461E-1,1.9809936E0,1.7001442E0,1.1288157E0,-8.1151265E-1,1.4928044E0,2.6756647E0,-1.3349417E-2,-4.662647E-3,7.514236E-3,3.1251524E-2,-5.6377348E-2,-3.3692457E-2,-3.0124614E-2,-4.3972046E-3,-8.223529E-3,-3.200012E-2,3.316752E-3,1.7133592E-2,9.149607E-4,2.2287972E-2,3.972346E-2,2.267653E-2,-2.6584247E-2,-1.3526495E-3,2.4981454E-2,3.2509214E-3,2.9085845E-2,5.3595923E-2,2.0054746E-2,-3.5137837E-3,3.330718E-2,4.9842756E-2,1.4887225E-2,3.3013973E-2,2.8447209E-2,4.8912976E-2,5.10571E-2,6.906599E-2],"split_indices":[17,18,18,15,18,17,10,13,17,17,7,10,9,10,17,13,13,18,18,22,17,17,22,18,21,17,21,18,1,18,13,0,0,0,0,0,0,0,0,0,0,0,0,0,0,0,0,0,0,0,0,0,0,0,0,0,0,0,0,0,0,0,0],"split_type":[0,0,0,0,0,0,0,0,0,0,0,0,0,0,0,0,0,0,0,0,0,0,0,0,0,0,0,0,0,0,0,0,0,0,0,0,0,0,0,0,0,0,0,0,0,0,0,0,0,0,0,0,0,0,0,0,0,0,0,0,0,0,0],"sum_hessian":[1.9222508E4,1.3997962E4,5.224546E3,1.071991E4,3.2780518E3,2.423902E3,2.8006436E3,5.5539253E3,5.165985E3,1.9957334E3,1.2823182E3,1.341261E3,1.0826412E3,1.9547322E3,8.4591144E2,3.8602107E3,1.693715E3,2.5707778E3,2.595207E3,5.3850305E2,1.4572305E3,4.4566495E2,8.366533E2,7.3620074E2,6.050602E2,4.5589102E2,6.2675024E2,6.273395E2,1.3273927E3,2.704758E2,5.754356E2,1.5573369E3,2.3028738E3,1.5599036E3,1.3381133E2,1.1187183E3,1.4520596E3,1.127804E3,1.467403E3,3.0814877E2,2.3035426E2,4.82237E2,9.749934E2,1.10179306E2,3.3548566E2,5.0287827E2,3.3377502E2,1.7903204E2,5.571687E2,2.440773E2,3.6098285E2,2.6247125E2,1.9341975E2,5.0061816E2,1.26132065E2,3.726523E2,2.5468715E2,8.302711E2,4.971216E2,2.0414233E2,6.633349E1,5.109211E2,6.451449E1],"tree_param":{"num_deleted":"0","num_feature":"25","num_nodes":"63","size_leaf_vector":"1"}},{"base_weights":[-1.2328671E-3,-1.8067548E-1,4.8035744E-1,-2.71981E-1,4.2185884E-2,3.2625985E-1,6.961422E-1,-1.5511304E-1,-3.7459236E-1,1.6419265E-1,-1.6779155E-1,8.529267E-2,4.6477216E-1,5.755374E-1,1.0028324E0,-2.606478E-1,-4.1940313E-2,-7.981598E-1,-2.1349193E-1,1.2655975E-1,7.165764E-1,-3.3547807E-1,2.0205738E-1,-7.5853296E-2,2.668564E-1,3.3626565E-1,6.408681E-1,3.4885883E-1,7.2286886E-1,1.1904329E0,7.8011274E-1,-2.2494623E-2,-1.1534257E-2,-2.5618584E-3,3.1174978E-2,-5.638956E-2,-3.2855287E-2,-2.0062394E-2,-2.8619674E-4,3.6787752E-3,2.575815E-2,3.7017114E-2,4.165443E-3,-3.0462513E-2,-6.2839626E-3,-3.5329675E-3,2.074518E-2,4.8246346E-3,-9.726901E-3,1.0679688E-2,5.993622E-2,7.147763E-3,2.1738544E-2,1.7812645E-2,3.8361464E-2,2.1084808E-2,-1.3065133E-3,4.9008314E-2,3.0121237E-2,4.441294E-2,6.0404398E-2,2.8294455E-2,4.8491236E-2],"categories":[],"categories_nodes":[],"categories_segments":[],"categories_sizes":[],"default_left":[0,0,0,0,0,0,0,0,0,0,0,0,0,0,0,0,0,0,0,0,0,0,0,0,0,0,0,0,0,0,0,0,0,0,0,0,0,0,0,0,0,0,0,0,0,0,0,0,0,0,0,0,0,0,0,0,0,0,0,0,0,0,0],"id":6,"left_children":[1,3,5,7,9,11,13,15,17,19,21,23,25,27,29,31,33,35,37,39,41,43,45,47,49,51,53,55,57,59,61,-1,-1,-1,-1,-1,-1,-1,-1,-1,-1,-1,-1,-1,-1,-1,-1,-1,-1,-1,-1,-1,-1,-1,-1,-1,-1,-1,-1,-1,-1,-1,-1],"loss_changes":[1.6567332E3,2.84219E2,1.7282153E2,1.1875787E2,1.0404101E2,1.0135718E2,7.958557E1,5.5334686E1,3.5978363E2,5.330207E1,9.263687E1,3.2499504E1,4.3433228E1,5.1776184E1,2.457367E1,8.391541E0,1.9345222E1,5.8151917E1,1.6751302E2,4.8998764E1,6.829582E0,6.427018E1,3.064229E1,1.3655043E1,2.1041248E1,2.5541557E1,3.640448E1,2.2616898E1,2.4621765E1,6.0800476E0,1.19711E1,0E0,0E0,0E0,0E0,0E0,0E0,0E0,0E0,0E0,0E0,0E0,0E0,0E0,0E0,0E0,0E0,0E0,0E0,0E0,0E0,0E0,0E0,0E0,0E0,0E0,0E0,0E0,0E0,0E0,0E0,0E0,0E0],"parents":[2147483647,0,0,1,1,2,2,3,3,4,4,5,5,6,6,7,7,8,8,9,9,10,10,11,11,12,12,13,13,14,14,15,15,16,16,17,17,18,18,19,19,20,20,21,21,22,22,23,23,24,24,25,25,26,26,27,27,28,28,29,29,30,30],"right_children":[2,4,6,8,10,12,14,16,18,20,22,24,26,28,30,32,34,36,38,40,42,44,46,48,50,52,54,56,58,60,62,-1,-1,-1,-1,-1,-1,-1,-1,-1,-1,-1,-1,-1,-1,-1,-1,-1,-1,-1,-1,-1,-1,-1,-1,-1,-1,-1,-1,-1,-1,-1,-1],"split_conditions":[7.471221E-1,-2.619454E-2,-2.0615269E-1,-5.54052E-1,2.9127154E-1,2.0770307E-1,1.6725258E0,-4.8250854E-1,-1.7828149E-1,2.6756647E0,8.505944E-1,1.3640579E0,1.3640579E0,2.0770307E-1,1.1365951E0,-7.597434E-1,4.3865427E-1,4.6980236E-2,5.2914876E-1,4.3865427E-1,5.20999E0,1.301864E-1,1.301864E-1,5.730461E-1,2.7982094E0,-8.746819E-1,-1.1209762E0,1.5660832E0,9.497033E-3,-1.0325415E0,1.414797E0,-2.2494623E-2,-1.1534257E-2,-2.5618584E-3,3.1174978E-2,-5.638956E-2,-3.2855287E-2,-2.0062394E-2,-2.8619674E-4,3.6787752E-3,2.575815E-2,3.7017114E-2,4.165443E-3,-3.0462513E-2,-6.2839626E-3,-3.5329675E-3,2.074518E-2,4.8246346E-3,-9.726901E-3,1.0679688E-2,5.993622E-2,7.147763E-3,2.1738544E-2,1.7812645E-2,3.8361464E-2,2.1084808E-2,-1.3065133E-3,4.9008314E-2,3.0121237E-2,4.441294E-2,6.0404398E-2,2.8294455E-2,4.8491236E-2],"split_indices":[17,13,10,21,21,16,17,13,17,13,16,17,17,16,21,10,17,16,16,17,4,17,17,21,4,1,0,15,21,0,13,0,0,0,0,0,0,0,0,0,0,0,0,0,0,0,0,0,0,0,0,0,0,0,0,0,0,0,0,0,0,0,0],"split_type":[0,0,0,0,0,0,0,0,0,0,0,0,0,0,0,0,0,0,0,0,0,0,0,0,0,0,0,0,0,0,0,0,0,0,0,0,0,0,0,0,0,0,0,0,0,0,0,0,0,0,0,0,0,0,0,0,0,0,0,0,0,0,0],"sum_hessian":[1.9169193E4,1.39660205E4,5.203174E3,9.906955E3,4.059065E3,3.0369324E3,2.1662417E3,4.632892E3,5.274063E3,2.567465E3,1.4916E3,1.1090885E3,1.9278439E3,1.5568804E3,6.093612E2,2.3966694E3,2.2362227E3,1.4521354E3,3.8219275E3,2.4048557E3,1.6260934E2,1.0263528E3,4.6524713E2,5.87891E2,5.2119745E2,1.1162021E3,8.116418E2,6.146191E2,9.422613E2,3.2839975E2,2.8096146E2,1.6802747E2,2.228642E3,2.1986316E3,3.75912E1,2.9681668E2,1.1553187E3,1.8930565E3,1.9288711E3,2.1554824E3,2.4937338E2,1.4669754E2,1.5911808E1,4.0504855E2,6.2130426E2,2.1496236E2,2.5028479E2,2.4831042E2,3.395806E2,5.020029E2,1.9194542E1,4.4880072E2,6.6740137E2,3.2079974E2,4.9084204E2,4.8803043E2,1.2658867E2,1.9835124E2,7.4391003E2,8.875805E1,2.3964171E2,1.6393857E2,1.17022896E2],"tree_param":{"num_deleted":"0","num_feature":"25","num_nodes":"63","size_leaf_vector":"1"}},{"base_weights":[1.9748704E-4,-2.1911657E-1,3.61966E-1,-6.7104265E-2,-3.763446E-1,2.3304085E-1,6.380708E-1,-1.783168E-1,1.7273304E-1,-6.786471E-1,-2.1541552E-1,4.5077723E-2,4.482793E-1,5.064078E-1,9.253293E-1,-2.540387E-1,-8.12733E-2,1.1054816E-1,4.5161253E-1,-2.726132E-1,-8.130044E-1,-3.825525E-1,9.189314E-2,-5.9220742E-2,2.6938915E-1,2.5811565E-1,5.4994464E-1,3.3326426E-1,6.645256E-1,1.1027441E0,7.0754063E-1,-1.1025588E-2,-2.9569417E-2,-2.0717992E-3,-1.7222723E-2,-1.6607324E-4,8.916909E-3,2.2440387E-2,-2.101597E-2,-2.5053466E-2,-4.053231E-4,-4.7599483E-2,-3.1849906E-2,-3.3999912E-2,-1.3645018E-2,-1.489938E-3,1.7209567E-2,3.1621214E-3,-1.1505355E-2,1.9744946E-2,-7.565498E-4,6.573293E-3,1.9808592E-2,1.7867733E-2,3.3646137E-2,1.4427805E-2,5.8247756E-2,2.5660027E-2,4.3222222E-2,4.5452338E-2,6.364529E-2,1.5972234E-2,4.0939413E-2],"categories":[],"categories_nodes":[],"categories_segments":[],"categories_sizes":[],"default_left":[0,0,0,0,0,0,0,0,0,0,0,0,0,0,0,0,0,0,0,0,0,0,0,0,0,0,0,0,0,0,0,0,0,0,0,0,0,0,0,0,0,0,0,0,0,0,0,0,0,0,0,0,0,0,0,0,0,0,0,0,0,0,0],"id":7,"left_children":[1,3,5,7,9,11,13,15,17,19,21,23,25,27,29,31,33,35,37,39,41,43,45,47,49,51,53,55,57,59,61,-1,-1,-1,-1,-1,-1,-1,-1,-1,-1,-1,-1,-1,-1,-1,-1,-1,-1,-1,-1,-1,-1,-1,-1,-1,-1,-1,-1,-1,-1,-1,-1],"loss_changes":[1.5202812E3,2.8509515E2,2.572859E2,1.6184293E2,2.851278E2,1.9949374E2,8.657446E1,3.0439209E1,3.3288242E1,1.1088678E2,1.9666222E2,6.163162E1,4.4301758E1,4.304303E1,2.7121216E1,1.7708206E1,1.9258331E1,1.4038555E1,7.5783157E0,3.4563927E1,4.064038E1,7.813629E1,4.5391327E1,4.184992E1,3.5472225E1,1.533894E1,4.1460815E1,1.8556206E1,2.4569733E1,1.2320282E1,1.8931686E1,0E0,0E0,0E0,0E0,0E0,0E0,0E0,0E0,0E0,0E0,0E0,0E0,0E0,0E0,0E0,0E0,0E0,0E0,0E0,0E0,0E0,0E0,0E0,0E0,0E0,0E0,0E0,0E0,0E0,0E0,0E0,0E0],"parents":[2147483647,0,0,1,1,2,2,3,3,4,4,5,5,6,6,7,7,8,8,9,9,10,10,11,11,12,12,13,13,14,14,15,15,16,16,17,17,18,18,19,19,20,20,21,21,22,22,23,23,24,24,25,25,26,26,27,27,28,28,29,29,30,30],"right_children":[2,4,6,8,10,12,14,16,18,20,22,24,26,28,30,32,34,36,38,40,42,44,46,48,50,52,54,56,58,60,62,-1,-1,-1,-1,-1,-1,-1,-1,-1,-1,-1,-1,-1,-1,-1,-1,-1,-1,-1,-1,-1,-1,-1,-1,-1,-1,-1,-1,-1,-1,-1,-1],"split_conditions":[4.3865427E-1,-5.54052E-1,1.3640579E0,-1.4627717E-1,-1.7828149E-1,5.2914876E-1,1.02580585E-1,-4.0846202E-1,1.0188512E0,-6.270916E-1,8.505944E-1,-4.6463065E-2,-3.3125392E-1,3.684259E-1,1.1365951E0,-7.5663394E-1,9.30154E-2,1.0077738E0,5.20999E0,1.0113173E0,3.684259E-1,-1.137426E-1,-9.969294E-2,8.548206E-1,1.1597041E0,-1.7639045E-1,1.0113173E0,2.7982094E0,-4.0086493E-1,1.9809936E0,1.6725258E0,-1.1025588E-2,-2.9569417E-2,-2.0717992E-3,-1.7222723E-2,-1.6607324E-4,8.916909E-3,2.2440387E-2,-2.101597E-2,-2.5053466E-2,-4.053231E-4,-4.7599483E-2,-3.1849906E-2,-3.3999912E-2,-1.3645018E-2,-1.489938E-3,1.7209567E-2,3.1621214E-3,-1.1505355E-2,1.9744946E-2,-7.565498E-4,6.573293E-3,1.9808592E-2,1.7867733E-2,3.3646137E-2,1.4427805E-2,5.8247756E-2,2.5660027E-2,4.3222222E-2,4.5452338E-2,6.364529E-2,1.5972234E-2,4.0939413E-2],"split_indices":[17,21,17,13,17,16,10,7,4,14,16,10,7,16,21,16,11,0,4,16,16,16,10,21,15,9,16,4,0,17,17,0,0,0,0,0,0,0,0,0,0,0,0,0,0,0,0,0,0,0,0,0,0,0,0,0,0,0,0,0,0,0,0],"split_type":[0,0,0,0,0,0,0,0,0,0,0,0,0,0,0,0,0,0,0,0,0,0,0,0,0,0,0,0,0,0,0,0,0,0,0,0,0,0,0,0,0,0,0,0,0,0,0,0,0,0,0,0,0,0,0,0,0,0,0,0,0,0,0],"sum_hessian":[1.9159373E4,1.1928427E4,7.230947E3,6.065533E3,5.862894E3,4.9305195E3,2.3004272E3,4.1441484E3,1.9213846E3,2.0356826E3,3.8272117E3,2.6326724E3,2.2978472E3,1.5793195E3,7.2110767E2,2.3268877E3,1.8172606E3,1.5722081E3,3.4917645E2,5.068842E2,1.5287983E3,2.4788088E3,1.3484028E3,1.7975833E3,8.3508923E2,8.017407E2,1.4961064E3,7.553249E2,8.239946E2,3.951487E2,3.2595898E2,2.2062163E3,1.2067149E2,1.606321E3,2.1093954E2,6.3999634E2,9.322118E2,3.4072842E2,8.448052E0,2.5596555E2,2.5091864E2,6.334367E2,8.953617E2,5.3740955E2,1.9413993E3,9.2857806E2,4.198247E2,1.0676001E3,7.299831E2,5.488248E2,2.8626443E2,4.6244647E2,3.3929425E2,7.288323E2,7.672742E2,7.339751E2,2.13498E1,5.5733563E2,2.6665897E2,2.5415051E2,1.4099818E2,9.910036E1,2.2685863E2],"tree_param":{"num_deleted":"0","num_feature":"25","num_nodes":"63","size_leaf_vector":"1"}},{"base_weights":[-9.907279E-4,-2.0817141E-1,3.4161213E-1,-2.9482874E-1,3.3978337E-1,5.55454E-2,5.8886325E-1,-5.2332036E-2,-5.789648E-1,1.7248346E-1,6.4681774E-1,-1.284655E-1,4.4510996E-1,4.7616103E-1,8.53649E-1,-1.7436299E-1,1.1313853E-1,-8.414851E-1,-2.006741E-1,4.2405027E-1,9.478674E-4,8.675238E-1,4.2135847E-1,-4.840944E-1,-1.6076709E-3,3.215929E-1,8.5871434E-1,6.758861E-1,3.5807827E-1,7.024175E-1,1.01074E0,-1.1435254E-2,-5.1333695E-3,2.8606232E-3,1.5770417E-2,-5.3722702E-2,-3.2349885E-2,-2.9037796E-2,1.2458549E-3,1.2765456E-2,3.2409303E-2,-2.4727987E-2,4.427992E-3,4.9181964E-2,3.0372478E-2,5.0329585E-3,2.8352063E-2,-3.2053795E-2,-6.5489025E-3,-9.658993E-3,6.885186E-3,2.0474944E-2,-5.4520355E-3,4.4788968E-2,1.7396964E-2,2.4000319E-2,4.3356817E-2,8.406503E-3,2.2962585E-2,2.7375668E-2,4.92661E-2,3.5271592E-2,5.2029945E-2],"categories":[],"categories_nodes":[],"categories_segments":[],"categories_sizes":[],"default_left":[0,0,0,0,0,0,0,0,0,0,0,0,0,0,0,0,0,0,0,0,0,0,0,0,0,0,0,0,0,0,0,0,0,0,0,0,0,0,0,0,0,0,0,0,0,0,0,0,0,0,0,0,0,0,0,0,0,0,0,0,0,0,0],"id":8,"left_children":[1,3,5,7,9,11,13,15,17,19,21,23,25,27,29,31,33,35,37,39,41,43,45,47,49,51,53,55,57,59,61,-1,-1,-1,-1,-1,-1,-1,-1,-1,-1,-1,-1,-1,-1,-1,-1,-1,-1,-1,-1,-1,-1,-1,-1,-1,-1,-1,-1,-1,-1,-1,-1],"loss_changes":[1.3611396E3,5.675293E2,5.1109088E2,7.1094196E2,8.3731064E1,2.4029329E2,1.1526221E2,1.1245833E2,4.7167468E2,4.5650826E1,2.8263153E1,1.02721954E2,5.4661606E1,6.3932312E1,2.6752563E1,1.4233292E1,2.7416267E1,1.2917236E2,1.831362E2,1.7101875E1,3.0709717E1,1.0631256E1,1.607169E1,4.0131287E1,5.02382E1,4.061412E1,1.0478424E1,4.0540436E1,3.9402603E1,2.4176392E1,1.2710754E1,0E0,0E0,0E0,0E0,0E0,0E0,0E0,0E0,0E0,0E0,0E0,0E0,0E0,0E0,0E0,0E0,0E0,0E0,0E0,0E0,0E0,0E0,0E0,0E0,0E0,0E0,0E0,0E0,0E0,0E0,0E0,0E0],"parents":[2147483647,0,0,1,1,2,2,3,3,4,4,5,5,6,6,7,7,8,8,9,9,10,10,11,11,12,12,13,13,14,14,15,15,16,16,17,17,18,18,19,19,20,20,21,21,22,22,23,23,24,24,25,25,26,26,27,27,28,28,29,29,30,30],"right_children":[2,4,6,8,10,12,14,16,18,20,22,24,26,28,30,32,34,36,38,40,42,44,46,48,50,52,54,56,58,60,62,-1,-1,-1,-1,-1,-1,-1,-1,-1,-1,-1,-1,-1,-1,-1,-1,-1,-1,-1,-1,-1,-1,-1,-1,-1,-1,-1,-1,-1,-1,-1,-1],"split_conditions":[4.3865427E-1,1.1288157E0,4.0083808E-1,-1.1431108E0,1.8567932E0,1.3640579E0,-9.969294E-2,-2.663598E-1,4.0083808E-1,5.9208375E-1,-4.568076E-1,-3.2713947E-1,1.0181345E0,-2.1679866E-1,1.05559E0,-5.0652504E-1,6.9430125E-1,-1.7828149E-1,-1.7828149E-1,1.5718761E-1,-4.8674935E-1,1.2561376E0,-1.0704421E0,3.318774E-1,7.471221E-1,1.7001442E0,2.263693E0,1.1288157E0,-3.264011E-1,1.4928044E0,-1.0325415E0,-1.1435254E-2,-5.1333695E-3,2.8606232E-3,1.5770417E-2,-5.3722702E-2,-3.2349885E-2,-2.9037796E-2,1.2458549E-3,1.2765456E-2,3.2409303E-2,-2.4727987E-2,4.427992E-3,4.9181964E-2,3.0372478E-2,5.0329585E-3,2.8352063E-2,-3.2053795E-2,-6.5489025E-3,-9.658993E-3,6.885186E-3,2.0474944E-2,-5.4520355E-3,4.4788968E-2,1.7396964E-2,2.4000319E-2,4.3356817E-2,8.406503E-3,2.2962585E-2,2.7375668E-2,4.92661E-2,3.5271592E-2,5.2029945E-2],"split_indices":[17,18,18,15,18,17,10,13,18,22,11,18,10,10,17,13,13,17,17,9,17,22,0,5,17,21,21,18,13,18,0,0,0,0,0,0,0,0,0,0,0,0,0,0,0,0,0,0,0,0,0,0,0,0,0,0,0,0,0,0,0,0,0],"split_type":[0,0,0,0,0,0,0,0,0,0,0,0,0,0,0,0,0,0,0,0,0,0,0,0,0,0,0,0,0,0,0,0,0,0,0,0,0,0,0,0,0,0,0,0,0,0,0,0,0,0,0,0,0,0,0,0,0,0,0,0,0,0,0],"sum_hessian":[1.9174195E4,1.1948827E4,7.2253677E3,1.0317594E4,1.6312332E3,3.3503154E3,3.875052E3,5.567327E3,4.7502666E3,1.0569005E3,5.7433264E2,2.2759434E3,1.0743721E3,2.7200852E3,1.154967E3,3.2042263E3,2.363101E3,2.8035078E3,1.9467587E3,4.2789532E2,6.2900525E2,2.8878653E2,2.855461E2,5.97662E2,1.6782814E3,8.2867694E2,2.4569511E2,1.00890314E3,1.7111819E3,5.9124603E2,5.6372095E2,1.5762573E3,1.6279689E3,1.9095342E3,4.5356677E2,9.68212E2,1.8352957E3,6.888251E2,1.2579336E3,2.7093262E2,1.5696272E2,9.386491E1,5.351403E2,1.6077223E2,1.2801431E2,1.0403916E2,1.8150694E2,3.8175156E2,2.1591046E2,7.059902E2,9.7229126E2,6.597818E2,1.6889514E2,2.0698692E2,3.8708183E1,5.9765173E2,4.112514E2,7.120661E2,9.9911584E2,4.3649307E2,1.5475298E2,1.4658412E2,4.171368E2],"tree_param":{"num_deleted":"0","num_feature":"25","num_nodes":"63","size_leaf_vector":"1"}},{"base_weights":[-1.1771027E-3,-1.5992168E-1,4.2685288E-1,-2.911114E-1,2.6875642E-1,2.0798174E-1,6.139055E-1,-5.1049404E-2,-5.503698E-1,1.5085158E-1,6.598423E-1,7.389945E-2,5.5684423E-1,4.7519433E-1,8.600782E-1,-1.5282851E-1,1.6271931E-1,-8.187006E-1,-2.9188105E-1,-2.4014232E-1,2.9923663E-1,8.597502E-1,4.7614047E-1,-2.258658E-1,1.8735392E-1,3.495796E-1,8.8713E-1,7.2087646E-1,3.376896E-1,6.514711E-1,9.607567E-1,-1.1193038E-2,-4.4031283E-3,4.5518507E-3,1.721953E-2,-5.0634503E-2,-2.9544473E-2,-4.0126376E-2,-7.941837E-3,-4.2225134E-2,-8.375807E-3,6.0708453E-3,1.9335935E-2,1.8684302E-2,4.5575015E-2,1.1849259E-2,3.243724E-2,-5.0925585E-3,-3.8935907E-2,2.9015413E-3,2.0365026E-2,4.279651E-2,1.0235489E-2,4.909716E-2,2.353576E-2,2.6646553E-2,4.48677E-2,1.0536952E-2,2.6486292E-2,3.1592164E-2,-4.480936E-2,4.1095156E-2,5.1900093E-2],"categories":[],"categories_nodes":[],"categories_segments":[],"categories_sizes":[],"default_left":[0,0,0,0,0,0,0,0,0,0,0,0,0,0,0,0,0,0,0,0,0,0,0,0,0,0,0,0,0,0,0,0,0,0,0,0,0,0,0,0,0,0,0,0,0,0,0,0,0,0,0,0,0,0,0,0,0,0,0,0,0,0,0],"id":9,"left_children":[1,3,5,7,9,11,13,15,17,19,21,23,25,27,29,31,33,35,37,39,41,43,45,47,49,51,53,55,57,59,61,-1,-1,-1,-1,-1,-1,-1,-1,-1,-1,-1,-1,-1,-1,-1,-1,-1,-1,-1,-1,-1,-1,-1,-1,-1,-1,-1,-1,-1,-1,-1,-1],"loss_changes":[1.2981432E3,7.8383887E2,2.1147906E2,6.6413385E2,1.5050552E2,1.114391E2,9.473779E1,1.2060071E2,3.5560962E2,1.45746E2,2.7364197E1,5.863221E1,4.4975525E1,6.0038483E1,2.043872E1,1.8810287E1,2.3910046E1,1.2249097E2,1.8028104E2,2.8234444E1,3.4171295E1,1.7227356E1,1.8630966E1,3.335906E1,3.8356426E1,2.9981434E1,1.4548569E1,2.241803E1,2.9170593E1,9.78804E0,7.48938E0,0E0,0E0,0E0,0E0,0E0,0E0,0E0,0E0,0E0,0E0,0E0,0E0,0E0,0E0,0E0,0E0,0E0,0E0,0E0,0E0,0E0,0E0,0E0,0E0,0E0,0E0,0E0,0E0,0E0,0E0,0E0,0E0],"parents":[2147483647,0,0,1,1,2,2,3,3,4,4,5,5,6,6,7,7,8,8,9,9,10,10,11,11,12,12,13,13,14,14,15,15,16,16,17,17,18,18,19,19,20,20,21,21,22,22,23,23,24,24,25,25,26,26,27,27,28,28,29,29,30,30],"right_children":[2,4,6,8,10,12,14,16,18,20,22,24,26,28,30,32,34,36,38,40,42,44,46,48,50,52,54,56,58,60,62,-1,-1,-1,-1,-1,-1,-1,-1,-1,-1,-1,-1,-1,-1,-1,-1,-1,-1,-1,-1,-1,-1,-1,-1,-1,-1,-1,-1,-1,-1,-1,-1],"split_conditions":[7.471221E-1,7.648269E-1,4.0083808E-1,-1.1431108E0,1.8567932E0,1.6725258E0,-2.0615269E-1,-2.0992693E-1,1.301864E-1,-1.7828149E-1,-4.568076E-1,-3.2713947E-1,2.622702E-1,-2.1679866E-1,1.05559E0,-5.0652504E-1,8.1438386E-1,3.684931E-2,-3.2713947E-1,-7.952172E-1,-3.3125392E-1,-4.8674935E-1,-8.304634E-1,1.7001442E0,-3.879165E-3,2.9127154E-1,1.7001442E0,1.1288157E0,-7.988788E-1,3.1090167E0,1.1288157E0,-1.1193038E-2,-4.4031283E-3,4.5518507E-3,1.721953E-2,-5.0634503E-2,-2.9544473E-2,-4.0126376E-2,-7.941837E-3,-4.2225134E-2,-8.375807E-3,6.0708453E-3,1.9335935E-2,1.8684302E-2,4.5575015E-2,1.1849259E-2,3.243724E-2,-5.0925585E-3,-3.8935907E-2,2.9015413E-3,2.0365026E-2,4.279651E-2,1.0235489E-2,4.909716E-2,2.353576E-2,2.6646553E-2,4.48677E-2,1.0536952E-2,2.6486292E-2,3.1592164E-2,-4.480936E-2,4.1095156E-2,5.1900093E-2],"split_indices":[17,18,18,15,18,17,10,7,17,17,11,18,10,10,17,13,13,18,18,17,7,17,1,21,10,21,21,18,1,21,18,0,0,0,0,0,0,0,0,0,0,0,0,0,0,0,0,0,0,0,0,0,0,0,0,0,0,0,0,0,0,0,0],"split_type":[0,0,0,0,0,0,0,0,0,0,0,0,0,0,0,0,0,0,0,0,0,0,0,0,0,0,0,0,0,0,0,0,0,0,0,0,0,0,0,0,0,0,0,0,0,0,0,0,0,0,0,0,0,0,0,0,0,0,0,0,0,0,0],"sum_hessian":[1.9103105E4,1.3935454E4,5.167651E3,1.0670307E4,3.2651475E3,2.3822642E3,2.7853867E3,5.5408853E3,5.1294214E3,2.5098591E3,7.552883E2,1.7217401E3,6.605241E2,1.7834148E3,1.0019719E3,3.7538806E3,1.7870046E3,2.5157334E3,2.613688E3,6.90301E2,1.8195581E3,3.5992786E2,3.9536044E2,4.7245255E2,1.2492876E3,4.0710892E2,2.5341519E2,6.384473E2,1.1449675E3,3.2859332E2,6.733786E2,1.5554854E3,2.1983953E3,1.3459784E3,4.4102625E2,1.0867461E3,1.4289874E3,4.7362073E2,2.1400674E3,5.93544E1,6.309466E2,7.1432697E2,1.1052311E3,6.732971E1,2.9259814E2,1.9206929E2,2.0329115E2,3.9559396E2,7.6858574E1,8.245997E2,4.246879E2,7.735887E1,3.2975006E2,1.8089728E2,7.251791E1,3.8107086E2,2.5737646E2,7.5763947E2,3.8732806E2,3.256431E2,2.9502363E0,4.1065555E2,2.6272302E2],"tree_param":{"num_deleted":"0","num_feature":"25","num_nodes":"63","size_leaf_vector":"1"}},{"base_weights":[-6.1955266E-3,-1.569851E-1,3.9904138E-1,-2.8149277E-1,2.5255606E-1,8.073079E-2,5.273617E-1,-4.311133E-2,-5.4049385E-1,8.5963376E-2,5.085201E-1,-7.721368E-2,4.932786E-1,3.983571E-1,7.365696E-1,-1.4341044E-1,1.6656695E-1,-9.6494913E-1,-3.9048603E-1,-3.3074588E-1,2.3946217E-1,3.509756E-1,6.7133474E-1,2.7423685E-2,-4.1894624E-1,2.3843694E-1,7.452011E-1,2.4448054E-1,5.685506E-1,6.4552814E-1,9.6766233E-1,-1.1029463E-2,-3.7737456E-3,6.469263E-3,2.567825E-2,-5.0446644E-2,-3.3102315E-2,-3.3123087E-2,-7.3741022E-3,-5.3807143E-3,-2.8260827E-2,2.3018175E-3,1.5861051E-2,3.4103498E-3,2.1457175E-2,2.9681774E-2,6.2244743E-2,-8.021928E-3,1.121891E-2,-2.8067065E-2,4.4353534E-3,-1.48388455E-2,1.8463604E-2,3.7851542E-2,-2.5989791E-2,2.4286617E-2,7.2746016E-3,2.1910759E-2,3.834503E-2,2.416314E-2,3.878968E-2,4.7345478E-2,2.176745E-2],"categories":[],"categories_nodes":[],"categories_segments":[],"categories_sizes":[],"default_left":[0,0,0,0,0,0,0,0,0,0,0,0,0,0,0,0,0,0,0,0,0,0,0,0,0,0,0,0,0,0,0,0,0,0,0,0,0,0,0,0,0,0,0,0,0,0,0,0,0,0,0,0,0,0,0,0,0,0,0,0,0,0,0],"id":10,"left_children":[1,3,5,7,9,11,13,15,17,19,21,23,25,27,29,31,33,35,37,39,41,43,45,47,49,51,53,55,57,59,61,-1,-1,-1,-1,-1,-1,-1,-1,-1,-1,-1,-1,-1,-1,-1,-1,-1,-1,-1,-1,-1,-1,-1,-1,-1,-1,-1,-1,-1,-1,-1,-1],"loss_changes":[1.1642621E3,7.0814185E2,2.1101117E2,6.5747235E2,1.380277E2,9.6847435E1,9.908923E1,1.16668755E2,3.2459033E2,1.2561493E2,3.250348E1,3.8460533E1,2.62387E1,5.9570953E1,2.8901367E1,2.1453499E1,1.9966404E1,3.5507812E1,2.7466425E2,3.0606754E1,2.634539E1,1.8705505E1,1.6569061E1,3.4193027E1,2.2715878E1,1.7478222E1,1.5455353E1,2.9178581E1,2.7170868E1,2.3346558E1,6.473053E0,0E0,0E0,0E0,0E0,0E0,0E0,0E0,0E0,0E0,0E0,0E0,0E0,0E0,0E0,0E0,0E0,0E0,0E0,0E0,0E0,0E0,0E0,0E0,0E0,0E0,0E0,0E0,0E0,0E0,0E0,0E0,0E0],"parents":[2147483647,0,0,1,1,2,2,3,3,4,4,5,5,6,6,7,7,8,8,9,9,10,10,11,11,12,12,13,13,14,14,15,15,16,16,17,17,18,18,19,19,20,20,21,21,22,22,23,23,24,24,25,25,26,26,27,27,28,28,29,29,30,30],"right_children":[2,4,6,8,10,12,14,16,18,20,22,24,26,28,30,32,34,36,38,40,42,44,46,48,50,52,54,56,58,60,62,-1,-1,-1,-1,-1,-1,-1,-1,-1,-1,-1,-1,-1,-1,-1,-1,-1,-1,-1,-1,-1,-1,-1,-1,-1,-1,-1,-1,-1,-1,-1,-1],"split_conditions":[7.471221E-1,7.648269E-1,3.684931E-2,-1.1431108E0,1.4928044E0,1.6725258E0,-2.0615269E-1,-2.0992693E-1,-1.7828149E-1,-1.7828149E-1,-2.0631848E-1,1.4183697E0,-1.1033892E-1,-8.1782955E-1,1.1288157E0,-5.0652504E-1,2.0752513E0,4.0083808E-1,3.684931E-2,-4.3025514E-1,1.301864E-1,-1.7828149E-1,3.3127484E0,-4.2332377E-2,8.0480784E-1,-1.209479E0,3.1090167E0,-2.1679866E-1,1.1288157E0,1.3640579E0,2.2522185E0,-1.1029463E-2,-3.7737456E-3,6.469263E-3,2.567825E-2,-5.0446644E-2,-3.3102315E-2,-3.3123087E-2,-7.3741022E-3,-5.3807143E-3,-2.8260827E-2,2.3018175E-3,1.5861051E-2,3.4103498E-3,2.1457175E-2,2.9681774E-2,6.2244743E-2,-8.021928E-3,1.121891E-2,-2.8067065E-2,4.4353534E-3,-1.48388455E-2,1.8463604E-2,3.7851542E-2,-2.5989791E-2,2.4286617E-2,7.2746016E-3,2.1910759E-2,3.834503E-2,2.416314E-2,3.878968E-2,4.7345478E-2,2.176745E-2],"split_indices":[17,18,18,15,18,17,10,7,17,17,13,21,10,1,18,13,13,18,18,14,17,17,18,4,7,1,21,10,18,17,22,0,0,0,0,0,0,0,0,0,0,0,0,0,0,0,0,0,0,0,0,0,0,0,0,0,0,0,0,0,0,0,0],"split_type":[0,0,0,0,0,0,0,0,0,0,0,0,0,0,0,0,0,0,0,0,0,0,0,0,0,0,0,0,0,0,0,0,0,0,0,0,0,0,0,0,0,0,0,0,0,0,0,0,0,0,0,0,0,0,0,0,0,0,0,0,0,0,0],"sum_hessian":[1.9051283E4,1.3885187E4,5.166097E3,1.0648246E4,3.2369402E3,1.4847255E3,3.6813718E3,5.545449E3,5.1027974E3,1.9615883E3,1.2753519E3,1.0742574E3,4.1046802E2,2.2789802E3,1.4023916E3,3.751327E3,1.7941224E3,1.3310596E3,3.7717375E3,5.2774457E2,1.4338438E3,6.4976984E2,6.255821E2,8.2313574E2,2.5112167E2,2.050194E2,2.0544862E2,1.1981432E3,1.0808369E3,1.0087695E3,3.9362213E2,1.5500817E3,2.201245E3,1.6647616E3,1.2936089E2,9.5535077E2,3.7570886E2,1.6207705E3,2.150967E3,2.922911E2,2.3545345E2,4.816549E2,9.5218884E2,1.7611856E2,4.7365128E2,5.884547E2,3.7127346E1,4.2463477E2,3.9850098E2,1.8704495E2,6.407673E1,4.4102077E1,1.6091731E2,1.972802E2,8.168431E0,2.9980087E2,8.9834235E2,7.5766266E2,3.231743E2,5.7452386E2,4.342456E2,3.675027E2,2.611943E1],"tree_param":{"num_deleted":"0","num_feature":"25","num_nodes":"63","size_leaf_vector":"1"}},{"base_weights":[1.8171915E-3,-1.8623891E-1,3.1384873E-1,-2.4120277E-1,4.265331E-1,7.1578115E-2,5.2532816E-1,-5.057466E-2,-4.4123924E-1,5.6822693E-1,2.1082224E-1,-8.9831695E-2,4.126354E-1,3.9820302E-1,7.494199E-1,-1.6406217E-1,1.0221828E-1,-7.5358236E-1,-1.0853532E-1,3.076709E-1,7.154893E-1,3.818509E-1,-7.266472E-2,-3.8705906E-1,1.4326883E-2,2.3818377E-1,6.743987E-1,5.899632E-1,2.6611993E-1,6.032328E-1,9.127654E-1,-7.900366E-3,5.535957E-2,2.2432841E-3,1.5765777E-2,-5.0418425E-2,-3.0199075E-2,-2.0389399E-2,3.0396627E-3,6.90632E-4,2.1278448E-2,3.755497E-2,1.0816577E-2,8.819065E-3,4.6510592E-2,-1.0365394E-2,1.630483E-2,-1.5363881E-3,-2.562091E-2,1.0455407E-2,-4.1997475E-3,1.6396547E-2,-8.33858E-3,2.2543376E-2,4.4672158E-2,1.5291231E-2,3.4009483E-2,6.748023E-3,2.1118276E-2,2.023161E-2,3.9339755E-2,3.579295E-2,4.7654513E-2],"categories":[],"categories_nodes":[],"categories_segments":[],"categories_sizes":[],"default_left":[0,0,0,0,0,0,0,0,0,0,0,0,0,0,0,0,0,0,0,0,0,0,0,0,0,0,0,0,0,0,0,0,0,0,0,0,0,0,0,0,0,0,0,0,0,0,0,0,0,0,0,0,0,0,0,0,0,0,0,0,0,0,0],"id":11,"left_children":[1,3,5,7,9,11,13,15,17,19,21,23,25,27,29,31,33,35,37,39,41,43,45,47,49,51,53,55,57,59,61,-1,-1,-1,-1,-1,-1,-1,-1,-1,-1,-1,-1,-1,-1,-1,-1,-1,-1,-1,-1,-1,-1,-1,-1,-1,-1,-1,-1,-1,-1,-1,-1],"loss_changes":[1.1128375E3,3.9864526E2,3.6535162E2,4.140863E2,2.9662277E1,1.8307747E2,1.0817175E2,9.645803E1,5.505741E2,2.2322296E1,1.883426E1,6.990137E1,4.862236E1,6.1430176E1,3.2332092E1,1.3816124E1,3.0029858E1,9.729907E1,1.4343063E2,8.945089E0,1.4319733E1,2.8294582E1,9.078981E0,3.2252632E1,3.577169E1,2.9093971E1,2.2372787E1,3.4074127E1,3.209355E1,2.8948395E1,8.895569E0,0E0,0E0,0E0,0E0,0E0,0E0,0E0,0E0,0E0,0E0,0E0,0E0,0E0,0E0,0E0,0E0,0E0,0E0,0E0,0E0,0E0,0E0,0E0,0E0,0E0,0E0,0E0,0E0,0E0,0E0,0E0,0E0],"parents":[2147483647,0,0,1,1,2,2,3,3,4,4,5,5,6,6,7,7,8,8,9,9,10,10,11,11,12,12,13,13,14,14,15,15,16,16,17,17,18,18,19,19,20,20,21,21,22,22,23,23,24,24,25,25,26,26,27,27,28,28,29,29,30,30],"right_children":[2,4,6,8,10,12,14,16,18,20,22,24,26,28,30,32,34,36,38,40,42,44,46,48,50,52,54,56,58,60,62,-1,-1,-1,-1,-1,-1,-1,-1,-1,-1,-1,-1,-1,-1,-1,-1,-1,-1,-1,-1,-1,-1,-1,-1,-1,-1,-1,-1,-1,-1,-1,-1],"split_conditions":[4.3865427E-1,1.4928044E0,4.0083808E-1,-1.1431108E0,1.2561376E0,1.3640579E0,-2.0615269E-1,-2.663598E-1,4.0083808E-1,-3.3125392E-1,-3.0345562E-1,-3.2713947E-1,1.02580585E-1,-2.1679866E-1,1.05559E0,-8.904696E-2,6.9430125E-1,-3.2713947E-1,-1.7828149E-1,-1.7828149E-1,-2.4207002E-2,2.5847707E0,-1.6880508E-1,-6.195729E-1,2.9127154E-1,1.7001442E0,1.9809936E0,7.648269E-1,1.3640579E0,1.1288157E0,8.787566E-2,-7.900366E-3,5.535957E-2,2.2432841E-3,1.5765777E-2,-5.0418425E-2,-3.0199075E-2,-2.0389399E-2,3.0396627E-3,6.90632E-4,2.1278448E-2,3.755497E-2,1.0816577E-2,8.819065E-3,4.6510592E-2,-1.0365394E-2,1.630483E-2,-1.5363881E-3,-2.562091E-2,1.0455407E-2,-4.1997475E-3,1.6396547E-2,-8.33858E-3,2.2543376E-2,4.4672158E-2,1.5291231E-2,3.4009483E-2,6.748023E-3,2.1118276E-2,2.023161E-2,3.9339755E-2,3.579295E-2,4.7654513E-2],"split_indices":[17,18,18,15,22,17,10,13,18,7,11,18,10,10,17,10,13,18,17,17,5,18,11,3,21,21,17,18,17,18,7,0,0,0,0,0,0,0,0,0,0,0,0,0,0,0,0,0,0,0,0,0,0,0,0,0,0,0,0,0,0,0,0],"split_type":[0,0,0,0,0,0,0,0,0,0,0,0,0,0,0,0,0,0,0,0,0,0,0,0,0,0,0,0,0,0,0,0,0,0,0,0,0,0,0,0,0,0,0,0,0,0,0,0,0,0,0,0,0,0,0,0,0,0,0,0,0,0,0],"sum_hessian":[1.8962697E4,1.1832097E4,7.1306006E3,1.0858709E4,9.73388E2,3.323985E3,3.8066155E3,5.5607505E3,5.297958E3,5.865E2,3.8688797E2,2.256706E3,1.067279E3,2.4305593E3,1.3760563E3,3.1907417E3,2.3700088E3,2.7319412E3,2.5660168E3,2.1289949E2,3.7360052E2,2.4109035E2,1.457976E2,5.849044E2,1.6718016E3,6.4159766E2,4.2568143E2,9.8991675E2,1.4406426E3,7.2864417E2,6.474121E2,3.1840051E3,6.7367377E0,1.9179236E3,4.5208514E2,7.269216E2,2.0050195E3,8.938793E2,1.6721376E3,7.0117424E1,1.4278207E2,3.2053683E2,5.30637E1,1.8311952E2,5.7970837E1,1.08248146E2,3.7549465E1,1.7857832E2,4.0632608E2,5.559087E2,1.115893E3,5.0824863E2,1.3334906E2,2.4814966E2,1.7753175E2,3.2599106E2,6.6392566E2,8.580224E2,5.826202E2,4.152119E2,3.1343228E2,2.5119165E2,3.9622043E2],"tree_param":{"num_deleted":"0","num_feature":"25","num_nodes":"63","size_leaf_vector":"1"}},{"base_weights":[5.512148E-3,-1.738862E-1,3.012671E-1,-2.258389E-1,3.987103E-1,5.9864573E-2,5.1117116E-1,-3.1088589E-2,-4.2875642E-1,2.5840247E-1,6.823418E-1,-1.7588367E-1,3.050137E-1,4.1186276E-1,7.4607736E-1,-1.1422064E-1,1.5608647E-1,-7.26552E-1,-1.1014551E-1,4.1951635E-1,-2.9103957E-2,8.808354E-1,3.3946535E-1,-3.2510334E-1,4.3412816E-2,1.7481121E-1,5.5783087E-1,5.989141E-1,3.036954E-1,6.758734E-1,9.66463E-1,-1.4346327E-2,-4.467721E-3,5.996385E-3,2.4408849E-2,-4.7158293E-2,-2.7638571E-2,-3.2075975E-2,-1.1815984E-3,2.8947432E-2,1.1651337E-2,-3.717139E-2,3.1455484E-4,3.7773915E-2,5.9962958E-2,6.8943035E-3,5.0737087E-2,-2.0571422E-2,-3.2770461E-3,-2.458899E-3,1.3512746E-2,1.19614415E-2,-9.59562E-3,-4.1633304E-3,2.9889252E-2,2.1580683E-2,3.8160212E-2,8.658536E-3,2.2846175E-2,2.721057E-2,4.225112E-2,-3.1698963E-3,4.6837885E-2],"categories":[],"categories_nodes":[],"categories_segments":[],"categories_sizes":[],"default_left":[0,0,0,0,0,0,0,0,0,0,0,0,0,0,0,0,0,0,0,0,0,0,0,0,0,0,0,0,0,0,0,0,0,0,0,0,0,0,0,0,0,0,0,0,0,0,0,0,0,0,0,0,0,0,0,0,0,0,0,0,0,0,0],"id":12,"left_children":[1,3,5,7,9,11,13,15,17,19,21,23,25,27,29,31,33,35,37,39,41,43,45,47,49,51,53,55,57,59,61,-1,-1,-1,-1,-1,-1,-1,-1,-1,-1,-1,-1,-1,-1,-1,-1,-1,-1,-1,-1,-1,-1,-1,-1,-1,-1,-1,-1,-1,-1,-1,-1],"loss_changes":[1.00684595E3,3.5146307E2,3.6301367E2,4.2796027E2,3.8939224E1,1.9270515E2,8.909155E1,8.6022E1,5.0313025E2,3.0547768E1,2.1799393E1,5.5641857E1,5.3706253E1,5.4360962E1,1.69458E1,1.4214958E1,1.7803394E1,1.0479236E2,1.2413683E2,1.3967934E1,6.447025E0,5.44928E0,1.6999296E1,2.8534721E1,1.5981915E1,3.2072155E1,2.6932922E1,2.891629E1,3.696289E1,1.8379944E1,7.1428986E0,0E0,0E0,0E0,0E0,0E0,0E0,0E0,0E0,0E0,0E0,0E0,0E0,0E0,0E0,0E0,0E0,0E0,0E0,0E0,0E0,0E0,0E0,0E0,0E0,0E0,0E0,0E0,0E0,0E0,0E0,0E0,0E0],"parents":[2147483647,0,0,1,1,2,2,3,3,4,4,5,5,6,6,7,7,8,8,9,9,10,10,11,11,12,12,13,13,14,14,15,15,16,16,17,17,18,18,19,19,20,20,21,21,22,22,23,23,24,24,25,25,26,26,27,27,28,28,29,29,30,30],"right_children":[2,4,6,8,10,12,14,16,18,20,22,24,26,28,30,32,34,36,38,40,42,44,46,48,50,52,54,56,58,60,62,-1,-1,-1,-1,-1,-1,-1,-1,-1,-1,-1,-1,-1,-1,-1,-1,-1,-1,-1,-1,-1,-1,-1,-1,-1,-1,-1,-1,-1,-1,-1,-1],"split_conditions":[4.3865427E-1,1.4928044E0,4.0083808E-1,-1.1431108E0,2.220782E0,1.05559E0,-9.969294E-2,-2.0631848E-1,4.0083808E-1,1.2561376E0,-2.06208E-1,3.684931E-2,1.9839436E-1,-2.1679866E-1,1.4928044E0,-6.5328366E-1,1.8951275E0,-1.7828149E-1,-4.8674935E-1,-3.9696294E-1,-7.952172E-1,1.4759114E0,-2.0246772E-1,3.318774E-1,1.430243E-1,1.7001442E0,-6.9112825E-1,1.1288157E0,-7.988788E-1,1.3640579E0,-3.264011E-1,-1.4346327E-2,-4.467721E-3,5.996385E-3,2.4408849E-2,-4.7158293E-2,-2.7638571E-2,-3.2075975E-2,-1.1815984E-3,2.8947432E-2,1.1651337E-2,-3.717139E-2,3.1455484E-4,3.7773915E-2,5.9962958E-2,6.8943035E-3,5.0737087E-2,-2.0571422E-2,-3.2770461E-3,-2.458899E-3,1.3512746E-2,1.19614415E-2,-9.59562E-3,-4.1633304E-3,2.9889252E-2,2.1580683E-2,3.8160212E-2,8.658536E-3,2.2846175E-2,2.721057E-2,4.225112E-2,-3.1698963E-3,4.6837885E-2],"split_indices":[17,18,18,15,18,17,10,13,18,22,11,18,10,10,18,10,13,17,17,11,17,10,11,5,7,21,18,18,1,17,13,0,0,0,0,0,0,0,0,0,0,0,0,0,0,0,0,0,0,0,0,0,0,0,0,0,0,0,0,0,0,0,0],"split_type":[0,0,0,0,0,0,0,0,0,0,0,0,0,0,0,0,0,0,0,0,0,0,0,0,0,0,0,0,0,0,0,0,0,0,0,0,0,0,0,0,0,0,0,0,0,0,0,0,0,0,0,0,0,0,0,0,0,0,0,0,0,0,0],"sum_hessian":[1.897436E4,1.1810678E4,7.163681E3,1.082877E4,9.819081E2,3.3324478E3,3.8312332E3,5.526173E3,5.302597E3,6.5821234E2,3.2369577E2,1.6989403E3,1.6335074E3,2.6947568E3,1.1364763E3,3.8268867E3,1.6992861E3,2.7401677E3,2.5624292E3,4.21533E2,2.3667934E2,2.0401886E2,1.1967692E2,1.01071765E3,6.882226E2,1.0793346E3,5.541728E2,9.856898E2,1.7090671E3,8.649978E2,2.7147852E2,3.579498E2,3.4689368E3,1.5735109E3,1.2577533E2,9.3569135E2,1.8044764E3,3.3261172E2,2.2298174E3,1.9778197E2,2.23751E2,9.719286E0,2.2696005E2,1.7131058E2,3.2708294E1,9.5675316E1,2.4001602E1,7.054447E2,3.0527298E2,4.944703E2,1.937523E2,8.941429E2,1.8519174E2,5.759227E1,4.9658054E2,5.8871545E2,3.9697437E2,1.025264E3,6.838031E2,5.9636304E2,2.686347E2,6.4035172E0,2.65075E2],"tree_param":{"num_deleted":"0","num_feature":"25","num_nodes":"63","size_leaf_vector":"1"}},{"base_weights":[9.001999E-3,-1.2426266E-1,3.694404E-1,-2.331997E-1,2.3173173E-1,1.6574752E-1,5.473523E-1,-2.766713E-2,-4.5809203E-1,4.838177E-2,4.301087E-1,4.9750257E-2,4.7014973E-1,3.831579E-1,6.9263715E-1,-1.1274081E-1,1.4871177E-1,-7.021282E-1,-2.2496921E-1,-1.3001549E-1,3.1816E-1,6.2630904E-1,3.3024412E-1,1.4221482E-1,-2.7406892E-1,8.131347E-1,3.1071568E-1,3.0460516E-1,6.452119E-1,3.9174196E-1,7.731877E-1,-1.8547203E-2,-4.482443E-3,2.3925025E-3,1.1121202E-2,-4.516616E-2,-2.4326526E-2,-3.3874817E-2,-5.5102315E-3,2.9496726E-4,-2.2165222E-2,2.1846302E-2,1.6034906E-3,2.414945E-2,4.43718E-2,2.4205431E-2,1.0483396E-2,-3.1548718E-3,1.5116393E-2,-2.9216377E-2,-6.1968095E-3,4.266018E-2,1.4559184E-2,3.9340068E-2,8.935322E-3,2.7700482E-2,1.04825115E-2,3.179052E-2,-2.1015173E-2,2.0118458E-2,-3.803401E-2,3.1027239E-2,4.448503E-2],"categories":[],"categories_nodes":[],"categories_segments":[],"categories_sizes":[],"default_left":[0,0,0,0,0,0,0,0,0,0,0,0,0,0,0,0,0,0,0,0,0,0,0,0,0,0,0,0,0,0,0,0,0,0,0,0,0,0,0,0,0,0,0,0,0,0,0,0,0,0,0,0,0,0,0,0,0,0,0,0,0,0,0],"id":13,"left_children":[1,3,5,7,9,11,13,15,17,19,21,23,25,27,29,31,33,35,37,39,41,43,45,47,49,51,53,55,57,59,61,-1,-1,-1,-1,-1,-1,-1,-1,-1,-1,-1,-1,-1,-1,-1,-1,-1,-1,-1,-1,-1,-1,-1,-1,-1,-1,-1,-1,-1,-1,-1,-1],"loss_changes":[9.0597833E2,5.3407385E2,1.8441138E2,4.8736853E2,1.1735126E2,8.383944E1,6.455206E1,8.269979E1,2.8627966E2,8.080541E1,3.015982E1,5.15642E1,3.557657E1,2.6107056E1,3.4607117E1,1.8533329E1,1.5241047E1,1.1643091E2,1.3727043E2,4.672901E1,2.7399109E1,1.8308945E1,2.0195122E1,4.9792953E1,1.8747662E1,9.142822E0,2.833273E1,2.2823204E1,9.207924E0,1.28693695E1,2.1642334E1,0E0,0E0,0E0,0E0,0E0,0E0,0E0,0E0,0E0,0E0,0E0,0E0,0E0,0E0,0E0,0E0,0E0,0E0,0E0,0E0,0E0,0E0,0E0,0E0,0E0,0E0,0E0,0E0,0E0,0E0,0E0,0E0],"parents":[2147483647,0,0,1,1,2,2,3,3,4,4,5,5,6,6,7,7,8,8,9,9,10,10,11,11,12,12,13,13,14,14,15,15,16,16,17,17,18,18,19,19,20,20,21,21,22,22,23,23,24,24,25,25,26,26,27,27,28,28,29,29,30,30],"right_children":[2,4,6,8,10,12,14,16,18,20,22,24,26,28,30,32,34,36,38,40,42,44,46,48,50,52,54,56,58,60,62,-1,-1,-1,-1,-1,-1,-1,-1,-1,-1,-1,-1,-1,-1,-1,-1,-1,-1,-1,-1,-1,-1,-1,-1,-1,-1,-1,-1,-1,-1,-1,-1],"split_conditions":[7.471221E-1,7.648269E-1,4.0083808E-1,-1.1431108E0,1.301864E-1,1.6725258E0,-8.1782955E-1,-2.0992693E-1,1.301864E-1,1.4928044E0,-4.3436587E-1,1.4183697E0,-6.995015E-1,-1.8486074E-1,-4.1749826E-1,-3.7350476E-1,1.18453E-1,3.684931E-2,-3.2713947E-1,1.2561376E0,-2.06208E-1,1.8567932E0,-1.9155309E-1,-2.0631848E-1,-3.2713947E-1,2.263693E0,2.9127154E-1,-2.1679866E-1,2.8272421E0,3.3506304E-1,1.3640579E0,-1.8547203E-2,-4.482443E-3,2.3925025E-3,1.1121202E-2,-4.516616E-2,-2.4326526E-2,-3.3874817E-2,-5.5102315E-3,2.9496726E-4,-2.2165222E-2,2.1846302E-2,1.6034906E-3,2.414945E-2,4.43718E-2,2.4205431E-2,1.0483396E-2,-3.1548718E-3,1.5116393E-2,-2.9216377E-2,-6.1968095E-3,4.266018E-2,1.4559184E-2,3.9340068E-2,8.935322E-3,2.7700482E-2,1.04825115E-2,3.179052E-2,-2.1015173E-2,2.0118458E-2,-3.803401E-2,3.1027239E-2,4.448503E-2],"split_indices":[17,18,18,15,17,17,1,7,17,18,11,21,9,10,4,9,4,18,18,22,11,18,9,13,18,21,21,10,21,8,17,0,0,0,0,0,0,0,0,0,0,0,0,0,0,0,0,0,0,0,0,0,0,0,0,0,0,0,0,0,0,0,0],"split_type":[0,0,0,0,0,0,0,0,0,0,0,0,0,0,0,0,0,0,0,0,0,0,0,0,0,0,0,0,0,0,0,0,0,0,0,0,0,0,0,0,0,0,0,0,0,0,0,0,0,0,0,0,0,0,0,0,0,0,0,0,0,0,0],"sum_hessian":[1.8859352E4,1.3769148E4,5.090203E3,1.0543194E4,3.225954E3,2.374057E3,2.7161462E3,5.509291E3,5.033903E3,1.6771198E3,1.5488345E3,1.7198458E3,6.5421094E2,1.2768007E3,1.4393456E3,3.716874E3,1.7924169E3,2.458402E3,2.5755007E3,1.00985034E3,6.672695E2,5.206536E2,1.0281808E3,1.3382715E3,3.8157434E2,2.0630153E2,4.479094E2,9.840009E2,2.9279977E2,3.051872E2,1.1341584E3,2.214893E2,3.4953848E3,8.420072E2,9.5040967E2,1.0409252E3,1.417477E3,4.6353836E2,2.1119624E3,7.2116455E2,2.8868582E2,4.4211084E2,2.251586E2,3.8266397E2,1.3798965E2,3.8192642E2,6.462544E2,6.154578E2,7.2281366E2,1.1089392E2,2.7068042E2,1.7441893E2,3.1882591E1,8.3474396E1,3.64435E2,2.2181915E2,7.6218176E2,2.8588776E2,6.9119897E0,2.9734067E2,7.846547E0,6.740145E2,4.601439E2],"tree_param":{"num_deleted":"0","num_feature":"25","num_nodes":"63","size_leaf_vector":"1"}},{"base_weights":[-4.6537217E-4,-1.6249105E-1,2.6751092E-1,-2.2797842E-1,2.5189042E-1,-5.3596303E-2,3.962778E-1,-3.2606337E-2,-4.6175054E-1,1.14040725E-1,5.116703E-1,-2.4433279E-1,3.2946706E-1,2.8865063E-1,5.755095E-1,-1.08866684E-1,1.4009726E-1,-6.662422E-1,-1.7646655E-1,4.3687296E-1,5.704061E-3,7.5143725E-1,3.2342488E-1,-3.7585115E-1,-1.8379536E-2,4.402041E-1,-5.496433E-2,4.468915E-1,1.700539E-1,4.7887978E-1,8.146297E-1,-8.496994E-3,-2.2092168E-3,5.2903662E-3,2.2456693E-2,-4.4717222E-2,-2.4687368E-2,-2.3752881E-2,3.944646E-7,3.3255875E-2,9.560883E-3,-2.1543643E-2,3.930072E-3,5.0400417E-2,2.9734699E-2,1.1665661E-2,4.440322E-2,-1.5659455E-2,-4.4996165E-2,1.3204637E-2,-9.722042E-3,1.6136106E-2,4.7031138E-2,-1.7520998E-2,1.2248859E-2,1.2195489E-2,3.0449813E-2,4.0014633E-3,1.8533183E-2,1.4362971E-2,3.1193657E-2,3.449637E-2,4.7499932E-2],"categories":[],"categories_nodes":[],"categories_segments":[],"categories_sizes":[],"default_left":[0,0,0,0,0,0,0,0,0,0,0,0,0,0,0,0,0,0,0,0,0,0,0,0,0,0,0,0,0,0,0,0,0,0,0,0,0,0,0,0,0,0,0,0,0,0,0,0,0,0,0,0,0,0,0,0,0,0,0,0,0,0,0],"id":14,"left_children":[1,3,5,7,9,11,13,15,17,19,21,23,25,27,29,31,33,35,37,39,41,43,45,47,49,51,53,55,57,59,61,-1,-1,-1,-1,-1,-1,-1,-1,-1,-1,-1,-1,-1,-1,-1,-1,-1,-1,-1,-1,-1,-1,-1,-1,-1,-1,-1,-1,-1,-1,-1,-1],"loss_changes":[8.197137E2,3.1933298E2,2.9415823E2,4.640334E2,5.745684E1,1.4891405E2,9.77832E1,7.2924416E1,2.6972662E2,3.6741203E1,2.4875168E1,4.042228E1,2.8868126E1,5.9500824E1,4.360614E1,1.6929424E1,1.59267845E1,1.0799182E2,1.1132042E2,1.6392647E1,2.8225826E1,8.717392E0,1.454771E1,2.1669067E1,2.8068615E1,2.8474113E1,1.5231216E1,5.056067E1,3.4423237E1,4.290393E1,8.067017E0,0E0,0E0,0E0,0E0,0E0,0E0,0E0,0E0,0E0,0E0,0E0,0E0,0E0,0E0,0E0,0E0,0E0,0E0,0E0,0E0,0E0,0E0,0E0,0E0,0E0,0E0,0E0,0E0,0E0,0E0,0E0,0E0],"parents":[2147483647,0,0,1,1,2,2,3,3,4,4,5,5,6,6,7,7,8,8,9,9,10,10,11,11,12,12,13,13,14,14,15,15,16,16,17,17,18,18,19,19,20,20,21,21,22,22,23,23,24,24,25,25,26,26,27,27,28,28,29,29,30,30],"right_children":[2,4,6,8,10,12,14,16,18,20,22,24,26,28,30,32,34,36,38,40,42,44,46,48,50,52,54,56,58,60,62,-1,-1,-1,-1,-1,-1,-1,-1,-1,-1,-1,-1,-1,-1,-1,-1,-1,-1,-1,-1,-1,-1,-1,-1,-1,-1,-1,-1,-1,-1,-1,-1],"split_conditions":[4.3865427E-1,1.1288157E0,3.684931E-2,-1.1431108E0,1.8567932E0,1.3640579E0,-2.0615269E-1,-1.4627717E-1,4.0083808E-1,2.6005685E-1,9.241107E-1,-4.6463065E-2,1.7001442E0,-2.1679866E-1,1.1288157E0,-4.710934E-1,2.0752513E0,-1.7828149E-1,-1.7828149E-1,-4.5506653E-1,-4.8674935E-1,-7.148878E-1,1.4759114E0,1.9819187E0,5.730461E-1,2.262258E0,-3.2713947E-1,7.648269E-1,1.4928044E0,1.05559E0,5.284196E-1,-8.496994E-3,-2.2092168E-3,5.2903662E-3,2.2456693E-2,-4.4717222E-2,-2.4687368E-2,-2.3752881E-2,3.944646E-7,3.3255875E-2,9.560883E-3,-2.1543643E-2,3.930072E-3,5.0400417E-2,2.9734699E-2,1.1665661E-2,4.440322E-2,-1.5659455E-2,-4.4996165E-2,1.3204637E-2,-9.722042E-3,1.6136106E-2,4.7031138E-2,-1.7520998E-2,1.2248859E-2,1.2195489E-2,3.0449813E-2,4.0014633E-3,1.8533183E-2,1.4362971E-2,3.1193657E-2,3.449637E-2,4.7499932E-2],"split_indices":[17,18,18,15,18,17,10,13,18,22,22,10,21,10,18,4,13,17,17,8,17,11,10,21,21,4,18,18,18,17,10,0,0,0,0,0,0,0,0,0,0,0,0,0,0,0,0,0,0,0,0,0,0,0,0,0,0,0,0,0,0,0,0],"split_type":[0,0,0,0,0,0,0,0,0,0,0,0,0,0,0,0,0,0,0,0,0,0,0,0,0,0,0,0,0,0,0,0,0,0,0,0,0,0,0,0,0,0,0,0,0,0,0,0,0,0,0,0,0,0,0,0,0,0,0,0,0,0,0],"sum_hessian":[1.8877129E4,1.1764431E4,7.112698E3,1.0159336E4,1.6050953E3,2.0360253E3,5.076673E3,5.53482E3,4.6245156E3,1.0495831E3,5.5551215E2,1.359473E3,6.7655225E2,3.1735767E3,1.9030961E3,3.839701E3,1.6951188E3,2.6929053E3,1.9316105E3,2.6295914E2,7.86624E2,2.4300568E2,3.125065E2,8.588862E2,5.005868E2,5.251388E2,1.5141345E2,1.3583687E3,1.815208E3,1.3575186E3,5.4557764E2,1.7902554E3,2.0494456E3,1.5652981E3,1.2982068E2,9.1E2,1.7829054E3,6.772176E2,1.254393E3,1.2196917E2,1.4098997E2,1.1233792E2,6.7428613E2,6.556567E1,1.7744002E2,2.7927917E2,3.3227318E1,7.9904504E2,5.9841236E1,1.931281E2,3.074587E2,4.4735297E2,7.778582E1,7.541431E1,7.5999146E1,6.962639E2,6.6210474E2,1.3126725E3,5.025355E2,6.9289484E2,6.6462366E2,3.818227E2,1.6375491E2],"tree_param":{"num_deleted":"0","num_feature":"25","num_nodes":"63","size_leaf_vector":"1"}},{"base_weights":[2.3186395E-3,-1.1437937E-1,3.1857434E-1,-1.7844534E-1,1.8081932E-1,1.45612E-1,4.2496136E-1,-7.4896656E-2,-2.6604193E-1,1.08939804E-1,4.3029296E-1,-3.722462E-2,2.4558423E-1,3.1719944E-1,5.867774E-1,-1.7180341E-1,1.5904099E-2,-4.855684E-1,-1.0647394E-1,2.9234044E-2,2.448932E-1,5.3484976E-1,1.4906827E-1,-1.0986652E-1,3.4921306E-1,3.339733E-1,5.183608E-2,3.9872178E-1,6.950698E-2,7.3687637E-1,4.4045913E-1,5.517327E-4,-8.992664E-3,-8.523611E-3,2.4242797E-3,-3.1057846E-2,-1.6734734E-2,-1.6181534E-2,-1.4382689E-3,8.578554E-3,-9.103295E-3,1.5039209E-2,-6.540681E-3,2.620726E-2,-4.0123705E-2,-2.935564E-2,1.0453271E-2,-3.8205676E-2,-3.6446876E-3,5.378734E-3,3.527294E-2,1.2324478E-2,2.3304768E-2,-8.520633E-3,7.82346E-3,7.974492E-3,2.1611203E-2,7.821962E-4,3.268256E-2,4.318736E-2,2.6373535E-2,1.869053E-2,4.8172355E-2],"categories":[],"categories_nodes":[],"categories_segments":[],"categories_sizes":[],"default_left":[0,0,0,0,0,0,0,0,0,0,0,0,0,0,0,0,0,0,0,0,0,0,0,0,0,0,0,0,0,0,0,0,0,0,0,0,0,0,0,0,0,0,0,0,0,0,0,0,0,0,0,0,0,0,0,0,0,0,0,0,0,0,0],"id":15,"left_children":[1,3,5,7,9,11,13,15,17,19,21,23,25,27,29,31,33,35,37,39,41,43,45,47,49,51,53,55,57,59,61,-1,-1,-1,-1,-1,-1,-1,-1,-1,-1,-1,-1,-1,-1,-1,-1,-1,-1,-1,-1,-1,-1,-1,-1,-1,-1,-1,-1,-1,-1,-1,-1],"loss_changes":[6.947008E2,2.6006934E2,9.329755E1,1.02461334E2,4.3929955E1,3.535538E1,5.458313E1,4.5574562E1,2.1433539E2,2.0638153E1,1.6039864E1,1.9251806E1,2.1394463E1,3.8085663E1,2.722403E1,8.542229E0,1.8611208E1,5.7912964E1,6.3627163E1,4.0695282E1,1.988041E1,1.1511353E1,8.484663E0,1.3125965E1,1.0069847E1,9.86795E0,1.0411922E1,1.9117447E1,1.5431359E1,1.9056E1,1.61361E1,0E0,0E0,0E0,0E0,0E0,0E0,0E0,0E0,0E0,0E0,0E0,0E0,0E0,0E0,0E0,0E0,0E0,0E0,0E0,0E0,0E0,0E0,0E0,0E0,0E0,0E0,0E0,0E0,0E0,0E0,0E0,0E0],"parents":[2147483647,0,0,1,1,2,2,3,3,4,4,5,5,6,6,7,7,8,8,9,9,10,10,11,11,12,12,13,13,14,14,15,15,16,16,17,17,18,18,19,19,20,20,21,21,22,22,23,23,24,24,25,25,26,26,27,27,28,28,29,29,30,30],"right_children":[2,4,6,8,10,12,14,16,18,20,22,24,26,28,30,32,34,36,38,40,42,44,46,48,50,52,54,56,58,60,62,-1,-1,-1,-1,-1,-1,-1,-1,-1,-1,-1,-1,-1,-1,-1,-1,-1,-1,-1,-1,-1,-1,-1,-1,-1,-1,-1,-1,-1,-1,-1,-1],"split_conditions":[7.648269E-1,3.8642865E-1,-3.3125392E-1,-4.2461392E-1,2.375458E0,1.1288157E0,1.4928044E0,-4.1749826E-1,3.684931E-2,3.684931E-2,5.1613563E-1,1.0242443E0,1.2561376E0,1.2561376E0,9.241107E-1,-3.1879237E-1,-3.2325843E-1,-3.2713947E-1,7.602648E-2,-2.0085424E-1,1.0200106E0,1.9063205E0,-6.9112825E-1,-5.9055924E-1,1.001772E0,1.8567932E0,1.4928044E0,7.602648E-2,7.475666E-1,-2.3987064E-1,3.3127484E0,5.517327E-4,-8.992664E-3,-8.523611E-3,2.4242797E-3,-3.1057846E-2,-1.6734734E-2,-1.6181534E-2,-1.4382689E-3,8.578554E-3,-9.103295E-3,1.5039209E-2,-6.540681E-3,2.620726E-2,-4.0123705E-2,-2.935564E-2,1.0453271E-2,-3.8205676E-2,-3.6446876E-3,5.378734E-3,3.527294E-2,1.2324478E-2,2.3304768E-2,-8.520633E-3,7.82346E-3,7.974492E-3,2.1611203E-2,7.821962E-4,3.268256E-2,4.318736E-2,2.6373535E-2,1.869053E-2,4.8172355E-2],"split_indices":[18,4,7,19,13,18,18,4,18,18,23,15,22,22,22,1,10,18,15,23,6,20,18,20,24,18,18,15,11,11,18,0,0,0,0,0,0,0,0,0,0,0,0,0,0,0,0,0,0,0,0,0,0,0,0,0,0,0,0,0,0,0,0],"split_type":[0,0,0,0,0,0,0,0,0,0,0,0,0,0,0,0,0,0,0,0,0,0,0,0,0,0,0,0,0,0,0,0,0,0,0,0,0,0,0,0,0,0,0,0,0,0,0,0,0,0,0,0,0,0,0,0,0,0,0,0,0,0,0],"sum_hessian":[1.8821324E4,1.3748705E4,5.072619E3,1.1297288E4,2.4514167E3,1.9327515E3,3.1398677E3,5.178084E3,6.119204E3,1.9042051E3,5.4721173E2,6.8344476E2,1.2493066E3,1.8865042E3,1.2533634E3,2.5043906E3,2.6736936E3,2.5748281E3,3.544376E3,1.2011932E3,7.0301184E2,3.9824573E2,1.4896599E2,5.7590314E2,1.0754161E2,8.5742194E2,3.9188477E2,1.4188967E3,4.6760745E2,6.166964E2,6.36667E2,2.3028586E2,2.2741047E3,4.079658E2,2.2657278E3,1.1130303E3,1.4617979E3,8.624558E2,2.6819202E3,7.123361E2,4.8885715E2,5.9005774E2,1.1295413E2,3.931714E2,5.07436E0,1.2116128E1,1.3684985E2,2.468207E1,5.5122107E2,6.835949E1,3.918212E1,5.897663E2,2.676556E2,1.2868414E2,2.6320065E2,2.8978906E2,1.1291077E3,4.318933E2,3.571412E1,3.072353E2,3.0946112E2,5.9256354E2,4.410347E1],"tree_param":{"num_deleted":"0","num_feature":"25","num_nodes":"63","size_leaf_vector":"1"}},{"base_weights":[-3.1629046E-3,-1.23652294E-1,3.2214E-1,-2.1774468E-1,1.8229249E-1,1.5440996E-1,4.6976545E-1,-2.9312506E-2,-4.2727783E-1,1.3840042E-2,3.666827E-1,4.795395E-2,4.3478382E-1,3.7756592E-1,6.7791224E-1,-1.23359516E-1,9.786491E-2,-6.544314E-1,-2.1277158E-1,-6.407982E-2,5.2833414E-1,5.164994E-1,2.4803917E-1,3.314939E-1,-6.7796856E-2,2.2075891E-1,6.681804E-1,5.92716E-1,2.815413E-1,4.778671E-1,7.6639366E-1,-8.659576E-3,-3.1210657E-3,-5.855522E-3,6.1359666E-3,-4.255971E-2,-2.2469018E-2,-3.191534E-2,-5.2633556E-3,-1.8947499E-2,1.1967182E-3,3.327813E-2,1.0067626E-2,1.7504627E-2,3.434909E-2,4.3291263E-3,2.1584284E-2,1.1045086E-2,3.2914195E-2,-1.6974214E-2,4.2506674E-4,3.4474682E-2,4.7235293E-3,4.281975E-2,2.0408073E-2,2.0568056E-2,3.71298E-2,9.2344005E-3,2.4246644E-2,3.447431E-2,1.6281875E-2,3.040269E-2,5.068252E-2],"categories":[],"categories_nodes":[],"categories_segments":[],"categories_sizes":[],"default_left":[0,0,0,0,0,0,0,0,0,0,0,0,0,0,0,0,0,0,0,0,0,0,0,0,0,0,0,0,0,0,0,0,0,0,0,0,0,0,0,0,0,0,0,0,0,0,0,0,0,0,0,0,0,0,0,0,0,0,0,0,0,0,0],"id":16,"left_children":[1,3,5,7,9,11,13,15,17,19,21,23,25,27,29,31,33,35,37,39,41,43,45,47,49,51,53,55,57,59,61,-1,-1,-1,-1,-1,-1,-1,-1,-1,-1,-1,-1,-1,-1,-1,-1,-1,-1,-1,-1,-1,-1,-1,-1,-1,-1,-1,-1,-1,-1,-1,-1],"loss_changes":[7.3529175E2,3.941114E2,1.2547601E2,4.1336523E2,1.00022675E2,7.086841E1,5.1489075E1,6.5957756E1,2.4140814E2,6.7542404E1,2.719905E1,5.655677E1,3.2496185E1,3.848465E1,1.4262207E1,1.0878109E1,1.6678146E1,1.0567151E2,1.1960007E2,4.4112087E1,1.2155865E1,2.059056E1,2.8052387E1,1.7659092E1,2.7409948E1,2.097605E1,1.7173447E1,1.718605E1,2.5734314E1,8.34203E0,2.0811157E1,0E0,0E0,0E0,0E0,0E0,0E0,0E0,0E0,0E0,0E0,0E0,0E0,0E0,0E0,0E0,0E0,0E0,0E0,0E0,0E0,0E0,0E0,0E0,0E0,0E0,0E0,0E0,0E0,0E0,0E0,0E0,0E0],"parents":[2147483647,0,0,1,1,2,2,3,3,4,4,5,5,6,6,7,7,8,8,9,9,10,10,11,11,12,12,13,13,14,14,15,15,16,16,17,17,18,18,19,19,20,20,21,21,22,22,23,23,24,24,25,25,26,26,27,27,28,28,29,29,30,30],"right_children":[2,4,6,8,10,12,14,16,18,20,22,24,26,28,30,32,34,36,38,40,42,44,46,48,50,52,54,56,58,60,62,-1,-1,-1,-1,-1,-1,-1,-1,-1,-1,-1,-1,-1,-1,-1,-1,-1,-1,-1,-1,-1,-1,-1,-1,-1,-1,-1,-1,-1,-1,-1,-1],"split_conditions":[7.471221E-1,7.648269E-1,4.0083808E-1,-1.1431108E0,1.301864E-1,1.6725258E0,6.485788E-2,-2.663598E-1,1.301864E-1,2.220782E0,-2.660527E-1,2.9127154E-1,5.5612475E-2,-2.3239006E-1,-1.1336098E0,-5.0652504E-1,-3.7462217E-1,3.684931E-2,-3.2713947E-1,-4.8674935E-1,-3.109362E-1,1.4928044E0,-2.0246772E-1,3.084702E-1,-3.6390314E-1,2.9127154E-1,1.1365951E0,1.1288157E0,-2.0246772E-1,5.730461E-1,1.6725258E0,-8.659576E-3,-3.1210657E-3,-5.855522E-3,6.1359666E-3,-4.255971E-2,-2.2469018E-2,-3.191534E-2,-5.2633556E-3,-1.8947499E-2,1.1967182E-3,3.327813E-2,1.0067626E-2,1.7504627E-2,3.434909E-2,4.3291263E-3,2.1584284E-2,1.1045086E-2,3.2914195E-2,-1.6974214E-2,4.2506674E-4,3.4474682E-2,4.7235293E-3,4.281975E-2,2.0408073E-2,2.0568056E-2,3.71298E-2,9.2344005E-3,2.4246644E-2,3.447431E-2,1.6281875E-2,3.040269E-2,5.068252E-2],"split_indices":[17,18,18,15,17,17,4,13,17,18,11,21,11,11,0,13,4,18,18,17,11,18,11,7,4,21,21,18,11,21,17,0,0,0,0,0,0,0,0,0,0,0,0,0,0,0,0,0,0,0,0,0,0,0,0,0,0,0,0,0,0,0,0],"split_type":[0,0,0,0,0,0,0,0,0,0,0,0,0,0,0,0,0,0,0,0,0,0,0,0,0,0,0,0,0,0,0,0,0,0,0,0,0,0,0,0,0,0,0,0,0,0,0,0,0,0,0,0,0,0,0,0,0,0,0,0,0,0,0],"sum_hessian":[1.8757557E4,1.3688189E4,5.069367E3,1.0468823E4,3.2193665E3,2.3740498E3,2.6953174E3,5.5125513E3,4.956272E3,1.6829539E3,1.5364126E3,1.7215574E3,6.524924E2,1.869866E3,8.254515E2,3.1690706E3,2.3434805E3,2.406176E3,2.5500957E3,1.4623562E3,2.2059764E2,6.775216E2,8.58891E2,4.985237E2,1.2230337E3,3.4138647E2,3.111059E2,5.754212E2,1.2944448E3,2.5510124E2,5.703502E2,1.5471742E3,1.6218965E3,2.9538077E2,2.0480999E3,1.00950085E3,1.3966753E3,4.5700262E2,2.093093E3,3.0587402E2,1.1564822E3,1.4070943E2,7.988822E1,4.0192828E2,2.7559332E2,4.9201724E2,3.6687378E2,3.946591E2,1.0386462E2,2.542151E2,9.6881854E2,6.448539E1,2.769011E2,1.5341379E2,1.576921E2,3.1910254E2,2.5631866E2,9.45346E2,3.4909875E2,8.665498E1,1.6844626E2,4.0949982E2,1.6085043E2],"tree_param":{"num_deleted":"0","num_feature":"25","num_nodes":"63","size_leaf_vector":"1"}},{"base_weights":[-5.600248E-3,-1.5675406E-1,2.4511969E-1,-2.1441893E-1,2.063298E-1,-3.6473647E-2,3.5842785E-1,-4.2584594E-2,-4.229316E-1,1.2223289E-1,5.536077E-1,-1.9136497E-1,2.7472207E-1,2.777173E-1,5.7267535E-1,-1.706024E-1,4.3385472E-2,-6.1372155E-1,-1.5875453E-1,3.0272182E-3,3.7292477E-1,4.0438828E-1,8.804905E-1,-5.989773E-2,-3.8170263E-1,-3.888597E-2,4.092032E-1,1.9251461E-1,4.3631217E-1,4.6998462E-1,7.9533356E-1,-3.376152E-2,-7.446501E-3,1.1210268E-4,9.547399E-3,-4.1263808E-2,-2.2890624E-2,-2.1860108E-2,2.7024915E-4,1.0971368E-2,-6.0489937E-3,4.6274615E-3,2.1344498E-2,3.8761443E-3,2.5626242E-2,4.2986136E-2,-2.4407959E-2,-8.175618E-3,9.252069E-3,-3.158818E-3,-2.4254577E-2,-3.526647E-2,1.7940191E-3,2.4997547E-2,1.6366111E-3,5.423696E-3,1.8539727E-2,1.4569622E-2,3.2712843E-2,2.8309692E-2,9.275263E-3,4.224374E-3,3.8764466E-2],"categories":[],"categories_nodes":[],"categories_segments":[],"categories_sizes":[],"default_left":[0,0,0,0,0,0,0,0,0,0,0,0,0,0,0,0,0,0,0,0,0,0,0,0,0,0,0,0,0,0,0,0,0,0,0,0,0,0,0,0,0,0,0,0,0,0,0,0,0,0,0,0,0,0,0,0,0,0,0,0,0,0,0],"id":17,"left_children":[1,3,5,7,9,11,13,15,17,19,21,23,25,27,29,31,33,35,37,39,41,43,45,47,49,51,53,55,57,59,61,-1,-1,-1,-1,-1,-1,-1,-1,-1,-1,-1,-1,-1,-1,-1,-1,-1,-1,-1,-1,-1,-1,-1,-1,-1,-1,-1,-1,-1,-1,-1,-1],"loss_changes":[7.0816187E2,2.4412924E2,2.2426596E2,3.6045328E2,4.6609764E1,9.730112E1,8.650568E1,6.0720985E1,2.2898834E2,3.848838E1,1.4828331E1,3.369975E1,2.8310081E1,4.9134155E1,3.0961853E1,1.5512352E1,2.1490294E1,8.811102E1,9.538356E1,2.6291765E1,8.966164E0,9.554352E0,4.4642334E0,2.3143816E1,2.2800133E1,1.1031459E1,2.1091797E1,3.679653E1,4.1466812E1,3.3164093E1,7.637146E0,0E0,0E0,0E0,0E0,0E0,0E0,0E0,0E0,0E0,0E0,0E0,0E0,0E0,0E0,0E0,0E0,0E0,0E0,0E0,0E0,0E0,0E0,0E0,0E0,0E0,0E0,0E0,0E0,0E0,0E0,0E0,0E0],"parents":[2147483647,0,0,1,1,2,2,3,3,4,4,5,5,6,6,7,7,8,8,9,9,10,10,11,11,12,12,13,13,14,14,15,15,16,16,17,17,18,18,19,19,20,20,21,21,22,22,23,23,24,24,25,25,26,26,27,27,28,28,29,29,30,30],"right_children":[2,4,6,8,10,12,14,16,18,20,22,24,26,28,30,32,34,36,38,40,42,44,46,48,50,52,54,56,58,60,62,-1,-1,-1,-1,-1,-1,-1,-1,-1,-1,-1,-1,-1,-1,-1,-1,-1,-1,-1,-1,-1,-1,-1,-1,-1,-1,-1,-1,-1,-1,-1,-1],"split_conditions":[4.3865427E-1,1.1288157E0,3.684931E-2,-1.1431108E0,2.220782E0,1.3640579E0,-3.581709E-2,-4.8250854E-1,4.0083808E-1,1.301864E-1,1.02580585E-1,8.548206E-1,-2.0992693E-1,1.1288157E0,1.3640579E0,-3.7350476E-1,3.8642865E-1,-1.7828149E-1,-1.7828149E-1,-6.138999E-1,-5.9433218E-2,-1.1209762E0,1.8540081E0,-2.5171116E-2,2.4173401E-1,-6.9112825E-1,1.7001442E0,1.3640579E0,-4.4508228E-1,1.0242443E0,-1.4053037E0,-3.376152E-2,-7.446501E-3,1.1210268E-4,9.547399E-3,-4.1263808E-2,-2.2890624E-2,-2.1860108E-2,2.7024915E-4,1.0971368E-2,-6.0489937E-3,4.6274615E-3,2.1344498E-2,3.8761443E-3,2.5626242E-2,4.2986136E-2,-2.4407959E-2,-8.175618E-3,9.252069E-3,-3.158818E-3,-2.4254577E-2,-3.526647E-2,1.7940191E-3,2.4997547E-2,1.6366111E-3,5.423696E-3,1.8539727E-2,1.4569622E-2,3.2712843E-2,2.8309692E-2,9.275263E-3,4.224374E-3,3.8764466E-2],"split_indices":[17,18,18,15,18,17,10,13,18,17,10,21,7,18,17,9,4,17,17,11,15,0,19,10,20,18,21,17,0,15,1,0,0,0,0,0,0,0,0,0,0,0,0,0,0,0,0,0,0,0,0,0,0,0,0,0,0,0,0,0,0,0,0],"split_type":[0,0,0,0,0,0,0,0,0,0,0,0,0,0,0,0,0,0,0,0,0,0,0,0,0,0,0,0,0,0,0,0,0,0,0,0,0,0,0,0,0,0,0,0,0,0,0,0,0,0,0,0,0,0,0,0,0,0,0,0,0,0,0],"sum_hessian":[1.8684338E4,1.1656969E4,7.0273687E3,1.00597E4,1.5972689E3,2.0165414E3,5.0108276E3,5.5155586E3,4.5441416E3,1.2869683E3,3.1030063E2,1.3466559E3,6.6988544E2,3.6413623E3,1.3694652E3,2.2154915E3,3.300067E3,2.6377925E3,1.9063492E3,8.7290717E2,4.1406113E2,2.1458252E2,9.57181E1,7.97283E2,5.493729E2,2.0126027E2,4.6862515E2,2.3702146E3,1.2711478E3,9.393463E2,4.3011887E2,5.0259167E1,2.1652324E3,2.6233174E3,6.7674963E2,8.7364734E2,1.7641451E3,6.6860266E2,1.2377466E3,3.1728165E2,5.5562555E2,9.2871284E1,3.2118985E2,6.485173E1,1.4973079E2,9.40768E1,1.6413091E0,5.5292236E2,2.4436064E2,1.6255016E2,3.8682275E2,1.886378E1,1.823965E2,3.5459567E2,1.14029495E2,1.7081814E3,6.6203314E2,8.494693E2,4.216786E2,6.370152E2,3.023311E2,1.50600195E1,4.1505887E2],"tree_param":{"num_deleted":"0","num_feature":"25","num_nodes":"63","size_leaf_vector":"1"}},{"base_weights":[3.882962E-4,-1.1298977E-1,3.0773652E-1,-2.0269415E-1,1.7847244E-1,-4.1295778E-2,3.617444E-1,-3.3331368E-2,-3.9320594E-1,-7.294207E-2,2.7729613E-1,-2.5881076E-1,2.074366E-1,2.8683054E-1,5.812546E-1,-7.763974E-2,1.4871489E-1,-7.5815755E-1,-2.722882E-1,-1.7171365E-1,5.5168724E-1,4.2699915E-1,1.366217E-1,-1.3562563E-1,-6.626511E-1,3.855793E-1,-1.07611135E-1,4.1132617E-1,1.8612441E-1,7.1208453E-1,3.8747224E-1,-3.0298352E-3,-1.467823E-2,5.3908667E-3,1.7601091E-2,-9.149109E-3,-3.7964664E-2,-3.4347884E-2,-8.228846E-3,3.6732361E-3,-1.5394639E-2,1.2932901E-2,3.9811872E-2,1.4282151E-2,2.8655095E-2,1.4454943E-2,-3.0638694E-6,-1.0640818E-2,2.2838999E-2,-1.2687104E-2,-4.207828E-2,2.2890326E-2,-9.067258E-3,2.7976388E-3,-3.776591E-2,1.5007044E-2,2.800828E-2,3.2354235E-3,1.5518987E-2,3.0067207E-2,4.480616E-2,1.2882367E-2,3.676774E-2],"categories":[],"categories_nodes":[],"categories_segments":[],"categories_sizes":[],"default_left":[0,0,0,0,0,0,0,0,0,0,0,0,0,0,0,0,0,0,0,0,0,0,0,0,0,0,0,0,0,0,0,0,0,0,0,0,0,0,0,0,0,0,0,0,0,0,0,0,0,0,0,0,0,0,0,0,0,0,0,0,0,0,0],"id":18,"left_children":[1,3,5,7,9,11,13,15,17,19,21,23,25,27,29,31,33,35,37,39,41,43,45,47,49,51,53,55,57,59,61,-1,-1,-1,-1,-1,-1,-1,-1,-1,-1,-1,-1,-1,-1,-1,-1,-1,-1,-1,-1,-1,-1,-1,-1,-1,-1,-1,-1,-1,-1,-1,-1],"loss_changes":[6.523966E2,3.576209E2,9.512009E1,3.374372E2,8.000458E1,3.6679543E1,7.1683105E1,4.4679276E1,2.169906E2,5.6184536E1,4.8612106E1,1.789821E1,1.7797533E1,4.078955E1,2.788443E1,1.3993612E1,8.354887E0,3.1344482E1,1.6487775E2,3.0253794E1,9.8318405E0,2.487526E1,2.7622349E1,1.5557598E1,7.3368187E0,1.1663624E1,1.3329521E1,2.4581741E1,3.019563E1,1.1220734E1,1.996698E1,0E0,0E0,0E0,0E0,0E0,0E0,0E0,0E0,0E0,0E0,0E0,0E0,0E0,0E0,0E0,0E0,0E0,0E0,0E0,0E0,0E0,0E0,0E0,0E0,0E0,0E0,0E0,0E0,0E0,0E0,0E0,0E0],"parents":[2147483647,0,0,1,1,2,2,3,3,4,4,5,5,6,6,7,7,8,8,9,9,10,10,11,11,12,12,13,13,14,14,15,15,16,16,17,17,18,18,19,19,20,20,21,21,22,22,23,23,24,24,25,25,26,26,27,27,28,28,29,29,30,30],"right_children":[2,4,6,8,10,12,14,16,18,20,22,24,26,28,30,32,34,36,38,40,42,44,46,48,50,52,54,56,58,60,62,-1,-1,-1,-1,-1,-1,-1,-1,-1,-1,-1,-1,-1,-1,-1,-1,-1,-1,-1,-1,-1,-1,-1,-1,-1,-1,-1,-1,-1,-1,-1,-1],"split_conditions":[7.471221E-1,7.648269E-1,-3.2713947E-1,-1.1431108E0,-1.7828149E-1,8.787566E-2,2.7923837E-1,-1.13918735E-2,-1.7828149E-1,2.220782E0,-2.3987064E-1,1.4183697E0,5.1613563E-1,5.730461E-1,1.1365951E0,2.6880914E-1,2.0732262E0,-6.9112825E-1,-3.2713947E-1,-5.8771783E-1,6.120668E-1,1.4928044E0,-1.9155309E-1,3.318774E-1,3.8044956E-1,8.57111E-1,1.7001442E0,1.3640579E0,7.648269E-1,1.7207688E0,2.2894616E0,-3.0298352E-3,-1.467823E-2,5.3908667E-3,1.7601091E-2,-9.149109E-3,-3.7964664E-2,-3.4347884E-2,-8.228846E-3,3.6732361E-3,-1.5394639E-2,1.2932901E-2,3.9811872E-2,1.4282151E-2,2.8655095E-2,1.4454943E-2,-3.0638694E-6,-1.0640818E-2,2.2838999E-2,-1.2687104E-2,-4.207828E-2,2.2890326E-2,-9.067258E-3,2.7976388E-3,-3.776591E-2,1.5007044E-2,2.800828E-2,3.2354235E-3,1.5518987E-2,3.0067207E-2,4.480616E-2,1.2882367E-2,3.676774E-2],"split_indices":[17,18,18,15,17,7,4,7,17,18,11,21,23,21,21,11,7,18,18,11,9,18,9,5,20,19,21,17,18,10,17,0,0,0,0,0,0,0,0,0,0,0,0,0,0,0,0,0,0,0,0,0,0,0,0,0,0,0,0,0,0,0,0],"split_type":[0,0,0,0,0,0,0,0,0,0,0,0,0,0,0,0,0,0,0,0,0,0,0,0,0,0,0,0,0,0,0,0,0,0,0,0,0,0,0,0,0,0,0,0,0,0,0,0,0,0,0,0,0,0,0,0,0,0,0,0,0,0,0],"sum_hessian":[1.8719988E4,1.3675755E4,5.0442334E3,1.0457513E4,3.2182422E3,6.759651E2,4.3682686E3,5.5366606E3,4.920852E3,9.081375E2,2.3101047E3,3.6059042E2,3.153747E2,3.2585168E3,1.1097516E3,4.453334E3,1.0833268E3,1.2233353E3,3.6975168E3,7.847685E2,1.2336901E2,1.1181527E3,1.191952E3,2.7733084E2,8.325957E1,2.0131686E2,1.14057816E2,1.4557701E3,1.8027467E3,6.6088684E2,4.4886478E2,4.210819E3,2.4251508E2,9.396876E2,1.4363911E2,9.179505E1,1.1315403E3,6.546898E2,3.0428271E3,2.9996237E2,4.8480612E2,6.411558E1,5.9253437E1,6.6173694E2,4.564157E2,5.3172833E2,6.6022375E2,2.4280978E2,3.4521065E1,3.1329979E1,5.192959E1,1.7198874E2,2.9328129E1,9.2635475E1,2.1422346E1,9.624448E2,4.9332526E2,9.8812646E2,8.146203E2,5.0368823E2,1.5719861E2,3.4832324E2,1.00541534E2],"tree_param":{"num_deleted":"0","num_feature":"25","num_nodes":"63","size_leaf_vector":"1"}},{"base_weights":[1.6119314E-3,-1.0494761E-1,2.895741E-1,-1.6952464E-1,2.5473183E-1,1.3797815E-1,4.2470303E-1,-3.2163408E-2,-3.072883E-1,1.2269352E-1,3.990768E-1,4.377902E-2,3.897935E-1,2.831439E-1,5.6320804E-1,-9.92766E-2,1.0489211E-1,-6.122586E-1,-1.5002885E-1,3.5111672E-1,-3.213294E-2,3.224302E-1,6.3160497E-1,2.644154E-1,-4.8431735E-2,2.0739762E-1,6.2955374E-1,4.8777786E-1,1.6826968E-1,2.2409992E-1,5.948092E-1,-7.456643E-3,-2.1582695E-3,3.4592578E-3,1.7921831E-2,-3.917844E-2,-1.9511893E-2,-2.5407534E-2,-8.268133E-4,1.2411742E-2,4.1604154E-2,1.3505435E-2,-6.6086245E-3,7.839457E-3,2.098817E-2,2.263213E-2,4.157208E-2,5.4393094E-3,2.2381058E-2,-2.3422992E-2,-4.479857E-4,3.1188516E-2,4.7112284E-3,3.195405E-2,-1.668423E-2,2.7060479E-2,9.376392E-3,-8.809088E-3,1.0179383E-2,-8.25085E-3,2.755459E-2,2.6693502E-2,4.6236865E-2],"categories":[],"categories_nodes":[],"categories_segments":[],"categories_sizes":[],"default_left":[0,0,0,0,0,0,0,0,0,0,0,0,0,0,0,0,0,0,0,0,0,0,0,0,0,0,0,0,0,0,0,0,0,0,0,0,0,0,0,0,0,0,0,0,0,0,0,0,0,0,0,0,0,0,0,0,0,0,0,0,0,0,0],"id":19,"left_children":[1,3,5,7,9,11,13,15,17,19,21,23,25,27,29,31,33,35,37,39,41,43,45,47,49,51,53,55,57,59,61,-1,-1,-1,-1,-1,-1,-1,-1,-1,-1,-1,-1,-1,-1,-1,-1,-1,-1,-1,-1,-1,-1,-1,-1,-1,-1,-1,-1,-1,-1,-1,-1],"loss_changes":[5.706736E2,3.153392E2,1.0284186E2,2.177779E2,3.93387E1,5.6173717E1,5.190341E1,5.3028988E1,2.7547968E2,3.823336E1,1.7384491E1,3.510951E1,2.8065956E1,3.0834938E1,1.423877E1,1.214119E1,1.6442818E1,8.4204834E1,1.9492557E2,2.020462E1,2.2151875E1,1.4121605E1,8.808159E0,1.5842903E1,2.1212008E1,1.786104E1,1.3066063E1,1.1515396E1,1.4181211E1,1.6710205E1,1.3428833E1,0E0,0E0,0E0,0E0,0E0,0E0,0E0,0E0,0E0,0E0,0E0,0E0,0E0,0E0,0E0,0E0,0E0,0E0,0E0,0E0,0E0,0E0,0E0,0E0,0E0,0E0,0E0,0E0,0E0,0E0,0E0,0E0],"parents":[2147483647,0,0,1,1,2,2,3,3,4,4,5,5,6,6,7,7,8,8,9,9,10,10,11,11,12,12,13,13,14,14,15,15,16,16,17,17,18,18,19,19,20,20,21,21,22,22,23,23,24,24,25,25,26,26,27,27,28,28,29,29,30,30],"right_children":[2,4,6,8,10,12,14,16,18,20,22,24,26,28,30,32,34,36,38,40,42,44,46,48,50,52,54,56,58,60,62,-1,-1,-1,-1,-1,-1,-1,-1,-1,-1,-1,-1,-1,-1,-1,-1,-1,-1,-1,-1,-1,-1,-1,-1,-1,-1,-1,-1,-1,-1,-1,-1],"split_conditions":[7.471221E-1,1.1288157E0,4.0083808E-1,-4.2461392E-1,1.301864E-1,1.6725258E0,-1.8786749E-1,-2.0992693E-1,3.684931E-2,-5.8771783E-1,-2.5171116E-2,2.9127154E-1,1.7412785E-2,-2.1679866E-1,-1.3610853E0,-4.710934E-1,1.5655215E0,1.301864E-1,-1.7828149E-1,2.5847707E0,2.6005685E-1,-8.30405E-1,1.8567932E0,-2.0615269E-1,-6.9112825E-1,2.9127154E-1,3.1090167E0,1.2561376E0,-1.3610853E0,5.9208375E-1,2.2317755E0,-7.456643E-3,-2.1582695E-3,3.4592578E-3,1.7921831E-2,-3.917844E-2,-1.9511893E-2,-2.5407534E-2,-8.268133E-4,1.2411742E-2,4.1604154E-2,1.3505435E-2,-6.6086245E-3,7.839457E-3,2.098817E-2,2.263213E-2,4.157208E-2,5.4393094E-3,2.2381058E-2,-2.3422992E-2,-4.479857E-4,3.1188516E-2,4.7112284E-3,3.195405E-2,-1.668423E-2,2.7060479E-2,9.376392E-3,-8.809088E-3,1.0179383E-2,-8.25085E-3,2.755459E-2,2.6693502E-2,4.6236865E-2],"split_indices":[17,18,18,19,17,17,7,7,18,11,10,21,10,10,1,4,4,17,17,18,22,0,18,10,18,21,21,22,1,22,10,0,0,0,0,0,0,0,0,0,0,0,0,0,0,0,0,0,0,0,0,0,0,0,0,0,0,0,0,0,0,0,0],"split_type":[0,0,0,0,0,0,0,0,0,0,0,0,0,0,0,0,0,0,0,0,0,0,0,0,0,0,0,0,0,0,0,0,0,0,0,0,0,0,0,0,0,0,0,0,0,0,0,0,0,0,0,0,0,0,0,0,0,0,0,0,0,0,0],"sum_hessian":[1.8595742E4,1.3573532E4,5.02221E3,1.1507922E4,2.0656096E3,2.3678413E3,2.6543684E3,5.7629946E3,5.7449277E3,1.0797592E3,9.858503E2,1.7240735E3,6.437679E2,1.3142166E3,1.3401519E3,3.8688003E3,1.8941943E3,1.9535502E3,3.7913774E3,4.356925E2,6.440667E2,7.4324603E2,2.4260425E2,5.0761502E2,1.2164585E3,3.6668216E2,2.7708575E2,4.7133908E2,8.428775E2,1.1493118E2,1.2252207E3,1.8472269E3,2.0215734E3,1.6994828E3,1.9471156E2,9.330403E2,1.02050995E3,9.6474786E2,2.8266296E3,3.7468875E2,6.1003765E1,1.625934E2,4.814733E2,3.2651926E2,4.1672678E2,1.5216988E2,9.043438E1,2.972735E2,2.1034152E2,9.646693E1,1.1199916E3,6.9439095E1,2.9724307E2,2.647533E2,1.23324375E1,3.6342944E2,1.07909645E2,9.869148E1,7.4418604E2,5.471259E1,6.021859E1,1.1395952E3,8.562545E1],"tree_param":{"num_deleted":"0","num_feature":"25","num_nodes":"63","size_leaf_vector":"1"}},{"base_weights":[7.217783E-4,-7.9885796E-2,3.6463863E-1,-1.6837592E-1,1.8642074E-1,2.4002425E-1,4.781631E-1,-3.1291816E-2,-2.9700977E-1,1.0962155E-1,4.5424587E-1,1.632824E-1,5.608064E-1,3.3213684E-1,6.478159E-1,-1.3871971E-1,4.0984765E-2,-5.591094E-1,-1.272602E-1,-6.94076E-2,2.476854E-1,9.056117E-2,5.1641405E-1,2.3745246E-1,-1.8210952E-1,3.494686E-1,7.520144E-1,2.494337E-1,5.9323347E-1,7.0898557E-1,2.9325438E-1,-2.9164778E-2,-5.9820223E-3,1.2379154E-3,1.8777698E-2,-3.7373465E-2,-1.8567298E-2,-2.4434796E-2,-1.9825397E-3,-3.9010797E-2,-1.5794836E-3,8.636797E-3,2.0462016E-2,-1.2957892E-2,1.6168576E-2,3.145545E-2,1.4983572E-2,-1.21115865E-2,1.3000135E-2,3.2174032E-2,-1.1906663E-2,2.003579E-2,-1.4461892E-2,4.043E-2,1.25129875E-2,8.335364E-3,2.4430854E-2,2.9637808E-2,-5.9524057E-3,6.63953E-3,3.5038922E-2,4.0628485E-2,7.5601535E-3],"categories":[],"categories_nodes":[],"categories_segments":[],"categories_sizes":[],"default_left":[0,0,0,0,0,0,0,0,0,0,0,0,0,0,0,0,0,0,0,0,0,0,0,0,0,0,0,0,0,0,0,0,0,0,0,0,0,0,0,0,0,0,0,0,0,0,0,0,0,0,0,0,0,0,0,0,0,0,0,0,0,0,0],"id":20,"left_children":[1,3,5,7,9,11,13,15,17,19,21,23,25,27,29,31,33,35,37,39,41,43,45,47,49,51,53,55,57,59,61,-1,-1,-1,-1,-1,-1,-1,-1,-1,-1,-1,-1,-1,-1,-1,-1,-1,-1,-1,-1,-1,-1,-1,-1,-1,-1,-1,-1,-1,-1,-1,-1],"loss_changes":[5.451529E2,3.585599E2,4.7558807E1,2.0136853E2,7.800949E1,3.9505653E1,4.3446716E1,4.2940163E1,2.6205E2,7.294947E1,1.906749E1,3.3330784E1,1.2268608E1,2.034893E1,1.7450928E1,1.2780212E1,1.7410362E1,8.8921814E1,1.1897066E2,3.4950466E1,1.9961334E1,1.1541887E1,2.1286453E1,2.003135E1,1.407915E1,7.435871E0,7.970398E0,1.402821E1,5.6811295E0,1.2834076E1,9.037066E0,0E0,0E0,0E0,0E0,0E0,0E0,0E0,0E0,0E0,0E0,0E0,0E0,0E0,0E0,0E0,0E0,0E0,0E0,0E0,0E0,0E0,0E0,0E0,0E0,0E0,0E0,0E0,0E0,0E0,0E0,0E0,0E0],"parents":[2147483647,0,0,1,1,2,2,3,3,4,4,5,5,6,6,7,7,8,8,9,9,10,10,11,11,12,12,13,13,14,14,15,15,16,16,17,17,18,18,19,19,20,20,21,21,22,22,23,23,24,24,25,25,26,26,27,27,28,28,29,29,30,30],"right_children":[2,4,6,8,10,12,14,16,18,20,22,24,26,28,30,32,34,36,38,40,42,44,46,48,50,52,54,56,58,60,62,-1,-1,-1,-1,-1,-1,-1,-1,-1,-1,-1,-1,-1,-1,-1,-1,-1,-1,-1,-1,-1,-1,-1,-1,-1,-1,-1,-1,-1,-1,-1,-1],"split_conditions":[1.05559E0,7.648269E-1,4.0083808E-1,-1.1431108E0,1.8567932E0,1.0181345E0,-7.546603E-1,-3.8644242E-1,1.301864E-1,1.301864E-1,-4.0846202E-1,1.7001442E0,1.6725258E0,-2.0615269E-1,1.4267664E0,-3.6592343E-1,2.0752513E0,3.684931E-2,-3.2713947E-1,-7.952172E-1,3.3846773E-2,-4.4508228E-1,1.2561376E0,-6.9112825E-1,-3.1312814E-1,2.263693E0,2.263693E0,2.2894616E0,2.5454676E0,-9.9426943E-1,9.497033E-3,-2.9164778E-2,-5.9820223E-3,1.2379154E-3,1.8777698E-2,-3.7373465E-2,-1.8567298E-2,-2.4434796E-2,-1.9825397E-3,-3.9010797E-2,-1.5794836E-3,8.636797E-3,2.0462016E-2,-1.2957892E-2,1.6168576E-2,3.145545E-2,1.4983572E-2,-1.21115865E-2,1.3000135E-2,3.2174032E-2,-1.1906663E-2,2.003579E-2,-1.4461892E-2,4.043E-2,1.25129875E-2,8.335364E-3,2.4430854E-2,2.9637808E-2,-5.9524057E-3,6.63953E-3,3.5038922E-2,4.0628485E-2,7.5601535E-3],"split_indices":[17,18,18,15,18,10,1,13,17,17,7,21,17,10,19,9,13,18,18,17,13,0,22,18,20,21,21,17,21,19,21,0,0,0,0,0,0,0,0,0,0,0,0,0,0,0,0,0,0,0,0,0,0,0,0,0,0,0,0,0,0,0,0],"split_type":[0,0,0,0,0,0,0,0,0,0,0,0,0,0,0,0,0,0,0,0,0,0,0,0,0,0,0,0,0,0,0,0,0,0,0,0,0,0,0,0,0,0,0,0,0,0,0,0,0,0,0,0,0,0,0,0,0,0,0,0,0,0,0],"sum_hessian":[1.8582055E4,1.5213128E4,3.368927E3,1.1419085E4,3.7940427E3,1.6075045E3,1.7614226E3,5.528572E3,5.8905137E3,2.9496392E3,8.444035E2,1.298394E3,3.091105E2,9.482163E2,8.132063E2,2.2232046E3,3.3053672E3,2.3145178E3,3.5759956E3,1.284504E3,1.6651353E3,1.2362901E2,7.207745E2,1.0691215E3,2.2927254E2,1.4816968E2,1.6094081E2,7.2160205E2,2.2661429E2,6.927005E2,1.20505775E2,5.346963E1,2.1697349E3,3.174859E3,1.3050822E2,9.636014E2,1.3509165E3,6.407329E2,2.9352627E3,5.7306385E1,1.2271976E3,1.2353469E3,4.2978833E2,5.0435017E1,7.3194E1,4.1039346E2,3.10381E2,7.554325E1,9.935782E2,1.6533457E1,2.1273907E2,1.333311E2,1.4838592E1,1.3201945E2,2.892135E1,5.683826E2,1.5321938E2,2.1644437E2,1.0169931E1,3.8092293E1,6.546082E2,2.188972E1,9.861606E1],"tree_param":{"num_deleted":"0","num_feature":"25","num_nodes":"63","size_leaf_vector":"1"}},{"base_weights":[4.9961894E-4,-1.21528514E-1,2.0289642E-1,-4.0476345E-2,-2.3192707E-1,8.718126E-2,3.294036E-1,-1.3532445E-1,7.586202E-2,-4.201795E-1,-1.4143579E-1,2.5654733E-1,-1.43036E-2,2.192438E-1,4.8548847E-1,-1.1251208E-1,-2.7804813E-1,3.4325562E-2,2.816E-1,-9.9338934E-2,-5.217064E-1,-2.2156434E-1,7.9550706E-2,1.757789E-1,5.0942767E-1,6.312686E-2,-1.402629E-1,9.776859E-2,3.3240408E-1,6.6592836E-1,3.2032323E-1,-5.482089E-3,3.591304E-2,-2.6351003E-2,-3.10324E-3,3.1066218E-3,-8.395872E-3,9.725185E-3,2.0786246E-2,-2.6751084E-3,-4.8173662E-2,-1.7571062E-2,-3.0889863E-2,-2.0428378E-2,-8.115529E-3,-3.2072528E-3,1.1505026E-2,6.854782E-3,3.9152276E-2,9.701643E-3,3.1205036E-2,-9.009878E-3,5.400214E-3,-1.1404666E-2,-1.2326778E-3,1.914447E-3,1.6977757E-2,1.7267436E-2,-4.886731E-3,2.6573949E-2,4.1246593E-2,1.1174081E-2,3.2534376E-2],"categories":[],"categories_nodes":[],"categories_segments":[],"categories_sizes":[],"default_left":[0,0,0,0,0,0,0,0,0,0,0,0,0,0,0,0,0,0,0,0,0,0,0,0,0,0,0,0,0,0,0,0,0,0,0,0,0,0,0,0,0,0,0,0,0,0,0,0,0,0,0,0,0,0,0,0,0,0,0,0,0,0,0],"id":21,"left_children":[1,3,5,7,9,11,13,15,17,19,21,23,25,27,29,31,33,35,37,39,41,43,45,47,49,51,53,55,57,59,61,-1,-1,-1,-1,-1,-1,-1,-1,-1,-1,-1,-1,-1,-1,-1,-1,-1,-1,-1,-1,-1,-1,-1,-1,-1,-1,-1,-1,-1,-1,-1,-1],"loss_changes":[4.5815875E2,1.035453E2,1.0211307E2,7.3661285E1,8.340057E1,6.266344E1,5.720102E1,1.1941429E1,2.5613121E1,5.1740356E1,5.863375E1,2.7810547E1,2.2251152E1,2.6851501E1,4.0860138E1,9.910213E0,3.0034763E1,1.6654747E1,5.9501343E0,1.5015371E1,2.3666748E1,2.5422081E1,2.133817E1,2.0640598E1,1.5041771E1,1.838846E1,1.0026333E1,1.4133364E1,1.4665604E1,1.359787E1,2.2103088E1,0E0,0E0,0E0,0E0,0E0,0E0,0E0,0E0,0E0,0E0,0E0,0E0,0E0,0E0,0E0,0E0,0E0,0E0,0E0,0E0,0E0,0E0,0E0,0E0,0E0,0E0,0E0,0E0,0E0,0E0,0E0,0E0],"parents":[2147483647,0,0,1,1,2,2,3,3,4,4,5,5,6,6,7,7,8,8,9,9,10,10,11,11,12,12,13,13,14,14,15,15,16,16,17,17,18,18,19,19,20,20,21,21,22,22,23,23,24,24,25,25,26,26,27,27,28,28,29,29,30,30],"right_children":[2,4,6,8,10,12,14,16,18,20,22,24,26,28,30,32,34,36,38,40,42,44,46,48,50,52,54,56,58,60,62,-1,-1,-1,-1,-1,-1,-1,-1,-1,-1,-1,-1,-1,-1,-1,-1,-1,-1,-1,-1,-1,-1,-1,-1,-1,-1,-1,-1,-1,-1,-1,-1],"split_conditions":[4.3865427E-1,-2.7227747E-1,1.05559E0,-2.663598E-1,-1.7828149E-1,2.9127154E-1,-2.0615269E-1,-1.1431108E0,9.223799E-1,-6.270916E-1,1.0113173E0,1.1720401E0,1.1365951E0,3.684259E-1,8.548206E-1,-1.1033892E-1,-1.7828149E-1,4.3712232E-1,2.1352928E0,2.5842454E0,-4.3881395E-1,-1.137426E-1,-2.0311776E-1,1.5217401E0,-3.3125392E-1,-4.0846202E-1,-1.3271886E-1,2.2894616E0,1.7115942E0,1.6725258E0,2.2894616E0,-5.482089E-3,3.591304E-2,-2.6351003E-2,-3.10324E-3,3.1066218E-3,-8.395872E-3,9.725185E-3,2.0786246E-2,-2.6751084E-3,-4.8173662E-2,-1.7571062E-2,-3.0889863E-2,-2.0428378E-2,-8.115529E-3,-3.2072528E-3,1.1505026E-2,6.854782E-3,3.9152276E-2,9.701643E-3,3.1205036E-2,-9.009878E-3,5.400214E-3,-1.1404666E-2,-1.2326778E-3,1.914447E-3,1.6977757E-2,1.7267436E-2,-4.886731E-3,2.6573949E-2,4.1246593E-2,1.1174081E-2,3.2534376E-2],"split_indices":[17,21,17,13,17,21,10,15,4,14,16,16,21,16,21,10,17,11,13,22,1,16,4,7,7,7,7,17,19,17,17,0,0,0,0,0,0,0,0,0,0,0,0,0,0,0,0,0,0,0,0,0,0,0,0,0,0,0,0,0,0,0,0],"split_type":[0,0,0,0,0,0,0,0,0,0,0,0,0,0,0,0,0,0,0,0,0,0,0,0,0,0,0,0,0,0,0,0,0,0,0,0,0,0,0,0,0,0,0,0,0,0,0,0,0,0,0,0,0,0,0,0,0,0,0,0,0,0,0],"sum_hessian":[1.8548363E4,1.1571892E4,6.976471E3,6.6736284E3,4.8982637E3,3.6445334E3,3.331938E3,3.6762773E3,2.997351E3,1.5889882E3,3.3092751E3,1.364994E3,2.2795393E3,1.9547448E3,1.3771931E3,3.1711948E3,5.0508252E2,2.4948354E3,5.025157E2,3.824299E2,1.2065583E3,2.428655E3,8.806203E2,1.0358461E3,3.291479E2,1.412028E3,8.675115E2,9.436357E2,1.01110913E3,6.567138E2,7.204793E2,3.1592214E3,1.1973242E1,2.1721921E2,2.878633E2,2.1732927E3,3.2154257E2,3.4159964E2,1.6091605E2,3.6648932E2,1.5940582E1,5.6770654E2,6.3885175E2,4.6207742E2,1.9665775E3,4.6404034E2,4.1658E2,9.905681E2,4.5277996E1,1.1010668E2,2.1904121E2,2.3651949E2,1.1755084E3,4.5931854E2,4.0819293E2,7.752131E2,1.6842258E2,9.397744E2,7.133474E1,4.4071774E2,2.1599606E2,5.8836743E2,1.321119E2],"tree_param":{"num_deleted":"0","num_feature":"25","num_nodes":"63","size_leaf_vector":"1"}},{"base_weights":[-1.3824308E-3,-9.855548E-2,2.6162255E-1,-1.768157E-1,1.5626505E-1,5.5745125E-2,3.4699047E-1,-4.1755375E-2,-3.4456822E-1,4.622425E-2,3.2954982E-1,-5.3513587E-2,3.4031504E-1,2.0305645E-1,4.6160603E-1,-1.3063149E-1,4.7732975E-2,-5.347886E-1,-1.7093275E-1,-4.0316877E-1,9.5301695E-2,5.156556E-1,2.3887838E-1,1.6783999E-1,-2.0667896E-1,-4.5703817E-2,4.8240963E-1,1.3161965E-1,4.1326308E-1,3.4880528E-1,6.447897E-1,-5.798474E-3,-2.9345786E-2,-8.329681E-3,3.2829198E-3,-3.548145E-2,-1.8110799E-2,-1.7995194E-2,-8.532545E-4,5.160387E-2,-2.2253435E-2,1.531762E-2,1.8820737E-3,3.5655E-2,1.5346505E-2,-3.028398E-3,1.35276895E-2,9.386275E-3,-2.9387614E-2,-1.4970708E-2,4.8136674E-3,-1.788219E-2,1.4411699E-2,2.8965093E-2,5.6525413E-3,1.7614271E-2,2.5386214E-3,2.2139832E-2,-1.17462E-2,1.2022429E-2,2.8136512E-2,3.1889886E-2,-5.0118887E-3],"categories":[],"categories_nodes":[],"categories_segments":[],"categories_sizes":[],"default_left":[0,0,0,0,0,0,0,0,0,0,0,0,0,0,0,0,0,0,0,0,0,0,0,0,0,0,0,0,0,0,0,0,0,0,0,0,0,0,0,0,0,0,0,0,0,0,0,0,0,0,0,0,0,0,0,0,0,0,0,0,0,0,0],"id":22,"left_children":[1,3,5,7,9,11,13,15,17,19,21,23,25,27,29,31,33,35,37,39,41,43,45,47,49,51,53,55,57,59,61,-1,-1,-1,-1,-1,-1,-1,-1,-1,-1,-1,-1,-1,-1,-1,-1,-1,-1,-1,-1,-1,-1,-1,-1,-1,-1,-1,-1,-1,-1,-1,-1],"loss_changes":[4.725545E2,2.6928278E2,8.7655334E1,2.3402551E2,6.048636E1,4.551758E1,5.8076935E1,4.5528706E1,1.5207861E2,4.2863274E1,2.0668686E1,3.591398E1,2.2298218E1,2.3445236E1,4.0320465E1,1.1018608E1,1.3927582E1,7.170734E1,7.737554E1,1.9963615E1,2.2227016E1,1.8132584E1,1.197205E1,1.0693074E1,2.1329435E1,1.2982334E1,1.4015305E1,2.1954369E1,1.4669113E1,2.8164047E1,1.7081818E1,0E0,0E0,0E0,0E0,0E0,0E0,0E0,0E0,0E0,0E0,0E0,0E0,0E0,0E0,0E0,0E0,0E0,0E0,0E0,0E0,0E0,0E0,0E0,0E0,0E0,0E0,0E0,0E0,0E0,0E0,0E0,0E0],"parents":[2147483647,0,0,1,1,2,2,3,3,4,4,5,5,6,6,7,7,8,8,9,9,10,10,11,11,12,12,13,13,14,14,15,15,16,16,17,17,18,18,19,19,20,20,21,21,22,22,23,23,24,24,25,25,26,26,27,27,28,28,29,29,30,30],"right_children":[2,4,6,8,10,12,14,16,18,20,22,24,26,28,30,32,34,36,38,40,42,44,46,48,50,52,54,56,58,60,62,-1,-1,-1,-1,-1,-1,-1,-1,-1,-1,-1,-1,-1,-1,-1,-1,-1,-1,-1,-1,-1,-1,-1,-1,-1,-1,-1,-1,-1,-1,-1,-1],"split_conditions":[7.471221E-1,7.648269E-1,3.684931E-2,-4.2461392E-1,1.4928044E0,1.6725258E0,-8.367217E-1,-3.643431E-1,1.301864E-1,-4.8674935E-1,5.9208375E-1,5.730461E-1,-2.6507556E-1,-2.0615269E-1,1.3640579E0,7.602648E-2,-3.2325843E-1,3.684931E-2,3.684931E-2,4.6980236E-2,-6.550431E-1,-3.8200176E-1,-4.8674935E-1,8.165592E-1,9.370665E-1,-4.1354626E-1,1.7001442E0,-2.1679866E-1,2.263693E0,1.1288157E0,1.9964219E0,-5.798474E-3,-2.9345786E-2,-8.329681E-3,3.2829198E-3,-3.548145E-2,-1.8110799E-2,-1.7995194E-2,-8.532545E-4,5.160387E-2,-2.2253435E-2,1.531762E-2,1.8820737E-3,3.5655E-2,1.5346505E-2,-3.028398E-3,1.35276895E-2,9.386275E-3,-2.9387614E-2,-1.4970708E-2,4.8136674E-3,-1.788219E-2,1.4411699E-2,2.8965093E-2,5.6525413E-3,1.7614271E-2,2.5386214E-3,2.2139832E-2,-1.17462E-2,1.2022429E-2,2.8136512E-2,3.1889886E-2,-5.0118887E-3],"split_indices":[17,18,18,19,18,17,0,7,17,17,22,21,7,10,17,15,10,18,18,16,11,11,17,12,8,1,21,10,21,18,19,0,0,0,0,0,0,0,0,0,0,0,0,0,0,0,0,0,0,0,0,0,0,0,0,0,0,0,0,0,0,0,0],"split_type":[0,0,0,0,0,0,0,0,0,0,0,0,0,0,0,0,0,0,0,0,0,0,0,0,0,0,0,0,0,0,0,0,0,0,0,0,0,0,0,0,0,0,0,0,0,0,0,0,0,0,0,0,0,0,0,0,0,0,0,0,0,0,0],"sum_hessian":[1.8488213E4,1.3500702E4,4.9875103E3,1.0328829E4,3.171873E3,1.4623906E3,3.5251196E3,5.7226655E3,4.6061636E3,1.9407244E3,1.2311488E3,1.0572706E3,4.0512003E2,1.5639216E3,1.9611981E3,2.8709236E3,2.851742E3,2.1971123E3,2.4090515E3,1.9036574E2,1.7503586E3,4.0178552E2,8.293632E2,4.3234814E2,6.249225E2,1.09184425E2,2.959356E2,1.168458E3,3.9546362E2,1.2155757E3,7.456224E2,2.8268086E3,4.4114937E1,2.518807E2,2.599861E3,9.0273303E2,1.2943793E3,1.0141474E3,1.394904E3,7.6176996E0,1.8274805E2,3.4032062E2,1.410038E3,1.769539E2,2.2483162E2,1.12375725E2,7.169875E2,4.1680734E2,1.5540783E1,4.603929E2,1.6452957E2,5.5983707E1,5.3200714E1,2.1699783E2,7.8937775E1,2.8417877E2,8.842792E2,3.651648E2,3.0298834E1,8.8109753E2,3.3447815E2,7.167616E2,2.8860764E1],"tree_param":{"num_deleted":"0","num_feature":"25","num_nodes":"63","size_leaf_vector":"1"}},{"base_weights":[-1.8966623E-3,-1.20690264E-1,1.8644074E-1,-1.7055649E-1,1.8112703E-1,-5.1204734E-2,3.0102947E-1,-3.0418191E-2,-3.6722696E-1,2.523633E-1,-1.1011051E-1,-1.5395468E-1,2.0878522E-1,2.2437473E-1,4.6012297E-1,-1.15466945E-1,5.8579087E-2,-6.2280625E-1,-2.0998903E-1,1.9946294E-1,7.763923E-1,4.9772373E-1,-1.7495179E-1,-5.340599E-1,-6.206465E-2,1.2559712E-1,5.89867E-1,3.6520132E-1,1.1898409E-1,4.1209868E-1,7.710801E-1,-5.097969E-3,-2.6108101E-2,-3.5064078E-3,4.6251183E-3,-3.5024762E-2,-2.1698717E-2,-2.1973044E-2,-5.9955376E-3,-1.9935096E-2,1.1592506E-2,-8.163234E-3,3.9200872E-2,-3.7629772E-2,3.0011449E-2,-5.1842052E-2,-5.7886783E-3,-1.807545E-2,-3.502439E-2,1.5072614E-2,-6.2451847E-3,1.0092888E-2,-7.1876375E-3,1.5147507E-2,4.397721E-2,1.4041221E-2,2.8966896E-2,3.7535685E-3,2.2554722E-2,1.610649E-2,3.144115E-2,4.0711682E-2,2.1381253E-2],"categories":[],"categories_nodes":[],"categories_segments":[],"categories_sizes":[],"default_left":[0,0,0,0,0,0,0,0,0,0,0,0,0,0,0,0,0,0,0,0,0,0,0,0,0,0,0,0,0,0,0,0,0,0,0,0,0,0,0,0,0,0,0,0,0,0,0,0,0,0,0,0,0,0,0,0,0,0,0,0,0,0,0],"id":23,"left_children":[1,3,5,7,9,11,13,15,17,19,21,23,25,27,29,31,33,35,37,39,41,43,45,47,49,51,53,55,57,59,61,-1,-1,-1,-1,-1,-1,-1,-1,-1,-1,-1,-1,-1,-1,-1,-1,-1,-1,-1,-1,-1,-1,-1,-1,-1,-1,-1,-1,-1,-1,-1,-1],"loss_changes":[4.1312286E2,1.7044775E2,1.9450246E2,2.6782755E2,3.334712E1,6.2122986E1,5.866217E1,4.2966457E1,1.6235815E2,3.5624664E1,1.255419E1,5.8173542E1,2.0810932E1,4.8249268E1,2.3066254E1,9.5092125E0,1.4500727E1,2.9523438E1,5.3033302E1,3.362777E1,6.1377563E0,5.9846926E0,1.3719632E1,9.900421E0,3.59568E1,1.32929325E1,1.05172E1,2.328064E1,2.635054E1,2.426683E1,5.634323E0,0E0,0E0,0E0,0E0,0E0,0E0,0E0,0E0,0E0,0E0,0E0,0E0,0E0,0E0,0E0,0E0,0E0,0E0,0E0,0E0,0E0,0E0,0E0,0E0,0E0,0E0,0E0,0E0,0E0,0E0,0E0,0E0],"parents":[2147483647,0,0,1,1,2,2,3,3,4,4,5,5,6,6,7,7,8,8,9,9,10,10,11,11,12,12,13,13,14,14,15,15,16,16,17,17,18,18,19,19,20,20,21,21,22,22,23,23,24,24,25,25,26,26,27,27,28,28,29,29,30,30],"right_children":[2,4,6,8,10,12,14,16,18,20,22,24,26,28,30,32,34,36,38,40,42,44,46,48,50,52,54,56,58,60,62,-1,-1,-1,-1,-1,-1,-1,-1,-1,-1,-1,-1,-1,-1,-1,-1,-1,-1,-1,-1,-1,-1,-1,-1,-1,-1,-1,-1,-1,-1,-1,-1],"split_conditions":[4.0083808E-1,1.05559E0,1.301864E-1,-5.670278E-1,1.7001442E0,1.4928044E0,-1.635688E-1,-3.6390314E-1,1.301864E-1,2.5302336E0,-3.1312814E-1,-4.8674935E-1,2.5847707E0,-2.1679866E-1,1.8567932E0,-1.9489291E-1,-2.663598E-1,3.684931E-2,-3.2713947E-1,-6.9112825E-1,-1.3610853E0,-7.5663394E-1,-1.4052306E0,9.241107E-1,-7.261087E-1,1.5881646E0,3.3846773E-2,1.4928044E0,2.6851937E-1,1.3640579E0,3.220241E-2,-5.097969E-3,-2.6108101E-2,-3.5064078E-3,4.6251183E-3,-3.5024762E-2,-2.1698717E-2,